svm_type c_svc
kernel_type rbf
gamma 0.03125
nr_class 2
total_sv 200
rho 2.564875448493201
label 1 0
nr_sv 95 105
SV
2048 1:-0.948498 2:-0.97319 3:-0.97319 4:-0.956835 5:-0.978142 6:-0.913043 7:-0.963077 8:-0.917431 9:-0.951807 10:-0.883495 11:-0.969811 12:-0.994975 13:-0.942857 14:-0.946903 15:-0.76699 16:-0.962547 17:-0.943662 18:-0.962264 19:-0.954717 20:-0.929648 21:-0.971888 22:-0.944751 23:-0.976744 24:-1 25:-0.982609 26:-0.919598 27:-0.969849 28:-1 29:-0.990623 30:-0.943262 31:-0.914474 32:-0.845494 33:-0.978723 34:-0.945355 35:-0.922222 36:-1 37:-0.906977 38:-0.979351 39:-1 40:-1 41:-0.958702 42:-0.97048 43:-0.911765 44:-0.852941 45:-0.941176 46:-0.967611 47:-1 48:-1 49:-0.965116 50:-0.864078 51:-0.979899 52:-1 53:-0.973171 54:-0.961722 55:-1 56:-0.867853 57:-0.952128 58:-1 59:-0.922481 60:-1 61:-0.858824 62:-0.913669 63:-1 64:-1 
2048 1:-0.974249 2:-0.983914 3:-0.983914 4:-0.971223 5:-0.972678 6:-0.930435 7:-0.981538 8:-0.862385 9:-0.975904 10:-0.941748 11:-0.977358 12:-0.984925 13:-0.957143 14:-0.964602 15:-0.92233 16:-0.88764 17:-0.957746 18:-0.969811 19:-0.969811 20:-0.959799 21:-0.971888 22:-0.966851 23:-0.965116 24:-1 25:-0.982609 26:-0.979899 27:-0.959799 28:-0.9866 29:-0.997321 30:-0.943262 31:-0.973684 32:-1 33:-0.946809 34:-0.967213 35:-0.955556 36:-0.97319 37:-1 38:-0.99115 39:-0.989429 40:-1 41:-0.976401 42:-0.97048 43:-0.941176 44:-0.955882 45:-0.985294 46:-0.967611 47:-0.949686 48:-1 49:-0.976744 50:-0.902913 51:-0.969849 52:-0.974093 53:-1 54:-0.961722 55:-0.984877 56:-1 57:-1 58:-1 59:-1 60:-1 61:-0.830588 62:-0.899281 63:-1 64:-1 
2048 1:-0.879828 2:-0.967828 3:-0.957105 4:-0.94964 5:-0.945355 6:-0.843478 7:-0.938462 8:-1 9:-0.959839 10:-0.805825 11:-0.932075 12:-0.949749 13:-0.8 14:-0.938053 15:-1 16:-1 17:-0.873239 18:-0.962264 19:-0.94717 20:-0.949749 21:-0.967871 22:-0.867403 23:-0.837209 24:-0.468531 25:-0.869565 26:-0.879397 27:-0.929648 28:-0.976549 29:-0.987944 30:-0.943262 31:-0.888158 32:-1 33:-1 34:-0.901639 35:-0.855556 36:-0.951743 37:-1 38:-0.973451 39:-1 40:-1 41:-0.952802 42:-0.926199 43:-0.882353 44:-0.838235 45:-0.911765 46:-0.935223 47:-0.861635 48:-1 49:-0.889535 50:-0.650485 51:-0.899497 52:-1 53:-1 54:-1 55:-1 56:-1 57:-1 58:-1 59:-0.410853 60:-1 61:-1 62:-1 63:-1 64:-1 
2048 1:-0.965665 2:-0.978552 3:-0.978552 4:-0.978417 5:-0.972678 6:-0.947826 7:-0.993846 8:-0.944954 9:-0.975904 10:-0.902913 11:-0.969811 12:-0.98995 13:-0.942857 14:-0.955752 15:-0.902913 16:-0.977528 17:-0.957746 18:-0.962264 19:-0.969811 20:-0.949749 21:-0.987952 22:-0.966851 23:-0.94186 24:-0.93007 25:-0.956522 26:-0.98995 27:-0.949749 28:-0.9866 29:-0.995981 30:-0.943262 31:-0.960526 32:-1 33:-0.968085 34:-0.945355 35:-0.966667 36:-0.97319 37:-0.953488 38:-0.985251 39:-0.991543 40:-1 41:-0.970501 42:-0.97786 43:-0.955882 44:-0.941176 45:-0.926471 46:-0.967611 47:-0.937107 48:-0.970588 49:-0.982558 50:-0.902913 51:-0.909548 52:-0.984456 53:-1 54:-0.980861 55:-1 56:-1 57:-0.984043 58:-0.977528 59:-0.968992 60:-0.97254 61:-1 62:-0.928058 63:-1 64:-0.928571 
2048 1:-0.982833 2:-0.994638 3:-0.989276 4:-0.992806 5:-0.994536 6:-0.982609 7:-0.987692 8:-0.990826 9:-0.991968 10:-0.961165 11:-0.992453 12:-0.994975 13:-0.971429 14:-0.99115 15:-0.980583 16:-0.985019 17:-0.971831 18:-0.992453 19:-0.992453 20:-0.979899 21:-0.995984 22:-0.977901 23:-0.988372 24:-0.986014 25:-0.991304 26:-0.98995 27:-0.979899 28:-1 29:-0.997321 30:-0.971631 31:-0.993421 32:-0.969957 33:-0.978723 34:-0.989071 35:-0.988889 36:-0.983914 37:-0.937984 38:-0.99705 39:-0.995772 40:-1 41:-0.9941 42:-0.98524 43:-0.970588 44:-0.985294 45:-0.985294 46:-0.983806 47:-0.974843 48:-0.990196 49:-0.988372 50:-0.961165 51:-0.98995 52:-0.984456 53:-0.997561 54:-0.980861 55:-0.996219 56:-0.994917 57:-0.994681 58:-0.977528 59:-0.968992 60:-0.98627 61:-0.995294 62:-0.985612 63:-1 64:-1 
2048 1:-0.974249 2:-0.983914 3:-0.983914 4:-0.971223 5:-0.978142 6:-0.947826 7:-0.981538 8:-0.963303 9:-0.983936 10:-0.902913 11:-0.984906 12:-0.994975 13:-0.971429 14:-0.964602 15:-0.805825 16:-1 17:-0.943662 18:-0.969811 19:-0.984906 20:-0.959799 21:-0.995984 22:-0.966851 23:-0.965116 24:-1 25:-0.991304 26:-0.969849 27:-0.959799 28:-0.98995 29:-0.997321 30:-0.943262 31:-1 32:-0.948498 33:-0.968085 34:-0.945355 35:-0.955556 36:-0.989276 37:-1 38:-0.99115 39:-0.991543 40:-1 41:-0.982301 42:-0.98524 43:-0.955882 44:-0.941176 45:-0.926471 46:-0.975709 47:-0.974843 48:-0.960784 49:-1 50:-0.961165 51:-0.909548 52:-0.984456 53:-0.978049 54:-0.980861 55:-1 56:-1 57:-0.941489 58:-1 59:-0.937984 60:-1 61:-1 62:-0.985612 63:-0.983619 64:-1 
2048 1:-0.957082 2:-0.989276 3:-0.983914 4:-0.971223 5:-0.972678 6:-0.947826 7:-0.963077 8:-0.972477 9:-0.967871 10:-0.92233 11:-0.977358 12:-0.984925 13:-0.942857 14:-0.964602 15:-0.941748 16:-1 17:-0.971831 18:-0.969811 19:-0.969811 20:-0.959799 21:-0.975904 22:-0.966851 23:-0.965116 24:-0.972028 25:-0.973913 26:-0.969849 27:-0.959799 28:-0.98995 29:-0.99866 30:-0.943262 31:-0.980263 32:-0.974249 33:-0.978723 34:-0.956284 35:-0.955556 36:-0.962466 37:-0.984496 38:-0.99115 39:-1 40:-0.969512 41:-0.976401 42:-0.97048 43:-0.955882 44:-0.955882 45:-0.970588 46:-0.967611 47:-0.937107 48:-0.95098 49:-0.965116 50:-0.902913 51:-1 52:-0.984456 53:-0.980488 54:-0.971292 55:-1 56:-1 57:-0.984043 58:-0.947566 59:-0.860465 60:-1 61:-1 62:-0.985612 63:-1 64:-1 
2048 1:-0.957082 2:-0.989276 3:-0.978552 4:-0.956835 5:-0.972678 6:-0.930435 7:-0.950769 8:-0.917431 9:-0.967871 10:-0.92233 11:-0.954717 12:-0.98995 13:-0.971429 14:-0.955752 15:-0.92233 16:-0.902622 17:-0.915493 18:-0.954717 19:-0.969811 20:-0.939698 21:-0.983936 22:-0.966851 23:-0.988372 24:-1 25:-0.982609 26:-0.949749 27:-0.949749 28:-0.9866 29:-1 30:-0.914894 31:-0.986842 32:-1 33:-0.925532 34:-0.978142 35:-0.988889 36:-0.989276 37:-0.937984 38:-0.979351 39:-1 40:-1 41:-0.976401 42:-0.9631 43:-0.941176 44:-0.941176 45:-0.897059 46:-0.967611 47:-0.937107 48:-0.960784 49:-0.982558 50:-0.883495 51:-0.959799 52:-0.968912 53:-0.987805 54:-0.961722 55:-0.981096 56:-1 57:-1 58:-1 59:-1 60:-1 61:-1 62:-0.827338 63:-1 64:-1 
2048 1:-0.957082 2:-0.978552 3:-0.978552 4:-0.985612 5:-0.983607 6:-0.947826 7:-0.987692 8:-1 9:-0.975904 10:-0.92233 11:-0.969811 12:-0.98995 13:-0.971429 14:-0.973451 15:-0.961165 16:-0.947566 17:-0.943662 18:-0.984906 19:-0.977358 20:-0.959799 21:-0.987952 22:-0.966851 23:-0.953488 24:-0.986014 25:-0.982609 26:-0.959799 27:-0.969849 28:-1 29:-0.997321 30:-0.943262 31:-1 32:-0.961373 33:-0.968085 34:-0.934426 35:-0.988889 36:-0.97319 37:-0.906977 38:-0.99115 39:-1 40:-0.984756 41:-0.982301 42:-0.98524 43:-0.955882 44:-0.941176 45:-0.941176 46:-0.975709 47:-0.949686 48:-0.970588 49:-0.97093 50:-0.92233 51:-0.979899 52:-0.984456 53:-1 54:-0.980861 55:-0.931947 56:-1 57:-0.989362 58:-0.947566 59:-0.984496 60:-0.981693 61:-0.976471 62:-0.956835 63:-1 64:-1 
991.26226360131227 1:-0.948498 2:-0.957105 3:-0.97319 4:-0.971223 5:-0.945355 6:-0.930435 7:-0.950769 8:-1 9:-0.943775 10:-0.84466 11:-0.94717 12:-0.974874 13:-1 14:-0.964602 15:-0.92233 16:-0.932584 17:-0.971831 18:-0.94717 19:-0.962264 20:-0.949749 21:-0.975904 22:-0.933702 23:-0.94186 24:-0.944056 25:-0.973913 26:-0.889447 27:-0.939698 28:-0.9866 29:-1 30:-0.929078 31:-0.980263 32:-1 33:-0.968085 34:-1 35:-0.944444 36:-1 37:-1 38:-0.976401 39:-0.987315 40:-1 41:-0.964602 42:-0.99262 43:-0.926471 44:-0.911765 45:-0.941176 46:-0.959514 47:-0.937107 48:-0.941176 49:-0.94186 50:-0.825243 51:-0.979899 52:-0.984456 53:-0.968293 54:-0.961722 55:-0.984877 56:-0.959339 57:-1 58:-0.932584 59:-0.937984 60:-1 61:-0.882353 62:-0.913669 63:-1 64:-1 
2048 1:-1 2:-1 3:-1 4:-1 5:-1 6:-1 7:-1 8:-1 9:-1 10:-1 11:-1 12:-1 13:-1 14:-1 15:-1 16:-1 17:-1 18:-1 19:-1 20:-1 21:-1 22:-1 23:-1 24:-1 25:-1 26:-1 27:-1 28:-1 29:-1 30:-1 31:-1 32:-0.995708 33:-1 34:-1 35:-1 36:-1 37:-0.984496 38:-1 39:-1 40:-1 41:-1 42:-1 43:-1 44:-1 45:-1 46:-1 47:-1 48:-1 49:-1 50:-1 51:-1 52:-1 53:-1 54:-1 55:-1 56:-1 57:-1 58:-1 59:-1 60:-0.995423 61:-1 62:-1 63:-0.99922 64:-1 
8.3881241189825779 1:-0.699571 2:-0.710456 3:-0.619303 4:-1 5:-1 6:-0.286957 7:-0.144615 8:-1 9:-0.477912 10:-0.203883 11:-0.713208 12:-0.688442 13:-1 14:-0.495575 15:-0.165049 16:-1 17:0.15493 18:-0.856604 19:-0.456604 20:-0.557789 21:-1 22:-0.535912 23:-0.523256 24:-1 25:-0.782609 26:-0.0653266 27:-0.557789 28:-0.882747 29:-0.778969 30:-0.588652 31:-1 32:-1 33:0.234043 34:-0.213115 35:-1 36:-0.115282 37:-1 38:-1 39:-1 40:-1 41:-0.941003 42:-0.579336 43:-0.558824 44:-0.147059 45:1 46:-0.562753 47:-0.484277 48:1 49:-0.598837 50:-0.165049 51:-0.58794 52:-0.487047 53:-1 54:-0.607656 55:-1 56:-1 57:-1 58:-0.183521 59:-1 60:-1 61:-1 62:0.467626 63:-1 64:-1 
2048 1:-0.93133 2:-0.978552 3:-0.97319 4:-0.964029 5:-0.978142 6:-0.913043 7:-0.981538 8:-1 9:-0.943775 10:-0.883495 11:-0.954717 12:-0.969849 13:-0.928571 14:-0.973451 15:-0.941748 16:-0.932584 17:-0.943662 18:-0.962264 19:-0.962264 20:-0.939698 21:-0.987952 22:-0.922652 23:-0.918605 24:-0.846154 25:-0.982609 26:-0.879397 27:-0.939698 28:-0.98995 29:-0.987944 30:-0.957447 31:-1 32:-1 33:-0.914894 34:-0.923497 35:-0.955556 36:-0.967828 37:-0.813953 38:-0.9941 39:-0.983087 40:-1 41:-0.982301 42:-0.9631 43:-0.926471 44:-0.926471 45:-0.882353 46:-0.951417 47:-0.874214 48:-0.970588 49:-0.889535 50:-0.941748 51:-0.969849 52:-0.958549 53:-1 54:-1 55:-1 56:-1 57:-1 58:-0.932584 59:-0.860465 60:-1 61:-1 62:-0.899281 63:-1 64:-1 
2048 1:-0.957082 2:-0.983914 3:-0.989276 4:-0.964029 5:-0.989071 6:-0.878261 7:-0.981538 8:-0.917431 9:-0.967871 10:-0.902913 11:-0.969811 12:-0.984925 13:-0.957143 14:-0.955752 15:-0.902913 16:-1 17:-0.957746 18:-0.977358 19:-0.954717 20:-0.98995 21:-0.951807 22:-0.955801 23:-0.953488 24:-0.958042 25:-0.982609 26:-0.929648 27:-0.959799 28:-0.963149 29:-0.986604 30:-0.971631 31:-0.953947 32:-1 33:-0.93617 34:-0.978142 35:-0.911111 36:-1 37:-1 38:-0.99115 39:-0.987315 40:-1 41:-0.970501 42:-0.9631 43:-0.926471 44:-0.911765 45:-1 46:-0.975709 47:-0.962264 48:-0.921569 49:-0.97093 50:-0.902913 51:-0.959799 52:-0.963731 53:-1 54:-0.971292 55:-0.977316 56:-1 57:-0.968085 58:-0.947566 59:-1 60:-1 61:-0.887059 62:-0.971223 63:-0.99376 64:-1 
2039.4164205645225 1:-0.802575 2:-0.876676 3:-0.930295 4:-0.784173 5:-0.89071 6:-0.756522 7:-1 8:-1 9:-0.831325 10:-0.592233 11:-0.811321 12:-0.954774 13:-0.585714 14:-0.911504 15:-1 16:-1 17:-0.816901 18:-0.864151 19:-0.856604 20:-0.567839 21:-0.891566 22:-0.59116 23:-1 24:-1 25:-0.73913 26:-1 27:-0.648241 28:-0.932998 29:-0.978567 30:-0.588652 31:1 32:-1 33:-0.702128 34:-0.650273 35:-1 36:-1 37:-0.79845 38:-0.932153 39:-1 40:-1 41:-0.917404 42:-0.830258 43:-0.455882 44:-0.794118 45:-1 46:-0.748988 47:-1 48:-1 49:-1 50:-1 51:0.306533 52:-1 53:-1 54:-1 55:-1 56:-1 57:-1 58:-1 59:-1 60:-1 61:-1 62:-1 63:-1 64:-1 
2048 1:-0.948498 2:-0.978552 3:-0.951743 4:-0.985612 5:-0.972678 6:-0.878261 7:-0.981538 8:-0.880734 9:-0.935743 10:-0.864078 11:-0.94717 12:-0.949749 13:-0.957143 14:-0.946903 15:-0.883495 16:-0.940075 17:-0.915493 18:-0.916981 19:-0.954717 20:-0.939698 21:-0.951807 22:-0.944751 23:-0.906977 24:-0.958042 25:-0.965217 26:-0.929648 27:-0.959799 28:-0.98325 29:-1 30:-0.87234 31:-0.934211 32:-0.927039 33:-0.914894 34:-0.967213 35:-0.955556 36:-1 37:-1 38:-0.970501 39:-0.980973 40:-0.966463 41:-0.958702 42:-0.9631 43:-0.897059 44:-0.867647 45:-0.897059 46:-0.951417 47:-0.924528 48:-0.95098 49:-0.982558 50:-0.883495 51:-0.929648 52:-0.948187 53:-0.978049 54:-0.933014 55:-0.965974 56:-1 57:-0.930851 58:-0.940075 59:-0.906977 60:-1 61:-0.948235 62:-0.899281 63:-1 64:-1 
2048 1:-0.939914 2:-0.978552 3:-0.983914 4:-0.964029 5:-0.994536 6:-0.930435 7:-0.975385 8:-1 9:-0.983936 10:-0.864078 11:-0.977358 12:-0.979899 13:-0.928571 14:-0.973451 15:-0.961165 16:-1 17:-0.957746 18:-0.977358 19:-0.969811 20:-0.969849 21:-0.983936 22:-0.944751 23:-0.94186 24:-1 25:-0.991304 26:-0.969849 27:-0.929648 28:-0.9866 29:-0.997321 30:-0.943262 31:-0.967105 32:-1 33:-0.957447 34:-0.956284 35:-0.933333 36:-1 37:-1 38:-0.99115 39:-0.983087 40:-1 41:-0.970501 42:-0.97786 43:-0.941176 44:-0.926471 45:-0.926471 46:-0.967611 47:-0.949686 48:-0.852941 49:-0.97093 50:-0.902913 51:-0.959799 52:-1 53:-0.987805 54:-0.961722 55:-0.992439 56:-1 57:-1 58:-1 59:-1 60:-1 61:-1 62:-0.784173 63:-1 64:-1 
2048 1:-0.974249 2:-0.994638 3:-0.983914 4:-0.992806 5:-0.989071 6:-0.965217 7:-0.987692 8:-0.990826 9:-0.983936 10:-0.941748 11:-0.984906 12:-0.98995 13:-0.985714 14:-0.982301 15:-0.961165 16:-0.985019 17:-0.971831 18:-0.984906 19:-0.984906 20:-0.979899 21:-0.991968 22:-0.977901 23:-0.976744 24:-0.972028 25:-1 26:-0.979899 27:-0.979899 28:-0.98995 29:-1 30:-0.971631 31:-0.986842 32:-1 33:-0.978723 34:-0.978142 35:-0.977778 36:-0.994638 37:-0.984496 38:-0.99705 39:-0.991543 40:-1 41:-0.988201 42:-0.98524 43:-0.970588 44:-0.970588 45:-0.970588 46:-0.983806 47:-0.987421 48:-0.970588 49:-1 50:-0.941748 51:-0.979899 52:-0.989637 53:-0.997561 54:-0.980861 55:-0.981096 56:-1 57:-0.994681 58:-0.977528 59:-1 60:-1 61:-0.985882 62:-0.956835 63:-0.99844 64:-0.988479 
2048 1:-0.974249 2:-0.983914 3:-0.989276 4:-0.985612 5:-0.983607 6:-0.947826 7:-0.981538 8:-0.963303 9:-0.983936 10:-0.92233 11:-0.977358 12:-0.979899 13:-0.942857 14:-0.982301 15:-0.92233 16:-0.985019 17:-0.957746 18:-0.977358 19:-0.977358 20:-0.979899 21:-0.987952 22:-0.966851 23:-0.976744 24:-1 25:-0.991304 26:-0.969849 27:-0.969849 28:-0.9866 29:-0.994642 30:-0.957447 31:-0.993421 32:-0.965665 33:-0.978723 34:-0.967213 35:-0.966667 36:-1 37:-1 38:-0.988201 39:-0.995772 40:-1 41:-0.982301 42:-0.97786 43:-0.955882 44:-0.955882 45:-0.970588 46:-0.975709 47:-0.974843 48:-0.970588 49:-0.988372 50:-0.961165 51:-0.979899 52:-0.979275 53:-0.992683 54:-0.971292 55:-0.988658 56:-0.992376 57:-0.989362 58:-0.985019 59:-1 60:-0.981693 61:-1 62:-0.956835 63:-0.98986 64:-0.97235 
619.56876407500499 1:-0.965665 2:-0.983914 3:-0.97319 4:-0.964029 5:-0.983607 6:-0.913043 7:-0.987692 8:-0.93578 9:-0.975904 10:-0.883495 11:-0.962264 12:-0.98995 13:-0.942857 14:-0.955752 15:-0.864078 16:-1 17:-0.929577 18:-0.962264 19:-0.962264 20:-0.959799 21:-0.987952 22:-0.955801 23:-0.94186 24:-0.958042 25:-0.930435 26:-0.949749 27:-0.949749 28:-0.976549 29:-1 30:-0.957447 31:-0.973684 32:-1 33:-0.968085 34:-0.879781 35:-0.977778 36:-0.914209 37:-0.79845 38:-0.988201 39:-1 40:-0.957317 41:-0.970501 42:-0.98524 43:-0.941176 44:-0.941176 45:-0.926471 46:-0.94332 47:-0.937107 48:-0.921569 49:-0.97093 50:-0.864078 51:-0.959799 52:-0.979275 53:-0.978049 54:-0.971292 55:-0.973535 56:-0.987294 57:-1 58:-0.970037 59:-0.953488 60:-0.97254 61:-0.934118 62:-0.884892 63:-0.9961 64:-0.965438 
2048 1:-0.965665 2:-0.967828 3:-0.967828 4:-0.978417 5:-0.967213 6:-0.930435 7:-0.956923 8:-0.926606 9:-0.967871 10:-0.902913 11:-0.954717 12:-0.974874 13:-0.914286 14:-0.964602 15:-0.805825 16:-0.932584 17:-0.915493 18:-0.977358 19:-0.962264 20:-0.969849 21:-0.983936 22:-0.944751 23:-0.953488 24:-0.888112 25:-0.956522 26:-0.929648 27:-0.949749 28:-1 29:-1 30:-0.929078 31:-0.934211 32:-0.961373 33:-0.978723 34:-0.89071 35:-0.955556 36:-0.951743 37:-0.922481 38:-0.985251 39:-0.987315 40:-1 41:-0.970501 42:-0.9631 43:-0.926471 44:-0.911765 45:-0.911765 46:-0.959514 47:-0.962264 48:-0.980392 49:-0.97093 50:-0.902913 51:-0.959799 52:-0.974093 53:-0.985366 54:-0.942584 55:-1 56:-1 57:-0.957447 58:-0.932584 59:-0.953488 60:-0.91762 61:-1 62:-0.942446 63:-1 64:-1 
2048 1:-0.871245 2:-0.946381 3:-0.97319 4:-0.906475 5:-0.879781 6:-0.86087 7:-0.963077 8:-0.752294 9:-0.991968 10:-0.883495 11:-0.879245 12:-0.919598 13:-1 14:-0.902655 15:-0.92233 16:-1 17:-0.802817 18:-0.932075 19:-0.939623 20:-0.879397 21:-0.927711 22:-0.911602 23:-0.953488 24:-0.776224 25:-0.886957 26:-0.979899 27:-0.919598 28:-0.98995 29:-0.975887 30:-0.77305 31:-1 32:-1 33:-0.925532 34:-0.89071 35:-0.955556 36:-1 37:-1 38:-0.952802 39:-0.953488 40:-1 41:-0.946903 42:-0.904059 43:-0.867647 44:-0.882353 45:-0.926471 46:-0.935223 47:-0.748428 48:-0.901961 49:-0.965116 50:-0.669903 51:-0.738693 52:-1 53:-1 54:-0.980861 55:-1 56:-1 57:-1 58:-1 59:-1 60:-1 61:-1 62:-0.582734 63:-1 64:-1 
2048 1:-0.957082 2:-0.978552 3:-0.97319 4:-0.942446 5:-1 6:-0.930435 7:-0.987692 8:-0.954128 9:-0.959839 10:-0.941748 11:-0.962264 12:-0.98995 13:-0.957143 14:-0.964602 15:-0.902913 16:-0.970037 17:-0.971831 18:-0.969811 19:-0.969811 20:-0.949749 21:-0.975904 22:-0.944751 23:-0.965116 24:-0.916084 25:-0.947826 26:-0.979899 27:-0.969849 28:-0.979899 29:-0.990623 30:-0.929078 31:-0.986842 32:-0.978541 33:-0.914894 34:-0.945355 35:-0.966667 36:-1 37:-0.875969 38:-0.9941 39:-0.991543 40:-0.966463 41:-0.982301 42:-0.9631 43:-0.941176 44:-0.955882 45:-0.955882 46:-0.967611 47:-0.937107 48:-0.980392 49:-0.982558 50:-0.864078 51:-0.959799 52:-0.989637 53:-0.982927 54:-0.971292 55:-0.984877 56:-1 57:-0.946809 58:-0.955056 59:-1 60:-0.935927 61:-0.971765 62:-0.985612 63:-0.9961 64:-1 
2048 1:-0.991416 2:-0.994638 3:-0.994638 4:-0.992806 5:-0.994536 6:-0.982609 7:-0.993846 8:-1 9:-0.991968 10:-0.980583 11:-0.992453 12:-0.994975 13:-1 14:-0.99115 15:-0.980583 16:-0.992509 17:-0.985915 18:-0.992453 19:-0.992453 20:-0.98995 21:-0.991968 22:-0.98895 23:-0.988372 24:-0.986014 25:-0.991304 26:-0.98995 27:-0.98995 28:-1 29:-0.99866 30:-0.985816 31:-0.993421 32:-0.991416 33:-0.989362 34:-0.989071 35:-0.977778 36:-0.989276 37:-0.968992 38:-0.99705 39:-1 40:-0.996951 41:-0.9941 42:-0.99262 43:-0.985294 44:-1 45:-0.985294 46:-0.991903 47:-0.987421 48:-0.980392 49:-0.994186 50:-0.980583 51:-0.98995 52:-0.994819 53:-0.997561 54:-0.980861 55:-0.996219 56:-1 57:-1 58:-0.992509 59:-0.968992 60:-0.990847 61:-0.995294 62:-0.985612 63:-0.99922 64:-1 
2048 1:-0.974249 2:-0.989276 3:-0.983914 4:-0.985612 5:-0.989071 6:-0.947826 7:-0.981538 8:-0.972477 9:-0.983936 10:-0.92233 11:-0.977358 12:-0.994975 13:-0.971429 14:-0.982301 15:-0.941748 16:-0.992509 17:-0.943662 18:-0.977358 19:-0.977358 20:-0.959799 21:-0.991968 22:-0.977901 23:-0.988372 24:-0.972028 25:-0.982609 26:-0.979899 27:-0.969849 28:-0.9933 29:-0.995981 30:-0.957447 31:-0.986842 32:-0.987124 33:-0.978723 34:-0.956284 35:-0.966667 36:-0.983914 37:-0.968992 38:-0.9941 39:-0.989429 40:-1 41:-0.988201 42:-0.98524 43:-0.970588 44:-0.970588 45:-0.955882 46:-0.975709 47:-0.962264 48:-0.970588 49:-0.994186 50:-0.961165 51:-0.969849 52:-0.984456 53:-0.995122 54:-0.971292 55:-0.984877 56:-0.994917 57:-0.978723 58:-1 59:-0.984496 60:-0.98627 61:-1 62:-0.942446 63:-0.99844 64:-1 
1005.6270071971123 1:-0.948498 2:-0.957105 3:-0.941019 4:-0.971223 5:-0.983607 6:-0.808696 7:-0.963077 8:-1 9:-0.927711 10:-0.805825 11:-0.939623 12:-0.959799 13:-0.9 14:-0.938053 15:-0.902913 16:-1 17:-0.915493 18:-0.94717 19:-0.939623 20:-0.859296 21:-0.935743 22:-0.900552 23:-0.883721 24:-0.51049 25:-0.982609 26:-0.919598 27:-0.859296 28:-1 29:-0.978567 30:-0.87234 31:-0.881579 32:-1 33:-0.851064 34:-0.978142 35:-0.9 36:-0.871314 37:-1 38:-0.976401 39:-1 40:-1 41:-0.917404 42:-0.933579 43:-0.911765 44:-0.897059 45:-0.882353 46:-0.951417 47:-0.924528 48:-1 49:-0.965116 50:-0.68932 51:-0.949749 52:-1 53:-1 54:-0.942584 55:-0.776938 56:-1 57:-1 58:-0.715356 59:-1 60:-1 61:-1 62:-1 63:-1 64:-1 
1701.5395532432208 1:-0.896996 2:-0.941019 3:-0.919571 4:-0.798561 5:-0.928962 6:-0.808696 7:-1 8:-0.633028 9:-0.84739 10:-0.747573 11:-0.924528 12:-0.974874 13:-0.8 14:-0.831858 15:-0.76699 16:-1 17:-0.746479 18:-0.89434 19:-0.901887 20:-0.909548 21:-0.955823 22:-0.834254 23:-0.837209 24:-1 25:-0.93913 26:-0.809045 27:-0.909548 28:-0.872697 29:-1 30:-0.787234 31:-0.796053 32:-1 33:-0.787234 34:-0.945355 35:-0.811111 36:-0.871314 37:-0.643411 38:-0.976401 39:-1 40:-0.789634 41:-0.941003 42:-0.881919 43:-0.779412 44:-0.867647 45:-0.764706 46:-0.902834 47:-0.735849 48:-0.843137 49:-1 50:-0.76699 51:-0.788945 52:-0.839378 53:-1 54:-0.866029 55:-1 56:-1 57:-1 58:-1 59:-0.488372 60:-1 61:-0.675294 62:-1 63:-1 64:-1 
2048 1:-0.982833 2:-0.989276 3:-0.994638 4:-0.985612 5:-0.994536 6:-0.982609 7:-0.993846 8:-1 9:-0.991968 10:-0.961165 11:-0.992453 12:-0.98995 13:-0.971429 14:-0.99115 15:-0.980583 16:-1 17:-0.971831 18:-0.992453 19:-0.984906 20:-0.98995 21:-0.995984 22:-0.98895 23:-0.976744 24:-0.972028 25:-1 26:-0.979899 27:-0.98995 28:-0.99665 29:-1 30:-0.971631 31:-0.973684 32:-1 33:-0.989362 34:-0.989071 35:-0.988889 36:-0.994638 37:-0.968992 38:-0.9941 39:-1 40:-1 41:-0.988201 42:-0.99262 43:-0.985294 44:-0.985294 45:-0.985294 46:-0.991903 47:-0.987421 48:-0.970588 49:-1 50:-0.961165 51:-0.98995 52:-0.994819 53:-1 54:-0.980861 55:-0.984877 56:-0.97967 57:-0.994681 58:-0.977528 59:-1 60:-1 61:-0.962353 62:-0.985612 63:-1 64:-1 
2048 1:-1 2:-1 3:-1 4:-1 5:-1 6:-1 7:-0.993846 8:-1 9:-1 10:-1 11:-1 12:-0.994975 13:-1 14:-1 15:-0.980583 16:-1 17:-1 18:-1 19:-1 20:-1 21:-1 22:-1 23:-1 24:-1 25:-1 26:-1 27:-1 28:-0.99665 29:-1 30:-1 31:-1 32:-0.995708 33:-1 34:-1 35:-1 36:-1 37:-0.984496 38:-0.99705 39:-1 40:-1 41:-1 42:-1 43:-1 44:-1 45:-0.985294 46:-1 47:-1 48:-0.990196 49:-0.994186 50:-0.980583 51:-1 52:-1 53:-1 54:-1 55:-1 56:-0.997459 57:-1 58:-0.992509 59:-0.984496 60:-0.995423 61:-1 62:-1 63:-1 64:-1 
2048 1:-0.965665 2:-0.978552 3:-0.983914 4:-0.978417 5:-0.95082 6:-0.895652 7:-0.981538 8:-0.917431 9:-0.959839 10:-0.92233 11:-0.954717 12:-1 13:-0.914286 14:-0.964602 15:-0.92233 16:-0.940075 17:-0.957746 18:-0.962264 19:-0.962264 20:-0.949749 21:-0.987952 22:-0.944751 23:-0.965116 24:-1 25:-0.956522 26:-0.959799 27:-0.949749 28:-0.959799 29:-1 30:-0.943262 31:-0.921053 32:-1 33:-0.914894 34:-0.934426 35:-0.955556 36:-0.951743 37:-0.922481 38:-0.9941 39:-1 40:-1 41:-0.964602 42:-0.9631 43:-0.926471 44:-0.941176 45:-0.955882 46:-0.967611 47:-0.937107 48:-0.95098 49:-0.988372 50:-0.883495 51:-0.969849 52:-0.937824 53:-0.985366 54:-0.961722 55:-0.935728 56:-1 57:-1 58:-0.940075 59:-1 60:-0.858124 61:-1 62:-0.928058 63:-1 64:-1 
2048 1:-1 2:-1 3:-1 4:-1 5:-1 6:-1 7:-1 8:-1 9:-1 10:-1 11:-1 12:-1 13:-1 14:-1 15:-1 16:-1 17:-1 18:-1 19:-1 20:-1 21:-1 22:-1 23:-1 24:-1 25:-1 26:-1 27:-1 28:-1 29:-1 30:-1 31:-1 32:-1 33:-1 34:-1 35:-1 36:-1 37:-1 38:-1 39:-1 40:-1 41:-1 42:-1 43:-1 44:-1 45:-1 46:-1 47:-1 48:-1 49:-1 50:-1 51:-1 52:-1 53:-1 54:-1 55:-1 56:-1 57:-1 58:-1 59:-1 60:-1 61:-1 62:-1 63:-1 64:-1 
2048 1:-0.957082 2:-0.978552 3:-0.989276 4:-0.985612 5:-0.989071 6:-0.965217 7:-0.975385 8:-0.954128 9:-0.967871 10:-0.941748 11:-0.984906 12:-0.974874 13:-0.957143 14:-0.973451 15:-0.941748 16:-0.992509 17:-0.971831 18:-0.992453 19:-0.977358 20:-0.959799 21:-0.97992 22:-0.955801 23:-0.988372 24:-0.972028 25:-0.973913 26:-0.959799 27:-0.959799 28:-0.98995 29:-0.994642 30:-0.985816 31:-0.953947 32:-1 33:-0.946809 34:-0.989071 35:-0.955556 36:-0.983914 37:-0.79845 38:-0.99705 39:-0.991543 40:-0.981707 41:-0.982301 42:-0.97786 43:-0.955882 44:-0.970588 45:-0.985294 46:-0.975709 47:-0.962264 48:-0.970588 49:-0.988372 50:-0.941748 51:-0.959799 52:-0.994819 53:-1 54:-0.971292 55:-0.984877 56:-0.992376 57:-0.989362 58:-0.970037 59:-0.953488 60:-0.981693 61:-1 62:-0.971223 63:-0.99766 64:-0.960829 
2048 1:-0.991416 2:-0.994638 3:-0.994638 4:-1 5:-0.994536 6:-0.982609 7:-0.993846 8:-1 9:-0.991968 10:-0.980583 11:-0.992453 12:-0.994975 13:-0.985714 14:-0.99115 15:-0.980583 16:-1 17:-0.985915 18:-0.992453 19:-0.992453 20:-0.98995 21:-0.995984 22:-0.98895 23:-0.988372 24:-0.986014 25:-1 26:-0.98995 27:-0.98995 28:-0.99665 29:-0.997321 30:-1 31:-1 32:-0.995708 33:-0.989362 34:-0.989071 35:-1 36:-0.994638 37:-1 38:-0.99705 39:-0.997886 40:-1 41:-0.9941 42:-0.99262 43:-0.985294 44:-0.985294 45:-1 46:-0.991903 47:-0.987421 48:-0.990196 49:-1 50:-0.980583 51:-0.98995 52:-1 53:-0.992683 54:-0.990431 55:-0.996219 56:-1 57:-1 58:-0.992509 59:-1 60:-0.995423 61:-1 62:-0.985612 63:-0.99922 64:-1 
71.876964929381344 1:-0.896996 2:-0.924933 3:-0.967828 4:-0.956835 5:-0.945355 6:-0.756522 7:-0.932308 8:-1 9:-0.879518 10:-0.728155 11:-0.962264 12:-0.949749 13:-0.914286 14:-0.920354 15:-0.76699 16:-0.64794 17:-0.859155 18:-0.924528 19:-0.909434 20:-0.849246 21:-0.935743 22:-0.900552 23:-0.744186 24:-1 25:-0.965217 26:-0.879397 27:-0.778894 28:-0.922948 29:-0.991962 30:-0.829787 31:-1 32:-1 33:-0.957447 34:-0.956284 35:-0.644444 36:-0.967828 37:-0.674419 38:-0.952802 39:-1 40:-1 41:-0.917404 42:-0.940959 43:-0.794118 44:-0.794118 45:-0.808824 46:-0.919028 47:-0.823899 48:-1 49:-1 50:-1 51:-0.778894 52:-0.818653 53:-1 54:-0.722488 55:-1 56:-1 57:-1 58:-0.827715 59:-1 60:-1 61:-0.637647 62:-1 63:-1 64:-1 
2048 1:-0.982833 2:-0.994638 3:-0.994638 4:-0.992806 5:-1 6:-0.982609 7:-0.987692 8:-1 9:-0.991968 10:-0.980583 11:-0.992453 12:-0.994975 13:-0.985714 14:-0.99115 15:-0.980583 16:-1 17:-0.985915 18:-0.992453 19:-0.992453 20:-0.979899 21:-0.995984 22:-0.98895 23:-0.976744 24:-0.93007 25:-0.991304 26:-0.98995 27:-0.98995 28:-0.99665 29:-0.995981 30:-0.971631 31:-0.993421 32:-1 33:-0.989362 34:-0.978142 35:-0.988889 36:-0.994638 37:-0.968992 38:-0.99705 39:-0.993658 40:-1 41:-0.9941 42:-0.99262 43:-0.985294 44:-0.970588 45:-0.970588 46:-0.991903 47:-0.987421 48:-1 49:-0.994186 50:-0.980583 51:-0.98995 52:-0.994819 53:-1 54:-0.980861 55:-1 56:-1 57:-1 58:-1 59:-1 60:-1 61:-1 62:-0.928058 63:-1 64:-1 
32.060570588867357 1:0.11588 2:-0.892761 3:-0.86059 4:-1 5:-1 6:0.0434783 7:-1 8:-1 9:-0.678715 10:0.436893 11:-0.909434 12:0.00502513 13:-0.514286 14:-0.840708 15:0.398058 16:-0.745318 17:-0.633803 18:-0.864151 19:-0.615094 20:-0.738693 21:-0.819277 22:-0.502762 23:-0.453488 24:-1 25:-0.243478 26:-0.59799 27:-0.477387 28:-1 29:-1 30:-0.432624 31:-1 32:-1 33:-0.212766 34:-0.245902 35:-0.755556 36:-1 37:-1 38:-0.899705 39:-1 40:-0.609756 41:-0.823009 42:-0.726937 43:-0.294118 44:-1 45:-0.235294 46:-0.716599 47:-0.54717 48:-0.323529 49:-1 50:-0.533981 51:-0.688442 52:-1 53:-0.782927 54:-0.54067 55:-0.765595 56:-0.773825 57:-1 58:-0.483146 59:-0.302326 60:-1 61:-1 62:-0.251799 63:-1 64:-1 
2048 1:-0.974249 2:-0.989276 3:-0.994638 4:-0.985612 5:-1 6:-0.965217 7:-0.987692 8:-0.981651 9:-0.991968 10:-0.961165 11:-0.984906 12:-0.994975 13:-0.985714 14:-0.982301 15:-0.961165 16:-0.992509 17:-0.971831 18:-0.992453 19:-0.984906 20:-0.979899 21:-0.987952 22:-0.98895 23:-0.976744 24:-0.958042 25:-0.982609 26:-0.969849 27:-0.98995 28:-0.9933 29:-0.995981 30:-0.971631 31:-0.980263 32:-0.991416 33:-0.989362 34:-0.978142 35:-0.977778 36:-0.989276 37:-0.968992 38:-0.99705 39:-0.995772 40:-1 41:-0.988201 42:-0.98524 43:-0.970588 44:-0.985294 45:-0.970588 46:-0.983806 47:-0.974843 48:-0.980392 49:-0.982558 50:-0.961165 51:-0.98995 52:-0.989637 53:-1 54:-0.980861 55:-0.996219 56:-1 57:-0.989362 58:-0.992509 59:-0.984496 60:-0.977117 61:-0.990588 62:-0.971223 63:-1 64:-1 
2048 1:-0.974249 2:-0.994638 3:-0.978552 4:-0.985612 5:-0.983607 6:-0.947826 7:-0.981538 8:-0.981651 9:-0.983936 10:-0.92233 11:-0.984906 12:-0.994975 13:-0.971429 14:-0.982301 15:-0.961165 16:-0.977528 17:-0.943662 18:-0.984906 19:-0.984906 20:-0.979899 21:-0.991968 22:-0.977901 23:-0.976744 24:-0.958042 25:-0.973913 26:-0.98995 27:-0.969849 28:-0.98995 29:-0.995981 30:-0.957447 31:-0.986842 32:-0.987124 33:-0.968085 34:-0.978142 35:-0.966667 36:-0.983914 37:-0.953488 38:-0.9941 39:-0.991543 40:-1 41:-0.988201 42:-0.97786 43:-0.970588 44:-0.955882 45:-0.955882 46:-0.983806 47:-0.962264 48:-0.970588 49:-0.994186 50:-0.92233 51:-0.979899 52:-0.989637 53:-1 54:-0.971292 55:-0.973535 56:-0.989835 57:-0.989362 58:-0.985019 59:-0.968992 60:-0.967963 61:-0.995294 62:-0.956835 63:-1 64:-0.993088 
2042.1949187208045 1:-0.957082 2:-0.983914 3:-0.967828 4:-0.94964 5:-0.967213 6:-0.947826 7:-0.975385 8:-1 9:-0.967871 10:-0.883495 11:-0.962264 12:-0.994975 13:-0.928571 14:-0.973451 15:-0.941748 16:-1 17:-0.929577 18:-0.969811 19:-0.969811 20:-0.969849 21:-0.987952 22:-0.944751 23:-0.918605 24:-1 25:-0.93913 26:-0.959799 27:-0.959799 28:-0.976549 29:-0.994642 30:-0.929078 31:-1 32:-1 33:-0.978723 34:-0.978142 35:-0.955556 36:-0.892761 37:-1 38:-0.985251 39:-0.985201 40:-1 41:-0.976401 42:-0.97048 43:-0.941176 44:-0.941176 45:-0.911765 46:-0.959514 47:-0.962264 48:-0.852941 49:-0.965116 50:-0.864078 51:-0.939698 52:-1 53:-0.987805 54:-0.980861 55:-0.992439 56:-1 57:-1 58:-0.820225 59:-1 60:-1 61:-1 62:-1 63:-1 64:-1 
2048 1:-0.991416 2:-0.994638 3:-0.994638 4:-0.985612 5:-0.994536 6:-0.982609 7:-0.987692 8:-0.981651 9:-0.991968 10:-0.961165 11:-0.992453 12:-0.98995 13:-0.985714 14:-0.99115 15:-0.980583 16:-0.985019 17:-0.985915 18:-0.992453 19:-0.992453 20:-0.98995 21:-0.991968 22:-0.98895 23:-0.976744 24:-1 25:-0.982609 26:-0.98995 27:-0.98995 28:-0.9933 29:-0.997321 30:-0.985816 31:-0.993421 32:-0.987124 33:-0.989362 34:-0.989071 35:-0.988889 36:-0.983914 37:-0.968992 38:-0.99705 39:-1 40:-1 41:-0.9941 42:-0.99262 43:-0.985294 44:-0.985294 45:-0.985294 46:-0.991903 47:-0.974843 48:-0.990196 49:-0.994186 50:-0.980583 51:-0.979899 52:-0.994819 53:-0.997561 54:-0.990431 55:-0.996219 56:-0.994917 57:-0.989362 58:-0.977528 59:-0.984496 60:-0.995423 61:-0.995294 62:-1 63:-1 64:-1 
289.85599147647554 1:-0.965665 2:-0.962466 3:-0.983914 4:-0.985612 5:-0.961749 6:-0.913043 7:-0.975385 8:-1 9:-0.951807 10:-0.902913 11:-0.939623 12:-0.984925 13:-0.971429 14:-0.964602 15:-0.980583 16:-1 17:-0.943662 18:-0.94717 19:-0.977358 20:-0.939698 21:-0.983936 22:-0.955801 23:-0.976744 24:-1 25:-0.982609 26:-0.969849 27:-0.959799 28:-0.953099 29:-0.990623 30:-0.957447 31:-0.934211 32:-1 33:-0.957447 34:-0.956284 35:-0.933333 36:-0.989276 37:-0.829457 38:-0.985251 39:-0.970402 40:-1 41:-0.946903 42:-0.97786 43:-0.970588 44:-0.955882 45:-0.911765 46:-0.94332 47:-0.861635 48:-1 49:-0.976744 50:-0.961165 51:-0.929648 52:-0.984456 53:-1 54:-0.866029 55:-1 56:-0.621347 57:-1 58:-1 59:-1 60:-0.82151 61:-1 62:-1 63:-1 64:-1 
397.04190781534055 1:-0.939914 2:-0.951743 3:-0.941019 4:-0.928058 5:-0.934426 6:-0.826087 7:-1 8:-0.853211 9:-0.943775 10:-0.805825 11:-0.916981 12:-0.964824 13:-0.885714 14:-0.911504 15:-0.417476 16:-1 17:-0.84507 18:-0.962264 19:-0.939623 20:-0.859296 21:-0.943775 22:-0.889503 23:-1 24:-0.496503 25:-0.947826 26:-0.859296 27:-0.929648 28:-0.943049 29:-0.977227 30:-0.914894 31:-1 32:-1 33:-0.776596 34:-0.967213 35:-0.966667 36:-0.908847 37:-0.627907 38:-0.979351 39:-1 40:-1 41:-0.935103 42:-0.911439 43:-0.867647 44:-0.926471 45:-0.970588 46:-0.927126 47:-0.886792 48:-1 49:-0.930233 50:-0.61165 51:-1 52:-1 53:-1 54:-0.913876 55:-1 56:-1 57:-1 58:-0.902622 59:-0.44186 60:-1 61:-1 62:-1 63:-1 64:-1 
2048 1:-0.982833 2:-0.989276 3:-0.989276 4:-0.985612 5:-0.989071 6:-0.965217 7:-0.993846 8:-0.944954 9:-0.983936 10:-0.961165 11:-0.977358 12:-0.98995 13:-0.971429 14:-0.982301 15:-0.961165 16:-1 17:-0.971831 18:-0.984906 19:-0.984906 20:-0.959799 21:-0.987952 22:-0.977901 23:-0.953488 24:-0.972028 25:-0.973913 26:-0.979899 27:-0.979899 28:-0.98995 29:-0.995981 30:-0.971631 31:-0.986842 32:-1 33:-0.968085 34:-0.978142 35:-0.977778 36:-0.994638 37:-0.937984 38:-0.9941 39:-1 40:-0.97561 41:-0.982301 42:-0.98524 43:-0.970588 44:-0.970588 45:-0.970588 46:-0.983806 47:-0.949686 48:-1 49:-0.988372 50:-0.961165 51:-0.959799 52:-1 53:-1 54:-0.980861 55:-1 56:-1 57:-0.978723 58:-0.970037 59:-1 60:-1 61:-1 62:-1 63:-0.985959 64:-1 
2048 1:-0.914163 2:-0.941019 3:-0.962466 4:-0.971223 5:-0.983607 6:-0.895652 7:-0.950769 8:-1 9:-0.967871 10:-0.864078 11:-0.94717 12:-0.949749 13:-0.9 14:-0.902655 15:-0.941748 16:-1 17:-0.915493 18:-0.954717 19:-0.939623 20:-0.929648 21:-0.971888 22:-0.911602 23:-0.94186 24:-0.832168 25:-0.965217 26:-0.899497 27:-0.899497 28:-0.979899 29:-0.995981 30:-0.886525 31:-0.940789 32:-1 33:-0.914894 34:-0.956284 35:-0.944444 36:-0.983914 37:-0.813953 38:-0.979351 39:-0.978858 40:-0.95122 41:-0.958702 42:-0.9631 43:-0.897059 44:-0.882353 45:-0.897059 46:-0.951417 47:-0.849057 48:-0.862745 49:-0.936047 50:-0.84466 51:-0.919598 52:-0.92228 53:-0.982927 54:-1 55:-1 56:-1 57:-1 58:-0.88764 59:-1 60:-1 61:-0.849412 62:-1 63:-1 64:-1 
2048 1:-0.982833 2:-0.994638 3:-0.994638 4:-0.985612 5:-0.994536 6:-0.982609 7:-0.993846 8:-0.990826 9:-0.991968 10:-0.961165 11:-0.992453 12:-0.98995 13:-0.985714 14:-0.99115 15:-0.980583 16:-0.985019 17:-0.985915 18:-0.992453 19:-0.984906 20:-0.98995 21:-0.995984 22:-0.98895 23:-0.976744 24:-1 25:-0.991304 26:-0.98995 27:-0.98995 28:-0.99665 29:-0.995981 30:-0.985816 31:-0.993421 32:-0.987124 33:-0.989362 34:-0.989071 35:-0.988889 36:-0.989276 37:-0.968992 38:-0.99705 39:-0.997886 40:-0.993902 41:-0.9941 42:-0.99262 43:-0.985294 44:-0.985294 45:-0.985294 46:-0.991903 47:-0.974843 48:-0.990196 49:-0.994186 50:-0.980583 51:-0.979899 52:-0.994819 53:-0.997561 54:-0.990431 55:-0.996219 56:-0.994917 57:-0.989362 58:-0.977528 59:-0.984496 60:-0.995423 61:-0.995294 62:-1 63:-1 64:-1 
2048 1:-0.948498 2:-0.951743 3:-0.978552 4:-0.956835 5:-0.956284 6:-0.86087 7:-0.944615 8:-1 9:-0.935743 10:-0.883495 11:-0.94717 12:-0.964824 13:-0.857143 14:-0.946903 15:-0.825243 16:-0.940075 17:-0.873239 18:-0.939623 19:-0.962264 20:-0.929648 21:-0.971888 22:-0.922652 23:-0.94186 24:-1 25:-0.921739 26:-0.939698 27:-0.919598 28:-0.9933 29:-0.986604 30:-0.929078 31:-0.901316 32:-0.944206 33:-0.93617 34:-0.956284 35:-0.877778 36:-0.962466 37:-1 38:-0.979351 39:-0.976744 40:-0.945122 41:-0.970501 42:-0.95572 43:-0.867647 44:-0.867647 45:-0.911765 46:-0.94332 47:-0.949686 48:-0.911765 49:-0.959302 50:-0.786408 51:-0.939698 52:-0.958549 53:-0.987805 54:-0.942584 55:-0.977316 56:-1 57:-1 58:-1 59:-1 60:-0.940503 61:-0.915294 62:-0.81295 63:-1 64:-0.829493 
2048 1:-0.991416 2:-1 3:-1 4:-1 5:-1 6:-1 7:-1 8:-1 9:-1 10:-1 11:-1 12:-1 13:-0.985714 14:-1 15:-1 16:-1 17:-1 18:-1 19:-1 20:-0.98995 21:-1 22:-1 23:-1 24:-1 25:-1 26:-0.98995 27:-1 28:-0.99665 29:-1 30:-1 31:-1 32:-0.995708 33:-1 34:-1 35:-1 36:-1 37:-1 38:-1 39:-1 40:-1 41:-1 42:-1 43:-1 44:-1 45:-1 46:-1 47:-0.987421 48:-1 49:-1 50:-1 51:-1 52:-1 53:-1 54:-1 55:-0.996219 56:-0.994917 57:-1 58:-1 59:-1 60:-1 61:-1 62:-1 63:-0.99922 64:-0.997696 
2048 1:-0.974249 2:-0.97319 3:-0.983914 4:-0.992806 5:-0.994536 6:-0.947826 7:-0.969231 8:-0.972477 9:-0.983936 10:-0.902913 11:-0.969811 12:-0.994975 13:-0.957143 14:-0.973451 15:-0.941748 16:-0.977528 17:-0.957746 18:-0.977358 19:-0.969811 20:-0.979899 21:-0.991968 22:-0.966851 23:-0.965116 24:-0.958042 25:-0.991304 26:-0.969849 27:-0.949749 28:-0.973199 29:-0.997321 30:-0.971631 31:-0.986842 32:-0.982833 33:-0.978723 34:-0.989071 35:-0.955556 36:-0.962466 37:-0.937984 38:-0.99115 39:-0.995772 40:-0.987805 41:-0.976401 42:-0.98524 43:-0.970588 44:-0.955882 45:-0.941176 46:-0.975709 47:-0.974843 48:-0.980392 49:-0.988372 50:-0.902913 51:-0.98995 52:-0.974093 53:-0.990244 54:-0.961722 55:-0.992439 56:-0.989835 57:-0.984043 58:-1 59:-0.937984 60:-0.981693 61:-1 62:-0.956835 63:-0.99688 64:-0.983871 
2048 1:-0.888412 2:-0.962466 3:-0.962466 4:-0.992806 5:-0.972678 6:-0.913043 7:-0.963077 8:-1 9:-0.927711 10:-0.92233 11:-0.954717 12:-0.969849 13:-0.885714 14:-0.955752 15:-1 16:-0.895131 17:-0.915493 18:-0.939623 19:-0.954717 20:-0.969849 21:-0.991968 22:-0.933702 23:-0.906977 24:-0.818182 25:-0.965217 26:-0.939698 27:-0.959799 28:-0.976549 29:-0.991962 30:-0.900709 31:-0.901316 32:-1 33:-0.840426 34:-0.912568 35:-0.922222 36:-0.967828 37:-1 38:-0.99115 39:-0.972516 40:-1 41:-0.982301 42:-0.9631 43:-0.897059 44:-0.882353 45:-0.882353 46:-0.951417 47:-0.937107 48:-0.95098 49:-1 50:-0.747573 51:-1 52:-0.92228 53:-1 54:-0.923445 55:-1 56:-1 57:-1 58:-1 59:-0.860465 60:-0.963387 61:-0.929412 62:-0.899281 63:-1 64:-1 
2048 1:-0.974249 2:-0.983914 3:-0.989276 4:-0.978417 5:-0.994536 6:-0.965217 7:-0.975385 8:-0.963303 9:-0.983936 10:-0.941748 11:-0.977358 12:-0.98995 13:-1 14:-0.973451 15:-0.941748 16:-1 17:-0.957746 18:-0.984906 19:-0.977358 20:-0.98995 21:-0.983936 22:-0.977901 23:-0.976744 24:-1 25:-0.973913 26:-0.979899 27:-0.98995 28:-0.98995 29:-0.994642 30:-0.971631 31:-0.960526 32:-1 33:-0.978723 34:-0.967213 35:-0.966667 36:-0.983914 37:-0.968992 38:-0.9941 39:-0.991543 40:-1 41:-0.988201 42:-0.98524 43:-0.955882 44:-0.955882 45:-0.955882 46:-0.975709 47:-0.987421 48:-0.970588 49:-1 50:-1 51:-0.979899 52:-0.989637 53:-0.990244 54:-0.952153 55:-1 56:-0.933926 57:-0.978723 58:-0.962547 59:-0.953488 60:-1 61:-1 62:-0.971223 63:-1 64:-1 
1141.3152726362255 1:-1 2:-0.892761 3:-0.97319 4:-0.776978 5:-1 6:-0.756522 7:-0.963077 8:-1 9:-0.791165 10:-0.728155 11:-0.909434 12:-0.949749 13:-0.685714 14:-0.938053 15:-0.84466 16:-0.88764 17:-0.802817 18:-0.924528 19:-0.909434 20:-0.919598 21:-1 22:-0.856354 23:-0.813953 24:-1 25:-0.913043 26:-0.949749 27:-0.919598 28:-0.949749 29:-0.938379 30:-0.858156 31:-0.888158 32:-0.802575 33:-0.829787 34:-0.836066 35:-0.8 36:-1 37:-1 38:-0.982301 39:-1 40:-0.582317 41:-0.946903 42:-0.918819 43:-0.779412 44:-0.882353 45:-0.764706 46:-0.902834 47:-0.886792 48:-1 49:-0.965116 50:-0.84466 51:-0.929648 52:-0.958549 53:-1 54:-0.866029 55:-0.89414 56:-0.936468 57:-1 58:-0.88764 59:-1 60:-0.583524 61:-1 62:-0.81295 63:-1 64:-1 
2048 1:-0.982833 2:-0.989276 3:-0.989276 4:-0.978417 5:-0.989071 6:-0.982609 7:-0.987692 8:-0.963303 9:-0.991968 10:-0.961165 11:-0.984906 12:-0.98995 13:-0.971429 14:-0.982301 15:-0.941748 16:-1 17:-0.971831 18:-0.992453 19:-0.984906 20:-0.979899 21:-0.995984 22:-0.977901 23:-0.976744 24:-1 25:-0.991304 26:-0.969849 27:-0.98995 28:-0.9933 29:-0.997321 30:-0.985816 31:-0.986842 32:-1 33:-0.978723 34:-0.978142 35:-0.977778 36:-0.994638 37:-1 38:-0.9941 39:-0.997886 40:-1 41:-0.988201 42:-0.98524 43:-0.970588 44:-0.985294 45:-0.970588 46:-0.983806 47:-0.987421 48:-0.970588 49:-0.994186 50:-0.961165 51:-0.969849 52:-0.994819 53:-0.995122 54:-0.990431 55:-0.996219 56:-0.987294 57:-0.989362 58:-0.985019 59:-0.984496 60:-0.963387 61:-1 62:-0.971223 63:-1 64:-1 
2048 1:-0.965665 2:-0.978552 3:-0.989276 4:-0.971223 5:-0.983607 6:-0.930435 7:-0.981538 8:-0.972477 9:-0.967871 10:-0.883495 11:-0.977358 12:-0.984925 13:-0.871429 14:-0.982301 15:-0.961165 16:-0.955056 17:-0.957746 18:-0.984906 19:-0.962264 20:-0.969849 21:-0.983936 22:-0.966851 23:-0.94186 24:-0.93007 25:-0.965217 26:-0.979899 27:-0.969849 28:-0.979899 29:-1 30:-0.943262 31:-0.993421 32:-1 33:-0.968085 34:-0.901639 35:-0.955556 36:-0.994638 37:-0.968992 38:-0.99115 39:-0.995772 40:-1 41:-0.976401 42:-0.97786 43:-0.955882 44:-0.955882 45:-0.955882 46:-0.967611 47:-0.949686 48:-0.960784 49:-0.982558 50:-0.92233 51:-0.969849 52:-0.984456 53:-0.990244 54:-0.952153 55:-0.992439 56:-1 57:-1 58:-0.977528 59:-0.937984 60:-0.967963 61:-1 62:-0.942446 63:-0.99532 64:-1 
262.4908108199914 1:-0.802575 2:-0.97319 3:-0.887399 4:-0.884892 5:-0.846995 6:-0.652174 7:-0.889231 8:-1 9:-0.807229 10:-0.631068 11:-0.932075 12:-0.944724 13:-0.857143 14:-0.823009 15:-0.262136 16:-0.88764 17:-0.774648 18:-0.886792 19:-0.841509 20:-0.678392 21:-0.97992 22:-0.812155 23:-0.860465 24:-0.202797 25:-0.86087 26:-0.889447 27:-0.567839 28:-1 29:-0.961152 30:-0.886525 31:-1 32:-1 33:-0.851064 34:-0.726776 35:-0.788889 36:-0.844504 37:-0.79845 38:-0.949853 39:-1 40:-1 41:-0.911504 42:-0.837638 43:-0.764706 44:-0.779412 45:-0.647059 46:-0.862348 47:-0.786164 48:-0.901961 49:-1 50:-0.262136 51:-0.748744 52:-1 53:-1 54:-0.837321 55:-1 56:-1 57:-0.888298 58:-0.88764 59:-0.782946 60:-1 61:-0.632941 62:-0.856115 63:-1 64:-1 
2048 1:-0.948498 2:-0.941019 3:-0.924933 4:-0.920863 5:-0.945355 6:-0.843478 7:-0.944615 8:-1 9:-0.919679 10:-0.84466 11:-0.924528 12:-0.979899 13:-0.828571 14:-0.893805 15:-0.902913 16:-1 17:-0.859155 18:-0.924528 19:-0.932075 20:-0.899497 21:-1 22:-0.878453 23:-0.895349 24:-1 25:-0.965217 26:-0.829146 27:-0.899497 28:-0.953099 29:-1 30:-0.886525 31:-0.769737 32:-1 33:-0.840426 34:-0.934426 35:-0.9 36:-0.796247 37:-0.596899 38:-0.99115 39:-0.94926 40:-1 41:-0.923304 42:-0.926199 43:-0.882353 44:-0.882353 45:-0.808824 46:-0.927126 47:-0.874214 48:-0.715686 49:-0.97093 50:-0.786408 51:-0.869347 52:-0.906736 53:-0.941463 54:-0.904306 55:-1 56:-1 57:-1 58:-1 59:-1 60:-1 61:-1 62:-0.582734 63:-1 64:-1 
2048 1:-0.991416 2:-0.994638 3:-0.994638 4:-0.992806 5:-0.994536 6:-0.982609 7:-0.993846 8:-0.990826 9:-0.991968 10:-0.980583 11:-0.992453 12:-0.994975 13:-1 14:-0.99115 15:-0.980583 16:-0.992509 17:-0.985915 18:-0.992453 19:-0.992453 20:-0.98995 21:-0.995984 22:-0.98895 23:-0.988372 24:-0.986014 25:-0.991304 26:-0.98995 27:-0.98995 28:-0.99665 29:-0.99866 30:-0.985816 31:-0.986842 32:-0.991416 33:-0.989362 34:-0.989071 35:-0.988889 36:-0.994638 37:-0.968992 38:-0.99705 39:-0.997886 40:-0.996951 41:-0.9941 42:-0.99262 43:-0.985294 44:-0.985294 45:-0.985294 46:-0.991903 47:-0.987421 48:-0.990196 49:-0.994186 50:-1 51:-0.979899 52:-1 53:-1 54:-0.990431 55:-0.996219 56:-0.997459 57:-0.994681 58:-0.992509 59:-0.984496 60:-0.995423 61:-1 62:-0.985612 63:-0.99766 64:-0.997696 
2048 1:-0.948498 2:-0.983914 3:-0.978552 4:-0.985612 5:-0.967213 6:-0.947826 7:-0.969231 8:-0.908257 9:-0.975904 10:-0.883495 11:-0.969811 12:-0.984925 13:-0.985714 14:-0.964602 15:-0.902913 16:-0.925094 17:-0.957746 18:-0.977358 19:-0.969811 20:-0.949749 21:-0.991968 22:-0.944751 23:-0.976744 24:-1 25:-0.973913 26:-0.949749 27:-0.969849 28:-0.973199 29:-0.995981 30:-0.957447 31:-0.947368 32:-1 33:-0.93617 34:-0.978142 35:-0.966667 36:-1 37:-0.705426 38:-0.988201 39:-1 40:-1 41:-0.976401 42:-0.97048 43:-0.926471 44:-0.926471 45:-0.926471 46:-0.975709 47:-0.949686 48:-1 49:-0.982558 50:-0.864078 51:-0.979899 52:-0.958549 53:-1 54:-0.952153 55:-1 56:-1 57:-1 58:-0.962547 59:-0.782946 60:-1 61:-1 62:-1 63:-1 64:-1 
2048 1:-0.991416 2:-0.989276 3:-0.994638 4:-0.992806 5:-0.994536 6:-0.982609 7:-0.987692 8:-0.972477 9:-0.991968 10:-0.961165 11:-0.992453 12:-0.994975 13:-0.985714 14:-0.99115 15:-0.980583 16:-0.977528 17:-0.985915 18:-0.992453 19:-0.992453 20:-0.98995 21:-0.995984 22:-0.98895 23:-0.988372 24:-0.986014 25:-0.982609 26:-0.98995 27:-0.98995 28:-0.9933 29:-0.99866 30:-0.985816 31:-0.980263 32:-1 33:-0.989362 34:-0.989071 35:-0.988889 36:-0.989276 37:-0.984496 38:-0.99705 39:-0.993658 40:-0.996951 41:-0.9941 42:-0.99262 43:-0.985294 44:-0.985294 45:-0.985294 46:-0.991903 47:-0.987421 48:-1 49:-0.988372 50:-0.980583 51:-0.979899 52:-1 53:-1 54:-0.990431 55:-1 56:-1 57:-0.989362 58:-0.992509 59:-0.984496 60:-1 61:-1 62:-0.971223 63:-1 64:-1 
1849.6077080896139 1:-0.965665 2:-0.983914 3:-0.983914 4:-0.978417 5:-0.978142 6:-0.965217 7:-0.987692 8:-0.990826 9:-0.967871 10:-0.883495 11:-0.969811 12:-0.98995 13:-0.985714 14:-0.982301 15:-0.961165 16:-0.985019 17:-0.971831 18:-0.969811 19:-0.984906 20:-0.969849 21:-0.987952 22:-0.966851 23:-0.965116 24:-0.944056 25:-0.965217 26:-0.98995 27:-0.969849 28:-0.98995 29:-0.994642 30:-0.957447 31:-0.973684 32:-0.991416 33:-0.957447 34:-0.967213 35:-0.966667 36:-0.994638 37:-0.953488 38:-0.99115 39:-0.993658 40:-1 41:-0.988201 42:-0.98524 43:-0.955882 44:-0.955882 45:-0.941176 46:-0.967611 47:-0.974843 48:-0.970588 49:-0.994186 50:-0.961165 51:-0.969849 52:-0.994819 53:-1 54:-0.961722 55:-0.962193 56:-1 57:-1 58:-0.985019 59:-0.922481 60:-0.967963 61:-1 62:-0.985612 63:-0.9922 64:-0.951613 
2048 1:-0.982833 2:-0.994638 3:-0.989276 4:-1 5:-0.983607 6:-0.947826 7:-1 8:-1 9:-0.991968 10:-0.941748 11:-0.984906 12:-1 13:-0.957143 14:-0.982301 15:-0.883495 16:-0.970037 17:-0.985915 18:-0.992453 19:-0.977358 20:-0.979899 21:-0.991968 22:-0.977901 23:-0.976744 24:-0.986014 25:-0.965217 26:-0.98995 27:-0.98995 28:-1 29:-1 30:-0.971631 31:-0.980263 32:-1 33:-0.989362 34:-0.956284 35:-0.988889 36:-0.957105 37:-0.984496 38:-0.99705 39:-0.995772 40:-0.993902 41:-0.982301 42:-0.98524 43:-0.970588 44:-0.970588 45:-0.985294 46:-0.991903 47:-0.987421 48:-0.95098 49:-0.994186 50:-0.883495 51:-0.979899 52:-0.968912 53:-1 54:-1 55:-1 56:-1 57:-1 58:-0.917603 59:-0.984496 60:-1 61:-0.990588 62:-1 63:-1 64:-0.960829 
1644.0699786867301 1:-0.879828 2:-0.962466 3:-0.962466 4:-0.978417 5:-0.945355 6:-0.878261 7:-0.969231 8:-1 9:-0.951807 10:-0.825243 11:-0.939623 12:-0.909548 13:-0.828571 14:-0.973451 15:-0.902913 16:-0.932584 17:-0.887324 18:-0.939623 19:-0.94717 20:-0.959799 21:-0.97992 22:-0.900552 23:-0.906977 24:-0.72028 25:-0.973913 26:-0.979899 27:-0.889447 28:-0.9866 29:-1 30:-0.801418 31:-0.921053 32:-1 33:-0.93617 34:-0.868852 35:-0.866667 36:-0.962466 37:-1 38:-0.99115 39:-0.983087 40:-1 41:-0.964602 42:-0.933579 43:-0.882353 44:-0.882353 45:-0.808824 46:-0.935223 47:-0.937107 48:-1 49:-0.947674 50:-0.902913 51:-0.949749 52:-0.958549 53:-1 54:-0.933014 55:-0.905482 56:-0.946633 57:-1 58:-0.872659 59:-1 60:-0.90389 61:-1 62:-0.798561 63:-1 64:-1 
2048 1:-0.965665 2:-0.983914 3:-0.97319 4:-0.985612 5:-0.978142 6:-0.947826 7:-0.981538 8:-1 9:-0.983936 10:-0.902913 11:-0.969811 12:-0.98995 13:-0.928571 14:-0.973451 15:-0.92233 16:-0.977528 17:-0.943662 18:-0.969811 19:-0.969811 20:-0.969849 21:-0.975904 22:-0.966851 23:-0.94186 24:-0.958042 25:-0.982609 26:-0.959799 27:-0.959799 28:-0.98995 29:-1 30:-0.943262 31:-0.980263 32:-0.974249 33:-0.957447 34:-0.945355 35:-0.955556 36:-1 37:-1 38:-0.988201 39:-0.993658 40:-1 41:-0.976401 42:-0.97786 43:-0.955882 44:-0.926471 45:-0.970588 46:-0.967611 47:-0.962264 48:-0.960784 49:-0.988372 50:-0.92233 51:-0.979899 52:-0.968912 53:-0.985366 54:-0.971292 55:-0.977316 56:-0.987294 57:-0.968085 58:-1 59:-0.968992 60:-1 61:-1 62:-0.899281 63:-1 64:-1 
32.727866173487669 1:-0.811159 2:-0.946381 3:-0.86059 4:-0.769784 5:-1 6:-0.6 7:-0.858462 8:-1 9:-0.799197 10:-0.728155 11:-0.841509 12:-0.924623 13:-1 14:-0.752212 15:-0.398058 16:-1 17:-0.760563 18:-0.720755 19:-0.864151 20:-0.698492 21:-0.915663 22:-0.756906 23:-1 24:-1 25:-0.721739 26:-1 27:-0.698492 28:-0.922948 29:-1 30:-0.716312 31:-0.782895 32:-1 33:-1 34:-1 35:-0.533333 36:-1 37:-1 38:-0.941003 39:-0.824524 40:-1 41:-0.882006 42:-0.793358 43:-0.735294 44:-0.823529 45:-0.397059 46:-0.82996 47:-0.63522 48:-0.803922 49:-0.802326 50:-0.805825 51:-0.758794 52:-0.829016 53:-0.797561 54:-0.942584 55:-1 56:-0.578145 57:-1 58:-0.730337 59:-0.674419 60:-1 61:-1 62:-1 63:-0.935257 64:-0.329493 
2048 1:-0.965665 2:-0.989276 3:-0.967828 4:-0.971223 5:-1 6:-0.86087 7:-0.975385 8:-1 9:-0.959839 10:-0.883495 11:-0.969811 12:-0.979899 13:-0.928571 14:-0.955752 15:-0.864078 16:-0.955056 17:-0.943662 18:-0.962264 19:-0.94717 20:-0.939698 21:-0.97992 22:-0.966851 23:-0.953488 24:-0.874126 25:-0.93913 26:-0.959799 27:-0.979899 28:-0.976549 29:-0.989283 30:-0.943262 31:-0.934211 32:-0.969957 33:-0.978723 34:-0.978142 35:-0.922222 36:-0.978552 37:-0.875969 38:-0.985251 39:-0.968288 40:-1 41:-0.958702 42:-0.940959 43:-0.941176 44:-0.955882 45:-0.911765 46:-0.959514 47:-0.974843 48:-1 49:-0.994186 50:-0.980583 51:-0.909548 52:-0.948187 53:-1 54:-0.961722 55:-1 56:-0.956798 57:-1 58:-0.955056 59:-0.860465 60:-1 61:-1 62:-0.870504 63:-1 64:-1 
2048 1:-0.982833 2:-0.989276 3:-0.989276 4:-0.978417 5:-0.989071 6:-0.965217 7:-0.993846 8:-0.990826 9:-0.991968 10:-0.961165 11:-0.984906 12:-0.994975 13:-0.985714 14:-0.982301 15:-0.961165 16:-0.992509 17:-0.971831 18:-0.992453 19:-0.984906 20:-0.979899 21:-0.991968 22:-0.98895 23:-0.976744 24:-0.958042 25:-0.982609 26:-0.98995 27:-0.979899 28:-0.99665 29:-0.99866 30:-0.971631 31:-0.986842 32:-0.991416 33:-0.978723 34:-0.978142 35:-0.977778 36:-0.994638 37:-0.968992 38:-0.99705 39:-0.995772 40:-0.993902 41:-0.988201 42:-0.99262 43:-0.985294 44:-0.985294 45:-0.970588 46:-0.983806 47:-0.974843 48:-0.980392 49:-0.994186 50:-0.941748 51:-0.98995 52:-0.994819 53:-1 54:-0.980861 55:-0.996219 56:-1 57:-0.989362 58:-0.985019 59:-0.984496 60:-1 61:-0.981176 62:-0.971223 63:-1 64:-1 
2048 1:-0.965665 2:-0.994638 3:-0.989276 4:-0.992806 5:-0.983607 6:-0.965217 7:-0.987692 8:-0.981651 9:-0.983936 10:-0.941748 11:-0.984906 12:-0.994975 13:-0.957143 14:-0.982301 15:-0.941748 16:-0.985019 17:-0.971831 18:-0.984906 19:-0.984906 20:-0.969849 21:-0.991968 22:-0.977901 23:-0.976744 24:-0.958042 25:-0.991304 26:-0.979899 27:-0.969849 28:-0.98995 29:-0.99866 30:-0.971631 31:-0.986842 32:-0.987124 33:-0.978723 34:-0.967213 35:-0.977778 36:-0.989276 37:-0.968992 38:-0.9941 39:-1 40:-1 41:-0.988201 42:-0.98524 43:-0.970588 44:-0.970588 45:-0.970588 46:-0.983806 47:-0.974843 48:-0.980392 49:-0.994186 50:-0.961165 51:-0.979899 52:-0.974093 53:-0.992683 54:-0.980861 55:-0.992439 56:-1 57:-0.978723 58:-1 59:-0.984496 60:-0.98627 61:-1 62:-0.956835 63:-0.9961 64:-1 
2048 1:-0.991416 2:-0.994638 3:-0.994638 4:-1 5:-0.994536 6:-0.982609 7:-0.993846 8:-0.981651 9:-0.991968 10:-0.980583 11:-0.992453 12:-0.994975 13:-0.985714 14:-0.99115 15:-0.980583 16:-1 17:-0.985915 18:-0.992453 19:-0.992453 20:-0.98995 21:-0.995984 22:-0.98895 23:-0.988372 24:-1 25:-0.991304 26:-0.98995 27:-0.98995 28:-0.99665 29:-1 30:-0.985816 31:-0.993421 32:-1 33:-0.989362 34:-0.989071 35:-0.988889 36:-0.994638 37:-0.984496 38:-0.99705 39:-0.997886 40:-1 41:-0.9941 42:-0.99262 43:-0.985294 44:-0.985294 45:-0.985294 46:-0.991903 47:-0.987421 48:-0.980392 49:-0.994186 50:-0.980583 51:-0.98995 52:-0.994819 53:-0.997561 54:-0.990431 55:-0.996219 56:-1 57:-0.989362 58:-0.985019 59:-1 60:-1 61:-1 62:-0.985612 63:-1 64:-1 
68.745292444713897 1:-0.948498 2:-0.957105 3:-0.983914 4:-0.956835 5:-0.972678 6:-0.913043 7:-0.969231 8:-0.87156 9:-0.967871 10:-0.864078 11:-0.939623 12:-0.984925 13:-1 14:-0.955752 15:-0.883495 16:-1 17:-0.901408 18:-0.94717 19:-0.962264 20:-0.959799 21:-0.987952 22:-0.944751 23:-0.953488 24:-0.916084 25:-0.965217 26:-0.949749 27:-0.959799 28:-0.969849 29:-0.995981 30:-0.914894 31:-0.980263 32:-1 33:-0.978723 34:-0.967213 35:-0.966667 36:-0.983914 37:-0.736434 38:-0.979351 39:-1 40:-0.929878 41:-0.970501 42:-0.97786 43:-0.911765 44:-0.911765 45:-0.926471 46:-0.959514 47:-0.924528 48:-0.970588 49:-0.976744 50:-0.825243 51:-0.939698 52:-1 53:-0.958537 54:-0.952153 55:-0.977316 56:-1 57:-0.925532 58:-1 59:-1 60:-1 61:-1 62:-0.928058 63:-0.982059 64:-1 
2048 1:-0.974249 2:-0.978552 3:-0.978552 4:-0.992806 5:-0.989071 6:-0.930435 7:-0.938462 8:-0.926606 9:-0.951807 10:-0.902913 11:-0.969811 12:-0.984925 13:-0.985714 14:-0.964602 15:-0.961165 16:-0.985019 17:-0.957746 18:-0.969811 19:-0.969811 20:-0.969849 21:-0.971888 22:-0.955801 23:-0.930233 24:-0.916084 25:-0.965217 26:-0.969849 27:-0.969849 28:-0.98995 29:-1 30:-0.914894 31:-1 32:-0.957082 33:-0.925532 34:-0.956284 35:-0.955556 36:-0.967828 37:-0.937984 38:-0.99115 39:-0.991543 40:-1 41:-0.976401 42:-0.97048 43:-0.926471 44:-0.941176 45:-0.941176 46:-0.967611 47:-0.962264 48:-0.970588 49:-1 50:-0.961165 51:-0.959799 52:-0.937824 53:-0.973171 54:-0.961722 55:-0.977316 56:-1 57:-0.973404 58:-0.985019 59:-0.906977 60:-0.954233 61:-0.971765 62:-0.956835 63:-1 64:-1 
2048 1:-0.974249 2:-0.978552 3:-0.983914 4:-0.985612 5:-0.989071 6:-0.947826 7:-0.969231 8:-0.972477 9:-0.975904 10:-0.902913 11:-0.977358 12:-0.984925 13:-0.928571 14:-0.973451 15:-0.941748 16:-1 17:-0.957746 18:-0.977358 19:-0.969811 20:-0.969849 21:-0.995984 22:-0.966851 23:-0.976744 24:-0.944056 25:-0.973913 26:-0.959799 27:-0.979899 28:-0.9866 29:-0.994642 30:-0.957447 31:-0.967105 32:-0.965665 33:-0.957447 34:-0.945355 35:-0.988889 36:-1 37:-0.891473 38:-0.985251 39:-0.995772 40:-1 41:-0.976401 42:-0.98524 43:-0.955882 44:-0.941176 45:-0.941176 46:-0.975709 47:-0.962264 48:-0.960784 49:-0.988372 50:-0.902913 51:-0.959799 52:-0.979275 53:-0.995122 54:-0.971292 55:-0.988658 56:-1 57:-0.984043 58:-0.985019 59:-0.984496 60:-0.98627 61:-1 62:-0.928058 63:-0.9922 64:-1 
2048 1:-0.939914 2:-0.989276 3:-0.978552 4:-0.992806 5:-0.978142 6:-0.930435 7:-0.987692 8:-1 9:-0.967871 10:-0.883495 11:-0.984906 12:-0.974874 13:-0.928571 14:-0.955752 15:-0.961165 16:-0.970037 17:-0.943662 18:-0.977358 19:-0.962264 20:-0.969849 21:-0.991968 22:-0.966851 23:-0.953488 24:-0.944056 25:-0.982609 26:-0.959799 27:-0.959799 28:-0.9933 29:-0.994642 30:-0.943262 31:-0.960526 32:-0.965665 33:-1 34:-0.989071 35:-0.933333 36:-0.978552 37:-1 38:-0.99115 39:-0.985201 40:-1 41:-0.982301 42:-0.9631 43:-0.955882 44:-0.941176 45:-0.926471 46:-0.967611 47:-0.949686 48:-1 49:-0.959302 50:-0.980583 51:-0.969849 52:-0.968912 53:-0.982927 54:-0.971292 55:-0.988658 56:-0.966963 57:-0.962766 58:-0.970037 59:-0.968992 60:-0.963387 61:-1 62:-0.971223 63:-1 64:-0.87788 
798.97397464163328 1:-0.974249 2:-0.983914 3:-0.989276 4:-0.985612 5:-0.994536 6:-0.947826 7:-0.987692 8:-1 9:-0.975904 10:-0.941748 11:-0.977358 12:-0.984925 13:-0.985714 14:-0.973451 15:-0.941748 16:-0.977528 17:-0.957746 18:-0.977358 19:-0.977358 20:-0.969849 21:-0.97992 22:-0.977901 23:-0.953488 24:-0.972028 25:-1 26:-0.979899 27:-0.969849 28:-0.969849 29:-0.985265 30:-0.957447 31:-0.927632 32:-1 33:-0.978723 34:-0.978142 35:-0.977778 36:-0.967828 37:-0.767442 38:-0.99115 39:-0.989429 40:-1 41:-0.982301 42:-0.97786 43:-0.941176 44:-0.970588 45:-0.955882 46:-0.975709 47:-0.974843 48:-0.95098 49:-0.994186 50:-0.941748 51:-0.979899 52:-0.979275 53:-0.987805 54:-0.952153 55:-0.988658 56:-1 57:-1 58:-1 59:-0.968992 60:-1 61:-1 62:-0.913669 63:-0.9922 64:-0.919355 
2048 1:-0.974249 2:-0.994638 3:-0.994638 4:-0.992806 5:-0.989071 6:-0.982609 7:-0.993846 8:-0.990826 9:-0.991968 10:-0.961165 11:-0.992453 12:-0.98995 13:-0.985714 14:-0.982301 15:-0.941748 16:-0.992509 17:-0.985915 18:-0.992453 19:-0.992453 20:-0.979899 21:-0.987952 22:-0.977901 23:-0.988372 24:-0.972028 25:-0.991304 26:-0.979899 27:-0.979899 28:-0.98995 29:-0.99866 30:-0.985816 31:-0.993421 32:-1 33:-0.968085 34:-0.978142 35:-0.977778 36:-0.994638 37:-0.984496 38:-0.99705 39:-1 40:-0.987805 41:-0.9941 42:-0.98524 43:-0.970588 44:-0.985294 45:-0.985294 46:-0.983806 47:-0.974843 48:-0.980392 49:-0.994186 50:-0.980583 51:-0.979899 52:-0.994819 53:-0.997561 54:-0.980861 55:-0.988658 56:-1 57:-0.984043 58:-0.977528 59:-0.984496 60:-1 61:-1 62:-0.985612 63:-1 64:-1 
2048 1:-0.991416 2:-0.994638 3:-0.994638 4:-1 5:-0.994536 6:-0.982609 7:-0.987692 8:-0.990826 9:-0.991968 10:-0.980583 11:-0.992453 12:-0.994975 13:-0.985714 14:-0.99115 15:-0.980583 16:-0.977528 17:-0.985915 18:-0.992453 19:-0.992453 20:-0.979899 21:-0.995984 22:-0.98895 23:-0.988372 24:-0.986014 25:-0.982609 26:-0.98995 27:-0.98995 28:-0.9933 29:-0.997321 30:-0.985816 31:-0.986842 32:-1 33:-0.989362 34:-0.989071 35:-0.988889 36:-0.994638 37:-0.968992 38:-0.99705 39:-0.997886 40:-1 41:-0.9941 42:-0.99262 43:-0.985294 44:-0.985294 45:-0.985294 46:-0.991903 47:-0.987421 48:-0.980392 49:-0.994186 50:-0.980583 51:-0.98995 52:-0.989637 53:-0.997561 54:-0.990431 55:-1 56:-1 57:-0.994681 58:-0.977528 59:-0.984496 60:-1 61:-1 62:-0.985612 63:-1 64:-1 
641.70184962098597 1:-0.914163 2:-0.903485 3:-0.962466 4:-0.935252 5:-0.918033 6:-0.878261 7:-1 8:-1 9:-0.935743 10:-0.902913 11:-0.962264 12:-0.929648 13:-0.9 14:-0.884956 15:-0.456311 16:-1 17:-0.887324 18:-0.916981 19:-0.909434 20:-0.979899 21:-0.931727 22:-0.911602 23:-0.872093 24:-1 25:-0.93913 26:-0.919598 27:-0.959799 28:-0.936348 29:-0.989283 30:-0.843972 31:-0.796053 32:-1 33:-0.904255 34:-0.879781 35:-0.877778 36:-0.908847 37:-0.829457 38:-0.979351 39:-1 40:-1 41:-0.935103 42:-0.948339 43:-0.823529 44:-0.882353 45:-0.941176 46:-0.910931 47:-0.962264 48:-1 49:-0.901163 50:-1 51:-0.839196 52:-0.917098 53:-1 54:-0.933014 55:-1 56:-1 57:-1 58:-1 59:-1 60:-1 61:-1 62:-1 63:-1 64:-1 
2048 1:-0.991416 2:-0.994638 3:-0.994638 4:-1 5:-0.994536 6:-0.982609 7:-0.993846 8:-1 9:-0.991968 10:-0.980583 11:-0.992453 12:-0.994975 13:-0.985714 14:-0.99115 15:-0.980583 16:-0.992509 17:-0.985915 18:-0.992453 19:-0.992453 20:-0.98995 21:-1 22:-0.98895 23:-0.988372 24:-0.986014 25:-0.991304 26:-0.98995 27:-0.98995 28:-0.99665 29:-0.995981 30:-0.985816 31:-1 32:-0.991416 33:-0.989362 34:-1 35:-0.988889 36:-0.994638 37:-1 38:-0.99705 39:-0.997886 40:-1 41:-0.9941 42:-0.99262 43:-0.985294 44:-0.985294 45:-1 46:-0.991903 47:-0.987421 48:-0.990196 49:-1 50:-0.980583 51:-0.98995 52:-1 53:-0.990244 54:-0.990431 55:-1 56:-1 57:-1 58:-0.992509 59:-1 60:-0.995423 61:-1 62:-0.985612 63:-0.99922 64:-1 
2048 1:-0.922747 2:-0.978552 3:-0.957105 4:-0.920863 5:-0.928962 6:-0.878261 7:-0.950769 8:-1 9:-0.903614 10:-0.825243 11:-0.969811 12:-0.969849 13:-0.928571 14:-0.946903 15:-0.864078 16:-0.797753 17:-0.915493 18:-0.969811 19:-0.932075 20:-0.869347 21:-0.955823 22:-0.922652 23:-0.965116 24:-0.93007 25:-0.930435 26:-0.909548 27:-0.919598 28:-1 29:-1 30:-0.886525 31:-0.967105 32:-1 33:-0.914894 34:-0.967213 35:-0.955556 36:-0.919571 37:-0.813953 38:-0.970501 39:-0.983087 40:-1 41:-0.976401 42:-0.933579 43:-0.882353 44:-0.941176 45:-0.897059 46:-0.94332 47:-0.861635 48:-1 49:-1 50:-0.805825 51:-0.939698 52:-1 53:-1 54:-0.894737 55:-0.962193 56:-0.956798 57:-0.856383 58:-0.88015 59:-0.922481 60:-1 61:-1 62:-1 63:-1 64:-1 
2048 1:-0.982833 2:-0.983914 3:-0.989276 4:-0.978417 5:-1 6:-0.947826 7:-0.975385 8:-0.963303 9:-0.967871 10:-0.883495 11:-0.984906 12:-0.984925 13:-0.942857 14:-0.982301 15:-0.941748 16:-1 17:-0.957746 18:-0.977358 19:-0.969811 20:-0.98995 21:-0.991968 22:-0.977901 23:-0.953488 24:-0.944056 25:-0.956522 26:-0.98995 27:-0.969849 28:-0.99665 29:-1 30:-0.943262 31:-0.993421 32:-1 33:-0.957447 34:-0.989071 35:-0.977778 36:-0.962466 37:-1 38:-0.99115 39:-0.989429 40:-1 41:-0.988201 42:-0.97786 43:-0.955882 44:-0.955882 45:-0.926471 46:-0.975709 47:-0.974843 48:-0.95098 49:-0.988372 50:-0.961165 51:-0.969849 52:-0.974093 53:-0.995122 54:-0.971292 55:-0.984877 56:-1 57:-0.989362 58:-1 59:-0.968992 60:-0.963387 61:-0.971765 62:-0.956835 63:-0.99844 64:-1 
29.214677152793339 1:-1 2:-0.522788 3:-0.19571 4:-1 5:-1 6:-0.0782609 7:-1 8:-1 9:-0.285141 10:0.495146 11:-0.562264 12:-0.552764 13:-0.0428571 14:-0.513274 15:0.300971 16:1 17:-0.15493 18:-0.124528 19:-0.766038 20:0.20603 21:-0.638554 22:-0.392265 23:-1 24:-1 25:1 26:-1 27:-1 28:-1 29:-1 30:1 31:-1 32:-1 33:-1 34:-1 35:1 36:-1 37:-1 38:-0.687316 39:-1 40:-1 41:-0.687316 42:-0.697417 43:-0.0588235 44:0.0441176 45:0.558824 46:-0.384615 47:1 48:-1 49:1 50:0.300971 51:-1 52:-1 53:-1 54:-0.492823 55:-1 56:-1 57:-1 58:1 59:-1 60:-1 61:-1 62:-1 63:-1 64:-1 
322.97597984846851 1:-0.965665 2:-0.989276 3:-0.983914 4:-0.978417 5:-0.994536 6:-0.947826 7:-0.981538 8:-0.981651 9:-0.983936 10:-0.902913 11:-0.977358 12:-0.994975 13:-0.957143 14:-0.973451 15:-0.941748 16:-1 17:-0.957746 18:-0.977358 19:-0.977358 20:-0.979899 21:-0.987952 22:-0.966851 23:-0.953488 24:-0.958042 25:-0.982609 26:-0.979899 27:-0.979899 28:-0.973199 29:-0.994642 30:-0.971631 31:-0.986842 32:-0.991416 33:-0.968085 34:-0.967213 35:-0.977778 36:-0.989276 37:-0.875969 38:-0.9941 39:-0.995772 40:-0.990854 41:-0.982301 42:-0.98524 43:-0.955882 44:-0.970588 45:-0.985294 46:-0.967611 47:-0.962264 48:-0.941176 49:-0.976744 50:-0.961165 51:-0.959799 52:-0.963731 53:-0.997561 54:-0.990431 55:-0.992439 56:-1 57:-1 58:-1 59:-0.875969 60:-0.990847 61:-1 62:-0.942446 63:-1 64:-0.967742 
2048 1:-0.974249 2:-0.989276 3:-0.983914 4:-0.985612 5:-0.983607 6:-0.947826 7:-0.993846 8:-1 9:-0.975904 10:-0.941748 11:-0.984906 12:-0.994975 13:-0.985714 14:-0.982301 15:-0.961165 16:-0.992509 17:-0.971831 18:-0.984906 19:-0.977358 20:-0.949749 21:-0.983936 22:-0.966851 23:-0.965116 24:-0.986014 25:-0.991304 26:-0.979899 27:-0.959799 28:-0.969849 29:-1 30:-0.957447 31:-0.973684 32:-1 33:-0.989362 34:-0.978142 35:-0.955556 36:-0.967828 37:-0.953488 38:-0.99115 39:-1 40:-1 41:-0.982301 42:-0.97786 43:-0.970588 44:-0.985294 45:-0.955882 46:-0.983806 47:-0.962264 48:-0.921569 49:-0.976744 50:-0.980583 51:-0.959799 52:-0.979275 53:-0.990244 54:-0.990431 55:-0.962193 56:-1 57:-0.973404 58:-0.992509 59:-0.968992 60:-1 61:-1 62:-0.942446 63:-1 64:-1 
2048 1:-0.948498 2:-0.967828 3:-0.978552 4:-0.964029 5:-0.978142 6:-0.947826 7:-0.993846 8:-1 9:-0.983936 10:-0.864078 11:-0.977358 12:-0.994975 13:-0.971429 14:-0.973451 15:-0.825243 16:-1 17:-0.929577 18:-0.977358 19:-0.962264 20:-0.939698 21:-0.995984 22:-0.966851 23:-0.953488 24:-0.944056 25:-0.982609 26:-0.939698 27:-0.949749 28:-0.98325 29:-1 30:-0.943262 31:-1 32:-1 33:-0.93617 34:-0.956284 35:-0.988889 36:-1 37:-1 38:-0.982301 39:-0.989429 40:-1 41:-0.982301 42:-0.97786 43:-0.955882 44:-0.955882 45:-0.911765 46:-0.967611 47:-0.962264 48:-0.931373 49:-0.982558 50:-0.980583 51:-0.959799 52:-0.984456 53:-0.973171 54:-0.961722 55:-1 56:-1 57:-1 58:-1 59:-1 60:-1 61:-1 62:-0.899281 63:-0.983619 64:-1 
871.89670126367389 1:-0.845494 2:-0.946381 3:-0.967828 4:-0.870504 5:-1 6:-0.878261 7:-0.956923 8:-0.889908 9:-0.895582 10:-0.786408 11:-0.916981 12:-0.974874 13:-0.928571 14:-0.938053 15:-0.825243 16:-0.962547 17:-0.985915 18:-0.916981 19:-0.932075 20:-0.959799 21:-0.931727 22:-0.889503 23:-0.918605 24:-0.846154 25:-0.895652 26:-1 27:-0.859296 28:-1 29:-1 30:-0.87234 31:-0.875 32:-1 33:-0.882979 34:-0.901639 35:-0.922222 36:-1 37:-0.79845 38:-0.973451 39:-1 40:-0.914634 41:-0.946903 42:-0.940959 43:-0.852941 44:-0.838235 45:-0.867647 46:-0.935223 47:-0.886792 48:-0.911765 49:-1 50:-0.825243 51:-0.949749 52:-0.901554 53:-0.978049 54:-0.866029 55:-1 56:-1 57:-0.93617 58:-0.925094 59:-0.891473 60:-1 61:-0.934118 62:-0.913669 63:-0.977379 64:-1 
2048 1:-0.982833 2:-0.994638 3:-0.989276 4:-0.978417 5:-0.989071 6:-0.965217 7:-0.993846 8:-0.981651 9:-0.983936 10:-0.941748 11:-0.977358 12:-0.98995 13:-0.971429 14:-0.982301 15:-0.961165 16:-0.992509 17:-0.971831 18:-0.984906 19:-0.984906 20:-0.979899 21:-0.991968 22:-0.977901 23:-0.976744 24:-0.958042 25:-0.991304 26:-0.979899 27:-0.98995 28:-0.99665 29:-0.997321 30:-0.957447 31:-0.993421 32:-0.987124 33:-0.968085 34:-0.956284 35:-0.977778 36:-1 37:-0.937984 38:-0.99705 39:-1 40:-0.993902 41:-0.988201 42:-0.98524 43:-0.970588 44:-0.970588 45:-0.970588 46:-0.983806 47:-0.962264 48:-0.990196 49:-0.988372 50:-0.902913 51:-0.979899 52:-1 53:-1 54:-0.980861 55:-0.988658 56:-1 57:-0.989362 58:-0.992509 59:-0.953488 60:-1 61:-1 62:-0.971223 63:-0.99688 64:-0.981567 
2048 1:-0.974249 2:-0.983914 3:-0.983914 4:-0.992806 5:-0.989071 6:-0.982609 7:-0.969231 8:-0.944954 9:-0.975904 10:-0.961165 11:-0.984906 12:-0.984925 13:-0.957143 14:-0.99115 15:-1 16:-0.947566 17:-0.957746 18:-0.977358 19:-0.977358 20:-0.98995 21:-0.995984 22:-0.966851 23:-0.930233 24:-1 25:-0.991304 26:-0.969849 27:-0.98995 28:-0.98995 29:-0.997321 30:-0.957447 31:-0.986842 32:-0.991416 33:-0.989362 34:-0.978142 35:-0.966667 36:-0.989276 37:-0.937984 38:-0.99115 39:-1 40:-1 41:-0.982301 42:-0.97786 43:-0.955882 44:-0.985294 45:-0.970588 46:-0.983806 47:-0.987421 48:-1 49:-0.982558 50:-0.980583 51:-0.969849 52:-0.979275 53:-0.995122 54:-0.990431 55:-1 56:-1 57:-1 58:-0.985019 59:-0.968992 60:-0.977117 61:-0.981176 62:-1 63:-1 64:-1 
2048 1:-0.974249 2:-0.989276 3:-0.978552 4:-0.985612 5:-0.994536 6:-0.965217 7:-0.993846 8:-0.954128 9:-0.983936 10:-0.941748 11:-0.977358 12:-0.984925 13:-0.957143 14:-0.973451 15:-0.92233 16:-1 17:-0.957746 18:-0.984906 19:-0.984906 20:-0.969849 21:-0.987952 22:-0.977901 23:-0.965116 24:-0.93007 25:-0.965217 26:-0.979899 27:-0.969849 28:-0.99665 29:-0.991962 30:-0.971631 31:-0.986842 32:-1 33:-0.978723 34:-0.956284 35:-0.988889 36:-1 37:-1 38:-0.988201 39:-1 40:-1 41:-0.988201 42:-0.97786 43:-0.970588 44:-0.955882 45:-0.970588 46:-0.975709 47:-0.962264 48:-0.980392 49:-0.976744 50:-0.961165 51:-0.979899 52:-0.989637 53:-0.995122 54:-0.971292 55:-0.988658 56:-1 57:-0.973404 58:-0.977528 59:-1 60:-1 61:-1 62:-0.942446 63:-1 64:-1 
2048 1:-1 2:-1 3:-1 4:-1 5:-1 6:-1 7:-1 8:-1 9:-1 10:-1 11:-1 12:-1 13:-1 14:-1 15:-1 16:-1 17:-1 18:-1 19:-1 20:-1 21:-1 22:-1 23:-1 24:-1 25:-1 26:-1 27:-1 28:-1 29:-1 30:-1 31:-1 32:-1 33:-1 34:-1 35:-1 36:-1 37:-1 38:-1 39:-1 40:-1 41:-1 42:-1 43:-1 44:-1 45:-1 46:-1 47:-1 48:-1 49:-1 50:-1 51:-1 52:-1 53:-1 54:-1 55:-1 56:-1 57:-1 58:-1 59:-1 60:-1 61:-1 62:-1 63:-0.99922 64:-1 
2048 1:-0.991416 2:-0.994638 3:-0.994638 4:-0.992806 5:-0.994536 6:-0.982609 7:-0.993846 8:-0.981651 9:-0.991968 10:-0.980583 11:-0.992453 12:-0.994975 13:-0.985714 14:-0.99115 15:-0.980583 16:-0.985019 17:-0.985915 18:-0.992453 19:-0.992453 20:-0.98995 21:-0.995984 22:-0.98895 23:-0.976744 24:-0.986014 25:-0.991304 26:-0.98995 27:-0.98995 28:-0.99665 29:-0.99866 30:-0.985816 31:-0.986842 32:-1 33:-0.989362 34:-0.989071 35:-0.988889 36:-0.994638 37:-0.984496 38:-0.99705 39:-0.997886 40:-1 41:-0.9941 42:-0.99262 43:-0.985294 44:-0.985294 45:-0.985294 46:-0.991903 47:-0.987421 48:-0.990196 49:-0.994186 50:-0.980583 51:-0.98995 52:-0.989637 53:-1 54:-0.990431 55:-0.996219 56:-0.997459 57:-0.994681 58:-0.992509 59:-0.984496 60:-0.995423 61:-0.990588 62:-0.985612 63:-1 64:-1 
249.43929628684376 1:-0.819742 2:-0.919571 3:-0.903485 4:-1 5:-1 6:-0.773913 7:-1 8:-1 9:-0.855422 10:-0.61165 11:-0.932075 12:-0.969849 13:-0.9 14:-0.876106 15:-0.631068 16:-0.782772 17:-0.887324 18:-0.909434 19:-0.879245 20:-0.939698 21:-0.839357 22:-0.823204 23:-0.627907 24:-1 25:-1 26:-1 27:-0.678392 28:-0.872697 29:-1 30:-0.687943 31:-1 32:-1 33:-0.595745 34:-0.846995 35:-0.822222 36:-0.742627 37:-1 38:-1 39:-1 40:-1 41:-0.923304 42:-0.889299 43:-0.794118 44:-0.602941 45:-0.794118 46:-0.878543 47:-0.886792 48:-0.735294 49:-0.901163 50:-0.805825 51:-0.788945 52:-0.668394 53:-1 54:-0.913876 55:-1 56:-1 57:-1 58:-1 59:-0.503876 60:-1 61:-1 62:-0.611511 63:-1 64:-1 
2048 1:-0.991416 2:-0.994638 3:-0.994638 4:-0.992806 5:-1 6:-0.982609 7:-0.993846 8:-0.990826 9:-0.991968 10:-0.980583 11:-0.992453 12:-0.994975 13:-0.985714 14:-0.99115 15:-0.980583 16:-1 17:-0.985915 18:-0.992453 19:-0.992453 20:-0.98995 21:-0.991968 22:-0.98895 23:-0.988372 24:-0.972028 25:-0.991304 26:-0.98995 27:-0.98995 28:-0.99665 29:-0.99866 30:-1 31:-0.993421 32:-1 33:-0.989362 34:-1 35:-0.988889 36:-0.989276 37:-1 38:-0.99705 39:-0.997886 40:-1 41:-0.9941 42:-0.99262 43:-0.985294 44:-0.985294 45:-0.985294 46:-0.991903 47:-0.987421 48:-1 49:-1 50:-0.980583 51:-0.98995 52:-0.994819 53:-1 54:-0.990431 55:-0.996219 56:-0.994917 57:-1 58:-1 59:-0.968992 60:-1 61:-0.971765 62:-0.985612 63:-1 64:-1 
1089.5890103328638 1:-0.879828 2:-0.935657 3:-0.930295 4:-0.877698 5:-0.945355 6:-0.773913 7:-0.907692 8:-1 9:-0.88755 10:-0.825243 11:-0.901887 12:-0.949749 13:-0.928571 14:-0.840708 15:-0.553398 16:-0.872659 17:-0.760563 18:-0.909434 19:-0.932075 20:-0.839196 21:-0.939759 22:-0.867403 23:-0.744186 24:-0.776224 25:-0.913043 26:-0.859296 27:-0.839196 28:-0.939698 29:-0.981246 30:-0.829787 31:-0.868421 32:-1 33:-0.840426 34:-0.89071 35:-0.833333 36:-0.924933 37:-0.658915 38:-0.961652 39:-1 40:-1 41:-0.923304 42:-0.881919 43:-0.75 44:-0.911765 45:-0.735294 46:-0.910931 47:-1 48:-0.715686 49:-1 50:-0.262136 51:-0.929648 52:-0.896373 53:-1 54:-0.875598 55:-1 56:-1 57:-1 58:-0.872659 59:-0.751938 60:-0.789474 61:-0.670588 62:-1 63:-1 64:-1 
100.2586782099833 1:-1 2:-0.849866 3:-0.86059 4:-1 5:-0.907104 6:-0.634783 7:-1 8:-1 9:-0.807229 10:-0.572816 11:-0.841509 12:-0.899497 13:-0.685714 14:-0.80531 15:-0.825243 16:-1 17:-0.859155 18:-0.856604 19:-0.886792 20:-0.61809 21:-0.919679 22:-0.701657 23:-0.581395 24:-1 25:-0.86087 26:-0.658291 27:-0.758794 28:-0.845896 29:-1 30:-0.900709 31:-1 32:-1 33:-0.819149 34:-0.923497 35:-0.611111 36:-1 37:-0.162791 38:-0.952802 39:-1 40:-1 41:-0.693215 42:-0.874539 43:-0.676471 44:-1 45:-0.764706 46:-0.870445 47:-0.886792 48:0.00980392 49:-1 50:-0.495146 51:-0.879397 52:-0.84456 53:-0.921951 54:-0.913876 55:-0.572779 56:-1 57:-1 58:-1 59:0.0232558 60:-1 61:-1 62:-1 63:-1 64:-1 
2048 1:-0.93133 2:-0.957105 3:-0.924933 4:-0.956835 5:-0.95082 6:-0.826087 7:-0.907692 8:-1 9:-0.88755 10:-0.825243 11:-0.954717 12:-0.944724 13:-0.871429 14:-0.902655 15:-0.786408 16:-0.850187 17:-0.915493 18:-0.916981 19:-0.924528 20:-0.859296 21:-0.97992 22:-0.878453 23:-0.906977 24:-0.79021 25:-0.852174 26:-0.909548 27:-0.909548 28:-1 29:-0.985265 30:-0.858156 31:-0.907895 32:-1 33:-0.93617 34:-0.978142 35:-0.888889 36:-0.908847 37:-0.627907 38:-0.964602 39:-0.968288 40:-1 41:-0.935103 42:-0.918819 43:-0.838235 44:-0.852941 45:-0.823529 46:-0.94332 47:-0.937107 48:-0.911765 49:-0.912791 50:-0.669903 51:-0.919598 52:-1 53:-1 54:-0.904306 55:-1 56:-1 57:-1 58:-0.76779 59:-1 60:-1 61:-0.872941 62:-0.870504 63:-1 64:-1 
2048 1:-0.991416 2:-0.994638 3:-0.994638 4:-0.985612 5:-0.994536 6:-0.982609 7:-0.993846 8:-1 9:-0.983936 10:-0.961165 11:-0.992453 12:-0.994975 13:-0.985714 14:-0.99115 15:-0.980583 16:-0.992509 17:-0.985915 18:-0.992453 19:-0.992453 20:-1 21:-0.995984 22:-0.98895 23:-0.988372 24:-0.972028 25:-0.982609 26:-0.98995 27:-0.98995 28:-0.98995 29:-1 30:-0.985816 31:-0.993421 32:-1 33:-0.978723 34:-0.989071 35:-0.988889 36:-0.994638 37:-0.968992 38:-0.99705 39:-1 40:-1 41:-0.9941 42:-0.99262 43:-0.985294 44:-0.985294 45:-0.985294 46:-0.991903 47:-0.974843 48:-0.990196 49:-0.994186 50:-0.980583 51:-0.98995 52:-0.994819 53:-1 54:-0.990431 55:-1 56:-0.997459 57:-0.989362 58:-0.992509 59:-0.984496 60:-0.990847 61:-1 62:-0.971223 63:-1 64:-1 
2048 1:-0.982833 2:-0.994638 3:-0.994638 4:-0.992806 5:-0.994536 6:-0.982609 7:-0.993846 8:-1 9:-0.983936 10:-0.980583 11:-0.992453 12:-0.994975 13:-0.971429 14:-0.99115 15:-0.961165 16:-0.992509 17:-0.985915 18:-0.992453 19:-0.992453 20:-0.98995 21:-0.995984 22:-0.98895 23:-0.976744 24:-0.972028 25:-0.991304 26:-0.98995 27:-0.98995 28:-0.9933 29:-0.99866 30:-0.985816 31:-1 32:-1 33:-0.989362 34:-0.989071 35:-0.977778 36:-0.994638 37:-0.984496 38:-0.99705 39:-0.997886 40:-1 41:-0.9941 42:-0.99262 43:-0.985294 44:-0.985294 45:-0.985294 46:-0.991903 47:-0.987421 48:-0.990196 49:-0.994186 50:-0.980583 51:-0.98995 52:-1 53:-0.997561 54:-0.980861 55:-0.996219 56:-0.987294 57:-0.989362 58:-1 59:-0.984496 60:-0.98627 61:-1 62:-0.971223 63:-1 64:-1 
-2048 1:-0.982833 2:-0.989276 3:-0.989276 4:-0.992806 5:-0.994536 6:-0.965217 7:-0.987692 8:-0.981651 9:-0.983936 10:-0.961165 11:-0.984906 12:-0.98995 13:-0.985714 14:-0.982301 15:-0.980583 16:-0.977528 17:-0.971831 18:-0.984906 19:-0.984906 20:-0.979899 21:-0.991968 22:-0.977901 23:-0.965116 24:-0.958042 25:-0.982609 26:-0.979899 27:-0.979899 28:-0.99665 29:-0.99866 30:-0.971631 31:-0.973684 32:-1 33:-0.989362 34:-0.978142 35:-0.977778 36:-0.983914 37:-0.953488 38:-0.99705 39:-0.995772 40:-0.993902 41:-0.9941 42:-0.98524 43:-0.970588 44:-0.970588 45:-0.970588 46:-0.983806 47:-0.987421 48:-0.990196 49:-0.976744 50:-0.92233 51:-1 52:-1 53:-0.995122 54:-0.990431 55:-1 56:-0.974587 57:-0.994681 58:-1 59:-0.953488 60:-0.981693 61:-0.990588 62:-0.971223 63:-1 64:-1 
-614.03897745539939 1:-0.991416 2:-0.994638 3:-0.994638 4:-1 5:-1 6:-0.982609 7:-1 8:-1 9:-0.991968 10:-1 11:-0.992453 12:-1 13:-0.985714 14:-0.99115 15:-0.980583 16:-1 17:-1 18:-0.992453 19:-0.992453 20:-0.98995 21:-0.995984 22:-1 23:-1 24:-1 25:-1 26:-0.98995 27:-1 28:-1 29:-1 30:-0.985816 31:-0.993421 32:-1 33:-1 34:-0.989071 35:-0.988889 36:-0.994638 37:-1 38:-1 39:-0.997886 40:-1 41:-0.9941 42:-0.99262 43:-1 44:-0.985294 45:-0.985294 46:-1 47:-0.987421 48:-1 49:-1 50:-1 51:-1 52:-0.994819 53:-1 54:-0.990431 55:-0.996219 56:-1 57:-1 58:-1 59:-1 60:-1 61:-1 62:-1 63:-1 64:-1 
-2048 1:-0.982833 2:-0.989276 3:-0.994638 4:-0.978417 5:-1 6:-0.965217 7:-0.987692 8:-0.972477 9:-0.991968 10:-0.961165 11:-0.984906 12:-0.98995 13:-0.957143 14:-0.982301 15:-0.961165 16:-1 17:-0.971831 18:-0.984906 19:-0.984906 20:-0.979899 21:-0.987952 22:-0.977901 23:-0.976744 24:-0.972028 25:-0.982609 26:-0.979899 27:-0.969849 28:-0.99665 29:-0.997321 30:-0.971631 31:-0.993421 32:-0.978541 33:-0.978723 34:-0.989071 35:-0.977778 36:-0.989276 37:-1 38:-0.9941 39:-0.989429 40:-1 41:-0.988201 42:-0.98524 43:-0.970588 44:-0.970588 45:-0.970588 46:-0.983806 47:-0.974843 48:-0.970588 49:-0.988372 50:-0.961165 51:-0.969849 52:-0.994819 53:-0.997561 54:-0.990431 55:-0.992439 56:-1 57:-1 58:-0.947566 59:-1 60:-0.977117 61:-1 62:-0.985612 63:-1 64:-1 
-2048 1:-0.93133 2:-0.967828 3:-0.951743 4:-0.94964 5:-0.994536 6:-0.930435 7:-0.981538 8:-1 9:-0.951807 10:-0.84466 11:-0.962264 12:-0.984925 13:-0.928571 14:-0.929204 15:-0.805825 16:-1 17:-0.915493 18:-0.954717 19:-0.954717 20:-0.969849 21:-0.963855 22:-0.933702 23:-0.918605 24:-1 25:-0.930435 26:-0.949749 27:-0.939698 28:-0.956449 29:-0.997321 30:-0.929078 31:-0.960526 32:-1 33:-0.968085 34:-0.923497 35:-0.966667 36:-0.941019 37:-0.782946 38:-0.973451 39:-1 40:-1 41:-0.964602 42:-0.97048 43:-0.897059 44:-0.911765 45:-0.926471 46:-0.951417 47:-0.886792 48:-1 49:-0.936047 50:-0.805825 51:-0.969849 52:-0.906736 53:-0.990244 54:-0.980861 55:-1 56:-1 57:-1 58:-1 59:-1 60:-1 61:-1 62:-1 63:-1 64:-1 
-2048 1:-0.991416 2:-0.994638 3:-1 4:-1 5:-1 6:-1 7:-1 8:-1 9:-0.991968 10:-1 11:-1 12:-0.994975 13:-1 14:-0.99115 15:-1 16:-0.992509 17:-1 18:-0.992453 19:-0.992453 20:-1 21:-1 22:-0.98895 23:-0.988372 24:-1 25:-1 26:-1 27:-1 28:-0.99665 29:-0.995981 30:-0.985816 31:-0.993421 32:-1 33:-0.989362 34:-0.989071 35:-1 36:-1 37:-0.968992 38:-1 39:-0.997886 40:-1 41:-0.9941 42:-1 43:-0.985294 44:-1 45:-1 46:-0.991903 47:-0.987421 48:-0.980392 49:-1 50:-0.980583 51:-1 52:-0.994819 53:-1 54:-0.990431 55:-0.996219 56:-1 57:-1 58:-1 59:-0.984496 60:-1 61:-1 62:-0.985612 63:-1 64:-1 
-2048 1:-1 2:-0.994638 3:-0.994638 4:-0.992806 5:-0.994536 6:-0.982609 7:-0.993846 8:-1 9:-0.991968 10:-0.980583 11:-0.992453 12:-0.994975 13:-0.985714 14:-0.99115 15:-0.980583 16:-1 17:-0.985915 18:-0.992453 19:-0.992453 20:-0.98995 21:-0.995984 22:-0.98895 23:-0.988372 24:-1 25:-0.991304 26:-0.98995 27:-0.98995 28:-1 29:-1 30:-0.985816 31:-1 32:-1 33:-0.989362 34:-0.989071 35:-0.988889 36:-1 37:-1 38:-0.99705 39:-0.997886 40:-1 41:-0.9941 42:-0.99262 43:-0.985294 44:-0.985294 45:-0.985294 46:-0.991903 47:-0.987421 48:-1 49:-0.994186 50:-0.980583 51:-0.98995 52:-0.994819 53:-1 54:-0.990431 55:-0.996219 56:-1 57:-1 58:-1 59:-1 60:-1 61:-1 62:-1 63:-1 64:-1 
-1729.6154109496269 1:-0.939914 2:-0.978552 3:-0.957105 4:-0.985612 5:-0.961749 6:-0.930435 7:-0.963077 8:-0.944954 9:-0.935743 10:-0.864078 11:-0.984906 12:-0.964824 13:-0.9 14:-0.946903 15:-0.825243 16:-0.970037 17:-0.985915 18:-0.962264 19:-0.939623 20:-0.929648 21:-0.97992 22:-0.922652 23:-0.953488 24:-0.944056 25:-0.956522 26:-0.929648 27:-0.939698 28:-0.98325 29:-0.990623 30:-0.914894 31:-1 32:-1 33:-0.914894 34:-0.945355 35:-0.966667 36:-0.962466 37:-0.875969 38:-0.982301 39:-1 40:-0.966463 41:-0.964602 42:-0.948339 43:-0.911765 44:-0.926471 45:-0.955882 46:-0.959514 47:-0.924528 48:-0.911765 49:-0.94186 50:-0.864078 51:-0.979899 52:-0.958549 53:-0.985366 54:-0.952153 55:-0.94707 56:-1 57:-0.93617 58:-0.970037 59:-0.937984 60:-0.93135 61:-0.948235 62:-0.956835 63:-1 64:-1 
-2048 1:-0.965665 2:-0.978552 3:-0.97319 4:-0.992806 5:-0.978142 6:-0.947826 7:-0.993846 8:-0.972477 9:-0.983936 10:-0.92233 11:-0.984906 12:-0.979899 13:-0.957143 14:-0.964602 15:-0.902913 16:-1 17:-0.957746 18:-0.969811 19:-0.969811 20:-0.969849 21:-0.983936 22:-0.966851 23:-0.965116 24:-0.944056 25:-0.982609 26:-0.959799 27:-0.969849 28:-0.9933 29:-0.997321 30:-0.943262 31:-0.986842 32:-0.978541 33:-0.925532 34:-0.956284 35:-0.955556 36:-0.978552 37:-1 38:-0.9941 39:-0.993658 40:-1 41:-0.976401 42:-0.98524 43:-0.955882 44:-0.926471 45:-0.926471 46:-0.975709 47:-0.949686 48:-0.970588 49:-0.988372 50:-0.941748 51:-0.979899 52:-0.974093 53:-0.992683 54:-0.952153 55:-0.996219 56:-0.982211 57:-0.968085 58:-1 59:-1 60:-1 61:-1 62:-0.928058 63:-0.99454 64:-0.93318 
-2048 1:-0.991416 2:-0.994638 3:-0.994638 4:-0.992806 5:-0.994536 6:-0.982609 7:-0.987692 8:-0.990826 9:-0.991968 10:-0.980583 11:-0.992453 12:-0.994975 13:-0.985714 14:-0.99115 15:-1 16:-0.992509 17:-0.985915 18:-0.992453 19:-0.992453 20:-0.98995 21:-0.995984 22:-0.98895 23:-0.988372 24:-0.972028 25:-0.991304 26:-0.98995 27:-0.979899 28:-1 29:-0.99866 30:-0.985816 31:-0.993421 32:-0.995708 33:-0.989362 34:-0.989071 35:-0.988889 36:-0.994638 37:-0.984496 38:-0.99705 39:-1 40:-0.990854 41:-0.9941 42:-0.99262 43:-0.985294 44:-0.985294 45:-0.985294 46:-0.991903 47:-0.987421 48:-0.990196 49:-0.994186 50:-0.980583 51:-0.979899 52:-0.994819 53:-1 54:-0.990431 55:-1 56:-1 57:-0.994681 58:-0.992509 59:-0.984496 60:-0.990847 61:-1 62:-0.985612 63:-0.99688 64:-1 
-0.96898951188054683 1:-0.665236 2:-0.849866 3:-0.844504 4:-0.899281 5:-0.715847 6:-0.686957 7:-0.181538 8:-0.568807 9:-0.831325 10:-0.592233 11:-0.6 12:-0.949749 13:-0.457143 14:-0.681416 15:-0.533981 16:-0.745318 17:-0.492958 18:-0.683019 19:-0.750943 20:-0.788945 21:-0.923695 22:-0.624309 23:-1 24:-1 25:-0.878261 26:-0.497487 27:-0.788945 28:-1 29:-0.90221 30:-0.460993 31:-0.690789 32:-1 33:-0.446809 34:-0.584699 35:-0.355556 36:-0.608579 37:-1 38:-1 39:-1 40:-1 41:-0.787611 42:-0.808118 43:-0.75 44:-0.161765 45:-0.647059 46:-0.716599 47:-0.811321 48:-0.578431 49:-0.80814 50:-0.0679612 51:-0.748744 52:-1 53:-1 54:-0.856459 55:-1 56:-0.593393 57:-1 58:-1 59:-0.457364 60:-0.400458 61:-1 62:-0.381295 63:-1 64:-1 
-2048 1:-0.965665 2:-0.989276 3:-0.978552 4:-1 5:-0.978142 6:-0.947826 7:-0.963077 8:-0.917431 9:-0.975904 10:-0.92233 11:-0.977358 12:-0.98995 13:-0.985714 14:-0.964602 15:-0.92233 16:-0.955056 17:-0.943662 18:-0.977358 19:-0.969811 20:-0.959799 21:-0.983936 22:-0.977901 23:-0.965116 24:-1 25:-0.982609 26:-0.939698 27:-0.979899 28:-0.976549 29:-1 30:-0.957447 31:-0.960526 32:-1 33:-0.957447 34:-0.967213 35:-0.977778 36:-0.957105 37:-0.984496 38:-0.988201 39:-1 40:-1 41:-0.988201 42:-0.97786 43:-0.955882 44:-0.955882 45:-0.955882 46:-0.967611 47:-0.974843 48:-0.95098 49:-0.976744 50:-0.980583 51:-0.959799 52:-0.968912 53:-0.982927 54:-0.990431 55:-1 56:-1 57:-1 58:-1 59:-0.906977 60:-1 61:-0.924706 62:-1 63:-1 64:-1 
-1509.553777532549 1:-0.905579 2:-0.951743 3:-0.930295 4:-0.827338 5:-0.956284 6:-0.86087 7:-0.956923 8:-1 9:-0.88755 10:-0.708738 11:-0.924528 12:-0.974874 13:-0.9 14:-0.911504 15:-0.883495 16:-1 17:-0.915493 18:-0.924528 19:-0.939623 20:-0.778894 21:-1 22:-0.889503 23:-0.802326 24:-0.608392 25:-0.921739 26:-0.889447 27:-0.899497 28:-1 29:-1 30:-0.801418 31:-1 32:-0.875536 33:-0.914894 34:-0.704918 35:-0.866667 36:-1 37:-1 38:-0.973451 39:-1 40:-1 41:-0.929204 42:-0.948339 43:-0.867647 44:-0.897059 45:-0.779412 46:-0.902834 47:-0.798742 48:-0.941176 49:-0.959302 50:-0.76699 51:-0.829146 52:-1 53:-1 54:-0.894737 55:-1 56:-0.916137 57:-0.957447 58:-0.947566 59:-0.674419 60:-1 61:-0.491765 62:-0.956835 63:-1 64:-1 
-2048 1:-0.982833 2:-0.989276 3:-0.989276 4:-0.985612 5:-0.989071 6:-0.965217 7:-0.981538 8:-0.972477 9:-0.983936 10:-0.961165 11:-0.992453 12:-0.98995 13:-0.971429 14:-0.982301 15:-0.961165 16:-1 17:-0.971831 18:-0.984906 19:-0.984906 20:-0.979899 21:-0.995984 22:-0.977901 23:-0.988372 24:-0.944056 25:-0.991304 26:-0.979899 27:-0.979899 28:-0.99665 29:-0.995981 30:-0.971631 31:-0.973684 32:-0.974249 33:-0.978723 34:-0.978142 35:-0.966667 36:-0.989276 37:-1 38:-0.9941 39:-0.997886 40:-1 41:-0.988201 42:-0.98524 43:-0.970588 44:-0.985294 45:-0.970588 46:-0.983806 47:-0.974843 48:-1 49:-0.988372 50:-0.961165 51:-0.979899 52:-0.989637 53:-1 54:-0.980861 55:-1 56:-1 57:-0.984043 58:-0.977528 59:-0.968992 60:-1 61:-1 62:-0.971223 63:-1 64:-1 
-2048 1:-0.974249 2:-0.983914 3:-0.989276 4:-0.992806 5:-0.994536 6:-0.947826 7:-0.993846 8:-0.972477 9:-0.983936 10:-0.941748 11:-0.984906 12:-0.979899 13:-0.957143 14:-0.982301 15:-0.941748 16:-1 17:-0.957746 18:-0.984906 19:-0.977358 20:-0.959799 21:-0.995984 22:-0.977901 23:-0.976744 24:-1 25:-0.991304 26:-0.969849 27:-0.969849 28:-1 29:-0.994642 30:-0.971631 31:-0.960526 32:-1 33:-0.989362 34:-0.967213 35:-0.988889 36:-1 37:-0.922481 38:-0.988201 39:-1 40:-1 41:-0.982301 42:-0.98524 43:-0.955882 44:-0.970588 45:-0.955882 46:-0.983806 47:-0.949686 48:-0.941176 49:-0.988372 50:-0.941748 51:-0.969849 52:-0.979275 53:-0.987805 54:-0.980861 55:-1 56:-1 57:-1 58:-1 59:-1 60:-1 61:-1 62:-0.884892 63:-1 64:-1 
-2048 1:-0.948498 2:-0.962466 3:-0.941019 4:-0.870504 5:-0.879781 6:-0.843478 7:-0.956923 8:-1 9:-0.903614 10:-0.805825 11:-0.901887 12:-0.984925 13:-0.957143 14:-0.929204 15:-0.825243 16:-0.917603 17:-0.859155 18:-0.962264 19:-0.932075 20:-0.929648 21:-0.955823 22:-0.856354 23:-0.918605 24:-0.776224 25:-0.843478 26:-0.869347 27:-0.879397 28:-0.926298 29:-1 30:-0.943262 31:-1 32:-1 33:-0.861702 34:-0.967213 35:-0.855556 36:-1 37:-0.844961 38:-0.973451 39:-0.938689 40:-1 41:-0.958702 42:-0.896679 43:-0.882353 44:-0.823529 45:-0.867647 46:-0.927126 47:-0.823899 48:-0.872549 49:-0.959302 50:-0.475728 51:-0.969849 52:-0.92228 53:-1 54:-0.923445 55:-1 56:-1 57:-0.835106 58:-1 59:-1 60:-1 61:-0.835294 62:-0.81295 63:-1 64:-1 
-144.80571868220733 1:-0.948498 2:-0.957105 3:-0.967828 4:-0.964029 5:-0.978142 6:-0.913043 7:-0.975385 8:-0.954128 9:-0.943775 10:-0.92233 11:-0.969811 12:-0.979899 13:-0.942857 14:-0.938053 15:-0.728155 16:-1 17:-0.929577 18:-0.939623 19:-0.962264 20:-0.939698 21:-0.987952 22:-0.933702 23:-0.965116 24:-0.832168 25:-0.965217 26:-0.929648 27:-0.949749 28:-0.959799 29:-0.985265 30:-0.943262 31:-0.953947 32:-0.961373 33:-0.87234 34:-0.978142 35:-0.944444 36:-0.978552 37:-1 38:-0.979351 39:-1 40:-1 41:-0.970501 42:-0.9631 43:-0.897059 44:-0.911765 45:-0.867647 46:-0.959514 47:-0.937107 48:-0.970588 49:-0.947674 50:-1 51:-0.899497 52:-1 53:-1 54:-0.933014 55:-1 56:-1 57:-0.946809 58:-1 59:-1 60:-0.95881 61:-1 62:-0.884892 63:-1 64:-0.887097 
-2048 1:-0.982833 2:-0.978552 3:-0.983914 4:-0.971223 5:-0.994536 6:-0.930435 7:-0.987692 8:-1 9:-0.975904 10:-0.941748 11:-0.977358 12:-0.979899 13:-0.885714 14:-0.973451 15:-0.902913 16:-1 17:-0.943662 18:-0.969811 19:-0.977358 20:-0.969849 21:-0.983936 22:-0.966851 23:-0.94186 24:-1 25:-0.965217 26:-0.979899 27:-0.959799 28:-0.98325 29:-1 30:-0.957447 31:-1 32:-1 33:-0.957447 34:-0.967213 35:-0.966667 36:-1 37:-0.79845 38:-0.99115 39:-1 40:-1 41:-0.976401 42:-0.97786 43:-0.941176 44:-0.970588 45:-0.985294 46:-0.967611 47:-0.987421 48:-1 49:-0.982558 50:-0.883495 51:-0.979899 52:-0.958549 53:-1 54:-0.990431 55:-0.94707 56:-1 57:-1 58:-1 59:-1 60:-1 61:-1 62:-1 63:-1 64:-1 
-2048 1:-0.991416 2:-0.994638 3:-0.994638 4:-0.992806 5:-0.994536 6:-0.982609 7:-0.987692 8:-1 9:-0.991968 10:-0.980583 11:-0.992453 12:-0.994975 13:-0.971429 14:-0.99115 15:-0.980583 16:-0.992509 17:-0.985915 18:-0.992453 19:-0.992453 20:-0.98995 21:-0.991968 22:-0.98895 23:-0.988372 24:-0.986014 25:-0.991304 26:-0.98995 27:-0.98995 28:-0.9933 29:-0.99866 30:-0.985816 31:-0.986842 32:-0.991416 33:-0.989362 34:-0.978142 35:-0.988889 36:-0.994638 37:-1 38:-0.99705 39:-1 40:-1 41:-0.9941 42:-0.99262 43:-0.985294 44:-0.970588 45:-0.985294 46:-0.991903 47:-0.987421 48:-0.970588 49:-0.994186 50:-0.980583 51:-0.98995 52:-0.994819 53:-0.995122 54:-0.990431 55:-0.996219 56:-1 57:-0.994681 58:-0.992509 59:-0.984496 60:-0.97254 61:-1 62:-0.985612 63:-1 64:-1 
-908.82406982406303 1:-0.939914 2:-0.951743 3:-0.978552 4:-0.892086 5:-0.967213 6:-0.808696 7:-1 8:-1 9:-0.943775 10:-0.84466 11:-0.94717 12:-0.944724 13:-1 14:-0.902655 15:-0.84466 16:-1 17:-0.84507 18:-0.932075 19:-0.916981 20:-0.959799 21:-0.943775 22:-0.911602 23:-0.94186 24:-1 25:-0.956522 26:-0.929648 27:-0.889447 28:-0.973199 29:-1 30:-0.858156 31:-0.848684 32:-1 33:-0.819149 34:-0.923497 35:-0.944444 36:-0.924933 37:-1 38:-0.982301 39:-1 40:-1 41:-0.941003 42:-0.940959 43:-0.852941 44:-0.882353 45:-0.808824 46:-0.94332 47:-0.861635 48:-0.715686 49:-0.924419 50:-0.533981 51:-0.949749 52:-0.958549 53:-0.9 54:-1 55:-1 56:-1 57:-1 58:-1 59:-1 60:-1 61:-1 62:-0.582734 63:-1 64:-1 
-2048 1:-0.965665 2:-0.978552 3:-0.97319 4:-0.985612 5:-0.989071 6:-0.947826 7:-0.969231 8:-1 9:-0.975904 10:-0.941748 11:-0.977358 12:-0.969849 13:-0.914286 14:-0.973451 15:-0.961165 16:-0.955056 17:-0.957746 18:-0.977358 19:-0.984906 20:-0.939698 21:-0.983936 22:-0.955801 23:-0.965116 24:-0.972028 25:-0.965217 26:-0.979899 27:-0.949749 28:-0.99665 29:-0.994642 30:-0.943262 31:-0.973684 32:-1 33:-0.968085 34:-0.967213 35:-0.977778 36:-0.978552 37:-0.953488 38:-0.985251 39:-1 40:-1 41:-0.976401 42:-0.97048 43:-0.941176 44:-0.955882 45:-0.955882 46:-0.975709 47:-0.937107 48:-0.941176 49:-0.988372 50:-0.76699 51:-1 52:-1 53:-0.982927 54:-0.971292 55:-1 56:-1 57:-0.989362 58:-0.955056 59:-0.891473 60:-1 61:-1 62:-0.985612 63:-1 64:-0.956221 
-2048 1:-0.982833 2:-0.983914 3:-0.989276 4:-0.985612 5:-0.989071 6:-0.947826 7:-0.981538 8:-1 9:-0.975904 10:-0.961165 11:-0.977358 12:-0.98995 13:-0.957143 14:-0.982301 15:-0.941748 16:-1 17:-0.971831 18:-0.984906 19:-0.984906 20:-0.969849 21:-0.991968 22:-0.977901 23:-0.976744 24:-0.972028 25:-0.991304 26:-0.969849 27:-0.979899 28:-0.99665 29:-0.995981 30:-0.957447 31:-0.967105 32:-0.978541 33:-0.978723 34:-0.989071 35:-0.955556 36:-0.983914 37:-1 38:-0.9941 39:-0.997886 40:-0.969512 41:-0.982301 42:-0.98524 43:-0.970588 44:-0.955882 45:-0.970588 46:-0.983806 47:-0.974843 48:-0.960784 49:-0.988372 50:-0.941748 51:-0.969849 52:-0.989637 53:-0.997561 54:-0.990431 55:-0.988658 56:-1 57:-0.989362 58:-0.977528 59:-0.922481 60:-1 61:-1 62:-0.971223 63:-1 64:-1 
-2048 1:-0.957082 2:-0.983914 3:-0.97319 4:-1 5:-0.983607 6:-0.930435 7:-1 8:-1 9:-0.975904 10:-0.883495 11:-0.969811 12:-0.98995 13:-0.942857 14:-0.964602 15:-0.902913 16:-0.970037 17:-0.943662 18:-0.977358 19:-0.962264 20:-0.929648 21:-0.983936 22:-0.966851 23:-1 24:-0.916084 25:-1 26:-0.939698 27:-0.979899 28:-1 29:-0.990623 30:-0.943262 31:-0.809211 32:-0.901288 33:-0.946809 34:-0.978142 35:-0.955556 36:-0.951743 37:-0.984496 38:-0.982301 39:-1 40:-1 41:-0.976401 42:-0.9631 43:-0.955882 44:-0.970588 45:-0.911765 46:-0.967611 47:-0.886792 48:-0.960784 49:-1 50:-0.805825 51:-0.969849 52:-1 53:-1 54:-0.961722 55:-1 56:-1 57:-0.968085 58:-0.970037 59:-0.953488 60:-0.894737 61:-0.962353 62:-1 63:-1 64:-1 
-2048 1:-0.991416 2:-0.994638 3:-0.994638 4:-1 5:-0.994536 6:-0.982609 7:-0.993846 8:-0.990826 9:-0.991968 10:-0.980583 11:-0.992453 12:-0.994975 13:-0.985714 14:-0.99115 15:-0.961165 16:-0.992509 17:-0.985915 18:-0.992453 19:-0.992453 20:-0.979899 21:-0.995984 22:-0.98895 23:-0.976744 24:-0.986014 25:-0.991304 26:-0.98995 27:-0.98995 28:-0.99665 29:-0.99866 30:-0.985816 31:-1 32:-0.987124 33:-0.989362 34:-0.989071 35:-0.988889 36:-0.994638 37:-0.968992 38:-0.99705 39:-0.997886 40:-0.993902 41:-0.9941 42:-0.99262 43:-0.985294 44:-0.985294 45:-0.985294 46:-0.991903 47:-0.987421 48:-0.980392 49:-0.994186 50:-0.980583 51:-0.979899 52:-0.994819 53:-0.997561 54:-0.990431 55:-1 56:-1 57:-0.989362 58:-0.985019 59:-1 60:-0.990847 61:-1 62:-0.985612 63:-0.99844 64:-1 
-494.98159027547462 1:-0.888412 2:-0.914209 3:-0.930295 4:-0.964029 5:-0.945355 6:-0.843478 7:-0.938462 8:-0.53211 9:-0.88755 10:-0.786408 11:-0.94717 12:-0.934673 13:-1 14:-0.876106 15:-0.68932 16:-1 17:-0.859155 18:-0.924528 19:-0.916981 20:-0.849246 21:-0.971888 22:-0.845304 23:-0.825581 24:-1 25:-0.956522 26:-0.919598 27:-0.879397 28:-0.949749 29:-0.985265 30:-0.787234 31:-0.776316 32:-1 33:-1 34:-0.912568 35:-0.922222 36:-0.941019 37:-1 38:-0.926254 39:-0.928118 40:-1 41:-0.917404 42:-0.918819 43:-0.808824 44:-0.779412 45:-0.691176 46:-0.927126 47:-1 48:-1 49:-0.883721 50:-0.84466 51:-0.778894 52:-1 53:-0.917073 54:-0.961722 55:-1 56:-1 57:-1 58:-0.707865 59:-1 60:-1 61:-1 62:-0.697842 63:-1 64:-1 
-2048 1:-0.965665 2:-0.989276 3:-0.989276 4:-0.985612 5:-0.989071 6:-0.965217 7:-0.993846 8:-0.954128 9:-0.983936 10:-0.941748 11:-0.984906 12:-0.98995 13:-0.985714 14:-0.982301 15:-0.941748 16:-1 17:-0.971831 18:-0.984906 19:-0.984906 20:-0.979899 21:-0.983936 22:-0.977901 23:-0.976744 24:-0.944056 25:-0.982609 26:-0.969849 27:-0.979899 28:-0.98995 29:-0.997321 30:-0.971631 31:-0.973684 32:-0.961373 33:-0.978723 34:-0.978142 35:-0.966667 36:-0.989276 37:-1 38:-0.99115 39:-0.993658 40:-1 41:-0.988201 42:-0.98524 43:-0.955882 44:-0.970588 45:-0.955882 46:-0.983806 47:-0.974843 48:-1 49:-0.982558 50:-0.961165 51:-0.979899 52:-0.989637 53:-0.992683 54:-0.971292 55:-0.996219 56:-1 57:-1 58:-1 59:-1 60:-1 61:-1 62:-0.913669 63:-0.98908 64:-1 
-465.89054963966299 1:-0.83691 2:-0.962466 3:-0.930295 4:-0.94964 5:-1 6:-0.73913 7:-0.876923 8:-1 9:-0.975904 10:-0.61165 11:-0.909434 12:-0.924623 13:-0.885714 14:-0.876106 15:-0.68932 16:-1 17:-0.859155 18:-0.916981 19:-0.89434 20:-0.798995 21:-0.923695 22:-0.878453 23:-0.906977 24:-1 25:-0.93913 26:-0.768844 27:-0.909548 28:-0.973199 29:-0.987944 30:-0.843972 31:-0.855263 32:-1 33:-0.87234 34:-0.814208 35:-0.888889 36:-0.903485 37:-1 38:-0.958702 39:-0.97463 40:-1 41:-0.911504 42:-0.940959 43:-0.808824 44:-0.838235 45:-0.676471 46:-0.902834 47:-0.962264 48:-0.54902 49:-0.883721 50:-0.786408 51:-0.879397 52:-1 53:-0.970732 54:-0.913876 55:-0.882798 56:-1 57:-0.797872 58:-0.700375 59:-1 60:-1 61:-1 62:-1 63:-1 64:-1 
-2.8605468622776091 1:-0.622318 2:-0.796247 3:-0.646113 4:-1 5:-0.245902 6:0.113043 7:0.0215385 8:-1 9:-0.542169 10:0.262136 11:-0.675472 12:-0.40201 13:-1 14:-0.353982 15:0.398058 16:-1 17:-0.0704225 18:-0.456604 19:-0.426415 20:-0.296482 21:-0.791165 22:-0.370166 23:-1 24:-1 25:0.2 26:-0.19598 27:-0.648241 28:-1 29:-0.804421 30:-0.361702 31:-1 32:-1 33:-1 34:-0.344262 35:-0.422222 36:-0.217158 37:-1 38:-0.80236 39:-1 40:1 41:-0.622419 42:-0.594096 43:0.191176 44:-0.676471 45:-0.0147059 46:-0.497976 47:0.0188679 48:-1 49:-0.517442 50:0.398058 51:-1 52:-0.0932642 53:-1 54:-0.617225 55:-1 56:1 57:-1 58:0.340824 59:-1 60:1 61:-1 62:-1 63:-1 64:-1 
-2048 1:-0.982833 2:-0.989276 3:-0.994638 4:-1 5:-0.994536 6:-0.982609 7:-0.993846 8:-0.981651 9:-0.991968 10:-0.980583 11:-0.984906 12:-0.98995 13:-1 14:-0.982301 15:-0.980583 16:-0.985019 17:-0.985915 18:-0.984906 19:-0.992453 20:-0.979899 21:-0.991968 22:-0.977901 23:-0.976744 24:-0.986014 25:-0.991304 26:-0.98995 27:-0.979899 28:-0.9933 29:-0.995981 30:-0.985816 31:-0.980263 32:-0.969957 33:-1 34:-0.989071 35:-0.977778 36:-0.983914 37:-0.767442 38:-0.99705 39:-0.980973 40:-0.984756 41:-0.988201 42:-0.98524 43:-0.985294 44:-0.985294 45:-0.985294 46:-0.991903 47:-1 48:-1 49:-0.988372 50:-0.980583 51:-0.979899 52:-1 53:-1 54:-0.990431 55:-1 56:-1 57:-0.994681 58:-0.985019 59:-0.984496 60:-0.954233 61:-1 62:-0.971223 63:-1 64:-1 
-538.81252211244191 1:-0.93133 2:-0.962466 3:-0.935657 4:-0.935252 5:-1 6:-0.826087 7:-0.963077 8:-0.917431 9:-0.951807 10:-0.76699 11:-0.94717 12:-0.914573 13:-0.914286 14:-0.920354 15:-0.825243 16:-1 17:-0.859155 18:-0.954717 19:-0.939623 20:-0.939698 21:-0.927711 22:-0.889503 23:-0.790698 24:-0.86014 25:-0.921739 26:-0.959799 27:-0.919598 28:-1 29:-1 30:-0.801418 31:-0.881579 32:-0.939914 33:-0.914894 34:-0.868852 35:-0.855556 36:-1 37:-1 38:-0.982301 39:-1 40:-0.871951 41:-0.946903 42:-0.918819 43:-0.867647 44:-0.838235 45:-0.823529 46:-0.935223 47:-0.949686 48:-0.901961 49:-0.901163 50:-0.825243 51:-0.879397 52:-0.953368 53:-1 54:-0.942584 55:-1 56:-1 57:-0.898936 58:-0.895131 59:-0.767442 60:-1 61:-1 62:-0.956835 63:-1 64:-1 
-33.525583130455196 1:-0.896996 2:-0.957105 3:-0.962466 4:-0.920863 5:-0.934426 6:-0.895652 7:-0.950769 8:-1 9:-0.927711 10:-0.883495 11:-0.94717 12:-0.964824 13:-0.885714 14:-0.929204 15:-0.825243 16:-1 17:-0.929577 18:-0.932075 19:-0.94717 20:-0.979899 21:-0.959839 22:-0.900552 23:-0.94186 24:-0.846154 25:-0.904348 26:-0.949749 27:-0.979899 28:-1 29:-0.978567 30:-0.87234 31:-0.901316 32:-0.901288 33:-0.93617 34:-0.912568 35:-0.877778 36:-0.914209 37:-1 38:-0.985251 39:-0.972516 40:-1 41:-0.946903 42:-0.940959 43:-0.882353 44:-0.838235 45:-0.911765 46:-0.94332 47:-0.937107 48:-0.892157 49:-1 50:-0.84466 51:-0.899497 52:-0.963731 53:-1 54:-0.913876 55:-0.958412 56:-0.954257 57:-1 58:-0.955056 59:-0.751938 60:-1 61:-1 62:-0.899281 63:-0.985959 64:-1 
-2048 1:-1 2:-1 3:-0.994638 4:-1 5:-1 6:-1 7:-1 8:-1 9:-1 10:-1 11:-1 12:-1 13:-1 14:-1 15:-1 16:-1 17:-1 18:-1 19:-1 20:-1 21:-0.995984 22:-1 23:-1 24:-1 25:-1 26:-0.98995 27:-1 28:-1 29:-1 30:-1 31:-1 32:-0.995708 33:-0.989362 34:-1 35:-1 36:-0.994638 37:-1 38:-1 39:-0.997886 40:-1 41:-1 42:-1 43:-1 44:-1 45:-1 46:-1 47:-1 48:-0.990196 49:-1 50:-0.980583 51:-1 52:-0.994819 53:-1 54:-1 55:-0.996219 56:-1 57:-1 58:-1 59:-1 60:-0.995423 61:-0.995294 62:-1 63:-1 64:-0.997696 
-1630.1090888765029 1:-0.965665 2:-0.97319 3:-0.97319 4:-0.956835 5:-0.994536 6:-0.930435 7:-0.969231 8:-0.917431 9:-0.959839 10:-0.92233 11:-0.962264 12:-0.974874 13:-0.914286 14:-0.973451 15:-0.902913 16:-1 17:-0.943662 18:-0.969811 19:-0.984906 20:-0.949749 21:-1 22:-0.933702 23:-0.895349 24:-1 25:-0.965217 26:-0.949749 27:-0.949749 28:-0.9866 29:-0.983925 30:-0.943262 31:-0.986842 32:-0.918455 33:-0.93617 34:-0.945355 35:-0.955556 36:-0.967828 37:-1 38:-0.988201 39:-1 40:-0.881098 41:-0.970501 42:-0.97048 43:-0.926471 44:-0.955882 45:-0.882353 46:-0.959514 47:-0.974843 48:-1 49:-0.988372 50:-0.883495 51:-0.929648 52:-0.989637 53:-1 54:-0.952153 55:-0.988658 56:-1 57:-1 58:-0.925094 59:-1 60:-1 61:-1 62:-0.841727 63:-1 64:-1 
-2048 1:-0.982833 2:-0.989276 3:-0.989276 4:-0.992806 5:-0.989071 6:-0.965217 7:-0.993846 8:-0.972477 9:-0.983936 10:-0.961165 11:-0.984906 12:-0.98995 13:-0.985714 14:-0.982301 15:-0.980583 16:-0.992509 17:-0.971831 18:-0.984906 19:-0.992453 20:-0.979899 21:-0.991968 22:-0.977901 23:-0.976744 24:-0.944056 25:-0.982609 26:-0.979899 27:-0.979899 28:-0.99665 29:-0.997321 30:-0.985816 31:-0.973684 32:-0.978541 33:-0.989362 34:-0.978142 35:-0.977778 36:-0.989276 37:-0.953488 38:-0.9941 39:-1 40:-1 41:-0.988201 42:-0.98524 43:-0.970588 44:-0.970588 45:-0.970588 46:-0.983806 47:-0.974843 48:-1 49:-0.994186 50:-0.980583 51:-0.969849 52:-0.979275 53:-0.997561 54:-0.980861 55:-1 56:-1 57:-0.989362 58:-0.992509 59:-0.937984 60:-1 61:-0.985882 62:-1 63:-0.99064 64:-1 
-2048 1:-0.922747 2:-0.978552 3:-0.978552 4:-0.971223 5:-0.95082 6:-0.86087 7:-0.981538 8:-0.825688 9:-0.943775 10:-0.864078 11:-0.962264 12:-0.979899 13:-0.9 14:-0.946903 15:-0.883495 16:-0.925094 17:-0.915493 18:-0.939623 19:-0.954717 20:-0.969849 21:-0.97992 22:-0.933702 23:-0.906977 24:-0.874126 25:-0.904348 26:-0.959799 27:-0.959799 28:-0.966499 29:-0.987944 30:-0.900709 31:-0.973684 32:-1 33:-0.978723 34:-0.934426 35:-0.933333 36:-0.941019 37:-0.875969 38:-0.979351 39:-0.993658 40:-1 41:-0.964602 42:-0.948339 43:-0.882353 44:-0.882353 45:-0.926471 46:-0.959514 47:-0.937107 48:-0.970588 49:-1 50:-0.961165 51:-0.919598 52:-0.943005 53:-0.992683 54:-0.933014 55:-0.920605 56:-1 57:-0.946809 58:-0.925094 59:-1 60:-1 61:-0.952941 62:-0.870504 63:-1 64:-1 
-2048 1:-0.991416 2:-0.994638 3:-0.994638 4:-1 5:-0.994536 6:-0.982609 7:-0.993846 8:-0.990826 9:-0.983936 10:-0.961165 11:-0.992453 12:-0.994975 13:-1 14:-0.99115 15:-0.980583 16:-0.992509 17:-0.985915 18:-0.992453 19:-0.992453 20:-0.979899 21:-0.991968 22:-0.98895 23:-0.988372 24:-0.986014 25:-1 26:-0.979899 27:-0.98995 28:-0.98995 29:-1 30:-0.985816 31:-1 32:-1 33:-0.989362 34:-0.989071 35:-0.988889 36:-0.994638 37:-0.968992 38:-0.9941 39:-0.997886 40:-0.993902 41:-0.9941 42:-0.99262 43:-0.985294 44:-0.985294 45:-0.985294 46:-0.991903 47:-0.974843 48:-0.990196 49:-0.988372 50:-1 51:-0.98995 52:-1 53:-0.997561 54:-1 55:-0.984877 56:-0.951715 57:-0.989362 58:-1 59:-0.968992 60:-0.98627 61:-0.990588 62:-1 63:-1 64:-1 
-588.84078414008468 1:-0.751073 2:-0.865952 3:-0.946381 4:-0.920863 5:-1 6:-0.791304 7:-1 8:-0.743119 9:-0.863454 10:-0.631068 11:-0.886792 12:-0.859296 13:-0.8 14:-0.876106 15:-0.92233 16:-0.895131 17:-0.830986 18:-0.916981 19:-0.886792 20:-0.839196 21:-0.915663 22:-0.856354 23:-0.72093 24:-0.706294 25:-0.817391 26:-0.859296 27:-0.788945 28:-1 29:-0.927662 30:-0.914894 31:-0.894737 32:-1 33:-0.776596 34:-1 35:-0.822222 36:-0.855228 37:-1 38:-0.929204 39:-0.934461 40:-1 41:-0.958702 42:-0.933579 43:-0.735294 44:-0.823529 45:-0.823529 46:-0.846154 47:-0.647799 48:-0.843137 49:-0.895349 50:-0.61165 51:-0.849246 52:-1 53:-0.960976 54:-0.799043 55:-0.965974 56:-1 57:-0.925532 58:-0.790262 59:-0.782946 60:-0.91762 61:-0.915294 62:-0.827338 63:-1 64:-0.97235 
-722.7244024828243 1:-0.811159 2:-0.967828 3:-0.946381 4:-0.956835 5:-0.95082 6:-0.878261 7:-0.981538 8:-1 9:-0.935743 10:-0.786408 11:-0.969811 12:-0.974874 13:-0.6 14:-0.884956 15:-0.805825 16:-0.483146 17:-0.873239 18:-0.94717 19:-0.916981 20:-0.919598 21:-0.987952 22:-0.911602 23:-0.883721 24:-1 25:-0.973913 26:-0.879397 27:-0.899497 28:-0.956449 29:-1 30:-0.900709 31:-0.927632 32:-1 33:-0.904255 34:-1 35:-0.888889 36:-0.785523 37:-1 38:-0.988201 39:-1 40:-1 41:-0.952802 42:-0.926199 43:-0.867647 44:-0.911765 45:-0.882353 46:-0.902834 47:-0.924528 48:-1 49:-0.982558 50:-0.708738 51:-0.929648 52:-0.906736 53:-0.94878 54:-0.990431 55:-0.928166 56:-1 57:-1 58:-1 59:-0.596899 60:-1 61:-1 62:-1 63:-1 64:-1 
-2048 1:-0.974249 2:-0.989276 3:-0.97319 4:-0.942446 5:-0.934426 6:-0.930435 7:-0.987692 8:-1 9:-0.975904 10:-0.883495 11:-0.962264 12:-0.984925 13:-0.985714 14:-0.964602 15:-0.902913 16:-0.962547 17:-0.943662 18:-0.969811 19:-0.977358 20:-0.929648 21:-0.995984 22:-0.944751 23:-0.94186 24:-0.888112 25:-0.965217 26:-0.979899 27:-0.929648 28:-1 29:-0.997321 30:-0.943262 31:-0.940789 32:-0.95279 33:-0.914894 34:-0.967213 35:-0.977778 36:-0.935657 37:-0.937984 38:-0.988201 39:-0.989429 40:-1 41:-0.970501 42:-0.9631 43:-0.926471 44:-0.970588 45:-0.911765 46:-0.967611 47:-0.962264 48:-1 49:-0.982558 50:-0.864078 51:-0.949749 52:-1 53:-0.978049 54:-0.980861 55:-0.977316 56:-0.944091 57:-0.968085 58:-1 59:-1 60:-1 61:-1 62:-0.827338 63:-1 64:-1 
-2048 1:-0.982833 2:-0.978552 3:-0.97319 4:-0.964029 5:-1 6:-0.895652 7:-0.956923 8:-1 9:-0.943775 10:-0.92233 11:-0.969811 12:-0.979899 13:-0.914286 14:-0.964602 15:-0.941748 16:-1 17:-0.943662 18:-0.969811 19:-0.969811 20:-0.949749 21:-0.97992 22:-0.955801 23:-0.953488 24:-0.874126 25:-0.956522 26:-0.959799 27:-0.969849 28:-0.9866 29:-0.995981 30:-0.929078 31:-0.953947 32:-0.939914 33:-0.946809 34:-0.934426 35:-0.955556 36:-0.983914 37:-1 38:-0.985251 39:-0.987315 40:-1 41:-0.976401 42:-0.9631 43:-0.926471 44:-0.941176 45:-0.911765 46:-0.967611 47:-0.949686 48:-0.970588 49:-0.976744 50:-0.92233 51:-0.919598 52:-0.974093 53:-0.992683 54:-0.980861 55:-0.981096 56:-0.964422 57:-1 58:-0.902622 59:-1 60:-1 61:-1 62:-0.913669 63:-1 64:-1 
-1551.1965861223728 1:-1 2:-1 3:-1 4:-1 5:-1 6:-1 7:-0.993846 8:-1 9:-1 10:-1 11:-1 12:-1 13:-0.985714 14:-1 15:-1 16:-1 17:-1 18:-1 19:-1 20:-1 21:-0.995984 22:-1 23:-1 24:-0.986014 25:-1 26:-0.98995 27:-1 28:-1 29:-1 30:-1 31:-1 32:-0.995708 33:-1 34:-1 35:-1 36:-0.994638 37:-0.984496 38:-1 39:-1 40:-0.996951 41:-1 42:-1 43:-1 44:-1 45:-1 46:-1 47:-1 48:-1 49:-0.994186 50:-1 51:-1 52:-1 53:-1 54:-1 55:-1 56:-1 57:-1 58:-1 59:-1 60:-0.995423 61:-1 62:-0.985612 63:-0.99922 64:-0.997696 
-2048 1:-0.982833 2:-0.994638 3:-0.994638 4:-0.992806 5:-0.989071 6:-0.982609 7:-0.993846 8:-1 9:-0.991968 10:-0.980583 11:-0.992453 12:-0.994975 13:-0.985714 14:-0.99115 15:-0.980583 16:-1 17:-0.985915 18:-0.992453 19:-0.992453 20:-0.98995 21:-0.995984 22:-0.98895 23:-0.988372 24:-0.986014 25:-0.982609 26:-0.98995 27:-0.98995 28:-0.99665 29:-0.997321 30:-0.985816 31:-1 32:-0.987124 33:-0.989362 34:-0.989071 35:-0.977778 36:-0.989276 37:-0.984496 38:-0.99705 39:-0.993658 40:-1 41:-0.9941 42:-0.99262 43:-0.985294 44:-0.985294 45:-0.985294 46:-0.991903 47:-0.974843 48:-0.980392 49:-0.994186 50:-0.980583 51:-0.979899 52:-1 53:-1 54:-0.990431 55:-0.996219 56:-0.994917 57:-0.989362 58:-0.985019 59:-1 60:-0.98627 61:-0.995294 62:-0.985612 63:-0.99922 64:-1 
-2048 1:-0.802575 2:-0.876676 3:-0.930295 4:-0.784173 5:-0.89071 6:-0.756522 7:-1 8:-1 9:-0.831325 10:-0.592233 11:-0.811321 12:-0.954774 13:-0.585714 14:-0.911504 15:-1 16:-1 17:-0.816901 18:-0.864151 19:-0.856604 20:-0.567839 21:-0.891566 22:-0.59116 23:-1 24:-1 25:-0.73913 26:-1 27:-0.648241 28:-0.932998 29:-0.978567 30:-0.588652 31:1 32:-1 33:-0.702128 34:-0.650273 35:-1 36:-1 37:-0.79845 38:-0.932153 39:-1 40:-1 41:-0.917404 42:-0.830258 43:-0.455882 44:-0.794118 45:-1 46:-0.748988 47:-1 48:-1 49:-1 50:-1 51:0.306533 52:-1 53:-1 54:-1 55:-1 56:-1 57:-1 58:-1 59:-1 60:-1 61:-1 62:-1 63:-1 64:-1 
-393.41545467934651 1:-0.879828 2:-0.924933 3:-0.946381 4:-1 5:-0.885246 6:-0.756522 7:-0.827692 8:-1 9:-0.911647 10:-0.76699 11:-0.886792 12:-0.934673 13:-0.842857 14:-0.876106 15:-0.864078 16:-1 17:-0.887324 18:-0.909434 19:-0.89434 20:-0.839196 21:-0.959839 22:-0.845304 23:-0.848837 24:-0.440559 25:-0.904348 26:-0.829146 27:-0.879397 28:-0.946399 29:-0.946417 30:-0.914894 31:-0.822368 32:-1 33:-0.851064 34:-0.945355 35:-0.722222 36:-0.785523 37:-0.612403 38:-1 39:-0.930233 40:-1 41:-0.911504 42:-0.889299 43:-0.838235 44:-0.823529 45:-0.897059 46:-0.88664 47:-0.937107 48:-0.852941 49:-0.784884 50:-0.708738 51:-0.929648 52:-0.860104 53:-1 54:-0.952153 55:-1 56:-1 57:-1 58:-1 59:-0.689922 60:-1 61:-1 62:-0.568345 63:-1 64:-1 
