=== Run information ===

Scheme:       weka.classifiers.trees.J48 -C 0.25 -M 2
Relation:     protein_type
Instances:    315
Attributes:   38
              AAKpartComposition
              AAutoCor
              CkSAApair
              CkSGAApair
              CTD
              CTDC
              CTDD
              DDE
              ExpectedValueAA
              ExpectedValueGAA
              ExpectedValueGKmerAA
              ExpectedValueKmerAA
              GrpDDE
              IF
              kAAComposition
              kGAAComposition
              PseKRAAC_T2
              PseKRAAC_T3A
              PseKRAAC_T3B
              PseKRAAC_T4
              PseKRAAC_T5
              PseKRAAC_T6A
              PseKRAAC_T6B
              PseKRAAC_T7
              PseKRAAC_T8
              PseKRAAC_T9
              PseKRAAC_T10
              PseKRAAC_T11
              PseKRAAC_T12
              PseKRAAC_T13
              PseKRAAC_T14
              PseKRAAC_T15
              PseKRAAC_T16
              QSOrder
              SAAC
              SGAAC
              SOCNumber
              ProteinType
Test mode:    user supplied test set:  size unknown (reading incrementally)

=== Classifier model (full training set) ===

J48 pruned tree
------------------

kAAComposition = 0: 0 (196.0/3.0)
kAAComposition = 1: 1 (119.0)

Number of Leaves  : 	2

Size of the tree : 	3


Time taken to build model: 0 seconds

=== Evaluation on test set ===

Time taken to test model on supplied test set: 0 seconds

=== Summary ===

Correctly Classified Instances          33               91.6667 %
Incorrectly Classified Instances         3                8.3333 %
Kappa statistic                          0.8224
Mean absolute error                      0.0914
Root mean squared error                  0.286 
Relative absolute error                 19.2399 %
Root relative squared error             58.6619 %
Total Number of Instances               36     

=== Detailed Accuracy By Class ===

                 TP Rate  FP Rate  Precision  Recall   F-Measure  MCC      ROC Area  PRC Area  Class
                 0.955    0.143    0.913      0.955    0.933      0.824    0.906     0.899     0
                 0.857    0.045    0.923      0.857    0.889      0.824    0.906     0.847     1
Weighted Avg.    0.917    0.105    0.917      0.917    0.916      0.824    0.906     0.879     

=== Confusion Matrix ===

  a  b   <-- classified as
 21  1 |  a = 0
  2 12 |  b = 1

