svm_type c_svc
kernel_type rbf
gamma 0.03125
nr_class 2
total_sv 168
rho 3.2433422994862569
label 1 0
nr_sv 82 86
SV
32 1:-0.403266 2:-0.0744905 3:0.0233299 4:-0.458519 5:0.185456 6:-0.752195 7:-0.460723 8:-0.135935 9:-0.503016 10:-0.321087 11:-0.0942737 12:0.193097 13:-0.0768753 14:-0.272232 15:-0.4518 16:-0.528356 17:-0.566232 18:-0.659536 19:-0.544023 20:-0.31793 
32 1:0.0594509 2:-0.159667 3:-0.000418582 4:-0.368101 5:0.308629 6:-0.414037 7:-0.321161 8:-0.023102 9:-0.496958 10:-0.306905 11:0.174776 12:-0.270042 13:-0.123552 14:-0.430332 15:0.357563 16:0.285729 17:-0.448716 18:-0.778626 19:-0.601294 20:-0.19769 
32 1:-0.752264 2:-0.303207 3:-0.225514 4:-0.277805 5:-0.136074 6:0.0216383 7:-0.47211 8:-0.274444 9:-0.567321 10:-0.0468323 11:0.155449 12:-0.526247 13:0.0258311 14:0.424127 15:-0.222034 16:-0.381404 17:-0.0425861 18:-0.0776866 19:0.196732 20:0.00656663 
32 1:-0.615284 2:-0.472449 3:-0.360615 4:-0.690846 5:-0.0757839 6:-0.622207 7:-0.393083 8:-0.213183 9:-0.171097 10:-0.0722557 11:0.429383 12:-0.573713 13:0.092543 14:0.191066 15:0.243478 16:-0.09219 17:-0.272614 18:-0.52444 19:-0.167211 20:0.15777 
32 1:-0.433319 2:-0.191131 3:-0.504996 4:-0.180006 5:-0.128024 6:-0.232159 7:-0.561349 8:-0.544903 9:0.0654068 10:0.189526 11:0.2479 12:-0.696851 13:0.36269 14:-0.120944 15:-0.0634211 16:-0.263608 17:0.151604 18:-0.590525 19:-0.445067 20:0.053838 
13.428940554353003 1:-0.148847 2:-0.427891 3:-0.342055 4:-0.0631672 5:0.201626 6:0.150075 7:-0.62539 8:-0.663007 9:-0.348711 10:-0.627398 11:-0.601344 12:-0.018785 13:-0.838883 14:-0.18554 15:-0.257955 16:-0.896203 17:0.0296155 18:-0.634872 19:0.266368 20:-0.744563 
32 1:-0.22375 2:-0.899219 3:-0.546471 4:-0.116327 5:0.299377 6:-0.735142 7:-0.754622 8:-0.67016 9:-0.356934 10:-0.4617 11:-0.247025 12:-0.434068 13:0.139226 14:-0.116631 15:0.0333636 16:-0.450683 17:-0.801815 18:-0.0749618 19:-0.0164583 20:-0.496211 
32 1:-0.342283 2:0.286969 3:-0.686577 4:0.111715 5:-0.174234 6:-0.70844 7:-0.80551 8:-0.709111 9:0.382928 10:0.332474 11:0.507672 12:-0.753622 13:0.454997 14:-0.184664 15:-0.439011 16:0.184496 17:0.273287 18:-0.442468 19:-0.302889 20:0.270286 
32 1:-0.694107 2:-0.322928 3:-0.0147336 4:-0.12233 5:0.813748 6:-0.272 7:-0.333727 8:0.294538 9:-0.38209 10:-0.187798 11:0.447521 12:-0.266418 13:0.0809943 14:-0.550192 15:-0.361646 16:-0.90078 17:-0.166862 18:-0.628824 19:-0.757995 20:0.0864223 
32 1:-0.423896 2:-0.555142 3:-0.197602 4:-0.0991751 5:0.258273 6:-0.134832 7:-0.36413 8:-0.138285 9:-0.120737 10:-0.193594 11:0.291335 12:-0.537397 13:-0.348272 14:0.0897513 15:0.00241214 16:-0.0776642 17:-0.407679 18:-0.00348092 19:0.0996257 20:0.28283 
32 1:0.545154 2:0.0307573 3:-0.425715 4:-1 5:-1 6:-0.935667 7:-0.878592 8:-0.844473 9:-0.465198 10:-0.753827 11:-0.804782 12:0.213928 13:-1 14:-1 15:-0.0247284 16:-0.40229 17:-0.378627 18:-0.969266 19:-0.9712 20:-0.411259 
9.8609623539082953 1:-0.448236 2:0.32627 3:-1 4:-0.0235664 5:-0.439074 6:-0.762326 7:-0.942021 8:-0.656123 9:1 10:0.387156 11:0.920369 12:-0.947251 13:1 14:-0.0428046 15:0.182499 16:0.388605 17:-0.400622 18:-0.627058 19:-0.320916 20:0.30926 
32 1:-0.255788 2:-0.423397 3:0.0773019 4:-0.234425 5:0.182534 6:-0.360937 7:-0.219783 8:-0.204759 9:-0.251212 10:-0.283432 11:0.253154 12:-0.498082 13:-0.247874 14:0.0173817 15:0.0687246 16:-0.129439 17:-0.213897 18:-0.0142463 19:-0.0779192 20:-0.066569 
8.4284854738813326 1:-0.189122 2:-0.291075 3:-0.363652 4:-0.102734 5:0.161615 6:-0.296951 7:1 8:1 9:-0.740751 10:-0.211769 11:0.956003 12:0.282494 13:-0.207915 14:-0.644718 15:-1 16:-0.22315 17:-0.2304 18:-0.967551 19:-0.916508 20:-0.131712 
32 1:-0.253238 2:-0.402224 3:0.0627572 4:-0.214501 5:0.171541 6:-0.389343 7:-0.237571 8:-0.195486 9:-0.230666 10:-0.288589 11:0.275843 12:-0.500034 13:-0.222607 14:-0.00889102 15:0.11535 16:-0.116267 17:-0.187647 18:0.00936002 19:-0.0927416 20:-0.0722022 
21.225201295496799 1:0.08886 2:-0.44946 3:-0.241414 4:-0.100216 5:-0.261488 6:-0.731486 7:0.15862 8:-0.157359 9:-0.822777 10:-0.0128475 11:-0.013756 12:-0.381994 13:0.0684556 14:-0.254242 15:-0.886775 16:0.207974 17:0.00548729 18:-0.790742 19:-0.50979 20:-0.16969 
32 1:-0.205021 2:-0.206845 3:-0.238447 4:-0.292293 5:0.082824 6:-0.930052 7:-0.506061 8:-0.315464 9:-0.581317 10:-0.445494 11:-0.14295 12:-0.184753 13:-0.295051 14:0.0586832 15:-0.434299 16:-0.359931 17:-0.48149 18:-0.850369 19:-0.416166 20:-0.226674 
32 1:-0.463092 2:-0.0912355 3:-0.220931 4:-0.186704 5:0.0410803 6:-0.563376 7:-0.603554 8:-0.0198247 9:0.265281 10:-0.0133447 11:0.352045 12:-0.288958 13:0.136952 14:0.0998061 15:0.22644 16:-0.144586 17:0.219509 18:-0.190661 19:0.0646333 20:-0.0428172 
32 1:-0.458002 2:0.287783 3:-0.37992 4:0.161191 5:-0.034348 6:-0.609668 7:-0.251666 8:-0.401932 9:0.0949177 10:0.142557 11:0.40024 12:-0.672647 13:0.331462 14:-0.0255993 15:-0.236896 16:0.0975122 17:0.148539 18:-0.443728 19:-0.0772676 20:0.189103 
32 1:0.130929 2:-0.691656 3:-0.356901 4:0.176062 5:-0.0477099 6:-0.450812 7:-0.0146975 8:-0.267287 9:-0.508521 10:-0.114911 11:-0.166107 12:-0.566804 13:0.352813 14:-0.162361 15:-0.0809294 16:0.173885 17:0.00530623 18:-0.715266 19:-0.282673 20:0.225676 
29.532560701086922 1:-0.15042 2:-0.721326 3:-0.2026 4:-0.198511 5:-0.0283299 6:-0.565121 7:-0.39903 8:-0.387214 9:0.0134191 10:-0.509096 11:-0.462667 12:-0.285681 13:-0.434502 14:-0.153147 15:0.0268748 16:-0.20911 17:-0.600631 18:-0.512948 19:0.136418 20:-0.425838 
32 1:0.0367249 2:-0.262267 3:0.273274 4:-0.147171 5:0.269618 6:-0.324853 7:0.067024 8:0.702375 9:-0.405019 10:-0.342004 11:0.497576 12:-0.336629 13:0.0110436 14:-0.161668 15:-0.306927 16:-0.0408361 17:-0.248958 18:-0.763545 19:-0.402625 20:-0.315539 
32 1:-0.381386 2:0.0760302 3:-0.532236 4:0.0866213 5:-0.0899479 6:-0.572399 7:-0.730748 8:-0.378508 9:0.388061 10:0.290856 11:0.401252 12:-0.525624 13:0.415251 14:-0.128807 15:-0.2811 16:0.0110552 17:-0.22975 18:-0.675261 19:-0.408791 20:0.394689 
32 1:-0.030806 2:-0.327023 3:-0.0739159 4:-0.0294941 5:0.149302 6:-0.383898 7:-0.303971 8:-0.0632315 9:0.729542 10:-0.255376 11:-0.210712 12:-0.54912 13:0.0514658 14:0.177819 15:-0.311912 16:-0.143656 17:-0.397244 18:-0.361196 19:0.771873 20:-0.108146 
32 1:0.163657 2:-0.1184 3:0.0808353 4:-0.535162 5:0.37739 6:-0.271014 7:-0.658864 8:-0.103583 9:0.096272 10:-0.443609 11:-0.446049 12:0.333791 13:-0.582601 14:-0.0660323 15:-0.505216 16:0.132259 17:0.439059 18:-0.671819 19:-0.287117 20:0.07209 
32 1:-0.723798 2:-0.390338 3:-0.0436926 4:-0.193693 5:0.151903 6:-0.407625 7:0.164936 8:0.599785 9:-0.686019 10:-0.320665 11:0.620149 12:-0.025837 13:0.44551 14:-0.228656 15:-0.687804 16:-0.395724 17:-0.558429 18:-0.335824 19:-0.328936 20:-0.268408 
32 1:-0.494509 2:-0.752634 3:0.122001 4:-0.315756 5:0.218348 6:-0.595252 7:-0.340694 8:-0.225673 9:-0.473929 10:-0.256702 11:-0.0782132 12:0.173645 13:0.148486 14:0.165686 15:0.00353593 16:-0.387236 17:-0.212795 18:-0.774527 19:-0.247711 20:-0.210553 
32 1:-0.194067 2:0.0807378 3:-0.438048 4:-0.0275107 5:0.235281 6:-0.285687 7:-0.598884 8:-0.418432 9:0.217973 10:-0.0784532 11:0.0789055 12:-0.448368 13:0.0403345 14:-0.160942 15:-0.253399 16:-0.0567213 17:0.611784 18:-0.466923 19:-0.0212441 20:-0.0570764 
32 1:0.247651 2:-0.959213 3:-0.477832 4:-0.198209 5:0.222301 6:0.296223 7:-0.504423 8:-0.0607171 9:-0.467649 10:-0.685629 11:-0.45778 12:-0.674127 13:-0.240864 14:-0.829345 15:-0.0532336 16:-0.0217359 17:-0.414734 18:-0.433846 19:-0.173844 20:-0.4096 
32 1:-0.613552 2:-0.860339 3:-0.0671029 4:-0.153665 5:-0.189448 6:-0.574918 7:0.0510694 8:0.0436769 9:-0.76624 10:-0.0799858 11:0.0530771 12:-0.176815 13:0.249814 14:0.263773 15:0.202394 16:0.0560451 17:-0.457193 18:-0.69834 19:0.151573 20:0.503588 
23.343906111620683 1:-0.408373 2:-0.66216 3:-0.258723 4:-0.701901 5:-0.609201 6:-0.701875 7:-0.452543 8:-0.441973 9:-0.834387 10:-0.726804 11:-0.451085 12:-0.126124 13:-0.403657 14:-0.66856 15:-0.553813 16:-0.784749 17:-1 18:-0.62486 19:-0.708451 20:-0.623285 
32 1:-0.575702 2:-0.820053 3:-0.607109 4:0.253456 5:0.0166512 6:0.367397 7:-0.20665 8:-0.148114 9:-0.208504 10:0.029876 11:0.0998489 12:-0.32534 13:-0.0989787 14:0.542011 15:-0.137959 16:-0.213556 17:0.106728 18:-0.247708 19:0.548834 20:-0.116483 
28.435177185610357 1:-0.154428 2:0.0591734 3:-0.214994 4:-0.484784 5:-0.377795 6:-0.516708 7:-0.293297 8:-0.585629 9:0.0911524 10:-0.525135 11:-0.621794 12:-0.786963 13:-0.575069 14:0.0630836 15:0.916697 16:-0.477975 17:0.645729 18:-0.457196 19:0.91378 20:-0.35213 
32 1:-0.25576 2:-0.42717 3:-0.422611 4:0.279152 5:-0.00553415 6:-0.340909 7:-0.408291 8:-0.42811 9:-0.153021 10:-0.416202 11:-0.424485 12:-0.55556 13:-0.114817 14:-0.145688 15:0.114318 16:-0.202859 17:-0.583631 18:-0.590254 19:0.163614 20:-0.164764 
32 1:-0.350126 2:-0.585998 3:0.172592 4:0.190828 5:0.371967 6:-0.698653 7:-0.316454 8:-0.550245 9:-0.308892 10:-0.248627 11:-0.0178407 12:-0.424817 13:-0.152232 14:0.256017 15:-0.0855769 16:-0.292123 17:0.132355 18:-0.347096 19:0.371798 20:-0.0742573 
13.229005340277476 1:-0.129754 2:-0.253999 3:0.0533559 4:-0.843553 5:-0.218777 6:0.820369 7:-0.32627 8:-0.400915 9:-0.144081 10:-0.58451 11:-0.289981 12:-0.443214 13:-0.641449 14:-0.423463 15:0.718163 16:-0.392684 17:-0.257701 18:-0.467486 19:-0.635446 20:-0.218718 
30.675376907943381 1:0.226457 2:-0.893484 3:-0.497053 4:-0.191619 5:0.0455425 6:-0.388302 7:-0.68839 8:-0.5823 9:-0.68366 10:-0.237373 11:-0.304203 12:-0.403187 13:-0.508919 14:0.325681 15:-0.169829 16:-0.325932 17:-0.245931 18:-0.145758 19:0.201782 20:-0.352194 
32 1:-0.264406 2:-0.300425 3:-0.169624 4:-0.151126 5:0.0695007 6:-0.470907 7:-0.224944 8:0.0245771 9:-0.335234 10:-0.00745498 11:0.231446 12:-0.136065 13:0.236725 14:-0.24817 15:-0.269584 16:-0.231977 17:-0.349939 18:-0.731257 19:-0.221063 20:0.1585 
32 1:0.292054 2:-0.240847 3:-0.345871 4:0.27148 5:0.102134 6:-0.48146 7:-0.214737 8:-0.00916555 9:-0.429712 10:-0.0258636 11:0.0897194 12:-0.173408 13:-0.0175521 14:-0.0807004 15:0.137931 16:0.440286 17:0.188754 18:-0.639566 19:-0.266968 20:0.0321031 
32 1:-0.0344744 2:-0.619922 3:-0.656682 4:0.53683 5:0.148018 6:-0.853473 7:-0.376349 8:-0.550519 9:-0.101968 10:-0.275926 11:-0.281191 12:-0.834604 13:-0.38759 14:0.348173 15:0.37652 16:-0.0280038 17:0.440655 18:0.151568 19:0.617295 20:-0.0289967 
32 1:-0.473935 2:-0.557199 3:-0.0407173 4:0.225359 5:0.249615 6:-0.660821 7:-0.259865 8:-0.199525 9:-0.531145 10:0.0579314 11:0.29059 12:-0.338285 13:0.115351 14:0.229667 15:-0.0514289 16:-0.212601 17:-0.0978722 18:-0.125299 19:0.205815 20:-0.0654066 
32 1:0.00373029 2:-0.604395 3:-0.349169 4:-0.0444105 5:0.0108908 6:0.262698 7:-0.141733 8:-0.145782 9:-0.397836 10:-0.111284 11:0.0619755 12:-0.228893 13:0.0316913 14:0.0165607 15:0.172761 16:0.132827 17:-0.0392138 18:-0.621696 19:-0.129134 20:-0.0401346 
32 1:0.262181 2:-0.0628184 3:-0.285435 4:-0.453258 5:-0.113521 6:-0.438626 7:-0.319588 8:-0.488498 9:-0.191251 10:-0.251278 11:0.241577 12:-0.498043 13:0.00484934 14:-0.530309 15:0.392416 16:0.129764 17:0.16339 18:-0.658979 19:-0.73648 20:-0.0378927 
32 1:-0.306098 2:-0.12529 3:-0.30297 4:0.136368 5:-0.105945 6:-0.329521 7:-0.591451 8:-0.599487 9:0.135634 10:0.0974283 11:0.220931 12:-0.594598 13:0.0289779 14:0.196529 15:-0.10671 16:0.151813 17:-0.0178084 18:-0.303943 19:0.0655805 20:0.0113195 
32 1:-0.407025 2:-0.0309497 3:-0.3955 4:-0.302552 5:-0.117965 6:-0.210977 7:-0.474975 8:-0.557946 9:-0.0116148 10:-0.0231189 11:0.463439 12:-0.568693 13:0.038705 14:0.172304 15:-0.23938 16:0.246139 17:-0.161476 18:-0.531243 19:-0.089689 20:0.263544 
32 1:-0.516608 2:-0.112065 3:-0.723019 4:-0.296501 5:-0.428291 6:-0.359646 7:-0.554535 8:-0.6675 9:-0.197592 10:0.0207911 11:-0.106465 12:-0.724551 13:0.0170557 14:0.263052 15:0.0908263 16:-0.276281 17:-0.309134 18:-0.313307 19:0.487115 20:-0.162109 
32 1:-0.322134 2:-0.709114 3:-0.420692 4:-0.394126 5:0.250795 6:-0.358025 7:-0.16133 8:0.160147 9:-0.775995 10:0.249957 11:0.176657 12:-0.227565 13:-0.272595 14:0.0932015 15:-0.41661 16:0.07694 17:0.45914 18:-0.253956 19:0.0779282 20:0.345048 
32 1:-0.743379 2:-0.505411 3:0.0555473 4:0.515799 5:0.570004 6:-0.36679 7:-0.34453 8:0.222384 9:0.195743 10:-0.144772 11:-0.114586 12:0.226117 13:-0.274882 14:-0.0618005 15:-0.713334 16:-0.970181 17:-0.88367 18:-0.574146 19:-0.124513 20:-0.234135 
32 1:-0.241968 2:-0.0015745 3:-0.502111 4:-0.0390184 5:0.383384 6:-0.410559 7:-0.367601 8:-0.569651 9:0.256425 10:0.120583 11:-0.05248 12:-0.561713 13:0.0798748 14:-0.246681 15:-0.783584 16:0.0275015 17:0.158637 18:-0.311607 19:0.334042 20:0.185289 
32 1:-0.0896927 2:-0.355343 3:-0.514282 4:0.302747 5:-0.0196991 6:-0.363655 7:-0.309722 8:-0.287685 9:-0.276542 10:-0.0464301 11:-0.226025 12:-0.452872 13:-0.275549 14:-0.0501758 15:-0.160524 16:0.0524759 17:0.326337 18:-0.480471 19:0.0585814 20:0.029462 
22.541354840320558 1:-0.227951 2:0.000368351 3:-0.655057 4:-0.0807646 5:-0.441234 6:-0.410928 7:-0.73319 8:-0.713787 9:0.269474 10:0.0609465 11:0.381752 12:-0.874902 13:-0.047942 14:0.171077 15:-0.0860149 16:0.376997 17:0.442227 18:0.0435154 19:0.469844 20:0.0132229 
32 1:-0.438734 2:0.662189 3:-0.00360941 4:-0.0243447 5:0.172683 6:-0.25844 7:-0.287104 8:-0.278473 9:0.227667 10:0.0849979 11:0.412037 12:-0.636543 13:0.232469 14:-0.0454411 15:0.415448 16:-0.207894 17:-0.0154413 18:0.123279 19:0.273108 20:-0.0232597 
32 1:-0.285411 2:-0.712411 3:-0.475264 4:-0.0265944 5:0.124399 6:0.13158 7:0.397528 8:-0.196125 9:-0.609304 10:-0.52801 11:0.209353 12:-0.56243 13:0.0919143 14:-0.421004 15:-0.262812 16:-0.189018 17:-0.1314 18:0.371663 19:0.00990814 20:-0.199999 
32 1:-0.477806 2:-0.487607 3:-0.0338034 4:-0.16979 5:-0.644511 6:-0.449337 7:-0.270174 8:-0.571341 9:0.58568 10:-0.0226136 11:0.18862 12:-0.318443 13:0.176824 14:0.126016 15:-0.0767153 16:-0.314747 17:0.176395 18:-0.665183 19:0.103084 20:-0.0659065 
32 1:-0.447991 2:-0.836566 3:0.108178 4:0.189024 5:0.259881 6:-0.129791 7:-0.155587 8:-0.202637 9:-0.137911 10:0.0347511 11:0.22458 12:-0.380274 13:-0.119201 14:-0.0367375 15:0.0382183 16:-0.335856 17:-0.049773 18:-0.310161 19:0.00844699 20:0.103753 
32 1:-0.149846 2:-0.698294 3:-0.408012 4:-0.510642 5:0.0564192 6:-0.647769 7:-0.498023 8:-0.13963 9:-0.42572 10:-0.477376 11:-0.456117 12:-0.123982 13:-0.230873 14:-0.359418 15:-0.298769 16:-0.47679 17:-0.80078 18:-0.687636 19:-0.1146 20:-0.2577 
0.84754087292301294 1:-0.37297 2:-0.202131 3:-0.334359 4:0.0290998 5:-0.282485 6:-0.25223 7:-0.69632 8:-0.383236 9:-0.595412 10:-0.133604 11:-0.193846 12:-0.591349 13:-0.169299 14:0.0833194 15:-0.176606 16:-0.192709 17:0.068815 18:-0.437476 19:-0.131042 20:-0.0111265 
32 1:-0.360764 2:-0.712988 3:-0.513209 4:-0.0458231 5:0.321327 6:-0.761775 7:-0.593702 8:-0.495457 9:-0.590749 10:-0.25428 11:-0.380444 12:-0.497798 13:-0.0423664 14:0.216813 15:0.220465 16:-0.395083 17:-0.257284 18:-0.0404989 19:0.533276 20:-0.330784 
23.120761035138997 1:-0.427501 2:-0.307617 3:-0.12521 4:-0.405433 5:-0.0879256 6:-0.0695582 7:-0.275758 8:-0.280875 9:-0.256427 10:-0.326981 11:0.39274 12:-0.559503 13:-0.247135 14:0.0319501 15:0.380416 16:-0.118717 17:-0.165719 18:-0.26728 19:-0.298353 20:0.0909984 
32 1:-0.472452 2:-0.76039 3:-0.144107 4:0.0189391 5:0.459306 6:-0.730082 7:-0.450921 8:0.0358413 9:-0.463917 10:-0.175856 11:-0.084391 12:-0.188525 13:-0.163991 14:0.332009 15:0.0328028 16:-0.168983 17:-0.157046 18:-0.0776249 19:-0.0200922 20:0.136478 
5.8486797294328046 1:-0.282093 2:-0.521732 3:0.188362 4:-0.13031 5:0.130891 6:-0.232549 7:-0.0287507 8:0.481627 9:-0.7609 10:-0.115259 11:0.608103 12:-0.238981 13:0.176555 14:-0.162947 15:-0.407753 16:0.0293664 17:-0.126875 18:-0.565555 19:-0.534857 20:-0.227694 
32 1:-0.383763 2:-0.505771 3:-0.195898 4:-0.15382 5:0.532586 6:-0.207156 7:-0.354997 8:-0.0360388 9:-0.201934 10:-0.00812262 11:0.186985 12:-0.434971 13:0.0101345 14:0.0634492 15:0.397955 16:-0.239911 17:-0.141442 18:-0.238491 19:0.0790038 20:-0.0201737 
32 1:-0.39755 2:-0.402384 3:0.366463 4:-0.479966 5:0.0729999 6:-0.531721 7:-0.709878 8:-0.278012 9:-0.261875 10:-0.518804 11:-0.414814 12:-0.0893688 13:-0.348379 14:-0.160708 15:-0.33287 16:-0.524709 17:-0.132396 18:-0.646507 19:-0.323374 20:-0.133682 
19.729644787380398 1:-0.387597 2:-0.881886 3:-0.555616 4:0.476859 5:-0.0613952 6:0.381829 7:-0.622299 8:-0.25378 9:-0.367128 10:-0.18959 11:-0.209879 12:-0.365281 13:0.202938 14:1 15:-0.020029 16:-0.053497 17:0.213692 18:0.221218 19:0.31268 20:-0.332408 
32 1:-0.580305 2:-0.169976 3:0.0628398 4:0.211853 5:0.390428 6:-0.57252 7:-0.279208 8:0.267273 9:-0.408766 10:0.345277 11:0.651623 12:-0.539605 13:0.281412 14:0.417532 15:-0.468239 16:-0.0498841 17:-0.573358 18:-0.353201 19:-0.0648313 20:0.0732524 
32 1:-0.500561 2:-0.420807 3:-0.271917 4:-0.120614 5:0.367135 6:-0.155758 7:-0.0411692 8:-0.0480032 9:-0.433851 10:-0.0784451 11:0.378783 12:-0.288372 13:-0.183725 14:0.148874 15:-0.381275 16:-0.30457 17:-0.20247 18:-0.566477 19:0.254432 20:-0.171782 
32 1:-0.416591 2:-0.338907 3:-0.640435 4:0.0377345 5:-0.176141 6:-0.273766 7:-0.639321 8:-0.489969 9:-0.0564655 10:0.0734251 11:0.247786 12:-0.578671 13:0.253952 14:0.344352 15:-0.0525694 16:0.130523 17:-0.38788 18:-0.224026 19:0.0964833 20:0.0211517 
8.4944670181572306 1:0.0854304 2:-0.751097 3:-0.457178 4:-0.490514 5:-0.0600221 6:0.365834 7:-0.279557 8:-0.316675 9:-0.286677 10:-0.570007 11:0.0403776 12:-0.685558 13:-0.47985 14:-0.333176 15:0.314254 16:-0.0241915 17:0.152297 18:0.284473 19:-0.0579187 20:-0.1608 
32 1:-0.285404 2:-0.88811 3:-0.281427 4:-0.252866 5:-0.0503212 6:-0.379187 7:-0.596285 8:-0.156294 9:-0.872757 10:-0.643686 11:-0.266672 12:-0.0314513 13:0.127636 14:0.0443338 15:0.408212 16:-0.248404 17:-0.72099 18:-0.0448115 19:0.653222 20:-0.805612 
32 1:-0.238689 2:0.386795 3:0.0735724 4:0.390093 5:0.292212 6:-0.499544 7:-0.266085 8:-0.15691 9:-0.369294 10:0.132812 11:0.167125 12:-0.419295 13:-0.25369 14:-0.0848746 15:-0.255926 16:-0.186726 17:0.117315 18:-0.499486 19:-0.149843 20:0.140417 
32 1:0.738763 2:-0.758607 3:-0.921666 4:-0.186246 5:0.172427 6:-0.272463 7:-0.613271 8:-0.711733 9:-0.178652 10:-0.614042 11:-0.682828 12:-0.768658 13:-0.481024 14:-0.394585 15:-0.319166 16:-0.317208 17:0.147157 18:-0.161057 19:0.172354 20:-0.394815 
12.522481868374873 1:-0.39423 2:-0.421603 3:-0.364952 4:-0.442248 5:-0.0988967 6:-0.092586 7:-0.441687 8:0.0167576 9:0.0194446 10:-0.27481 11:0.285303 12:-0.619052 13:-0.175426 14:0.116651 15:0.250485 16:-0.0457366 17:0.0702924 18:-0.295705 19:-0.160455 20:-0.00412512 
32 1:-0.19817 2:-0.61817 3:-0.339223 4:-0.327349 5:0.132045 6:-0.0977407 7:-0.569608 8:-0.224122 9:-0.415703 10:-0.400288 11:-0.305509 12:0.213811 13:-0.483574 14:-0.321903 15:-0.11309 16:-0.363323 17:-0.26829 18:-0.228917 19:-0.183017 20:-0.250324 
12.163585473129359 1:0.180568 2:-0.962122 3:-0.333425 4:-0.589754 5:0.0609689 6:-0.538859 7:-0.400846 8:0.0720208 9:-0.524542 10:-0.482403 11:-0.00850227 12:-0.571317 13:-0.199828 14:-0.48054 15:-0.472787 16:-0.793633 17:-0.889408 18:-0.714937 19:-0.133538 20:-0.396 
32 1:-0.785662 2:0.340524 3:-0.293014 4:0.0836251 5:0.0845978 6:-0.0224514 7:0.0503531 8:0.487494 9:-0.553471 10:-0.0213159 11:0.7856 12:0.0432035 13:0.123592 14:0.142403 15:-0.536704 16:-0.437453 17:-0.574698 18:-0.4459 19:0.439222 20:-0.231822 
32 1:-0.614084 2:-0.32596 3:-0.261133 4:0.12364 5:0.313605 6:-0.0608966 7:-0.294243 8:-0.0687329 9:-0.603611 10:-0.312514 11:0.833768 12:-0.086941 13:-0.237953 14:0.400771 15:0.504311 16:-0.56186 17:-0.24559 18:-0.630569 19:0.249158 20:-0.139791 
32 1:-0.557927 2:0.402406 3:-0.449767 4:-0.208518 5:-0.165907 6:-0.508496 7:-0.680592 8:-0.62748 9:0.341499 10:0.508226 11:0.539755 12:-0.756939 13:0.447581 14:0.257407 15:0.0537961 16:0.083338 17:-0.245667 18:-0.498475 19:-0.450979 20:0.270935 
1.8791441499154586 1:-0.121691 2:-0.51724 3:-0.312243 4:-0.648905 5:-0.0534051 6:0.563049 7:-0.165271 8:-0.245799 9:-0.566107 10:-0.582985 11:0.213237 12:-0.507914 13:-0.108824 14:-0.129968 15:-0.201384 16:-0.412544 17:-0.586173 18:0.211139 19:-0.132631 20:-0.376174 
32 1:-0.0939566 2:-0.336075 3:-0.31811 4:0.296864 5:0.229901 6:-0.0219984 7:-0.384883 8:-0.0976937 9:-0.203512 10:0.148377 11:0.180576 12:-0.479072 13:0.0683523 14:-0.0670101 15:0.151996 16:-0.119325 17:0.0817917 18:-0.623961 19:-0.177109 20:0.138928 
32 1:-0.186622 2:-0.442755 3:-0.147769 4:-0.301701 5:0.073392 6:-0.481938 7:-0.575759 8:-0.179139 9:-0.518069 10:-0.00650612 11:0.295084 12:-0.378193 13:-0.160406 14:-0.109598 15:-0.352325 16:-0.150348 17:0.0203701 18:-0.733536 19:-0.011108 20:0.115107 
1.9259093012229769 1:-0.25848 2:-0.427217 3:-0.239288 4:-0.627883 5:-0.108248 6:-0.617653 7:-0.452789 8:-0.224869 9:-0.295097 10:-0.195639 11:0.0153091 12:-0.624864 13:-0.109279 14:-0.042254 15:0.094256 16:0.00326767 17:-0.186739 18:-0.652973 19:-0.474296 20:0.0401326 
32 1:-0.388645 2:-0.727555 3:-0.307863 4:-0.250379 5:0.428108 6:-0.460728 7:-0.47242 8:-0.0573485 9:-0.494182 10:-0.265893 11:-0.391537 12:-0.298327 13:-0.308052 14:0.106873 15:-0.0852947 16:-0.30397 17:-0.390359 18:-0.176139 19:-0.0845946 20:-0.177328 
-18.30613115624077 1:-0.41832 2:-0.297853 3:-0.346909 4:0.41793 5:0.0181164 6:1 7:-0.269823 8:-0.42356 9:-0.472467 10:-0.673094 11:-0.485483 12:-0.383677 13:-0.232998 14:-0.28539 15:0.41294 16:-0.185011 17:-0.341424 18:1 19:-0.0588748 20:-0.527083 
-32 1:-0.19817 2:-0.61817 3:-0.339223 4:-0.327349 5:0.132045 6:-0.0977407 7:-0.569608 8:-0.224122 9:-0.415703 10:-0.400288 11:-0.305509 12:0.213811 13:-0.483574 14:-0.321903 15:-0.11309 16:-0.363323 17:-0.26829 18:-0.228917 19:-0.183017 20:-0.250324 
-16.204900632857616 1:0.164602 2:-0.230353 3:-0.615527 4:0.525704 5:0.384934 6:-0.651667 7:-0.431748 8:-0.432926 9:-0.142688 10:0.104842 11:0.243987 12:-0.607953 13:0.049492 14:-0.117335 15:0.0455297 16:0.206555 17:0.617905 18:-0.513525 19:-0.150515 20:0.141861 
-32 1:-0.36668 2:-0.278541 3:-0.307576 4:-0.180724 5:0.400053 6:-0.209267 7:-0.557139 8:-0.307151 9:-0.267268 10:-0.0219832 11:0.201155 12:-0.456838 13:0.0924074 14:-0.0721152 15:0.0486773 16:-0.276262 17:-0.07029 18:-0.205267 19:-0.0371893 20:0.00975535 
-32 1:-0.202268 2:0.0476464 3:-0.296008 4:0.251973 5:0.174367 6:-0.284018 7:-0.437818 8:-0.0811315 9:0.408139 10:0.0424528 11:0.179132 12:-0.568167 13:0.0716886 14:-0.304128 15:-0.329556 16:-0.150455 17:-0.00990238 18:-0.488111 19:-0.124415 20:-0.0296599 
-32 1:-0.405019 2:-0.275423 3:-0.276073 4:-0.236355 5:0.397815 6:-0.175137 7:-0.355381 8:0.00602955 9:-0.496291 10:-0.163745 11:0.420075 12:-0.273703 13:0.094302 14:0.571009 15:0.188602 16:0.0588577 17:0.121648 18:-0.0705533 19:0.293906 20:0.0862673 
-32 1:-0.116176 2:-0.0476668 3:-0.556355 4:0.430025 5:-0.188371 6:-0.74605 7:-0.32388 8:-0.704779 9:0.339966 10:-0.335398 11:-0.0146383 12:-0.76557 13:0.301814 14:0.229585 15:0.347067 16:-0.107701 17:-0.21944 18:0.139882 19:0.255449 20:-0.272661 
-7.9945190195645264 1:-0.251969 2:0.126684 3:-0.136395 4:0.643544 5:0.627327 6:-0.526347 7:-0.0890923 8:0.00481111 9:-0.578598 10:-0.0194512 11:0.29681 12:-0.245052 13:0.369266 14:0.717364 15:-0.666945 16:0.126229 17:-0.342459 18:0.0714322 19:-0.239639 20:0.141146 
-32 1:-0.40367 2:-0.120958 3:-0.420907 4:0.0899483 5:-0.0249966 6:-0.629331 7:-0.560245 8:-0.221784 9:-0.0337233 10:0.219274 11:0.184336 12:-0.192932 13:-0.016628 14:-0.0730537 15:-0.0492705 16:-0.0851326 17:-0.162249 18:-0.748062 19:-0.300486 20:0.248603 
-32 1:-0.266818 2:-0.548109 3:-0.505167 4:-0.294883 5:0.273938 6:-0.0369838 7:-0.3371 8:0.116142 9:-0.323181 10:-0.148209 11:0.0426752 12:-0.336197 13:0.272164 14:0.0720351 15:0.289383 16:0.0890277 17:-0.183648 18:-0.414457 19:0.0898558 20:-0.020666 
-32 1:-0.457666 2:-0.551655 3:-0.242879 4:-0.392781 5:-0.165092 6:-0.738272 7:-0.490449 8:-0.552567 9:-0.217941 10:-0.302075 11:-0.116052 12:-0.476509 13:0.400557 14:-0.252006 15:-0.135254 16:-0.510898 17:-0.525704 18:0.110704 19:-0.119501 20:-0.210161 
-14.364325405006479 1:0.0904453 2:-0.0114076 3:-0.256295 4:-0.0213174 5:0.409992 6:-0.332579 7:-0.262417 8:-0.223874 9:0.413097 10:0.105439 11:0.259362 12:-0.594402 13:0.177851 14:-0.397001 15:-0.565513 16:0.180823 17:0.384648 18:-0.581919 19:-0.399194 20:0.0880018 
-32 1:-0.413533 2:0.075865 3:-0.247467 4:0.0397287 5:0.1068 6:-0.498555 7:-0.258137 8:-0.0130307 9:0.30182 10:0.0489207 11:0.304193 12:-0.429029 13:-0.0423451 14:-0.145849 15:-0.0551215 16:-0.0689169 17:-0.320896 18:-0.538962 19:-0.116026 20:0.175209 
-32 1:1 2:-0.652941 3:-0.590197 4:-0.524744 5:0.0323627 6:-0.803046 7:-0.724997 8:-0.30589 9:-0.930514 10:-0.80105 11:-0.348523 12:-0.72432 13:-0.211526 14:-0.119927 15:-0.0775242 16:-0.160079 17:-0.498102 18:-0.725357 19:-0.553499 20:-0.555902 
-5.5605428766193521 1:-0.325363 2:-0.000905001 3:-0.485785 4:0.292221 5:-0.0102294 6:-0.197651 7:-0.567809 8:-0.268532 9:0.517878 10:-0.404205 11:-0.040351 12:0.154087 13:-0.329899 14:0.177562 15:-0.174601 16:-0.668326 17:0.787056 18:-0.372117 19:0.37207 20:-0.466649 
-32 1:0.505469 2:-0.901452 3:-0.144056 4:-0.729446 5:-0.502501 6:-0.639149 7:-0.402622 8:-0.31515 9:-0.896438 10:-0.832708 11:-0.890572 12:-0.46784 13:-0.629347 14:-0.900186 15:-0.552269 16:-0.657867 17:-0.769289 18:-0.864531 19:-1 20:-0.684085 
-3.8326397982736782 1:-0.206567 2:-0.238502 3:-0.0506129 4:-0.0780253 5:0.298513 6:-0.733038 7:-0.408461 8:-0.12506 9:0.303522 10:-0.217716 11:-0.0499875 12:-0.326103 13:-0.164261 14:0.0142262 15:-0.325894 16:-0.076826 17:-0.0686096 18:-0.27656 19:0.219079 20:0.0602053 
-32 1:-0.140933 2:-0.301515 3:0.130565 4:-0.550563 5:-0.369673 6:-0.416137 7:-0.286005 8:-0.281927 9:-0.878944 10:-0.538986 11:0.112347 12:-0.29626 13:0.0557655 14:-0.333212 15:-0.00398838 16:-0.57487 17:-0.316309 18:-0.489073 19:-0.508336 20:-0.24259 
-32 1:-0.440577 2:-0.333298 3:-0.227744 4:-0.407147 5:0.0270372 6:-0.546394 7:0.236437 8:-0.000206696 9:0.123599 10:-0.00843472 11:0.500698 12:-0.239837 13:0.259484 14:0.161107 15:-0.611184 16:-0.235585 17:-0.561859 18:-0.496821 19:-0.318111 20:0.144648 
-32 1:-0.197218 2:-0.0655649 3:-0.349519 4:-0.0653456 5:0.0365292 6:0.0604778 7:-0.558121 8:-0.220367 9:-0.0164645 10:0.0402564 11:1 12:-0.476273 13:-0.0147587 14:-0.40223 15:0.0628838 16:0.164845 17:-0.0096264 18:-0.368335 19:-0.484475 20:0.458791 
-32 1:-0.0411483 2:-0.229763 3:-0.192113 4:-0.399346 5:0.0176344 6:-0.454901 7:-0.223056 8:-0.0599785 9:-0.250403 10:-0.31392 11:0.0583902 12:-0.417228 13:-0.121654 14:-0.464317 15:0.62435 16:-0.166086 17:-0.24361 18:-0.671977 19:-0.534573 20:-0.121177 
-32 1:-0.38496 2:-0.572278 3:-0.437892 4:-0.454868 5:0.201956 6:-0.59433 7:-0.668849 8:-0.289503 9:-0.259009 10:-0.335501 11:0.00268158 12:-0.408253 13:-0.348265 14:0.00221589 15:-0.36911 16:-0.51169 17:-0.53312 18:-0.500688 19:-0.0661282 20:-0.283161 
-32 1:-0.217646 2:-0.029648 3:-0.231761 4:-0.240478 5:0.165403 6:-0.262421 7:-0.543348 8:-0.0252824 9:-0.321909 10:-0.0999682 11:0.270266 12:-0.46474 13:-0.10467 14:0.244772 15:-0.0288819 16:0.251139 17:-0.318717 18:-0.616099 19:0.203102 20:0.457757 
-32 1:-0.154154 2:-0.328143 3:-0.593714 4:-0.622508 5:-0.328343 6:-0.852629 7:-0.747718 8:-0.19403 9:-0.395362 10:-0.65951 11:-0.687818 12:-0.0757246 13:-0.624813 14:-0.356919 15:-0.497752 16:-0.656711 17:-0.244417 18:-0.897556 19:-0.778464 20:-0.456685 
-32 1:-0.513036 2:-0.497599 3:-0.310896 4:-0.0524617 5:0.392841 6:-0.108084 7:-0.211178 8:0.0281563 9:-0.657777 10:-0.00411853 11:0.308772 12:-0.22469 13:0.134793 14:0.126784 15:-0.190359 16:-0.386712 17:-0.46671 18:-0.422252 19:0.352921 20:-0.157991 
-32 1:0.116711 2:-0.709645 3:-0.462441 4:-0.811406 5:-0.557248 6:-1 7:-0.51996 8:-0.485776 9:-1 10:-0.66787 11:-0.473329 12:-0.690761 13:-0.267821 14:-0.434064 15:-0.0666404 16:0.0140837 17:0.00730618 18:-0.622667 19:-0.367328 20:-0.649068 
-11.811269175866215 1:-0.347844 2:-0.230482 3:-0.181363 4:-0.147076 5:0.194814 6:-0.68415 7:-0.62231 8:-0.0698811 9:-0.361665 10:0.0654132 11:-0.209151 12:-0.346383 13:0.185824 14:-0.201644 15:-0.388176 16:-0.472139 17:0.0175625 18:-0.737639 19:-0.463026 20:0.449957 
-10.65537303752294 1:-0.192672 2:-0.00593362 3:-0.432619 4:0.240235 5:0.315185 6:-0.206863 7:-0.161903 8:-0.372049 9:-0.404147 10:-0.113463 11:0.553886 12:-0.290046 13:0.145099 14:-0.185502 15:0.0875358 16:0.000673985 17:-0.36808 18:-0.52136 19:-0.224836 20:0.249397 
-32 1:-0.0967131 2:0.568586 3:-0.199733 4:-0.283318 5:0.0953405 6:-0.479749 7:-0.293129 8:-0.502672 9:0.119933 10:-0.171953 11:0.254577 12:-0.28504 13:0.336029 14:0.0496203 15:-0.0768926 16:0.222651 17:0.227111 18:-0.566975 19:-0.103782 20:-0.0122107 
-32 1:-0.333322 2:-0.309993 3:-0.429889 4:0.235119 5:-0.112248 6:0.162296 7:-0.496988 8:-0.18287 9:-0.00700977 10:0.0994127 11:0.0351555 12:-0.350478 13:-0.206276 14:-0.0164317 15:-0.160389 16:-0.60544 17:-0.565652 18:-0.528963 19:-0.12451 20:0.283966 
-32 1:-0.372742 2:-0.0583448 3:-0.285724 4:-0.348396 5:0.141685 6:-0.496609 7:-0.670278 8:0.020034 9:0.22949 10:-0.00201003 11:0.460088 12:-0.292472 13:0.40469 14:-0.153853 15:-0.53267 16:-0.094897 17:0.0427183 18:-0.636476 19:-0.399212 20:0.178671 
-32 1:-0.642931 2:-0.501259 3:-0.120841 4:-0.0708497 5:0.364389 6:-0.35363 7:-0.324267 8:0.0939349 9:-0.236904 10:-0.0818579 11:0.266809 12:-0.238765 13:0.30042 14:0.0606596 15:-0.0644018 16:-0.471797 17:0.0587547 18:-0.516934 19:0.0400611 20:-0.0388182 
-32 1:-0.368662 2:-0.641929 3:-0.56909 4:-0.00507153 5:-0.0850657 6:-0.774102 7:-0.471095 8:-0.331727 9:-0.432346 10:-0.243163 11:-0.0618127 12:-0.509241 13:-0.24548 14:-0.00855951 15:-0.0876839 16:-0.146522 17:-0.606971 18:0.05624 19:0.356051 20:-0.263583 
-29.623324099251104 1:0.693764 2:-0.624929 3:-0.734692 4:0.54155 5:-0.668967 6:-0.899674 7:-0.493762 8:-0.984382 9:-0.0634324 10:-0.139293 11:-0.22786 12:-0.51975 13:-0.340802 14:-0.390928 15:-0.494315 16:0.176608 17:0.0745289 18:-0.178591 19:0.664756 20:-0.0118467 
-32 1:-0.496025 2:-0.519256 3:-0.395063 4:-0.0629597 5:0.53604 6:-0.691906 7:-0.398325 8:-0.359741 9:-0.186786 10:-0.176324 11:-0.0497635 12:-0.311103 13:0.00338067 14:0.549651 15:0.231505 16:-0.156714 17:-0.195354 18:-0.334226 19:0.611448 20:-0.0876045 
-32 1:-0.43006 2:-0.783776 3:0.229289 4:-0.119668 5:0.389604 6:-0.462077 7:-0.427807 8:-0.21164 9:0.0570691 10:0.0754944 11:0.477907 12:-0.503681 13:-0.246047 14:0.253255 15:0.602607 16:0.0069187 17:-0.263342 18:-0.57973 19:0.719774 20:-0.0562701 
-1.4953375548072312 1:-0.105595 2:-0.204636 3:-0.317151 4:0.130791 5:0.12662 6:-0.599188 7:-0.47489 8:-0.144456 9:-0.0720111 10:0.173941 11:0.525877 12:-0.350082 13:-0.273603 14:-0.14142 15:-0.17476 16:-0.182896 17:-0.108701 18:-0.609324 19:-0.0291043 20:0.271923 
-32 1:-0.548479 2:-0.725699 3:-0.230495 4:-0.000230554 5:0.144129 6:-0.153287 7:-0.462585 8:-0.237407 9:-0.765505 10:-0.38172 11:0.25893 12:-0.0953854 13:0.297547 14:-0.0621748 15:-0.221227 16:-0.248024 17:-0.366469 18:-0.171839 19:0.051054 20:-0.339436 
-32 1:-0.41236 2:0.386119 3:-0.680424 4:-0.0346011 5:-0.270971 6:-0.626456 7:-0.736776 8:-0.573779 9:0.478939 10:0.462454 11:0.352202 12:-0.578713 13:0.196311 14:0.391858 15:-0.0927449 16:0.0460156 17:-0.23185 18:-0.356302 19:0.038348 20:0.385293 
-32 1:-0.148968 2:0.0380085 3:-0.270103 4:-0.740092 5:-0.181668 6:-0.40825 7:-0.797916 8:-0.11753 9:-0.324718 10:-0.864506 11:-0.982638 12:0.60748 13:-0.379343 14:-0.324619 15:0.106899 16:-0.304628 17:-0.79562 18:-0.536731 19:-0.0543467 20:-0.738741 
-32 1:-0.506045 2:-0.53012 3:-0.075209 4:0.109792 5:0.264772 6:-0.0624545 7:-0.290788 8:0.136878 9:-0.224703 10:-0.0700115 11:0.175607 12:-0.220222 13:0.0521176 14:0.268043 15:-0.16701 16:-0.322023 17:-0.494546 18:-0.28725 19:0.0518892 20:0.00454439 
-32 1:0.697521 2:-0.98559 3:-0.698782 4:-0.575309 5:-0.577018 6:-0.33452 7:-0.903202 8:-0.862213 9:-0.771148 10:-0.405223 11:-0.694097 12:-0.675269 13:-0.43279 14:-0.682531 15:-0.273438 16:-0.768819 17:-0.639093 18:-0.363163 19:-0.609702 20:-0.577061 
-32 1:-0.473026 2:-0.597235 3:0.0357723 4:0.295399 5:0.481005 6:-0.433012 7:-0.189387 8:-0.350891 9:-0.466044 10:-0.365883 11:-0.235422 12:-0.0684811 13:0.0160865 14:0.185489 15:-0.145961 16:-0.249714 17:-0.248314 18:-0.326788 19:0.209349 20:-0.208109 
-32 1:-0.606532 2:-0.472752 3:-0.363899 4:-0.678266 5:-0.00839482 6:-0.602588 7:-0.399903 8:-0.186756 9:-0.188698 10:-0.0401981 11:0.401744 12:-0.549862 13:0.0951001 14:0.165946 15:0.251919 16:-0.0139755 17:-0.243023 18:-0.537473 19:-0.146667 20:0.185509 
-32 1:-0.596916 2:-0.745087 3:-0.0382632 4:0.278958 5:0.352058 6:-0.406174 7:-0.42913 8:-0.226465 9:-0.224645 10:-0.15967 11:0.0162123 12:-0.454308 13:-0.0242593 14:0.260262 15:-0.00582386 16:-0.374272 17:-0.194268 18:-0.135535 19:0.522018 20:0.0403524 
-15.255305585489493 1:-0.238741 2:-0.439298 3:-0.536979 4:0.126765 5:0.124506 6:-0.455634 7:-0.329464 8:-0.335797 9:-0.354256 10:0.05711 11:-0.154064 12:-0.427316 13:-0.351059 14:0.198912 15:-0.23205 16:0.276503 17:0.20845 18:-0.0329203 19:1 20:0.0539893 
-32 1:0.0398933 2:-0.748611 3:-0.341468 4:0.170166 5:-0.27148 6:-0.179564 7:-0.482547 8:-0.644953 9:-0.13057 10:-0.119542 11:-0.206893 12:-0.682653 13:-0.279108 14:0.0297761 15:0.254746 16:0.124835 17:0.5924 18:-0.445587 19:0.433368 20:-0.105844 
-5.3817890673860074 1:-0.563294 2:-0.853654 3:-0.0579305 4:0.188943 5:0.201863 6:-0.438582 7:-0.281541 8:0.266763 9:-0.302394 10:0.118869 11:0.336505 12:-0.0174336 13:0.282914 14:0.22262 15:0.25353 16:-0.313585 17:-0.513079 18:-0.441738 19:-0.00155188 20:0.183344 
-32 1:0.29963 2:-0.388968 3:-0.468367 4:-0.137762 5:-0.361608 6:-0.504868 7:0.0265387 8:-0.414926 9:-0.727294 10:-0.35114 11:-0.109238 12:-0.543478 13:-0.186466 14:-0.514067 15:1 16:0.0748968 17:0.327985 18:-0.852538 19:-0.879863 20:-0.00760994 
-32 1:-0.530676 2:-0.965003 3:-0.563909 4:0.0871301 5:-0.307843 6:0.140302 7:-0.753507 8:-0.277101 9:-0.236219 10:-0.305856 11:-0.767435 12:-0.353338 13:-0.103311 14:-0.45585 15:-0.606378 16:-0.114284 17:-0.317698 18:0.219006 19:0.243945 20:-0.749464 
-32 1:-0.505042 2:-0.300321 3:-0.0754636 4:0.271631 5:0.428144 6:-0.662 7:-0.21141 8:-0.287033 9:-0.163467 10:-0.212475 11:-0.29767 12:-0.465449 13:-0.45389 14:0.443998 15:0.57076 16:-0.188306 17:0.311337 18:-0.123725 19:0.521511 20:0.117521 
-32 1:-0.513615 2:-0.690406 3:-0.0852623 4:0.108613 5:-0.116508 6:-0.0410919 7:-0.190485 8:-0.373507 9:-0.333831 10:-0.191224 11:0.689528 12:-0.250743 13:-0.148743 14:-0.0643307 15:-0.30647 16:-0.541503 17:-0.13973 18:-0.499233 19:0.597423 20:0.175236 
-32 1:-0.390393 2:-0.067382 3:-0.344225 4:0.396395 5:0.21725 6:-0.607141 7:-0.33219 8:-0.141679 9:-0.0474308 10:0.0311368 11:0.209521 12:-0.315895 13:0.206058 14:0.281844 15:-0.190112 16:-0.223698 17:0.0974772 18:-0.221444 19:-0.183709 20:-0.0362897 
-32 1:-0.444022 2:-0.729078 3:-0.046442 4:-0.138867 5:0.265251 6:0.448874 7:-0.0660116 8:-0.0409564 9:-0.483138 10:-0.137351 11:0.450682 12:0.0437731 13:-0.00376021 14:0.0724554 15:0.203384 16:-0.127578 17:-0.615479 18:-0.505049 19:0.177829 20:-0.0471355 
-32 1:-0.460382 2:-0.379305 3:0.00930123 4:0.0302431 5:0.111607 6:-0.504697 7:-0.276809 8:-0.122695 9:-0.0112603 10:-0.100719 11:0.17025 12:-0.24497 13:-0.0562538 14:0.140166 15:0.0427867 16:-0.42588 17:-0.157828 18:-0.524033 19:0.226861 20:-0.0554353 
-32 1:-0.135322 2:-0.637252 3:-0.495929 4:-0.313377 5:-0.445028 6:0.194841 7:-0.0117328 8:-0.751486 9:-0.71986 10:-0.00168857 11:-0.409432 12:-0.209026 13:0.26064 14:-0.383442 15:-0.130008 16:-0.223289 17:0.540555 18:-0.455164 19:-0.360936 20:0.252019 
-32 1:-0.311252 2:-0.456642 3:-0.27559 4:-0.306041 5:0.207833 6:-0.578954 7:-0.136951 8:0.00159103 9:-0.470985 10:-0.285799 11:0.213949 12:0.0262224 13:-0.136218 14:-0.0043454 15:-0.352213 16:-0.295168 17:-0.0137766 18:-0.694488 19:0.0139553 20:-0.208998 
-32 1:-0.512997 2:0.0437636 3:-0.132278 4:-0.889158 5:0.241743 6:-0.271606 7:-0.440155 8:-0.199018 9:0.332591 10:-0.164104 11:0.521773 12:-0.651117 13:0.132706 14:-0.546772 15:0.01834 16:-0.203688 17:-0.22924 18:-0.470784 19:-0.753386 20:0.228445 
-26.928097337557038 1:-0.41253 2:-0.503832 3:-0.344376 4:-0.196574 5:0.705807 6:-0.292163 7:-0.105237 8:-0.270186 9:-0.370329 10:0.0657333 11:-0.0249851 12:-0.0734839 13:-0.0184714 14:0.400421 15:0.0179079 16:-0.315724 17:-0.0677739 18:-0.581739 19:0.18475 20:-0.0795724 
-32 1:-0.623031 2:-0.74038 3:-0.263326 4:0.00274434 5:-0.115384 6:-0.289293 7:-0.266385 8:-0.114787 9:-0.0528673 10:-0.195617 11:0.181535 12:-0.462028 13:-0.13922 14:0.450066 15:0.344508 16:-0.290561 17:0.0929721 18:-0.303114 19:0.442915 20:-0.0317818 
-32 1:-0.252692 2:-0.598317 3:-0.0429659 4:0.207061 5:0.0817918 6:-0.343235 7:-0.219663 8:-0.282367 9:-0.308434 10:-0.0477941 11:0.0301539 12:-0.26308 13:-0.0315455 14:0.0339642 15:0.114231 16:0.207371 17:-0.308788 18:-0.665491 19:-0.186723 20:0.236219 
-32 1:-0.351646 2:0.406503 3:-0.259743 4:0.0770743 5:-0.1678 6:-0.670906 7:-0.292718 8:-0.206228 9:0.114849 10:0.235208 11:0.166652 12:-0.373327 13:-0.104492 14:0.117789 15:-0.563081 16:0.14847 17:0.0116172 18:-0.6077 19:-0.109599 20:0.10087 
-32 1:-0.0997047 2:-0.283067 3:0.126874 4:-0.111326 5:0.593536 6:0.0178262 7:0.124041 8:0.51786 9:-0.694866 10:0.0756231 11:0.37568 12:-0.126535 13:0.0367781 14:-0.518998 15:-0.774422 16:-0.208095 17:-0.0962173 18:-0.78339 19:-0.530201 20:-0.108029 
-5.1915617994993752 1:-0.340611 2:-0.15228 3:-0.36011 4:-0.366513 5:0.0289788 6:-0.45872 7:0.0015438 8:0.0590791 9:-0.425029 10:-0.131449 11:-0.0315416 12:-0.0495101 13:-0.107966 14:-0.709289 15:-0.0355457 16:-0.51171 17:-0.554614 18:-0.943761 19:-0.840118 20:0.467212 
-32 1:-0.609365 2:0.178701 3:-0.304136 4:-0.168386 5:0.367974 6:-0.0262929 7:-0.268413 8:-0.332167 9:-0.250869 10:-0.166935 11:0.295056 12:-0.71062 13:0.0325022 14:-0.0689207 15:0.0182538 16:-0.263229 17:0.220984 18:-0.321392 19:0.358065 20:-0.242182 
-0.18610889838126571 1:-0.51134 2:-0.890975 3:-0.738652 4:-0.253684 5:0.979335 6:-0.647656 7:-0.558952 8:-0.0713649 9:-0.398633 10:-0.361194 11:-0.583908 12:0.0232489 13:-0.588324 14:-0.0841152 15:0.0986213 16:-0.683037 17:-0.461023 18:0.00216785 19:0.171637 20:-0.483763 
-32 1:-0.252678 2:-0.556608 3:0.0317956 4:-0.29868 5:0.00418617 6:-0.512353 7:-0.398086 8:0.218018 9:-0.213057 10:0.0466708 11:0.399521 12:-0.228236 13:0.249522 14:-0.186859 15:-0.307695 16:0.346196 17:-0.252254 18:-0.659265 19:-0.342221 20:-0.191435 
-1.6281152195370454 1:-0.363856 2:0.0881089 3:-0.198526 4:-0.0020105 5:0.222732 6:-0.169475 7:-0.396632 8:-0.0263099 9:0.094583 10:-0.0586212 11:0.285939 12:-0.346883 13:0.0929652 14:0.0442722 15:-0.0225075 16:-0.0943999 17:-0.249659 18:-0.609242 19:0.288844 20:-0.0592069 
-32 1:-0.372129 2:-0.416358 3:-0.195565 4:-0.15397 5:-0.0256788 6:-0.466308 7:-0.311268 8:-0.200629 9:-0.290762 10:0.124788 11:0.407998 12:-0.36859 13:0.0521173 14:0.257821 15:-0.390957 16:0.35005 17:-0.00400061 18:-0.418317 19:-0.0444418 20:-0.0677189 
-20.71324333802302 1:-0.740156 2:-0.525445 3:-0.46887 4:0.322983 5:0.508427 6:-0.27633 7:-0.37115 8:0.0568637 9:-0.597211 10:0.12921 11:-0.127799 12:-0.28304 13:-0.320926 14:0.400697 15:-0.662255 16:-0.472063 17:-0.792591 18:-0.299909 19:0.935623 20:-0.223959 
-32 1:0.144765 2:-0.224821 3:-0.618947 4:-0.0163659 5:0.817245 6:-0.40843 7:-0.276805 8:0.0773353 9:-0.624093 10:-0.257791 11:0.279412 12:-0.260221 13:-0.319914 14:0.107355 15:0.229535 16:0.140617 17:-0.279979 18:-0.654204 19:-0.604344 20:-0.113456 
-32 1:-0.345354 2:-0.766591 3:-0.277982 4:0.229834 5:0.490548 6:0.119724 7:-0.426124 8:-0.256649 9:-0.295923 10:0.0249703 11:0.00873439 12:-0.382232 13:0.0759982 14:0.424273 15:-0.0661405 16:-0.369583 17:-0.373229 18:-0.299321 19:0.396407 20:-0.0141404 
-27.977867172486 1:0.160358 2:0.631508 3:-0.260542 4:0.198106 5:0.233884 6:-0.672298 7:-0.142806 8:-0.250802 9:-0.311426 10:0.0165368 11:0.0112133 12:-0.699853 13:-0.0984501 14:-0.464869 15:-0.739101 16:0.141502 17:0.493943 18:-0.622051 19:-0.37319 20:0.0329339 
-3.913391656724289 1:-0.580754 2:-0.312546 3:0.0222744 4:-0.242239 5:1 6:-0.275747 7:-0.48731 8:-0.0686714 9:0.105826 10:-0.239449 11:0.273226 12:-0.174804 13:-0.445377 14:0.645126 15:-0.181863 16:-0.166592 17:-0.587235 18:-0.578622 19:0.123854 20:0.15455 
-9.4695731440257038 1:-0.314467 2:-0.0178026 3:-0.518155 4:0.127711 5:0.325203 6:-0.286278 7:-0.583588 8:-0.351328 9:0.182174 10:0.00541053 11:-0.0261165 12:-0.512371 13:0.116022 14:-0.106045 15:-0.189868 16:-0.175719 17:-0.23905 18:-0.777629 19:0.219184 20:0.146034 
-32 1:-0.0573348 2:-0.357777 3:-0.656047 4:0.165651 5:0.285882 6:-0.898733 7:-0.401523 8:-0.344048 9:-0.305926 10:-0.27318 11:-0.252851 12:-0.402889 13:-0.297053 14:0.102835 15:0.139058 16:-0.365681 17:0.00103042 18:-0.573173 19:0.236109 20:-0.280277 
-32 1:-0.358792 2:-0.638152 3:-0.255736 4:-0.270407 5:-0.049343 6:-0.32331 7:-0.418293 8:-0.57958 9:-0.368239 10:-0.359335 11:-0.197025 12:-0.714458 13:-0.396142 14:-0.13315 15:0.0495674 16:-0.353481 17:-0.227593 18:0.171635 19:0.496459 20:-0.0197687 
-6.4898849188929333 1:-0.564705 2:-0.491067 3:0.107059 4:-0.396088 5:0.0229884 6:-0.62663 7:-0.00252387 8:0.499091 9:-0.653666 10:0.257028 11:0.429382 12:0.602477 13:-0.392589 14:0.206689 15:-0.189472 16:-0.126859 17:-0.00138029 18:-0.619312 19:-0.503634 20:0.595038 
-31.951974169841481 1:-0.277234 2:0.00958123 3:0.740954 4:-0.0655695 5:-0.481464 6:-0.577281 7:-0.566707 8:-0.795453 9:0.819186 10:-0.0711747 11:-0.385949 12:-0.0404276 13:-0.392627 14:-0.235406 15:-0.0673641 16:-0.588562 17:0.263132 18:-0.744763 19:-0.0943328 20:0.0149679 
-32 1:-0.494713 2:-0.632134 3:0.0794296 4:-0.010272 5:0.531562 6:-0.463105 7:0.0425161 8:0.525851 9:-0.659306 10:-0.062226 11:0.440657 12:0.0988917 13:0.0830873 14:-0.118292 15:-0.768823 16:-0.231767 17:-0.311546 18:-0.764825 19:-0.252731 20:-0.18602 
-32 1:-0.433673 2:-0.16611 3:-0.490647 4:-0.238818 5:-0.558808 6:-0.320545 7:-0.513196 8:-0.629837 9:0.138802 10:0.201894 11:-0.30332 12:-0.76314 13:0.126064 14:0.257343 15:-0.123223 16:-0.0831977 17:-0.277558 18:0.0746114 19:0.17359 20:0.0424977 
-12.297909936320316 1:-1 2:-0.199936 3:0.519248 4:-0.233715 5:-0.591895 6:-0.384123 7:-0.470616 8:-0.544288 9:0.0283473 10:-0.15614 11:0.329596 12:0.48068 13:-0.060106 14:-0.077838 15:-0.281319 16:-0.628682 17:-0.559806 18:-0.501122 19:0.133544 20:0.0438729 
-32 1:-0.585808 2:-0.776214 3:-0.532172 4:0.115484 5:0.291744 6:-0.151237 7:-0.0295021 8:0.298764 9:-0.506952 10:-0.270023 11:0.389825 12:-0.417832 13:-0.113482 14:0.211131 15:-0.434562 16:-0.543756 17:0.179974 18:0.583942 19:0.0296516 20:-0.297798 
-32 1:0.163943 2:-0.42214 3:-0.355322 4:0.184928 5:0.446065 6:-0.206915 7:-0.599777 8:-0.511279 9:-0.104527 10:-0.210461 11:0.184837 12:-0.533396 13:-0.442505 14:-0.125979 15:-0.450556 16:0.624874 17:0.616305 18:0.206303 19:-0.0603719 20:-0.0211062 
-32 1:-0.637383 2:-0.0480132 3:0.469804 4:-0.936044 5:0.194884 6:-0.478546 7:-0.73977 8:-0.177525 9:-0.288813 10:-0.369533 11:0.302414 12:-0.899608 13:-0.00366217 14:-0.162225 15:0.641751 16:-0.538775 17:-0.0861247 18:-0.331985 19:-0.26121 20:0.015547 
-32 1:-0.211913 2:-0.118346 3:-0.0678487 4:-0.269589 5:0.174547 6:-0.199923 7:-0.642029 8:-0.16645 9:0.0712824 10:-0.00219512 11:-0.00992515 12:-0.51231 13:0.0479849 14:-0.00847091 15:-0.199371 16:-0.146719 17:-0.166679 18:-0.445192 19:-0.116732 20:0.039756 
