svm_type c_svc
kernel_type rbf
gamma 0.125
nr_class 2
total_sv 219
rho -1.1289874952583219
label 1 0
nr_sv 105 114
SV
8 1:-0.550562 2:-0.688889 3:-0.803922 4:-0.818182 5:-0.6 6:-0.6 7:-0.473684 8:-0.833333 9:-0.73913 10:-0.307692 11:-0.789474 12:-0.846154 13:-1 14:-0.818182 15:-0.833333 16:-1 
8 1:-0.707865 2:-0.511111 3:-0.686275 4:-0.636364 5:-0.75 6:-0.2 7:-0.684211 8:-0.666667 9:-0.478261 10:-0.615385 11:-0.263158 12:-0.538462 13:-0.846154 14:-0.818182 15:-0.5 16:-0.428571 
8 1:-0.730337 2:-0.688889 3:-0.686275 4:-0.818182 5:-0.7 6:-0.733333 7:-0.684211 8:-0.666667 9:-0.913043 10:-0.692308 11:-0.894737 12:-0.846154 13:-0.923077 14:-0.636364 15:-0.666667 16:-1 
8 1:-0.797753 2:-0.866667 3:-0.843137 4:-0.727273 5:-0.9 6:-0.733333 7:-0.578947 8:-0.833333 9:-0.826087 10:-0.846154 11:-0.789474 12:-0.846154 13:-0.846154 14:-0.818182 15:-0.833333 16:-1 
8 1:-0.640449 2:-0.644444 3:-0.568627 4:-0.181818 5:-0.75 6:-0.6 7:-0.578947 8:-0.666667 9:-0.478261 10:-1 11:-0.578947 12:-0.384615 13:-0.923077 14:-0.454545 15:-1 16:-1 
8 1:-0.752809 2:-0.688889 3:-0.764706 4:-0.363636 5:-0.45 6:0.333333 7:-0.368421 8:-0.166667 9:-0.782609 10:-0.538462 11:-0.789474 12:-0.384615 13:-0.615385 14:-0.636364 16:-0.142857 
8 1:-0.280899 2:-0.422222 3:-0.215686 4:-0.454545 5:-0.45 6:-0.733333 7:-0.0526316 8:-0.833333 9:-0.26087 10:-0.615385 11:-0.789474 12:-0.538462 13:-0.384615 14:-0.818182 15:-0.833333 16:-0.428571 
8 1:-0.842697 2:-0.777778 3:-0.764706 4:-0.272727 5:-0.55 6:-0.333333 7:-0.157895 8:-1 9:-0.826087 10:0.0769231 11:-0.157895 12:-0.384615 13:-0.692308 14:-0.0909091 15:-0.833333 16:-0.142857 
8 1:-0.617978 2:-0.777778 3:-0.647059 4:-0.636364 5:-0.9 6:-0.2 7:-0.263158 8:-0.833333 9:-0.652174 10:-0.538462 11:-0.578947 12:-0.846154 13:-0.538462 14:-0.636364 16:-0.714286 
8 1:-0.842697 2:-0.688889 3:-0.72549 4:-0.636364 5:-0.55 6:-0.2 7:-0.473684 8:-0.333333 9:-0.73913 10:-0.538462 11:-0.473684 12:-0.692308 13:-0.692308 14:-0.818182 15:-0.333333 16:-1 
0.28138956653386704 1:0.303371 2:1 3:1 4:1 5:0.6 6:0.866667 7:1 8:0.5 9:1 10:0.769231 11:1 12:1 13:1 14:0.636364 15:1 16:-0.428571 
8 1:-0.752809 2:-0.733333 3:-0.921569 4:-0.909091 5:-0.75 6:-0.6 7:-0.684211 8:-0.833333 9:-0.782609 10:-0.923077 11:-0.789474 12:-0.538462 13:-0.846154 14:-0.272727 15:-0.666667 16:-0.714286 
8 1:-0.88764 2:-0.955556 3:-0.921569 4:-0.909091 5:-0.95 6:-0.866667 7:-0.894737 8:-0.833333 9:-0.782609 10:-0.846154 11:-0.894737 12:-1 13:-1 14:-1 15:-0.833333 16:-1 
8 1:-0.483146 2:-0.777778 3:-0.568627 4:-1 5:-0.65 6:-0.866667 7:-0.578947 8:-0.666667 9:-0.73913 10:-0.692308 11:-0.789474 12:-0.846154 13:-0.692308 14:-1 15:-1 16:-1 
8 1:-0.752809 2:-0.822222 3:-0.764706 4:-0.727273 5:-0.5 6:-0.0666667 7:-0.578947 8:-1 9:-0.565217 10:-0.461538 11:-0.157895 12:-0.846154 13:-0.692308 14:-0.636364 15:-0.833333 16:-1 
8 1:-0.505618 2:-0.955556 3:-0.921569 4:-0.818182 5:-0.85 6:-0.866667 7:-1 8:-1 9:-0.913043 10:-1 11:-1 12:-1 13:-0.923077 14:-1 15:-1 16:-1 
5.8461213250190207 1:-0.955056 2:-0.6 3:-0.843137 4:-0.272727 5:-0.65 6:-0.466667 7:-0.789474 8:-1 9:-0.782609 10:-0.846154 11:-0.789474 12:-0.692308 13:-0.692308 14:0.272727 15:-0.666667 16:-0.142857 
8 1:-0.640449 2:-0.733333 3:-0.686275 4:-0.636364 5:-0.8 6:-0.2 7:-0.263158 8:-0.666667 9:-0.826087 10:-0.307692 11:-0.473684 12:-0.538462 13:-0.692308 14:-0.818182 15:-0.833333 16:-0.714286 
8 1:-0.932584 2:-0.822222 3:-0.960784 4:-0.727273 5:-0.85 6:-1 7:-0.578947 8:-0.833333 9:-0.826087 10:-0.846154 11:-0.894737 12:-1 13:-0.846154 14:-1 15:-1 16:-1 
8 1:-0.977528 2:-0.777778 3:-0.882353 4:-0.454545 5:-0.8 6:-0.6 7:-1 8:-0.333333 9:-0.869565 10:-0.923077 11:-0.578947 12:-1 13:-0.769231 14:-1 15:-0.666667 16:-1 
8 1:-0.730337 2:-0.733333 3:-0.882353 4:-0.636364 5:-0.7 6:-0.733333 7:-0.684211 8:-0.666667 9:-0.869565 10:-0.846154 11:-0.789474 12:-0.384615 13:-0.769231 14:-1 15:-0.833333 16:-1 
1.1340199293282445 1:-0.775281 2:-0.6 3:-0.686275 4:-0.909091 5:-0.6 6:-0.0666667 7:-0.578947 8:-0.333333 9:-0.608696 10:-0.307692 11:-0.368421 12:-0.230769 13:-0.153846 14:-0.818182 15:-0.833333 16:0.428571 
8 1:-0.460674 2:-0.733333 3:-0.803922 4:-0.909091 5:-0.7 6:-0.866667 7:-0.789474 8:-1 9:-0.652174 10:-0.923077 11:-0.894737 12:-1 13:-0.923077 14:-0.818182 15:-1 16:-1 
8 1:-0.483146 2:-0.733333 3:-0.764706 4:-0.363636 5:-0.6 6:-0.6 7:-0.578947 8:-1 9:-0.652174 10:-1 11:-0.684211 12:-0.538462 13:-0.923077 14:-0.636364 15:-0.833333 16:-0.714286 
8 1:-0.955056 2:-0.822222 3:-0.803922 4:-0.909091 5:-0.7 6:-0.733333 7:-0.263158 8:-0.833333 9:-0.652174 10:-0.769231 11:-0.578947 12:-0.846154 13:-0.692308 14:-0.818182 15:-0.5 16:-1 
8 1:-0.685393 2:-0.822222 3:-0.882353 4:-0.818182 5:-0.85 6:-0.733333 7:-1 8:-0.833333 9:-0.652174 10:-1 11:-0.894737 12:-1 13:-0.769231 14:-1 15:-1 16:-1 
8 1:-0.775281 2:-0.822222 3:-0.764706 4:-0.454545 5:-0.65 6:-0.866667 7:-0.578947 8:-0.166667 9:-0.565217 10:-0.384615 11:-0.157895 12:-0.538462 13:-0.692308 14:-1 15:-0.166667 16:-1 
8 1:-0.258427 2:-0.244444 3:-0.568627 4:-0.363636 5:-0.55 6:0.2 7:0.157895 8:-0.666667 9:-0.391304 10:0.307692 11:-0.263158 12:-0.538462 13:-0.384615 14:-0.454545 15:-0.666667 16:-0.428571 
8 1:-0.707865 2:-0.6 3:-0.72549 4:-0.818182 5:-0.55 6:-0.866667 7:-0.894737 8:-1 9:-0.695652 10:-0.923077 11:-0.684211 12:-1 13:-0.923077 14:-1 15:-0.833333 16:-1 
8 1:-0.842697 2:-0.955556 3:-0.686275 4:-0.636364 5:-0.55 6:-0.866667 7:-0.684211 8:-1 9:-0.782609 10:-1 11:-1 12:-0.846154 13:-0.769231 14:-0.818182 15:-1 16:-1 
8 1:-0.101124 2:-0.2 3:-0.529412 4:-0.818182 5:-0.45 6:-0.866667 7:-0.368421 8:-0.833333 9:-0.304348 10:-0.307692 11:-0.368421 12:-0.538462 13:-0.461538 14:-0.454545 15:-0.666667 16:-0.714286 
8 1:0.325843 2:0.2 3:-0.333333 4:0.454545 5:0.75 6:0.333333 7:-0.263158 8:-0.666667 9:0.478261 11:0.684211 12:-0.538462 13:-0.384615 14:-0.272727 15:-0.333333 16:-0.714286 
8 1:-0.685393 2:-0.688889 3:-0.45098 4:-0.727273 5:-0.65 6:-0.466667 7:-0.578947 8:-1 9:-0.608696 10:-0.769231 11:-0.684211 12:-1 13:-0.615385 14:-0.818182 15:-0.666667 16:-1 
1.6617499874401569 1:0.258427 2:1 3:0.333333 4:1 5:0.55 6:0.466667 7:1 8:0.666667 9:0.869565 10:0.923077 11:0.368421 12:0.384615 13:-0.230769 14:0.454545 15:-0.333333 16:0.714286 
8 1:-0.123596 2:0.0666667 3:0.0588235 4:-0.454545 5:0.25 6:0.333333 7:-0.0526316 8:-0.5 9:0.173913 11:-0.578947 12:-0.538462 13:-0.384615 14:-0.636364 15:-0.333333 16:-0.428571 
8 1:-0.955056 2:-0.866667 3:-0.960784 4:-0.909091 5:-0.9 6:-0.733333 7:-0.894737 8:-0.833333 9:-0.695652 10:-0.846154 11:-0.894737 12:-0.846154 13:-0.769231 14:-1 15:-0.833333 16:-0.428571 
8 1:-0.52809 2:-0.777778 3:-0.960784 4:-1 5:-0.55 6:-0.866667 7:-0.789474 8:-0.833333 9:-0.956522 10:-0.846154 11:-0.894737 12:-1 13:-0.923077 14:-1 15:-0.666667 16:-1 
8 1:-0.101124 2:-0.333333 3:-0.568627 4:-0.454545 5:-0.15 6:-0.0666667 7:-0.578947 8:-0.833333 9:-0.26087 11:-0.473684 12:-0.846154 13:-0.692308 14:-0.272727 15:-0.833333 16:-1 
8 1:-0.865169 2:-0.866667 3:-0.960784 4:-0.909091 5:-0.95 6:-0.733333 7:-0.789474 8:-0.833333 9:-1 10:-0.846154 11:-0.894737 12:-0.846154 13:-1 14:-0.636364 15:-0.833333 16:-0.714286 
8 1:-0.550562 2:-0.466667 3:-0.568627 4:-0.363636 5:-0.35 6:-0.6 7:0.0526316 8:-0.666667 9:-0.0869565 10:-0.846154 11:-0.368421 12:-0.846154 13:-0.307692 14:-0.636364 15:-0.5 16:-0.714286 
8 1:-0.0786517 2:-0.511111 3:-0.607843 4:-0.727273 5:-0.55 6:-0.2 7:-0.473684 8:-0.666667 9:-0.608696 10:-0.923077 11:-0.684211 12:-1 13:-0.769231 14:-0.818182 15:-1 16:-1 
8 1:-0.707865 2:-0.466667 3:-0.803922 4:-0.727273 5:-0.55 6:-0.2 7:-0.578947 8:-0.666667 9:-0.652174 10:-0.769231 11:-0.578947 12:-0.692308 13:-0.692308 14:-0.818182 15:-0.833333 16:-0.714286 
8 1:-0.258427 2:-0.155556 3:-0.411765 4:-0.272727 5:-0.3 6:-0.6 7:-0.368421 8:-0.666667 9:-0.565217 10:-0.384615 11:-0.368421 12:-0.538462 13:-0.461538 14:-0.272727 15:-0.333333 16:-1 
8 1:-0.0786517 2:-0.777778 3:-0.764706 4:-0.727273 5:-0.95 6:-0.466667 7:-0.789474 8:-0.833333 9:-0.73913 10:-0.846154 11:-1 12:-0.846154 13:-1 14:-0.818182 15:-1 16:-1 
8 1:-0.685393 2:-0.688889 3:-0.803922 4:-0.909091 5:-0.75 6:-0.866667 7:-1 8:-1 9:-0.782609 10:-0.769231 11:-0.789474 12:-0.0769231 13:-0.769231 14:-0.818182 15:-1 16:-1 
8 1:-0.393258 2:-0.688889 3:-0.372549 4:-0.636364 5:-0.2 6:-0.733333 7:-0.263158 8:-0.833333 9:-0.434783 10:-0.615385 11:-0.684211 12:-0.846154 13:-0.461538 14:-1 15:-1 16:-1 
8 1:-0.685393 2:-0.866667 3:-0.686275 4:-0.909091 5:-0.6 6:-0.733333 7:-0.789474 8:-1 9:-0.565217 10:-0.461538 11:-0.684211 12:-1 13:-0.923077 14:-0.818182 15:-1 16:-1 
8 1:-0.235955 2:-0.155556 3:-0.45098 4:-0.272727 5:-0.2 6:-0.733333 7:-0.263158 8:-0.833333 9:-0.565217 10:-0.384615 11:-0.473684 12:-0.538462 13:-0.461538 14:-0.272727 15:-0.333333 16:-1 
8 1:-0.775281 2:-0.688889 3:-0.72549 4:-0.818182 5:-0.65 6:-0.866667 7:-0.578947 8:-1 9:-0.565217 10:-0.692308 11:-0.789474 12:-0.692308 13:-0.769231 14:-1 15:-0.833333 16:-0.714286 
8 1:1 2:0.111111 3:-0.294118 4:-0.181818 5:0.55 6:0.0666667 7:0.368421 8:-0.5 9:0.173913 10:-0.0769231 11:-0.263158 12:-0.692308 13:-0.384615 14:0.0909091 15:-0.833333 16:-0.428571 
8 1:-0.235955 2:-0.733333 3:-0.803922 4:-0.909091 5:-0.7 6:-0.866667 7:-0.684211 8:-1 9:-0.695652 10:-1 11:-0.894737 12:-1 13:-0.769231 14:-0.818182 15:-0.666667 16:-1 
8 1:-0.685393 2:-0.422222 3:-0.568627 4:-0.0909091 5:-0.65 6:-0.6 7:-0.578947 8:-0.166667 9:-0.478261 10:-0.846154 11:-0.684211 12:-0.0769231 13:-0.384615 14:-0.454545 15:-0.5 16:-1 
8 1:-1 2:-0.822222 3:-0.960784 4:-0.727273 5:-0.9 6:-0.6 7:-0.684211 8:-0.833333 9:-0.695652 10:-0.769231 11:-0.789474 12:-0.538462 13:-0.615385 14:-0.636364 15:-0.166667 16:-0.142857 
8 1:-0.707865 2:-0.6 3:-0.294118 4:-0.181818 5:-0.2 6:-0.2 7:-0.263158 8:-0.5 9:-0.478261 10:-0.384615 11:-0.473684 12:-0.538462 13:-0.384615 14:-0.0909091 15:-0.5 16:-1 
0.18603864187070315 1:-0.865169 2:-0.733333 3:-0.921569 4:-0.818182 5:-0.75 6:-0.6 7:-0.368421 8:-0.166667 9:-0.565217 10:-0.615385 11:-0.157895 12:-0.230769 13:-0.461538 14:-0.636364 15:-0.333333 16:-0.428571 
8 1:-0.955056 2:-0.955556 3:-0.72549 4:-0.909091 5:-0.75 6:-0.6 7:-0.578947 8:-1 9:-0.73913 10:-0.769231 11:-1 12:-0.692308 13:-0.846154 14:-1 15:-1 16:-0.714286 
8 1:-0.910112 2:-0.733333 3:-0.803922 4:-0.636364 5:-0.75 6:-0.466667 7:-1 8:-0.833333 9:-0.826087 10:-0.538462 11:-0.894737 12:-0.692308 13:-0.615385 14:-0.636364 15:-0.833333 16:-0.714286 
8 1:-0.52809 2:-0.822222 3:-0.803922 4:-1 5:-0.8 6:-0.866667 7:-0.894737 8:-0.833333 9:-0.826087 10:-1 11:-0.894737 12:-1 13:-0.769231 14:-1 15:-1 16:-0.714286 
8 1:-0.168539 2:-0.288889 3:-0.607843 4:-0.0909091 5:-0.25 6:0.333333 7:0.157895 9:-0.217391 10:-0.307692 11:-0.0526316 12:-0.384615 13:-0.461538 14:-0.0909091 15:-1 16:-1 
8 1:-0.842697 2:-0.511111 3:-0.686275 4:-0.363636 5:-0.7 6:-0.0666667 7:-0.473684 8:-0.5 9:-0.652174 10:-0.769231 11:-0.789474 12:-0.846154 13:-0.615385 14:-0.0909091 15:-0.666667 16:-0.714286 
8 1:-0.640449 2:-0.555556 3:-0.764706 4:-0.454545 5:-0.55 6:-0.6 7:-0.684211 8:-0.666667 9:-0.478261 10:-0.538462 11:-0.684211 12:-0.692308 13:-0.846154 14:-1 15:-0.833333 16:-1 
8 1:-0.101124 2:-0.377778 3:-0.529412 4:0.272727 5:-0.15 6:-0.466667 7:-0.578947 8:-1 9:-0.26087 10:-0.538462 11:-0.157895 12:-0.692308 13:-0.538462 14:-0.818182 15:-0.5 16:-1 
8 1:-0.932584 2:-0.955556 3:-0.803922 4:-0.818182 5:-0.85 6:-0.866667 7:-0.578947 8:-1 9:-0.956522 10:-0.769231 11:-0.684211 12:-1 13:-0.846154 14:-1 15:-0.666667 16:-0.714286 
8 1:-0.370787 2:-0.6 3:0.0196078 4:-0.636364 5:0.2 6:-0.333333 7:-0.789474 8:-1 9:-0.521739 10:-0.846154 11:-0.473684 12:-1 13:-0.846154 14:-1 15:-0.833333 16:-1 
8 1:-0.640449 2:-0.688889 3:-0.843137 4:-0.818182 5:-0.65 6:-0.866667 7:-0.263158 8:-1 9:-0.869565 10:-0.769231 11:-0.789474 12:-0.538462 13:-0.846154 14:-1 15:-1 16:-0.714286 
1.2618031651649568 1:-0.865169 2:-0.688889 3:-0.529412 4:-0.636364 5:-0.5 6:-0.0666667 7:-0.473684 8:0.166667 9:-0.782609 10:-0.461538 11:-0.789474 12:-0.384615 13:-0.923077 14:-0.454545 15:-0.166667 16:-0.142857 
8 1:-0.932584 2:-0.733333 3:-0.882353 4:-0.909091 5:-0.75 6:-0.6 7:-0.894737 8:-0.5 9:-0.782609 10:-0.923077 11:-0.894737 12:-1 13:-1 14:-1 15:-0.833333 16:-0.714286 
8 1:-0.617978 2:-0.644444 3:-0.529412 4:-0.909091 5:-0.65 6:-0.6 7:-0.789474 8:-1 9:-0.695652 10:-0.769231 11:-0.263158 12:-0.692308 13:-0.923077 14:-0.818182 15:-0.666667 16:-1 
4.5310489938730099 1:-0.707865 2:-0.466667 3:-0.764706 4:-0.0909091 5:-0.25 6:-0.2 7:0.263158 9:-0.434783 10:-0.615385 11:-0.684211 12:0.538462 13:-0.615385 14:-0.0909091 16:-0.714286 
8 1:-0.775281 2:-0.777778 3:-0.882353 4:-0.818182 5:-0.6 6:-0.6 7:-0.894737 8:-0.666667 9:-0.913043 10:-0.692308 11:-0.789474 12:-1 13:-0.692308 14:-0.454545 15:-1 16:-1 
8 1:-0.348315 2:-0.111111 3:-0.333333 4:-0.727273 5:-0.25 6:0.2 7:-0.157895 8:0.666667 9:-0.652174 10:0.153846 11:0.157895 12:-0.384615 13:-0.230769 14:-0.454545 15:-0.166667 16:0.142857 
8 1:-0.865169 2:-0.688889 3:-0.803922 4:-0.545455 5:-0.65 6:-0.733333 7:-0.684211 8:-0.5 9:-0.695652 10:-0.692308 11:-0.263158 12:-0.384615 13:-0.692308 14:-0.818182 15:-0.5 16:-0.142857 
8 1:-0.775281 2:-0.777778 3:-0.764706 4:-0.545455 5:-0.6 6:-0.333333 7:-0.263158 8:-0.833333 9:-0.565217 10:-0.692308 11:-0.684211 12:-0.384615 13:-0.692308 14:-0.272727 15:-0.833333 16:-0.142857 
8 1:-0.775281 2:-0.377778 3:-0.647059 4:-0.727273 5:-0.75 6:-0.466667 7:-0.368421 8:-0.5 9:-0.565217 10:-0.230769 11:-0.473684 12:-0.692308 13:-0.923077 14:0.0909091 15:-0.666667 16:-0.428571 
8 1:-0.640449 2:-0.555556 3:-0.764706 4:-0.363636 5:-0.55 6:-0.466667 7:-0.578947 8:-0.166667 9:-0.391304 10:-1 11:-0.789474 12:-0.846154 13:-0.538462 14:-0.818182 15:-1 16:-1 
8 1:-0.775281 2:-0.422222 3:-0.647059 4:-0.545455 5:-0.35 6:0.0666667 7:-0.894737 8:-0.833333 9:-0.478261 10:-0.461538 11:-0.578947 12:-0.846154 13:-0.461538 14:-0.636364 15:-0.666667 16:-1 
8 1:-0.123596 2:-0.155556 3:-0.647059 4:-0.545455 5:-0.6 6:-0.2 7:-0.473684 8:-0.666667 9:-0.521739 10:-0.846154 11:-0.473684 12:-0.384615 13:-0.230769 14:-0.272727 15:-0.666667 16:-0.714286 
8 1:-0.325843 2:-0.288889 3:-0.333333 4:-0.0909091 5:-0.4 6:-0.466667 7:-0.0526316 8:-0.333333 9:-0.173913 10:-0.538462 11:-0.157895 12:-0.846154 13:-0.461538 14:-0.454545 15:-0.5 16:-0.142857 
8 1:-0.932584 2:-0.911111 3:-0.921569 4:-0.909091 5:-0.9 6:-0.866667 7:-0.894737 8:-1 9:-0.782609 10:-0.769231 11:-0.473684 12:-0.692308 13:-0.846154 14:-0.818182 15:-0.833333 16:-0.714286 
8 1:-0.797753 2:-0.866667 3:-0.72549 4:-0.818182 5:-0.7 6:-1 7:-0.894737 8:-0.666667 9:-0.565217 10:-0.846154 11:-0.684211 12:-0.846154 13:-0.769231 14:-0.818182 15:-0.833333 16:-0.714286 
8 1:-0.146067 2:-0.0666667 3:0.176471 4:-0.272727 5:0.5 6:-0.2 7:0.368421 8:-0.333333 10:-0.0769231 11:-0.473684 12:-0.384615 13:-0.384615 14:-0.818182 15:-0.833333 16:-1 
8 1:-0.573034 2:-0.777778 3:-0.803922 4:-0.727273 5:-0.65 6:-0.866667 7:-0.473684 8:-0.666667 9:-0.826087 10:-0.846154 11:-0.473684 12:-0.846154 13:-0.692308 14:-0.818182 15:-0.833333 16:-1 
8 1:-0.752809 2:-0.911111 3:-0.882353 4:-0.909091 5:-0.8 6:-1 7:-1 8:-0.833333 9:-0.782609 10:-0.769231 11:-0.789474 12:-0.846154 13:-0.923077 14:-1 15:-1 16:-1 
8 1:-0.707865 2:-0.688889 3:-0.490196 4:-0.818182 5:-0.75 6:-0.466667 7:-0.789474 8:-1 9:-0.565217 10:-0.538462 11:-0.473684 12:-0.0769231 13:-0.538462 14:-0.636364 15:-0.666667 16:-0.428571 
5.2017982333090131 1:-0.685393 2:-0.777778 3:-0.686275 4:-0.545455 5:-0.75 6:0.2 7:0.157895 8:-0.333333 9:-0.608696 10:-0.846154 11:-0.368421 12:-0.0769231 13:-0.615385 14:-0.0909091 15:-0.5 16:-0.714286 
8 1:-0.977528 2:-0.866667 3:-1 4:-0.909091 5:-0.9 6:-0.866667 7:-0.894737 8:-1 9:-0.73913 10:-1 11:-1 12:-0.846154 13:-1 14:-1 15:-1 16:-0.428571 
8 1:-0.325843 2:-0.333333 3:-0.72549 4:-0.454545 5:-0.75 6:-0.6 7:-0.789474 8:-0.666667 9:-0.652174 10:-0.923077 11:-0.473684 12:-0.692308 13:-0.615385 14:-0.272727 15:-0.833333 16:-1 
8 1:-0.52809 2:-0.644444 3:-0.529412 4:-0.727273 5:-0.3 6:-0.6 7:-0.263158 8:-1 9:-0.347826 10:-0.692308 11:-0.473684 12:-0.846154 13:-0.692308 14:-0.636364 15:-0.666667 16:-1 
8 1:-0.932584 2:-0.777778 3:-0.843137 4:-0.363636 5:-0.85 6:-0.466667 7:-0.684211 8:-0.333333 9:-0.913043 10:-0.846154 11:-0.684211 12:-0.846154 13:-0.769231 14:-0.0909091 15:-0.5 16:-0.428571 
8 1:-0.977528 2:-0.822222 3:-0.882353 4:-0.727273 5:-0.85 6:-0.733333 7:-0.578947 8:-0.666667 9:-0.869565 10:-0.846154 11:-0.473684 12:-0.230769 13:-1 14:-0.818182 15:-0.666667 16:-0.714286 
8 1:-0.707865 2:-0.688889 3:-0.490196 4:-0.363636 5:-0.45 6:-0.466667 7:-0.0526316 8:-0.5 9:-0.478261 10:-0.538462 11:-0.473684 12:-0.538462 13:-0.230769 14:-0.454545 15:0.166667 16:-0.428571 
8 1:-0.752809 2:-0.733333 3:-0.764706 4:-1 5:-0.65 6:-0.733333 7:-1 8:-1 9:-0.869565 10:-0.538462 11:-0.684211 12:-1 13:-0.692308 14:-1 15:-1 16:-1 
8 1:-0.0337079 2:-0.288889 3:-0.411765 4:-1 5:-0.6 6:-0.733333 7:-0.894737 8:-0.833333 9:-0.565217 10:-0.769231 11:-0.684211 12:-0.846154 13:-0.769231 14:-0.818182 15:-1 16:-1 
8 1:-0.88764 2:-0.6 3:-0.647059 4:-0.636364 5:-0.6 6:-0.333333 7:-0.578947 8:-0.5 9:-0.695652 10:-0.692308 11:-0.368421 12:-0.538462 13:-0.538462 14:-0.454545 15:-0.666667 16:-0.428571 
8 1:-0.685393 2:-0.422222 3:-0.72549 4:-0.363636 5:-0.45 6:-0.6 7:-0.789474 8:0.333333 9:-0.347826 10:-0.692308 11:-0.789474 12:-0.230769 13:-0.692308 14:-0.454545 15:-0.333333 16:-1 
8 1:-0.438202 2:-0.288889 3:0.0196078 4:-0.454545 5:-0.3 6:-0.2 7:0.0526316 8:-0.5 9:-0.434783 10:-0.384615 11:-0.0526316 12:-0.230769 13:-0.230769 14:0.454545 16:-0.142857 
8 1:-0.910112 2:-0.6 3:-0.882353 4:-0.818182 5:-0.55 6:-1 7:-0.789474 8:-0.666667 9:-0.782609 10:-0.846154 11:-0.789474 12:-1 13:-1 14:-1 15:-1 16:-0.714286 
8 1:-0.325843 2:-0.555556 3:-0.333333 4:-0.818182 5:0.05 6:0.0666667 7:0.368421 8:-0.166667 9:-0.173913 10:0.153846 11:-0.157895 12:-0.538462 13:-0.153846 14:-0.636364 15:-0.333333 16:-1 
8 1:-0.820225 2:-0.511111 3:-0.647059 4:-0.909091 5:-0.8 6:-1 7:-0.894737 8:-1 9:-0.695652 10:-0.692308 11:-0.894737 12:-0.692308 13:-0.615385 14:-0.818182 15:-0.833333 16:-0.428571 
8 1:-0.752809 2:-0.777778 3:-0.686275 4:-0.909091 5:-0.85 6:-1 7:-0.894737 8:-1 9:-0.826087 10:-0.769231 11:-0.789474 12:-0.538462 13:-0.923077 14:-0.818182 15:-0.833333 16:-1 
8 1:-0.505618 2:-0.688889 3:-0.529412 4:-1 5:-0.75 6:-1 7:-0.684211 8:-1 9:-0.73913 10:-0.615385 11:-0.894737 12:-1 13:-0.692308 14:-0.818182 15:-0.833333 16:-0.714286 
8 1:-0.797753 2:-0.688889 3:-0.803922 4:-0.909091 5:-0.9 6:-0.866667 7:-1 8:-0.833333 9:-0.826087 10:-0.923077 11:-0.894737 12:-1 13:-0.923077 14:-0.818182 15:-1 16:-0.714286 
8 1:-0.640449 2:-0.822222 3:-0.686275 4:-0.909091 5:-0.55 6:-0.866667 7:-0.894737 8:-0.833333 9:-0.913043 10:-0.615385 11:-0.789474 12:-0.846154 13:-1 14:-1 15:-1 16:-1 
3.7296904858457576 1:-0.483146 2:-0.555556 3:-0.294118 4:-0.454545 5:-0.35 6:-0.0666667 7:0.0526316 8:0.5 9:-0.434783 10:-0.692308 11:-0.368421 12:-0.230769 13:-0.230769 14:0.272727 15:-0.166667 16:-0.142857 
1.0439235499924697 1:-0.41573 2:-0.688889 3:-0.529412 4:-0.181818 5:-0.6 6:-0.2 7:0.0526316 8:0.166667 9:-0.565217 10:-0.230769 11:-0.263158 12:-0.384615 13:0.153846 14:1 15:-0.166667 16:0.714286 
-8 1:-0.842697 2:-0.644444 3:-0.529412 4:-0.454545 5:-0.7 6:-0.333333 7:-0.578947 8:-0.333333 9:-0.521739 10:-0.461538 11:-0.789474 12:-0.230769 13:-0.846154 14:-1 15:-0.833333 16:-1 
-8 1:-0.955056 2:-0.822222 3:-0.882353 4:-1 5:-1 6:-0.733333 7:-0.894737 8:-0.666667 9:-0.913043 10:-0.923077 11:-1 12:-1 13:-0.769231 14:-1 15:-1 16:-0.714286 
-8 1:-0.325843 2:-0.6 3:-0.529412 4:-0.727273 5:-0.45 6:-0.333333 7:-0.157895 8:-0.666667 9:-0.217391 10:-0.769231 11:-0.578947 12:-0.384615 13:-0.538462 14:-0.636364 15:-0.666667 16:-0.428571 
-2.6091908597695439 1:0.752809 2:-0.0222222 3:-0.254902 4:-0.727273 5:0.1 6:-0.466667 7:0.473684 8:-0.666667 9:0.478261 10:-0.307692 11:-0.578947 12:-0.846154 13:-0.307692 14:-0.636364 16:-0.714286 
-8 1:-0.505618 2:-0.466667 3:-0.803922 4:-0.454545 5:-0.5 6:-0.333333 7:-0.368421 8:-0.5 9:-0.478261 10:-0.538462 11:-0.157895 12:0.0769231 13:-0.461538 14:-0.454545 16:-1 
-8 1:-0.842697 2:-0.866667 3:-0.882353 4:-0.909091 5:-0.9 6:-1 7:-1 8:-0.833333 9:-0.826087 10:-0.692308 11:-0.894737 12:-0.846154 13:-0.846154 14:-1 15:-0.666667 16:-1 
-8 1:-0.977528 2:-0.955556 3:-1 4:-1 5:-0.9 6:-1 7:-0.894737 8:-0.833333 9:-0.869565 10:-0.846154 11:-0.578947 12:-1 13:-0.923077 14:-0.818182 15:-1 16:-0.714286 
-8 1:-0.438202 2:-0.822222 3:-0.72549 4:-0.909091 5:-0.7 6:-0.866667 7:-0.789474 8:-1 9:-0.608696 10:-0.846154 11:-0.684211 12:-1 13:-0.615385 14:-1 15:-1 16:-1 
-7.6742024139458858 1:1 2:-0.333333 3:-0.0588235 4:-0.454545 5:0.35 6:-0.2 7:-0.0526316 8:-0.5 9:-0.173913 10:-0.0769231 11:-0.578947 12:-0.846154 13:-0.307692 14:-0.454545 15:-0.833333 16:-1 
-5.9709020032801066 1:0.393258 2:-0.155556 3:-0.176471 4:-0.181818 5:-0.35 6:0.0666667 7:-0.263158 8:-0.5 10:-0.615385 11:-0.473684 12:-0.538462 13:-0.307692 14:-0.636364 15:-0.833333 16:-1 
-8 1:-0.640449 2:-0.644444 3:-0.764706 4:-0.818182 5:-0.85 6:-0.6 7:-0.684211 8:-0.666667 9:-0.695652 10:-0.769231 11:-0.157895 12:-0.384615 13:-0.923077 14:-0.818182 15:-0.833333 16:-1 
-8 1:-0.707865 2:-0.688889 3:-0.72549 4:-0.454545 5:-0.75 6:-0.866667 7:-0.684211 8:-0.833333 9:-0.695652 10:-0.923077 11:-0.684211 12:-0.846154 13:-0.923077 14:-0.818182 15:-0.833333 16:-1 
-8 1:-0.752809 2:-0.688889 3:-0.764706 4:-0.636364 5:-0.55 6:-0.466667 7:-0.473684 8:-0.833333 9:-0.652174 10:-0.384615 11:-0.263158 12:-0.538462 13:-0.230769 14:-0.818182 15:-0.333333 16:-0.714286 
-5.471557152944925 1:-0.438202 2:-0.555556 3:-0.215686 4:-0.181818 5:-0.4 6:-0.0666667 7:-0.0526316 8:-0.333333 9:0.0869565 10:-0.384615 11:0.263158 12:-0.692308 13:-0.230769 14:-0.0909091 15:-0.666667 16:-1 
-8 1:-0.865169 2:-0.911111 3:-0.921569 4:-0.909091 5:-0.95 6:-0.733333 7:-0.789474 8:-0.833333 9:-0.869565 10:-0.846154 11:-0.789474 12:-0.692308 13:-1 14:-0.818182 15:-1 16:-0.714286 
-8 1:-0.213483 2:-0.777778 3:-0.764706 4:-0.727273 5:-0.6 6:-0.733333 7:-0.473684 8:-0.833333 9:-0.652174 10:-0.615385 11:-0.263158 12:-0.846154 13:-0.615385 14:-1 15:-0.833333 16:-1 
-8 1:-0.797753 2:-0.688889 3:-0.72549 4:-0.818182 5:-0.85 6:-0.866667 7:-0.684211 8:-0.666667 9:-0.826087 10:-1 11:-0.894737 12:-1 13:-0.692308 14:-0.454545 15:-1 16:-1 
-8 1:-0.52809 2:-0.6 3:-0.490196 4:-0.0909091 5:-0.3 6:-0.0666667 7:-0.157895 8:-0.666667 9:-0.26087 10:-0.0769231 11:-0.263158 12:-0.692308 13:-0.307692 14:-0.0909091 15:-0.5 16:-0.428571 
-8 1:-0.88764 2:-0.777778 3:-0.882353 4:-0.818182 5:-0.8 6:-0.866667 7:-0.368421 8:-0.666667 9:-0.826087 10:-0.615385 11:-0.894737 12:-1 13:-0.846154 14:-0.454545 15:-0.333333 16:-0.428571 
-8 1:-0.752809 2:-0.422222 3:-0.607843 4:-0.727273 5:-0.25 6:-0.6 7:-0.473684 9:-0.608696 10:-0.230769 11:-0.684211 12:-0.384615 13:-0.384615 14:-0.818182 15:-0.666667 16:-0.714286 
-8 1:-0.820225 2:-0.733333 3:-0.803922 4:-0.545455 5:-0.75 6:-0.733333 7:-0.473684 8:-0.833333 9:-0.869565 10:-0.923077 11:-0.578947 12:-0.692308 13:-0.923077 14:-0.636364 15:-0.833333 16:-1 
-8 1:-0.977528 2:-0.911111 3:-0.960784 4:-1 5:-0.75 6:-1 7:-1 8:-0.833333 9:-0.782609 10:-0.923077 11:-0.684211 12:-0.846154 13:-0.923077 14:-1 15:-1 16:-0.714286 
-1.370800507204923 1:-0.752809 2:-0.377778 3:-0.764706 4:-0.909091 5:-0.7 6:-0.2 7:-0.894737 8:-0.666667 9:-0.782609 10:-0.769231 11:-0.473684 12:-1 13:-0.538462 14:-1 15:-0.833333 16:-1 
-8 1:-0.775281 2:-0.733333 3:-0.921569 4:-0.909091 5:-0.75 6:-1 7:-1 8:-1 9:-0.73913 10:-0.846154 11:-0.789474 12:-1 13:-0.769231 14:-0.818182 15:-0.833333 16:-1 
-2.3140590393572982 1:-0.393258 2:-0.244444 3:-0.529412 4:-0.363636 5:-0.45 6:-0.0666667 7:-0.578947 9:-0.217391 10:0.0769231 11:-0.263158 12:-0.230769 13:-0.307692 14:-1 15:-0.666667 16:-1 
-8 1:-0.842697 2:-0.777778 3:-0.764706 4:-0.909091 5:-0.5 6:-0.466667 7:-0.789474 8:-0.833333 9:-0.782609 10:-0.615385 11:-0.578947 12:-0.692308 13:-0.692308 14:-1 15:-0.666667 16:-0.714286 
-8 1:-0.842697 2:-0.777778 3:-0.921569 4:-0.727273 5:-0.55 6:-0.6 7:-0.789474 8:-0.833333 9:-0.956522 10:-0.769231 11:-0.578947 12:-0.384615 13:-0.846154 14:-0.818182 15:-0.833333 16:-1 
-8 1:-0.52809 2:-0.333333 3:-0.72549 4:-0.545455 5:-0.3 6:-0.333333 7:0.0526316 8:-1 9:-0.478261 10:-0.538462 11:-0.684211 12:-0.384615 13:-0.615385 14:-0.454545 15:-0.666667 16:-0.714286 
-8 1:-0.707865 2:-0.688889 3:-0.72549 4:-0.909091 5:-0.35 6:-0.6 7:-0.368421 8:-1 9:-0.608696 10:-0.769231 11:-0.578947 12:-0.692308 13:-0.846154 14:-0.454545 15:-0.833333 16:-0.714286 
-8 1:-0.775281 2:-0.911111 3:-0.72549 4:-0.818182 5:-0.9 6:-0.733333 7:-0.578947 8:-1 9:-1 10:-0.846154 11:-0.789474 12:-1 13:-0.692308 14:-0.272727 15:-0.833333 16:-0.714286 
-4.307168742390953 1:-0.910112 2:-0.822222 3:-0.647059 4:-0.818182 5:-0.75 6:-0.866667 7:-1 8:-1 9:-0.695652 10:-0.692308 11:-0.894737 12:-0.692308 13:-0.538462 14:-1 15:-0.666667 16:-1 
-8 1:-0.88764 2:-0.6 3:-0.686275 4:-0.818182 5:-0.75 6:-0.466667 7:-0.684211 8:-0.833333 9:-0.695652 10:-0.846154 11:-0.684211 12:-0.846154 13:-0.923077 14:-0.818182 15:-0.833333 16:-0.428571 
-8 1:-0.752809 2:-0.688889 3:-0.843137 4:-0.636364 5:-0.6 6:-0.466667 7:-0.684211 8:-0.5 9:-0.608696 10:-0.846154 11:-0.578947 12:-0.692308 13:-0.615385 14:-0.636364 15:-0.833333 16:-1 
-8 1:-0.573034 2:-0.511111 3:-0.647059 4:-0.818182 5:-0.55 6:-0.2 7:-0.789474 8:-0.666667 9:-0.608696 10:-0.692308 11:-0.684211 12:-0.846154 13:-0.538462 14:-0.818182 15:-0.666667 16:-1 
-8 1:-0.41573 2:-0.733333 3:-0.568627 4:-0.545455 5:-0.65 6:-0.866667 7:-0.473684 8:-1 9:-0.608696 10:-0.846154 11:-0.473684 12:-1 13:-0.692308 14:-1 15:-0.833333 16:-1 
-8 1:-0.0786517 2:-0.2 3:-0.529412 4:-0.454545 5:-0.55 6:0.2 7:-0.263158 8:-0.833333 9:-0.391304 11:-0.473684 12:-0.846154 13:-0.461538 14:-0.272727 15:-0.333333 16:-0.714286 
-8 1:-0.977528 2:-0.955556 3:-1 4:-1 5:-0.95 6:-1 7:-0.894737 8:-1 9:-0.956522 10:-0.923077 11:-0.894737 12:-0.846154 13:-1 14:-1 15:-0.833333 16:-1 
-8 1:-0.460674 2:-0.422222 3:-0.411765 4:-0.545455 5:-0.45 6:-0.6 7:-0.578947 8:-0.5 9:-0.73913 10:-0.769231 11:-0.578947 12:-0.0769231 13:-0.538462 14:-1 15:-0.166667 16:-0.714286 
-8 1:-0.191011 2:-0.422222 3:-0.176471 4:-0.272727 5:-0.15 6:-0.6 7:-0.578947 8:-1 9:-0.26087 10:-0.461538 11:-0.684211 12:-1 13:-0.615385 14:-1 15:-0.833333 16:-0.714286 
-7.1329568900928484 1:-0.842697 2:-0.866667 3:-0.843137 4:-0.909091 5:-0.65 6:-0.6 7:-0.368421 8:-0.833333 9:-0.695652 10:-0.615385 11:-0.789474 12:-0.846154 13:-0.923077 14:-0.454545 15:-1 16:-0.428571 
-0.90427078177444786 1:-0.0786517 2:0.466667 3:0.45098 4:0.272727 5:0.15 6:0.466667 7:0.0526316 9:0.173913 10:-0.153846 11:-0.157895 12:0.230769 13:-0.153846 14:0.0909091 15:-0.333333 16:-0.714286 
-8 1:-0.797753 2:-0.822222 3:-0.568627 4:-0.727273 5:-0.55 6:-0.6 7:-0.789474 8:-0.333333 9:-0.913043 10:-0.692308 11:-0.578947 12:-0.846154 13:-0.615385 14:-0.818182 15:-0.666667 16:-0.714286 
-8 1:-0.775281 2:-0.733333 3:-0.843137 4:-1 5:-0.85 6:-0.733333 7:-0.578947 8:-0.833333 9:-0.956522 10:-0.769231 11:-1 12:-0.846154 13:-0.923077 14:-0.454545 15:-1 16:-0.714286 
-5.4767799232632868 1:-0.707865 2:-0.511111 3:-0.686275 4:-0.545455 5:-0.6 6:-0.333333 7:-0.578947 8:-0.833333 9:-0.73913 10:-0.615385 11:-0.578947 12:-0.692308 13:-0.923077 14:-0.454545 15:-0.833333 16:-1 
-3.9328221367269469 1:-0.258427 2:-0.466667 3:-0.372549 4:-0.454545 6:0.0666667 7:-0.578947 8:-0.5 9:-0.0434783 10:-0.846154 11:-0.473684 12:-0.692308 13:-0.538462 14:-0.272727 15:-0.833333 16:-1 
-8 1:0.0561798 2:0.2 3:-0.0588235 4:0.363636 5:1 6:0.333333 7:0.263158 8:-0.333333 9:0.0434783 10:-0.153846 11:0.473684 12:-0.230769 14:-0.454545 15:-1 16:-0.714286 
-1.8349348747157062 1:-0.370787 2:-0.422222 3:-0.568627 4:0.363636 5:-0.45 6:-0.6 7:0.789474 8:-0.666667 9:-0.304348 10:-0.307692 11:-0.263158 12:-0.846154 13:-0.153846 14:-0.818182 16:-1 
-8 1:-0.505618 2:-0.955556 3:-0.921569 4:-0.818182 5:-0.85 6:-0.866667 7:-1 8:-1 9:-0.913043 10:-1 11:-1 12:-1 13:-0.923077 14:-1 15:-1 16:-1 
-7.0818504589273061 1:-0.88764 2:-0.911111 3:-0.843137 4:-1 5:-0.9 6:-0.733333 7:-0.894737 8:-1 9:-0.869565 10:-0.846154 11:-0.684211 12:-0.846154 13:-0.846154 14:-1 15:-0.833333 16:-1 
-6.1324188035111193 1:-0.0786517 2:0.155556 3:0.176471 4:-0.181818 5:0.3 6:-0.6 7:-0.473684 8:-0.5 10:-0.230769 11:-0.157895 12:-0.384615 13:-0.461538 14:-0.636364 15:-0.333333 16:-1 
-8 1:-0.775281 2:-0.866667 3:-0.686275 4:-0.545455 5:-0.6 6:-0.866667 7:-0.789474 8:-0.833333 9:-0.565217 10:-0.846154 11:-0.578947 12:-0.692308 13:-0.769231 14:-0.818182 15:-0.833333 16:-1 
-2.3084502044330866 1:-0.820225 2:-0.866667 3:-0.960784 4:-0.727273 5:-0.9 6:-0.6 7:-0.894737 8:-0.833333 9:-0.521739 10:-0.769231 11:-0.473684 12:-0.846154 13:-0.615385 14:-0.636364 15:-0.666667 16:-1 
-2.891943246930075 1:-0.775281 2:-0.777778 3:-0.647059 4:-0.545455 5:-0.65 6:-0.2 7:-0.263158 8:-0.666667 9:-0.826087 10:-0.615385 11:-0.789474 12:-0.384615 13:-0.692308 14:-0.818182 15:-0.833333 16:-1 
-8 1:-0.595506 2:-0.466667 3:-0.568627 4:-0.545455 5:-0.5 6:-0.0666667 7:-0.473684 8:-0.833333 9:-0.565217 10:-0.615385 11:-0.0526316 12:-0.692308 13:-0.692308 14:-0.818182 15:-0.833333 16:-0.714286 
-8 1:-0.820225 2:-0.511111 3:-0.490196 4:-0.727273 5:-0.6 6:-0.866667 7:-0.684211 8:-0.333333 9:-0.652174 10:-0.461538 11:-0.368421 12:-0.538462 13:-1 14:-0.272727 15:-1 16:-1 
-8 1:-0.865169 2:-0.822222 3:-0.803922 4:-0.636364 5:-0.9 6:-1 7:-0.894737 8:-1 9:-0.913043 10:-0.769231 11:-0.894737 12:-0.846154 13:-0.923077 14:-1 15:-0.666667 16:-1 
-7.2643336710624977 1:-0.775281 2:-0.822222 3:-0.843137 4:-0.636364 5:-0.75 6:-0.866667 7:-1 8:-0.5 9:-0.434783 10:-0.692308 11:-1 12:-1 13:-0.769231 14:-0.454545 15:-1 16:-1 
-8 1:-0.910112 2:-0.822222 3:-0.764706 4:-0.818182 5:-0.85 6:-1 7:-0.894737 8:-0.833333 9:-0.956522 10:-1 11:-0.894737 12:-1 13:-0.846154 14:-1 15:-1 16:-1 
-8 1:-0.752809 2:-0.644444 3:-0.686275 4:-0.727273 5:-0.45 6:-1 7:-0.684211 8:-0.666667 9:-0.652174 10:-0.615385 11:-0.789474 12:-0.538462 13:-0.923077 14:-0.454545 15:-1 16:-1 
-8 1:-0.820225 2:-0.688889 3:-0.803922 4:-0.727273 5:-0.55 6:-0.733333 7:-0.789474 8:-0.833333 9:-0.695652 10:-0.615385 11:-0.368421 12:-0.384615 13:-0.769231 14:-0.818182 15:-0.666667 16:-1 
-8 1:-0.775281 2:-0.733333 3:-0.803922 4:-1 5:-0.7 6:-0.733333 7:-1 8:-1 9:-0.652174 10:-0.615385 11:-0.578947 12:-0.846154 13:-0.769231 14:-1 15:-0.5 16:-1 
-4.9613820260956656 1:-0.707865 2:-0.777778 3:-0.45098 4:-0.363636 5:-0.6 6:-0.2 7:-0.0526316 8:-0.833333 9:-0.652174 10:-0.692308 11:-0.473684 12:-0.846154 13:-0.615385 14:0.0909091 15:-0.5 16:-1 
-8 1:-0.910112 2:-0.866667 3:-0.843137 4:-0.727273 5:-0.8 6:-0.866667 7:-0.789474 8:-0.833333 9:-0.956522 10:-1 11:-0.789474 12:-1 13:-0.769231 14:-1 15:-0.833333 16:-0.714286 
-8 1:-0.595506 2:-1 3:-0.843137 4:-1 5:-0.9 6:-1 7:-1 8:-1 9:-0.782609 10:-0.846154 11:-1 12:-1 13:-0.846154 14:-1 15:-0.833333 16:-1 
-8 1:-0.550562 2:-0.333333 3:-0.529412 4:-0.636364 5:-0.4 6:-0.2 7:0.0526316 8:-0.333333 9:-0.391304 10:-0.384615 11:-0.263158 12:-0.692308 13:-0.692308 14:-0.636364 15:-0.333333 16:-0.428571 
-3.5848301566935059 1:-0.640449 2:-0.555556 3:-0.686275 4:-0.818182 5:-0.45 6:-0.733333 7:-0.684211 8:-0.666667 9:-0.652174 10:-0.615385 11:-0.789474 12:-0.846154 13:-0.615385 14:-0.636364 15:-0.833333 16:-1 
-8 1:-0.775281 2:-0.333333 3:-0.803922 4:-0.454545 5:-0.7 6:-0.2 7:-0.368421 8:-0.833333 9:-0.26087 10:-0.538462 11:-0.368421 12:-0.846154 13:-0.692308 14:-0.636364 16:-0.714286 
-5.0142176589252223 1:-0.865169 2:-0.644444 3:-0.490196 4:-0.727273 5:-0.5 6:-0.866667 7:-0.684211 8:-0.833333 9:-0.695652 10:-0.461538 11:-0.263158 12:-0.692308 13:-0.538462 14:-0.818182 15:-1 16:-0.714286 
-3.8306163367790593 1:0.820225 2:0.2 3:0.137255 5:0.5 6:-0.333333 7:0.473684 8:-0.333333 10:0.0769231 11:-0.263158 12:-0.846154 13:-0.153846 14:-0.636364 15:-0.166667 16:-1 
-8 1:-0.483146 2:-0.644444 3:-0.843137 4:-0.363636 5:-0.5 6:-0.733333 7:-0.894737 8:-0.5 9:-0.652174 10:-0.846154 11:-0.894737 12:-0.692308 13:-0.692308 14:-1 15:-0.666667 16:-0.714286 
-8 1:-0.910112 2:-0.911111 3:-0.882353 4:-0.818182 5:-0.85 6:-0.866667 7:-1 8:-0.833333 9:-0.913043 10:-0.923077 11:-0.894737 12:-0.538462 13:-0.923077 14:-0.636364 15:-1 16:-0.714286 
-8 1:0.348315 2:-0.377778 3:-0.647059 4:-1 5:-0.45 6:-0.866667 7:-0.684211 8:-0.833333 9:-0.73913 10:-0.923077 11:-0.684211 12:-0.692308 13:-0.846154 14:-0.454545 15:-1 16:-1 
-8 1:-0.640449 2:-0.822222 3:-0.686275 4:-0.909091 5:-0.55 6:-0.866667 7:-0.894737 8:-0.833333 9:-0.913043 10:-0.615385 11:-0.789474 12:-0.846154 13:-1 14:-1 15:-1 16:-1 
-8 1:-0.595506 2:-0.777778 3:-0.686275 4:-0.727273 5:-0.75 6:-0.466667 7:-0.684211 8:-0.833333 9:-0.652174 10:-1 11:-0.894737 12:-1 13:-0.615385 14:-0.636364 15:-0.333333 16:-1 
-8 1:-0.797753 2:-0.644444 3:-0.843137 4:-0.545455 5:-0.8 6:-0.866667 7:-0.894737 8:-1 9:-0.869565 10:-0.923077 11:-0.894737 12:-1 13:-0.923077 14:-1 15:-0.833333 16:-0.714286 
-8 1:-0.370787 2:-0.6 3:-0.607843 4:-0.545455 5:-0.75 6:-0.333333 7:-0.368421 8:-0.333333 9:-0.565217 10:-0.461538 11:-0.684211 12:-0.692308 13:-0.692308 14:-0.636364 15:-1 16:0.428571 
-8 1:-0.303371 2:-0.111111 3:-0.137255 4:-0.363636 5:-0.05 6:0.2 7:-0.157895 9:0.173913 10:0.0769231 11:-0.157895 12:-0.230769 13:-0.538462 14:-0.272727 15:-0.166667 16:-0.142857 
-8 1:-0.685393 2:-0.466667 3:-0.843137 4:-0.363636 5:-0.7 6:-0.466667 7:-0.684211 8:-0.833333 9:-0.565217 10:-0.461538 11:-0.684211 12:-0.692308 13:-0.692308 14:-0.272727 15:-1 16:-1 
-4.4999394692943655 1:-0.88764 2:-0.911111 3:-0.803922 4:-0.727273 5:-0.8 6:-1 7:-0.894737 8:-1 9:-0.869565 10:-1 11:-1 12:-1 13:-1 14:-1 15:-1 16:-1 
-8 1:-0.168539 2:-0.6 3:-0.411765 4:-0.272727 5:-0.2 6:-0.2 7:-0.368421 8:-0.5 9:-0.26087 10:-0.230769 11:-0.789474 12:-0.230769 13:-0.307692 14:-0.272727 15:-0.333333 16:-0.142857 
-4.3437122720754973 1:-0.303371 2:-0.555556 3:-0.333333 4:-0.454545 5:-0.25 6:-0.466667 7:-0.473684 8:-0.666667 9:-0.521739 10:-0.461538 11:-0.263158 12:-0.692308 13:-0.307692 14:-0.454545 15:-1 16:-1 
-2.9343457479645569 1:-0.977528 2:-0.688889 3:-0.960784 4:-0.818182 5:-0.85 6:-0.6 7:-0.894737 8:-0.833333 9:-0.782609 10:-0.769231 11:-0.473684 12:-0.692308 13:-1 14:-1 15:-0.666667 16:-1 
-6.8438526364712544 1:-0.595506 2:-0.6 3:-0.568627 4:-0.363636 5:-0.6 6:-0.866667 7:-0.157895 8:-1 9:-0.521739 10:-0.615385 11:-0.894737 12:-1 13:-0.615385 14:-0.454545 15:-0.833333 16:-0.142857 
-3.7395477676149369 1:-0.842697 2:-0.733333 3:-0.647059 4:-0.909091 5:-0.7 6:0.333333 7:-1 8:-1 9:-0.913043 10:-0.923077 11:-0.789474 12:-1 13:-0.923077 14:-0.636364 15:-1 16:-1 
-8 1:-0.775281 2:-0.822222 3:-0.882353 4:-0.363636 5:-0.8 6:-0.333333 7:-0.578947 8:-0.833333 9:-0.608696 10:-0.846154 11:-0.894737 12:-0.692308 13:-0.923077 14:-0.818182 15:-0.666667 16:-0.714286 
-8 1:0.438202 2:-0.866667 3:-0.803922 4:-0.545455 5:-0.4 6:-0.333333 7:-0.263158 8:-1 9:-0.73913 10:-0.846154 11:-0.684211 12:-1 13:-0.846154 14:-0.636364 15:-1 16:-0.714286 
-8 1:-0.842697 2:-0.644444 3:-0.686275 4:-0.636364 5:-0.55 6:-0.333333 7:-0.684211 8:-0.833333 9:-0.782609 10:-0.538462 11:-0.473684 12:-0.692308 13:-0.692308 14:-0.272727 15:-0.666667 16:-0.714286 
-0.28829580733864352 1:-0.842697 2:-0.688889 3:-0.803922 4:-0.727273 5:-0.5 6:-1 7:-0.578947 8:-0.5 9:-0.608696 10:-0.846154 11:-0.789474 12:-1 13:-0.461538 14:-0.818182 15:-0.833333 16:-0.714286 
-1.1200485843584638 1:-0.258427 2:-0.511111 3:-0.254902 5:-0.15 6:0.333333 7:-0.368421 8:-0.666667 9:-0.521739 10:-0.461538 11:-0.473684 12:-0.538462 13:-0.384615 14:-0.272727 15:-0.333333 16:-1 
-7.0629738844859089 1:-0.752809 2:-0.6 3:-0.843137 4:-1 5:-0.85 6:-0.2 7:-0.578947 8:-0.833333 9:-0.782609 10:-0.769231 11:-1 12:-0.846154 13:-0.692308 14:-0.636364 15:-0.833333 16:-1 
-8 1:-0.707865 2:-0.866667 3:-0.686275 4:-1 5:-0.85 6:-0.466667 7:-0.789474 8:-1 9:-0.608696 10:-0.846154 11:-0.894737 12:-0.692308 13:-0.923077 14:-1 15:-0.5 16:-1 
-8 1:-0.685393 2:-0.6 3:-0.568627 4:-0.272727 5:-0.55 6:-0.733333 7:-0.789474 8:-1 9:-0.478261 10:-0.538462 11:-1 12:-0.692308 13:-0.769231 14:-1 15:-1 16:-0.714286 
-7.7863390073858625 1:-0.393258 2:-0.422222 3:-0.607843 4:-0.454545 5:0.2 6:-0.2 7:-0.368421 8:-0.333333 9:-0.521739 10:-0.692308 11:0.0526316 12:-0.230769 13:-0.230769 14:-0.818182 15:0.333333 16:-0.428571 
-6.161781901261322 1:-0.820225 2:-0.644444 3:-0.647059 4:-0.818182 5:-0.45 6:-0.866667 7:-0.578947 8:-0.833333 9:-0.695652 10:-0.769231 11:-0.684211 12:-0.846154 13:-0.615385 14:-1 15:-1 16:-0.714286 
-8 1:-0.52809 2:-0.644444 3:-0.411765 4:-0.272727 5:-0.35 6:-0.2 7:-0.0526316 9:-0.565217 10:-0.384615 11:-0.368421 12:-0.0769231 13:-0.153846 14:0.454545 15:0.5 16:0.714286 
-8 1:-0.820225 2:-0.688889 3:-0.647059 4:-0.636364 5:-0.5 6:-0.6 7:-0.368421 8:-0.333333 9:-0.695652 10:-0.538462 11:-0.684211 12:-0.846154 13:-0.692308 14:-1 15:-0.5 16:-0.428571 
-8 1:-0.752809 2:-0.733333 3:-0.647059 4:-0.818182 5:-0.9 6:-0.6 7:-0.157895 8:-0.666667 9:-0.521739 10:-0.923077 11:-0.894737 12:-0.538462 13:-0.692308 14:-1 15:-0.833333 16:-1 
-7.5664691480736312 1:-0.303371 2:-0.0666667 3:-0.0980392 5:-0.25 6:0.466667 7:0.0526316 8:1 10:-0.307692 11:0.157895 12:-0.384615 13:-0.153846 14:0.454545 15:-0.166667 16:0.714286 
-0.71732301344025151 1:-0.955056 2:-0.866667 3:-0.960784 4:-0.909091 5:-0.95 6:-1 7:-0.894737 8:-1 9:-0.956522 10:-1 11:-0.684211 12:-0.846154 13:-0.923077 14:-0.272727 15:-1 16:-1 
-8 1:-0.730337 2:-0.644444 3:-0.372549 4:-0.272727 5:-0.7 6:-0.466667 7:-0.0526316 8:-0.833333 9:-0.434783 10:-0.230769 11:-0.473684 12:-0.692308 13:-0.461538 14:0.454545 15:-0.833333 16:-0.428571 
-8 1:-0.640449 2:-0.6 3:-0.607843 4:-0.818182 5:-0.8 6:-0.2 7:-0.473684 8:-0.333333 9:-0.608696 10:-0.692308 11:-0.473684 12:-0.692308 13:-0.769231 14:-1 15:-0.5 16:-1 
-2.5387631352073305 1:-0.842697 2:-0.688889 3:-0.72549 4:-0.636364 5:-0.55 6:-0.2 7:-0.473684 8:-0.333333 9:-0.73913 10:-0.538462 11:-0.473684 12:-0.692308 13:-0.692308 14:-0.818182 15:-0.333333 16:-1 
-5.6245678813712807 1:-0.662921 2:-0.511111 3:-0.45098 5:-0.1 6:0.2 7:-0.157895 8:-0.166667 9:-0.347826 10:-0.230769 11:-0.263158 12:0.0769231 13:-0.384615 14:-0.454545 15:-0.166667 16:-1 
-8 1:-0.797753 2:-0.733333 3:-0.803922 4:-0.545455 5:-0.75 6:-0.6 7:-0.789474 8:-0.833333 9:-0.695652 10:-0.769231 11:-0.684211 12:-0.846154 13:-0.923077 14:-0.818182 15:-0.666667 16:-0.714286 
-8 1:-0.820225 2:-0.777778 3:-0.960784 4:-0.636364 5:-0.65 6:-0.333333 7:-0.263158 8:-0.166667 9:-0.652174 10:-0.307692 11:-0.578947 12:-0.230769 13:-0.769231 14:-0.454545 15:-0.666667 16:-0.142857 
-8 1:-0.842697 2:-0.688889 3:-0.803922 4:-0.818182 5:-0.5 6:-0.6 7:-0.789474 8:-0.833333 9:-0.695652 10:-0.615385 11:-0.684211 12:-1 13:-0.769231 14:-0.818182 15:-0.666667 16:-0.428571 
-8 1:-0.303371 2:-0.6 3:-0.686275 4:-0.545455 5:-0.55 6:-0.333333 7:-0.894737 8:-0.666667 9:-0.173913 10:-0.846154 11:-0.684211 12:-0.538462 13:-0.692308 14:-0.454545 15:-0.833333 16:-1 
-7.5799357332094877 1:-0.348315 2:-0.0222222 3:-0.333333 4:-0.454545 5:-0.25 6:-0.466667 7:0.578947 8:-0.666667 9:-0.217391 10:-0.461538 11:-0.157895 12:-0.692308 13:-0.692308 14:-0.272727 15:-0.833333 16:-1 
-8 1:-0.685393 2:-0.6 3:-0.686275 4:-0.545455 5:-0.8 6:-0.466667 7:-0.578947 8:-0.833333 9:-0.652174 10:-0.538462 11:-0.578947 12:-0.846154 13:-0.769231 14:-0.818182 15:-0.666667 16:-0.714286 
-8 1:-0.41573 2:-0.333333 3:-0.333333 5:-0.15 6:0.2 7:0.0526316 8:-0.166667 9:-0.173913 10:-0.384615 11:-0.368421 12:-0.0769231 13:-0.461538 14:0.0909091 15:-0.5 16:-1 
-8 1:-0.820225 2:-0.644444 3:-0.529412 4:-0.727273 5:-0.6 6:-0.466667 7:-0.263158 8:-0.666667 9:-0.826087 10:-0.846154 11:-0.157895 12:-0.692308 13:-0.769231 14:-0.454545 15:-1 16:-0.714286 
-8 1:-0.752809 2:-0.688889 3:-0.72549 4:-0.818182 5:-0.65 6:-0.866667 7:-0.894737 8:-0.833333 9:-0.782609 10:-0.846154 11:-1 12:-1 13:-0.615385 14:-1 15:-1 16:-0.714286 
-8 1:-0.573034 2:-0.0222222 3:-0.686275 4:-0.363636 5:-0.3 6:-0.466667 7:-0.263158 8:-0.5 9:-0.565217 10:-0.461538 11:-0.894737 12:-0.538462 13:-0.384615 14:-0.272727 15:-0.333333 16:-1 
-8 1:-0.617978 2:-0.333333 3:-0.882353 4:-0.727273 5:-0.5 6:-0.6 7:-0.157895 8:-1 9:-0.73913 10:-0.692308 11:-0.789474 12:-0.692308 13:-0.692308 14:-0.636364 15:-0.833333 16:-0.428571 
