svm_type c_svc
kernel_type rbf
gamma 0.0078125
nr_class 2
total_sv 172
rho 2.7354319441969266
label 1 0
nr_sv 83 89
SV
128 1:0.382919 2:-0.324958 3:-0.0753646 4:-0.403266 5:-0.339948 6:-0.0232101 7:-0.14912 8:-0.474329 9:0.185456 10:-0.752195 11:-0.460723 12:-0.125514 13:-0.503016 14:-0.642569 15:-0.321087 16:-0.0942737 17:0.489066 18:-0.0768753 19:-0.272232 20:-0.4518 21:-0.528356 22:-0.566232 23:-0.659536 24:-0.428588 25:-0.322149 
128 1:-0.0201477 2:-0.150025 3:-0.0629786 4:0.0594509 5:0.00135848 6:-0.104322 7:-0.168867 8:-0.38655 9:0.308629 10:-0.414037 11:-0.321161 12:-0.0137161 13:-0.496958 14:-0.181972 15:-0.306905 16:0.174776 17:-0.0889636 18:-0.123552 19:-0.430332 20:0.357563 21:0.285729 22:-0.448716 23:-0.778626 24:-0.481577 25:-0.202653 
89.713927581920444 1:-0.233592 2:0.0583659 3:0.613151 4:-0.443942 5:-0.227559 6:-0.605902 7:-0.246037 8:-0.112903 9:-0.00142282 10:-0.143018 11:-0.244285 12:-0.213007 13:-0.589128 14:0.0567715 15:-0.11821 16:0.497461 17:-0.338556 18:0.12726 19:0.272115 20:-0.0386266 21:-0.161818 22:-0.401191 23:-0.47955 24:0.216284 25:-0.0327042 
128 1:-0.220509 2:-0.2665 3:0.677192 4:-0.615284 5:-0.126564 6:-0.402176 7:-0.468364 8:-0.699872 9:-0.0757839 10:-0.622207 11:-0.393083 12:-0.202053 13:-0.171097 14:-0.243743 15:-0.0722557 16:0.429383 17:-0.467965 18:0.092543 19:0.191066 20:0.243478 21:-0.09219 22:-0.272614 23:-0.52444 24:-0.0799469 25:0.150608 
128 1:-0.522855 2:-0.582926 3:0.594404 4:-0.433319 5:0.171553 6:-0.134284 7:-0.588413 8:-0.203947 9:-0.128024 10:-0.232159 11:-0.561349 12:-0.53073 13:0.0654068 14:-0.502917 15:0.189526 16:0.2479 17:-0.62165 18:0.36269 19:-0.120944 20:-0.0634211 21:-0.263608 22:0.151604 23:-0.590525 24:-0.33703 25:0.0473193 
128 1:-0.0131472 2:-0.418906 3:-0.337759 4:-0.148847 5:0.315193 6:-0.359745 7:-0.452931 8:-0.0905195 9:0.201626 10:0.150075 11:-0.62539 12:-0.647751 13:-0.348711 14:-0.570975 15:-0.627398 16:-0.601344 17:0.224623 18:-0.838883 19:-0.18554 20:-0.257955 21:-0.896203 22:0.0296155 23:-0.634872 24:0.321216 25:-0.746143 
128 1:-0.00110155 2:-0.125106 3:0.13703 4:-0.251344 5:0.0326731 6:-0.135325 7:-0.210698 8:0.0526547 9:0.27704 10:-0.682187 11:0.780841 12:0.07326 13:-0.555757 14:-0.414 15:0.166495 16:0.0544557 17:-0.360705 18:-0.353467 19:-0.183265 20:-0.630947 21:-0.0461537 22:-0.155042 23:-0.775019 24:-0.524758 25:0.00834521 
128 1:-0.151011 2:-0.172211 3:-0.075389 4:-0.22375 5:-0.095107 6:-0.808578 7:-0.622899 8:-0.142127 9:0.299377 10:-0.735142 11:-0.754622 12:-0.654838 13:-0.356934 14:-0.196312 15:-0.4617 16:-0.247025 17:-0.293678 18:0.139226 19:-0.116631 20:0.0333636 21:-0.450683 22:-0.801815 23:-0.0749618 24:0.059535 25:-0.499327 
128 1:-0.564583 2:-0.673111 3:0.549182 4:-0.342283 5:0.381462 6:0.320998 7:-0.739394 8:0.079257 9:-0.174234 10:-0.70844 11:-0.80551 12:-0.693432 13:0.382928 14:-0.171089 15:0.332474 16:0.507672 17:-0.692504 18:0.454997 19:-0.184664 20:-0.439011 21:0.184496 22:0.273287 23:-0.442468 24:-0.205481 25:0.262428 
128 1:0.283456 2:-0.0758532 3:0.281976 4:-0.694107 5:-0.291815 6:-0.259791 7:-0.180769 8:-0.147955 9:0.813748 10:-0.272 11:-0.333727 12:0.30101 13:-0.38209 14:0.294572 15:-0.187798 16:0.447521 17:-0.0844398 18:0.0809943 19:-0.550192 20:-0.361646 21:-0.90078 22:-0.166862 23:-0.628824 24:-0.626562 25:0.0797021 
128 1:-0.23949 2:-0.0740258 3:0.440041 4:-0.423896 5:-0.243423 6:-0.480922 7:-0.332821 8:-0.125476 9:0.258273 10:-0.134832 11:-0.36413 12:-0.127842 13:-0.120737 14:-0.0473262 15:-0.193594 16:0.291335 17:-0.42264 18:-0.348272 19:0.0897513 20:0.00241214 21:-0.0776642 22:-0.407679 23:-0.00348092 24:0.16694 25:0.274895 
128 1:-0.171021 2:-1 3:-0.756183 4:0.545154 5:0.47821 6:0.0770146 7:-0.522492 8:-1 9:-1 10:-0.935667 11:-0.878592 12:-0.827552 13:-0.465198 14:-0.960083 15:-0.753827 16:-0.804782 17:0.515064 18:-1 19:-1 20:-0.0247284 21:-0.40229 22:-0.378627 23:-0.969266 24:-0.823828 25:-0.414901 
87.358276737185534 1:-0.641115 2:-0.833222 3:0.737233 4:-0.448236 5:0.115179 6:0.358424 7:-1 8:-0.0520748 9:-0.439074 10:-0.762326 11:-0.942021 12:-0.64093 13:1 14:-0.46002 15:0.387156 16:0.920369 17:-0.934165 18:1 19:-0.0428046 20:0.182499 21:0.388605 22:-0.400622 23:-0.627058 24:-0.22216 25:0.301162 
128 1:-0.24585 2:-0.0482029 3:0.26229 4:-0.255788 5:-0.167862 6:-0.355465 7:-0.104244 8:-0.256778 9:0.182534 10:-0.360937 11:-0.219783 12:-0.193707 13:-0.251212 14:0.0249557 15:-0.283432 16:0.253154 17:-0.373573 18:-0.247874 19:0.0173817 20:0.0687246 21:-0.129439 22:-0.213897 23:-0.0142463 24:0.00266904 25:-0.0723429 
128 1:-0.247254 2:-0.0781497 3:0.263296 4:-0.253238 5:-0.171444 6:-0.335302 7:-0.116337 8:-0.237435 9:0.171541 10:-0.389343 11:-0.237571 12:-0.184519 13:-0.230666 14:-0.000341549 15:-0.288589 16:0.275843 17:-0.376008 18:-0.222607 19:-0.00889102 20:0.11535 21:-0.116267 22:-0.187647 23:0.00936002 24:-0.0110452 25:-0.0779413 
27.884952435035743 1:-0.210104 2:0.108331 3:0.29877 4:0.08886 5:0.0267229 6:-0.380284 7:-0.36925 8:-0.126487 9:-0.261488 10:-0.731486 11:0.15862 12:-0.146742 13:-0.822777 14:-0.313967 15:-0.0128475 16:-0.013756 17:-0.228687 18:0.0684556 19:-0.254242 20:-0.886775 21:0.207974 22:0.00548729 23:-0.790742 24:-0.396914 25:-0.174826 
128 1:-0.105491 2:0.349235 3:0.152598 4:-0.624796 5:-0.0499454 6:-1 7:-0.445015 8:-0.0690158 9:0.241825 10:-0.197798 11:-0.057307 12:-0.400344 13:-0.677281 14:0.13176 15:-0.466769 16:-0.25972 17:-0.45852 18:-0.00483034 19:0.0180602 20:-0.181438 21:-0.742369 22:-0.621272 23:0.355712 24:0.0557882 25:-0.277102 
128 1:-0.128774 2:-0.733006 3:0.317332 4:-0.374806 5:0.149325 6:0.214227 7:-0.432802 8:0.234526 9:0.45159 10:-0.57894 11:-0.527432 12:-0.0617753 13:-0.046547 14:-0.411538 15:0.312099 16:-0.0690896 17:-0.149654 18:-0.115429 19:-0.473164 20:-0.16444 21:-0.520762 22:0.441043 23:-0.56496 24:-0.343896 25:0.530171 
128 1:0.0347626 2:-0.503657 3:-0.0570094 4:-0.000305305 5:0.4354 6:-0.227816 7:-0.0233457 8:-0.0506336 9:0.198985 10:0.207662 11:-0.352336 12:-0.179014 13:-0.707558 14:-0.56585 15:-0.149478 16:-0.0790287 17:0.370516 18:0.520754 19:-0.574031 20:-0.544488 21:-0.180501 22:0.497997 23:-0.696544 24:-0.619653 25:-0.159436 
128 1:0.0433726 2:-0.0483485 3:0.0892399 4:-0.0726826 5:-0.000192268 6:-0.700484 7:-0.344344 8:-0.165668 9:0.157909 10:0.0341643 11:-0.264345 12:0.109999 13:-0.574978 14:-0.186019 15:-0.271305 16:-0.086696 17:-0.391413 18:0.0169674 19:-0.152672 20:0.0863851 21:0.0150602 22:-0.15957 23:-0.568074 24:0.151591 25:-0.122222 
128 1:-0.572826 2:-0.617455 3:0.370417 4:-0.41236 5:0.0937354 6:0.415417 7:-0.734279 8:-0.0627874 9:-0.270971 10:-0.626456 11:-0.736776 12:-0.559341 13:0.478939 14:-0.297098 15:0.462454 16:0.352202 17:-0.474205 18:0.196311 19:0.391858 20:-0.0927449 21:0.0460156 22:-0.23185 23:-0.356302 24:0.110244 25:0.376725 
39.711596708327725 1:-0.502528 2:-0.10098 3:0.514575 4:-0.473289 5:-0.014478 6:-0.495668 7:-0.44688 8:-0.23106 9:-0.0790542 10:-0.152963 11:-0.445428 12:-0.633326 13:-0.300151 14:-0.133439 15:0.0449023 16:0.1617 17:-0.335168 18:-0.267946 19:0.33843 20:-0.410952 21:0.268284 22:0.188147 23:-0.431546 24:0.469598 25:0.144434 
128 1:-0.35997 2:0.348406 3:0.54824 4:-0.515286 5:-0.370752 6:-0.590742 7:-0.167593 8:-0.331933 9:0.14662 10:-0.149966 11:-0.672019 12:-0.487227 13:-0.430444 14:-0.0279922 15:-0.493943 16:0.278559 17:-0.279009 18:-0.310743 19:-0.217238 20:-0.41626 21:-0.178544 22:-0.32108 23:0.11569 24:0.490968 25:-0.111186 
5.8864731234310756 1:0.721211 2:0.38119 3:-0.59665 4:0.240785 5:-0.27732 6:-0.753602 7:-0.233151 8:-0.773734 9:-0.0836688 10:-0.324386 11:-0.489258 12:-0.123877 13:-0.591481 14:-0.423248 15:-0.694969 16:-0.5179 17:-0.264863 18:-0.501501 19:-0.814079 20:-0.774231 21:-0.349401 22:-0.838647 23:-0.897694 24:-0.590795 25:-0.557671 
128 1:0.174042 2:-0.190997 3:0.0163871 4:-0.353357 5:-0.399553 6:-0.381261 7:-0.501054 8:-0.486684 9:0.438725 10:-0.864683 11:-0.594639 12:-0.163116 13:-0.511139 14:-0.164207 15:-0.458296 16:-0.225036 17:-0.66798 18:-0.0931963 19:-0.0212453 20:0.049498 21:-0.419674 22:-0.65563 23:-0.0629486 24:0.0543956 25:-0.20157 
128 1:0.291044 2:0.00768211 3:0.223656 4:-0.506612 5:-0.316349 6:-0.247112 7:-0.200712 8:-0.0640338 9:0.242146 10:-0.210272 11:0.172164 12:0.644053 13:-0.713748 14:-0.211561 15:0.046075 16:0.46964 17:0.306702 18:0.0472702 19:-0.0940307 20:-0.738257 21:-0.14733 22:-0.535755 23:-0.734566 24:-0.183291 25:-0.031045 
39.205846366086689 1:-0.380829 2:-0.254045 3:0.507954 4:-0.151096 5:0.0484815 6:-0.17129 7:-0.526768 8:-0.0499209 9:0.084146 10:-0.130999 11:-0.333264 12:-0.343775 13:-0.215533 14:-0.0163497 15:-0.18365 16:0.526291 17:-0.874469 18:-0.133086 19:-0.123246 20:-0.229464 21:0.401079 22:0.0114656 23:-0.26758 24:0.364973 25:0.155149 
128 1:0.294508 2:0.00325622 3:0.240994 4:-0.535575 5:-0.324152 6:-0.256445 7:-0.190657 8:-0.0653576 9:0.269404 10:-0.225495 11:0.182318 12:0.681447 13:-0.695283 14:-0.194454 15:0.0744861 16:0.477772 17:0.320531 18:0.0354303 19:-0.0902521 20:-0.762305 21:-0.169888 22:-0.50593 23:-0.726535 24:-0.181393 25:-0.0187746 
128 1:0.321246 2:-0.248082 3:-0.0893816 4:-0.205021 5:0.0323609 6:-0.149248 7:-0.366783 8:-0.312956 9:0.082824 10:-0.930052 11:-0.506061 12:-0.303396 13:-0.581317 14:-0.476378 15:-0.445494 16:-0.14295 17:0.0174828 18:-0.295051 19:0.0586832 20:-0.434299 21:-0.359931 22:-0.48149 23:-0.850369 24:-0.31029 25:-0.231457 
128 1:-0.0953579 2:-0.363108 3:0.138571 4:-0.463092 5:0.0857929 6:-0.039156 7:-0.352219 8:-0.210449 9:0.0410803 10:-0.563376 11:-0.603554 12:-0.0104689 13:0.265281 14:-0.666979 15:-0.0133447 16:0.352045 17:-0.112572 18:0.136952 19:0.0998061 20:0.22644 21:-0.144586 22:0.219509 23:-0.190661 24:0.134564 25:-0.048738 
128 1:-0.326766 2:-0.488478 3:0.276474 4:-0.458002 5:0.157304 6:0.321774 7:-0.484415 8:0.127289 9:-0.034348 10:-0.609668 11:-0.251666 12:-0.389071 13:0.0949177 14:-0.58859 15:0.142557 16:0.40024 17:-0.591442 18:0.331462 19:-0.0255993 20:-0.236896 21:0.0975122 22:0.148539 23:-0.443728 24:0.00327191 25:0.181748 
128 1:-0.319539 2:-0.234939 3:-0.113376 4:0.130929 5:0.0722564 6:-0.610921 7:-0.465275 8:0.141725 9:-0.0477099 10:-0.450812 11:-0.0146975 12:-0.255661 13:-0.508521 14:0.0998638 15:-0.114911 16:-0.166107 17:-0.459342 18:0.352813 19:-0.162361 20:-0.0809294 21:0.173885 22:0.00530623 23:-0.715266 24:-0.186776 25:0.218094 
128 1:-0.0908586 2:-0.0874414 3:-0.461251 4:-0.15042 5:-0.213111 6:-0.639175 7:-0.336977 8:-0.221912 9:-0.0283299 10:-0.565121 11:-0.39903 12:-0.374488 13:0.0134191 14:-0.508199 15:-0.509096 16:-0.462667 17:-0.108481 18:-0.434502 19:-0.153147 20:0.0268748 21:-0.20911 22:-0.600631 23:-0.512948 24:0.200982 25:-0.429389 
128 1:0.164462 2:-0.156838 3:0.127647 4:0.0367249 5:-0.0340003 6:-0.202025 7:0.0587034 8:-0.172071 9:0.269618 10:-0.324853 11:0.067024 12:0.705105 13:-0.405019 14:-0.388858 15:-0.342004 16:0.497576 17:-0.172068 18:0.0110436 19:-0.161668 20:-0.306927 21:-0.0408361 22:-0.248958 23:-0.763545 24:-0.29776 25:-0.319773 
128 1:-0.380756 2:-0.475714 3:0.358626 4:-0.381386 5:0.136474 6:0.120127 7:-0.611063 8:0.0548957 9:-0.0899479 10:-0.572399 11:-0.730748 12:-0.365862 13:0.388061 14:-0.346806 15:0.290856 16:0.401252 17:-0.407946 18:0.415251 19:-0.128807 20:-0.2811 21:0.0110552 22:-0.22975 23:-0.675261 24:-0.303466 25:0.386062 
128 1:-0.120163 2:0.0126797 3:-0.264053 4:-0.030806 5:-0.175608 6:-0.263691 7:-0.229978 8:-0.0578295 9:0.149302 10:-0.383898 11:-0.303971 12:-0.0534775 13:0.729542 14:-0.101494 15:-0.255376 16:-0.210712 17:-0.437272 18:0.0514658 19:0.177819 20:-0.311912 21:-0.143656 22:-0.397244 23:-0.361196 24:0.788928 25:-0.113663 
128 1:0.0196877 2:-0.199578 3:-0.327171 4:0.163657 5:0.276787 6:-0.0650245 7:-0.101306 8:-0.548733 9:0.37739 10:-0.271014 11:-0.658864 12:-0.0934592 13:0.096272 14:-0.0873875 15:-0.443609 16:-0.446049 17:0.664661 18:-0.582601 19:-0.0660323 20:-0.505216 21:0.132259 22:0.439059 23:-0.671819 24:-0.190889 25:0.0654584 
124.21383879661727 1:-0.377749 2:0.170387 3:0.416701 4:-0.110707 5:0.0452411 6:-0.776805 7:-0.444706 8:-0.336889 9:-0.301456 10:-0.18091 11:0.102342 12:-0.348858 13:-0.360397 14:0.215919 15:-0.395042 16:0.141807 17:-0.483729 18:-0.534387 19:-0.275217 20:-0.0189106 21:-0.0302172 22:0.251356 23:0.309203 24:-0.0432245 25:0.120018 
128 1:0.26193 2:0.0537766 3:0.337947 4:-0.723798 5:-0.353913 6:-0.323984 7:-0.204848 8:-0.217235 9:0.151903 10:-0.407625 11:0.164936 12:0.603457 13:-0.686019 14:-0.259682 15:-0.320665 16:0.620149 17:0.215821 18:0.44551 19:-0.228656 20:-0.687804 21:-0.395724 22:-0.558429 23:-0.335824 24:-0.229581 25:-0.272933 
128 1:0.185101 2:-0.222125 3:0.0768953 4:-0.494509 5:-0.0764849 6:-0.668989 7:-0.0670771 8:-0.335734 9:0.218348 10:-0.595252 11:-0.340694 12:-0.214429 13:-0.473929 14:-0.226376 15:-0.256702 16:-0.0782132 17:0.464788 18:0.148486 19:0.165686 20:0.00353593 21:-0.387236 22:-0.212795 23:-0.774527 24:-0.154429 25:-0.215436 
128 1:-0.284647 2:-0.32755 3:0.0901312 4:-0.194067 5:0.36083 6:0.12461 7:-0.532747 8:-0.055904 9:0.235281 10:-0.285687 11:-0.598884 12:-0.405419 13:0.217973 14:0.013422 15:-0.0784532 16:0.0789055 17:-0.311526 18:0.0403345 19:-0.160942 20:-0.253399 21:-0.0567213 22:0.611784 23:-0.466923 24:0.055107 25:-0.062909 
128 1:0.206995 2:0.147212 3:-0.033661 4:0.247651 5:-0.14653 6:-0.865709 7:-0.565827 8:-0.221619 9:0.222301 10:0.296223 11:-0.504423 12:-0.0509862 13:-0.467649 14:-0.109275 15:-0.685629 16:-0.45778 17:-0.593289 18:-0.240864 19:-0.829345 20:-0.0532336 21:-0.0217359 22:-0.414734 23:-0.433846 24:-0.0860843 25:-0.413252 
128 1:-0.127916 2:0.0814706 3:0.269257 4:-0.613552 5:-0.197569 6:-0.771554 7:-0.224314 8:-0.178375 9:-0.189448 10:-0.574918 11:0.0510694 12:0.0524502 13:-0.76624 14:-0.0891817 15:-0.0799858 16:0.0530771 17:0.0273906 18:0.249814 19:0.263773 20:0.202394 21:0.0560451 22:-0.457193 23:-0.69834 24:0.215004 25:0.494287 
128 1:-0.322234 2:-0.0876875 3:0.402493 4:-0.575702 5:0.00440201 6:-0.73319 7:-0.673319 8:0.216859 9:0.0166512 10:0.367397 11:-0.20665 12:-0.137582 13:-0.208504 14:0.0928632 15:0.029876 16:0.0998489 17:-0.157979 18:-0.0989787 19:0.542011 20:-0.137959 21:-0.213556 22:0.106728 23:-0.247708 24:0.582564 25:-0.121948 
128 1:-0.292442 2:-0.105527 3:-0.289686 4:-0.154428 5:0.260997 6:0.104075 7:-0.347282 8:-0.499826 9:-0.377795 10:-0.516708 11:-0.293297 12:-0.571082 13:0.0911524 14:-0.0105047 15:-0.525135 16:-0.621794 17:-0.734115 18:-0.575069 19:0.0630836 20:0.916697 21:-0.477975 22:0.645729 23:-0.457196 24:0.920226 25:-0.356138 
128 1:-0.498903 2:-0.432686 3:0.387473 4:-0.306098 5:0.068139 6:-0.0715853 7:-0.420433 8:0.10319 9:-0.105945 10:-0.329521 11:-0.591451 12:-0.584813 13:0.135634 14:-0.329775 15:0.0974283 16:0.220931 17:-0.494031 18:0.0289779 19:0.196529 20:-0.10671 21:0.151813 22:-0.0178084 23:-0.303943 24:0.13544 25:0.0050638 
67.857471137683802 1:-0.169606 2:0.920229 3:-1 4:0.791993 5:-0.342103 6:-0.569348 7:0.110902 8:-0.6284 9:0.118996 10:-0.584975 11:-1 12:-0.758855 13:-0.307022 14:-0.247545 15:-0.821666 16:-1 17:-0.788526 18:-0.660368 19:-0.457948 20:-0.0253214 21:1 22:-0.607234 23:-0.559558 24:0.640613 25:-0.763877 
120.4112236994191 1:-0.551797 2:-0.469595 3:0.645254 4:-0.407025 5:0.0390636 6:0.0182527 7:-0.49737 8:-0.322915 9:-0.117965 10:-0.210977 11:-0.474975 12:-0.543654 13:-0.0116148 14:-0.361301 15:-0.0231189 16:0.463439 17:-0.4617 18:0.038705 19:0.172304 20:-0.23938 21:0.246139 22:-0.161476 23:-0.531243 24:-0.00822079 25:0.255729 
128 1:-0.395473 2:-0.196382 3:0.371591 4:-0.516608 5:-0.0741205 6:-0.0589916 7:-0.769696 8:-0.317041 9:-0.428291 10:-0.359646 11:-0.554535 12:-0.652202 13:-0.197592 14:-0.391069 15:0.0207911 16:-0.106465 17:-0.656221 18:0.0170557 19:0.263052 20:0.0908263 21:-0.276281 22:-0.309134 23:-0.313307 24:0.52546 25:-0.167292 
128 1:-0.0501822 2:-0.443448 3:0.188415 4:-0.322134 5:0.34793 6:-0.627546 7:-0.518316 8:-0.411815 9:0.250795 10:-0.358025 11:-0.16133 12:0.167852 13:-0.775995 14:-0.470384 15:0.249957 16:0.176657 17:-0.0359492 18:-0.272595 19:0.0932015 20:-0.41661 21:0.07694 22:0.45914 23:-0.253956 24:0.146865 25:0.336728 
128 1:0.298565 2:-0.0917945 3:-0.156563 4:-0.743379 5:-0.404762 6:-0.433565 7:-0.122332 8:0.471543 9:0.570004 10:-0.36679 11:-0.34453 12:0.229518 13:0.195743 14:-0.559855 15:-0.144772 16:-0.114586 17:0.530276 18:-0.274882 19:-0.0618005 20:-0.713334 21:-0.970181 22:-0.88367 23:-0.574146 24:-0.0404413 25:-0.238872 
128 1:-0.291678 2:-0.173593 3:0.0233197 4:-0.241968 5:0.0884696 6:0.0462259 7:-0.586015 8:-0.0670757 9:0.383384 10:-0.410559 11:-0.367601 12:-0.555251 13:0.256425 14:0.0451533 15:0.120583 16:-0.05248 17:-0.452988 18:0.0798748 19:-0.246681 20:-0.783584 21:0.0275015 22:0.158637 23:-0.311607 24:0.383831 25:0.177957 
128 1:-0.311745 2:-0.160477 3:0.155849 4:-0.0896927 5:0.347309 6:-0.290659 7:-0.596134 8:0.264711 9:-0.0196991 10:-0.363655 11:-0.309722 12:-0.275872 13:-0.276542 14:-0.273215 15:-0.0464301 16:-0.226025 17:-0.317148 18:-0.275549 19:-0.0501758 20:-0.160524 21:0.0524759 22:0.326337 23:-0.480471 24:0.128965 25:0.0230941 
76.427698261677222 1:-0.635099 2:-0.478964 3:0.553939 4:-0.227951 5:0.150018 6:0.0480761 7:-0.713187 8:-0.107603 9:-0.441234 10:-0.410928 11:-0.73319 12:-0.698065 13:0.269474 14:-0.284136 15:0.0609465 16:0.381752 17:-0.84387 18:-0.047942 19:0.171077 20:-0.0860149 21:0.376997 22:0.442227 23:0.0435154 24:0.50948 25:0.00695548 
128 1:-0.314554 2:-0.521349 3:0.442693 4:-0.438734 5:-0.127805 6:0.678311 7:-0.17152 8:-0.0528304 9:0.172683 10:-0.25844 11:-0.287104 12:-0.266744 13:0.227667 14:-0.290405 15:0.0849979 16:0.412037 17:-0.546382 18:0.232469 19:-0.0454411 20:0.415448 21:-0.207894 22:-0.0154413 23:0.123279 24:0.327452 25:-0.0293015 
81.50668795022618 1:-0.0210586 2:-0.112677 3:0.24847 4:-0.285411 5:0.149203 6:-0.630685 7:-0.563692 8:-0.0550144 9:0.124399 10:0.13158 11:0.397528 12:-0.185152 13:-0.609304 14:-0.164454 15:-0.52801 16:0.209353 17:-0.453883 18:0.0919143 19:-0.421004 20:-0.262812 21:-0.189018 22:-0.1314 23:0.371663 24:0.0839302 25:-0.204947 
128 1:-0.61854 2:-0.201214 3:0.380879 4:-0.477806 5:0.0644332 6:-0.41661 7:-0.196626 8:-0.194029 9:-0.644511 10:-0.449337 11:-0.270174 12:-0.556926 13:0.58568 14:-0.160647 15:-0.0226136 16:0.18862 17:-0.14937 18:0.176824 19:0.126016 20:-0.0767153 21:-0.314747 22:0.176395 23:-0.665183 24:0.17014 25:-0.0716844 
128 1:-0.115952 2:0.102924 3:0.106286 4:-0.447991 5:0.0392483 6:-0.748915 7:-0.0785704 8:0.154309 9:0.259881 10:-0.129791 11:-0.155587 12:-0.191604 13:-0.137911 14:0.0758063 15:0.0347511 16:0.22458 17:-0.22654 18:-0.119201 19:-0.0367375 20:0.0382183 21:-0.335856 22:-0.049773 23:-0.310161 24:0.0825783 25:0.0969258 
128 1:0.183049 2:-0.615906 3:-0.0701362 4:-0.149846 5:-0.372035 6:-0.617242 7:-0.507773 8:-0.52493 9:0.0564192 10:-0.647769 11:-0.498023 12:-0.129175 13:-0.42572 14:-0.586437 15:-0.477376 16:-0.456117 17:0.0933294 18:-0.230873 19:-0.359418 20:-0.298769 21:-0.47679 22:-0.80078 23:-0.687636 24:-0.0312698 25:-0.262291 
128 1:-0.0844488 2:0.0524378 3:0.120037 4:-0.360764 5:-0.0969219 6:-0.631235 7:-0.595243 8:-0.0736817 9:0.321327 10:-0.761775 11:-0.593702 12:-0.481738 13:-0.590749 14:-0.174192 15:-0.25428 16:-0.380444 17:-0.373219 18:-0.0423664 19:0.216813 20:0.220465 21:-0.395083 22:-0.257284 23:-0.0404989 24:0.56817 25:-0.334924 
128 1:-0.343905 2:-0.232673 3:0.596148 4:-0.427501 5:-0.0398363 6:-0.24521 7:-0.272629 8:-0.422792 9:-0.0879256 10:-0.0695582 11:-0.275758 12:-0.269124 13:-0.256427 14:-0.255477 15:-0.326981 16:0.39274 17:-0.45023 18:-0.247135 19:0.0319501 20:0.380416 21:-0.118717 22:-0.165719 23:-0.26728 24:-0.201285 25:0.0842498 
128 1:0.0871448 2:-0.192115 3:0.0398305 4:-0.472452 5:-0.0443769 6:-0.676375 7:-0.288341 8:-0.0108104 9:0.459306 10:-0.730082 11:-0.450921 12:0.0446864 13:-0.463917 14:-0.264263 15:-0.175856 16:-0.084391 17:0.0127758 18:-0.163991 19:0.332009 20:0.0328028 21:-0.168983 22:-0.157046 23:-0.0776249 24:0.0561727 25:0.129448 
112.27864926112584 1:0.189571 2:-0.107635 3:0.166058 4:-0.282093 5:0.0885024 6:-0.449107 7:-0.0118989 8:-0.155701 9:0.130891 10:-0.232549 11:-0.0287507 12:0.486382 13:-0.7609 14:-0.304322 15:-0.115259 16:0.608103 17:-0.0501966 18:0.176555 19:-0.162947 20:-0.407753 21:0.0293664 22:-0.126875 23:-0.565555 24:-0.420107 25:-0.232471 
128 1:-0.0859175 2:-0.269165 3:0.180859 4:-0.383763 5:-0.11728 6:-0.433908 7:-0.331405 8:-0.178525 9:0.532586 10:-0.207156 11:-0.354997 12:-0.0265343 13:-0.201934 14:-0.290915 15:-0.00812262 16:0.186985 17:-0.294805 18:0.0101345 19:0.0634492 20:0.397955 21:-0.239911 22:-0.141442 23:-0.238491 24:0.14786 25:-0.0262346 
128 1:0.107795 2:-0.471836 3:-0.28244 4:-0.39755 5:0.0867094 6:-0.335455 7:0.136189 8:-0.495149 9:0.0729999 10:-0.531721 11:-0.709878 12:-0.266288 13:-0.261875 14:-0.554594 15:-0.518804 16:-0.414814 17:0.136529 18:-0.348379 19:-0.160708 20:-0.33287 21:-0.524709 22:-0.132396 23:-0.646507 24:-0.224435 25:-0.13904 
128 1:-0.467208 2:-0.0310246 3:0.604634 4:-0.387597 5:-0.000826739 6:-0.792073 7:-0.630503 8:0.43374 9:-0.0613952 10:0.381829 11:-0.622299 12:-0.242278 13:-0.367128 14:0.080411 15:-0.18959 16:-0.209879 17:-0.207828 18:0.202938 19:1 20:-0.020029 21:-0.053497 22:0.213692 23:0.221218 24:0.364066 25:-0.336538 
128 1:-0.0189724 2:-0.117111 3:0.407657 4:-0.580305 5:-0.083099 6:-0.114139 7:-0.116269 8:0.176471 9:0.390428 10:-0.57252 11:-0.279208 12:0.273995 13:-0.408766 14:-0.342787 15:0.345277 16:0.651623 17:-0.425395 18:0.281412 19:0.417532 20:-0.468239 21:-0.0498841 22:-0.573358 23:-0.353201 24:0.0147785 25:0.0666137 
128 1:-0.121186 2:0.117514 3:0.289326 4:-0.500561 5:-0.14172 6:-0.352999 7:-0.394612 8:-0.146289 9:0.367135 10:-0.155758 11:-0.0411692 12:-0.0383888 13:-0.433851 14:0.323559 15:-0.0784451 16:0.378783 17:-0.11184 18:-0.183725 19:0.148874 20:-0.381275 21:-0.30457 22:-0.20247 23:-0.566477 24:0.310173 25:-0.176905 
128 1:-0.476582 2:-0.483703 3:0.529713 4:-0.416591 5:-0.105178 6:-0.275007 7:-0.701028 8:0.00743623 9:-0.176141 10:-0.273766 11:-0.639321 12:-0.4763 13:-0.0564655 14:-0.531033 15:0.0734251 16:0.247786 17:-0.474153 18:0.253952 19:0.344352 20:-0.0525694 21:0.130523 22:-0.38788 23:-0.224026 24:0.164033 25:0.0148353 
38.067271598179843 1:-0.20964 2:0.0547511 3:0.52869 4:0.0854304 5:-0.103092 6:-0.667525 7:-0.548654 8:-0.505389 9:-0.0600221 10:0.365834 11:-0.279557 12:-0.304596 13:-0.286677 14:0.14877 15:-0.570007 16:0.0403776 17:-0.607556 18:-0.47985 19:-0.333176 20:0.314254 21:-0.0241915 22:0.152297 23:0.284473 24:0.0211742 25:-0.165991 
128 1:0.264876 2:-0.175999 3:-0.0536057 4:-0.285404 5:-0.273172 6:-0.797999 7:-0.40252 8:-0.27468 9:-0.0503212 10:-0.379187 11:-0.596285 12:-0.145686 13:-0.872757 14:-0.391853 15:-0.643686 16:-0.266672 17:0.208814 18:0.127636 19:0.0443338 20:0.408212 21:-0.248404 22:-0.72099 23:-0.0448115 24:0.679149 25:-0.806815 
128 1:-0.095147 2:-0.324313 3:0.253685 4:-0.238689 5:-0.0108247 6:0.416061 7:-0.107345 8:0.349507 9:0.292212 10:-0.499544 11:-0.266085 12:-0.146296 13:-0.369294 14:-0.161983 15:0.132812 16:0.167125 17:-0.275241 18:-0.25369 19:-0.0848746 20:-0.255926 21:-0.186726 22:0.117315 23:-0.499486 24:-0.0638775 25:0.133363 
128 1:-0.445668 2:-0.677316 3:-0.274652 4:0.738763 5:0.675959 6:-0.674677 7:-0.934867 8:-0.210005 9:0.172427 10:-0.272463 11:-0.613271 12:-0.696029 13:-0.178652 14:-0.728849 15:-0.614042 16:-0.682828 17:-0.711269 18:-0.481024 19:-0.394585 20:-0.319166 21:-0.317208 22:0.147157 23:-0.161057 24:0.234231 25:-0.398559 
128 1:-0.137512 2:0.01979 3:0.305174 4:-0.39423 5:-0.168354 6:-0.353757 7:-0.471969 8:-0.458533 9:-0.0988967 10:-0.092586 11:-0.441687 12:0.0257778 13:0.0194446 14:0.108981 15:-0.27481 16:0.285303 17:-0.524551 18:-0.175426 19:0.116651 20:0.250485 21:-0.0457366 22:0.0702924 23:-0.295705 24:-0.0736962 25:-0.0102853 
128 1:0.0402049 2:-0.329933 3:-0.171112 4:-0.19817 5:-0.0910509 6:-0.540942 7:-0.450576 8:-0.346988 9:0.132045 10:-0.0977407 11:-0.569608 12:-0.212892 13:-0.415703 14:-0.306389 15:-0.400288 16:-0.305509 17:0.514917 18:-0.483574 19:-0.321903 20:-0.11309 21:-0.363323 22:-0.26829 23:-0.228917 24:-0.0945715 25:-0.254961 
128 1:0.584848 2:-0.0565469 3:0.326363 4:0.180568 5:-0.0403527 6:-0.868479 7:-0.445756 8:-0.601732 9:0.0609689 10:-0.538859 11:-0.400846 12:0.0805341 13:-0.524542 14:-0.211147 15:-0.482403 16:-0.00850227 17:-0.464974 18:-0.199828 19:-0.48054 20:-0.472787 21:-0.793633 22:-0.889408 23:-0.714937 24:-0.0487919 25:-0.399736 
128 1:0.0760787 2:0.199804 3:0.344009 4:-0.785662 5:-0.54093 6:0.371997 7:-0.412155 8:0.051987 9:0.0845978 10:-0.0224514 11:0.0503531 12:0.492195 13:-0.553471 14:-0.106434 15:-0.0213159 16:0.7856 17:0.301988 18:0.123592 19:0.142403 20:-0.536704 21:-0.437453 22:-0.574698 23:-0.4459 24:0.481147 25:-0.236574 
128 1:-0.179763 2:-0.0934223 3:0.497571 4:-0.614084 5:-0.209492 6:-0.262678 7:-0.385646 8:0.0908333 9:0.313605 10:-0.0608966 11:-0.294243 12:-0.0589284 13:-0.603611 14:-0.293249 15:-0.312514 16:0.833768 17:0.139559 18:-0.237953 19:0.400771 20:0.504311 21:-0.56186 22:-0.24559 23:-0.630569 24:0.305293 25:-0.145112 
128 1:-0.607305 2:-0.738046 3:0.809942 4:-0.557927 5:0.215459 6:0.430926 7:-0.542492 8:-0.231627 9:-0.165907 10:-0.508496 11:-0.680592 12:-0.61255 13:0.341499 14:-0.386575 15:0.508226 16:0.539755 17:-0.696643 18:0.447581 19:0.257407 20:0.0537961 21:0.083338 22:-0.245667 23:-0.498475 24:-0.342499 25:0.263073 
128 1:-0.170959 2:-0.367071 3:0.222657 4:-0.0939566 5:0.182473 6:-0.272311 7:-0.433021 8:0.259 9:0.229901 10:-0.0219984 11:-0.384883 12:-0.0876235 13:-0.203512 14:-0.0835071 15:0.148377 16:0.180576 17:-0.349847 18:0.0683523 19:-0.0670101 20:0.151996 21:-0.119325 22:0.0817917 23:-0.623961 24:-0.0891046 25:0.131883 
128 1:0.00832265 2:-0.128923 3:0.201819 4:-0.186622 5:0.0772928 6:-0.373899 7:-0.291386 8:-0.322089 9:0.073392 10:-0.481938 11:-0.575759 12:-0.168322 13:-0.518069 14:0.0547204 15:-0.00650612 16:0.295084 17:-0.223942 18:-0.160406 19:-0.109598 20:-0.352325 21:-0.150348 22:0.0203701 23:-0.733536 24:0.0644853 25:0.108209 
128 1:-0.111634 2:-0.181214 3:0.335649 4:-0.25848 5:-0.0398215 6:-0.359103 7:-0.367482 8:-0.638747 9:-0.108248 10:-0.617653 11:-0.452789 12:-0.213632 13:-0.295097 14:-0.0469297 15:-0.195639 16:0.0153091 17:-0.531805 18:-0.109279 19:-0.042254 20:0.094256 21:0.00326767 22:-0.186739 23:-0.652973 24:-0.364073 25:0.0336987 
128 1:0.256968 2:-0.177132 3:-0.146072 4:-0.388645 5:-0.206757 6:-0.645107 7:-0.424501 8:-0.272266 9:0.428108 10:-0.460728 11:-0.47242 12:-0.0476485 13:-0.494182 14:-0.364816 15:-0.265893 16:-0.391537 17:-0.124264 18:-0.308052 19:0.106873 20:-0.0852947 21:-0.30397 22:-0.390359 23:-0.176139 24:-0.00350728 25:-0.182417 
-128 1:-0.30583 2:-0.0877064 3:0.094623 4:-0.41832 5:-0.157184 6:-0.235912 7:-0.456967 8:0.376531 9:0.0181164 10:1 11:-0.269823 12:-0.4105 13:-0.472467 14:-0.00136146 15:-0.673094 16:-0.485483 17:-0.230788 18:-0.232998 19:-0.28539 20:0.41294 21:-0.185011 22:-0.341424 23:1 24:0.0202896 25:-0.530008 
-128 1:0.0402049 2:-0.329933 3:-0.171112 4:-0.19817 5:-0.0910509 6:-0.540942 7:-0.450576 8:-0.346988 9:0.132045 10:-0.0977407 11:-0.569608 12:-0.212892 13:-0.415703 14:-0.306389 15:-0.400288 16:-0.305509 17:0.514917 18:-0.483574 19:-0.321903 20:-0.11309 21:-0.363323 22:-0.26829 23:-0.228917 24:-0.0945715 25:-0.254961 
-71.882979496694048 1:-0.108227 2:-0.175962 3:0.146741 4:-0.36668 5:0.162937 6:-0.217522 7:-0.424262 8:-0.204644 9:0.400053 10:-0.209267 11:-0.557139 12:-0.295159 13:-0.267268 14:0.199248 15:-0.0219832 16:0.201155 17:-0.322097 18:0.0924074 19:-0.0721152 20:0.0486773 21:-0.276262 22:-0.07029 23:-0.205267 24:0.0403539 25:0.00350935 
-128 1:-0.151742 2:-0.427419 3:0.228342 4:-0.202268 5:-0.108843 6:0.0930977 7:-0.414644 8:0.21542 9:0.174367 10:-0.284018 11:-0.437818 12:-0.0712133 13:0.408139 14:-0.328091 15:0.0424528 16:0.179132 17:-0.461044 18:0.0716886 19:-0.304128 20:-0.329556 21:-0.150455 22:-0.00990238 23:-0.488111 24:-0.0403504 25:-0.0356621 
-128 1:-0.135636 2:-0.071605 3:0.301528 4:-0.405019 5:-0.0582136 6:-0.214553 7:-0.398069 8:-0.25865 9:0.397815 10:-0.175137 11:-0.355381 12:0.0151482 13:-0.496291 14:0.00395506 15:-0.163745 16:0.420075 17:-0.0935322 18:0.094302 19:0.571009 20:0.188602 21:0.0588577 22:0.121648 23:-0.0705533 24:0.346696 25:0.079548 
-92.000404552699763 1:-0.0589004 2:-0.0448959 3:0.0959986 4:-0.632599 5:-0.141176 6:-0.147827 7:-0.286535 8:-0.0871511 9:0.447343 10:-0.409916 11:-0.12409 12:0.00401178 13:-0.170841 14:-0.141896 15:0.0966362 16:0.218944 17:-0.211697 18:-0.0254629 19:0.358624 20:-0.293327 21:-0.187364 22:-0.209381 23:-0.204038 24:0.583083 25:0.101476 
-128 1:-0.46824 2:-0.44648 3:0.0215394 4:-0.116176 5:0.0315571 6:0.00233337 7:-0.631117 8:0.388273 9:-0.188371 10:-0.74605 11:-0.32388 12:-0.68914 13:0.339966 14:-0.72048 15:-0.335398 16:-0.0146383 17:-0.707415 18:0.301814 19:0.229585 20:0.347067 21:-0.107701 22:-0.21944 23:0.139882 24:0.311114 25:-0.27716 
-23.734142147802157 1:-0.111386 2:-0.560718 3:0.187487 4:-0.40367 5:-0.0389186 6:-0.0674598 7:-0.518495 8:0.0581256 9:-0.0249966 10:-0.629331 11:-0.560245 12:-0.210576 13:-0.0337233 14:-0.477899 15:0.219274 16:0.184336 17:0.00727589 18:-0.016628 19:-0.0730537 20:-0.0492705 21:-0.0851326 22:-0.162249 23:-0.748062 24:-0.203258 25:0.240879 
-128 1:-0.012282 2:-0.335924 3:0.134934 4:-0.266818 5:-0.0662821 6:-0.474225 7:-0.588555 8:-0.31547 9:0.273938 10:-0.0369838 11:-0.3371 12:0.124251 13:-0.323181 14:-0.364385 15:-0.148209 16:0.0426752 17:-0.17153 18:0.272164 19:0.0720351 20:0.289383 21:0.0890277 22:-0.183648 23:-0.414457 24:0.157901 25:-0.0267239 
-128 1:0.00473115 2:0.0226587 3:0.162421 4:-0.457666 5:-0.173862 6:-0.477601 7:-0.370468 8:-0.41051 9:-0.165092 10:-0.738272 11:-0.490449 12:-0.538324 13:-0.217941 14:-0.0803456 15:-0.302075 16:-0.116052 17:-0.346647 18:0.400557 19:-0.252006 20:-0.135254 21:-0.510898 22:-0.525704 23:0.110704 24:-0.0358035 25:-0.215047 
-128 1:-0.177919 2:-0.576563 3:0.216732 4:0.0904453 5:0.153722 6:0.0368622 7:-0.381623 8:-0.0498915 9:0.409992 10:-0.332579 11:-0.262417 12:-0.212647 13:0.413097 14:-0.506693 15:0.105439 16:0.259362 17:-0.493787 18:0.177851 19:-0.397001 20:-0.565513 21:0.180823 22:0.384648 23:-0.581919 24:-0.294586 25:0.0812718 
-128 1:-0.21151 2:-0.243373 3:0.25656 4:-0.413533 5:-0.0247015 6:0.11997 7:-0.374283 8:0.00937222 9:0.1068 10:-0.498555 11:-0.258137 12:-0.0037372 13:0.30182 14:-0.319138 15:0.0489207 16:0.304193 17:-0.28739 18:-0.0423451 19:-0.145849 20:-0.0551215 21:-0.0689169 22:-0.320896 23:-0.538962 24:-0.0325886 25:0.16794 
-128 1:0.076879 2:-0.413831 3:-0.0130638 4:1 5:0.217952 6:-0.574054 7:-0.659257 8:-0.53862 9:0.0323627 10:-0.803046 11:-0.724997 12:-0.293909 13:-0.930514 14:-0.414996 15:-0.80105 16:-0.348523 17:-0.655933 18:-0.211526 19:-0.119927 20:-0.0775242 21:-0.160079 22:-0.498102 23:-0.725357 24:-0.437355 25:-0.558649 
-128 1:1 2:-0.197694 3:-0.626468 4:0.505469 5:-0.324951 6:-0.810705 7:-0.288299 8:-0.737345 9:-0.502501 10:-0.639149 11:-0.402622 12:-0.303085 13:-0.896438 14:-0.498061 15:-0.832708 16:-0.890572 17:-0.335828 18:-0.629347 19:-0.900186 20:-0.552269 21:-0.657867 22:-0.769289 23:-0.864531 24:-0.850474 25:-0.686039 
-20.512824511034623 1:-0.182125 2:-0.407445 3:0.0250794 4:-0.206567 5:0.161748 6:-0.179394 7:-0.210602 8:-0.104944 9:0.298513 10:-0.733038 11:-0.408461 12:-0.114738 13:0.303522 14:-0.550279 15:-0.217716 16:-0.0499875 17:-0.158932 18:-0.164261 19:0.0142262 20:-0.325894 21:-0.076826 22:-0.0686096 23:-0.27656 24:0.277463 25:0.0536472 
-128 1:0.0652367 2:-0.321879 3:0.3092 4:-0.140933 5:0.040996 6:-0.2394 7:-0.0599562 8:-0.563685 9:-0.369673 10:-0.416137 11:-0.286005 12:-0.270166 13:-0.878944 14:-0.283997 15:-0.538986 16:0.112347 17:-0.121685 18:0.0557655 19:-0.333212 20:-0.00398838 21:-0.57487 22:-0.316309 23:-0.489073 24:-0.395569 25:-0.247275 
-32.866070584285232 1:0.262878 2:-0.105654 3:0.114162 4:-0.814563 5:-0.376183 6:0.227785 7:0.257894 8:-0.283102 9:0.429212 10:-0.59289 11:-0.123352 12:0.59087 13:-0.73414 14:-0.392492 15:-0.0626778 16:-0.0423227 17:0.133168 18:-0.127082 19:0.250904 20:-0.415905 21:-0.605638 22:-0.596928 23:0.101772 24:0.540845 25:-0.0378712 
-128 1:-0.195256 2:-0.0262639 3:0.167334 4:-0.412297 5:-0.210569 6:-0.930189 7:-0.00743537 8:0.147914 9:0.125501 10:-0.392404 11:-0.571381 12:-0.530235 13:-0.326447 14:-0.241024 15:-0.21006 16:0.00616814 17:-0.287345 18:-0.0875674 19:0.173735 20:0.243032 21:-0.399987 22:-0.623498 23:-0.450439 24:0.442502 25:-0.202451 
-123.07223303467093 1:-0.527591 2:-0.522453 3:0.318749 4:-0.138429 5:0.249913 6:-0.23882 7:-0.763299 8:1 9:0.0552378 10:-0.638618 11:-0.490176 12:-0.692406 13:0.409461 14:-0.303807 15:-0.172902 16:0.151572 17:-0.363285 18:-0.449835 19:0.535089 20:0.488675 21:-0.0103578 22:0.0401754 23:-0.741332 24:-0.279331 25:0.615666 
-128 1:0.623637 2:-0.262389 3:-0.306612 4:-0.690531 5:-0.760319 6:-0.681371 7:-0.0588681 8:-0.557452 9:-0.126407 10:-0.685836 11:-0.340301 12:-0.0533394 13:-0.905124 14:-0.435265 15:-0.473539 16:-0.142853 17:-0.375032 18:-0.228162 19:-0.401911 20:-0.572483 21:-0.670611 22:-0.789417 23:-0.19871 24:-0.487254 25:-0.569125 
-128 1:0.105285 2:-0.163069 3:0.125356 4:-0.352256 5:0.100257 6:-0.314361 7:-0.0603503 8:0.0849356 9:0.394748 10:-0.625364 11:-0.0859802 12:0.597747 13:-0.712132 14:-0.20608 15:0.245626 16:-0.0301413 17:0.103417 18:0.415502 19:-0.320667 20:-0.86001 21:0.0349691 22:0.12886 23:-0.743319 24:-0.495293 25:0.0231387 
-128 1:-0.0812452 2:-0.25311 3:0.165698 4:-0.359843 5:0.0271141 6:-0.52941 7:-0.462567 8:0.0563166 9:0.199949 10:-0.233471 11:-0.0852639 12:0.0305514 13:-0.449246 14:-0.339732 15:0.0281709 16:0.406922 17:-0.15102 18:0.26984 19:0.060605 20:-0.14549 21:-0.135502 22:0.035182 23:-0.173066 24:0.0163749 25:-0.0421983 
-128 1:-0.280341 2:-0.239453 3:0.160547 4:-0.368938 5:-0.0525918 6:-0.384795 7:-0.417674 8:-0.117574 9:0.563081 10:-0.019281 11:-0.202068 12:-0.281694 13:0.0169158 14:-0.382254 15:-0.0022687 16:-0.018298 17:-0.110441 18:-0.15536 19:0.698084 20:0.191467 21:-0.211727 22:-0.146685 23:-0.2418 24:0.389616 25:0.103152 
-128 1:-1 2:-0.762174 3:0.843023 4:0.0221687 5:0.438916 6:-0.337449 7:-0.397238 8:-0.509837 9:-0.896714 10:-0.743633 11:-0.301948 12:-1 13:-0.125917 14:-0.0969229 15:-0.188805 16:0.18346 17:-0.601691 18:-0.324673 19:-0.00798314 20:-0.0601693 21:-0.0342279 22:-0.0887891 23:0.0257273 24:0.182235 25:-0.326289 
-128 1:-0.273735 2:-0.112913 3:0.346624 4:-0.797395 5:-0.0754224 6:-0.108587 7:0.0405736 8:-0.644858 9:0.183353 10:-0.46659 11:-0.644899 12:-0.362327 13:0.261054 14:-0.113921 15:-0.398957 16:-0.13977 17:-0.863405 18:-0.443309 19:-0.17015 20:-0.134885 21:-0.743414 22:-0.220226 23:-0.253795 24:-0.0763093 25:0.214301 
-128 1:-0.0162939 2:-0.0980246 3:0.237727 4:-0.440577 5:-0.210605 6:-0.269666 7:-0.357884 8:-0.424457 9:0.0270372 10:-0.546394 11:0.236437 12:0.00896916 13:0.123599 14:-0.270329 15:-0.00843472 16:0.500698 17:-0.0512656 18:0.259484 19:0.161107 20:-0.611184 21:-0.235585 22:-0.561859 23:-0.496821 24:-0.219565 25:0.137568 
-128 1:-0.347225 2:-0.35828 3:0.561181 4:-0.197218 5:0.0248556 6:-0.0147105 7:-0.459137 8:-0.0926343 9:0.0365292 10:0.0604778 11:-0.558121 12:-0.209171 13:-0.0164645 14:-0.114337 15:0.0402564 16:1 17:-0.346353 18:-0.0147587 19:-0.40223 20:0.0628838 21:0.164845 22:-0.0096264 23:-0.368335 24:-0.373492 25:0.449768 
-72.522668584288098 1:-0.0209506 2:-0.203388 3:0.257352 4:-0.25574 5:0.103034 6:-0.267275 7:-0.524845 8:-0.0472967 9:0.41952 10:-0.266975 11:-0.103491 12:0.137661 13:-0.526613 14:-0.265659 15:0.0211027 16:0.483632 17:0.205487 18:-0.0263956 19:-0.445328 20:-0.366494 21:-0.597375 22:-0.281959 23:-0.714716 24:-0.0404213 25:-0.143673 
-128 1:-0.700245 2:-0.205088 3:0.679935 4:-0.691688 5:-0.227671 6:-0.671243 7:-0.566434 8:0.501405 9:-0.183234 10:-0.55621 11:-0.658071 12:-0.596189 13:-0.180608 14:-0.0093867 15:0.26481 16:0.1311 17:-0.0822278 18:0.277073 19:0.259476 20:-0.204774 21:-0.0499831 22:-0.613815 23:-0.207184 24:0.864368 25:-0.0836287 
-128 1:0.147921 2:-0.345691 3:-0.164373 4:-0.0411483 5:0.0821773 6:-0.171072 7:-0.328257 8:-0.416883 9:0.0176344 10:-0.454901 11:-0.223056 12:-0.0502543 13:-0.250403 14:-0.52538 15:-0.31392 16:0.0583902 17:-0.272662 18:-0.121654 19:-0.464317 20:0.62435 21:-0.166086 22:-0.24361 23:-0.671977 24:-0.419844 25:-0.126613 
-128 1:0.428171 2:-0.0128113 3:0.19384 4:-0.38496 5:-0.123096 6:-0.497241 7:-0.532617 8:-0.470784 9:0.201956 10:-0.59433 11:-0.668849 12:-0.277673 13:-0.259009 14:-0.107598 15:-0.335501 16:0.00268158 17:-0.26146 18:-0.348265 19:0.00221589 20:-0.36911 21:-0.51169 22:-0.53312 23:-0.500688 24:0.0135786 25:-0.287595 
-128 1:-0.111912 2:-0.122151 3:0.194958 4:-0.217646 5:0.0142552 6:0.0194922 7:-0.361223 8:-0.262653 9:0.165403 10:-0.262421 11:-0.543348 12:-0.0158764 13:-0.321909 14:-0.299091 15:-0.0999682 16:0.270266 17:-0.331959 18:-0.10467 19:0.244772 20:-0.0288819 21:0.251139 22:-0.318717 23:-0.616099 24:0.26268 25:0.448739 
-128 1:-0.53605 2:-0.45358 3:0.661985 4:-0.619791 5:-0.134022 6:0.123474 7:-0.558273 8:-0.149404 9:0.0305283 10:-0.0746281 11:-0.760948 12:-0.272539 13:0.106976 14:-0.426356 15:0.0357155 16:0.0292735 17:0.0784639 18:0.301923 19:0.179263 20:-0.459545 21:-0.232139 22:-0.228024 23:-0.5781 24:-0.0514507 25:0.357488 
-128 1:0.739255 2:-0.700145 3:-0.666521 4:-0.154154 5:-0.184914 6:-0.264757 7:-0.66218 8:-0.633529 9:-0.328343 10:-0.852629 11:-0.747718 12:-0.183076 13:-0.395362 14:-1 15:-0.65951 16:-0.687818 17:0.153558 18:-0.624813 19:-0.356919 20:-0.497752 21:-0.656711 22:-0.244417 23:-0.897556 24:-0.645501 25:-0.460046 
-128 1:-0.0280627 2:-0.0398316 3:0.356674 4:-0.513036 5:-0.160576 6:-0.426126 7:-0.427023 8:-0.0801265 9:0.392841 10:-0.108084 11:-0.211178 12:0.037072 13:-0.657777 14:-0.0802429 15:-0.00411853 16:0.308772 17:-0.0323613 18:0.134793 19:0.126784 20:-0.190359 21:-0.386712 22:-0.46671 23:-0.422252 24:0.401299 25:-0.1632 
-128 1:0.0727794 2:0.153425 3:-0.197495 4:0.116711 5:0.6439 6:-0.628051 7:-0.55303 8:-0.816912 9:-0.557248 10:-1 11:-0.51996 12:-0.472145 13:-1 14:-0.454956 15:-0.66787 16:-0.473329 17:-0.614048 18:-0.267821 19:-0.434064 20:-0.0666404 21:0.0140837 22:0.00730618 23:-0.622667 24:-0.265103 25:-0.651238 
-121.71379216316849 1:-0.426279 2:-0.445203 3:0.312423 4:-0.0967131 5:0.1538 6:0.589175 7:-0.334593 8:-0.304242 9:0.0953405 10:-0.479749 11:-0.293129 12:-0.488886 13:0.119933 14:-0.181126 15:-0.171953 16:0.254577 17:-0.107682 18:0.336029 19:0.0496203 20:-0.0768926 21:0.222651 22:0.227111 23:-0.566975 24:-0.0212603 25:-0.0183209 
-7.5209276643629464 1:-0.242401 2:0.106096 3:0.265197 4:-0.333322 5:0.112797 6:-0.247473 7:-0.525963 8:0.199058 9:-0.112248 10:0.162296 11:-0.496988 12:-0.172018 13:-0.00700977 14:0.150325 15:0.0994127 16:0.0351555 17:-0.189353 18:-0.206276 19:-0.0164317 20:-0.160389 21:-0.60544 22:-0.565652 23:-0.528963 24:-0.0404383 25:0.276024 
-36.83940393234181 1:-0.177996 2:0.00990661 3:0.239284 4:-0.841062 5:-0.29468 6:-0.169727 7:-0.415244 8:0.00684252 9:0.0877263 10:-0.139967 11:-0.508334 12:0.0788002 13:0.319592 14:-0.180359 15:0.0734617 16:-0.119612 17:-0.263627 18:0.344733 19:0.0889745 20:0.0375888 21:-0.303636 22:-0.143681 23:-0.409159 24:0.189541 25:0.051921 
-128 1:-0.244289 2:-0.292321 3:0.286857 4:-0.445459 5:0.0450308 6:-0.426798 7:-0.0935755 8:-0.166918 9:0.475691 10:-0.106851 11:-0.500624 12:0.0837507 13:0.256458 14:-0.279511 15:0.114576 16:0.293666 17:-0.150344 18:0.602938 19:0.105435 20:-0.527147 21:-0.188827 22:0.344591 23:-0.6204 24:-0.171587 25:0.175003 
-128 1:-0.183414 2:-0.298329 3:0.29754 4:-0.372742 5:-0.132338 6:-0.007835 7:-0.406093 8:-0.367421 9:0.141685 10:-0.496609 11:-0.670278 12:0.0290241 13:0.22949 14:-0.251904 15:-0.00201003 16:0.460088 17:-0.116957 18:0.40469 19:-0.153853 20:-0.53267 21:-0.094897 22:0.0427183 23:-0.636476 24:-0.294603 25:0.17138 
-128 1:-0.111571 2:-0.0841594 3:0.19821 4:-0.642931 5:6.4802e-05 6:-0.429611 7:-0.268995 8:-0.0979777 9:0.364389 10:-0.35363 11:-0.324267 12:0.102247 13:-0.236904 14:-0.0108812 15:-0.0818579 16:0.266809 17:-0.0499269 18:0.30042 19:0.0606596 20:-0.0644018 21:-0.471797 22:0.0587547 23:-0.516934 24:0.111829 25:-0.0447638 
-128 1:-0.124526 2:0.34016 3:0.0618987 4:-0.368662 5:-0.216356 6:-0.563568 7:-0.641707 8:-0.03412 9:-0.0850657 10:-0.774102 11:-0.471095 12:-0.319509 13:-0.432346 14:0.146115 15:-0.243163 16:-0.0618127 17:-0.3875 18:-0.24548 19:-0.00855951 20:-0.0876839 21:-0.146522 22:-0.606971 23:0.05624 24:0.404194 25:-0.268138 
-128 1:-0.166361 2:-0.225662 3:0.216193 4:-0.43006 5:-0.218444 6:-0.698645 7:0.0221305 8:-0.145371 9:0.389604 10:-0.462077 11:-0.427807 12:-0.200524 13:0.0570691 14:0.142331 15:0.0754944 16:0.477907 17:-0.38056 18:-0.246047 19:0.253255 20:0.602607 21:0.0069187 22:-0.263342 23:-0.57973 24:0.740724 25:-0.0621076 
-118.65736046571405 1:-0.171021 2:-1 3:-0.756183 4:0.545154 5:0.47821 6:0.0770146 7:-0.522492 8:-1 9:-1 10:-0.935667 11:-0.878592 12:-0.827552 13:-0.465198 14:-0.960083 15:-0.753827 16:-0.804782 17:0.515064 18:-1 19:-1 20:-0.0247284 21:-0.40229 22:-0.378627 23:-0.969266 24:-0.823828 25:-0.414901 
-128 1:-0.168657 2:0.0947154 3:0.245939 4:-0.596916 5:-0.245587 6:-0.661802 7:-0.200334 8:0.241617 9:0.352058 10:-0.406174 11:-0.42913 12:-0.215214 13:-0.224645 14:-0.0216521 15:-0.15967 16:0.0162123 17:-0.31894 18:-0.0242593 19:0.260262 20:-0.00582386 21:-0.374272 22:-0.194268 23:-0.135535 24:0.557753 25:0.0339172 
-128 1:-0.284267 2:-0.0582311 3:0.0759845 4:-0.238741 5:0.122909 6:-0.370607 7:-0.615006 8:0.0938675 9:0.124506 10:-0.455634 11:-0.329464 12:-0.323542 13:-0.354256 14:-0.135225 15:0.05711 16:-0.154064 17:-0.285251 18:-0.351059 19:0.198912 20:-0.23205 21:0.276503 22:0.20845 23:-0.0329203 24:1 25:0.0474696 
-128 1:-0.411299 2:-0.389979 3:0.223278 4:0.0398933 5:0.641911 6:-0.665158 7:-0.452443 8:0.136001 9:-0.27148 10:-0.179564 11:-0.482547 12:-0.629863 13:-0.13057 14:-0.275885 15:-0.119542 16:-0.206893 17:-0.603929 18:-0.279108 19:0.0297761 20:0.254746 21:0.124835 22:0.5924 23:-0.445587 24:0.475731 25:-0.111374 
-128 1:-0.142501 2:-0.230725 3:-0.116269 4:0.29963 5:0.619533 6:-0.322679 7:-0.557957 8:-0.162936 9:-0.361608 10:-0.504868 11:0.0265387 12:-0.401945 13:-0.727294 14:0.0150343 15:-0.35114 16:-0.109238 17:-0.430229 18:-0.186466 19:-0.514067 20:1 21:0.0748968 22:0.327985 23:-0.852538 24:-0.739319 25:-0.0137485 
-128 1:0.0566019 2:0.831955 3:-0.254543 4:-0.530676 5:-0.917873 6:-0.871222 7:-0.637399 8:0.0553897 9:-0.307843 10:0.140302 11:-0.753507 12:-0.265384 13:-0.236219 14:-0.149077 15:-0.305856 16:-0.767435 17:-0.192922 18:-0.103311 19:-0.45585 20:-0.606378 21:-0.114284 22:-0.317698 23:0.219006 24:0.300469 25:-0.751014 
-14.818105240242888 1:-0.0162516 2:-0.542833 3:0.349314 4:-0.501781 5:0.0343647 6:0.00591123 7:-0.73077 8:0.304948 9:0.283055 10:-0.616099 11:-0.771923 12:0.00392426 13:-0.15416 14:-0.612822 15:-0.146003 16:-0.0978879 17:0.029922 18:0.198337 19:0.162944 20:-0.578497 21:-0.436447 22:0.253656 23:-0.476681 24:0.261683 25:-0.0748824 
-3.9387994834879532 1:-0.203349 2:-0.234604 3:0.398159 4:-0.187663 5:-0.0397544 6:0.0799718 7:-0.305451 8:-0.194299 9:0.57117 10:-0.602827 11:-0.279042 12:0.0500569 13:-0.159081 14:-0.127941 15:0.0616656 16:0.67965 17:-0.227517 18:0.433289 19:-0.00873302 20:-0.450924 21:0.50503 22:0.0428208 23:-0.239831 24:-0.189604 25:0.115621 
-128 1:-0.362872 2:0.315615 3:0.475167 4:-0.513615 5:-0.155226 6:-0.60973 7:-0.239413 8:0.076245 9:-0.116508 10:-0.0410919 11:-0.190485 12:-0.360906 13:-0.333831 14:0.477288 15:-0.191224 16:0.689528 17:-0.064877 18:-0.148743 19:-0.0643307 20:-0.30647 21:-0.541503 22:-0.13973 23:-0.499233 24:0.627521 25:0.167966 
-128 1:-0.242479 2:0.187192 3:0.392881 4:-0.444022 5:-0.32559 6:-0.646557 7:-0.207134 8:-0.164009 9:0.265251 10:0.448874 11:-0.0660116 12:-0.0314067 13:-0.483138 14:0.328934 15:-0.137351 16:0.450682 17:0.302699 18:-0.00376021 19:0.0724554 20:0.203384 21:-0.127578 22:-0.615479 23:-0.505049 24:0.239297 25:-0.0530296 
-128 1:-0.200084 2:-0.107927 3:0.134304 4:-0.460382 5:-0.0177616 6:-0.313477 7:-0.160785 8:0.000163592 9:0.111607 10:-0.504697 11:-0.276809 12:-0.112396 13:-0.0112603 14:-0.330346 15:-0.100719 16:0.17025 17:-0.0576716 18:-0.0562538 19:0.140166 20:0.0427867 21:-0.42588 22:-0.157828 23:-0.524033 24:0.284663 25:-0.061278 
-128 1:-0.647513 2:-0.389605 3:0.264716 4:-0.135322 5:0.802362 6:-0.559113 7:-0.580874 8:-0.333424 9:-0.445028 10:0.194841 11:-0.0117328 12:-0.735418 13:-0.71986 14:-0.478536 15:-0.00168857 16:-0.409432 17:-0.0128107 18:0.26064 19:-0.383442 20:-0.130008 21:-0.223289 22:0.540555 23:-0.455164 24:-0.259189 25:0.244275 
-128 1:0.167387 2:-0.403954 3:0.183494 4:-0.311252 5:-0.0273747 6:-0.387123 7:-0.397666 8:-0.326302 9:0.207833 10:-0.578954 11:-0.136951 12:0.0107504 13:-0.470985 14:-0.34197 15:-0.285799 16:0.213949 17:0.280795 18:-0.136218 19:-0.0043454 20:-0.352213 21:-0.295168 22:-0.0137766 23:-0.694488 24:0.0876748 25:-0.213891 
-128 1:-0.185874 2:-0.340142 3:0.371984 4:-0.512997 5:-0.125038 6:0.0894002 7:-0.278505 8:-0.892394 9:0.241743 10:-0.271606 11:-0.440155 12:-0.188019 13:0.332591 14:-0.308566 15:-0.164104 16:0.521773 17:-0.56457 18:0.132706 19:-0.546772 20:0.01834 21:-0.203688 22:-0.22924 23:-0.470784 24:-0.622298 25:0.220846 
-35.173125780986432 1:-0.133121 2:-0.216117 3:0.0983783 4:-0.41253 5:-0.0587251 6:-0.432061 7:-0.454861 8:-0.220031 9:0.705807 10:-0.292163 11:-0.105237 12:-0.258533 13:-0.370329 14:-0.250834 15:0.0657333 16:-0.0249851 17:0.156355 18:-0.0184714 19:0.400421 20:0.0179079 21:-0.315724 22:-0.0677739 23:-0.581739 24:0.2457 25:-0.0852659 
-37.999276340072505 1:0.00209746 2:-0.353449 3:0.291384 4:-0.54448 5:-0.14219 6:-0.0149636 7:-0.243189 8:-0.217499 9:0.67571 10:-0.779863 11:-0.361686 12:-0.00600318 13:0.0782286 14:-0.329113 15:-0.107333 16:0.565365 17:-0.348637 18:-0.431277 19:-0.346875 20:0.108935 21:-0.311812 22:-0.0625609 23:-0.237355 24:-0.171013 25:-0.10151 
-128 1:-0.281506 2:-0.00749899 3:0.358033 4:-0.623031 5:-0.15596 6:-0.65732 7:-0.387469 8:-0.0265323 9:-0.115384 10:-0.289293 11:-0.266385 12:-0.10456 13:-0.0528673 14:-0.0536236 15:-0.195617 16:0.181535 17:-0.328575 18:-0.13922 19:0.450066 20:0.344508 21:-0.290561 22:0.0929721 23:-0.303114 24:0.484564 25:-0.0377708 
-128 1:-0.262721 2:-0.104605 3:0.13425 4:-0.252692 5:-0.148399 6:-0.522037 7:-0.204244 8:0.171819 9:0.0817918 10:-0.343235 11:-0.219663 12:-0.270602 13:-0.308434 14:-0.28777 15:-0.0477941 16:0.0301539 17:-0.0802744 18:-0.0315455 19:0.0339642 20:0.114231 21:0.207371 22:-0.308788 23:-0.665491 24:-0.0980002 25:0.228572 
-128 1:-0.255041 2:-0.452912 3:0.28946 4:-0.351646 5:0.0265367 6:0.434828 7:-0.38449 8:0.0456275 9:-0.1678 10:-0.670906 11:-0.292718 12:-0.195162 13:0.114849 14:-0.455464 15:0.235208 16:0.166652 17:-0.21787 18:-0.104492 19:0.117789 20:-0.563081 21:0.14847 22:0.0116172 23:-0.6077 24:-0.0266418 25:0.0940605 
-128 1:0.335334 2:-0.204383 3:0.0800309 4:-0.0997047 5:-0.0934001 6:-0.221832 7:-0.063025 8:-0.137273 9:0.593536 10:0.0178262 11:0.124041 12:0.522284 13:-0.694866 14:-0.173888 15:0.0756231 16:0.37568 17:0.0901429 18:0.0367781 19:-0.518998 20:-0.774422 21:-0.208095 22:-0.0962173 23:-0.78339 24:-0.415799 25:-0.113546 
-25.687379905335924 1:0.10978 2:-0.612948 3:-0.0120494 4:-0.340611 5:-0.147318 6:-0.0972871 7:-0.467944 8:-0.385009 9:0.0289788 10:-0.45872 11:0.0015438 12:0.0677111 13:-0.425029 14:-0.657221 15:-0.131449 16:-0.0315416 17:0.186276 18:-0.107966 19:-0.709289 20:-0.0355457 21:-0.51171 22:-0.554614 23:-0.943761 24:-0.702546 25:0.458136 
-128 1:-0.216943 2:-0.180697 3:0.23111 4:-0.609365 5:-0.0207674 6:0.217898 7:-0.421402 8:-0.192667 9:0.367974 10:-0.0262929 11:-0.268413 12:-0.319946 13:-0.250869 14:-0.246004 15:-0.166935 16:0.295056 17:-0.638834 18:0.0325022 19:-0.0689207 20:0.0182538 21:-0.263229 22:0.220984 23:-0.321392 24:0.406058 25:-0.24687 
-128 1:-0.0497315 2:-0.202425 3:0.408025 4:-0.252678 5:-0.158582 6:-0.482319 7:-0.142081 8:-0.319156 9:0.00418617 10:-0.512353 11:-0.398086 12:0.225192 13:-0.213057 14:-0.352766 15:0.0466708 16:0.399521 17:-0.0367859 18:0.249522 19:-0.186859 20:-0.307695 21:0.346196 22:-0.252254 23:-0.659265 24:-0.241872 25:-0.196437 
-128 1:-0.204813 2:-0.113826 3:0.189382 4:-0.363856 5:-0.0568703 6:0.131629 7:-0.333589 8:-0.0311483 9:0.222732 10:-0.169475 11:-0.396632 12:-0.0168946 13:0.094583 14:-0.00248275 15:-0.0586212 16:0.285939 17:-0.184866 18:0.0929652 19:0.0442722 20:-0.0225075 21:-0.0943999 22:-0.249659 23:-0.609242 24:0.342012 25:-0.0650263 
-128 1:-0.338763 2:-0.355345 3:0.545282 4:-0.372129 5:-0.0179162 6:-0.348762 7:-0.331127 8:-0.178671 9:-0.0256788 10:-0.466308 11:-0.311268 12:-0.189614 13:-0.290762 14:-0.28481 15:0.124788 16:0.407998 17:-0.211957 18:0.0521173 19:0.257821 20:-0.390957 21:0.35005 22:-0.00400061 23:-0.418317 24:0.0336436 25:-0.0734857 
-128 1:0.12498 2:0.0949344 3:0.57911 4:-0.740156 5:-0.548566 6:-0.452643 7:-0.558375 8:0.284357 9:0.508427 10:-0.27633 11:-0.37115 12:0.065516 13:-0.597211 14:-0.193216 15:0.12921 16:-0.127799 17:-0.105186 18:-0.320926 19:0.400697 20:-0.662255 21:-0.472063 22:-0.792591 23:-0.299909 24:0.940436 25:-0.22876 
-128 1:0.122288 2:-0.333329 3:0.0692305 4:0.144765 5:0.0672171 6:-0.166366 7:-0.683161 8:-0.0450846 9:0.817245 10:-0.40843 11:-0.276805 12:0.0857998 13:-0.624093 14:-0.443938 15:-0.257791 16:0.279412 17:-0.0767063 18:-0.319914 19:0.107355 20:0.229535 21:0.140617 22:-0.279979 23:-0.654204 24:-0.484398 25:-0.11894 
-128 1:-0.0896685 2:-0.289873 3:0.0721599 4:-0.345354 5:-0.177283 6:-0.68228 7:-0.399656 8:0.193927 9:0.490548 10:0.119724 11:-0.426124 12:-0.245121 13:-0.295923 14:-0.179832 15:0.0249703 16:0.00873439 17:-0.228984 18:0.0759982 19:0.424273 20:-0.0661405 21:-0.369583 22:-0.373229 23:-0.299321 24:0.441533 25:-0.0202385 
-128 1:-0.137724 2:-0.604431 3:0.245818 4:0.160358 5:0.232236 6:0.649094 7:-0.385155 8:0.163125 9:0.233884 10:-0.672298 11:-0.142806 12:-0.239327 13:-0.311426 14:-0.393564 15:0.0165368 16:0.0112133 17:-0.625396 18:-0.0984501 19:-0.464869 20:-0.739101 21:0.141502 22:0.493943 23:-0.622051 24:-0.270526 25:0.0265445 
-128 1:-0.113545 2:-0.339479 3:0.367709 4:-0.42477 5:-0.140328 6:-0.211809 7:-0.500392 8:-0.32221 9:0.0272967 10:-0.148586 11:-0.274891 12:0.119279 13:-0.0952963 14:-0.172477 15:0.0955382 16:0.551398 17:-0.220379 18:0.653451 19:-0.172503 20:-0.0533149 21:-0.0772748 22:-0.588905 23:-0.462835 24:-0.130148 25:0.367029 
-128 1:-0.0212006 2:-0.1585 3:0.199718 4:-0.580754 5:-0.289562 6:-0.249905 7:-0.149998 8:-0.264363 9:1 10:-0.275747 11:-0.48731 12:-0.0588675 13:0.105826 14:-0.20246 15:-0.239449 16:0.273226 17:0.0299001 18:-0.445377 19:0.645126 20:-0.181863 21:-0.166592 22:-0.587235 23:-0.578622 24:0.189357 25:0.147408 
-128 1:0.0334837 2:-0.337971 3:0.103958 4:-0.350804 5:-0.0660651 6:-0.265849 7:-0.437767 8:-0.229979 9:0.246658 10:-0.216868 11:-0.298901 12:0.0257546 13:-0.365259 14:-0.278824 15:-0.180335 16:-0.132016 17:0.257137 18:-0.198988 19:-0.11487 20:-0.142425 21:-0.397584 22:-0.189663 23:-0.299526 24:0.127659 25:0.00678525 
-80.948983445021639 1:-0.324022 2:-0.482819 3:0.17199 4:-0.314467 5:0.218054 6:0.0307723 7:-0.599355 8:0.0947858 9:0.325203 10:-0.286278 11:-0.583588 12:-0.338931 13:0.182174 14:-0.523891 15:0.00541053 16:-0.0261165 17:-0.391406 18:0.116022 19:-0.106045 20:-0.189868 21:-0.175719 22:-0.23905 23:-0.777629 24:0.27756 25:0.138945 
-128 1:0.110594 2:-0.210678 3:0.015463 4:-0.0573348 5:0.368485 6:-0.292977 7:-0.71401 8:0.131618 9:0.285882 10:-0.898733 11:-0.401523 12:-0.331718 13:-0.305926 14:-0.214293 15:-0.27318 16:-0.252851 17:-0.254765 18:-0.297053 19:0.102835 20:0.139058 21:-0.365681 22:0.00103042 23:-0.573173 24:0.293219 25:-0.284729 
-128 1:-0.279553 2:0.344321 3:0.251569 4:-0.358792 5:0.0325782 6:-0.559971 7:-0.381158 8:-0.291709 9:-0.049343 10:-0.32331 11:-0.418293 12:-0.565089 13:-0.368239 14:0.344759 15:-0.359335 16:-0.197025 17:-0.643624 18:-0.396142 19:-0.13315 20:0.0495674 21:-0.353481 22:-0.227593 23:0.171635 24:0.534105 25:-0.0258321 
-39.944387072516477 1:-0.177052 2:-0.131904 3:0.349184 4:-0.564705 5:-0.223927 6:-0.419905 7:-0.0795012 8:-0.41372 9:0.0229884 10:-0.62663 11:-0.00252387 12:0.503687 13:-0.653666 14:-0.0225229 15:0.257028 16:0.429382 17:1 18:-0.392589 19:0.206689 20:-0.189472 21:-0.126859 22:-0.00138029 23:-0.619312 24:-0.391218 25:0.585172 
-128 1:0.318944 2:0.0933532 3:0.152527 4:-0.494713 5:-0.192726 6:-0.55424 7:-0.102474 8:-0.0391687 9:0.531562 10:-0.463105 11:0.0425161 12:0.5302 13:-0.659306 14:-0.392509 15:-0.062226 16:0.440657 17:0.371491 18:0.0830873 19:-0.118292 20:-0.768823 21:-0.231767 22:-0.311546 23:-0.764825 24:-0.159073 25:-0.191055 
-57.60503534169905 1:-0.077421 2:-0.673061 3:0.173322 4:-0.279864 5:0.200156 6:1 7:0.0217708 8:-0.395198 9:0.0083714 10:-0.608297 11:-0.513718 12:0.270657 13:-0.157647 14:-0.796496 15:-0.170268 16:0.177564 17:0.022219 18:0.0539038 19:0.248535 20:-0.51371 21:-0.414662 22:0.254945 23:-0.772791 24:-0.318868 25:0.14361 
-128 1:-0.539628 2:-0.373936 3:0.381826 4:-0.433673 5:-0.134333 6:-0.110457 7:-0.576482 8:-0.261042 9:-0.558808 10:-0.320545 11:-0.513196 12:-0.614885 13:0.138802 14:-0.54287 15:0.201894 16:-0.30332 17:-0.704383 18:0.126064 19:0.257343 20:-0.123223 21:-0.0831977 22:-0.277558 23:0.0746114 24:0.235375 25:0.0360492 
-39.687244155189539 1:-0.340804 2:-0.00234073 3:0.332296 4:-1 5:-0.424213 6:-0.142669 7:0.263226 8:-0.256088 9:-0.591895 10:-0.384123 11:-0.470616 12:-0.530121 13:0.0283473 14:0.00815123 15:-0.15614 16:0.329596 17:0.847989 18:-0.060106 19:-0.077838 20:-0.281319 21:-0.628682 22:-0.559806 23:-0.501122 24:0.198322 25:0.0374159 
-109.39876975530179 1:0.00567397 2:0.373989 3:-0.177891 4:0.696281 5:0.375053 6:-0.836788 7:-0.754018 8:-0.497893 9:-0.439768 10:-0.659043 11:-0.882032 12:-0.710159 13:-0.774225 14:-0.168919 15:-0.353243 16:-0.55902 17:-0.640633 18:-0.307509 19:-0.720257 20:-0.166007 21:-0.655261 22:-0.65814 23:-0.399505 24:-0.592296 25:-0.480409 
-128 1:0.004167 2:0.0899304 3:0.38493 4:-0.585808 5:-0.128418 6:-0.691444 7:-0.61101 8:0.0829157 9:0.291744 10:-0.151237 11:-0.0295021 12:0.305197 13:-0.506952 14:-0.2636 15:-0.270023 16:0.389825 17:-0.273415 18:-0.113482 19:0.211131 20:-0.434562 21:-0.543756 22:0.179974 23:0.583942 24:0.102198 25:-0.302141 
-128 1:-0.350526 2:-0.386846 3:0.0964159 4:0.163943 5:0.444515 6:-0.354268 7:-0.463962 8:0.150332 9:0.446065 10:-0.206915 11:-0.599777 12:-0.497415 13:-0.104527 14:-0.126245 15:-0.210461 16:0.184837 17:-0.417646 18:-0.442505 19:-0.125979 20:-0.450556 21:0.624874 22:0.616305 23:0.206303 24:0.0189045 25:-0.0271613 
-128 1:-0.219841 2:-0.0377526 3:0.404992 4:-0.637383 5:0.155337 6:0.00200352 7:0.222115 8:-0.937912 9:0.194884 10:-0.478546 11:-0.73977 12:-0.166723 13:-0.288813 14:0.156748 15:-0.369533 16:0.302414 17:-0.874704 18:-0.00366217 19:-0.162225 20:0.641751 21:-0.538775 22:-0.0861247 23:-0.331985 24:-0.166918 25:0.0092652 
-128 1:-0.109317 2:-0.140021 3:0.104686 4:-0.211913 5:0.0917494 6:-0.0649725 7:-0.224934 8:-0.290914 9:0.174547 10:-0.199923 11:-0.642029 12:-0.155749 13:0.0712824 14:-0.232075 15:-0.00219512 16:-0.00992515 17:-0.39133 18:0.0479849 19:-0.00847091 20:-0.199371 21:-0.146719 22:-0.166679 23:-0.445192 24:-0.0332415 25:0.0333244 
