svm_type c_svc
kernel_type rbf
gamma 0.5
nr_class 2
total_sv 221
rho 0.3313331426185509
label 1 0
nr_sv 108 113
SV
0.5 1:-0.324958 2:-0.350778 3:-0.334 4:-0.0232101 5:-0.187803 6:-0.474329 7:0.185456 8:-0.752195 9:-0.394357 10:0.0257262 11:-0.489702 12:-0.642569 13:-0.0942737 14:0.193097 15:-0.0129006 16:-0.272232 17:-0.561067 18:-0.528356 19:-0.554507 20:-0.659536 21:-0.428588 22:-0.322149 
0.5 1:-0.150025 2:-0.403504 3:0.182427 4:-0.104322 5:-0.208214 6:-0.38655 7:0.308629 8:-0.414037 9:-0.237619 10:0.15686 11:-0.483481 12:-0.181972 13:0.174776 14:-0.270042 15:-0.0628123 16:-0.430332 17:0.309211 18:0.285729 19:-0.433815 20:-0.778626 21:-0.481577 22:-0.202653 
0.5 1:0.0583659 2:0.179592 3:-0.379398 4:-0.605902 5:-0.287983 6:-0.112903 7:-0.00142282 8:-0.143018 9:-0.151284 10:-0.0768982 11:-0.578121 12:0.0567715 13:0.497461 14:-0.470025 15:0.205382 16:0.272115 17:-0.116797 18:-0.161818 19:-0.385006 20:-0.47955 21:0.216284 22:-0.0327042 
0.5 1:-0.0656047 2:0.358465 3:-0.723508 4:-0.241011 5:-0.401677 6:-0.29889 7:-0.136074 8:0.0216383 9:-0.407145 10:-0.135247 11:-0.555729 12:-0.0233349 13:0.155449 14:-0.526247 15:0.0969236 16:0.424127 17:-0.314008 18:-0.381404 19:-0.0167071 20:-0.0776866 21:0.256787 22:0.000340355 
0.5 1:-0.00637902 2:-0.366641 3:-0.151876 4:-0.408338 5:-0.0971688 6:-0.386985 7:-0.0428358 8:-0.378992 9:0.352438 10:0.977621 11:-0.712175 12:-0.260357 13:0.0638128 14:-0.258704 15:-0.218929 16:-0.372659 17:-0.465099 18:-0.33546 19:-0.13995 20:-0.766433 21:0.0380557 22:-0.377532 
0.5 1:-0.2665 2:0.200633 3:-0.570628 4:-0.402176 5:-0.517793 6:-0.699872 7:-0.0757839 8:-0.622207 9:-0.318393 10:-0.0640499 11:-0.14889 12:-0.243743 13:0.429383 14:-0.573713 15:0.168259 16:0.191066 17:0.18654 18:-0.09219 19:-0.252952 20:-0.52444 21:-0.0799469 22:0.150608 
0.5 1:-0.582926 2:0.0904876 3:-0.367541 4:-0.134284 5:-0.641884 6:-0.203947 7:-0.128024 8:-0.232159 9:-0.507367 10:-0.449571 11:0.0939498 12:-0.502917 13:0.2479 14:-0.696851 15:0.457128 16:-0.120944 17:-0.143457 18:-0.263608 19:0.182731 20:-0.590525 21:-0.33703 22:0.0473193 
0.5 1:-0.418906 2:-0.331385 3:-0.0500488 4:-0.359745 5:-0.501841 6:-0.0905195 7:0.201626 8:0.150075 9:-0.579289 10:-0.58683 11:-0.331262 12:-0.570975 13:-0.601344 14:-0.018785 15:-0.827718 16:-0.18554 17:-0.352632 18:-0.896203 19:0.0574461 20:-0.634872 21:0.321216 22:-0.746143 
0.14294979624243226 1:-0.69164 2:0.43391 3:-0.680926 4:0.100462 5:-0.99699 6:-0.820008 7:-0.473558 8:-0.522128 9:-0.611792 10:-0.640393 11:-0.297158 12:-0.416337 13:0.108132 14:-0.891894 15:0.270229 16:0.570339 17:0.193207 18:-0.123495 19:-0.189298 20:-0.455058 21:0.20187 22:0.192388 
0.5 1:-0.125106 2:-0.2491 3:-0.164443 4:-0.135325 5:-0.251454 6:0.0526547 7:0.27704 8:-0.682187 9:1 10:0.258878 11:-0.543855 12:-0.414 13:0.0544557 14:-0.487772 15:-0.308661 16:-0.183265 17:-0.753698 18:-0.0461537 19:-0.132203 20:-0.775019 21:-0.524758 22:0.00834521 
0.5 1:-0.172211 2:-0.414781 3:-0.133647 4:-0.808578 5:-0.677531 6:-0.142127 7:0.299377 8:-0.735142 9:-0.724425 10:-0.595143 11:-0.339705 12:-0.196312 13:-0.247025 14:-0.434068 15:0.218177 16:-0.116631 17:-0.0393884 18:-0.450683 19:-0.796458 20:-0.0749618 21:0.059535 22:-0.499327 
0.5 1:-0.673111 2:0.212451 3:-0.265938 4:0.320998 5:-0.797947 6:0.079257 7:-0.174234 8:-0.70844 9:-0.781575 10:-0.640412 11:0.419978 12:-0.171089 13:0.507672 14:-0.753622 15:0.555832 16:-0.184664 17:-0.547315 18:0.184496 19:0.307704 20:-0.442468 21:-0.205481 22:0.262428 
0.5 1:-0.0758532 2:-0.412226 3:-0.658601 4:-0.259791 5:-0.220517 6:-0.147955 7:0.813748 8:-0.272 9:-0.251732 10:0.526017 11:-0.365536 12:0.294572 13:0.447521 14:-0.266418 15:0.15591 16:-0.550192 17:-0.464127 18:-0.90078 19:-0.144343 20:-0.628824 21:-0.626562 22:0.0797021 
0.5 1:-0.622819 2:-0.549668 3:-0.211275 4:-0.62397 5:-0.329335 6:-0.714981 7:-0.110105 8:-0.506782 9:-0.213338 10:0.398197 11:-0.676733 12:-0.596738 13:-0.250943 14:-0.229885 15:0.124886 16:-0.324434 17:-0.391847 18:-0.685346 19:-0.495278 20:-0.678246 21:-0.417289 22:-0.396706 
0.5 1:0.349235 2:-0.0807094 3:-0.581244 4:-1 5:-0.493659 6:-0.0690158 7:0.241825 8:-0.197798 9:0.0587054 10:-0.296635 11:-0.668635 12:0.13176 13:-0.25972 14:-0.566145 15:0.0641372 16:0.0180602 17:-0.270357 18:-0.742369 19:-0.611035 20:0.355712 21:0.0557882 22:-0.277102 
0.5 1:-0.733006 2:-0.196751 3:-0.302237 4:0.214227 5:-0.481034 6:0.234526 7:0.45159 8:-0.57894 9:-0.469275 10:0.100489 11:-0.0210033 12:-0.411538 13:-0.0690896 14:-0.31867 15:-0.0541259 16:-0.473164 17:-0.25208 18:-0.520762 19:0.479994 20:-0.56496 21:-0.343896 22:0.530171 
0.5 1:-0.503657 2:-0.403578 3:0.115735 4:-0.227816 5:-0.0577944 6:-0.0506336 7:0.198985 8:0.207662 9:-0.272631 10:-0.0370264 11:-0.699724 12:-0.56585 13:-0.0790287 14:0.0981105 15:0.626146 16:-0.574031 17:-0.660731 18:-0.180501 19:0.538488 20:-0.696544 21:-0.619653 22:-0.159436 
0.5 1:-0.617455 2:0.383861 3:-0.34415 4:0.415417 5:-0.79266 6:-0.0627874 7:-0.270971 8:-0.626456 9:-0.704383 10:-0.48313 11:0.518561 12:-0.297098 13:0.352202 14:-0.578713 15:0.279218 16:0.391858 17:-0.174988 18:0.0460156 19:-0.211087 20:-0.356302 21:0.110244 22:0.376725 
0.5 1:-0.10098 2:0.321773 3:-0.412151 4:-0.495668 5:-0.495586 6:-0.23106 7:-0.0790542 8:-0.152963 9:-0.37718 10:-0.569911 11:-0.281402 12:-0.133439 13:0.1617 14:-0.467311 15:-0.217213 16:0.33843 17:-0.517144 18:0.268284 19:0.220263 20:-0.431546 21:0.469598 22:0.144434 
0.5 1:0.348406 2:0.14258 3:-0.459022 4:-0.590742 5:-0.206898 6:-0.331933 7:0.14662 8:-0.149966 9:-0.631656 10:-0.398544 11:-0.415185 12:-0.0279922 13:0.278559 14:-0.422314 15:-0.262976 16:-0.217238 17:-0.522852 18:-0.178544 19:-0.302729 20:0.11569 21:0.490968 22:-0.111186 
0.5 1:0.38119 2:-0.707545 3:0.384809 4:-0.753602 5:-0.274663 6:-0.773734 7:-0.0836688 8:-0.324386 9:-0.426404 10:0.0276466 11:-0.580536 12:-0.423248 13:-0.5179 14:-0.41098 15:-0.466954 16:-0.814079 17:-0.907765 18:-0.349401 19:-0.834286 20:-0.897694 21:-0.590795 22:-0.557671 
0.5 1:-0.190997 2:-0.0873432 3:-0.278297 4:-0.381261 5:-0.551584 6:-0.486684 7:0.438725 8:-0.864683 9:-0.544754 10:-0.0183787 11:-0.498042 12:-0.164207 13:-0.225036 14:-0.733973 15:-0.0303527 16:-0.0212453 17:-0.0220397 18:-0.419674 19:-0.646321 20:-0.0629486 21:0.0543956 22:-0.20157 
0.5 1:0.00768211 2:-0.211611 3:-0.449342 4:-0.247112 5:-0.241132 6:-0.0640338 7:0.242146 8:-0.210272 9:0.316416 10:0.928389 11:-0.706079 12:-0.211561 13:0.46964 14:0.0469799 15:0.119848 16:-0.0940307 17:-0.869084 18:-0.14733 19:-0.523206 20:-0.734566 21:-0.183291 22:-0.031045 
0.5 1:-0.254045 2:0.0869569 3:-0.0525585 4:-0.17129 5:-0.578164 6:-0.0499209 7:0.084146 8:-0.130999 9:-0.251212 10:-0.230282 11:-0.194517 12:-0.0163497 13:0.526291 14:-0.89942 15:-0.0730066 16:-0.123246 17:-0.321997 18:0.401079 19:0.0388056 20:-0.26758 21:0.364973 22:0.155149 
0.5 1:0.00325622 2:-0.190159 3:-0.481666 4:-0.256445 5:-0.230738 6:-0.0653576 7:0.269404 8:-0.225495 9:0.32782 10:0.97225 11:-0.687119 12:-0.194454 13:0.477772 14:0.0580606 15:0.107188 16:-0.0902521 17:-0.894942 18:-0.169888 19:-0.492575 20:-0.726535 21:-0.181393 22:-0.0187746 
0.5 1:-0.0354402 2:-0.0628755 3:-0.184458 4:-0.707939 5:-0.592402 6:-0.326649 7:0.723618 8:-0.378002 9:-0.189987 10:0.156573 11:-0.347038 12:-0.314761 13:-0.181964 14:-0.559891 15:-0.366429 16:0.0928993 17:-0.351759 18:-0.0682753 19:-0.862052 20:-0.236216 21:0.349649 22:-0.450788 
0.5 1:-0.248082 2:-0.389391 3:-0.112743 4:-0.149248 5:-0.412793 6:-0.312956 7:0.082824 8:-0.930052 9:-0.445274 10:-0.18292 11:-0.570101 12:-0.476378 13:-0.14295 14:-0.184753 15:-0.246196 16:0.0586832 17:-0.542249 18:-0.359931 19:-0.467475 20:-0.850369 21:-0.31029 22:-0.231457 
0.5 1:-0.363108 2:-0.086361 3:-0.40077 4:-0.039156 5:-0.397738 6:-0.210449 7:0.0410803 8:-0.563376 9:-0.554766 10:0.160669 11:0.299179 12:-0.666979 13:0.352045 14:-0.288958 15:0.215745 16:0.0998061 17:0.16822 18:-0.144586 19:0.252472 20:-0.190661 21:0.134564 22:-0.048738 
0.5 1:-0.488478 2:0.112658 3:-0.395089 4:0.321774 5:-0.534385 6:0.127289 7:-0.034348 8:-0.609668 9:-0.159572 10:-0.283412 11:0.124251 12:-0.58859 13:0.40024 14:-0.672647 15:0.423735 16:-0.0255993 17:-0.329988 18:0.0975122 19:0.179584 20:-0.443728 21:0.00327191 22:0.181748 
0.5 1:-0.234939 2:-0.135206 3:0.262202 4:-0.610921 5:-0.514601 6:0.141725 7:-0.0477099 8:-0.450812 9:0.106559 10:-0.126929 11:-0.495354 12:0.0998638 13:-0.166107 14:-0.566804 15:0.446566 16:-0.162361 17:-0.162283 18:0.173885 19:0.0324797 20:-0.715266 21:-0.186776 22:0.218094 
0.5 1:-0.0874414 2:-0.215989 3:-0.0518041 4:-0.639175 5:-0.381983 6:-0.221912 7:-0.0283299 8:-0.565121 9:-0.325072 10:-0.266306 11:0.0405693 12:-0.508199 13:-0.462667 14:-0.285681 15:-0.395311 16:-0.153147 17:-0.0463656 18:-0.20911 19:-0.589836 20:-0.512948 21:0.200982 22:-0.429389 
0.21168788032219849 1:-0.813231 2:0.0999243 3:-0.240143 4:0.307273 5:-0.872835 6:0.277537 7:-0.432061 8:-0.350526 9:-0.806027 10:-0.777642 11:0.289201 12:-0.495348 13:0.53403 14:-0.839434 15:0.326796 16:0.135478 17:-0.326224 18:0.154423 19:-0.138023 20:-0.582622 21:-0.346944 22:0.25537 
0.5 1:-0.156838 2:-0.324673 3:0.157063 4:-0.202025 5:0.0270167 6:-0.172071 7:0.269618 8:-0.324853 9:0.198337 10:1 11:-0.389079 12:-0.388858 13:0.497576 14:-0.336629 15:0.0811112 16:-0.161668 17:-0.40529 18:-0.0408361 19:-0.228657 20:-0.763545 21:-0.29776 22:-0.319773 
0.5 1:-0.475714 2:0.150447 3:-0.30958 4:0.120127 5:-0.665296 6:0.0548957 7:-0.0899479 8:-0.572399 9:-0.697613 10:-0.256189 11:0.425248 12:-0.346806 13:0.401252 14:-0.525624 15:0.513331 16:-0.128807 17:-0.37752 18:0.0110552 19:-0.20893 20:-0.675261 21:-0.303466 22:0.386062 
0.0086214105042960888 1:-0.410052 2:0.40124 3:-0.157866 4:-0.150301 5:-0.698501 6:-0.128648 7:-0.645394 8:-0.453605 9:-0.781335 10:-0.72077 11:1.00078e-05 12:-0.494465 13:-0.140888 14:-0.806419 15:-0.250397 16:0.280685 17:-0.192434 18:-0.160759 19:-0.3746 20:-0.0101653 21:0.307901 22:-0.129712 
0.5 1:-0.0449509 2:0.318106 3:-0.545806 4:-0.11087 5:-0.475377 6:-0.291363 7:-0.280924 8:-0.259572 9:-0.367713 10:-0.134957 11:-0.401324 12:-0.185134 13:0.0491841 14:-0.61751 15:-0.0462448 16:0.461676 17:-0.2065 18:-0.422872 19:-0.304539 20:-0.0335888 21:0.401575 22:-0.08396 
0.5 1:0.0126797 2:-0.00505201 3:0.0816938 4:-0.263691 5:-0.271383 6:-0.0578295 7:0.149302 8:-0.383898 9:-0.218314 10:0.110222 11:0.775878 12:-0.101494 13:-0.210712 14:-0.54912 15:0.124335 16:0.177819 17:-0.410651 18:-0.143656 19:-0.380952 20:-0.361196 21:0.788928 22:-0.113663 
0.5 1:0.75486 2:-0.737642 3:-0.496484 4:-0.876559 5:-0.508831 6:-0.884083 7:-0.285271 8:-0.669708 9:-0.913576 10:-0.239021 11:-0.59592 12:-0.197705 13:-0.853517 14:-0.729747 15:-0.485495 16:-0.66033 17:-0.337407 18:-1 19:-0.878148 20:-0.537308 21:0.0982051 22:-0.829411 
0.5 1:-0.199578 2:-0.512035 3:0.298729 4:-0.0650245 5:-0.138379 6:-0.548733 7:0.37739 8:-0.271014 9:-0.616882 10:0.0633254 11:0.125642 12:-0.0873875 13:-0.446049 14:0.333791 15:-0.553674 16:-0.0660323 17:-0.618504 18:0.132259 19:0.477957 20:-0.671819 21:-0.190889 22:0.0654584 
0.5 1:0.170387 2:0.175602 3:-0.00748223 4:-0.776805 5:-0.493339 6:-0.336889 7:-0.301456 8:-0.18091 9:0.238002 10:-0.236244 11:-0.343262 12:0.215919 13:0.141807 14:-0.586344 15:-0.502119 16:-0.275217 17:-0.0955969 18:-0.0302172 19:0.285181 20:0.309203 21:-0.0432245 22:0.120018 
0.5 1:0.0537766 2:-0.206397 3:-0.691737 4:-0.323984 5:-0.245407 6:-0.217235 7:0.151903 8:-0.407625 9:0.308298 10:0.880771 11:-0.677607 12:-0.259682 13:0.620149 14:-0.025837 15:0.545688 16:-0.228656 17:-0.814833 18:-0.395724 19:-0.546494 20:-0.335824 21:-0.229581 22:-0.272933 
0.5 1:-0.222125 2:-0.112061 3:-0.435834 4:-0.668989 5:-0.102998 6:-0.335734 7:0.218348 8:-0.595252 9:-0.259557 10:-0.0785659 11:-0.459835 12:-0.226376 13:-0.0782132 14:0.173645 15:0.228079 16:0.165686 17:-0.071461 18:-0.387236 19:-0.191517 20:-0.774527 21:-0.154429 22:-0.215436 
0.44008051786719576 1:-0.687665 2:0.387139 3:-0.389398 4:0.0434198 5:-0.817277 6:-0.245089 7:-0.541524 8:-0.354734 9:-0.842054 10:-0.779423 11:0.29638 12:-0.683724 13:0.0241557 14:-0.773613 15:0.30124 16:0.485906 17:-0.290944 18:0.00281097 19:-0.676864 20:-0.31325 21:0.490149 22:-0.179702 
0.5 1:-0.32755 2:-0.134698 3:-0.100518 4:0.12461 5:-0.584344 6:-0.055904 7:0.235281 8:-0.285687 9:-0.549521 10:-0.302588 11:0.250603 12:0.013422 13:0.0789055 14:-0.448368 15:0.112432 16:-0.160942 17:-0.347734 18:-0.0567213 19:0.65535 20:-0.466923 21:0.055107 22:-0.062909 
0.5 1:-0.360397 2:-0.317692 3:0.526275 4:-0.760627 5:-0.80002 6:-0.593017 7:-0.809599 8:-0.0215057 9:-0.152879 10:-0.936156 11:-0.0142298 12:-0.208345 13:-0.534804 14:-1 15:-0.0853371 16:-0.273894 17:0.588612 18:-0.818525 19:-0.414584 20:-0.419181 21:-0.103267 22:-1 
0.45383279613647137 1:0.147212 2:-0.742285 3:0.392472 4:-0.865709 5:-0.618537 6:-0.221619 7:0.222301 8:0.296223 9:-0.443434 10:0.113144 11:-0.453387 12:-0.109275 13:-0.45778 14:-0.674127 15:-0.188254 16:-0.829345 17:-0.132503 18:-0.0217359 19:-0.398914 20:-0.433846 21:-0.0860843 22:-0.413252 
0.5 1:0.0814706 2:0.116522 3:-0.568695 4:-0.771554 5:-0.265527 6:-0.178375 7:-0.189448 8:-0.574918 9:0.180419 10:0.234469 11:-0.759977 12:-0.0891817 13:0.0530771 14:-0.176815 15:0.336429 16:0.263773 17:0.142364 18:0.0560451 19:-0.442521 20:-0.69834 21:0.215004 22:0.494287 
0.5 1:-0.370052 2:-0.782463 3:-0.3397 4:-0.582833 5:-0.43022 6:-0.710604 7:-0.609201 8:-0.701875 9:-0.38517 10:-0.329947 11:-0.82995 12:-0.567598 13:-0.451085 14:-0.126124 15:-0.362329 16:-0.66856 17:-0.670758 18:-0.784749 19:-1 20:-0.62486 21:-0.580723 22:-0.625615 
0.5 1:-0.0876875 2:0.436562 3:-0.526451 4:-0.73319 5:-0.729647 6:0.216859 7:0.0166512 8:0.367397 9:-0.109016 10:0.0115721 11:-0.187299 12:0.0928632 13:0.0998489 14:-0.32534 15:-0.0365358 16:0.542011 17:-0.223606 18:-0.213556 19:0.136643 20:-0.247708 21:0.582564 22:-0.121948 
0.5 1:-0.105527 2:-0.175798 3:-0.0562775 4:0.104075 5:-0.392636 6:-0.499826 7:-0.377795 8:-0.516708 9:-0.206327 10:-0.496902 11:0.120385 12:-0.0105047 13:-0.621794 14:-0.786963 15:-0.54562 16:0.0630836 17:0.910428 18:-0.477975 19:0.690213 20:-0.457196 21:0.920226 22:-0.356138 
0.5 1:0.000378867 2:-0.253457 3:-0.169372 4:-0.359058 5:-0.571076 6:0.241806 7:-0.00553415 8:-0.340909 9:-0.335473 10:-0.313836 11:-0.13033 12:-0.213643 13:-0.424485 14:-0.55556 15:-0.0534722 16:-0.145688 17:0.0476592 18:-0.202859 19:-0.572377 20:-0.590254 21:0.226145 22:-0.16993 
0.5 1:-0.0589431 2:0.272536 3:-0.274691 4:-0.510306 5:-0.0595169 6:0.15606 7:0.371967 8:-0.698653 9:-0.232334 10:-0.45578 11:-0.290377 12:-0.281556 13:-0.0178407 14:-0.424817 15:-0.0934797 16:0.256017 17:-0.167281 18:-0.292123 19:0.162962 20:-0.347096 21:0.418764 22:-0.0799836 
0.5 1:-0.281768 2:-0.494489 3:-0.0287396 4:-0.194151 5:-0.161996 6:-0.848121 7:-0.218777 8:0.820369 9:-0.243357 10:-0.282229 11:-0.12115 12:-0.505577 13:-0.289981 14:-0.443214 15:-0.616601 16:-0.423463 17:0.696952 18:-0.392684 19:-0.237636 20:-0.467486 21:-0.513176 22:-0.223551 
0.24106330049402069 1:-0.289974 2:0.255113 3:0.368818 4:-0.803117 5:-0.635057 6:-0.215221 7:0.0455425 8:-0.388302 9:-0.650042 10:-0.493033 11:-0.675185 12:-0.0264522 13:-0.304203 14:-0.403187 15:-0.474886 16:0.325681 17:-0.257874 18:-0.325932 19:-0.225548 20:-0.145758 21:0.261459 22:-0.356201 
0.5 1:-0.419204 2:-0.223963 3:-0.179022 4:-0.238362 5:-0.353641 6:-0.17591 7:0.0695007 8:-0.470907 9:-0.129562 10:0.212272 11:-0.317424 12:-0.544198 13:0.231446 14:-0.136065 15:0.322433 16:-0.24817 17:-0.365136 18:-0.231977 19:-0.332368 20:-0.731257 21:-0.129773 22:0.151334 
0.5 1:-0.321291 2:-0.275384 3:0.44203 4:-0.181627 5:-0.505121 6:0.234357 7:0.102134 8:-0.48146 9:-0.118098 10:0.173057 11:-0.414433 12:-0.368974 13:0.0897194 14:-0.173408 15:0.0505339 16:-0.0807004 17:0.0730487 18:0.440286 19:0.220886 20:-0.639566 21:-0.172246 22:0.0257189 
0.5 1:-0.198241 2:0.556695 3:-0.0762809 4:-0.285158 5:-0.121566 6:-0.329241 7:0.00778883 8:-0.225678 9:-0.278484 10:-0.209504 11:-0.428456 12:0.249668 13:0.334242 14:-0.402077 15:0.250394 16:0.4892 17:-0.611629 18:0.211448 19:-0.0569853 20:-0.186041 21:0.0471561 22:-0.473813 
0.5 1:-0.249068 2:0.321232 3:0.0775995 4:-0.542611 5:-0.772254 6:0.49196 7:0.148018 8:-0.853473 9:-0.299599 10:-0.456098 11:-0.0779091 12:-0.27866 13:-0.281191 14:-0.834604 15:-0.345148 16:0.348173 17:0.329595 18:-0.0280038 19:0.479596 20:0.151568 21:0.645907 22:-0.035003 
0.5 1:-0.0878185 2:0.0499603 3:-0.412872 4:-0.482881 5:-0.24285 6:0.189583 7:0.249615 8:-0.660821 9:-0.16878 10:-0.048177 11:-0.518584 12:-0.0493185 13:0.29059 14:-0.338285 15:0.192647 16:0.229667 17:-0.130563 18:-0.212601 19:-0.0734876 20:-0.125299 21:0.26519 22:-0.0711877 
0.32329218846285168 1:-0.19184 2:0.351042 3:-0.223099 4:-0.333046 5:-0.625665 6:-0.971912 7:-0.716602 8:-0.214371 9:-0.481772 10:-0.303325 11:0.0972927 12:-0.204443 13:0.767536 14:-0.806023 15:0.139843 16:0.311134 17:-0.150217 18:0.0272985 19:-0.530224 20:-0.408528 21:-0.491632 22:-0.116969 
0.5 1:-0.194464 2:-0.18255 3:0.120239 4:-0.527825 5:-0.507956 6:-0.0723104 7:0.0108908 8:0.262698 9:-0.0361103 10:0.0142831 11:-0.381704 12:-0.311375 13:0.0619755 14:-0.228893 15:0.10319 16:0.0165607 17:0.1105 18:0.132827 19:-0.0132437 20:-0.621696 21:-0.0447168 22:-0.046072 
0.5 1:-0.502549 2:-0.336781 3:0.40869 4:-0.0120951 5:-0.453178 6:-0.469221 7:-0.113521 8:-0.438626 9:-0.235854 10:-0.384017 11:-0.169584 12:-0.247315 13:0.241577 14:-0.498043 15:0.0744877 16:-0.530309 17:0.346688 18:0.129764 19:0.194836 20:-0.658979 21:-0.606656 22:-0.043844 
0.5 1:1 2:0.121532 3:-0.0840096 4:-0.688858 5:-0.278302 6:-0.29284 7:0.104466 8:0.0343203 9:-0.155281 10:-0.415398 11:-0.745226 12:1 13:0.456009 14:-0.520458 15:0.159934 16:0.318549 17:-0.307484 18:-0.184249 19:-0.550343 20:0.154907 21:-0.124276 22:-0.42159 
0.5 1:-0.432686 2:0.117852 3:-0.225552 4:-0.0715853 5:-0.468249 6:0.10319 7:-0.105945 8:-0.329521 9:-0.541173 10:-0.513007 11:0.166058 12:-0.329775 13:0.220931 14:-0.594598 15:0.100288 16:0.196529 17:-0.190004 18:0.151813 19:0.00874027 20:-0.303943 21:0.13544 22:0.0050638 
0.5 1:0.920229 2:-0.395982 3:1 4:-0.569348 5:0.0809726 6:-0.6284 7:0.118996 8:-0.584975 9:-1 10:-0.717149 11:-0.288456 12:-0.247545 13:-1 14:-0.830559 15:-0.636831 16:-0.457948 17:-0.10249 18:1 19:-0.596617 20:-0.559558 21:0.640613 22:-0.763877 
0.10669825850062395 1:-0.272763 2:0.50957 3:-0.315681 4:-0.322818 5:-0.848817 6:0.018924 7:-0.524547 8:-0.596507 9:-0.788634 10:-0.361921 11:-0.0299513 12:-0.220253 13:0.34984 14:-0.65246 15:0.506087 16:0.408436 17:-0.169567 18:0.441266 19:-0.00575734 20:-0.593524 21:0.502696 22:-0.0701814 
0.5 1:-0.469595 2:0.203083 3:-0.338195 4:0.0182527 5:-0.547775 6:-0.322915 7:-0.117965 8:-0.210977 9:-0.410363 10:-0.464729 11:0.0148648 12:-0.361301 13:0.463439 14:-0.568693 15:0.11069 16:0.172304 17:-0.33266 18:0.246139 19:-0.13881 20:-0.531243 21:-0.00822079 22:0.255729 
0.5 1:-0.443448 2:-0.0843505 3:-0.243451 4:-0.627546 5:-0.569427 6:-0.411815 7:0.250795 8:-0.358025 9:-0.0581191 10:0.369829 11:-0.769994 12:-0.470384 13:0.176657 14:-0.227565 15:-0.222184 16:0.0932015 17:-0.523228 18:0.07694 19:0.49858 20:-0.253956 21:0.146865 22:0.336728 
0.5 1:-0.0917945 2:-0.293826 3:-0.713591 4:-0.433565 5:-0.160113 6:0.471543 7:0.570004 8:-0.36679 9:-0.263865 10:0.442161 11:0.227778 12:-0.559855 13:-0.114586 14:0.226117 15:-0.224629 16:-0.0618005 17:-0.842284 18:-0.970181 19:-0.880526 20:-0.574146 21:-0.0404413 22:-0.238872 
0.5 1:-0.173593 2:-0.0599288 3:-0.153979 4:0.0462259 5:-0.639405 6:-0.0670757 7:0.383384 8:-0.410559 9:-0.289775 10:-0.478332 11:0.290085 12:0.0451533 13:-0.05248 14:-0.561713 15:0.154713 16:-0.246681 17:-0.917822 18:0.0275015 19:0.189955 20:-0.311607 21:0.383831 22:0.177957 
0.5 1:-0.160477 2:0.029231 3:0.0159717 4:-0.290659 5:-0.649865 6:0.264711 7:-0.0196991 8:-0.363655 9:-0.224773 10:-0.150635 11:-0.25716 12:-0.273215 13:-0.226025 14:-0.452872 15:-0.225343 16:-0.0501758 17:-0.247869 18:0.0524759 19:0.362188 20:-0.480471 21:0.128965 22:0.0230941 
0.35593124806823523 1:-0.478964 2:0.43024 3:-0.138335 4:0.0480761 5:-0.770858 6:-0.107603 7:-0.441234 8:-0.410928 9:-0.700356 10:-0.645845 11:0.303484 12:-0.284136 13:0.381752 14:-0.874902 15:0.0180378 16:0.171077 17:-0.167752 18:0.376997 19:0.481211 20:0.0435154 21:0.50948 22:0.00695548 
0.5 1:-0.521349 2:0.02986 3:-0.373585 4:0.678311 5:-0.210957 6:-0.0528304 7:0.172683 8:-0.25844 9:-0.199372 10:-0.139929 11:0.260557 12:-0.290405 13:0.412037 14:-0.636543 15:0.317882 16:-0.0454411 17:0.371453 18:-0.207894 19:0.0111714 20:0.123279 21:0.327452 22:-0.0293015 
0.5 1:-0.112677 2:-0.210245 3:-0.202464 4:-0.630685 5:-0.61633 6:-0.0550144 7:0.124399 8:0.13158 9:0.569515 10:-0.0442251 11:-0.598837 12:-0.164454 13:0.209353 14:-0.56243 15:0.167587 16:-0.421004 17:-0.357855 18:-0.189018 19:-0.107921 20:0.371663 21:0.0839302 22:-0.204947 
0.5 1:-0.201214 2:0.293477 3:-0.417193 4:-0.41661 5:-0.236907 6:-0.194029 7:-0.644511 8:-0.449337 9:-0.180358 10:-0.480297 11:0.628162 12:-0.160647 13:0.18862 14:-0.318443 15:0.25838 16:0.126016 17:-0.157752 18:-0.314747 19:0.208193 20:-0.665183 21:0.17014 22:-0.0716844 
0.5 1:0.102924 2:-0.0429395 3:-0.383916 4:-0.748915 5:-0.114878 6:0.154309 7:0.259881 8:-0.129791 9:-0.051669 10:-0.0517931 11:-0.114815 12:0.0758063 13:0.22458 14:-0.380274 15:-0.0581591 16:-0.0367375 17:-0.0341683 18:-0.335856 19:-0.0240883 20:-0.310161 21:0.0825783 22:0.0969258 
0.48813858611762267 1:-0.615906 2:-0.217165 3:-0.0511645 4:-0.617242 5:-0.558529 6:-0.52493 7:0.0564192 8:-0.647769 9:-0.436247 10:0.0214328 11:-0.410335 12:-0.586437 13:-0.456117 14:-0.123982 15:-0.177571 16:-0.359418 17:-0.396518 18:-0.47679 19:-0.795395 20:-0.687636 21:-0.0312698 22:-0.262291 
0.29672507397147441 1:-0.484488 2:0.180474 3:-0.300187 4:-0.144759 5:-0.495226 6:-0.000946324 7:-0.282485 8:-0.25223 9:-0.658947 10:-0.261684 11:-0.584573 12:-0.523524 13:-0.193846 14:-0.591349 15:-0.111729 16:0.0833194 17:-0.265161 18:-0.192709 19:0.0977052 20:-0.437476 21:-0.0464818 22:-0.0172434 
0.5 1:0.0524378 2:0.0499825 3:-0.286565 4:-0.631235 5:-0.648943 6:-0.0736817 7:0.321327 8:-0.761775 9:-0.543701 10:-0.392106 11:-0.579785 12:-0.174192 13:-0.380444 14:-0.497798 15:0.0239998 16:0.216813 17:0.161794 18:-0.395083 19:-0.237208 20:-0.0404989 21:0.56817 22:-0.334924 
0.5 1:-0.232673 2:0.157762 3:-0.361048 4:-0.24521 5:-0.315469 6:-0.422792 7:-0.0879256 8:-0.0695582 9:-0.18663 10:-0.142721 11:-0.236506 12:-0.255477 13:0.39274 14:-0.559503 15:-0.19496 16:0.0319501 17:0.333784 18:-0.118717 19:-0.143169 20:-0.26728 21:-0.201285 22:0.0842498 
0.5 1:-0.192115 2:0.00668257 3:-0.411217 4:-0.676375 5:-0.33171 6:-0.0108104 7:0.459306 8:-0.730082 9:-0.383349 10:0.225363 11:-0.449555 12:-0.264263 13:-0.084391 14:-0.188525 15:-0.106053 16:0.332009 17:-0.0399914 18:-0.168983 19:-0.13426 20:-0.0776249 21:0.0561727 22:0.129448 
0.5 1:-0.107635 2:-0.299469 3:-0.198761 4:-0.449107 5:-0.0459623 6:-0.155701 7:0.130891 8:-0.232549 9:0.0907759 10:0.743449 11:-0.754494 12:-0.304322 13:0.608103 14:-0.238981 15:0.258093 16:-0.162947 17:-0.513705 18:0.0293664 19:-0.103274 20:-0.565555 21:-0.420107 22:-0.232471 
0.42730407326052333 1:-0.872825 2:0.327859 3:-0.0124551 4:0.540067 5:-0.80691 6:-0.433245 7:-0.595568 8:-0.228452 9:-0.585032 10:-0.672681 11:0.232644 12:-0.782139 13:0.371622 14:-0.849285 15:0.259828 16:0.490582 17:-0.103884 18:0.409056 19:0.0739417 20:0.0940622 21:-0.0260705 22:-0.160705 
0.5 1:-0.269165 2:0.0129227 3:-0.312233 4:-0.433908 5:-0.376224 6:-0.178525 7:0.532586 8:-0.207156 9:-0.27562 10:0.141825 11:-0.180553 12:-0.290915 13:0.186985 14:-0.434971 15:0.0801392 16:0.0634492 17:0.352643 18:-0.239911 19:-0.118235 20:-0.238491 21:0.14786 22:-0.0262346 
0.5 1:-0.471836 2:-0.336403 3:-0.32762 4:-0.335455 5:0.10711 6:-0.495149 7:0.0729999 8:-0.531721 9:-0.674174 10:-0.139393 11:-0.2421 12:-0.554594 13:-0.414814 14:-0.0893688 15:-0.30322 16:-0.160708 17:-0.433186 18:-0.524709 19:-0.108945 20:-0.646507 21:-0.224435 22:-0.13904 
0.5 1:-0.0310246 2:1 3:-0.316512 4:-0.792073 5:-0.68539 6:0.43374 7:-0.0613952 8:0.381829 9:-0.575817 10:-0.111231 11:-0.350173 12:0.080411 13:-0.209879 14:-0.365281 15:0.286305 16:1 17:-0.0967995 18:-0.053497 19:0.246499 20:0.221218 21:0.364066 22:-0.336538 
0.35880006208139403 1:-0.0611429 2:0.0382422 3:0.120819 4:-0.691283 5:-0.547458 6:0.0152774 7:-0.384724 8:-0.722452 9:-0.254247 10:-0.658935 11:0.018957 12:-0.574454 13:-0.595173 14:-0.810492 15:0.224199 16:0.140738 17:-0.135147 18:-0.246036 19:-0.659447 20:-0.581528 21:0.18874 22:-0.374382 
0.5 1:-0.117111 2:0.156291 3:-0.531589 4:-0.114139 5:-0.153845 6:0.176471 7:0.390428 8:-0.57252 9:-0.190504 10:0.49433 11:-0.392926 12:-0.342787 13:0.651623 14:-0.539605 15:0.370216 16:0.417532 17:-0.578744 18:-0.0498841 19:-0.561826 20:-0.353201 21:0.0147785 22:0.0666137 
0.5 1:0.117514 2:0.0320637 3:-0.442588 4:-0.352999 5:-0.441559 6:-0.146289 7:0.367135 8:-0.155758 9:0.0768291 10:0.12792 11:-0.418683 12:0.323559 13:0.378783 14:-0.288372 15:-0.127155 16:0.148874 17:-0.485234 18:-0.30457 19:-0.180913 20:-0.566477 21:0.310173 22:-0.176905 
0.4839334452386892 1:-0.483703 2:0.391055 3:-0.348871 4:-0.275007 5:-0.75829 6:0.00743623 7:-0.176141 8:-0.273766 9:-0.594935 10:-0.385727 11:-0.0311875 12:-0.531033 13:0.247786 14:-0.578671 15:0.340854 16:0.344352 17:-0.131789 18:0.130523 19:-0.371334 20:-0.224026 21:0.164033 22:0.0148353 
0.24928889562985815 1:0.0547511 2:-0.177102 3:0.211422 4:-0.667525 5:-0.600786 6:-0.505389 7:-0.0600221 8:0.365834 9:-0.190896 10:-0.184327 11:-0.267566 12:0.14877 13:0.0403776 14:-0.685558 15:-0.443803 16:-0.333176 17:0.262642 18:-0.0241915 19:0.183444 20:0.284473 21:0.0211742 22:-0.165991 
0.5 1:-0.175999 2:-0.190031 3:-0.202457 4:-0.797999 5:-0.449733 6:-0.27468 7:-0.0503212 8:-0.379187 9:-0.546601 10:0.00206575 11:-0.869348 12:-0.391853 13:-0.266672 14:-0.0314513 15:0.205783 16:0.0443338 17:0.363673 18:-0.248404 19:-0.713448 20:-0.0448115 21:0.679149 22:-0.806815 
0.5 1:-0.324313 2:-0.075384 3:-0.150319 4:0.416061 5:-0.144621 6:0.349507 7:0.292212 8:-0.499544 9:-0.175766 10:0.00135018 11:-0.352397 12:-0.161983 13:0.167125 14:-0.419295 15:-0.201969 16:-0.0848746 17:-0.350451 18:-0.186726 19:0.147516 20:-0.499486 21:-0.0638775 22:0.133363 
0.5 1:-0.677316 2:-0.116819 3:0.940591 4:-0.674677 5:-1 6:-0.210005 7:0.172427 8:-0.272463 9:-0.565678 10:-0.643458 11:-0.156647 12:-0.728849 13:-0.682828 14:-0.768658 15:-0.445058 16:-0.394585 17:-0.41845 18:-0.317208 19:0.178165 20:-0.161057 21:0.234231 22:-0.398559 
0.5 1:0.01979 2:0.0367485 3:-0.323915 4:-0.353757 5:-0.52152 6:-0.458533 7:-0.0988967 8:-0.092586 9:-0.372978 10:0.203184 11:0.0467562 12:0.108981 13:0.285303 14:-0.619052 15:-0.118281 16:0.116651 17:0.194074 18:-0.0457366 19:0.0992225 20:-0.295705 21:-0.0736962 22:-0.0102853 
0.5 1:-0.329933 2:-0.243373 3:-0.105097 4:-0.540942 5:-0.499407 6:-0.346988 7:0.132045 8:-0.0977407 9:-0.516642 10:-0.0767634 11:-0.400049 12:-0.306389 13:-0.305509 14:0.213811 15:-0.447785 16:-0.321903 17:-0.196865 18:-0.363323 19:-0.248511 20:-0.228917 21:-0.0945715 22:-0.254961 
0.088638337516917937 1:-0.0565469 2:-0.555869 3:0.317603 4:-0.868479 5:-0.494424 6:-0.601732 7:0.0609689 8:-0.538859 9:-0.327111 10:0.26741 11:-0.511804 12:-0.211147 13:-0.00850227 14:-0.571317 15:-0.144374 16:-0.48054 17:-0.583633 18:-0.793633 19:-0.886419 20:-0.714937 21:-0.0487919 22:-0.399736 
0.053823413221552083 1:-0.561915 2:0.459112 3:-0.265002 4:-0.341082 5:-0.708544 6:-0.493176 7:-0.637786 8:-0.2069 9:-0.627387 10:-0.647495 11:0.427988 12:-0.759676 13:-0.193378 14:-0.705573 15:0.00368538 16:0.310851 17:-0.552458 18:0.127997 19:-0.0994782 20:-0.167309 21:0.251502 22:0.0282684 
0.5 1:0.199804 2:0.125228 3:-0.760783 4:0.371997 5:-0.459692 6:0.051987 7:0.0845978 8:-0.0224514 9:0.179615 10:0.750268 11:-0.541509 12:-0.106434 13:0.7856 14:0.0432035 15:0.20146 16:0.142403 17:-0.652361 18:-0.437453 19:-0.563202 20:-0.4459 21:0.481147 22:-0.236574 
0.5 1:-0.0934223 2:0.0748576 3:-0.569288 4:-0.262678 5:-0.43229 6:0.0908333 7:0.313605 8:-0.0608966 9:-0.207389 10:0.103828 11:-0.592991 12:-0.293249 13:0.833768 14:-0.086941 15:-0.185141 16:0.400771 17:0.467004 18:-0.56186 19:-0.225198 20:-0.630569 21:0.305293 22:-0.145112 
0.5 1:-0.738046 2:0.138701 3:-0.506613 4:0.430926 5:-0.594416 6:-0.231627 7:-0.165907 8:-0.508496 9:-0.641284 10:-0.545541 11:0.377438 12:-0.386575 13:0.539755 14:-0.756939 15:0.547902 16:0.257407 17:-0.0174181 18:0.083338 19:-0.225277 20:-0.498475 21:-0.342499 22:0.263073 
0.441732328620557 1:0.0959445 2:-0.15456 3:-0.0197412 4:-0.444829 5:-0.476219 6:-0.659156 7:-0.0534051 8:0.563049 9:-0.0625457 10:-0.101956 11:-0.554482 12:0.121344 13:0.213237 14:-0.507914 15:-0.0470631 16:-0.129968 17:-0.291804 18:-0.412544 19:-0.574987 20:0.211139 21:-0.0479525 22:-0.380033 
0.5 1:-0.048852 2:0.759436 3:-0.642509 4:-0.71835 5:-0.725894 6:0.147663 7:-0.353994 8:-0.340422 9:-0.312873 10:-0.617115 11:-0.281734 12:0.221372 13:0.231473 14:-0.621602 15:0.499615 16:0.485352 17:-0.417741 18:-0.113551 19:0.168164 20:-0.00678142 21:0.775813 22:-0.236627 
0.5 1:-0.367071 2:-0.0696362 3:0.0112129 4:-0.272311 5:-0.48126 6:0.259 7:0.229901 8:-0.0219984 9:-0.309183 10:0.0701703 11:-0.182174 12:-0.0835071 13:0.180576 14:-0.479072 15:0.142392 16:-0.0670101 17:0.0881729 18:-0.119325 19:0.111033 20:-0.623961 21:-0.0891046 22:0.131883 
0.5 1:-0.126632 2:-0.420223 3:0.412328 4:-0.322012 5:-0.532596 6:-0.513723 7:-0.191558 8:-0.563626 9:0.261217 10:-0.776476 11:0.633028 12:-0.689798 13:-0.981321 14:-0.825659 15:-0.169487 16:-0.346595 17:0.555248 18:0.127551 19:0.0859758 20:-0.545958 21:0.755194 22:-0.876329 
0.5 1:-0.128923 2:-0.121613 3:-0.0922089 4:-0.373899 5:-0.334858 6:-0.322089 7:0.073392 8:-0.481938 9:-0.523549 10:-0.0244843 11:-0.505158 12:0.0547204 13:0.295084 14:-0.378193 15:-0.10222 16:-0.109598 17:-0.454105 18:-0.150348 19:0.0479508 20:-0.733536 21:0.0644853 22:0.108209 
0.5 1:-0.181214 2:-0.0304654 3:-0.172407 4:-0.359103 5:-0.413515 6:-0.638747 7:-0.108248 8:-0.617653 9:-0.385447 10:-0.0776316 11:-0.276212 12:-0.0469297 13:0.0153091 14:-0.624864 15:-0.04755 16:-0.042254 17:0.0260869 18:0.00326767 19:-0.164757 20:-0.652973 21:-0.364073 22:0.0336987 
0.5 1:-0.177132 2:-0.220304 3:-0.317682 4:-0.645107 5:-0.472454 6:-0.272266 7:0.428108 8:-0.460728 9:-0.407494 10:0.117059 11:-0.480631 12:-0.364816 13:-0.391537 14:-0.298327 15:-0.260098 16:0.106873 17:-0.166977 18:-0.30397 19:-0.373881 20:-0.176139 21:-0.00350728 22:-0.182417 
-0.12589557317761801 1:-0.496046 2:-0.0132796 3:-0.514439 4:-0.16406 5:-0.278378 6:0.385239 7:0.370325 8:-0.593994 9:-0.163625 10:0.00999944 11:0.663468 12:-0.542805 13:0.776911 14:-0.452471 15:0.302307 16:-0.245788 17:-0.477543 18:-0.0277679 19:-0.55829 20:-0.3454 21:-0.312055 22:0.171169 
-0.25634029323359903 1:-0.363713 2:-0.0943531 3:0.0819176 4:-0.0768958 5:-0.363938 6:0.382939 7:0.0888466 8:-0.849327 9:-0.233606 10:-0.250782 11:0.05326 12:-0.539979 13:-0.118465 14:-0.0610837 15:-0.259427 16:0.0905593 17:-0.320992 18:-0.0784772 19:1 20:0.107449 21:0.790217 22:0.118382 
-0.5 1:-0.0877064 2:-0.0620831 3:-0.350801 4:-0.235912 5:-0.506013 6:0.376531 7:0.0181164 8:1 9:-0.179964 10:-0.308547 11:-0.458335 12:-0.00136146 13:-0.485483 14:-0.383677 15:-0.179843 16:-0.28539 17:0.368757 18:-0.185011 19:-0.323623 20:1 21:0.0202896 22:-0.530008 
-0.5 1:-0.329933 2:-0.243373 3:-0.105097 4:-0.540942 5:-0.499407 6:-0.346988 7:0.132045 8:-0.0977407 9:-0.516642 10:-0.0767634 11:-0.400049 12:-0.306389 13:-0.305509 14:0.213811 15:-0.447785 16:-0.321903 17:-0.196865 18:-0.363323 19:-0.248511 20:-0.228917 21:-0.0945715 22:-0.254961 
-0.5 1:-0.547399 2:-0.138163 3:0.299783 4:-0.171634 5:-0.736882 6:0.481159 7:0.384934 8:-0.651667 9:-0.361817 10:-0.319432 11:-0.11972 12:-0.330167 13:0.243987 14:-0.607953 15:0.122224 16:-0.117335 17:-0.0263066 18:0.206555 19:0.661637 20:-0.513525 21:-0.0644991 22:0.134798 
-0.5 1:-0.175962 2:-0.133214 3:-0.293167 4:-0.217522 5:-0.472207 6:-0.204644 7:0.400053 8:-0.209267 9:-0.502638 10:-0.173258 11:-0.247638 12:0.199248 13:0.201155 14:-0.456838 15:0.168114 16:-0.0721152 17:-0.0229222 18:-0.276262 19:-0.0451599 20:-0.205267 21:0.0403539 22:0.00350935 
-0.5 1:-0.335991 2:0.0983475 3:-0.331903 4:0.416287 5:-0.470796 6:0.1238 7:0.392158 8:-0.10898 9:-0.44942 10:-0.178605 11:0.0879877 12:-0.129342 13:0.268142 14:-0.571203 15:0.135409 16:-0.0359311 17:-0.212689 18:0.0225711 19:-0.0404213 20:0.168476 21:0.26536 22:-0.0890868 
-0.5 1:-0.22302 2:-0.418725 3:0.377604 4:-0.265365 5:-0.788736 6:0.438384 7:-0.149099 8:-0.897985 9:-0.145101 10:-0.633323 11:-0.170504 12:-0.454354 13:-0.468395 14:-0.192458 15:-0.594733 16:-0.315821 17:-0.374315 18:-0.340488 19:0.52199 20:-0.332769 21:0.582805 22:-0.142761 
-0.5 1:-0.071605 2:0.123991 3:-0.335956 4:-0.214553 5:-0.445132 6:-0.25865 7:0.397815 8:-0.175137 9:-0.276051 10:0.190716 11:-0.482796 12:0.00395506 13:0.420075 14:-0.273703 15:0.17014 16:0.571009 17:0.127534 18:0.0588577 19:0.151966 20:-0.0705533 21:0.346696 22:0.079548 
-0.36849963106694988 1:-0.224543 2:-0.104255 3:-0.348486 4:-0.246545 5:-0.257266 6:-0.209914 7:0.459707 8:-0.635193 9:-0.35436 10:0.360072 11:0.873845 12:-0.292911 13:0.37118 14:-0.593115 15:0.342242 16:0.312593 17:-0.626841 18:0.053769 19:0.294089 20:-0.0833025 21:0.266455 22:0.0269929 
-0.5 1:-0.44648 2:-0.0747253 3:-0.0135855 4:0.00233337 5:-0.686025 6:0.388273 7:-0.188371 8:-0.74605 9:-0.240673 10:-0.635377 11:0.375864 12:-0.72048 13:-0.0146383 14:-0.76557 15:0.392032 16:0.229585 17:0.297925 18:-0.107701 19:-0.198341 20:0.139882 21:0.311114 22:-0.27716 
-0.5 1:0.0295567 2:0.0418012 3:-0.16514 4:0.168363 5:-0.325082 6:0.595559 7:0.627327 8:-0.526347 9:0.0230085 10:0.1893 11:-0.567308 12:0.261034 13:0.29681 14:-0.245052 15:0.464159 16:0.717364 17:-0.792404 18:0.126229 19:-0.324686 20:0.0714322 21:-0.14696 22:0.134088 
-0.5 1:-0.565076 2:-0.419537 3:-0.293378 4:-0.685643 5:1 6:-0.470496 7:-0.0698007 8:-0.215886 9:0.248281 10:0.511271 11:-0.0744456 12:-0.766011 13:0.0944878 14:0.0872195 15:0.0151544 16:-0.638801 17:-0.60179 18:-0.246848 19:0.404546 20:-0.851105 21:-1 22:1 
-0.5 1:-0.105654 2:0.00772041 3:-0.793038 4:0.227785 5:0.232912 6:-0.283102 7:0.429212 8:-0.59289 9:-0.0154671 10:0.866008 11:-0.727017 12:-0.392492 13:-0.0423227 14:-0.0920618 15:-0.0665869 16:0.250904 17:-0.522471 18:-0.605638 19:-0.586033 20:0.101772 21:0.540845 22:-0.0378712 
-0.5 1:-0.0262639 2:0.15021 3:-0.344079 4:-0.930189 5:-0.0413485 6:0.147914 7:0.125501 8:-0.392404 9:-0.518633 10:-0.44899 11:-0.308402 12:-0.241024 13:0.00616814 14:-0.428993 15:-0.0243337 16:0.173735 17:0.18606 18:-0.399987 19:-0.613321 20:-0.450439 21:0.442502 22:-0.202451 
-0.5 1:-0.522453 2:0.26181 3:-0.0384218 4:-0.23882 5:-0.822657 6:1 7:0.0552378 8:-0.638618 9:-0.427434 10:-0.639208 11:0.447221 12:-0.303807 13:0.151572 14:-0.48984 15:-0.411707 16:0.535089 17:0.450191 18:-0.0103578 19:0.0682915 20:-0.741332 21:-0.279331 22:0.615666 
-0.5 1:-0.262389 2:-0.408052 3:-0.654609 4:-0.681371 5:-0.0945126 6:-0.557452 7:-0.126407 8:-0.685836 9:-0.259115 10:0.110384 11:-0.902582 12:-0.435265 13:-0.142853 14:-0.499251 15:-0.174672 16:-0.401911 17:-0.690833 18:-0.670611 19:-0.783725 20:-0.19871 21:-0.487254 22:-0.569125 
-0.2820092979886441 1:-0.118722 2:0.0439737 3:-0.994859 4:-0.802102 5:-0.243477 6:0.282087 7:0.790615 8:0.126385 9:-0.0757333 10:0.501438 11:-0.167845 12:0.108587 13:0.318295 14:0.0656636 15:0.532753 16:0.155678 17:-0.922927 18:-0.798712 19:-0.161228 20:-0.0593132 21:-0.186141 22:0.476787 
-0.5 1:-0.163069 2:-0.103496 3:-0.277068 4:-0.314361 5:-0.0960447 6:0.0849356 7:0.394748 8:-0.625364 9:0.0265036 10:0.874074 11:-0.70442 12:-0.20608 13:-0.0301413 14:-0.115899 15:0.513599 16:-0.320667 17:-1 18:0.0349691 19:0.159373 20:-0.743319 21:-0.495293 22:0.0231387 
-0.5 1:-0.25311 2:-0.0280684 3:-0.285536 4:-0.52941 5:-0.511801 6:0.0563166 7:0.199949 8:-0.233471 9:0.027308 10:0.208783 11:-0.434491 12:-0.339732 13:0.406922 14:-0.319765 15:0.357843 16:0.060605 17:-0.231703 18:-0.135502 19:0.063163 20:-0.173066 21:0.0163749 22:-0.0421983 
-0.11480470556464101 1:-0.239453 2:0.165152 3:-0.295687 4:-0.384795 5:-0.465397 6:-0.117574 7:0.563081 8:-0.019281 9:-0.10387 10:-0.157465 11:0.0441597 12:-0.382254 13:-0.018298 14:-0.287251 15:-0.0968249 16:0.698084 17:0.130615 18:-0.211727 19:-0.12362 20:-0.2418 21:0.389616 22:0.103152 
-0.48199336768163153 1:-0.306389 2:-0.206965 3:-0.0700359 4:0.126874 5:-0.543033 6:0.192088 7:0.217384 8:-0.495432 9:-0.469921 10:-0.0454245 11:0.202636 12:-0.381915 13:0.255663 14:-0.447928 15:-0.15671 16:-0.0529264 17:0.154136 18:-0.0510156 19:0.339888 20:-0.544963 21:-0.0449976 22:-0.161018 
-0.5 1:-0.762174 2:0.514599 3:0.140817 4:-0.337449 5:-0.444273 6:-0.509837 7:-0.896714 8:-0.743633 9:-0.216042 10:-1 11:-0.1025 12:-0.0969229 13:0.18346 14:-0.680859 15:-0.277871 16:-0.00798314 17:-0.139961 18:-0.0342279 19:-0.064159 20:0.0257273 21:0.182235 22:-0.326289 
-0.5 1:-0.112913 2:-0.231857 3:-0.773878 4:-0.108587 5:0.0082765 6:-0.644858 7:0.183353 8:-0.46659 9:-0.601199 10:-0.252043 11:0.294838 12:-0.113921 13:-0.13977 14:-0.890555 15:-0.404729 16:-0.17015 17:-0.2203 18:-0.743414 19:-0.199149 20:-0.253795 21:-0.0763093 22:0.214301 
-0.37812428403120568 1:-0.56198 2:-0.123979 3:-0.212691 4:0.876803 5:-0.0912911 6:-0.32373 7:-0.179276 8:-0.34409 9:-0.468399 10:-0.108906 11:0.315194 12:-0.554829 13:0.40752 14:-0.3062 15:0.405325 16:-0.296322 17:-0.118858 18:-0.331982 19:-0.600531 20:-0.254727 21:-0.45573 22:-0.00536225 
-0.5 1:-0.0980246 2:-0.0973011 3:-0.375641 4:-0.269666 5:-0.403594 6:-0.424457 7:0.0270372 8:-0.546394 9:0.388599 10:0.183468 11:0.153701 12:-0.270329 13:0.500698 14:-0.239837 15:0.34677 16:0.161107 17:-0.732447 18:-0.235585 19:-0.550016 20:-0.496821 21:-0.219565 22:0.137568 
-0.5 1:-0.35828 2:-0.136431 3:-0.104035 4:-0.0147105 5:-0.508256 6:-0.0926343 7:0.0365292 8:0.0604778 9:-0.503741 10:-0.0723985 11:0.00988516 12:-0.114337 13:1 14:-0.476273 15:0.0535208 16:-0.40223 17:-0.00764646 18:0.164845 19:0.0171435 20:-0.368335 21:-0.373492 22:0.449768 
-0.5 1:-0.203388 2:-0.400405 3:-0.169349 4:-0.267275 5:-0.576175 6:-0.0472967 7:0.41952 8:-0.266975 9:0.00683819 10:0.334418 11:-0.51393 12:-0.265659 13:0.483632 14:-0.0341173 15:0.0410774 16:-0.445328 17:-0.469341 18:-0.597375 19:-0.262551 20:-0.714716 21:-0.0404213 22:-0.143673 
-0.5 1:-0.440268 2:-0.380496 3:-0.26824 4:0.138188 5:-0.610488 6:-0.265828 7:0.151447 8:-0.796709 9:-0.474768 10:0.155256 11:-0.0869174 12:-0.414529 13:-0.266993 14:-0.229075 15:-0.120867 16:-0.305559 17:-0.190508 18:-0.394505 19:-0.268324 20:-0.820878 21:-0.48231 22:0.238583 
-0.5 1:-0.205088 2:0.714943 3:-0.655901 4:-0.671243 5:-0.619165 6:0.501405 7:-0.183234 8:-0.55621 9:-0.615991 10:-0.526351 11:-0.158656 12:-0.0093867 13:0.1311 14:-0.264645 15:0.365577 16:0.259476 17:-0.295449 18:-0.0499831 19:-0.603377 20:-0.207184 21:0.864368 22:-0.0836287 
-0.5 1:-0.345691 2:-0.33701 3:0.070151 4:-0.171072 5:-0.37297 6:-0.416883 7:0.0176344 8:-0.454901 9:-0.127442 10:0.114002 11:-0.230321 12:-0.52538 13:0.0583902 14:-0.417228 15:-0.0607822 16:-0.464317 17:0.596077 18:-0.166086 19:-0.223165 20:-0.671977 21:-0.419844 22:-0.126613 
-0.26884258497503782 1:-0.248565 2:-0.262305 3:-0.766695 4:-0.0992336 5:0.173132 6:-0.431 7:0.994231 8:-0.75907 9:-0.342002 10:0.481708 11:-0.00721364 12:-0.370921 13:0.207751 14:-0.368753 15:-0.203881 16:-0.711818 17:-0.380555 18:-0.757952 19:0.0894296 20:-1 21:-0.442789 22:0.79185 
-0.18803297806666727 1:-0.491823 2:-0.205889 3:-0.403747 4:-0.27692 5:0.319451 6:-0.206214 7:-0.0328885 8:-0.494424 9:-0.357232 10:-0.396994 11:0.121119 12:-0.632616 13:-0.15143 14:-0.0323924 15:0.0720654 16:-0.402086 17:-0.388942 18:-0.295837 19:-0.198422 20:-0.930218 21:-0.629243 22:0.68981 
-0.5 1:-0.0128113 2:-0.291395 3:-0.313568 4:-0.497241 5:-0.58421 6:-0.470784 7:0.201956 8:-0.59433 9:-0.628096 10:-0.152748 11:-0.239157 12:-0.107598 13:0.00268158 14:-0.408253 15:-0.303098 16:0.00221589 17:-0.472153 18:-0.51169 19:-0.5205 20:-0.500688 21:0.0135786 22:-0.287595 
-0.5 1:-0.122151 2:-0.0162784 3:-0.126833 4:0.0194922 5:-0.407046 6:-0.262653 7:0.165403 8:-0.262421 9:-0.48715 10:0.154326 11:-0.303742 12:-0.299091 13:0.270266 14:-0.46474 15:-0.0426214 16:0.244772 17:-0.106319 18:0.251139 19:-0.300302 20:-0.616099 21:0.26268 22:0.448739 
-0.5 1:-0.45358 2:0.478379 3:-0.575658 4:0.123474 5:-0.610729 6:-0.149404 7:0.0305283 8:-0.0746281 9:-0.731529 10:-0.146726 11:0.136633 12:-0.426356 13:0.0292735 14:-0.135893 15:0.392149 16:0.179263 17:-0.569395 18:-0.232139 19:-0.207157 20:-0.5781 21:-0.0514507 22:0.357488 
-0.5 1:-0.700145 2:-0.3924 3:-0.0559722 4:-0.264757 5:-0.718134 6:-0.633529 7:-0.328343 8:-0.852629 9:-0.716671 10:-0.0417909 11:-0.379164 12:-1 13:-0.687818 14:-0.0757246 15:-0.598811 16:-0.356919 17:-0.610477 18:-0.656711 19:-0.223994 20:-0.897556 21:-0.645501 22:-0.460046 
-0.5 1:-0.0398316 2:0.0142234 3:-0.456511 4:-0.426126 5:-0.475061 6:-0.0801265 7:0.392841 8:-0.108084 9:-0.114101 10:0.216432 11:-0.648609 12:-0.0802429 13:0.308772 14:-0.22469 15:0.213437 16:0.126784 17:-0.279949 18:-0.386712 19:-0.452296 20:-0.422252 21:0.401299 22:-0.1632 
-0.5 1:0.153425 2:-0.273123 3:0.246333 4:-0.628051 5:-0.605309 6:-0.816912 7:-0.557248 8:-1 9:-0.460884 10:-0.380854 11:-1 12:-0.454956 13:-0.473329 14:-0.690761 15:-0.21708 16:-0.434064 17:-0.146919 18:0.0140837 19:0.0345337 20:-0.622667 21:-0.265103 22:-0.651238 
-0.5 1:-0.611716 2:-0.164257 3:-0.272145 4:-0.171757 5:-0.363731 6:-0.171978 7:0.194814 8:-0.68415 9:-0.575829 10:0.102494 11:-0.344564 12:-0.553013 13:-0.209151 14:-0.346383 15:0.268005 16:-0.201644 17:-0.492654 18:-0.472139 19:0.0450673 20:-0.737639 21:-0.353646 22:0.440988 
-0.49326907730254366 1:-0.224727 2:-0.0760707 3:-0.0989607 4:0.0420748 5:-0.579678 6:0.204024 7:0.315185 8:-0.206863 9:-0.0587624 10:-0.248682 11:-0.388183 12:-0.0638725 13:0.553886 14:-0.290046 15:0.224457 16:-0.185502 17:0.0188609 18:0.000673985 19:-0.350999 20:-0.52136 21:-0.133264 22:0.241669 
-0.5 1:-0.445203 2:-0.0418455 3:0.00813644 4:0.589175 5:-0.379519 6:-0.304242 7:0.0953405 8:-0.479749 9:-0.206138 10:-0.40049 11:0.149937 12:-0.181126 13:0.254577 14:-0.28504 15:0.428619 16:0.0496203 17:-0.157943 18:0.222651 19:0.26028 20:-0.566975 21:-0.0212603 22:-0.0183209 
-0.5 1:0.106096 2:-0.0114621 3:-0.255937 4:-0.247473 5:-0.577332 6:0.199058 7:-0.112248 8:0.162296 9:-0.435085 10:-0.0288202 11:0.0195932 12:0.150325 13:0.0351555 14:-0.350478 15:-0.15127 16:-0.0164317 17:-0.247724 18:-0.60544 19:-0.553911 20:-0.528963 21:-0.0404383 22:0.276024 
-0.5 1:0.34016 2:-0.0970884 3:-0.295379 4:-0.563568 5:-0.696971 6:-0.03412 7:-0.0850657 8:-0.774102 9:-0.406006 10:-0.20182 11:-0.417138 12:0.146115 13:-0.0618127 14:-0.509241 15:-0.19319 16:-0.00855951 17:-0.169546 18:-0.146522 19:-0.596348 20:0.05624 21:0.404194 22:-0.268138 
-0.5 1:-0.291034 2:-0.242694 3:0.890368 4:-0.547379 5:-0.839301 6:0.496542 7:-0.668967 8:-0.899674 9:-0.431462 10:-0.960328 11:-0.0383411 12:-0.27832 13:-0.22786 14:-0.51975 15:-0.295118 16:-0.390928 17:-0.606781 18:0.176608 19:0.103574 20:-0.178591 21:0.68982 22:-0.017959 
-0.39084440048978103 1:0.145452 2:0.401099 3:-0.437526 4:-0.446749 5:-0.547399 6:-0.090318 7:0.53604 8:-0.691906 9:-0.32428 10:-0.234377 11:-0.164999 12:-0.0511132 13:-0.0497635 14:-0.311103 15:0.0729173 16:0.549651 17:0.173666 18:-0.156714 19:-0.173604 20:-0.334226 21:0.640497 22:-0.0932483 
-0.45233822161390302 1:-0.225662 2:0.0912524 3:-0.363904 4:-0.698645 5:-0.0107874 6:-0.145371 7:0.389604 8:-0.462077 9:-0.35739 10:-0.0622562 11:0.0853887 12:0.142331 13:0.477907 14:-0.503681 15:-0.193796 16:0.253255 17:0.572698 18:0.0069187 19:-0.24343 20:-0.57973 21:0.740724 22:-0.0621076 
-0.13553721867066276 1:-0.249418 2:-0.0878038 3:-0.00177651 4:-0.147144 5:-0.480437 6:0.0977763 7:0.12662 8:-0.599188 9:-0.410268 10:0.0158242 11:-0.0471496 12:-0.216621 13:0.525877 14:-0.350082 15:-0.223262 16:-0.14142 17:-0.263176 18:-0.182896 19:-0.0846092 20:-0.609324 21:0.0478344 22:0.264055 
-0.5 1:0.163667 2:0.032738 3:-0.496068 4:-0.643339 5:-0.405959 6:-0.0294203 7:0.144129 8:-0.153287 9:-0.396448 10:-0.0922027 11:-0.759223 12:0.134055 13:0.25893 14:-0.0953854 15:0.38747 16:-0.0621748 17:-0.31314 18:-0.248024 19:-0.349345 20:-0.171839 21:0.122 22:-0.343522 
-0.5 1:-0.617455 2:0.383861 3:-0.34415 4:0.415417 5:-0.79266 6:-0.0627874 7:-0.270971 8:-0.626456 9:-0.704383 10:-0.48313 11:0.518561 12:-0.297098 13:0.352202 14:-0.578713 15:0.279218 16:0.391858 17:-0.174988 18:0.0460156 19:-0.211087 20:-0.356302 21:0.110244 22:0.376725 
-0.5 1:-0.0794968 2:-0.448684 3:-0.0501839 4:0.0839198 5:-0.44 6:-0.74768 7:-0.181668 8:-0.40825 9:-0.773046 10:0.0471167 11:-0.306626 12:-0.613297 13:-0.982638 14:0.60748 15:-0.33633 16:-0.324619 17:0.039682 18:-0.304628 19:-0.790096 20:-0.536731 21:0.0244792 22:-0.740357 
-0.5 1:-0.0800782 2:-0.0713705 3:-0.448709 4:-0.457095 5:-0.272494 6:0.0773899 7:0.264772 8:-0.0624545 9:-0.203509 10:0.342786 11:-0.203932 12:-0.200324 13:0.175607 14:-0.220222 15:0.125032 16:0.268043 17:-0.254843 18:-0.322023 19:-0.480884 20:-0.28725 21:0.122773 22:-0.00166937 
-0.5 1:0.259225 2:-0.231313 3:-0.408025 4:-0.904549 5:0.00993263 6:-0.0618679 7:-0.37587 8:-0.49258 9:0.147817 10:-0.0499545 11:-0.420678 12:0.419855 13:-0.443337 14:1 15:-0.0854586 16:-0.437027 17:-0.519388 18:-0.0952855 19:-0.708076 20:-0.535291 21:0.0423582 22:0.785662 
-0.5 1:-0.660165 2:-0.0148398 3:-0.209369 4:-0.206516 5:-0.543487 6:-0.66189 7:-0.295504 8:-0.185257 9:-0.156798 10:-0.353153 11:0.71708 12:-0.305548 13:0.283249 14:0.0287805 15:0.404371 16:-0.63036 17:-0.231429 18:-0.306274 19:-0.465465 20:-0.634727 21:-0.304857 22:0.171064 
-0.5 1:0.307039 2:-0.586569 3:0.894562 4:-0.890827 5:-0.808438 6:-0.587709 7:-0.577018 8:-0.33452 9:-0.89129 10:-0.818345 11:-0.765017 12:-0.0638876 13:-0.694097 14:-0.675269 15:-0.393482 16:-0.682531 17:-0.369281 18:-0.768819 19:-0.629338 20:-0.363163 21:-0.489356 22:-0.579677 
-0.5 1:-0.151399 2:-0.0831208 3:-0.411857 4:-0.521007 5:-0.177109 6:0.257578 7:0.481005 8:-0.433012 9:-0.0896286 10:-0.224092 11:-0.451739 12:-0.507525 13:-0.235422 14:-0.0684811 15:0.0865036 16:0.185489 17:-0.23221 18:-0.249714 19:-0.227996 20:-0.326788 21:0.26846 22:-0.213008 
-0.5 1:-0.28703 2:0.248526 3:-0.56086 4:-0.402465 5:-0.520615 6:-0.687659 7:-0.00839482 8:-0.602588 9:-0.326052 10:-0.0333372 11:-0.166963 12:-0.247705 13:0.401744 14:-0.549862 15:0.170993 16:0.165946 17:0.195617 18:-0.0139755 19:-0.222562 20:-0.537473 21:-0.0609388 22:0.178175 
-0.44645541126273297 1:-0.292573 2:-0.431915 3:-0.149946 4:0.510155 5:-0.0846181 6:-0.474776 7:-0.128957 8:-0.115788 9:-0.423842 10:-0.336686 11:0.468243 12:-0.10589 13:-0.163488 14:-0.25183 15:0.066046 16:-0.404326 17:-0.209623 18:-0.169501 19:0.70443 20:-0.840307 21:-0.590926 22:0.330839 
-0.5 1:-1 2:-1 3:0.724509 4:0.0770146 5:-0.573744 6:-1 7:-1 8:-0.935667 9:-0.863651 10:-0.797728 11:-0.45087 12:-0.960083 13:-0.804782 14:0.213928 15:-1 16:-1 17:-0.101853 18:-0.40229 19:-0.361832 20:-0.969266 21:-0.823828 22:-0.414901 
-0.33648458233272599 1:0.0947154 2:0.232492 3:-0.550128 4:-0.661802 5:-0.24074 6:0.241617 7:0.352058 8:-0.406174 9:-0.358876 10:-0.0794865 11:-0.203873 12:-0.0216521 13:0.0162123 14:-0.454308 15:0.0433618 16:0.260262 17:-0.0815252 18:-0.374272 19:-0.172489 20:-0.135535 21:0.557753 22:0.0339172 
-0.5 1:-0.0582311 2:0.163248 3:-0.150378 4:-0.370607 5:-0.669372 6:0.0938675 7:0.124506 8:-0.455634 9:-0.246944 10:-0.20655 11:-0.336956 12:-0.135225 13:-0.154064 14:-0.427316 15:-0.306086 16:0.198912 17:-0.324778 18:0.276503 19:0.241114 20:-0.0329203 21:1 22:0.0474696 
-0.5 1:-0.389979 2:0.0647184 3:0.1606 4:-0.665158 5:-0.501336 6:0.136001 7:-0.27148 8:-0.179564 9:-0.418867 10:-0.565848 11:-0.107277 12:-0.275885 13:-0.206893 14:-0.682653 15:-0.229148 16:0.0297761 17:0.198656 18:0.124835 19:0.635443 20:-0.445587 21:0.475731 22:-0.111374 
-0.19515936927415986 1:0.0749328 2:-0.0043591 3:-0.506358 4:0.136293 5:0.651617 6:-0.156826 7:-0.204726 8:0.277305 9:-0.249329 10:-0.431614 11:0.201228 12:0.181732 13:-0.228766 14:0.195136 15:-0.117027 16:0.224208 17:0.0681318 18:-0.341696 19:-0.818682 20:-0.241442 21:0.273933 22:0.165812 
-0.31897609716706538 1:-0.109829 2:0.0642906 3:-0.512603 4:-0.765188 5:-0.257644 6:0.15423 7:0.201863 8:-0.438582 9:-0.193124 10:0.493737 11:-0.283705 12:-0.419741 13:0.336505 14:-0.0174336 15:0.371823 16:0.22262 17:0.197348 18:-0.313585 19:-0.499917 20:-0.441738 21:0.073327 22:0.176025 
-0.5 1:-0.230725 2:-0.541527 3:0.450486 4:-0.322679 5:-0.610402 6:-0.162936 7:-0.361608 8:-0.504868 9:0.15287 10:-0.298513 11:-0.719988 12:0.0150343 13:-0.109238 14:-0.543478 15:-0.130087 16:-0.514067 17:1 18:0.0748968 19:0.363881 20:-0.852538 21:-0.739319 22:-0.0137485 
-0.5 1:0.831955 2:-0.0980199 3:-0.476199 4:-0.871222 5:-0.692518 6:0.0553897 7:-0.307843 8:0.140302 9:-0.723173 10:-0.138334 11:-0.215757 12:-0.149077 13:-0.767435 14:-0.353338 15:-0.041168 16:-0.45585 17:-0.727278 18:-0.114284 19:-0.299256 20:0.219006 21:0.300469 22:-0.751014 
-0.5 1:-0.0216854 2:-0.0854927 3:-0.204303 4:-0.268302 5:-0.444508 6:-0.213879 7:0.323979 8:-0.450568 9:-0.513134 10:-0.127598 11:-0.358445 12:-0.130963 13:0.0106061 14:-0.312296 15:-0.00142535 16:-0.00931179 17:0.289108 18:-0.226261 19:-0.14958 20:-0.0286097 21:0.17681 22:-0.0235498 
-0.25561250969099936 1:-0.542833 2:0.319848 3:-0.44395 4:0.00591123 5:-0.789032 6:0.304948 7:0.283055 8:-0.616099 9:-0.743855 10:0.177551 11:-0.131499 12:-0.612822 13:-0.0978879 14:-0.174787 15:0.281384 16:0.162944 17:-0.6973 18:-0.436447 19:0.287542 20:-0.476681 21:0.261683 22:-0.0748824 
-0.34886915167970073 1:0.299137 2:0.116153 3:-0.44759 4:-0.238263 5:-0.272713 6:0.234503 7:0.428144 8:-0.662 9:-0.114363 10:-0.149878 11:-0.141056 12:0.346372 13:-0.29767 14:-0.465449 15:-0.416043 16:0.443998 17:0.538454 18:-0.188306 19:0.346783 20:-0.123725 21:0.557284 22:0.110608 
-0.12587869934178278 1:-0.234604 2:-0.0948852 3:-0.0933708 4:0.0799718 5:-0.349396 6:-0.194299 7:0.57117 8:-0.602827 9:-0.190318 10:0.231662 11:-0.136552 12:-0.127941 13:0.67965 14:-0.381057 15:0.532619 16:-0.00873302 17:-0.560125 18:0.50503 19:0.0710084 20:-0.239831 21:-0.189604 22:0.115621 
-0.5 1:0.315615 2:0.0665112 3:-0.457158 4:-0.60973 5:-0.281135 6:0.076245 7:-0.116508 8:-0.0410919 9:-0.0908622 10:-0.250376 11:-0.315984 12:0.477288 13:0.689528 14:-0.250743 15:-0.089749 16:-0.0643307 17:-0.404799 18:-0.541503 19:-0.116476 20:-0.499233 21:0.627521 22:0.167966 
-0.10698151825332221 1:-0.285042 2:-0.127848 3:-0.334388 4:0.651861 5:-0.119136 6:-0.853772 7:0.395167 8:-0.477968 9:-0.482348 10:-0.138473 11:0.382554 12:-0.192243 13:0.170856 14:-0.97353 15:-0.295848 16:-0.240888 17:0.14597 18:-0.495955 19:0.311222 20:-0.918698 21:-0.194042 22:0.625856 
-0.48331530825616614 1:-0.128374 2:-0.0780038 3:-0.217622 4:-0.0301406 5:0.232479 6:-0.573852 7:-0.305632 8:-0.745292 9:-0.430205 10:-0.417915 11:-0.176338 12:0.0758595 13:0.464606 14:0.43787 15:-0.134901 16:-0.445705 17:-0.13167 18:0.17451 19:-0.283248 20:-0.459801 21:-0.0681086 22:0.0929167 
-0.5 1:0.187192 2:0.0277517 3:-0.379486 4:-0.646557 5:-0.24777 6:-0.164009 7:0.265251 8:0.448874 9:0.0489295 10:0.13611 11:-0.469291 12:0.328934 13:0.450682 14:0.0437731 15:0.0652815 16:0.0724554 17:0.143429 18:-0.127578 19:-0.605086 20:-0.505049 21:0.239297 22:-0.0530296 
-0.48039361883809317 1:-0.107927 2:-0.0271207 3:-0.397746 4:-0.313477 5:-0.19986 6:0.000163592 7:0.111607 8:-0.504697 9:-0.18781 10:0.0411137 11:0.0152288 12:-0.330346 13:0.17025 14:-0.24497 15:0.00915005 16:0.140166 17:-0.0292561 18:-0.42588 19:-0.135064 20:-0.524033 21:0.284663 22:-0.061278 
-0.5 1:-0.389605 2:-0.085261 3:-0.0349539 4:-0.559113 5:-0.634091 6:-0.333424 7:-0.445028 8:0.194841 9:0.109888 10:-0.689658 11:-0.712355 12:-0.478536 13:-0.409432 14:-0.209026 15:0.348005 16:-0.383442 17:-0.215056 18:-0.223289 19:0.582196 20:-0.455164 21:-0.259189 22:0.244275 
-0.49320307217702231 1:-0.490719 2:-0.106699 3:-0.109519 4:-0.119681 5:-0.803499 6:0.0553131 7:0.626745 8:-0.286564 9:-0.43026 10:-0.0344625 11:0.585686 12:-0.169454 13:0.33047 14:-0.727915 15:0.0464269 16:-0.327767 17:-0.313178 18:-0.188047 19:0.600063 20:-0.447283 21:-0.0390821 22:0.0613077 
-0.5 1:-0.403954 2:-0.128755 3:-0.231305 4:-0.387123 5:-0.444716 6:-0.326302 7:0.207833 8:-0.578954 9:-0.0307403 10:0.185558 11:-0.456812 12:-0.34197 13:0.213949 14:0.0262224 15:-0.0763558 16:-0.0043454 17:-0.453985 18:-0.295168 19:0.0128811 20:-0.694488 21:0.0876748 22:-0.213891 
-0.19856333947660953 1:-0.340142 2:-0.441682 3:-0.456468 4:0.0894002 5:-0.321543 6:-0.892394 7:0.241743 8:-0.271606 9:-0.371258 10:-0.0475881 11:0.368292 12:-0.308566 13:0.521773 14:-0.651117 15:0.211205 16:-0.546772 17:-0.0555427 18:-0.203688 19:-0.208407 20:-0.470784 21:-0.622298 22:0.220846 
-0.44868209957934813 1:-0.216117 2:0.108272 3:-0.344339 4:-0.432061 5:-0.503836 6:-0.220031 7:0.705807 8:-0.292163 9:0.00487688 10:-0.130298 11:-0.35346 12:-0.250834 13:-0.0249851 14:-0.0734839 15:0.0495508 16:0.400421 17:-0.0560074 18:-0.315724 19:-0.0425757 20:-0.581739 21:0.2457 22:-0.0852659 
-0.5 1:-0.00749899 2:0.285236 3:-0.579274 4:-0.65732 5:-0.434176 6:-0.0265323 7:-0.115384 8:-0.289293 9:-0.176103 10:0.0503048 11:-0.0274929 12:-0.0536236 13:0.181535 14:-0.462028 15:-0.0795664 16:0.450066 17:0.295174 18:-0.290561 19:0.122515 20:-0.303114 21:0.484564 22:-0.0377708 
-0.5 1:-0.104605 2:-0.0237966 3:-0.165948 4:-0.522037 5:-0.244782 6:0.171819 7:0.0817918 8:-0.343235 9:-0.123631 10:-0.144454 11:-0.289906 12:-0.28777 13:0.0301539 14:-0.26308 15:0.0355706 16:0.0339642 17:0.0475652 18:0.207371 19:-0.290104 20:-0.665491 21:-0.0980002 22:0.228572 
-0.5 1:-0.452912 2:0.197453 3:-0.276388 4:0.434828 5:-0.431096 6:0.0456275 7:-0.1678 8:-0.670906 9:-0.205677 10:-0.0559671 11:0.144717 12:-0.455464 13:0.166652 14:-0.373327 15:-0.0424308 16:0.117789 17:-0.680723 18:0.14847 19:0.0389613 20:-0.6077 21:-0.0266418 22:0.0940605 
-0.5 1:-0.204383 2:-0.457422 3:0.00479756 4:-0.221832 5:-0.0988095 6:-0.137273 7:0.593536 8:0.0178262 9:0.262371 10:0.78556 11:-0.686692 12:-0.173888 13:0.37568 14:-0.126535 15:0.108629 16:-0.518998 17:-0.907971 18:-0.208095 19:-0.071788 20:-0.78339 21:-0.415799 22:-0.113546 
-0.2859506180450293 1:-0.535748 2:-0.0276933 3:-0.00368246 4:0.33375 5:-0.461083 6:0.229309 7:0.371461 8:-0.442824 9:-0.0868829 10:-0.381878 11:0.0981519 12:-0.438324 13:0.154722 14:-0.60439 15:-0.0776755 16:0.00396282 17:-0.214812 18:-0.0395302 19:0.163212 20:-0.431413 21:0.135065 22:0.167397 
-0.5 1:-0.612948 2:-0.501249 3:-0.264072 4:-0.0972871 5:-0.517359 6:-0.385009 7:0.0289788 8:-0.45872 9:0.124799 10:0.25237 11:-0.409626 12:-0.657221 13:-0.0315416 14:-0.0495101 15:-0.0461458 16:-0.709289 17:-0.113484 18:-0.51171 19:-0.542575 20:-0.943761 21:-0.702546 22:0.458136 
-0.5 1:-0.180697 2:0.151293 3:-0.564022 4:0.217898 5:-0.469251 6:-0.192667 7:0.367974 8:-0.0262929 9:-0.17838 10:-0.202332 11:-0.230799 12:-0.246004 13:0.295056 14:-0.71062 15:0.104057 16:-0.0689207 17:-0.0556354 18:-0.263229 19:0.253988 20:-0.321392 21:0.406058 22:-0.24687 
-0.5 1:-0.035136 2:-0.217775 3:-0.454618 4:-0.800727 5:-0.842704 6:-0.275474 7:0.979335 8:-0.647656 9:-0.504675 10:0.100769 11:-0.382522 12:-0.409556 13:-0.583908 14:0.0232489 15:-0.559794 16:-0.0841152 17:0.0307808 18:-0.683037 19:-0.446455 20:0.00216785 21:0.233567 22:-0.486956 
-0.5 1:-0.202425 2:-0.0653994 3:-0.165933 4:-0.482319 5:-0.180527 6:-0.319156 7:0.00418617 8:-0.512353 9:-0.324011 10:0.437086 11:-0.191974 12:-0.352766 13:0.399521 14:-0.228236 15:0.336116 16:-0.186859 17:-0.406116 18:0.346196 19:-0.232043 20:-0.659265 21:-0.241872 22:-0.196437 
-0.5 1:-0.355345 2:0.311027 3:-0.299249 4:-0.348762 5:-0.375937 6:-0.178671 7:-0.0256788 8:-0.466308 9:-0.226509 10:-0.0494596 11:-0.271761 12:-0.28481 13:0.407998 14:-0.36859 15:0.125031 16:0.257821 17:-0.495644 18:0.35005 19:0.0229213 20:-0.418317 21:0.0336436 22:-0.0734857 
-0.5 1:0.0949344 2:0.433511 3:-0.709995 4:-0.452643 5:-0.610835 6:0.284357 7:0.508427 8:-0.27633 9:-0.293761 10:0.249795 11:-0.58642 12:-0.193216 13:-0.127799 14:-0.28304 15:-0.273864 16:0.400697 17:-0.787362 18:-0.472063 19:-0.786985 20:-0.299909 21:0.940436 22:-0.22876 
-0.14410284133586088 1:-0.0525618 2:0.0611351 3:-0.380862 4:-0.119585 5:-0.529794 6:0.489437 7:0.211171 8:-0.476385 9:-0.72543 10:-0.226191 11:0.171606 12:-0.20917 13:-0.112672 14:-0.69008 15:0.3453 16:0.301801 17:-0.00937479 18:-0.43228 19:-0.00881776 20:-0.264382 21:0.884391 22:0.0611194 
-0.5 1:-0.333329 2:-0.163567 3:0.277644 4:-0.166366 5:-0.739821 6:-0.0450846 7:0.817245 8:-0.40843 9:-0.187805 10:0.273587 11:-0.614023 12:-0.443938 13:0.279412 14:-0.260221 15:-0.272783 16:0.107355 17:0.171548 18:0.140617 19:-0.260517 20:-0.654204 21:-0.484398 22:-0.11894 
-0.5 1:-0.289873 2:0.0777451 3:-0.269365 4:-0.68228 5:-0.446772 6:0.193927 7:0.490548 8:0.119724 9:-0.3555 10:-0.114566 11:-0.27706 12:-0.179832 13:0.00873439 14:-0.382232 15:0.150567 16:0.424273 17:-0.146381 18:-0.369583 19:-0.356287 20:-0.299321 21:0.441533 22:-0.0202385 
-0.5 1:-0.604431 2:-0.247544 3:0.295047 4:0.649094 5:-0.431783 6:0.163125 7:0.233884 8:-0.672298 9:-0.0373156 10:-0.10777 11:-0.292979 12:-0.393564 13:0.0112133 14:-0.699853 15:-0.0359706 16:-0.464869 17:-0.869991 18:0.141502 19:0.534324 20:-0.622051 21:-0.270526 22:0.0265445 
-0.5 1:-0.416052 2:-0.20604 3:0.159178 4:0.139576 5:-0.353518 6:-0.410808 7:-0.189725 8:-0.236742 9:-0.704259 10:-0.363762 11:0.0125979 12:-0.735944 13:0.571199 14:0.16393 15:0.568318 16:-0.346263 17:-0.626405 18:0.439231 19:0.179583 20:-0.787639 21:-0.0872865 22:-0.329534 
-0.5 1:-0.339479 2:-0.111397 3:-0.358 4:-0.211809 5:-0.550899 6:-0.32221 7:0.0272967 8:-0.148586 9:-0.185655 10:0.312857 11:-0.0710587 12:-0.172477 13:0.551398 14:-0.375337 15:0.768039 16:-0.172503 17:-0.132591 18:-0.0772748 19:-0.577793 20:-0.462835 21:-0.130148 22:0.367029 
-0.19858697584650117 1:-0.80581 2:-0.35135 3:-0.520825 4:0.134626 5:-0.622078 6:-0.516267 7:0.0878306 8:-0.331946 9:-0.553857 10:0.95244 11:-0.270674 12:-0.585275 13:0.12013 14:0.151329 15:0.0154559 16:-0.523864 17:-0.0689181 18:-0.8885 19:-0.807397 20:-0.936466 21:-0.144914 22:0.987629 
-0.5 1:-0.337971 2:-0.209638 3:-0.275448 4:-0.265849 5:-0.486167 6:-0.229979 7:0.246658 8:-0.216868 9:-0.21262 10:0.203157 11:-0.348253 12:-0.278824 13:-0.132016 14:0.00726684 15:-0.143476 16:-0.11487 17:-0.228407 18:-0.397584 19:-0.16776 20:-0.299526 21:0.127659 22:0.00678525 
-0.43998114206737921 1:-0.482819 2:-0.125562 3:-0.234894 4:0.0307723 5:-0.653194 6:0.0947858 7:0.325203 8:-0.286278 9:-0.532342 10:-0.2246 11:0.213846 12:-0.523891 13:-0.0261165 14:-0.512371 15:0.193364 16:-0.106045 17:-0.279421 18:-0.175719 19:-0.218481 20:-0.777629 21:0.27756 22:0.138945 
-0.5 1:-0.210678 2:-0.227123 3:0.0520856 4:-0.292977 5:-0.771708 6:0.131618 7:0.285882 8:-0.898733 9:-0.327871 10:-0.21614 11:-0.287331 12:-0.214293 13:-0.252851 14:-0.402889 15:-0.248337 16:0.102835 17:0.0742608 18:-0.365681 19:0.0280883 20:-0.573173 21:0.293219 22:-0.284729 
-0.5 1:0.344321 2:0.0104404 3:-0.284363 4:-0.559971 5:-0.427652 6:-0.291709 7:-0.049343 8:-0.32331 9:-0.346705 10:-0.489872 11:-0.351313 12:0.344759 13:-0.197025 14:-0.714458 15:-0.354293 16:-0.13315 17:-0.021965 18:-0.353481 19:-0.206714 20:0.171635 21:0.534105 22:-0.0258321 
-0.5 1:-0.131904 2:-0.00166215 3:-0.514178 4:-0.419905 5:-0.11584 6:-0.41372 7:0.0229884 8:-0.62663 9:0.12023 10:0.763747 11:-0.644388 12:-0.0225229 13:0.429382 14:0.602477 15:-0.350494 16:0.206689 17:-0.278995 18:-0.126859 19:0.0256125 20:-0.619312 21:-0.391218 22:0.585172 
-0.5 1:0.0199788 2:-0.342106 3:-0.193339 4:0.0568492 5:0.428975 6:-0.0928516 7:-0.481464 8:-0.577281 9:-0.513384 10:-0.740757 11:0.867923 12:0.126586 13:-0.385949 14:-0.0404276 15:-0.350535 16:-0.235406 17:-0.147697 18:-0.588562 19:0.297275 20:-0.744763 21:-0.0125174 22:0.0086897 
-0.5 1:0.0933532 2:-0.261475 3:-0.436062 4:-0.55424 5:-0.139587 6:-0.0391687 7:0.531562 8:-0.463105 9:0.170813 10:0.794846 11:-0.650178 12:-0.392509 13:0.440657 14:0.0988917 15:0.158148 16:-0.118292 17:-0.90195 18:-0.231767 19:-0.292937 20:-0.764825 21:-0.159073 22:-0.191055 
-0.22904816207993736 1:-0.673061 2:-0.250435 3:-0.196274 4:1 5:-0.0111592 6:-0.395198 7:0.0083714 8:-0.608297 9:-0.453874 10:0.490415 11:-0.135079 12:-0.796496 13:0.177564 14:-0.180959 15:0.126942 16:0.248535 17:-0.627637 18:-0.414662 19:0.288866 20:-0.772791 21:-0.318868 22:0.14361 
-0.5 1:-0.373936 2:0.367106 3:-0.367936 4:-0.110457 5:-0.629551 6:-0.261042 7:-0.558808 8:-0.320545 9:-0.453288 10:-0.54828 11:0.169311 12:-0.54287 13:-0.30332 14:-0.76314 15:0.204103 16:0.257343 17:-0.20776 18:-0.0831977 19:-0.258031 20:0.0746114 21:0.235375 22:0.0360492 
-0.199765461689593 1:-0.00234073 2:-0.013657 3:-1 4:-0.142669 5:0.238424 6:-0.256088 7:-0.591895 8:-0.384123 9:-0.405467 10:-0.448856 11:0.0558974 12:0.00815123 13:0.329596 14:0.48068 15:0.00503081 16:-0.077838 17:-0.377755 18:-0.628682 19:-0.547908 20:-0.501122 21:0.198322 22:0.0374159 
-0.5 1:0.373989 2:-0.598791 3:0.893178 4:-0.836788 5:-0.813063 6:-0.497893 7:-0.439768 8:-0.659043 9:-0.867514 10:-0.660031 11:-0.768176 12:-0.168919 13:-0.55902 14:-0.712061 15:-0.259518 16:-0.720257 17:-0.253764 18:-0.655261 19:-0.648899 20:-0.399505 21:-0.592296 22:-0.480409 
-0.5 1:0.0899304 2:0.199833 3:-0.53773 4:-0.691444 5:-0.665241 6:0.0829157 7:0.291744 8:-0.151237 9:0.0899321 10:0.530929 11:-0.493743 12:-0.2636 13:0.389825 14:-0.417832 15:-0.0520447 16:0.211131 17:-0.542531 18:-0.543756 19:0.211869 20:0.583942 21:0.102198 22:-0.302141 
-0.5 1:-0.386846 2:-0.155986 3:0.299048 4:-0.354268 5:-0.513243 6:0.150332 7:0.446065 8:-0.206915 9:-0.550523 10:-0.410494 11:-0.0805363 12:-0.126245 13:0.184837 14:-0.533396 15:-0.403869 16:-0.125979 17:-0.559729 18:0.624874 19:0.659994 20:0.206303 21:0.0189045 22:-0.0271613 
-0.5 1:-0.0377526 2:-0.207663 3:-0.595292 4:0.00200352 5:0.195929 6:-0.937912 7:0.194884 8:-0.478546 9:-0.707744 10:-0.0226092 11:-0.269759 12:0.156748 13:0.302414 14:-0.899608 15:0.0653864 16:-0.162225 17:0.614788 18:-0.538775 19:-0.0614226 20:-0.331985 21:-0.166918 22:0.0092652 
-0.5 1:-0.140021 2:-0.0773322 3:-0.120435 4:-0.0649725 5:-0.266168 6:-0.290914 7:0.174547 8:-0.199923 9:-0.597975 10:-0.00973721 11:0.0999828 12:-0.232075 13:-0.00992515 14:-0.51231 15:0.120613 16:-0.00847091 17:-0.28964 18:-0.146719 19:-0.144155 20:-0.445192 21:-0.0332415 22:0.0333244 
