svm_type c_svc
kernel_type rbf
gamma 0.125
nr_class 2
total_sv 214
rho -0.19487211410705987
label 1 0
nr_sv 106 108
SV
0.5 1:-0.0457284 2:0.539888 3:-0.164735 4:-0.000294231 5:0.382919 6:-0.392886 7:-0.324958 8:-0.0617024 9:-0.143458 10:0.0637379 11:-0.229915 12:-0.350778 13:-0.404634 14:-0.406505 15:-0.339948 16:0.0629869 17:-0.401423 18:-0.0480013 19:0.0409081 20:-0.14912 21:-0.474329 22:0.185456 23:-0.752195 24:-0.460723 25:-0.125514 26:-0.503016 27:-0.642569 28:-0.348011 29:-0.0942737 30:-0.0768753 31:-0.272232 32:-0.4518 33:-0.528356 34:-0.566232 35:-0.659536 36:-0.428588 37:-0.322149 
0.5 1:-0.272803 2:-0.0352804 3:0.26979 4:-0.0961487 5:-0.0201477 6:-0.291966 7:-0.150025 8:-0.18378 9:-0.131984 10:-0.268736 11:-0.0759062 12:-0.403504 13:-0.117094 14:0.0572799 15:0.00135848 16:0.0616203 17:-0.220847 18:-0.0611513 19:-0.0455279 20:-0.168867 21:-0.38655 22:0.308629 23:-0.414037 24:-0.321161 25:-0.0137161 26:-0.496958 27:-0.181972 28:-0.33354 29:0.174776 30:-0.123552 31:-0.430332 32:0.357563 33:0.285729 34:-0.448716 35:-0.778626 36:-0.481577 37:-0.202653 
0.5 1:-0.236424 2:-0.150982 3:0.429831 4:-0.172736 5:-0.233592 6:-0.734365 7:0.0583659 8:0.405862 9:0.494353 10:-0.544945 11:0.293389 12:0.179592 13:-0.451987 14:-0.447275 15:-0.227559 16:0.195168 17:0.0806916 18:0.273684 19:-0.580033 20:-0.246037 21:-0.112903 22:-0.00142282 23:-0.143018 24:-0.244285 25:-0.213007 26:-0.589128 27:0.0567715 28:-0.141 29:0.497461 30:0.12726 31:0.272115 32:-0.0386266 33:-0.161818 34:-0.401191 35:-0.47955 36:0.216284 37:-0.0327042 
0.5 1:-0.422218 2:-0.304415 3:0.591534 4:-0.410541 5:-0.332312 6:-0.74211 7:-0.0656047 8:0.484681 9:0.382353 10:-0.509371 11:0.398192 12:0.358465 13:-0.477687 14:-0.756309 15:-0.227793 16:0.611017 17:0.193244 18:0.408575 19:-0.191189 20:-0.35603 21:-0.29889 22:-0.136074 23:0.0216383 24:-0.47211 25:-0.262752 26:-0.567321 27:-0.0233349 28:-0.0681671 29:0.155449 30:0.0258311 31:0.424127 32:-0.222034 33:-0.381404 34:-0.0425861 35:-0.0776866 36:0.256787 37:0.000340355 
0.5 1:-0.231755 2:0.108481 3:0.0838219 4:0.0783581 5:0.345107 6:-0.161673 7:-0.00637902 8:-0.137243 9:-0.141642 10:-0.194605 11:-0.315762 12:-0.366641 13:-0.07311 14:-0.242946 15:-0.139388 16:-0.0494343 17:-0.281419 18:-0.148381 19:-0.369501 20:-0.0614377 21:-0.386985 22:-0.0428358 23:-0.378992 24:0.204238 25:0.686026 26:-0.719685 27:-0.260357 28:-0.29563 29:0.0638128 30:-0.269551 31:-0.372659 32:-0.362549 33:-0.33546 34:-0.162585 35:-0.766433 36:0.0380557 37:-0.377532 
0.5 1:-0.692921 2:-0.302337 3:0.261473 4:-0.36074 5:-0.220509 6:-0.556956 7:-0.2665 8:0.565313 9:0.553678 10:-0.561044 11:0.473159 12:0.200633 13:-0.342706 14:-0.619013 15:-0.126564 16:0.302343 17:0.0661276 18:0.578127 19:-0.362933 20:-0.468364 21:-0.699872 22:-0.0757839 23:-0.622207 24:-0.393083 25:-0.202053 26:-0.171097 27:-0.243743 28:-0.0941087 29:0.429383 30:0.092543 31:0.191066 32:0.243478 33:-0.09219 34:-0.272614 35:-0.52444 36:-0.0799469 37:0.150608 
0.5 1:-0.50682 2:-0.402126 3:0.511741 4:-0.643479 5:-0.522855 6:-0.455845 7:-0.582926 8:0.823564 9:0.476986 10:-0.618029 11:0.699515 12:0.0904876 13:-0.302186 14:-0.436628 15:0.171553 16:0.203285 17:-0.0446522 18:0.727471 19:-0.0774565 20:-0.588413 21:-0.203947 22:-0.128024 23:-0.232159 24:-0.561349 25:-0.53073 26:0.0654068 27:-0.502917 28:0.173008 29:0.2479 30:0.36269 31:-0.120944 32:-0.0634211 33:-0.263608 34:0.151604 35:-0.590525 36:-0.33703 37:0.0473193 
0.45138373581660246 1:-0.581193 2:-0.536899 3:0.61451 4:-0.664934 5:-0.662852 6:-0.189094 7:-0.468659 8:0.517548 9:0.539703 10:-0.757734 11:0.235053 12:0.37915 13:-0.288375 14:-0.366881 15:-0.234326 16:0.623158 17:0.143359 18:0.490058 19:0.0138349 20:-0.638797 21:-0.450848 22:-0.447793 23:-0.299261 24:-0.450392 25:-0.712725 26:0.0583536 27:-0.50664 28:-0.0942162 29:0.184773 30:-0.0282165 31:0.212671 32:0.0639026 33:0.0547802 34:-0.479967 35:-0.346897 36:0.0552345 37:-0.089794 
0.5 1:0.231812 2:0.291212 3:-0.0620198 4:-0.231263 5:-0.0131472 6:-0.134444 7:-0.418906 8:-0.153499 9:-0.386528 10:0.167828 11:-0.705898 12:-0.331385 13:-0.288932 14:-0.151499 15:0.315193 16:-0.0864636 17:-0.253978 18:-0.128757 19:-0.317717 20:-0.452931 21:-0.0905195 22:0.201626 23:0.150075 24:-0.62539 25:-0.647751 26:-0.348711 27:-0.570975 28:-0.660565 29:-0.601344 30:-0.838883 31:-0.18554 32:-0.257955 33:-0.896203 34:0.0296155 35:-0.634872 36:0.321216 37:-0.746143 
0.5 1:-0.0795583 2:-0.035323 3:0.047549 4:0.53844 5:-0.00110155 6:-0.551351 7:-0.125106 8:0.238304 9:0.0532947 10:-0.385983 11:0.0964459 12:-0.2491 13:-0.563276 14:-0.254232 15:0.0326731 16:0.0471359 17:-0.203449 18:0.214347 19:-0.0785664 20:-0.210698 21:0.0526547 22:0.27704 23:-0.682187 24:0.780841 25:0.07326 26:-0.555757 27:-0.414 28:0.149508 29:0.0544557 30:-0.353467 31:-0.183265 32:-0.630947 33:-0.0461537 34:-0.155042 35:-0.775019 36:-0.524758 37:0.00834521 
0.5 1:0.276336 2:0.328597 3:-1 4:0.0345459 5:-0.151011 6:0.122936 7:-0.172211 8:-0.230183 9:-0.143481 10:-0.131031 11:0.0227716 12:-0.414781 13:0.275983 14:-0.226575 15:-0.095107 16:-0.00363053 17:-0.392584 18:-0.298657 19:-0.796013 20:-0.622899 21:-0.142127 22:0.299377 23:-0.735142 24:-0.754622 25:-0.654838 26:-0.356934 27:-0.196312 28:-0.49149 29:-0.247025 30:0.139226 31:-0.116631 32:0.0333636 33:-0.450683 34:-0.801815 35:-0.0749618 36:0.059535 37:-0.499327 
0.5 1:-0.473116 2:-0.556287 3:0.608604 4:-0.569894 5:-0.564583 6:-0.321617 7:-0.673111 8:0.732594 9:0.435095 10:-0.693705 11:0.710221 12:0.212451 13:-0.523359 14:-0.345382 15:0.381462 16:0.207662 17:0.128812 18:0.687073 19:0.407711 20:-0.739394 21:0.079257 22:-0.174234 23:-0.70844 24:-0.80551 25:-0.693432 26:0.382928 27:-0.171089 28:0.318869 29:0.507672 30:0.454997 31:-0.184664 32:-0.439011 33:0.184496 34:0.273287 35:-0.442468 36:-0.205481 37:0.262428 
0.5 1:-0.246564 2:0.0843722 3:0.230434 4:0.0553603 5:0.283456 6:-0.473645 7:-0.0758532 8:0.149973 9:0.187566 10:-0.126727 11:-0.011046 12:-0.412226 13:-0.321203 14:-0.698018 15:-0.291815 16:-0.0947617 17:-0.464207 18:0.143933 19:-0.211202 20:-0.180769 21:-0.147955 22:0.813748 23:-0.272 24:-0.333727 25:0.30101 26:-0.38209 27:0.294572 28:-0.212006 29:0.447521 30:0.0809943 31:-0.550192 32:-0.361646 33:-0.90078 34:-0.166862 35:-0.628824 36:-0.626562 37:0.0797021 
0.5 1:-0.379525 2:-0.170676 3:0.32121 4:-0.324113 5:-0.23949 6:-0.3913 7:-0.0740258 8:0.239902 9:0.333991 10:-0.578347 11:-0.0419296 12:0.132841 13:-0.394711 14:-0.427183 15:-0.243423 16:0.532629 17:0.1048 18:0.370267 19:-0.446849 20:-0.332821 21:-0.125476 22:0.258273 23:-0.134832 24:-0.36413 25:-0.127842 26:-0.120737 27:-0.0473262 28:-0.21792 29:0.291335 30:-0.348272 31:0.0897513 32:0.00241214 33:-0.0776642 34:-0.407679 35:-0.00348092 36:0.16694 37:0.274895 
0.5 1:-0.348487 2:-0.517315 3:-0.0406061 4:-0.0882505 5:-0.171021 6:0.0464538 7:-1 8:-0.573247 9:-0.774138 10:0.831458 11:-0.655856 12:-1 13:0.351942 14:0.544104 15:0.47821 16:-0.761447 17:-0.828084 18:0.174379 19:0.147712 20:-0.522492 21:-1 22:-1 23:-0.935667 24:-0.878592 25:-0.827552 26:-0.465198 27:-0.960083 28:-0.789571 29:-0.804782 30:-1 31:-1 32:-0.0247284 33:-0.40229 34:-0.378627 35:-0.969266 36:-0.823828 37:-0.414901 
0.5 1:-0.658392 2:-0.685967 3:0.746439 4:-0.734787 5:-0.641115 6:-0.104652 7:-0.833222 8:0.878995 9:0.609297 10:-0.839704 11:1 12:0.302932 13:-0.443711 14:-0.451579 15:0.115179 16:0.175421 17:0.153091 18:0.841426 19:0.447593 20:-1 21:-0.0520748 22:-0.439074 23:-0.762326 24:-0.942021 25:-0.64093 26:1 27:-0.46002 28:0.374666 29:0.920369 30:1 31:-0.0428046 32:0.182499 33:0.388605 34:-0.400622 35:-0.627058 36:-0.22216 37:0.301162 
0.061949379187378494 1:-0.671099 2:-0.275615 3:0.895846 4:-0.246521 5:-0.124686 6:-0.0502264 7:0.0534447 8:-0.156814 9:0.549519 10:-0.719218 11:-0.04333 12:-0.120219 13:-0.401571 14:-0.660717 15:-0.368397 16:0.72338 17:-0.436998 18:0.160161 19:-0.591955 20:-0.33897 21:-0.759562 22:-0.256484 23:0.0818071 24:-0.505038 25:-0.473784 26:-0.481122 27:-0.210642 28:-0.818688 29:-0.348298 30:-0.221891 31:-0.0948978 32:-0.489678 33:-0.62658 34:-0.41043 35:0.722821 36:-0.0495764 37:-0.523496 
0.5 1:-0.239378 2:-0.204048 3:0.0463923 4:-0.135335 5:-0.24585 6:-0.277485 7:-0.0482029 8:0.0604538 9:0.169331 10:-0.411841 11:0.0189337 12:-0.017446 13:-0.281654 14:-0.258686 15:-0.167862 16:0.332849 17:-0.0532047 18:0.22603 19:-0.313157 20:-0.104244 21:-0.256778 22:0.182534 23:-0.360937 24:-0.219783 25:-0.193707 26:-0.251212 27:0.0249557 28:-0.309589 29:0.253154 30:-0.247874 31:0.0173817 32:0.0687246 33:-0.129439 34:-0.213897 35:-0.0142463 36:0.00266904 37:-0.0723429 
0.023903748596957337 1:-0.479862 2:-0.450882 3:0.636367 4:-0.642356 5:-0.496179 6:-0.330183 7:-0.400895 8:0.552492 9:0.597338 10:-0.668473 11:0.511172 12:0.333086 13:-0.369758 14:-0.377518 15:-0.0266971 16:0.463137 17:-0.00452471 18:0.463478 19:-0.143475 20:-0.68919 21:-0.144956 22:-0.500637 23:-0.16788 24:-0.622673 25:-0.679029 26:-0.0151774 27:-0.423432 28:-0.295948 29:0.584759 30:0.491372 31:0.303464 32:-0.0974055 33:0.34161 34:0.230942 35:-0.352857 36:-0.0324547 37:-0.155524 
0.29490885505824133 1:0.042709 2:-0.035963 3:0.0387168 4:1 5:0.558643 6:-0.746278 7:-0.024045 8:-0.197355 9:0.0867775 10:0.121856 11:-0.0473532 12:-0.572462 13:-0.698591 14:-0.191866 15:-0.0558802 16:-0.166612 17:-0.46434 18:-0.148067 19:-0.178879 20:-0.470888 21:-0.128931 22:0.161615 23:-0.296951 24:1 25:1 26:-0.740751 27:-0.195894 28:-0.236466 29:0.956003 30:-0.207915 31:-0.644718 32:-1 33:-0.22315 34:-0.2304 35:-0.967551 36:-0.773224 37:-0.137082 
0.5 1:-0.237433 2:-0.204763 3:0.0614874 4:-0.157715 5:-0.247254 6:-0.256148 7:-0.0781497 8:0.0801747 9:0.170262 10:-0.417713 11:0.0285817 12:-0.0140253 13:-0.283553 14:-0.25613 15:-0.171444 16:0.346137 17:-0.0624009 18:0.210969 19:-0.29167 20:-0.116337 21:-0.237435 22:0.171541 23:-0.389343 24:-0.237571 25:-0.184519 26:-0.230666 27:-0.000341549 28:-0.314851 29:0.275843 30:-0.222607 31:-0.00889102 32:0.11535 33:-0.116267 34:-0.187647 35:0.00936002 36:-0.0110452 37:-0.0779413 
0.5 1:0.142019 2:-0.170296 3:-0.0930607 4:0.32714 5:-0.210104 6:-0.53443 7:0.108331 8:0.232525 9:0.203124 10:-0.515194 11:0.0938615 12:-0.0545446 13:-0.357322 14:0.0867569 15:0.0267229 16:-0.0902374 17:-0.172508 18:0.200601 19:-0.339605 20:-0.36925 21:-0.126487 22:-0.261488 23:-0.731486 24:0.15862 25:-0.146742 26:-0.822777 27:-0.313967 28:-0.0334897 29:-0.013756 30:0.0684556 31:-0.254242 32:-0.886775 33:0.207974 34:0.00548729 35:-0.790742 36:-0.396914 37:-0.174826 
0.5 1:-0.315733 2:0.13411 3:-0.0941803 4:0.573362 5:0.637378 6:-0.480496 7:-0.622819 8:-0.145056 9:-0.0816051 10:-0.0890095 11:-0.0836149 12:-0.549668 13:-0.0996764 14:-0.296291 15:-0.0848051 16:-0.244917 17:-0.76121 18:-0.0333599 19:-0.599286 20:-0.286043 21:-0.714981 22:-0.110105 23:-0.506782 24:-0.29954 25:0.192037 26:-0.685168 27:-0.596738 28:-0.566274 29:-0.250943 30:0.051981 31:-0.324434 32:-0.294425 33:-0.685346 34:-0.508561 35:-0.678246 36:-0.417289 37:-0.396706 
0.5 1:0.111114 2:0.106686 3:-0.665302 4:0.404206 5:-0.105491 6:-0.427825 7:0.349235 8:0.313822 9:0.0677164 10:-0.426508 11:0.214576 12:-0.0807094 13:-0.132716 14:-0.628547 15:-0.0499454 16:-0.212412 17:0.026976 18:0.252032 19:-1 20:-0.445015 21:-0.0690158 22:0.241825 23:-0.197798 24:-0.057307 25:-0.400344 26:-0.677281 27:0.13176 28:-0.496662 29:-0.25972 30:-0.00483034 31:0.0180602 32:-0.181438 33:-0.742369 34:-0.621272 35:0.355712 36:0.0557882 37:-0.277102 
0.5 1:-0.297628 2:-0.211894 3:0.393895 4:-0.380617 5:-0.128774 6:-0.535159 7:-0.733006 8:0.471932 9:0.220319 10:-0.402951 11:0.437653 12:-0.196751 13:-0.406418 14:-0.37798 15:0.149325 16:-0.102116 17:-0.227075 18:0.811129 19:0.293931 20:-0.432802 21:0.234526 22:0.45159 23:-0.57894 24:-0.527432 25:-0.0617753 26:-0.046547 27:-0.411538 28:0.29808 29:-0.0690896 30:-0.115429 31:-0.473164 32:-0.16444 33:-0.520762 34:0.441043 35:-0.56496 36:-0.343896 37:0.530171 
0.5 1:-0.018344 2:-0.0321068 3:0.499337 4:-0.133698 5:0.0347626 6:-0.550411 7:-0.503657 8:-0.0327733 9:-0.126455 10:-0.112956 11:0.077131 12:-0.403578 13:-0.314923 14:-0.00261429 15:0.4354 16:-0.0570618 17:-0.417043 18:0.0555171 19:-0.177128 20:-0.0233457 21:-0.0506336 22:0.198985 23:0.207662 24:-0.352336 25:-0.179014 26:-0.707558 27:-0.56585 28:-0.172905 29:-0.0790287 30:0.520754 31:-0.574031 32:-0.544488 33:-0.180501 34:0.497997 35:-0.696544 36:-0.619653 37:-0.159436 
0.5 1:-0.147049 2:-0.00114983 3:0.384528 4:-0.13147 5:0.0433726 6:-0.648158 7:-0.0483485 8:0.051073 9:0.00902427 10:-0.443618 11:-0.0613018 12:-0.190324 13:-0.0575429 14:-0.0751587 15:-0.000192268 16:0.00991327 17:-0.121346 18:0.0915698 19:-0.680823 20:-0.344344 21:-0.165668 22:0.157909 23:0.0341643 24:-0.264345 25:0.109999 26:-0.574978 27:-0.186019 28:-0.297215 29:-0.086696 30:0.0169674 31:-0.152672 32:0.0863851 33:0.0150602 34:-0.15957 35:-0.568074 36:0.151591 37:-0.122222 
0.5 1:-0.508914 2:-0.554889 3:0.659017 4:-0.688274 5:-0.572826 6:-0.131258 7:-0.617455 8:0.721557 9:0.269495 10:-0.701487 11:0.503423 12:0.383861 13:-0.45874 14:-0.41562 15:0.0937354 16:0.287112 17:0.252964 18:0.644716 19:0.508327 20:-0.734279 21:-0.0627874 22:-0.270971 23:-0.626456 24:-0.736776 25:-0.559341 26:0.478939 27:-0.297098 28:0.451499 29:0.352202 30:0.196311 31:0.391858 32:-0.0927449 33:0.0460156 34:-0.23185 35:-0.356302 36:0.110244 37:0.376725 
0.5 1:-0.475482 2:-0.278526 3:0.572894 4:-0.563662 5:-0.502528 6:-0.463142 7:-0.10098 8:0.496456 9:0.403036 10:-0.687704 11:0.236969 12:0.321773 13:-0.429219 14:-0.47669 15:-0.014478 16:0.493565 17:0.360913 18:0.489166 19:-0.462563 20:-0.44688 21:-0.23106 22:-0.0790542 23:-0.152963 24:-0.445428 25:-0.633326 26:-0.300151 27:-0.133439 28:0.025437 29:0.1617 30:-0.267946 31:0.33843 32:-0.410952 33:0.268284 34:0.188147 35:-0.431546 36:0.469598 37:0.144434 
0.5 1:-0.213863 2:-0.232154 3:0.280472 4:-0.376242 5:-0.35997 6:-0.578554 7:0.348406 8:0.110553 9:0.434222 10:-0.327254 11:-0.0540759 12:0.14258 13:-0.450919 14:-0.518784 15:-0.370752 16:0.365405 17:0.250781 18:0.136998 19:-0.563878 20:-0.167593 21:-0.331933 22:0.14662 23:-0.149966 24:-0.672019 25:-0.487227 26:-0.430444 27:-0.0279922 28:-0.52439 29:0.278559 30:-0.310743 31:-0.217238 32:-0.41626 33:-0.178544 34:-0.32108 35:0.11569 36:0.490968 37:-0.111186 
0.5 1:-0.0200108 2:0.172485 3:-0.326211 4:0.068122 5:0.174042 6:-0.320115 7:-0.190997 8:-0.0623963 9:-0.0584634 10:-0.160695 11:-0.237754 12:-0.0873432 13:-0.285097 14:-0.356481 15:-0.399553 16:0.16147 17:-0.165784 18:0.0412 19:-0.340646 20:-0.501054 21:-0.486684 22:0.438725 23:-0.864683 24:-0.594639 25:-0.163116 26:-0.511139 27:-0.164207 28:-0.488017 29:-0.225036 30:-0.0931963 31:-0.0212453 32:0.049498 33:-0.419674 34:-0.65563 35:-0.0629486 36:0.0543956 37:-0.20157 
0.5 1:-0.1326 2:-0.0500247 3:0.240738 4:0.318559 5:0.291044 6:-0.748904 7:0.00768211 8:0.18164 9:0.133541 10:-0.0489171 11:0.111856 12:-0.211611 13:-0.691612 14:-0.51009 15:-0.316349 16:0.0439613 17:-0.204063 18:0.115961 19:-0.197691 20:-0.200712 21:-0.0640338 22:0.242146 23:-0.210272 24:0.172164 25:0.644053 26:-0.713748 27:-0.211561 28:0.0266337 29:0.46964 30:0.0472702 31:-0.0940307 32:-0.738257 33:-0.14733 34:-0.535755 35:-0.734566 36:-0.183291 37:-0.031045 
0.5 1:-0.285336 2:-0.273875 3:0.544621 4:-0.414975 5:-0.380829 6:-0.436812 7:-0.254045 8:0.314854 9:0.396903 10:-0.644558 11:0.194007 12:0.0869569 13:-0.481669 14:-0.153753 15:0.0484815 16:0.455666 17:0.117658 18:0.432296 19:-0.116892 20:-0.526768 21:-0.0499209 22:0.084146 23:-0.130999 24:-0.333264 25:-0.343775 26:-0.215533 27:-0.0163497 28:-0.207773 29:0.526291 30:-0.133086 31:-0.123246 32:-0.229464 33:0.401079 34:0.0114656 35:-0.26758 36:0.364973 37:0.155149 
0.5 1:-0.116128 2:-0.0476029 3:0.234385 4:0.291977 5:0.294508 6:-0.7415 7:0.00325622 8:0.195268 9:0.149603 10:-0.0516084 11:0.118344 12:-0.190159 13:-0.698569 14:-0.539119 15:-0.324152 16:0.0570287 17:-0.196369 18:0.11818 19:-0.207637 20:-0.190657 21:-0.0653576 22:0.269404 23:-0.225495 24:0.182318 25:0.681447 26:-0.695283 27:-0.194454 28:0.0556238 29:0.477772 30:0.0354303 31:-0.0902521 32:-0.762305 33:-0.169888 34:-0.50593 35:-0.726535 36:-0.181393 37:-0.0187746 
0.5 1:-0.0888305 2:0.492935 3:0.0338304 4:-0.0973913 5:0.339168 6:-0.239389 7:-0.0354402 8:-0.103643 9:-0.14779 10:-0.427049 11:-0.437054 12:-0.0628755 13:-0.144637 14:-0.272207 15:-0.485524 16:0.26536 17:0.0444301 18:-0.19588 19:-0.688768 20:-0.540543 21:-0.326649 22:0.723618 23:-0.378002 24:-0.278748 25:-0.0139611 26:-0.364075 27:-0.314761 28:-0.411857 29:-0.181964 30:-0.407491 31:0.0928993 32:-0.257142 33:-0.0682753 34:-0.865682 35:-0.236216 36:0.349649 37:-0.450788 
0.5 1:0.0582076 2:0.386519 3:-0.436557 4:0.0995839 5:0.321246 6:-0.316601 7:-0.248082 8:-0.0530437 9:-0.156443 10:-0.100259 11:-0.482259 12:-0.389391 13:-0.141567 14:-0.207802 15:0.0323609 16:-0.26017 17:-0.58228 18:0.12536 19:-0.0934035 20:-0.366783 21:-0.312956 22:0.082824 23:-0.930052 24:-0.506061 25:-0.303396 26:-0.581317 27:-0.476378 28:-0.474954 29:-0.14295 30:-0.295051 31:0.0586832 32:-0.434299 33:-0.359931 34:-0.48149 35:-0.850369 36:-0.31029 37:-0.231457 
0.5 1:-0.319725 2:-0.133354 3:0.326994 4:-0.286791 5:-0.0953579 6:-0.324385 7:-0.363108 8:0.214428 9:0.0547223 10:-0.306158 11:0.0657983 12:-0.086361 13:-0.353934 14:-0.466469 15:0.0857929 16:0.269522 17:-0.00140775 18:0.238002 19:0.0239155 20:-0.352219 21:-0.210449 22:0.0410803 23:-0.563376 24:-0.603554 25:-0.0104689 26:0.265281 27:-0.666979 28:-0.0339971 29:0.352045 30:0.136952 31:0.0998061 32:0.22644 33:-0.144586 34:0.219509 35:-0.190661 36:0.134564 37:-0.048738 
0.5 1:-0.316206 2:-0.327889 3:0.384076 4:-0.269247 5:-0.326766 6:-0.342248 7:-0.488478 8:0.532245 9:0.18247 10:-0.567914 11:0.587565 12:0.112658 13:-0.527612 14:-0.461367 15:0.157304 16:0.0782527 17:0.11652 18:0.635322 19:0.408537 20:-0.484415 21:0.127289 22:-0.034348 23:-0.609668 24:-0.251666 25:-0.389071 26:0.0949177 27:-0.58859 28:0.125082 29:0.40024 30:0.331462 31:-0.0255993 32:-0.236896 33:0.0975122 34:0.148539 35:-0.443728 36:0.00327191 37:0.181748 
0.5 1:0.220333 2:-0.0830504 3:0.268011 4:-0.105806 5:-0.319539 6:0.214401 7:-0.234939 8:0.136954 9:-0.17867 10:-0.609128 11:0.391447 12:-0.135206 13:-0.367591 14:0.128923 15:0.0722564 16:-0.0798359 17:-0.105826 18:0.279419 19:-0.585381 20:-0.465275 21:0.141725 22:-0.0477099 23:-0.450812 24:-0.0146975 25:-0.255661 26:-0.508521 27:0.0998638 28:-0.137634 29:-0.166107 30:0.352813 31:-0.162361 32:-0.0809294 33:0.173885 34:0.00530623 35:-0.715266 36:-0.186776 37:0.218094 
0.5 1:0.0975465 2:-0.0497754 3:0.00727073 4:0.111379 5:-0.0908586 6:0.514236 7:-0.0874414 8:-0.602254 9:-0.500926 10:-0.254134 11:-0.490426 12:-0.215989 13:-0.199337 14:-0.153075 15:-0.213111 16:0.198092 17:0.32098 18:-0.483361 19:-0.61549 20:-0.336977 21:-0.221912 22:-0.0283299 23:-0.565121 24:-0.39903 25:-0.374488 26:0.0134191 27:-0.508199 28:-0.539852 29:-0.462667 30:-0.434502 31:-0.153147 32:0.0268748 33:-0.20911 34:-0.600631 35:-0.512948 36:0.200982 37:-0.429389 
0.057827527722903983 1:-0.216835 2:-0.275192 3:-0.0657269 4:-0.510013 5:-0.493396 6:0.0203406 7:-0.354253 8:0.357122 9:0.28982 10:-0.655478 11:0.0927519 12:0.192169 13:-0.157693 14:-0.18736 15:-0.0799661 16:0.334923 17:0.116853 18:0.308754 19:-0.316941 20:-0.589234 21:-0.295073 22:-0.520671 23:-0.582202 24:-0.573624 25:-0.780385 26:-0.261527 27:-0.592583 28:-0.182614 29:-0.10548 30:-0.333028 31:0.317561 32:-0.107601 33:-0.0106896 34:-0.189928 35:-0.472759 36:-0.0166413 37:-0.244969 
0.5 1:-0.525741 2:-0.703951 3:0.954428 4:-0.772632 5:-0.652832 6:-0.422298 7:-0.813231 8:0.835199 9:0.649969 10:-0.814022 11:0.826997 12:0.0999243 13:-0.485194 14:-0.322215 15:0.445929 16:0.21737 17:0.120692 18:0.950791 19:0.393084 20:-0.811843 21:0.277537 22:-0.432061 23:-0.350526 24:-0.827282 25:-0.810428 26:0.255564 27:-0.495348 28:0.413784 29:0.53403 30:0.240806 31:0.135478 32:-0.233395 33:0.154423 34:-0.160709 35:-0.582622 36:-0.346944 37:0.25537 
0.5 1:-0.0481105 2:-0.0924353 3:0.262709 4:0.167812 5:0.164462 6:-0.397472 7:-0.156838 8:-0.18096 9:0.0446027 10:-0.298658 11:-0.0589074 12:-0.324673 13:-0.224301 14:0.0345014 15:-0.0340003 16:-0.055284 17:-0.372339 18:-0.128189 19:-0.149645 20:0.0587034 21:-0.172071 22:0.269618 23:-0.324853 24:0.067024 25:0.705105 26:-0.405019 27:-0.388858 28:-0.369355 29:0.497576 30:0.0110436 31:-0.161668 32:-0.306927 33:-0.0408361 34:-0.248958 35:-0.763545 36:-0.29776 37:-0.319773 
0.5 1:-0.350135 2:-0.394766 3:0.541083 4:-0.465188 5:-0.380756 6:-0.189468 7:-0.475714 8:0.538678 9:0.258571 10:-0.612666 11:0.515568 12:0.150447 13:-0.479274 14:-0.384574 15:0.136474 16:0.111397 17:0.13042 18:0.523968 19:0.193654 20:-0.611063 21:0.0548957 22:-0.0899479 23:-0.572399 24:-0.730748 25:-0.365862 26:0.388061 27:-0.346806 28:0.276403 29:0.401252 30:0.415251 31:-0.128807 32:-0.2811 33:0.0110552 34:-0.22975 35:-0.675261 36:-0.303466 37:0.386062 
0.28176483297042998 1:-0.268361 2:-0.339928 3:0.40283 4:-0.903795 5:-0.534401 6:-0.139563 7:-0.410052 8:0.714308 9:0.239655 10:-0.705449 11:0.140614 12:0.40124 13:-0.48104 14:-0.248325 15:-0.0458461 16:0.518995 17:0.346829 18:0.614516 19:-0.0945248 20:-0.643187 21:-0.128648 22:-0.645394 23:-0.453605 24:-0.805296 25:-0.761942 26:-0.026082 27:-0.494465 28:-0.0488581 29:-0.140888 30:-0.298979 31:0.280685 32:-0.10897 33:-0.160759 34:-0.39106 35:-0.0101653 36:0.307901 37:-0.129712 
0.5 1:-0.386574 2:-0.327997 3:0.47347 4:-0.435967 5:-0.296599 6:-0.579542 7:-0.0449509 8:0.370352 9:0.340381 10:-0.547031 11:0.266016 12:0.318106 13:-0.417961 14:-0.596721 15:-0.239245 16:0.57031 17:0.212467 18:0.325294 19:-0.0525062 20:-0.427329 21:-0.291363 22:-0.280924 23:-0.259572 24:-0.436998 25:-0.262505 26:-0.416945 27:-0.185134 28:-0.206379 29:0.0491841 30:-0.108058 31:0.461676 32:-0.122051 33:-0.422872 34:-0.322842 35:-0.0335888 36:0.401575 37:-0.08396 
0.5 1:0.158156 2:-0.0964086 3:0.176705 4:-0.211307 5:-0.120163 6:0.261582 7:0.0126797 8:-0.189616 9:-0.318251 10:-0.411939 11:-0.0594284 12:-0.00505201 13:-0.507775 14:-0.0331853 15:-0.175608 16:0.24814 17:0.166844 18:-0.141367 19:-0.215358 20:-0.229978 21:-0.0578295 22:0.149302 23:-0.383898 24:-0.303971 25:-0.0534775 26:0.729542 27:-0.101494 28:-0.280961 29:-0.210712 30:0.0514658 31:0.177819 32:-0.311912 33:-0.143656 34:-0.397244 35:-0.361196 36:0.788928 37:-0.113663 
0.47247178487943847 1:-0.17855 2:1 3:-0.647684 4:-0.152839 5:0.694854 6:0.422352 7:0.75486 8:-0.832649 9:-0.74695 10:-0.121215 11:-0.738793 12:-0.737642 13:-0.158919 14:-0.552426 15:-1 16:-0.155253 17:0.0845031 18:-0.751954 19:-0.868456 20:-0.459694 21:-0.884083 22:-0.285271 23:-0.669708 24:-0.923046 25:-0.351226 26:-0.606463 27:-0.197705 28:-0.908455 29:-0.853517 30:-0.518841 31:-0.66033 32:-0.243796 33:-1 34:-0.881355 35:-0.537308 36:0.0982051 37:-0.829411 
0.5 1:-0.0321538 2:0.0135801 3:0.247141 4:-0.14126 5:0.0196877 6:0.0460778 7:-0.199578 8:-0.342856 9:-0.37672 10:-0.0172213 11:-0.415202 12:-0.512035 13:-0.288453 14:0.161726 15:0.276787 16:-0.0516419 17:-0.393488 18:-0.000544703 19:-0.00365107 20:-0.101306 21:-0.548733 22:0.37739 23:-0.271014 24:-0.658864 25:-0.0934592 26:0.096272 27:-0.0873875 28:-0.47303 29:-0.446049 30:-0.582601 31:-0.0660323 32:-0.505216 33:0.132259 34:0.439059 35:-0.671819 36:-0.190889 37:0.0654584 
0.46764719022317203 1:-0.350899 2:-0.384459 3:0.0106799 4:-0.136995 5:-0.377749 6:-0.526458 7:0.170387 8:0.175723 9:0.31237 10:-0.529535 11:-0.150889 12:0.175602 13:-0.22934 14:-0.113271 15:0.0452411 16:0.654856 17:0.0819728 18:0.291795 19:-0.762154 20:-0.444706 21:-0.336889 22:-0.301456 23:-0.18091 24:0.102342 25:-0.348858 26:-0.360397 27:0.215919 28:-0.423474 29:0.141807 30:-0.534387 31:-0.275217 32:-0.0189106 33:-0.0302172 34:0.251356 35:0.309203 36:-0.0432245 37:0.120018 
0.5 1:-0.264343 2:-0.0443553 3:0.181463 4:0.441152 5:0.26193 6:-0.782816 7:0.0537766 8:0.00291254 9:0.239416 10:-0.0951382 11:0.384344 12:-0.206397 13:-0.639949 14:-0.727777 15:-0.353913 16:0.299317 17:-0.0709986 18:-0.0362919 19:-0.279609 20:-0.204848 21:-0.217235 22:0.151903 23:-0.407625 24:0.164936 25:0.603457 26:-0.686019 27:-0.259682 28:-0.347581 29:0.620149 30:0.44551 31:-0.228656 32:-0.687804 33:-0.395724 34:-0.558429 35:-0.335824 36:-0.229581 37:-0.272933 
0.5 1:-0.0868918 2:0.249435 3:-0.0795184 4:-0.0595286 5:0.185101 6:-0.518916 7:-0.222125 8:0.0906256 9:-0.00241127 10:-0.0848907 11:0.129643 12:-0.112061 13:-0.35846 14:-0.497959 15:-0.0764849 16:-0.0829661 17:-0.240089 18:0.162277 19:-0.647261 20:-0.0670771 21:-0.335734 22:0.218348 23:-0.595252 24:-0.340694 25:-0.214429 26:-0.473929 27:-0.226376 28:-0.282315 29:-0.0782132 30:0.148486 31:0.165686 32:0.00353593 33:-0.387236 34:-0.212795 35:-0.774527 36:-0.154429 37:-0.215436 
0.5 1:-0.448955 2:-0.455114 3:0.587677 4:-0.779921 5:-0.507434 6:-0.203391 7:-0.687665 8:0.639831 9:0.421302 10:-0.559643 11:0.53414 12:0.387139 13:-0.425756 14:-0.456256 15:-0.063548 16:0.436664 17:0.13521 18:0.595605 19:0.111912 20:-0.758094 21:-0.245089 22:-0.541524 23:-0.354734 24:-0.859361 25:-0.811947 26:0.262555 27:-0.683724 28:-0.0569869 29:0.0241557 30:0.216906 31:0.485906 32:-0.200584 33:0.00281097 34:-0.685369 35:-0.31325 36:0.490149 37:-0.179702 
0.5 1:-0.144938 2:-0.198624 3:0.439567 4:-0.388835 5:-0.284647 6:-0.267791 7:-0.32755 8:0.261888 9:0.00984993 10:-0.388412 11:0.0491517 12:-0.134698 13:-0.499013 14:-0.196823 15:0.36083 16:0.226199 17:-0.0399399 18:0.405371 19:0.198431 20:-0.532747 21:-0.055904 22:0.235281 23:-0.285687 24:-0.598884 25:-0.405419 26:0.217973 27:0.013422 28:-0.100432 29:0.0789055 30:0.0403345 31:-0.160942 32:-0.253399 33:-0.0567213 34:0.611784 35:-0.466923 36:0.055107 37:-0.062909 
0.33020301803015678 1:-0.43497 2:-0.566991 3:-0.0339574 4:0.622165 5:-0.661613 6:1 7:-0.360397 8:-0.495792 9:-0.321906 10:-0.983974 11:-0.39049 12:-0.317692 13:1 14:0.366077 15:1 16:-0.727895 17:-0.255662 18:-0.0962883 19:-0.744914 20:-0.741399 21:-0.593017 22:-0.809599 23:-0.0215057 24:-0.245706 25:-0.94557 26:-0.0399502 27:-0.208345 28:-1 29:-0.534804 30:-0.144617 31:-0.273894 32:0.617407 33:-0.818525 34:-0.429991 35:-0.419181 36:-0.103267 37:-1 
0.24439589044882218 1:0.122779 2:0.201232 3:0.349344 4:-0.194471 5:0.206995 6:0.153823 7:0.147212 8:-0.377816 9:-0.104826 10:-0.545638 11:-0.315894 12:-0.742285 13:0.292301 14:0.245914 15:-0.14653 16:-0.292181 17:-0.753205 18:-0.0733452 19:-0.856894 20:-0.565827 21:-0.221619 22:0.222301 23:0.296223 24:-0.504423 25:-0.0509862 26:-0.467649 27:-0.109275 28:-0.719983 29:-0.45778 30:-0.240864 31:-0.829345 32:-0.0532336 33:-0.0217359 34:-0.414734 35:-0.433846 36:-0.0860843 37:-0.413252 
0.5 1:-0.30735 2:-0.239656 3:0.262565 4:0.0686946 5:-0.127916 6:-0.899023 7:0.0814706 8:0.291373 9:0.175785 10:-0.367777 11:0.337996 12:0.116522 13:-0.397526 14:-0.617277 15:-0.197569 16:0.277969 17:0.196782 18:0.29322 19:-0.756558 20:-0.224314 21:-0.178375 22:-0.189448 23:-0.574918 24:0.0510694 25:0.0524502 26:-0.76624 27:-0.0891817 28:-0.101996 29:0.0530771 30:0.249814 31:0.263773 32:0.202394 33:0.0560451 34:-0.457193 35:-0.69834 36:0.215004 37:0.494287 
0.5 1:0.115137 2:0.0680421 3:-0.615034 4:0.810201 5:0.54518 6:-0.393257 7:-0.370052 8:-0.488268 9:-0.274161 10:1 11:-0.468572 12:-0.782463 13:-0.154778 14:-0.411624 15:-0.486498 16:-0.600495 17:-0.957022 18:-0.241167 19:-0.555449 20:-0.383642 21:-0.710604 22:-0.609201 23:-0.701875 24:-0.452543 25:-0.428744 26:-0.834387 27:-0.567598 28:-0.761997 29:-0.451085 30:-0.403657 31:-0.66856 32:-0.553813 33:-0.784749 34:-1 35:-0.62486 36:-0.580723 37:-0.625615 
0.5 1:-0.175781 2:-0.251858 3:0.420408 4:-0.430424 5:-0.322234 6:-0.649997 7:-0.0876875 8:0.472402 9:0.299209 10:-0.471707 11:0.19208 12:0.436562 13:-0.47737 14:-0.579339 15:0.00440201 16:0.405287 17:0.376345 18:0.298578 19:-0.715676 20:-0.673319 21:0.216859 22:0.0166512 23:0.367397 24:-0.20665 25:-0.137582 26:-0.208504 27:0.0928632 28:0.0101046 29:0.0998489 30:-0.0989787 31:0.542011 32:-0.137959 33:-0.213556 34:0.106728 35:-0.247708 36:0.582564 37:-0.121948 
0.5 1:-0.276702 2:-0.35975 3:0.278237 4:-0.228821 5:-0.292442 6:-0.0977335 7:-0.105527 8:-0.277259 9:-0.341996 10:-0.551449 11:-0.365617 12:-0.175798 13:0.237118 14:-0.157093 15:0.260997 16:0.18036 17:0.294279 18:-0.00065998 19:0.176548 20:-0.347282 21:-0.499826 22:-0.377795 23:-0.516708 24:-0.293297 25:-0.571082 26:0.0911524 27:-0.0105047 28:-0.556218 29:-0.621794 30:-0.575069 31:0.0630836 32:0.916697 33:-0.477975 34:0.645729 35:-0.457196 36:0.920226 37:-0.356138 
0.5 1:0.0529164 2:-0.108259 3:0.233797 4:-0.124337 5:-0.251548 6:0.167955 7:0.000378867 8:-0.26747 9:-0.310058 10:-0.422403 11:-0.139143 12:-0.253457 13:-0.13441 14:-0.258659 15:-0.0601632 16:0.267971 17:0.17143 18:-0.115252 19:-0.316986 20:-0.519912 21:0.241806 22:-0.00553415 23:-0.340909 24:-0.408291 25:-0.415009 26:-0.153021 27:-0.213643 28:-0.445065 29:-0.424485 30:-0.114817 31:-0.145688 32:0.114318 33:-0.202859 34:-0.583631 35:-0.590254 36:0.226145 37:-0.16993 
0.5 1:-0.102051 2:-0.149086 3:0.0889846 4:-0.385067 5:-0.401744 6:-0.489965 7:-0.0589431 8:0.383771 9:0.263869 10:-0.483436 11:0.0921185 12:0.272536 13:-0.49235 14:-0.353242 15:0.0433668 16:0.248033 17:0.167806 18:0.382853 19:-0.478162 20:-0.0250121 21:0.15606 22:0.371967 23:-0.698653 24:-0.316454 25:-0.536024 26:-0.308892 27:-0.281556 28:-0.274074 29:-0.0178407 30:-0.152232 31:0.256017 32:-0.0855769 33:-0.292123 34:0.132355 35:-0.347096 36:0.418764 37:-0.0799836 
0.5 1:-0.349314 2:-0.209396 3:0.579979 4:0.0399758 5:-0.0498432 6:-0.261953 7:-0.281768 8:-0.326711 9:-0.299739 10:-0.276119 11:-0.296487 12:-0.494489 13:0.0864579 14:-0.132362 15:0.114482 16:0.125225 17:-0.202632 18:-0.161627 19:-0.141254 20:-0.124154 21:-0.848121 22:-0.218777 23:0.820369 24:-0.32627 25:-0.388063 26:-0.144081 27:-0.505577 28:-0.616803 29:-0.289981 30:-0.641449 31:-0.423463 32:0.718163 33:-0.392684 34:-0.257701 35:-0.467486 36:-0.513176 37:-0.223551 
0.5 1:-0.0719828 2:0.0133237 3:-0.0232709 4:-0.750447 5:-0.335024 6:-0.511158 7:-0.289974 8:0.685727 9:0.162576 10:-0.379965 11:-0.584886 12:0.255113 13:-0.327336 14:0.224671 15:0.587614 16:-0.0840776 17:-0.060567 18:0.611278 19:-0.790193 20:-0.581809 21:-0.215221 22:0.0455425 23:-0.388302 24:-0.68839 25:-0.567784 26:-0.68366 27:-0.0264522 28:-0.262591 29:-0.304203 30:-0.508919 31:0.325681 32:-0.169829 33:-0.325932 34:-0.245931 35:-0.145758 36:0.261459 37:-0.356201 
0.5 1:-0.147931 2:-0.0167925 3:0.106303 4:-0.0304817 5:0.0090432 6:-0.371878 7:-0.419204 8:0.224941 9:0.151612 10:-0.264316 11:0.292413 12:-0.223963 13:-0.342122 14:-0.267325 15:-0.0433942 16:-0.110151 17:-0.328738 18:0.248157 19:-0.188367 20:-0.309558 21:-0.17591 22:0.0695007 23:-0.470907 24:-0.224944 25:0.0335256 26:-0.335234 27:-0.544198 28:-0.0279873 29:0.231446 30:0.236725 31:-0.24817 32:-0.269584 33:-0.231977 34:-0.349939 35:-0.731257 36:-0.129773 37:0.151334 
0.5 1:0.0247887 2:-0.0905928 3:0.305448 4:-0.20691 5:-0.152992 6:-0.457246 7:-0.321291 8:0.0306762 9:-0.132337 10:-0.332072 11:-0.0472143 12:-0.275384 13:-0.289246 14:0.29042 15:0.411888 16:0.0446136 17:-0.109446 18:0.0938043 19:-0.127907 20:-0.456104 21:0.234357 22:0.102134 23:-0.48146 24:-0.214737 25:9.25012e-05 26:-0.429712 27:-0.368974 28:-0.0467711 29:0.0897194 30:-0.0175521 31:-0.0807004 32:0.137931 33:0.440286 34:0.188754 35:-0.639566 36:-0.172246 37:0.0257189 
0.5 1:-0.262097 2:-0.444619 3:0.837126 4:-0.519298 5:-0.578066 6:-0.675339 7:-0.198241 8:0.413205 9:0.50378 10:-0.672278 11:0.176203 12:0.556695 13:-0.430075 14:-0.175057 15:-0.107247 16:0.268138 17:0.185443 18:0.353924 19:-0.238234 20:-0.0850405 21:-0.329241 22:0.00778883 23:-0.225678 24:-0.357547 25:-0.32606 26:-0.443369 27:0.249668 28:-0.209727 29:0.334242 30:0.169355 31:0.4892 32:-0.498823 33:0.211448 34:-0.0818042 35:-0.186041 36:0.0471561 37:-0.473813 
0.5 1:0.287193 2:0.110356 3:-0.217629 4:-0.548286 5:-0.386188 6:-0.129576 7:-0.249068 8:0.257486 9:0.0333854 10:-0.759126 11:-0.409856 12:0.321232 13:-0.352892 14:-0.0368623 15:0.366228 16:0.409067 17:0.394543 18:0.374893 19:-0.512587 20:-0.714537 21:0.49196 22:0.148018 23:-0.853473 24:-0.376349 25:-0.536295 26:-0.101968 27:-0.27866 28:-0.30193 29:-0.281191 30:-0.38759 31:0.348173 32:0.37652 33:-0.0280038 34:0.440655 35:0.151568 36:0.645907 37:-0.035003 
0.5 1:-0.0475071 2:-0.0655538 3:0.0654576 4:-0.139902 5:-0.206678 6:-0.633089 7:-0.0878185 8:0.187822 9:0.131015 10:-0.326272 11:0.231082 12:0.0499603 13:-0.360899 14:-0.477337 15:-0.0532897 16:0.358345 17:0.134871 18:0.154723 19:-0.448937 20:-0.202374 21:0.189583 22:0.249615 23:-0.660821 24:-0.259865 25:-0.188521 26:-0.531145 27:-0.0493185 28:0.0387317 29:0.29059 30:0.115351 31:0.229667 32:-0.0514289 33:-0.212601 34:-0.0978722 35:-0.125299 36:0.26519 37:-0.0711877 
0.5 1:-0.0648767 2:-0.121018 3:0.412578 4:-0.0264685 5:-0.0231988 6:-0.515242 7:-0.194464 8:-0.074247 9:-0.136979 10:-0.286061 11:-0.0152303 12:-0.18255 13:-0.250075 14:0.00143062 15:0.237534 16:0.027305 17:-0.0487346 18:0.039161 19:-0.49683 20:-0.458847 21:-0.0723104 22:0.0108908 23:0.262698 24:-0.141733 25:-0.13527 26:-0.397836 27:-0.311375 28:-0.133932 29:0.0619755 30:0.0316913 31:0.0165607 32:0.172761 33:0.132827 34:-0.0392138 35:-0.621696 36:-0.0447168 37:-0.046072 
0.5 1:-0.340115 2:-0.293556 3:0.391387 4:-0.146187 5:-0.208828 6:-0.243482 7:-0.502549 8:0.0446694 9:-0.0224251 10:-0.412458 11:0.0671027 12:-0.336781 13:-0.128025 14:0.260478 15:0.534164 16:-0.168071 17:-0.348595 18:0.323482 19:0.0527528 20:-0.405853 21:-0.469221 22:-0.113521 23:-0.438626 24:-0.319588 25:-0.474842 26:-0.191251 27:-0.247315 28:-0.276779 29:0.241577 30:0.00484934 31:-0.530309 32:0.392416 33:0.129764 34:0.16339 35:-0.658979 36:-0.606656 37:-0.043844 
0.48211674924369363 1:-0.451521 2:-0.331293 3:-0.0574911 4:-0.26581 5:-0.525393 6:-0.596105 7:1 8:0.11644 9:0.852713 10:-0.675482 11:0.279202 12:0.121532 13:-0.133785 14:-0.181998 15:-0.274608 16:0.0105319 17:-0.188241 18:0.380283 19:-0.668435 20:-0.236672 21:-0.29284 22:0.104466 23:0.0343203 24:-0.247845 25:-0.501596 26:-0.751873 27:1 28:-0.606268 29:0.456009 30:0.0847575 31:0.318549 32:-0.215967 33:-0.184249 34:-0.562177 35:0.154907 36:-0.124276 37:-0.42159 
0.5 1:-0.391372 2:-0.334167 3:0.570823 4:-0.574942 5:-0.498903 6:-0.261698 7:-0.432686 8:0.453523 9:0.285295 10:-0.590234 11:0.432595 12:0.117852 13:-0.376892 14:-0.309112 15:0.068139 16:0.394679 17:0.119523 18:0.404764 19:-0.0106425 20:-0.420433 21:0.10319 22:-0.105945 23:-0.329521 24:-0.591451 25:-0.584813 26:0.135634 27:-0.329775 28:0.0790335 29:0.220931 30:0.0289779 31:0.196529 32:-0.10671 33:0.151813 34:-0.0178084 35:-0.303943 36:0.13544 37:0.0050638 
0.47512398464114347 1:0.0586681 2:0.140581 3:0.0989122 4:-0.183328 5:-0.169606 6:0.111824 7:0.920229 8:-1 9:-1 10:-0.172902 11:-1 12:-0.395982 13:-0.427949 14:0.791513 15:-0.342103 16:0.275105 17:0.673892 18:-1 19:-0.541079 20:0.110902 21:-0.6284 22:0.118996 23:-0.584975 24:-1 25:-0.758855 26:-0.307022 27:-0.247545 28:-0.858792 29:-1 30:-0.660368 31:-0.457948 32:-0.0253214 33:1 34:-0.607234 35:-0.559558 36:0.640613 37:-0.763877 
0.5 1:-0.586196 2:-0.437994 3:0.642981 4:-0.581486 5:-0.551797 6:-0.414529 7:-0.469595 8:0.615524 9:0.524091 10:-0.611485 11:0.465944 12:0.203083 13:-0.456744 14:-0.410273 15:0.0390636 16:0.296869 17:0.0581704 18:0.747297 19:0.0850926 20:-0.49737 21:-0.322915 22:-0.117965 23:-0.210977 24:-0.474975 25:-0.543654 26:-0.0116148 27:-0.361301 28:-0.0439705 29:0.463439 30:0.038705 31:0.172304 32:-0.23938 33:0.246139 34:-0.161476 35:-0.531243 36:-0.00822079 37:0.255729 
0.5 1:-0.377526 2:-0.274914 3:0.310363 4:-0.676364 5:-0.395473 6:-0.270834 7:-0.196382 8:0.63524 9:0.270582 10:-0.614366 11:0.253917 12:0.334324 13:-0.43132 14:-0.520109 15:-0.0741205 16:0.340394 17:0.267391 18:0.545893 19:0.00277783 20:-0.769696 21:-0.317041 22:-0.428291 23:-0.359646 24:-0.554535 25:-0.652202 26:-0.197592 27:-0.391069 28:0.000834493 29:-0.106465 30:0.0170557 31:0.263052 32:0.0908263 33:-0.276281 34:-0.309134 35:-0.313307 36:0.52546 37:-0.167292 
0.5 1:-0.149741 2:0.0430957 3:0.52979 4:-0.106745 5:-0.0501822 6:-0.738457 7:-0.443448 8:0.405491 9:0.100896 10:-0.316462 11:0.117712 12:-0.0843505 13:-0.564974 14:-0.325186 15:0.34793 16:0.15459 17:-0.168514 18:0.527193 19:-0.603098 20:-0.518316 21:-0.411815 22:0.250795 23:-0.358025 24:-0.16133 25:0.167852 26:-0.775995 27:-0.470384 28:0.23467 29:0.176657 30:-0.272595 31:0.0932015 32:-0.41661 33:0.07694 34:0.45914 35:-0.253956 36:0.146865 37:0.336728 
0.5 1:0.254838 2:0.55182 3:-0.00773454 4:0.0429524 5:0.298565 6:0.0176884 7:-0.0917945 8:-0.0490495 9:-0.218677 10:-0.0763979 11:-0.210459 12:-0.293826 13:-0.615123 14:-0.747403 15:-0.404762 16:0.119042 17:-0.0981851 18:-0.204869 19:-0.396383 20:-0.122332 21:0.471543 22:0.570004 23:-0.36679 24:-0.34453 25:0.229518 26:0.195743 27:-0.559855 28:-0.168102 29:-0.114586 30:-0.274882 31:-0.0618005 32:-0.713334 33:-0.970181 34:-0.88367 35:-0.574146 36:-0.0404413 37:-0.238872 
0.5 1:-0.00468706 2:-0.0734029 3:0.322636 4:-0.362637 5:-0.291678 6:-0.055417 7:-0.173593 8:0.316491 9:-0.0520414 10:-0.470538 11:0.0228771 12:-0.0599288 13:-0.587567 14:-0.244835 15:0.0884696 16:0.299937 17:0.122615 18:0.268551 19:0.114902 20:-0.586015 21:-0.0670757 22:0.383384 23:-0.410559 24:-0.367601 25:-0.555251 26:0.256425 27:0.0451533 28:0.10266 29:-0.05248 30:0.0798748 31:-0.246681 32:-0.783584 33:0.0275015 34:0.158637 35:-0.311607 36:0.383831 37:0.177957 
0.5 1:0.171132 2:-0.111892 3:0.118949 4:-0.43794 5:-0.311745 6:-0.451308 7:-0.160477 8:0.58599 9:0.0707278 10:-0.407364 11:-0.144017 12:0.029231 13:-0.457849 14:-0.092208 15:0.347309 16:0.164759 17:-0.0664325 18:0.418368 19:-0.244097 20:-0.596134 21:0.264711 22:-0.0196991 23:-0.363655 24:-0.309722 25:-0.275872 26:-0.276542 27:-0.273215 28:-0.0677567 29:-0.226025 30:-0.275549 31:-0.0501758 32:-0.160524 33:0.0524759 34:0.326337 35:-0.480471 36:0.128965 37:0.0230941 
0.5 1:-0.434008 2:-0.503322 3:0.613678 4:-0.866728 5:-0.635099 6:-0.276719 7:-0.478964 8:0.595134 9:0.439501 10:-0.727372 11:0.269313 12:0.43024 13:-0.48302 14:-0.230785 15:0.150018 16:0.606667 17:0.296724 18:0.584799 19:0.116874 20:-0.713187 21:-0.107603 22:-0.441234 23:-0.410928 24:-0.73319 25:-0.698065 26:0.269474 27:-0.284136 28:0.0418082 29:0.381752 30:-0.047942 31:0.171077 32:-0.0860149 33:0.376997 34:0.442227 35:0.0435154 36:0.50948 37:0.00695548 
0.5 1:-0.527881 2:-0.492768 3:0.531091 4:-0.317224 5:-0.314554 6:-0.452909 7:-0.521349 8:0.332812 9:0.336448 10:-0.525325 11:0.354282 12:0.02986 13:-0.398557 14:-0.442055 15:-0.127805 16:0.312669 17:0.14456 18:0.464407 19:0.788479 20:-0.17152 21:-0.0528304 22:0.172683 23:-0.25844 24:-0.287104 25:-0.266744 26:0.227667 27:-0.290405 28:0.0663498 29:0.412037 30:0.232469 31:-0.0454411 32:0.415448 33:-0.207894 34:-0.0154413 35:0.123279 36:0.327452 37:-0.0293015 
0.5 1:0.339943 2:0.0618667 3:0.0378017 4:0.204671 5:-0.0210586 6:-0.592506 7:-0.112677 8:0.0237343 9:0.156528 10:-0.293962 11:-0.0986662 12:-0.210245 13:-0.726287 14:-0.288378 15:0.149203 16:0.459748 17:-0.0532859 18:0.0187745 19:-0.606443 20:-0.563692 21:-0.0550144 22:0.124399 23:0.13158 24:0.397528 25:-0.185152 26:-0.609304 27:-0.164454 28:-0.559152 29:0.209353 30:0.0919143 31:-0.421004 32:-0.262812 33:-0.189018 34:-0.1314 35:0.371663 36:0.0839302 37:-0.204947 
0.5 1:-0.361988 2:-0.521467 3:0.326874 4:-0.499145 5:-0.61854 6:-0.0480977 7:-0.201214 8:0.44909 9:0.279186 10:-0.47986 11:0.373681 12:0.293477 13:-0.4676 14:-0.481218 15:0.0644332 16:0.380261 17:0.202156 18:0.387373 19:-0.378315 20:-0.196626 21:-0.194029 22:-0.644511 23:-0.449337 24:-0.270174 25:-0.556926 26:0.58568 27:-0.160647 28:-0.0434548 29:0.18862 30:0.176824 31:0.126016 32:-0.0767153 33:-0.314747 34:0.176395 35:-0.665183 36:0.17014 37:-0.0716844 
0.5 1:-0.0925075 2:-0.147256 3:0.28461 4:-0.035117 5:-0.115952 6:-0.485919 7:0.102924 8:0.0468164 9:0.0248152 10:-0.377364 11:0.0178184 12:-0.0429395 13:-0.34537 14:-0.451333 15:0.0392483 16:0.221737 17:0.177603 18:0.101586 19:-0.732434 20:-0.0785704 21:0.154309 22:0.259881 23:-0.129791 24:-0.155587 25:-0.191604 26:-0.137911 27:0.0758063 28:0.015079 29:0.22458 30:-0.119201 31:-0.0367375 32:0.0382183 33:-0.335856 34:-0.049773 35:-0.310161 36:0.0825783 37:0.0969258 
0.5 1:-0.0682228 2:0.283317 3:-0.391709 4:-0.193992 5:0.183049 6:-0.127157 7:-0.615906 8:0.0752006 9:-0.138615 10:-0.208009 11:-0.104688 12:-0.217165 13:0.158551 14:-0.152501 15:-0.372035 16:-0.14119 17:-0.354821 18:-0.0492395 19:-0.592117 20:-0.507773 21:-0.52493 22:0.0564192 23:-0.647769 24:-0.498023 25:-0.129175 26:-0.42572 27:-0.586437 28:-0.507486 29:-0.456117 30:-0.230873 31:-0.359418 32:-0.298769 33:-0.47679 34:-0.80078 35:-0.687636 36:-0.0312698 37:-0.262291 
0.5 1:-0.16178 2:-0.145213 3:0.385981 4:-0.544311 5:-0.195258 6:-0.577553 7:-0.484488 8:0.555386 9:0.276722 10:-0.520049 11:0.1646 12:0.180474 13:-0.455363 14:-0.376139 15:0.0479104 16:0.25845 17:-0.0264679 18:0.716877 19:-0.0886198 20:-0.446532 21:-0.000946324 22:-0.282485 23:-0.25223 24:-0.69632 25:-0.370546 26:-0.595412 27:-0.523524 28:-0.156707 29:-0.193846 30:-0.169299 31:0.0833194 32:-0.176606 33:-0.192709 34:0.068815 35:-0.437476 36:-0.0464818 37:-0.0172434 
0.5 1:0.141192 2:0.162166 3:-0.533332 4:-0.262778 5:-0.0844488 6:-0.578814 7:0.0524378 8:0.148752 9:0.0375529 10:-0.239087 11:-0.217044 12:0.0499825 13:-0.0524662 14:-0.363905 15:-0.0969219 16:0.230327 17:0.164807 18:-0.0500681 19:-0.607028 20:-0.595243 21:-0.0736817 22:0.321327 23:-0.761775 24:-0.593702 25:-0.481738 26:-0.590749 27:-0.174192 28:-0.279843 29:-0.380444 30:-0.0423664 31:0.216813 32:0.220465 33:-0.395083 34:-0.257284 35:-0.0404989 36:0.56817 37:-0.334924 
0.5 1:-0.516735 2:-0.33006 3:0.787093 4:-0.447405 5:-0.343905 6:-0.391936 7:-0.232673 8:0.256619 9:0.478602 10:-0.576429 11:0.0214434 12:0.157762 13:-0.266398 14:-0.430796 15:-0.0398363 16:0.259889 17:-0.158659 18:0.413081 19:-0.195665 20:-0.272629 21:-0.422792 22:-0.0879256 23:-0.0695582 24:-0.275758 25:-0.269124 26:-0.256427 27:-0.255477 28:-0.354025 29:0.39274 30:-0.247135 31:0.0319501 32:0.380416 33:-0.118717 34:-0.165719 35:-0.26728 36:-0.201285 37:0.0842498 
0.5 1:-0.067919 2:0.123295 3:-0.0390808 4:-0.0958232 5:0.0871448 6:-0.579423 7:-0.192115 8:0.133244 9:-0.0367464 10:-0.263678 11:-0.0487553 12:0.00668257 13:-0.369053 14:-0.475851 15:-0.0443769 16:0.206428 17:0.00590984 18:0.240548 19:-0.655132 20:-0.288341 21:-0.0108104 22:0.459306 23:-0.730082 24:-0.450921 25:0.0446864 26:-0.463917 27:-0.264263 28:-0.19982 29:-0.084391 30:-0.163991 31:0.332009 32:0.0328028 33:-0.168983 34:-0.157046 35:-0.0776249 36:0.0561727 37:0.129448 
0.5 1:-0.231322 2:-0.0739224 3:0.216402 4:0.177384 5:0.189571 6:-0.750762 7:-0.107635 8:-0.0559878 9:0.080185 10:-0.182226 11:0.209045 12:-0.299469 13:-0.470491 14:-0.285052 15:0.0885024 16:0.155137 17:-0.162072 18:-0.00916983 19:-0.412945 20:-0.0118989 21:-0.155701 22:0.130891 23:-0.232549 24:-0.0287507 25:0.486382 26:-0.7609 27:-0.304322 28:-0.137989 29:0.608103 30:0.176555 31:-0.162947 32:-0.407753 33:0.0293664 34:-0.126875 35:-0.565555 36:-0.420107 37:-0.232471 
0.5 1:-0.178962 2:-0.165956 3:0.29942 4:-0.18978 5:-0.0859175 6:-0.574089 7:-0.269165 8:0.199142 9:0.0938959 10:-0.374867 11:0.191709 12:0.0129227 13:-0.337148 14:-0.386958 15:-0.11728 16:0.211984 17:0.119376 18:0.246719 19:-0.396749 20:-0.331405 21:-0.178525 22:0.532586 23:-0.207156 24:-0.354997 25:-0.0265343 26:-0.201934 27:-0.290915 28:-0.0286685 29:0.186985 30:0.0101345 31:0.0634492 32:0.397955 33:-0.239911 34:-0.141442 35:-0.238491 36:0.14786 37:-0.0262346 
0.5 1:-0.154971 2:0.222202 3:-0.113024 4:-0.261146 5:0.107795 6:0.26578 7:-0.471836 8:-0.191396 9:-0.335284 10:-0.121285 11:-0.227369 12:-0.336403 13:-0.214138 14:-0.400776 15:0.0867094 16:-0.0625873 17:-0.390819 18:0.104608 19:-0.291833 20:0.136189 21:-0.495149 22:0.0729999 23:-0.531721 24:-0.709878 25:-0.266288 26:-0.261875 27:-0.554594 28:-0.549758 29:-0.414814 30:-0.348379 31:-0.160708 32:-0.33287 33:-0.524709 34:-0.132396 35:-0.646507 36:-0.224435 37:-0.13904 
0.5 1:-0.231276 2:-0.299435 3:-0.0265299 4:-0.920655 5:-0.467208 6:-0.578999 7:-0.0310246 8:0.771595 9:0.486462 10:-0.526253 11:0.145439 12:1 13:-0.474076 14:-0.3908 15:-0.000826739 16:0.537856 17:0.502327 18:0.354915 19:-0.778424 20:-0.630503 21:0.43374 22:-0.0613952 23:0.381829 24:-0.622299 25:-0.242278 26:-0.367128 27:0.080411 28:-0.213835 29:-0.209879 30:0.202938 31:1 32:-0.020029 33:-0.053497 34:0.213692 35:0.221218 36:0.364066 37:-0.336538 
0.28141749969463875 1:0.497112 2:-0.264069 3:-0.371232 4:0.367665 5:-0.568051 6:0.701874 7:-0.0611429 8:-0.482601 9:-0.442566 10:-0.746159 11:0.440331 12:0.0382422 13:0.330799 14:0.00195131 15:-0.238474 16:0.0285813 17:0.169696 18:-0.331125 19:-0.671018 20:-0.497062 21:0.0152774 22:-0.384724 23:-0.722452 24:-0.335966 25:-0.709224 26:-0.00762937 27:-0.574454 28:-0.64212 29:-0.595173 30:0.144858 31:0.140738 32:-0.0556924 33:-0.246036 34:-0.66841 35:-0.581528 36:0.18874 37:-0.374382 
0.5 1:-0.311234 2:-0.106856 3:0.148162 4:-0.0904799 5:-0.0189724 6:-0.722078 7:-0.117111 8:0.271138 9:0.303992 10:-0.494792 11:0.43678 12:0.156291 13:-0.534255 14:-0.583953 15:-0.083099 16:0.262625 17:0.240873 18:0.255623 19:-0.0559893 20:-0.116269 21:0.176471 22:0.390428 23:-0.57252 24:-0.279208 25:0.273995 26:-0.408766 27:-0.342787 28:0.331934 29:0.651623 30:0.281412 31:0.417532 32:-0.468239 33:-0.0498841 34:-0.573358 35:-0.353201 36:0.0147785 37:0.0666137 
0.5 1:-0.115742 2:-0.0959981 3:0.314449 4:-0.0567032 5:-0.121186 6:-0.546331 7:0.117514 8:0.176272 9:0.194375 10:-0.349758 11:0.0765591 12:0.0320637 13:-0.465566 14:-0.504024 15:-0.14172 16:0.232638 17:0.0967237 18:0.171205 19:-0.310528 20:-0.394612 21:-0.146289 22:0.367135 23:-0.155758 24:-0.0411692 25:-0.0383888 26:-0.433851 27:0.323559 28:-0.100424 29:0.378783 30:-0.183725 31:0.148874 32:-0.381275 33:-0.30457 34:-0.20247 35:-0.566477 36:0.310173 37:-0.176905 
0.5 1:-0.401742 2:-0.312939 3:0.557661 4:-0.702056 5:-0.476582 6:-0.420622 7:-0.483703 8:0.613524 9:0.417059 10:-0.595866 11:0.594465 12:0.391055 13:-0.515006 14:-0.419861 15:-0.105178 16:0.45069 17:0.297221 18:0.537257 19:-0.227417 20:-0.701028 21:0.00743623 22:-0.176141 23:-0.273766 24:-0.639321 25:-0.4763 26:-0.0564655 27:-0.531033 28:0.0545411 29:0.247786 30:0.253952 31:0.344352 32:-0.0525694 33:0.130523 34:-0.38788 35:-0.224026 36:0.164033 37:0.0148353 
0.28392089101082812 1:-0.525152 2:-0.190774 3:0.727489 4:-0.294291 5:-0.20964 6:-0.0348164 7:0.0547511 8:-0.0895858 9:0.416112 10:-0.683463 11:-0.430494 12:-0.177102 13:0.0717987 14:0.0833194 15:-0.103092 16:0.540465 17:-0.386485 18:0.0432188 19:-0.645701 20:-0.548654 21:-0.505389 22:-0.0600221 23:0.365834 24:-0.279557 25:-0.304596 26:-0.286677 27:0.14877 28:-0.602005 29:0.0403776 30:-0.47985 31:-0.333176 32:0.314254 33:-0.0241915 34:0.152297 35:0.284473 36:0.0211742 37:-0.165991 
0.5 1:-0.059098 2:0.0520665 3:-0.309272 4:0.273806 5:0.264876 6:-0.845454 7:-0.175999 8:-0.190422 9:-0.123302 10:0.419536 11:0.020997 12:-0.190031 13:-0.250308 14:-0.288371 15:-0.273172 16:-0.179209 17:-0.0758787 18:-0.344693 19:-0.784739 20:-0.40252 21:-0.27468 22:-0.0503212 23:-0.379187 24:-0.596285 25:-0.145686 26:-0.872757 27:-0.391853 28:-0.677185 29:-0.266672 30:0.127636 31:0.0443338 32:0.408212 33:-0.248404 34:-0.72099 35:-0.0448115 36:0.679149 37:-0.806815 
0.5 1:-0.062164 2:-0.198892 3:0.282059 4:-0.149049 5:-0.095147 6:-0.607558 7:-0.324313 8:0.195935 9:0.161359 10:-0.35027 11:0.313647 12:-0.075384 13:-0.483642 14:-0.241548 15:-0.0108247 16:-0.0440901 17:-0.0316158 18:0.289263 19:0.509013 20:-0.107345 21:0.349507 22:0.292212 23:-0.499544 24:-0.266085 25:-0.146296 26:-0.369294 27:-0.161983 28:0.115138 29:0.167125 30:-0.25369 31:-0.0848746 32:-0.255926 33:-0.186726 34:0.117315 35:-0.499486 36:-0.0638775 37:0.133363 
0.5 1:0.415452 2:0.253716 3:0.121283 4:-0.463356 5:-0.445668 6:0.524138 7:-0.677316 8:-0.118525 9:-0.328069 10:-0.51263 11:-0.451237 12:-0.116819 13:-0.4062 14:0.73816 15:0.675959 16:0.0427325 17:-0.167952 18:0.129879 19:-0.653322 20:-0.934867 21:-0.210005 22:0.172427 23:-0.272463 24:-0.613271 25:-0.696029 26:-0.178652 27:-0.728849 28:-0.646937 29:-0.682828 30:-0.481024 31:-0.394585 32:-0.319166 33:-0.317208 34:0.147157 35:-0.161057 36:0.234231 37:-0.398559 
0.5 1:-0.440163 2:-0.200491 3:0.668414 4:-0.361652 5:-0.137512 6:-0.186748 7:0.01979 8:0.117277 9:0.209056 10:-0.551537 11:-0.100496 12:0.0367485 13:-0.307042 14:-0.397449 15:-0.168354 16:0.408209 17:-0.0775191 18:0.211542 19:-0.311336 20:-0.471969 21:-0.458533 22:-0.0988967 23:-0.092586 24:-0.441687 25:0.0257778 26:0.0194446 27:0.108981 28:-0.300791 29:0.285303 30:-0.175426 31:0.116651 32:0.250485 33:-0.0457366 34:0.0702924 35:-0.295705 36:-0.0736962 37:-0.0102853 
0.5 1:-0.0230949 2:0.16276 3:0.10538 4:-0.281892 5:0.0402049 6:0.0631728 7:-0.329933 8:-0.153964 9:-0.232155 10:-0.174241 11:-0.41442 12:-0.243373 13:0.0303348 14:-0.200935 15:-0.0910509 16:0.189604 17:-0.397261 18:-0.0283206 19:-0.510809 20:-0.450576 21:-0.346988 22:0.132045 23:-0.0977407 24:-0.569608 25:-0.212892 26:-0.415703 27:-0.306389 28:-0.428827 29:-0.305509 30:-0.483574 31:-0.321903 32:-0.11309 33:-0.363323 34:-0.26829 35:-0.228917 36:-0.0945715 37:-0.254961 
0.3605721754047449 1:0.219311 2:0.222746 3:-0.866895 4:0.587665 5:0.584848 6:-0.603013 7:-0.0565469 8:-0.111822 9:0.228685 10:-0.0207235 11:-0.165653 12:-0.555869 13:-0.329093 14:0.178677 15:-0.0403527 16:-0.817337 17:-0.645677 18:-0.159711 19:-0.859846 20:-0.445756 21:-0.601732 22:0.0609689 23:-0.538859 24:-0.400846 25:0.0805341 26:-0.524542 27:-0.211147 28:-0.512614 29:-0.00850227 30:-0.199828 31:-0.48054 32:-0.472787 33:-0.793633 34:-0.889408 35:-0.714937 36:-0.0487919 37:-0.399736 
0.5 1:-0.136101 2:-0.135141 3:0.642544 4:-0.169003 5:0.0760787 6:-0.704253 7:0.199804 8:0.240884 9:0.245031 10:-0.208938 11:-0.0143591 12:0.125228 13:-0.661764 14:-0.789784 15:-0.54093 16:0.334242 17:0.282018 18:-0.03078 19:0.462058 20:-0.412155 21:0.051987 22:0.0845978 23:-0.0224514 24:0.0503531 25:0.492195 26:-0.553471 27:-0.106434 28:-0.0421307 29:0.7856 30:0.123592 31:0.142403 32:-0.536704 33:-0.437453 34:-0.574698 35:-0.4459 36:0.481147 37:-0.236574 
-0.5 1:0.0684818 2:-0.178685 3:0.0310887 4:-0.223262 5:-0.22402 6:-0.363286 7:-0.363713 8:0.096543 9:-0.237979 10:-0.288484 11:-0.110985 12:-0.0943531 13:-0.470109 14:-0.0329844 15:0.638006 16:0.137891 17:0.202123 18:0.322148 19:-0.0163016 20:-0.319519 21:0.382939 22:0.0888466 23:-0.849327 24:-0.317587 25:-0.361252 26:0.0257786 27:-0.539979 28:0.0694204 29:-0.118465 30:-0.307424 31:0.0905593 32:-0.228529 33:-0.0784772 34:0.947363 35:0.107449 36:0.790217 37:0.118382 
-0.5 1:-0.289618 2:-0.258412 3:0.751794 4:-0.250375 5:-0.30583 6:-0.390386 7:-0.0877064 8:-0.185292 9:0.014011 10:-0.504132 11:-0.00791429 12:-0.0620831 13:-0.2687 14:-0.421594 15:-0.157184 16:1 17:0.0690084 18:-0.0485461 19:-0.185756 20:-0.456967 21:0.376531 22:0.0181164 23:1 24:-0.269823 25:-0.4105 26:-0.472467 27:-0.00136146 28:-0.707192 29:-0.485483 30:-0.232998 31:-0.28539 32:0.41294 33:-0.185011 34:-0.341424 35:1 36:0.0202896 37:-0.530008 
-0.5 1:-0.0230949 2:0.16276 3:0.10538 4:-0.281892 5:0.0402049 6:0.0631728 7:-0.329933 8:-0.153964 9:-0.232155 10:-0.174241 11:-0.41442 12:-0.243373 13:0.0303348 14:-0.200935 15:-0.0910509 16:0.189604 17:-0.397261 18:-0.0283206 19:-0.510809 20:-0.450576 21:-0.346988 22:0.132045 23:-0.0977407 24:-0.569608 25:-0.212892 26:-0.415703 27:-0.306389 28:-0.428827 29:-0.305509 30:-0.483574 31:-0.321903 32:-0.11309 33:-0.363323 34:-0.26829 35:-0.228917 36:-0.0945715 37:-0.254961 
-0.30705479793041907 1:0.034626 2:-0.169922 3:0.37248 4:-0.288322 5:-0.218212 6:-0.520755 7:-0.547399 8:0.166055 9:0.106289 10:-0.438597 11:0.350377 12:-0.138163 13:-0.390901 14:0.162673 15:0.388256 16:-0.0737287 17:-0.176028 18:0.336186 19:-0.117258 20:-0.680318 21:0.481159 22:0.384934 23:-0.651667 24:-0.431748 25:-0.41978 26:-0.142688 27:-0.330167 28:0.0865987 29:0.243987 30:0.049492 31:-0.117335 32:0.0455297 33:0.206555 34:0.617905 35:-0.513525 36:-0.0644991 37:0.134798 
-0.5 1:-0.120337 2:0.0477974 3:0.241022 4:-0.309257 5:-0.108227 6:-0.550806 7:-0.175962 8:0.275798 9:0.0622911 10:-0.370507 11:0.0913741 12:-0.133214 13:-0.265662 14:-0.369834 15:0.162937 16:0.0230358 17:-0.0917983 18:0.261685 19:-0.166159 20:-0.424262 21:-0.204644 22:0.400053 23:-0.209267 24:-0.557139 25:-0.295159 26:-0.267268 27:0.199248 28:-0.0428116 29:0.201155 30:0.0924074 31:-0.0721152 32:0.0486773 33:-0.276262 34:-0.07029 35:-0.205267 36:0.0403539 37:0.00350935 
-0.012146899783022717 1:-0.173474 2:-0.236689 3:0.0396203 4:0.108897 5:-0.0126295 6:-0.414976 7:-0.155414 8:0.156066 9:-0.0419741 10:-0.126177 11:0.131164 12:-0.164912 13:-0.498907 14:-0.39047 15:-0.138903 16:-0.0260675 17:0.0259537 18:0.234088 19:-0.0277598 20:0.352874 21:0.100505 22:0.112855 23:-0.454835 24:-0.121135 25:0.141723 26:0.033447 27:-0.381543 28:0.225059 29:0.347016 30:0.0204008 31:-0.26637 32:-0.483226 33:-0.125708 34:-0.668758 35:-0.718224 36:-0.0735077 37:0.262724 
-0.5 1:-0.331991 2:-0.200628 3:0.468054 4:-0.283116 5:-0.219072 6:-0.379935 7:-0.335991 8:0.32984 9:0.0405668 10:-0.523541 11:0.333134 12:0.0983475 13:-0.474679 14:-0.404622 15:0.0379476 16:0.281218 17:0.215172 18:0.417341 19:0.509255 20:-0.422897 21:0.1238 22:0.392158 23:-0.10898 24:-0.509753 25:-0.299717 26:0.0596002 27:-0.129342 28:0.00674937 29:0.268142 30:0.0618223 31:-0.0359311 32:-0.127807 33:0.0225711 34:-0.0656762 35:0.168476 36:0.26536 37:-0.0890868 
-0.5 1:0.689111 2:0.0704003 3:-0.111109 4:0.21729 5:-0.0824258 6:-0.393139 7:-0.22302 8:-0.257403 9:-0.551127 10:-0.15634 11:-0.424149 12:-0.418725 13:-0.398878 14:0.232561 15:0.86743 16:-0.185272 17:-0.0358655 18:0.0852589 19:-0.217143 20:-0.730483 21:0.438384 22:-0.149099 23:-0.897985 24:-0.23878 25:-0.687389 26:-0.192147 27:-0.454354 28:-0.341507 29:-0.468395 30:-0.620999 31:-0.315821 32:-0.27812 33:-0.340488 34:0.481933 35:-0.332769 36:0.582805 37:-0.142761 
-0.5 1:-0.275872 2:-0.0721896 3:0.586813 4:-0.305108 5:-0.135636 6:-0.698407 7:-0.071605 8:0.237656 9:0.205678 10:-0.358956 11:0.0680181 12:0.123991 13:-0.471466 14:-0.408262 15:-0.0582136 16:0.274808 17:0.045301 18:0.338479 19:-0.162995 20:-0.398069 21:-0.25865 22:0.397815 23:-0.175137 24:-0.355381 25:0.0151482 26:-0.496291 27:0.00395506 28:-0.187463 29:0.420075 30:0.094302 31:0.571009 32:0.188602 33:0.0588577 34:0.121648 35:-0.0705533 36:0.346696 37:0.079548 
-0.41032630868780706 1:-0.187439 2:-0.142801 3:0.355131 4:-0.390902 5:-0.196583 6:-0.383363 7:-0.182606 8:0.170692 9:0.102842 10:-0.458754 11:0.257042 12:0.101908 13:-0.378507 14:-0.222688 15:-0.199776 16:0.0966523 17:0.170452 18:0.263511 19:0.238899 20:-0.731854 21:-0.0263306 22:0.402839 23:-0.659308 24:-0.639327 25:-0.321424 26:0.0568231 27:0.128557 28:-0.14579 29:0.0939761 30:-0.0739943 31:0.143913 32:0.373419 33:-0.178049 34:-0.142825 35:-0.39016 36:0.512389 37:-0.23138 
-0.5 1:-0.0502621 2:-0.235024 3:0.279017 4:-0.275437 5:-0.46824 6:0.241683 7:-0.44648 8:-0.101448 9:-0.0536905 10:-0.558262 11:0.201101 12:-0.0747253 13:-0.311186 14:-0.118752 15:0.0315571 16:0.530374 17:0.058318 18:0.0807364 19:0.0681283 20:-0.631117 21:0.388273 22:-0.188371 23:-0.74605 24:-0.32388 25:-0.68914 26:0.339966 27:-0.72048 28:-0.362614 29:-0.0146383 30:0.301814 31:0.229585 32:0.347067 33:-0.107701 34:-0.21944 35:0.139882 36:0.311114 37:-0.27716 
-0.5 1:-0.0148506 2:-0.168745 3:0.165365 4:-0.173747 5:-0.112546 6:-0.565309 7:0.0295567 8:0.0870493 9:0.116919 10:-0.379138 11:0.339616 12:0.0418012 13:-0.651563 14:-0.254858 15:-0.140908 16:0.416244 17:0.0440809 18:0.212019 19:0.245057 20:-0.281929 21:0.595559 22:0.627327 23:-0.526347 24:-0.0890923 25:0.0139409 26:-0.578598 27:0.261034 28:-0.040228 29:0.29681 30:0.369266 31:0.717364 32:-0.666945 33:0.126229 34:-0.342459 35:0.0714322 36:-0.14696 37:0.134088 
-0.5 1:0.059418 2:-0.154326 3:0.536425 4:-0.426816 5:-0.376963 6:0.0101325 7:-0.313454 8:-0.0591681 9:-0.175835 10:-0.39805 11:-0.0682983 12:-0.137151 13:-0.512752 14:0.0285378 15:0.623069 16:0.287514 17:0.0593557 18:0.0771029 19:-0.159926 20:-0.65306 21:0.360978 22:0.493093 23:-0.175098 24:-0.428226 25:-0.240852 26:0.803295 27:-0.451987 28:-0.036163 29:0.299342 30:-0.0691498 31:0.64426 32:-0.656825 33:0.0984296 34:1 35:-0.102344 36:0.510733 37:0.19601 
-0.5 1:-0.28958 2:-0.0522974 3:0.378067 4:-0.246497 5:-0.012282 6:-0.410521 7:-0.335924 8:0.145542 9:0.0513537 10:-0.411407 11:0.150749 12:-0.0814485 13:-0.218952 14:-0.269742 15:-0.0662821 16:0.225689 17:-0.0114441 18:0.217317 19:-0.439712 20:-0.588555 21:-0.31547 22:0.273938 23:-0.0369838 24:-0.3371 25:0.124251 26:-0.323181 27:-0.364385 28:-0.17161 29:0.0426752 30:0.272164 31:0.0720351 32:0.289383 33:0.0890277 34:-0.183648 35:-0.414457 36:0.157901 37:-0.0267239 
-0.5 1:-0.250222 2:-0.0285666 3:-0.288827 4:0.00362421 5:0.00473115 6:-0.346061 7:0.0226587 8:0.0409849 9:0.0768165 10:-0.204986 11:0.112192 12:-0.24704 13:-0.338388 14:-0.461031 15:-0.173862 16:0.351472 17:-0.317926 18:-0.00856919 19:-0.44331 20:-0.370468 21:-0.41051 22:-0.165092 23:-0.738272 24:-0.490449 25:-0.538324 26:-0.217941 27:-0.0803456 28:-0.328612 29:-0.116052 30:0.400557 31:-0.252006 32:-0.135254 33:-0.510898 34:-0.525704 35:0.110704 36:-0.0358035 37:-0.215047 
-0.22007904480170662 1:-0.17407 2:-0.213793 3:0.385984 4:-0.173725 5:-0.177919 6:-0.333873 7:-0.576563 8:0.2002 9:0.127127 10:-0.43139 11:0.454774 12:-0.0996196 13:-0.548852 14:0.0883458 15:0.153722 16:-0.0847962 17:-0.190162 18:0.36079 19:0.104924 20:-0.381623 21:-0.0498915 22:0.409992 23:-0.332579 24:-0.262417 25:-0.212647 26:0.413097 27:-0.506693 28:0.0872074 29:0.259362 30:0.177851 31:-0.397001 32:-0.565513 33:0.180823 34:0.384648 35:-0.581919 36:-0.294586 37:0.0812718 
-0.5 1:0.129628 2:0.450654 3:-0.552436 4:-0.257007 5:0.076879 6:-0.455568 7:-0.413831 8:-0.178254 9:-0.0857454 10:-0.590676 11:-0.0897226 12:0.0933553 13:0.362274 14:1 15:0.217952 16:-0.7013 17:-0.768221 18:-0.0101465 19:-0.546094 20:-0.659257 21:-0.53862 22:0.0323627 23:-0.803046 24:-0.724997 25:-0.293909 26:-0.930514 27:-0.414996 28:-0.837756 29:-0.348523 30:-0.211526 31:-0.119927 32:-0.0775242 33:-0.160079 34:-0.498102 35:-0.725357 36:-0.437355 37:-0.558649 
-0.5 1:0.190221 2:-0.0641839 3:0.205373 4:-0.242247 5:-0.0214744 6:0.25456 7:-0.104077 8:-0.315272 9:-0.23742 10:-0.0264668 11:-0.417269 12:-0.155798 13:-0.454707 14:-0.328422 15:0.112013 16:0.287443 17:-0.0828639 18:-0.216488 19:0.115581 20:-0.57244 21:0.254493 22:-0.0102294 23:-0.197651 24:-0.567809 25:-0.256895 26:0.517878 27:-0.0631317 28:-0.432823 29:-0.040351 30:-0.329899 31:0.177562 32:-0.174601 33:-0.668326 34:0.787056 35:-0.372117 36:0.419016 37:-0.469949 
-0.5 1:-0.0780924 2:0.45265 3:-0.445731 4:0.657783 5:1 6:0.191415 7:-0.197694 8:-0.666764 9:-0.653976 10:0.148407 11:-0.563746 12:-0.942443 13:-0.122117 14:0.504327 15:-0.324951 16:-0.546317 17:-1 18:-0.171229 19:-0.798279 20:-0.288299 21:-0.737345 22:-0.502501 23:-0.639149 24:-0.402622 25:-0.303085 26:-0.896438 27:-0.498061 28:-0.87006 29:-0.890572 30:-0.629347 31:-0.900186 32:-0.552269 33:-0.657867 34:-0.769289 35:-0.864531 36:-0.850474 37:-0.686039 
-0.5 1:-0.185545 2:-0.217833 3:0.155682 4:-0.0155853 5:-0.182125 6:-0.294365 7:-0.407445 8:0.0149266 9:-0.0504112 10:-0.29124 11:0.0158595 12:-0.221547 13:-0.414561 14:-0.209352 15:0.161748 16:0.2691 17:-0.0103742 18:0.183219 19:-0.125528 20:-0.210602 21:-0.104944 22:0.298513 23:-0.733038 24:-0.408461 25:-0.114738 26:0.303522 27:-0.550279 28:-0.242533 29:-0.0499875 30:-0.164261 31:0.0142262 32:-0.325894 33:-0.076826 34:-0.0686096 35:-0.27656 36:0.277463 37:0.0536472 
-0.1150254870155259 1:-0.277667 2:-0.155491 3:0.665185 4:-0.548641 5:-0.3186 6:-0.34858 7:-0.145363 8:0.38153 9:0.22715 10:-0.476901 11:0.165196 12:-0.00413638 13:-0.41796 14:-0.391885 15:-0.340762 16:0.232792 17:0.0113462 18:0.352828 19:0.571484 20:-0.326229 21:-0.470576 22:0.314606 23:-0.0106288 24:-0.479932 25:-0.442568 26:0.00470991 27:-0.155635 28:-0.0827272 29:0.151016 30:0.0808833 31:-0.0528403 32:0.357394 33:-0.0291691 34:-0.685071 35:-0.6001 36:0.2628 37:0.0875559 
-0.36588517062101578 1:-0.0878631 2:-0.366627 3:0.630929 4:-0.631046 5:-0.493885 6:0.183942 7:-0.63224 8:0.243598 9:-0.0850011 10:-0.255002 11:0.125403 12:-0.141989 13:-0.39629 14:-0.247017 15:-0.240227 16:0.305587 17:-0.242714 18:0.454387 19:0.403425 20:-0.065127 21:0.142439 22:-0.259076 23:-0.428809 24:-0.922928 25:-0.67707 26:0.667372 27:-0.5828 28:-0.00639702 29:-0.18868 30:0.125027 31:-0.529074 32:-0.0762618 33:-0.249723 34:-0.790441 35:-0.58292 36:-0.500276 37:0.361326 
-0.5 1:-0.441613 2:-0.204871 3:0.408538 4:0.092067 5:0.0652367 6:-0.410798 7:-0.321879 8:-0.180901 9:0.212785 10:-0.0658399 11:-0.250013 12:-0.616906 13:0.070843 14:-0.143567 15:0.040996 16:-0.277455 17:-0.887572 18:0.242642 19:-0.189473 20:-0.0599562 21:-0.563685 22:-0.369673 23:-0.416137 24:-0.286005 25:-0.270166 26:-0.878944 27:-0.283997 28:-0.570351 29:0.112347 30:0.0557655 31:-0.333212 32:-0.00398838 33:-0.57487 34:-0.316309 35:-0.489073 36:-0.395569 37:-0.247275 
-0.5 1:-0.152808 2:-0.135406 3:0.313118 4:0.00200302 5:-0.17627 6:-0.469985 7:-0.565076 8:0.255592 9:0.0537418 10:-0.184961 11:0.224331 12:-0.419537 13:-0.500284 14:-0.370024 15:0.183233 16:0.181082 17:-0.41447 18:0.560721 19:-0.665008 20:1 21:-0.470496 22:-0.0698007 23:-0.215886 24:0.111495 25:0.288438 26:-0.0985949 27:-0.766011 28:0.0937493 29:0.0944878 30:-0.0506386 31:-0.638801 32:-0.489673 33:-0.246848 34:0.36758 35:-0.851105 36:-1 37:1 
-0.041760740413211449 1:-0.160242 2:-0.15787 3:0.189303 4:-0.225844 5:-0.174095 6:-0.400215 7:-0.112894 8:0.179638 9:0.187161 10:-0.3064 11:0.203125 12:0.0132445 13:-0.469041 14:-0.451505 15:-0.0934631 16:0.2253 17:0.132885 18:0.235982 19:-0.104064 20:-0.532021 21:-0.101194 22:0.146548 23:-0.507783 24:-0.424523 25:-0.0782036 26:0.00420832 27:0.129339 28:-0.16032 29:0.305989 30:0.229369 31:0.0551189 32:0.0765684 33:-0.182608 34:-0.384369 35:-0.189553 36:0.346663 37:0.0366015 
-0.5 1:-0.2805 2:0.0618679 3:-0.0901813 4:0.183952 5:0.262878 6:-0.737758 7:-0.105654 8:0.00227745 9:0.0321107 10:-0.235728 11:-0.0269899 12:0.00772041 13:-0.538364 14:-0.818752 15:-0.376183 16:0.524124 17:0.200425 18:0.0253588 19:0.308379 20:0.257894 21:-0.283102 22:0.429212 23:-0.59289 24:-0.123352 25:0.59087 26:-0.73414 27:-0.392492 28:-0.0843356 29:-0.0423227 30:-0.127082 31:0.250904 32:-0.415905 33:-0.605638 34:-0.596928 35:0.101772 36:0.540845 37:-0.0378712 
-0.5 1:0.0342866 2:-0.0845334 3:-0.172821 4:-0.104543 5:-0.195256 6:-0.424969 7:-0.0262639 8:0.0502333 9:0.0813677 10:-0.400632 11:-0.121689 12:0.15021 13:-0.0347669 14:-0.415557 15:-0.210569 16:0.163161 17:0.0911265 18:0.0469835 19:-0.925607 20:-0.00743537 21:0.147914 22:0.125501 23:-0.392404 24:-0.571381 25:-0.530235 26:-0.326447 27:-0.241024 28:-0.234722 29:0.00616814 30:-0.0875674 31:0.173735 32:0.243032 33:-0.399987 34:-0.623498 35:-0.450439 36:0.442502 37:-0.202451 
-0.5 1:0.257645 2:-0.0885997 3:0.117597 4:-0.742391 5:-0.527591 6:-0.0775373 7:-0.522453 8:0.392468 9:0.221631 10:-0.553781 11:-0.0428171 12:0.26181 13:-0.308082 14:-0.141057 15:0.249913 16:0.181086 17:-0.116609 18:0.640951 19:-0.188855 20:-0.763299 21:1 22:0.0552378 23:-0.638618 24:-0.490176 25:-0.692406 26:0.409461 27:-0.303807 28:-0.196806 29:0.151572 30:-0.449835 31:0.535089 32:0.488675 33:-0.0103578 34:0.0401754 35:-0.741332 36:-0.279331 37:0.615666 
-0.5 1:-0.276146 2:0.697664 3:-0.449145 4:0.118574 5:0.623637 6:-0.217492 7:-0.262389 8:-0.527681 9:-0.357676 10:-0.0990064 11:-0.491049 12:-0.408052 13:-0.160818 14:-0.694433 15:-0.760319 16:0.792046 17:-0.521121 18:-0.517695 19:-0.660455 20:-0.0588681 21:-0.557452 22:-0.126407 23:-0.685836 24:-0.340301 25:-0.0533394 26:-0.905124 27:-0.435265 28:-0.50357 29:-0.142853 30:-0.228162 31:-0.401911 32:-0.572483 33:-0.670611 34:-0.789417 35:-0.19871 36:-0.487254 37:-0.569125 
-0.33278051097686051 1:-0.197947 2:0.0197731 3:0.428844 4:-0.120747 5:0.0321799 6:-0.621451 7:-0.118722 8:0.446888 9:0.0942082 10:-0.226594 11:0.218672 12:0.0439737 13:-0.636628 14:-1 15:-0.138458 16:0.34622 17:0.0698233 18:0.443201 19:-0.789112 20:-0.202981 21:0.282087 22:0.790615 23:0.126385 24:-0.177014 25:0.280055 26:-0.189558 27:0.108587 28:-0.0241821 29:0.318295 30:0.433414 31:0.155678 32:-0.788331 33:-0.798712 34:-0.183303 35:-0.0593132 36:-0.186141 37:0.476787 
-0.5 1:-0.0929171 2:0.00677785 3:0.133268 4:-0.0325859 5:0.105285 6:-0.740861 7:-0.163069 8:0.385858 9:0.0424802 10:-0.201798 11:0.214945 12:-0.103496 13:-0.695975 14:-0.355377 15:0.100257 16:0.109729 17:-0.102542 18:0.320513 19:-0.269354 20:-0.0603503 21:0.0849356 22:0.394748 23:-0.625364 24:-0.0859802 25:0.597747 26:-0.712132 27:-0.20608 28:0.230252 29:-0.0301413 30:0.415502 31:-0.320667 32:-0.86001 33:0.0349691 34:0.12886 35:-0.743319 36:-0.495293 37:0.0231387 
-0.5 1:-0.0157728 2:-0.210997 3:0.312464 4:0.0390565 5:-0.0812452 6:-0.668661 7:-0.25311 8:0.194098 9:0.0798519 10:-0.38658 11:0.405752 12:-0.0280684 13:-0.412798 14:-0.362982 15:0.0271141 16:0.145732 17:0.0506885 18:0.196008 19:-0.49852 20:-0.462567 21:0.0563166 22:0.199949 23:-0.233471 24:-0.0852639 25:0.0305514 26:-0.449246 27:-0.339732 28:0.00836467 29:0.406922 30:0.26984 31:0.060605 32:-0.14549 33:-0.135502 34:0.035182 35:-0.173066 36:0.0163749 37:-0.0421983 
-0.5 1:-0.198578 2:-0.16238 3:0.380775 4:-0.273516 5:-0.280341 6:-0.426451 7:-0.239453 8:0.246638 9:0.0750798 10:-0.292601 11:0.146922 12:0.165152 13:-0.427922 14:-0.372098 15:-0.0525918 16:0.150226 17:0.0537706 18:0.289069 19:-0.344412 20:-0.417674 21:-0.117574 22:0.563081 23:-0.019281 24:-0.202068 25:-0.281694 26:0.0169158 27:-0.382254 28:-0.0226953 29:-0.018298 30:-0.15536 31:0.698084 32:0.191467 33:-0.211727 34:-0.146685 35:-0.2418 36:0.389616 37:0.103152 
-0.5 1:-0.723435 2:-1 3:0.0810525 4:-0.483309 5:-1 6:-0.191033 7:-0.762174 8:0.629236 9:0.707296 10:-0.795104 11:0.538282 12:0.514599 13:-0.394243 14:0.0199116 15:0.438916 16:0.2453 17:-0.0397268 18:0.814935 19:-0.293958 20:-0.397238 21:-0.509837 22:-0.896714 23:-0.743633 24:-0.301948 25:-1 26:-0.125917 27:-0.0969229 28:-0.213034 29:0.18346 30:-0.324673 31:-0.00798314 32:-0.0601693 33:-0.0342279 34:-0.0887891 35:0.0257273 36:0.182235 37:-0.326289 
-0.5 1:-0.769892 2:-0.0460435 3:0.163062 4:-0.783113 5:-0.273735 6:0.255539 7:-0.112913 8:0.160287 9:0.247454 10:-0.762368 11:-0.487862 12:-0.231857 13:-0.243101 14:-0.801544 15:-0.0754224 16:0.383645 17:-0.295992 18:0.79649 19:-0.0500732 20:0.0405736 21:-0.644858 22:0.183353 23:-0.46659 24:-0.644899 25:-0.362327 26:0.261054 27:-0.113921 28:-0.427468 29:-0.13977 30:-0.443309 31:-0.17015 32:-0.134885 33:-0.743414 34:-0.220226 35:-0.253795 36:-0.0763093 37:0.214301 
-0.5 1:-0.488769 2:-0.418626 3:0.699874 4:-0.487385 5:-0.360725 6:-0.041918 7:-0.56198 8:0.301785 9:0.252752 10:-0.447402 11:0.156795 12:-0.123979 13:-0.431834 14:-0.297562 15:-0.293799 16:0.259052 17:-0.331886 18:0.508981 19:1 20:-0.0557515 21:-0.32373 22:-0.179276 23:-0.34409 24:-0.526652 25:-0.240295 26:0.280879 27:-0.554829 28:-0.0257229 29:0.40752 30:0.314245 31:-0.296322 32:-0.040544 33:-0.331982 34:-0.611044 35:-0.254727 36:-0.45573 37:-0.00536225 
-0.5 1:-0.202017 2:-0.107497 3:0.285197 4:0.103981 5:-0.0162939 6:-0.31936 7:-0.0980246 8:0.235178 9:0.146576 10:-0.254855 11:0.128025 12:-0.0973011 13:-0.638495 14:-0.443902 15:-0.210605 16:0.190253 17:-0.157228 18:0.167309 19:-0.221725 20:-0.357884 21:-0.424457 22:0.0270372 23:-0.546394 24:0.236437 25:0.00896916 26:0.123599 27:-0.270329 28:-0.028987 29:0.500698 30:0.259484 31:0.161107 32:-0.611184 33:-0.235585 34:-0.561859 35:-0.496821 36:-0.219565 37:0.137568 
-0.5 1:-0.450577 2:-0.268211 3:0.876383 4:-0.470061 5:-0.347225 6:-0.217674 7:-0.35828 8:0.352336 9:0.44621 10:-0.615646 11:0.0945935 12:-0.136431 13:-0.364976 14:-0.199982 15:0.0248556 16:0.278635 17:-0.291891 18:0.441181 19:0.0499656 20:-0.459137 21:-0.0926343 22:0.0365292 23:0.0604778 24:-0.558121 25:-0.209171 26:-0.0164645 27:-0.114337 28:0.0206965 29:1 30:-0.0147587 31:-0.40223 32:0.0628838 33:0.164845 34:-0.0096264 35:-0.368335 36:-0.373492 37:0.449768 
-0.5 1:-0.0312251 2:-0.0434 3:0.256418 4:0.191175 5:-0.0209506 6:-0.385234 7:-0.203388 8:0.228659 9:0.164756 10:-0.238428 11:0.242061 12:-0.400405 13:-0.438787 14:-0.258638 15:0.103034 16:-0.129252 17:-0.318723 18:0.221469 19:-0.219178 20:-0.524845 21:-0.0472967 22:0.41952 23:-0.266975 24:-0.103491 25:0.137661 26:-0.526613 27:-0.265659 28:0.00115246 29:0.483632 30:-0.0263956 31:-0.445328 32:-0.366494 33:-0.597375 34:-0.281959 35:-0.714716 36:-0.0404213 37:-0.143673 
-0.5 1:0.191001 2:-0.466565 3:0.119637 4:-0.904292 5:-0.700245 6:-0.767951 7:-0.205088 8:0.958134 9:0.556218 10:-0.435827 11:0.848304 12:0.714943 13:-0.647341 14:-0.695593 15:-0.227671 16:0.468599 17:0.87782 18:0.384452 19:-0.649663 20:-0.566434 21:0.501405 22:-0.183234 23:-0.55621 24:-0.658071 25:-0.596189 26:-0.180608 27:-0.0093867 28:0.249826 29:0.1311 30:0.277073 31:0.259476 32:-0.204774 33:-0.0499831 34:-0.613815 35:-0.207184 36:0.864368 37:-0.0836287 
-0.5 1:-0.11494 2:-0.102807 3:0.116102 4:0.104114 5:0.147921 6:-0.372355 7:-0.345691 8:-0.105372 9:-0.225911 10:-0.259629 11:-0.0288245 12:-0.33701 13:-0.0564022 14:-0.0435515 15:0.0821773 16:-0.132836 17:-0.272706 18:0.0749058 19:-0.11666 20:-0.328257 21:-0.416883 22:0.0176344 23:-0.454901 24:-0.223056 25:-0.0502543 26:-0.250403 27:-0.52538 28:-0.340698 29:0.0583902 30:-0.121654 31:-0.464317 32:0.62435 33:-0.166086 34:-0.24361 35:-0.671977 36:-0.419844 37:-0.126613 
-0.5 1:-0.118241 2:0.581094 3:-0.208037 4:-0.20573 5:0.428171 6:-0.250704 7:-0.0128113 8:0.188102 9:0.105922 10:-0.303268 11:-0.520807 12:-0.291395 13:-0.338536 14:-0.388156 15:-0.123096 16:-0.219942 17:-0.375154 18:0.168771 19:-0.464239 20:-0.532617 21:-0.470784 22:0.201956 23:-0.59433 24:-0.668849 25:-0.277673 26:-0.259009 27:-0.107598 28:-0.36272 29:0.00268158 30:-0.348265 31:0.00221589 32:-0.36911 33:-0.51169 34:-0.53312 35:-0.500688 36:0.0135786 37:-0.287595 
-0.5 1:-0.245511 2:-0.0114557 3:0.308517 4:-0.3421 5:-0.111912 6:-0.413545 7:-0.122151 8:0.147824 9:0.106957 10:-0.373106 11:-0.144778 12:-0.0162784 13:-0.414999 14:-0.220456 15:0.0142552 16:0.0566228 17:-0.0315405 18:0.393449 19:0.0864135 20:-0.361223 21:-0.262653 22:0.165403 23:-0.262421 24:-0.543348 25:-0.0158764 26:-0.321909 27:-0.299091 28:-0.122386 29:0.270266 30:-0.10467 31:0.244772 32:-0.0288819 33:0.251139 34:-0.318717 35:-0.616099 36:0.26268 37:0.448739 
-0.5 1:-0.414329 2:-0.406512 3:0.68419 4:-0.807019 5:-0.53605 6:-0.476147 7:-0.45358 8:0.737254 9:0.539591 10:-0.49459 11:0.58027 12:0.478379 13:-0.661704 14:-0.62353 15:-0.134022 16:0.430235 17:0.196001 18:0.747321 19:0.197221 20:-0.558273 21:-0.149404 22:0.0305283 23:-0.0746281 24:-0.760948 25:-0.272539 26:0.106976 27:-0.426356 28:0.016063 29:0.0292735 30:0.301923 31:0.179263 32:-0.459545 33:-0.232139 34:-0.228024 35:-0.5781 36:-0.0514507 37:0.357488 
-0.017672474770733134 1:-0.311782 2:-0.116742 3:0.478627 4:-0.268018 5:-0.207121 6:-0.701772 7:-0.0572149 8:0.253736 9:0.30431 10:-0.317992 11:0.530498 12:0.262396 13:-0.498626 14:-0.824302 15:-0.298309 16:0.507389 17:0.300775 18:0.0317929 19:-0.2517 20:-0.176532 21:0.0587186 22:0.996012 23:-0.241486 24:-0.426476 25:0.0159584 26:-0.294942 27:-0.390863 28:-0.0951122 29:0.529715 30:0.870378 31:0.738782 32:0.0168977 33:-0.421938 34:-0.317541 35:-0.282755 36:0.816028 37:-0.414397 
-0.5 1:0.015365 2:0.668652 3:-0.271501 4:-0.103979 5:0.739255 6:0.18635 7:-0.700145 8:-0.558977 9:-0.691079 10:0.220463 11:-0.660124 12:-0.3924 13:-0.0941135 14:-0.156818 15:-0.184914 16:-0.232169 17:-0.611706 18:-0.215141 19:-0.216495 20:-0.66218 21:-0.633529 22:-0.328343 23:-0.852629 24:-0.747718 25:-0.183076 26:-0.395362 27:-1 28:-0.693332 29:-0.687818 30:-0.624813 31:-0.356919 32:-0.497752 33:-0.656711 34:-0.244417 35:-0.897556 36:-0.645501 37:-0.460046 
-0.5 1:-0.108648 2:-0.0756839 3:0.257371 4:-0.0490256 5:-0.0280627 6:-0.731592 7:-0.0398316 8:0.33201 9:0.256764 10:-0.327031 11:0.218561 12:0.0142234 13:-0.456185 14:-0.516528 15:-0.160576 16:0.166236 17:0.134967 18:0.173049 19:-0.388456 20:-0.427023 21:-0.0801265 22:0.392841 23:-0.108084 24:-0.211178 25:0.037072 26:-0.657777 27:-0.0802429 28:-0.0245828 29:0.308772 30:0.134793 31:0.126784 32:-0.190359 33:-0.386712 34:-0.46671 35:-0.422252 36:0.401299 37:-0.1632 
-0.5 1:-0.407749 2:0.601393 3:-0.839033 4:0.0258125 5:0.0727794 6:-0.149557 7:0.153425 8:-0.349334 9:-0.256594 10:-0.478258 11:-0.333993 12:-0.273123 13:0.202037 14:0.114672 15:0.6439 16:-0.156795 17:-0.329032 18:-0.405075 19:-0.603636 20:-0.55303 21:-0.816912 22:-0.557248 23:-1 24:-0.51996 25:-0.472145 26:-1 27:-0.454956 28:-0.701862 29:-0.473329 30:-0.267821 31:-0.434064 32:-0.0666404 33:0.0140837 34:0.00730618 35:-0.622667 36:-0.265103 37:-0.651238 
-0.5 1:-0.314233 2:-0.179331 3:0.140753 4:-0.387395 5:-0.112523 6:-0.434734 7:-0.611716 8:0.399314 9:-0.0236691 10:-0.274402 11:0.110887 12:-0.164257 13:-0.145548 14:-0.350955 15:0.127732 16:-0.177243 17:-0.285188 18:0.70119 19:-0.11739 20:-0.319318 21:-0.171978 22:0.194814 23:-0.68415 24:-0.62231 25:-0.0600661 26:-0.361665 27:-0.553013 28:0.046366 29:-0.209151 30:0.185824 31:-0.201644 32:-0.388176 33:-0.472139 34:0.0175625 35:-0.737639 36:-0.353646 37:0.440988 
-0.5 1:-0.329581 2:-0.264291 3:0.7277 4:-0.251897 5:-0.382852 6:-0.491111 7:-0.224727 8:0.201413 9:0.278078 10:-0.519282 11:0.183307 12:-0.0760707 13:-0.271558 14:-0.195425 15:0.0680807 16:0.112024 17:-0.0739993 18:0.348768 19:0.110478 20:-0.528233 21:0.204024 22:0.315185 23:-0.206863 24:-0.161903 25:-0.359462 26:-0.404147 27:-0.0638725 28:-0.136156 29:0.553886 30:0.145099 31:-0.185502 32:0.0875358 33:0.000673985 34:-0.36808 35:-0.52136 36:-0.133264 37:0.241669 
-0.5 1:-0.280305 2:-0.366194 3:0.483148 4:-0.405328 5:-0.426279 6:-0.238589 7:-0.445203 8:0.236469 9:0.215771 10:-0.400583 11:0.242425 12:-0.0418455 13:-0.42857 14:-0.0992446 15:0.1538 16:0.201819 17:-0.147424 18:0.361853 19:0.693491 20:-0.334593 21:-0.304242 22:0.0953405 23:-0.479749 24:-0.293129 25:-0.488886 26:0.119933 27:-0.181126 28:-0.195838 29:0.254577 30:0.336029 31:0.0496203 32:-0.0768926 33:0.222651 34:0.227111 35:-0.566975 36:-0.0212603 37:-0.0183209 
-0.5 1:-0.114033 2:-0.274245 3:0.356856 4:-0.405084 5:-0.242401 6:-0.513616 7:0.106096 8:0.389595 9:0.172023 10:-0.373873 11:0.0424905 12:-0.0114621 13:-0.389742 14:-0.3364 15:0.112797 16:-0.0539222 17:-0.0125175 18:0.371209 19:-0.198076 20:-0.525963 21:0.199058 22:-0.112248 23:0.162296 24:-0.496988 25:-0.172018 26:-0.00700977 27:0.150325 28:0.0810584 29:0.0351555 30:-0.206276 31:-0.0164317 32:-0.160389 33:-0.60544 34:-0.565652 35:-0.528963 36:-0.0404383 37:0.276024 
-0.028766927893377731 1:-0.152224 2:0.0431941 3:0.00598421 4:0.103404 5:0.0656836 6:-0.563254 7:-0.0297161 8:0.0999881 9:0.160161 10:-0.267508 11:-0.0152757 12:-0.0898766 13:-0.480251 14:-0.671065 15:-0.219856 16:0.30522 17:0.0157504 18:0.118622 19:-0.344799 20:-0.311112 21:0.0291276 22:0.513564 23:-0.60989 24:-0.148014 25:0.207113 26:-0.283482 27:-0.0668704 28:-0.0311104 29:0.534591 30:-0.153019 31:-0.0616118 32:-0.126941 33:-0.381937 34:-0.0405903 35:-0.298446 36:0.423848 37:0.288613 
-0.32407607022058732 1:-0.31498 2:-0.190921 3:0.429503 4:-0.63337 5:-0.177996 6:-0.172964 7:0.00990661 8:0.493423 9:0.148018 10:-0.414716 11:0.244553 12:0.172197 13:-0.542277 14:-0.845312 15:-0.29468 16:0.355155 17:0.167328 18:0.409884 19:-0.115227 20:-0.415244 21:0.00684252 22:0.0877263 23:-0.139967 24:-0.508334 25:0.0788002 26:0.319592 27:-0.180359 28:0.0545785 29:-0.119612 30:0.344733 31:0.0889745 32:0.0375888 33:-0.303636 34:-0.143681 35:-0.409159 36:0.189541 37:0.051921 
-0.49120350189306738 1:-0.332846 2:-0.147617 3:0.493214 4:-0.589347 5:-0.183414 6:-0.164726 7:-0.298329 8:0.407029 9:0.201985 10:-0.426903 11:0.16841 12:-0.0267244 13:-0.541625 14:-0.375911 15:-0.132338 16:0.205823 17:-0.142977 18:0.549322 19:0.0572925 20:-0.406093 21:-0.367421 22:0.141685 23:-0.496609 24:-0.670278 25:0.0290241 26:0.22949 27:-0.251904 28:-0.0224314 29:0.460088 30:0.40469 31:-0.153853 32:-0.53267 33:-0.094897 34:0.0427183 35:-0.636476 36:-0.294603 37:0.17138 
-0.5 1:-0.285654 2:-0.126844 3:0.279923 4:-0.109406 5:-0.111571 6:-0.510426 7:-0.0841594 8:0.139546 9:0.109969 10:-0.316818 11:0.228224 12:-0.070574 13:-0.373839 14:-0.646723 15:6.4802e-05 16:0.36563 17:0.102053 18:0.0904418 19:-0.39217 20:-0.268995 21:-0.0979777 22:0.364389 23:-0.35363 24:-0.324267 25:0.102247 26:-0.236904 27:-0.0108812 28:-0.103907 29:0.266809 30:0.30042 31:0.0606596 32:-0.0644018 33:-0.471797 34:0.0587547 35:-0.516934 36:0.111829 37:-0.0447638 
-0.5 1:0.6126 2:0.0112076 3:-0.375402 4:0.376382 5:-0.124526 6:-0.23764 7:0.34016 8:0.118212 9:-0.0163035 10:-0.482056 11:-0.23644 12:-0.0970884 13:-0.323603 14:-0.371821 15:-0.216356 16:0.171939 17:0.127735 18:-0.0617368 19:-0.53492 20:-0.641707 21:-0.03412 22:-0.0850657 23:-0.774102 24:-0.471095 25:-0.319509 26:-0.432346 27:0.146115 28:-0.2685 29:-0.0618127 30:-0.24548 31:-0.00855951 32:-0.0876839 33:-0.146522 34:-0.606971 35:0.05624 36:0.404194 37:-0.268138 
-0.5 1:0.611509 2:-0.36211 3:0.00208797 4:-0.409449 5:-0.648391 6:-0.0254161 7:-0.291034 8:0.033827 9:-0.335026 10:-0.495848 11:-0.441694 12:-0.242694 13:-0.46566 14:0.693057 15:0.988489 16:0.210872 17:0.350647 18:0.221822 19:-0.517668 20:-0.779401 21:0.496542 22:-0.668967 23:-0.899674 24:-0.493762 25:-0.966178 26:-0.0634324 27:-0.27832 28:-0.162512 29:-0.22786 30:-0.340802 31:-0.390928 32:-0.494315 33:0.176608 34:0.0745289 35:-0.178591 36:0.68982 37:-0.017959 
-0.5 1:-0.122063 2:-0.043799 3:-0.0374681 4:-0.427484 5:-0.301472 6:-0.469855 7:0.145452 8:0.160622 9:0.0539551 10:-0.381815 11:-0.0559349 12:0.401099 13:-0.359174 14:-0.499479 15:-0.107811 16:0.392038 17:0.380957 18:0.114381 19:-0.410433 20:-0.497006 21:-0.090318 22:0.53604 23:-0.691906 24:-0.398325 25:-0.347266 26:-0.186786 27:-0.0511132 28:-0.200297 29:-0.0497635 30:0.00338067 31:0.549651 32:0.231505 33:-0.156714 34:-0.195354 35:-0.334226 36:0.640497 37:-0.0932483 
-0.5 1:-0.13568 2:0.0338947 3:-0.0227624 4:-0.371614 5:-0.166361 6:-0.413111 7:-0.225662 8:0.211081 9:0.126628 10:-0.337643 11:0.031156 12:0.0912524 13:-0.345078 14:-0.433361 15:-0.218444 16:0.346237 17:0.328908 18:0.164331 19:-0.678863 20:0.0221305 21:-0.145371 22:0.389604 23:-0.462077 24:-0.427807 25:-0.200524 26:0.0570691 27:0.142331 28:0.0566527 29:0.477907 30:-0.246047 31:0.253255 32:0.602607 33:0.0069187 34:-0.263342 35:-0.57973 36:0.740724 37:-0.0621076 
-0.5 1:-0.00304539 2:-0.122836 3:0.372793 4:-0.102399 5:-0.00966835 6:-0.936082 7:0.163667 8:0.204381 9:0.326053 10:-0.0664924 11:0.254062 12:0.032738 13:-0.492866 14:-0.552053 15:-0.276699 16:0.0643174 17:-0.0734411 18:0.0224325 19:-0.619927 20:-0.360171 21:-0.0294203 22:0.144129 23:-0.153287 24:-0.462585 25:-0.226055 26:-0.765505 27:0.134055 28:-0.40988 29:0.25893 30:0.297547 31:-0.0621748 32:-0.221227 33:-0.248024 34:-0.366469 35:-0.171839 36:0.122 37:-0.343522 
-0.5 1:-0.508914 2:-0.554889 3:0.659017 4:-0.688274 5:-0.572826 6:-0.131258 7:-0.617455 8:0.721557 9:0.269495 10:-0.701487 11:0.503423 12:0.383861 13:-0.45874 14:-0.41562 15:0.0937354 16:0.287112 17:0.252964 18:0.644716 19:0.508327 20:-0.734279 21:-0.0627874 22:-0.270971 23:-0.626456 24:-0.736776 25:-0.559341 26:0.478939 27:-0.297098 28:0.451499 29:0.352202 30:0.196311 31:0.391858 32:-0.0927449 33:0.0460156 34:-0.23185 35:-0.356302 36:0.110244 37:0.376725 
-0.5 1:0.0947843 2:0.509272 3:-0.0396147 4:0.11657 5:0.62572 6:-0.232322 7:-0.0794968 8:-0.727565 9:-0.690552 10:0.386295 11:-0.592888 12:-0.448684 13:-0.219799 14:-0.15162 15:-0.442745 16:0.0650189 17:-0.261044 18:-0.495147 19:0.15507 20:-0.393105 21:-0.74768 22:-0.181668 23:-0.40825 24:-0.797916 25:-0.107278 26:-0.324718 27:-0.613297 28:-0.902505 29:-0.982638 30:-0.379343 31:-0.324619 32:0.106899 33:-0.304628 34:-0.79562 35:-0.536731 36:0.0244792 37:-0.740357 
-0.5 1:-0.13013 2:-0.0831429 3:0.277341 4:-0.0468274 5:0.00371359 6:-0.469939 7:-0.0800782 8:-0.037586 9:-0.0615822 10:-0.256179 11:0.0957994 12:-0.0713705 13:-0.431445 14:-0.509521 15:-0.0667282 16:0.360259 17:0.13528 18:0.0293388 19:-0.421457 20:-0.231054 21:0.0773899 22:0.264772 23:-0.0624545 24:-0.290788 25:0.144796 26:-0.224703 27:-0.200324 28:-0.0918187 29:0.175607 30:0.0521176 31:0.268043 32:-0.16701 33:-0.322023 34:-0.494546 35:-0.28725 36:0.122773 37:-0.00166937 
-0.5 1:-0.160538 2:-0.297396 3:0.357039 4:0.0871265 5:-0.0489342 6:-0.655831 7:0.259225 8:0.0145499 9:-0.233405 10:0.153752 11:-0.0349826 12:-0.231313 13:-0.46384 14:-0.472985 15:-0.363695 16:0.340508 17:0.0167371 18:0.162373 19:-0.898284 20:0.0421758 21:-0.0618679 22:-0.37587 23:-0.49258 24:0.0220396 25:-0.190036 26:-0.435793 27:0.419855 28:0.24867 29:-0.443337 30:-0.144731 31:-0.437027 32:-0.413038 33:-0.0952855 34:-0.715759 35:-0.535291 36:0.0423582 37:0.785662 
-0.5 1:-0.407331 2:-0.266039 3:0.622842 4:-0.537536 5:-0.388655 6:0.019943 7:-0.660165 8:0.411419 9:0.404265 10:-0.370585 11:0.34587 12:-0.0148398 13:-0.452882 14:-0.294579 15:-0.0903082 16:0.100281 17:-0.223077 18:0.465382 19:-0.15443 20:-0.493221 21:-0.66189 22:-0.295504 23:-0.185257 24:-0.249195 25:-0.448529 26:0.672278 27:-0.305548 28:-0.281769 29:0.283249 30:0.313353 31:-0.63036 32:-0.145236 33:-0.306274 34:-0.479533 35:-0.634727 36:-0.304857 37:0.171064 
-0.5 1:1 2:0.364583 3:-0.582582 4:0.0504934 5:-0.0578412 6:-0.316024 7:0.307039 8:0.383949 9:-0.184081 10:-0.300015 11:-0.771264 12:-0.586569 13:0.219673 14:0.696823 15:0.489381 16:-1 17:-0.878541 18:0.0197193 19:-0.883661 20:-0.749543 21:-0.587709 22:-0.577018 23:-0.33452 24:-0.903202 25:-0.845129 26:-0.771148 27:-0.0638876 28:-0.433862 29:-0.694097 30:-0.43279 31:-0.682531 32:-0.273438 33:-0.768819 34:-0.639093 35:-0.363163 36:-0.489356 37:-0.579677 
-0.5 1:0.313722 2:0.0877385 3:0.100362 4:0.138604 5:-0.0910378 6:-0.337959 7:-0.151399 8:-0.0118699 9:-0.114029 10:-0.282664 11:0.066906 12:-0.0831208 13:-0.411088 14:-0.476426 15:-0.153605 16:0.209331 17:-0.0061363 18:-0.000586815 19:-0.489565 20:-0.138775 21:0.257578 22:0.481005 23:-0.433012 24:-0.189387 25:-0.338498 26:-0.466044 27:-0.507525 28:-0.39372 29:-0.235422 30:0.0160865 31:0.185489 32:-0.145961 33:-0.249714 34:-0.248314 35:-0.326788 36:0.26846 37:-0.213008 
-0.5 1:-0.676329 2:-0.30859 3:0.295873 4:-0.392766 5:-0.265649 6:-0.592248 7:-0.28703 8:0.588877 9:0.563212 10:-0.551106 11:0.476397 12:0.248526 13:-0.355811 14:-0.610241 15:-0.105393 16:0.29583 17:0.099782 18:0.589854 19:-0.363241 20:-0.471094 21:-0.687659 22:-0.00839482 23:-0.602588 24:-0.399903 25:-0.175869 26:-0.188698 27:-0.247705 28:-0.0613977 29:0.401744 30:0.0951001 31:0.165946 32:0.251919 33:-0.0139755 34:-0.243023 35:-0.537473 36:-0.0609388 37:0.178175 
-0.28762560448300767 1:-0.304445 2:-0.197982 3:0.657401 4:-0.166909 5:-0.217449 6:0.0128668 7:-0.292573 8:0.00316309 9:-0.220101 10:-0.214735 11:-0.0766642 12:-0.431915 13:-0.360095 14:-0.241213 15:0.170119 16:0.0980498 17:-0.318387 18:0.126559 19:0.609284 20:-0.0492958 21:-0.474776 22:-0.128957 23:-0.115788 24:-0.486977 25:-0.43449 26:0.429934 27:-0.10589 28:-0.00331285 29:-0.163488 30:-0.0030453 31:-0.404326 32:-0.124955 33:-0.169501 34:0.659571 35:-0.840307 36:-0.590926 37:0.330839 
-0.5 1:-0.348487 2:-0.517315 3:-0.0406061 4:-0.0882505 5:-0.171021 6:0.0464538 7:-1 8:-0.573247 9:-0.774138 10:0.831458 11:-0.655856 12:-1 13:0.351942 14:0.544104 15:0.47821 16:-0.761447 17:-0.828084 18:0.174379 19:0.147712 20:-0.522492 21:-1 22:-1 23:-0.935667 24:-0.878592 25:-0.827552 26:-0.465198 27:-0.960083 28:-0.789571 29:-0.804782 30:-1 31:-1 32:-0.0247284 33:-0.40229 34:-0.378627 35:-0.969266 36:-0.823828 37:-0.414901 
-0.5 1:-0.0915544 2:-0.0937865 3:0.147957 4:-0.341345 5:-0.168657 6:-0.443786 7:0.0947154 8:0.215082 9:0.154183 10:-0.448959 11:0.0920889 12:0.232492 13:-0.459799 14:-0.600602 15:-0.245587 16:0.438732 17:0.30552 18:0.228442 19:-0.639602 20:-0.200334 21:0.241617 22:0.352058 23:-0.406174 24:-0.42913 25:-0.215214 26:-0.224645 27:-0.0216521 28:-0.183305 29:0.0162123 30:-0.0242593 31:0.260262 32:-0.00582386 33:-0.374272 34:-0.194268 35:-0.135535 36:0.557753 37:0.0339172 
-0.5 1:0.0123025 2:-0.128319 3:0.187637 4:-0.358524 5:-0.284267 6:-0.557266 7:-0.0582311 8:0.304431 9:-0.00325499 10:-0.476647 11:-0.120764 12:0.163248 13:-0.490605 14:-0.2416 15:0.122909 16:0.472703 17:0.522224 18:0.216226 19:-0.329292 20:-0.615006 21:0.0938675 22:0.124506 23:-0.455634 24:-0.329464 25:-0.323542 26:-0.354256 27:-0.135225 28:0.0378936 29:-0.154064 30:-0.351059 31:0.198912 32:-0.23205 33:0.276503 34:0.20845 35:-0.0329203 36:1 37:0.0474696 
-0.5 1:0.0198359 2:-0.277193 3:0.36595 4:-0.502038 5:-0.411299 6:-0.477384 7:-0.389979 8:0.465019 9:0.133192 10:-0.59175 11:0.186112 12:0.0647184 13:-0.45528 14:0.0376771 15:0.641911 16:0.0208976 17:0.121258 18:0.509686 19:-0.643179 20:-0.452443 21:0.136001 22:-0.27148 23:-0.179564 24:-0.482547 25:-0.629863 26:-0.13057 27:-0.275885 28:-0.142359 29:-0.206893 30:-0.279108 31:0.0297761 32:0.254746 33:0.124835 34:0.5924 35:-0.445587 36:0.475731 37:-0.111374 
-0.5 1:-0.206481 2:-0.239056 3:0.530031 4:-0.279321 5:-0.331234 6:-0.309334 7:0.0749328 8:0.0330853 9:-0.121289 10:-0.169721 11:-0.0280822 12:-0.0043591 13:-0.448998 14:-0.561294 15:-0.480427 16:0.390429 17:0.158896 18:0.0902111 19:0.210882 20:0.662963 21:-0.156826 22:-0.204726 23:0.277305 24:-0.331587 25:-0.515421 26:0.169886 27:0.181732 28:-0.113933 29:-0.228766 30:-0.174253 31:0.224208 32:0.133358 33:-0.341696 34:-0.823454 35:-0.241442 36:0.273933 37:0.165812 
-0.5 1:-0.233312 2:-0.149704 3:0.359609 4:-0.252337 5:-0.143029 6:-0.561469 7:-0.109829 8:0.291672 9:0.223869 10:-0.293122 11:0.275675 12:0.0642906 13:-0.337061 14:-0.566902 15:-0.230825 16:0.292485 17:0.0420885 18:0.220854 19:-0.749774 20:-0.216687 21:0.15423 22:0.201863 23:-0.438582 24:-0.281541 25:0.27349 26:-0.302394 27:-0.419741 28:0.100911 29:0.336505 30:0.282914 31:0.22262 32:0.25353 33:-0.313585 34:-0.513079 35:-0.441738 36:0.073327 37:0.176025 
-0.5 1:-0.0990857 2:-0.184759 3:0.257379 4:0.0271177 5:-0.142501 6:-0.513924 7:-0.230725 8:-0.0383639 9:-0.18135 10:-0.389011 11:-0.116018 12:-0.541527 13:0.0652224 14:0.298014 15:0.619533 16:-0.134793 17:-0.315589 18:0.137822 19:-0.278218 20:-0.557957 21:-0.162936 22:-0.361608 23:-0.504868 24:0.0265387 25:-0.401945 26:-0.727294 27:0.0150343 28:-0.378677 29:-0.109238 30:-0.186466 31:-0.514067 32:1 33:0.0748968 34:0.327985 35:-0.852538 36:-0.739319 37:-0.0137485 
-0.5 1:0.769071 2:-0.368404 3:0.65153 4:-0.986131 5:0.0566019 6:-0.840247 7:0.831955 8:0.817932 9:-0.309441 10:0.643366 11:-0.341836 12:-0.0980199 13:-1 14:-0.534209 15:-0.917873 16:0.50607 17:1 18:-0.704884 19:-0.862769 20:-0.637399 21:0.0553897 22:-0.307843 23:0.140302 24:-0.753507 25:-0.265384 26:-0.236219 27:-0.149077 28:-0.332469 29:-0.767435 30:-0.103311 31:-0.45585 32:-0.606378 33:-0.114284 34:-0.317698 35:0.219006 36:0.300469 37:-0.751014 
-0.5 1:-0.177506 2:-0.00566058 3:0.0890118 4:-0.328505 5:-0.136537 6:-0.481695 7:-0.0216854 8:0.252786 9:0.121812 10:-0.279676 11:-0.180939 12:-0.0854927 13:-0.310202 14:-0.290029 15:0.0291893 16:0.214201 17:-0.0837899 18:0.264941 19:-0.220272 20:-0.397465 21:-0.213879 22:0.323979 23:-0.450568 24:-0.566485 25:-0.256232 26:-0.375184 27:-0.130963 28:-0.197743 29:0.0106061 30:-0.0661438 31:-0.00931179 32:0.338866 33:-0.226261 34:-0.171961 35:-0.0286097 36:0.17681 37:-0.0235498 
-0.2692647368373311 1:0.277812 2:0.0175465 3:-0.0232947 4:-0.564347 5:-0.0162516 6:-0.532181 7:-0.542833 8:0.514497 9:0.249945 10:-0.0845659 11:-0.00899082 12:0.319848 13:-0.745227 14:-0.505247 15:0.0343647 16:0.0399588 17:0.28494 18:0.378992 19:0.071941 20:-0.73077 21:0.304948 22:0.283055 23:-0.616099 24:-0.771923 25:0.00392426 26:-0.15416 27:-0.612822 28:-0.169359 29:-0.0978879 30:0.198337 31:0.162944 32:-0.578497 33:-0.436447 34:0.253656 35:-0.476681 36:0.261683 37:-0.0748824 
-0.5 1:0.048291 2:-0.0572389 3:0.161604 4:-0.172108 5:-0.248037 6:-0.379623 7:0.299137 8:-0.00658082 9:-0.158048 10:-0.448299 11:-0.272482 12:0.116153 13:-0.342525 14:-0.508516 15:-0.06443 16:0.410179 17:0.243481 18:0.151034 19:-0.188262 20:-0.231265 21:0.234503 22:0.428144 23:-0.662 24:-0.21141 25:-0.275226 26:-0.163467 27:0.346372 28:-0.237186 29:-0.29767 30:-0.45389 31:0.443998 32:0.57076 33:-0.188306 34:0.311337 35:-0.123725 36:0.557284 37:0.110608 
-0.5 1:-0.390676 2:-0.168762 3:0.473878 4:-0.284016 5:-0.203349 6:-0.396987 7:-0.234604 8:0.286237 9:0.295193 10:-0.444965 11:0.336946 12:-0.0948852 13:-0.549775 14:-0.190405 15:-0.0397544 16:0.308452 17:-0.120322 18:0.310998 19:0.150863 20:-0.305451 21:-0.194299 22:0.57117 23:-0.602827 24:-0.279042 25:0.0500569 26:-0.159081 27:-0.127941 28:0.042542 29:0.67965 30:0.433289 31:-0.00873302 32:-0.450924 33:0.50503 34:0.0428208 35:-0.239831 36:-0.189604 37:0.115621 
-0.5 1:-0.225443 2:-0.340132 3:1 4:-0.139841 5:-0.362872 6:-0.627619 7:0.315615 8:0.367216 9:0.36653 10:-0.416626 11:-0.0473594 12:0.0665112 13:-0.440505 14:-0.517109 15:-0.155226 16:0.00205375 17:0.16425 18:0.319381 19:-0.584112 20:-0.239413 21:0.076245 22:-0.116508 23:-0.0410919 24:-0.190485 25:-0.360906 26:-0.333831 27:0.477288 28:-0.215502 29:0.689528 30:-0.148743 31:-0.0643307 32:-0.30647 33:-0.541503 34:-0.13973 35:-0.499233 36:0.627521 37:0.167966 
-0.5 1:-0.28986 2:-0.415859 3:0.44278 4:-0.363351 5:-0.343026 6:-0.530064 7:-0.128374 8:0.267884 9:0.191607 10:-0.119646 11:0.128319 12:-0.0780038 13:-0.397012 14:-0.30199 15:-0.243978 16:0.26561 17:0.0578892 18:0.249088 19:0.0335227 20:0.257475 21:-0.573852 22:-0.305632 23:-0.745292 24:-0.492643 25:-0.503742 26:-0.197829 27:0.0758595 28:0.121357 29:0.464606 30:-0.190969 31:-0.445705 32:-0.0524584 33:0.17451 34:-0.302112 35:-0.459801 36:-0.0681086 37:0.0929167 
-0.5 1:-0.29152 2:-0.17928 3:0.670362 4:-0.192476 5:-0.242479 6:-0.62097 7:0.187192 8:0.108011 9:0.290305 10:-0.388069 11:0.048162 12:0.0277517 13:-0.286559 14:-0.447355 15:-0.32559 16:0.284381 17:0.150243 18:0.105731 19:-0.623357 20:-0.207134 21:-0.164009 22:0.265251 23:0.448874 24:-0.0660116 25:-0.0314067 26:-0.483138 27:0.328934 28:-0.160531 29:0.450682 30:-0.00376021 31:0.0724554 32:0.203384 33:-0.127578 34:-0.615479 35:-0.505049 36:0.239297 37:-0.0530296 
-0.5 1:-0.127 2:-0.0910426 3:0.187694 4:-0.164263 5:-0.200084 6:-0.355187 7:-0.107927 8:0.14744 9:0.0507699 10:-0.370151 11:-0.0216697 12:-0.0271207 13:-0.352515 14:-0.463753 15:-0.0177616 16:0.172354 17:0.0842304 18:0.210248 19:-0.268413 20:-0.160785 21:0.000163592 22:0.111607 23:-0.504697 24:-0.276809 25:-0.112396 26:-0.0112603 27:-0.330346 28:-0.123152 29:0.17025 30:-0.0562538 31:0.140166 32:0.0427867 33:-0.42588 34:-0.157828 35:-0.524033 36:0.284663 37:-0.061278 
-0.5 1:-0.199371 2:-0.663692 3:0.480666 4:-0.219186 5:-0.647513 6:-0.780873 7:-0.389605 8:0.735896 9:0.171578 10:-0.178654 11:0.235568 12:-0.085261 13:-0.315257 14:-0.137943 15:0.802362 16:-0.0288311 17:-0.434217 18:0.579583 19:-0.530173 20:-0.580874 21:-0.333424 22:-0.445028 23:0.194841 24:-0.0117328 25:-0.735418 26:-0.71986 27:-0.478536 28:-0.0221033 29:-0.409432 30:0.26064 31:-0.383442 32:-0.130008 33:-0.223289 34:0.540555 35:-0.455164 36:-0.259189 37:0.244275 
-0.5 1:-0.0897829 2:0.198365 3:-0.0836159 4:-0.0145845 5:0.167387 6:-0.329802 7:-0.403954 8:0.149704 9:0.0963369 10:-0.15459 11:0.0584449 12:-0.128755 13:-0.472249 14:-0.314279 15:-0.0273747 16:-0.0150276 17:-0.244394 18:0.14936 19:-0.346893 20:-0.397666 21:-0.326302 22:0.207833 23:-0.578954 24:-0.136951 25:0.0107504 26:-0.470985 27:-0.34197 28:-0.312004 29:0.213949 30:-0.136218 31:-0.0043454 32:-0.352213 33:-0.295168 34:-0.0137766 35:-0.694488 36:0.0876748 37:-0.213891 
-0.46486627386993196 1:-0.724681 2:-0.131691 3:0.675313 4:-0.355707 5:-0.185874 6:0.0406372 7:-0.340142 8:0.185531 9:0.270946 10:-0.500514 11:-0.0232678 12:-0.441682 13:-0.267137 14:-0.51649 15:-0.125038 16:0.109602 17:-0.627981 18:0.574046 19:0.16091 20:-0.278505 21:-0.892394 22:0.241743 23:-0.271606 24:-0.440155 25:-0.188019 26:0.332591 27:-0.308566 28:-0.187829 29:0.521773 30:0.132706 31:-0.546772 32:0.01834 33:-0.203688 34:-0.22924 35:-0.470784 36:-0.622298 37:0.220846 
-0.5 1:-0.108065 2:0.0652423 3:0.360518 4:-0.188994 5:-0.133121 6:-0.459629 7:-0.216117 8:0.196594 9:0.0174897 10:-0.302026 11:0.0531539 12:0.108272 13:-0.404501 14:-0.415791 15:-0.0587251 16:0.172102 17:0.00790946 18:0.126986 19:-0.39478 20:-0.454861 21:-0.220031 22:0.705807 23:-0.292163 24:-0.105237 25:-0.258533 26:-0.370329 27:-0.250834 28:0.0466926 29:-0.0249851 30:-0.0184714 31:0.400421 32:0.0179079 33:-0.315724 34:-0.0677739 35:-0.581739 36:0.2457 37:-0.0852659 
-0.5 1:-0.356262 2:-0.294508 3:0.351039 4:-0.364925 5:-0.281506 6:-0.486824 7:-0.00749899 8:0.260775 9:0.258023 10:-0.521547 11:0.212937 12:0.285236 13:-0.334118 14:-0.626777 15:-0.15596 16:0.552313 17:0.347992 18:0.237383 19:-0.634826 20:-0.387469 21:-0.0265323 22:-0.115384 23:-0.289293 24:-0.266385 25:-0.10456 26:-0.0528673 27:-0.0536236 28:-0.219984 29:0.181535 30:-0.13922 31:0.450066 32:0.344508 33:-0.290561 34:0.0929721 35:-0.303114 36:0.484564 37:-0.0377708 
-0.41534998094168812 1:-0.437196 2:-0.274166 3:0.299896 4:-0.173101 5:-0.190954 6:-0.444289 7:-0.473371 8:0.339744 9:0.1195 10:-0.261922 11:0.322751 12:-0.178409 13:-0.279792 14:-0.517749 15:-0.00235223 16:0.115556 17:-0.0878708 18:0.529188 19:-0.051324 20:0.00119635 21:-0.557074 22:-0.255175 23:-0.335988 24:-0.471503 25:0.0417983 26:0.216117 27:-0.417425 28:0.118102 29:0.0525257 30:-0.0986721 31:-0.232929 32:-0.0250461 33:-0.357986 34:-0.20747 35:-0.714918 36:-0.18042 37:0.420695 
-0.5 1:0.106277 2:-0.0863856 3:0.387365 4:-0.327779 5:-0.262721 6:-0.351969 7:-0.104605 8:0.216673 9:0.0507196 10:-0.370787 11:0.0181515 12:-0.0237966 13:-0.300085 14:-0.255584 15:-0.148399 16:0.154399 17:-0.0792587 18:0.252504 19:-0.490663 20:-0.204244 21:0.171819 22:0.0817918 23:-0.343235 24:-0.219663 25:-0.270602 26:-0.308434 27:-0.28777 28:-0.0691486 29:0.0301539 30:-0.0315455 31:0.0339642 32:0.114231 33:0.207371 34:-0.308788 35:-0.665491 36:-0.0980002 37:0.228572 
-0.5 1:-0.27016 2:-0.251686 3:0.309501 4:-0.389974 5:-0.255041 6:-0.341202 7:-0.452912 8:0.535496 9:0.194499 10:-0.42297 11:0.214879 12:0.197453 13:-0.562331 14:-0.354766 15:0.0265367 16:0.219732 17:0.0651596 18:0.453055 19:0.529012 20:-0.38449 21:0.0456275 22:-0.1678 23:-0.670906 24:-0.292718 25:-0.195162 26:0.114849 27:-0.455464 28:0.219621 29:0.166652 30:-0.104492 31:0.117789 32:-0.563081 33:0.14847 34:0.0116172 35:-0.6077 36:-0.0266418 37:0.0940605 
-0.5 1:0.0530698 2:-0.0201057 3:0.0952623 4:0.450162 5:0.335334 6:-0.854584 7:-0.204383 8:-0.177313 9:0.000493468 10:-0.0227141 11:0.290525 12:-0.457422 13:-0.522871 14:-0.102243 15:-0.0934001 16:-0.23282 17:-0.288169 18:0.0498184 19:-0.170752 20:-0.063025 21:-0.137273 22:0.593536 23:0.0178262 24:0.124041 25:0.522284 26:-0.694866 27:-0.173888 28:0.0567839 29:0.37568 30:0.0367781 31:-0.518998 32:-0.774422 33:-0.208095 34:-0.0962173 35:-0.78339 36:-0.415799 37:-0.113546 
-0.5 1:-0.282424 2:0.00518251 3:0.243381 4:0.0139962 5:0.10978 6:-0.33648 7:-0.612948 8:0.112274 9:-0.0848057 10:0.00973713 11:0.0156376 12:-0.501249 13:-0.111567 14:-0.343705 15:-0.147318 16:-0.135623 17:-0.442293 18:0.393193 19:-0.0380314 20:-0.467944 21:-0.385009 22:0.0289788 23:-0.45872 24:0.0015438 25:0.0677111 26:-0.425029 27:-0.657221 28:-0.154509 29:-0.0315416 30:-0.107966 31:-0.709289 32:-0.0355457 33:-0.51171 34:-0.554614 35:-0.943761 36:-0.702546 37:0.458136 
-0.5 1:-0.381295 2:-0.256434 3:0.434659 4:-0.16914 5:-0.216943 6:-0.44618 7:-0.180697 8:0.301667 9:0.140446 10:-0.574109 11:0.393156 12:0.151293 13:-0.429558 14:-0.61308 15:-0.0207674 16:0.280671 17:0.310789 18:0.288345 19:0.297843 20:-0.421402 21:-0.192667 22:0.367974 23:-0.0262929 24:-0.268413 25:-0.319946 26:-0.250869 27:-0.246004 28:-0.190717 29:0.295056 30:0.0325022 31:-0.0689207 32:0.0182538 33:-0.263229 34:0.220984 35:-0.321392 36:0.406058 37:-0.24687 
-0.5 1:0.105802 2:0.690783 3:-0.122343 4:0.000773023 5:0.549273 6:-0.377004 7:-0.035136 8:-0.23117 9:-0.369061 10:-0.019258 11:-0.408179 12:-0.217775 13:-0.302352 14:-0.514828 15:-0.338814 16:0.225431 17:-0.083801 18:-0.21781 19:-0.787647 20:-0.782694 21:-0.275474 22:0.979335 23:-0.647656 24:-0.558952 25:-0.0615363 26:-0.398633 27:-0.409556 28:-0.388936 29:-0.583908 30:-0.588324 31:-0.0841152 32:0.0986213 33:-0.683037 34:-0.461023 35:0.00216785 36:0.233567 37:-0.486956 
-0.5 1:-0.104045 2:-0.143286 3:0.210118 4:-0.113017 5:-0.0497315 6:-0.558192 7:-0.202425 8:0.42444 9:0.304333 10:-0.361819 11:0.13385 12:-0.0653994 13:-0.442456 14:-0.25557 15:-0.158582 16:0.0920038 17:-0.182244 18:0.27787 19:-0.448337 20:-0.142081 21:-0.319156 22:0.00418617 23:-0.512353 24:-0.398086 25:0.225192 26:-0.213057 27:-0.352766 28:0.0272416 29:0.399521 30:0.249522 31:-0.186859 32:-0.307695 33:0.346196 34:-0.252254 35:-0.659265 36:-0.241872 37:-0.196437 
-0.5 1:-0.359546 2:-0.318532 3:0.345479 4:-0.433836 5:-0.338763 6:-0.560349 7:-0.355345 8:0.596474 9:0.431482 10:-0.476637 11:0.385927 12:0.311027 13:-0.530255 14:-0.375297 15:-0.0179162 16:0.343428 17:0.161248 18:0.418234 19:-0.306014 20:-0.331127 21:-0.178671 22:-0.0256788 23:-0.466308 24:-0.311268 25:-0.189614 26:-0.290762 27:-0.28481 28:0.106951 29:0.407998 30:0.0521173 31:0.257821 32:-0.390957 33:0.35005 34:-0.00400061 35:-0.418317 36:0.0336436 37:-0.0734857 
-0.5 1:0.528444 2:0.0311874 3:-0.17902 4:-0.220839 5:0.12498 6:-1 7:0.0949344 8:0.868193 9:0.462818 10:-0.114937 11:0.0277113 12:0.433511 13:-0.897695 14:-0.744173 15:-0.548566 16:-0.0732718 17:0.678145 18:0.154689 19:-0.416713 20:-0.558375 21:0.284357 22:0.508427 23:-0.27633 24:-0.37115 25:0.065516 26:-0.597211 27:-0.193216 28:0.111463 29:-0.127799 30:-0.320926 31:0.400697 32:-0.662255 33:-0.472063 34:-0.792591 35:-0.299909 36:0.940436 37:-0.22876 
-0.5 1:0.0556134 2:0.170946 3:0.177204 4:-0.127092 5:0.122288 6:-0.506489 7:-0.333329 8:-0.0141849 9:-0.00951155 10:-0.324308 11:-0.258821 12:-0.163567 13:-0.143857 14:0.142791 15:0.0672171 16:-0.0203216 17:-0.314527 18:0.0519159 19:-0.111645 20:-0.683161 21:-0.0450846 22:0.817245 23:-0.40843 24:-0.276805 25:0.0857998 26:-0.624093 27:-0.443938 28:-0.283425 29:0.279412 30:-0.319914 31:0.107355 32:0.229535 33:0.140617 34:-0.279979 35:-0.654204 36:-0.484398 37:-0.11894 
-0.5 1:0.171581 2:0.0498071 3:0.408243 4:-0.390223 5:-0.0896685 6:-0.449362 7:-0.289873 8:0.176509 9:-0.00679788 10:-0.288922 11:-0.140219 12:0.0777451 13:-0.305658 14:-0.348459 15:-0.177283 16:0.187627 17:-0.0107076 18:0.15372 19:-0.661424 20:-0.399656 21:0.193927 22:0.490548 23:0.119724 24:-0.426124 25:-0.245121 26:-0.295923 27:-0.179832 28:0.00509881 29:0.00873439 30:0.0759982 31:0.424273 32:-0.0661405 33:-0.369583 34:-0.373229 35:-0.299321 36:0.441533 37:-0.0202385 
-0.5 1:-0.158247 2:-0.282654 3:0.393766 4:-0.0649234 5:-0.137724 6:-0.554111 7:-0.604431 8:0.248334 9:0.154071 10:-0.447853 11:0.422876 12:-0.247544 13:-0.561647 14:0.15842 15:0.232236 16:-0.204934 17:-0.237523 18:0.503566 19:0.757344 20:-0.385155 21:0.163125 22:0.233884 23:-0.672298 24:-0.142806 25:-0.239327 26:-0.311426 27:-0.393564 28:-0.00350656 29:0.0112133 30:-0.0984501 31:-0.464869 32:-0.739101 33:0.141502 34:0.493943 35:-0.622051 36:-0.270526 37:0.0265445 
-0.5 1:-0.0363318 2:-0.2695 3:0.61566 4:-0.420137 5:-0.53524 6:-0.237254 7:-0.416052 8:0.20579 9:0.0872267 10:-0.273973 11:0.318263 12:-0.20604 13:-0.518446 14:0.036401 15:0.361658 16:0.0533307 17:-0.0709712 18:0.309742 19:0.21438 20:-0.309438 21:-0.410808 22:-0.189725 23:-0.236742 24:-0.736666 25:-0.457573 26:-0.0138225 27:-0.735944 28:-0.0411749 29:0.571199 30:0.466674 31:-0.346263 32:-0.512565 33:0.439231 34:0.148538 35:-0.787639 36:-0.0872865 37:-0.329534 
-0.46572273178985829 1:-0.393251 2:-0.151667 3:0.486062 4:-0.136757 5:-0.113545 6:-0.507208 7:-0.339479 8:0.336675 9:0.266986 10:-0.344301 11:0.364253 12:-0.111397 13:-0.450976 14:-0.428059 15:-0.140328 16:0.147625 17:-0.1461 18:0.457318 19:-0.160071 20:-0.500392 21:-0.32221 22:0.0272967 23:-0.148586 24:-0.274891 25:0.119279 26:-0.0952963 27:-0.172477 28:0.0771049 29:0.551398 30:0.653451 31:-0.172503 32:-0.0533149 33:-0.0772748 34:-0.588905 35:-0.462835 36:-0.130148 37:0.367029 
-0.5 1:-0.0571817 2:0.0342145 3:0.266538 4:-0.0824738 5:0.0334837 6:-0.502415 7:-0.337971 8:0.185263 9:0.0226589 10:-0.0605397 11:-0.206465 12:-0.209638 13:-0.36209 14:-0.353922 15:-0.0660651 16:0.0798557 17:-0.167457 18:0.296379 19:-0.217658 20:-0.437767 21:-0.229979 22:0.246658 23:-0.216868 24:-0.298901 25:0.0257546 26:-0.365259 27:-0.278824 28:-0.204391 29:-0.132016 30:-0.198988 31:-0.11487 32:-0.142425 33:-0.397584 34:-0.189663 35:-0.299526 36:0.127659 37:0.00678525 
