=== Run information ===

Scheme:       weka.classifiers.trees.J48 -C 0.25 -M 2
Relation:     protein_type
Instances:    315
Attributes:   38
              AAKpartComposition
              AAutoCor
              CkSAApair
              CkSGAApair
              CTD
              CTDC
              CTDD
              DDE
              ExpectedValueAA
              ExpectedValueGAA
              ExpectedValueGKmerAA
              ExpectedValueKmerAA
              GrpDDE
              IF
              kAAComposition
              kGAAComposition
              PseKRAAC_T2
              PseKRAAC_T3A
              PseKRAAC_T3B
              PseKRAAC_T4
              PseKRAAC_T5
              PseKRAAC_T6A
              PseKRAAC_T6B
              PseKRAAC_T7
              PseKRAAC_T8
              PseKRAAC_T9
              PseKRAAC_T10
              PseKRAAC_T11
              PseKRAAC_T12
              PseKRAAC_T13
              PseKRAAC_T14
              PseKRAAC_T15
              PseKRAAC_T16
              QSOrder
              SAAC
              SGAAC
              SOCNumber
              ProteinType
Test mode:    user supplied test set:  size unknown (reading incrementally)

=== Classifier model (full training set) ===

J48 pruned tree
------------------

kAAComposition = 0: 0 (195.0/2.0)
kAAComposition = 1: 1 (120.0)

Number of Leaves  : 	2

Size of the tree : 	3


Time taken to build model: 0 seconds

=== Predictions on test set ===

    inst#     actual  predicted error prediction
        1        2:1        1:0   +   0.99 
        2        2:1        1:0   +   0.99 
        3        2:1        1:0   +   0.99 
        4        2:1        1:0   +   0.99 
        5        2:1        1:0   +   0.99 
        6        2:1        2:1       1 
        7        2:1        2:1       1 
        8        2:1        1:0   +   0.99 
        9        2:1        2:1       1 
       10        2:1        1:0   +   0.99 
       11        2:1        2:1       1 
       12        2:1        2:1       1 
       13        2:1        2:1       1 
       14        2:1        1:0   +   0.99 
       15        1:0        1:0       0.99 
       16        1:0        1:0       0.99 
       17        1:0        1:0       0.99 
       18        1:0        1:0       0.99 
       19        1:0        1:0       0.99 
       20        1:0        1:0       0.99 
       21        1:0        1:0       0.99 
       22        1:0        1:0       0.99 
       23        1:0        1:0       0.99 
       24        1:0        1:0       0.99 
       25        1:0        1:0       0.99 
       26        1:0        1:0       0.99 
       27        1:0        1:0       0.99 
       28        1:0        1:0       0.99 
       29        1:0        1:0       0.99 
       30        1:0        1:0       0.99 
       31        1:0        1:0       0.99 
       32        1:0        1:0       0.99 
       33        1:0        1:0       0.99 
       34        1:0        1:0       0.99 
       35        1:0        2:1   +   1 
       36        1:0        1:0       0.99 

=== Evaluation on test set ===

Time taken to test model on supplied test set: 0 seconds

=== Summary ===

Correctly Classified Instances          27               75      %
Incorrectly Classified Instances         9               25      %
Kappa statistic                          0.4214
Mean absolute error                      0.2537
Root mean squared error                  0.4955
Relative absolute error                 53.3985 %
Root relative squared error            101.6425 %
Total Number of Instances               36     

=== Detailed Accuracy By Class ===

                 TP Rate  FP Rate  Precision  Recall   F-Measure  MCC      ROC Area  PRC Area  Class
                 0.955    0.571    0.724      0.955    0.824      0.472    0.692     0.719     0
                 0.429    0.045    0.857      0.429    0.571      0.472    0.692     0.590     1
Weighted Avg.    0.750    0.367    0.776      0.750    0.725      0.472    0.692     0.669     

=== Confusion Matrix ===

  a  b   <-- classified as
 21  1 |  a = 0
  8  6 |  b = 1

