=== Run information ===

Scheme:       weka.classifiers.trees.RandomTree -K 0 -M 1.0 -V 0.001 -S 1
Relation:     protein_type
Instances:    315
Attributes:   38
              AAKpartComposition
              AAutoCor
              CkSAApair
              CkSGAApair
              CTD
              CTDC
              CTDD
              DDE
              ExpectedValueAA
              ExpectedValueGAA
              ExpectedValueGKmerAA
              ExpectedValueKmerAA
              GrpDDE
              IF
              kAAComposition
              kGAAComposition
              PseKRAAC_T2
              PseKRAAC_T3A
              PseKRAAC_T3B
              PseKRAAC_T4
              PseKRAAC_T5
              PseKRAAC_T6A
              PseKRAAC_T6B
              PseKRAAC_T7
              PseKRAAC_T8
              PseKRAAC_T9
              PseKRAAC_T10
              PseKRAAC_T11
              PseKRAAC_T12
              PseKRAAC_T13
              PseKRAAC_T14
              PseKRAAC_T15
              PseKRAAC_T16
              QSOrder
              SAAC
              SGAAC
              SOCNumber
              ProteinType
Test mode:    user supplied test set:  size unknown (reading incrementally)

=== Classifier model (full training set) ===


RandomTree
==========

SGAAC = 0
|   ExpectedValueKmerAA = 0 : 0 (190/0)
|   ExpectedValueKmerAA = 1
|   |   ExpectedValueGKmerAA = 0 : 0 (2/1)
|   |   ExpectedValueGKmerAA = 1 : 0 (1/0)
SGAAC = 1
|   PseKRAAC_T4 = 0
|   |   ExpectedValueAA = 0 : 0 (2/1)
|   |   ExpectedValueAA = 1 : 1 (1/0)
|   PseKRAAC_T4 = 1 : 1 (119/0)

Size of the tree : 11

Time taken to build model: 0 seconds

=== Predictions on test set ===

    inst#     actual  predicted error prediction
        1        2:1        1:0   +   0.5 
        2        2:1        2:1       1 
        3        2:1        1:0   +   0.5 
        4        2:1        1:0   +   1 
        5        2:1        1:0   +   1 
        6        2:1        1:0   +   1 
        7        2:1        2:1       1 
        8        2:1        2:1       1 
        9        2:1        1:0   +   1 
       10        2:1        2:1       1 
       11        2:1        1:0   +   1 
       12        2:1        2:1       1 
       13        2:1        2:1       1 
       14        2:1        1:0   +   1 
       15        1:0        1:0       1 
       16        1:0        1:0       0.5 
       17        1:0        1:0       1 
       18        1:0        1:0       1 
       19        1:0        1:0       1 
       20        1:0        1:0       1 
       21        1:0        1:0       1 
       22        1:0        1:0       0.5 
       23        1:0        2:1   +   1 
       24        1:0        1:0       0.5 
       25        1:0        1:0       1 
       26        1:0        1:0       0.5 
       27        1:0        1:0       0.5 
       28        1:0        1:0       0.5 
       29        1:0        1:0       1 
       30        1:0        1:0       1 
       31        1:0        1:0       1 
       32        1:0        1:0       0.5 
       33        1:0        1:0       1 
       34        1:0        1:0       0.5 
       35        1:0        1:0       1 
       36        1:0        1:0       1 

=== Evaluation on test set ===

Time taken to test model on supplied test set: 0.01 seconds

=== Summary ===

Correctly Classified Instances          27               75      %
Incorrectly Classified Instances         9               25      %
Kappa statistic                          0.4214
Mean absolute error                      0.3333
Root mean squared error                  0.5137
Relative absolute error                 70.1586 %
Root relative squared error            105.3749 %
Total Number of Instances               36     

=== Detailed Accuracy By Class ===

                 TP Rate  FP Rate  Precision  Recall   F-Measure  MCC      ROC Area  PRC Area  Class
                 0.955    0.571    0.724      0.955    0.824      0.472    0.656     0.695     0
                 0.429    0.045    0.857      0.429    0.571      0.472    0.656     0.601     1
Weighted Avg.    0.750    0.367    0.776      0.750    0.725      0.472    0.656     0.659     

=== Confusion Matrix ===

  a  b   <-- classified as
 21  1 |  a = 0
  8  6 |  b = 1

