svm_type c_svc
kernel_type rbf
gamma 0.5
nr_class 2
total_sv 229
rho 0.29533923585339472
label 1 0
nr_sv 108 121
SV
0.5 1:0.590243 2:-0.324958 3:-0.143458 4:-0.350778 5:-0.334 6:-0.339948 7:-0.0232101 8:-0.187803 9:-0.474329 10:0.185456 11:-0.752195 12:0.0257262 13:-0.489702 14:-0.642569 15:-0.321087 16:-0.0942737 17:0.193097 18:-0.0129006 19:-0.272232 20:-0.561067 21:-0.528356 22:-0.554507 23:-0.659536 24:-0.428588 25:-0.322149 
0.5 1:0.126749 2:-0.150025 3:-0.131984 4:-0.403504 5:0.182427 6:0.00135848 7:-0.104322 8:-0.208214 9:-0.38655 10:0.308629 11:-0.414037 12:0.15686 13:-0.483481 14:-0.181972 15:-0.306905 16:0.174776 17:-0.270042 18:-0.0628123 19:-0.430332 20:0.309211 21:0.285729 22:-0.433815 23:-0.778626 24:-0.481577 25:-0.202653 
0.5 1:-0.118694 2:0.0583659 3:0.494353 4:0.179592 5:-0.379398 6:-0.227559 7:-0.605902 8:-0.287983 9:-0.112903 10:-0.00142282 11:-0.143018 12:-0.0768982 13:-0.578121 14:0.0567715 15:-0.11821 16:0.497461 17:-0.470025 18:0.205382 19:0.272115 20:-0.116797 21:-0.161818 22:-0.385006 23:-0.47955 24:0.216284 25:-0.0327042 
0.5 1:-0.232214 2:-0.0656047 3:0.382353 4:0.358465 5:-0.723508 6:-0.227793 7:-0.241011 8:-0.401677 9:-0.29889 10:-0.136074 11:0.0216383 12:-0.135247 13:-0.555729 14:-0.0233349 15:-0.0468323 16:0.155449 17:-0.526247 18:0.0969236 19:0.424127 20:-0.314008 21:-0.381404 22:-0.0167071 23:-0.0776866 24:0.256787 25:0.000340355 
0.39336653747856359 1:0.546762 2:-0.00637902 3:-0.141642 4:-0.366641 5:-0.151876 6:-0.139388 7:-0.408338 8:-0.0971688 9:-0.386985 10:-0.0428358 11:-0.378992 12:0.977621 13:-0.712175 14:-0.260357 15:-0.269752 16:0.0638128 17:-0.258704 18:-0.218929 19:-0.372659 20:-0.465099 21:-0.33546 22:-0.13995 23:-0.766433 24:0.0380557 25:-0.377532 
0.5 1:-0.103649 2:-0.2665 3:0.553678 4:0.200633 5:-0.570628 6:-0.126564 7:-0.402176 8:-0.517793 9:-0.699872 10:-0.0757839 11:-0.622207 12:-0.0640499 13:-0.14889 14:-0.243743 15:-0.0722557 16:0.429383 17:-0.573713 18:0.168259 19:0.191066 20:0.18654 21:-0.09219 22:-0.252952 23:-0.52444 24:-0.0799469 25:0.150608 
0.5 1:-0.451322 2:-0.582926 3:0.476986 4:0.0904876 5:-0.367541 6:0.171553 7:-0.134284 8:-0.641884 9:-0.203947 10:-0.128024 11:-0.232159 12:-0.449571 13:0.0939498 14:-0.502917 15:0.189526 16:0.2479 17:-0.696851 18:0.457128 19:-0.120944 20:-0.143457 21:-0.263608 22:0.182731 23:-0.590525 24:-0.33703 25:0.0473193 
0.5 1:0.134799 2:-0.418906 3:-0.386528 4:-0.331385 5:-0.0500488 6:0.315193 7:-0.359745 8:-0.501841 9:-0.0905195 10:0.201626 11:0.150075 12:-0.58683 13:-0.331262 14:-0.570975 15:-0.627398 16:-0.601344 17:-0.018785 18:-0.827718 19:-0.18554 20:-0.352632 21:-0.896203 22:0.0574461 23:-0.634872 24:0.321216 25:-0.746143 
0.14993061513401054 1:-0.407834 2:-0.69164 3:0.664574 4:0.43391 5:-0.680926 6:0.238537 7:0.100462 8:-0.99699 9:-0.820008 10:-0.473558 11:-0.522128 12:-0.640393 13:-0.297158 14:-0.416337 15:0.18628 16:0.108132 17:-0.891894 18:0.270229 19:0.570339 20:0.193207 21:-0.123495 22:-0.189298 23:-0.455058 24:0.20187 25:0.192388 
0.5 1:0.148651 2:-0.125106 3:0.0532947 4:-0.2491 5:-0.164443 6:0.0326731 7:-0.135325 8:-0.251454 9:0.0526547 10:0.27704 11:-0.682187 12:0.258878 13:-0.543855 14:-0.414 15:0.166495 16:0.0544557 17:-0.487772 18:-0.308661 19:-0.183265 20:-0.753698 21:-0.0461537 22:-0.132203 23:-0.775019 24:-0.524758 25:0.00834521 
0.5 1:-0.0237326 2:-0.172211 3:-0.143481 4:-0.414781 5:-0.133647 6:-0.095107 7:-0.808578 8:-0.677531 9:-0.142127 10:0.299377 11:-0.735142 12:-0.595143 13:-0.339705 14:-0.196312 15:-0.4617 16:-0.247025 17:-0.434068 18:0.218177 19:-0.116631 20:-0.0393884 21:-0.450683 22:-0.796458 23:-0.0749618 24:0.059535 25:-0.499327 
0.5 1:-0.499307 2:-0.673111 3:0.435095 4:0.212451 5:-0.265938 6:0.381462 7:0.320998 8:-0.797947 9:0.079257 10:-0.174234 11:-0.70844 12:-0.640412 13:0.419978 14:-0.171089 15:0.332474 16:0.507672 17:-0.753622 18:0.555832 19:-0.184664 20:-0.547315 21:0.184496 22:0.307704 23:-0.442468 24:-0.205481 25:0.262428 
0.5 1:0.475869 2:-0.0758532 3:0.187566 4:-0.412226 5:-0.658601 6:-0.291815 7:-0.259791 8:-0.220517 9:-0.147955 10:0.813748 11:-0.272 12:0.526017 13:-0.365536 14:0.294572 15:-0.187798 16:0.447521 17:-0.266418 18:0.15591 19:-0.550192 20:-0.464127 21:-0.90078 22:-0.144343 23:-0.628824 24:-0.626562 25:0.0797021 
0.35327147973091144 1:0.882849 2:-0.622819 3:-0.0816051 4:-0.549668 5:-0.211275 6:-0.0848051 7:-0.62397 8:-0.329335 9:-0.714981 10:-0.110105 11:-0.506782 12:0.398197 13:-0.676733 14:-0.596738 15:-0.53499 16:-0.250943 17:-0.229885 18:0.124886 19:-0.324434 20:-0.391847 21:-0.685346 22:-0.495278 23:-0.678246 24:-0.417289 25:-0.396706 
0.5 1:0.0286117 2:0.349235 3:0.0677164 4:-0.0807094 5:-0.581244 6:-0.0499454 7:-1 8:-0.493659 9:-0.0690158 10:0.241825 11:-0.197798 12:-0.296635 13:-0.668635 14:0.13176 15:-0.466769 16:-0.25972 17:-0.566145 18:0.0641372 19:0.0180602 20:-0.270357 21:-0.742369 22:-0.611035 23:0.355712 24:0.0557882 25:-0.277102 
0.5 1:0.00183814 2:-0.733006 3:0.220319 4:-0.196751 5:-0.302237 6:0.149325 7:0.214227 8:-0.481034 9:0.234526 10:0.45159 11:-0.57894 12:0.100489 13:-0.0210033 14:-0.411538 15:0.312099 16:-0.0690896 17:-0.31867 18:-0.0541259 19:-0.473164 20:-0.25208 21:-0.520762 22:0.479994 23:-0.56496 24:-0.343896 25:0.530171 
0.5 1:0.189892 2:-0.503657 3:-0.126455 4:-0.403578 5:0.115735 6:0.4354 7:-0.227816 8:-0.0577944 9:-0.0506336 10:0.198985 11:0.207662 12:-0.0370264 13:-0.699724 14:-0.56585 15:-0.149478 16:-0.0790287 17:0.0981105 18:0.626146 19:-0.574031 20:-0.660731 21:-0.180501 22:0.538488 23:-0.696544 24:-0.619653 25:-0.159436 
0.013289197103358895 1:0.199792 2:-0.0483485 3:0.00902427 4:-0.190324 5:0.0349562 6:-0.000192268 7:-0.700484 8:-0.389598 9:-0.165668 10:0.157909 11:0.0341643 12:0.301972 13:-0.563592 14:-0.186019 15:-0.271305 16:-0.086696 17:-0.512377 18:0.0874456 19:-0.152672 20:0.0176237 21:0.0150602 22:-0.136853 23:-0.568074 24:0.151591 25:-0.122222 
0.5 1:-0.508785 2:-0.617455 3:0.269495 4:0.383861 5:-0.34415 6:0.0937354 7:0.415417 8:-0.79266 9:-0.0627874 10:-0.270971 11:-0.626456 12:-0.48313 13:0.518561 14:-0.297098 15:0.462454 16:0.352202 17:-0.578713 18:0.279218 19:0.391858 20:-0.174988 21:0.0460156 22:-0.211087 23:-0.356302 24:0.110244 25:0.376725 
0.40787895139523761 1:-0.427948 2:-0.10098 3:0.403036 4:0.321773 5:-0.412151 6:-0.014478 7:-0.495668 8:-0.495586 9:-0.23106 10:-0.0790542 11:-0.152963 12:-0.569911 13:-0.281402 14:-0.133439 15:0.0449023 16:0.1617 17:-0.467311 18:-0.217213 19:0.33843 20:-0.517144 21:0.268284 22:0.220263 23:-0.431546 24:0.469598 25:0.144434 
0.5 1:-0.264018 2:0.348406 3:0.434222 4:0.14258 5:-0.459022 6:-0.370752 7:-0.590742 8:-0.206898 9:-0.331933 10:0.14662 11:-0.149966 12:-0.398544 13:-0.415185 14:-0.0279922 15:-0.493943 16:0.278559 17:-0.422314 18:-0.262976 19:-0.217238 20:-0.522852 21:-0.178544 22:-0.302729 23:0.11569 24:0.490968 25:-0.111186 
0.5 1:0.97925 2:0.38119 3:-0.626354 4:-0.707545 5:0.384809 6:-0.27732 7:-0.753602 8:-0.274663 9:-0.773734 10:-0.0836688 11:-0.324386 12:0.0276466 13:-0.580536 14:-0.423248 15:-0.694969 16:-0.5179 17:-0.41098 18:-0.466954 19:-0.814079 20:-0.907765 21:-0.349401 22:-0.834286 23:-0.897694 24:-0.590795 25:-0.557671 
0.5 1:0.350051 2:-0.190997 3:-0.0584634 4:-0.0873432 5:-0.278297 6:-0.399553 7:-0.381261 8:-0.551584 9:-0.486684 10:0.438725 11:-0.864683 12:-0.0183787 13:-0.498042 14:-0.164207 15:-0.458296 16:-0.225036 17:-0.733973 18:-0.0303527 19:-0.0212453 20:-0.0220397 21:-0.419674 22:-0.646321 23:-0.0629486 24:0.0543956 25:-0.20157 
0.5 1:0.484594 2:0.00768211 3:0.133541 4:-0.211611 5:-0.449342 6:-0.316349 7:-0.247112 8:-0.241132 9:-0.0640338 10:0.242146 11:-0.210272 12:0.928389 13:-0.706079 14:-0.211561 15:0.046075 16:0.46964 17:0.0469799 18:0.119848 19:-0.0940307 20:-0.869084 21:-0.14733 22:-0.523206 23:-0.734566 24:-0.183291 25:-0.031045 
0.5 1:-0.288005 2:-0.254045 3:0.396903 4:0.0869569 5:-0.0525585 6:0.0484815 7:-0.17129 8:-0.578164 9:-0.0499209 10:0.084146 11:-0.130999 12:-0.230282 13:-0.194517 14:-0.0163497 15:-0.18365 16:0.526291 17:-0.89942 18:-0.0730066 19:-0.123246 20:-0.321997 21:0.401079 22:0.0388056 23:-0.26758 24:0.364973 25:0.155149 
0.5 1:0.488578 2:0.00325622 3:0.149603 4:-0.190159 5:-0.481666 6:-0.324152 7:-0.256445 8:-0.230738 9:-0.0653576 10:0.269404 11:-0.225495 12:0.97225 13:-0.687119 14:-0.194454 15:0.0744861 16:0.477772 17:0.0580606 18:0.107188 19:-0.0902521 20:-0.894942 21:-0.169888 22:-0.492575 23:-0.726535 24:-0.181393 25:-0.0187746 
0.5 1:0.539932 2:-0.0354402 3:-0.14779 4:-0.0628755 5:-0.184458 6:-0.485524 7:-0.707939 8:-0.592402 9:-0.326649 10:0.723618 11:-0.378002 12:0.156573 13:-0.347038 14:-0.314761 15:-0.383657 16:-0.181964 17:-0.559891 18:-0.366429 19:0.0928993 20:-0.351759 21:-0.0682753 22:-0.862052 23:-0.236216 24:0.349649 25:-0.450788 
0.5 1:0.519324 2:-0.248082 3:-0.156443 4:-0.389391 5:-0.112743 6:0.0323609 7:-0.149248 8:-0.412793 9:-0.312956 10:0.082824 11:-0.930052 12:-0.18292 13:-0.570101 14:-0.476378 15:-0.445494 16:-0.14295 17:-0.184753 18:-0.246196 19:0.0586832 20:-0.542249 21:-0.359931 22:-0.467475 23:-0.850369 24:-0.31029 25:-0.231457 
0.5 1:0.0402637 2:-0.363108 3:0.0547223 4:-0.086361 5:-0.40077 6:0.0857929 7:-0.039156 8:-0.397738 9:-0.210449 10:0.0410803 11:-0.563376 12:0.160669 13:0.299179 14:-0.666979 15:-0.0133447 16:0.352045 17:-0.288958 18:0.215745 19:0.0998061 20:0.16822 21:-0.144586 22:0.252472 23:-0.190661 24:0.134564 25:-0.048738 
0.5 1:-0.225836 2:-0.488478 3:0.18247 4:0.112658 5:-0.395089 6:0.157304 7:0.321774 8:-0.534385 9:0.127289 10:-0.034348 11:-0.609668 12:-0.283412 13:0.124251 14:-0.58859 15:0.142557 16:0.40024 17:-0.672647 18:0.423735 19:-0.0255993 20:-0.329988 21:0.0975122 22:0.179584 23:-0.443728 24:0.00327191 25:0.181748 
0.5 1:-0.217526 2:-0.234939 3:-0.17867 4:-0.135206 5:0.262202 6:0.0722564 7:-0.610921 8:-0.514601 9:0.141725 10:-0.0477099 11:-0.450812 12:-0.126929 13:-0.495354 14:0.0998638 15:-0.114911 16:-0.166107 17:-0.566804 18:0.446566 19:-0.162361 20:-0.162283 21:0.173885 22:0.0324797 23:-0.715266 24:-0.186776 25:0.218094 
0.20765205300679462 1:0.0454376 2:-0.0874414 3:-0.500926 4:-0.215989 5:-0.0518041 6:-0.213111 7:-0.639175 8:-0.381983 9:-0.221912 10:-0.0283299 11:-0.565121 12:-0.266306 13:0.0405693 14:-0.508199 15:-0.509096 16:-0.462667 17:-0.285681 18:-0.395311 19:-0.153147 20:-0.0463656 21:-0.20911 22:-0.589836 23:-0.512948 24:0.200982 25:-0.429389 
0.14295651003780807 1:-0.600785 2:-0.813231 3:0.649969 4:0.0999243 5:-0.240143 6:0.445929 7:0.307273 8:-0.872835 9:0.277537 10:-0.432061 11:-0.350526 12:-0.777642 13:0.289201 14:-0.495348 15:0.425493 16:0.53403 17:-0.839434 18:0.326796 19:0.135478 20:-0.326224 21:0.154423 22:-0.138023 23:-0.582622 24:-0.346944 25:0.25537 
0.5 1:0.339036 2:-0.156838 3:0.0446027 4:-0.324673 5:0.157063 6:-0.0340003 7:-0.202025 8:0.0270167 9:-0.172071 10:0.269618 11:-0.324853 12:1 13:-0.389079 14:-0.388858 15:-0.342004 16:0.497576 17:-0.336629 18:0.0811112 19:-0.161668 20:-0.40529 21:-0.0408361 22:-0.228657 23:-0.763545 24:-0.29776 25:-0.319773 
0.5 1:-0.28792 2:-0.475714 3:0.258571 4:0.150447 5:-0.30958 6:0.136474 7:0.120127 8:-0.665296 9:0.0548957 10:-0.0899479 11:-0.572399 12:-0.256189 13:0.425248 14:-0.346806 15:0.290856 16:0.401252 17:-0.525624 18:0.513331 19:-0.128807 20:-0.37752 21:0.0110552 22:-0.20893 23:-0.675261 24:-0.303466 25:0.386062 
0.5 1:-0.191146 2:-0.0449509 3:0.340381 4:0.318106 5:-0.545806 6:-0.239245 7:-0.11087 8:-0.475377 9:-0.291363 10:-0.280924 11:-0.259572 12:-0.134957 13:-0.401324 14:-0.185134 15:-0.182284 16:0.0491841 17:-0.61751 18:-0.0462448 19:0.461676 20:-0.2065 21:-0.422872 22:-0.304539 23:-0.0335888 24:0.401575 25:-0.08396 
0.5 1:0.0117395 2:0.0126797 3:-0.318251 4:-0.00505201 5:0.0816938 6:-0.175608 7:-0.263691 8:-0.271383 9:-0.0578295 10:0.149302 11:-0.383898 12:0.110222 13:0.775878 14:-0.101494 15:-0.255376 16:-0.210712 17:-0.54912 18:0.124335 19:0.177819 20:-0.410651 21:-0.143656 22:-0.380952 23:-0.361196 24:0.788928 25:-0.113663 
0.5 1:0.948942 2:0.75486 3:-0.74695 4:-0.737642 5:-0.496484 6:-1 7:-0.876559 8:-0.508831 9:-0.884083 10:-0.285271 11:-0.669708 12:-0.239021 13:-0.59592 14:-0.197705 15:-0.870337 16:-0.853517 17:-0.729747 18:-0.485495 19:-0.66033 20:-0.337407 21:-1 22:-0.878148 23:-0.537308 24:0.0982051 25:-0.829411 
0.5 1:0.172557 2:-0.199578 3:-0.37672 4:-0.512035 5:0.298729 6:0.276787 7:-0.0650245 8:-0.138379 9:-0.548733 10:0.37739 11:-0.271014 12:0.0633254 13:0.125642 14:-0.0873875 15:-0.443609 16:-0.446049 17:0.333791 18:-0.553674 19:-0.0660323 20:-0.618504 21:0.132259 22:0.477957 23:-0.671819 24:-0.190889 25:0.0654584 
0.35448736728969676 1:-0.284463 2:0.170387 3:0.31237 4:0.175602 5:-0.00748223 6:0.0452411 7:-0.776805 8:-0.493339 9:-0.336889 10:-0.301456 11:-0.18091 12:-0.236244 13:-0.343262 14:0.215919 15:-0.395042 16:0.141807 17:-0.586344 18:-0.502119 19:-0.275217 20:-0.0955969 21:-0.0302172 22:0.285181 23:0.309203 24:-0.0432245 25:0.120018 
0.5 1:0.451116 2:0.0537766 3:0.239416 4:-0.206397 5:-0.691737 6:-0.353913 7:-0.323984 8:-0.245407 9:-0.217235 10:0.151903 11:-0.407625 12:0.880771 13:-0.677607 14:-0.259682 15:-0.320665 16:0.620149 17:-0.025837 18:0.545688 19:-0.228656 20:-0.814833 21:-0.395724 22:-0.546494 23:-0.335824 24:-0.229581 25:-0.272933 
0.5 1:0.362768 2:-0.222125 3:-0.00241127 4:-0.112061 5:-0.435834 6:-0.0764849 7:-0.668989 8:-0.102998 9:-0.335734 10:0.218348 11:-0.595252 12:-0.0785659 13:-0.459835 14:-0.226376 15:-0.256702 16:-0.0782132 17:0.173645 18:0.228079 19:0.165686 20:-0.071461 21:-0.387236 22:-0.191517 23:-0.774527 24:-0.154429 25:-0.215436 
0.38644048598372266 1:-0.43359 2:-0.687665 3:0.421302 4:0.387139 5:-0.389398 6:-0.063548 7:0.0434198 8:-0.817277 9:-0.245089 10:-0.541524 11:-0.354734 12:-0.779423 13:0.29638 14:-0.683724 15:-0.0358754 16:0.0241557 17:-0.773613 18:0.30124 19:0.485906 20:-0.290944 21:0.00281097 22:-0.676864 23:-0.31325 24:0.490149 25:-0.179702 
0.5 1:-0.177403 2:-0.32755 3:0.00984993 4:-0.134698 5:-0.100518 6:0.36083 7:0.12461 8:-0.584344 9:-0.055904 10:0.235281 11:-0.285687 12:-0.302588 13:0.250603 14:0.013422 15:-0.0784532 16:0.0789055 17:-0.448368 18:0.112432 19:-0.160942 20:-0.347734 21:-0.0567213 22:0.65535 23:-0.466923 24:0.055107 25:-0.062909 
0.5 1:-0.610882 2:-0.360397 3:-0.321906 4:-0.317692 5:0.526275 6:1 7:-0.760627 8:-0.80002 9:-0.593017 10:-0.809599 11:-0.0215057 12:-0.936156 13:-0.0142298 14:-0.208345 15:-0.960053 16:-0.534804 17:-1 18:-0.0853371 19:-0.273894 20:0.588612 21:-0.818525 22:-0.414584 23:-0.419181 24:-0.103267 25:-1 
0.37821277266694547 1:0.387945 2:0.147212 3:-0.104826 4:-0.742285 5:0.392472 6:-0.14653 7:-0.865709 8:-0.618537 9:-0.221619 10:0.222301 11:0.296223 12:0.113144 13:-0.453387 14:-0.109275 15:-0.685629 16:-0.45778 17:-0.674127 18:-0.188254 19:-0.829345 20:-0.132503 21:-0.0217359 22:-0.398914 23:-0.433846 24:-0.0860843 25:-0.413252 
0.5 1:0.00282484 2:0.0814706 3:0.175785 4:0.116522 5:-0.568695 6:-0.197569 7:-0.771554 8:-0.265527 9:-0.178375 10:-0.189448 11:-0.574918 12:0.234469 13:-0.759977 14:-0.0891817 15:-0.0799858 16:0.0530771 17:-0.176815 18:0.336429 19:0.263773 20:0.142364 21:0.0560451 22:-0.442521 23:-0.69834 24:0.215004 25:0.494287 
0.5 1:0.77683 2:-0.370052 3:-0.274161 4:-0.782463 5:-0.3397 6:-0.486498 7:-0.582833 8:-0.43022 9:-0.710604 10:-0.609201 11:-0.701875 12:-0.329947 13:-0.82995 14:-0.567598 15:-0.726804 16:-0.451085 17:-0.126124 18:-0.362329 19:-0.66856 20:-0.670758 21:-0.784749 22:-1 23:-0.62486 24:-0.580723 25:-0.625615 
0.5 1:-0.220625 2:-0.0876875 3:0.299209 4:0.436562 5:-0.526451 6:0.00440201 7:-0.73319 8:-0.729647 9:0.216859 10:0.0166512 11:0.367397 12:0.0115721 13:-0.187299 14:0.0928632 15:0.029876 16:0.0998489 17:-0.32534 18:-0.0365358 19:0.542011 20:-0.223606 21:-0.213556 22:0.136643 23:-0.247708 24:0.582564 25:-0.121948 
0.5 1:-0.186367 2:-0.105527 3:-0.341996 4:-0.175798 5:-0.0562775 6:0.260997 7:0.104075 8:-0.392636 9:-0.499826 10:-0.377795 11:-0.516708 12:-0.496902 13:0.120385 14:-0.0105047 15:-0.525135 16:-0.621794 17:-0.786963 18:-0.54562 19:0.0630836 20:0.910428 21:-0.477975 22:0.690213 23:-0.457196 24:0.920226 25:-0.356138 
0.5 1:-0.139342 2:0.000378867 3:-0.310058 4:-0.253457 5:-0.169372 6:-0.0601632 7:-0.359058 8:-0.571076 9:0.241806 10:-0.00553415 11:-0.340909 12:-0.313836 13:-0.13033 14:-0.213643 15:-0.416202 16:-0.424485 17:-0.55556 18:-0.0534722 19:-0.145688 20:0.0476592 21:-0.202859 22:-0.572377 23:-0.590254 24:0.226145 25:-0.16993 
0.5 1:-0.312055 2:-0.0589431 3:0.263869 4:0.272536 5:-0.274691 6:0.0433668 7:-0.510306 8:-0.0595169 9:0.15606 10:0.371967 11:-0.698653 12:-0.45578 13:-0.290377 14:-0.281556 15:-0.248627 16:-0.0178407 17:-0.424817 18:-0.0934797 19:0.256017 20:-0.167281 21:-0.292123 22:0.162962 23:-0.347096 24:0.418764 25:-0.0799836 
0.5 1:0.0926019 2:-0.281768 3:-0.299739 4:-0.494489 5:-0.0287396 6:0.114482 7:-0.194151 8:-0.161996 9:-0.848121 10:-0.218777 11:0.820369 12:-0.282229 13:-0.12115 14:-0.505577 15:-0.58451 16:-0.289981 17:-0.443214 18:-0.616601 19:-0.423463 20:0.696952 21:-0.392684 22:-0.237636 23:-0.467486 24:-0.513176 25:-0.223551 
0.5 1:-0.235332 2:-0.289974 3:0.162576 4:0.255113 5:0.368818 6:0.587614 7:-0.803117 8:-0.635057 9:-0.215221 10:0.0455425 11:-0.388302 12:-0.493033 13:-0.675185 14:-0.0264522 15:-0.237373 16:-0.304203 17:-0.403187 18:-0.474886 19:0.325681 20:-0.257874 21:-0.325932 22:-0.225548 23:-0.145758 24:0.261459 25:-0.356201 
0.5 1:0.160316 2:-0.419204 3:0.151612 4:-0.223963 5:-0.179022 6:-0.0433942 7:-0.238362 8:-0.353641 9:-0.17591 10:0.0695007 11:-0.470907 12:0.212272 13:-0.317424 14:-0.544198 15:-0.00745498 16:0.231446 17:-0.136065 18:0.322433 19:-0.24817 20:-0.365136 21:-0.231977 22:-0.332368 23:-0.731257 24:-0.129773 25:0.151334 
0.5 1:-0.0260113 2:-0.321291 3:-0.132337 4:-0.275384 5:0.44203 6:0.411888 7:-0.181627 8:-0.505121 9:0.234357 10:0.102134 11:-0.48146 12:0.173057 13:-0.414433 14:-0.368974 15:-0.0258636 16:0.0897194 17:-0.173408 18:0.0505339 19:-0.0807004 20:0.0730487 21:0.440286 22:0.220886 23:-0.639566 24:-0.172246 25:0.0257189 
0.47495002304245881 1:-0.514811 2:-0.198241 3:0.50378 4:0.556695 5:-0.0762809 6:-0.107247 7:-0.285158 8:-0.121566 9:-0.329241 10:0.00778883 11:-0.225678 12:-0.209504 13:-0.428456 14:0.249668 15:-0.185564 16:0.334242 17:-0.402077 18:0.250394 19:0.4892 20:-0.611629 21:0.211448 22:-0.0569853 23:-0.186041 24:0.0471561 25:-0.473813 
0.5 1:-0.294167 2:-0.249068 3:0.0333854 4:0.321232 5:0.0775995 6:0.366228 7:-0.542611 8:-0.772254 9:0.49196 10:0.148018 11:-0.853473 12:-0.456098 13:-0.0779091 14:-0.27866 15:-0.275926 16:-0.281191 17:-0.834604 18:-0.345148 19:0.348173 20:0.329595 21:-0.0280038 22:0.479596 23:0.151568 24:0.645907 25:-0.035003 
0.5 1:-0.0877447 2:-0.0878185 3:0.131015 4:0.0499603 5:-0.412872 6:-0.0532897 7:-0.482881 8:-0.24285 9:0.189583 10:0.249615 11:-0.660821 12:-0.048177 13:-0.518584 14:-0.0493185 15:0.0579314 16:0.29059 17:-0.338285 18:0.192647 19:0.229667 20:-0.130563 21:-0.212601 22:-0.0734876 23:-0.125299 24:0.26519 25:-0.0711877 
0.5 1:-0.596166 2:-0.19184 3:1 4:0.351042 5:-0.223099 6:-0.41349 7:-0.333046 8:-0.625665 9:-0.971912 10:-0.716602 11:-0.214371 12:-0.303325 13:0.0972927 14:-0.204443 15:-0.208596 16:0.767536 17:-0.806023 18:0.139843 19:0.311134 20:-0.150217 21:0.0272985 22:-0.530224 23:-0.408528 24:-0.491632 25:-0.116969 
0.5 1:0.123241 2:-0.194464 3:-0.136979 4:-0.18255 5:0.120239 6:0.237534 7:-0.527825 8:-0.507956 9:-0.0723104 10:0.0108908 11:0.262698 12:0.0142831 13:-0.381704 14:-0.311375 15:-0.111284 16:0.0619755 17:-0.228893 18:0.10319 19:0.0165607 20:0.1105 21:0.132827 22:-0.0132437 23:-0.621696 24:-0.0447168 25:-0.046072 
0.5 1:-0.0902173 2:-0.502549 3:-0.0224251 4:-0.336781 5:0.40869 6:0.534164 7:-0.0120951 8:-0.453178 9:-0.469221 10:-0.113521 11:-0.438626 12:-0.384017 13:-0.169584 14:-0.247315 15:-0.251278 16:0.241577 17:-0.498043 18:0.0744877 19:-0.530309 20:0.346688 21:0.129764 22:0.194836 23:-0.658979 24:-0.606656 25:-0.043844 
0.5 1:-0.454241 2:1 3:0.852713 4:0.121532 5:-0.0840096 6:-0.274608 7:-0.688858 8:-0.278302 9:-0.29284 10:0.104466 11:0.0343203 12:-0.415398 13:-0.745226 14:1 15:-0.574186 16:0.456009 17:-0.520458 18:0.159934 19:0.318549 20:-0.307484 21:-0.184249 22:-0.550343 23:0.154907 24:-0.124276 25:-0.42159 
0.5 1:-0.42378 2:-0.432686 3:0.285295 4:0.117852 5:-0.225552 6:0.068139 7:-0.0715853 8:-0.468249 9:0.10319 10:-0.105945 11:-0.329521 12:-0.513007 13:0.166058 14:-0.329775 15:0.0974283 16:0.220931 17:-0.594598 18:0.100288 19:0.196529 20:-0.190004 21:0.151813 22:0.00874027 23:-0.303943 24:0.13544 25:0.0050638 
0.5 1:-0.0451156 2:0.920229 3:-1 4:-0.395982 5:1 6:-0.342103 7:-0.569348 8:0.0809726 9:-0.6284 10:0.118996 11:-0.584975 12:-0.717149 13:-0.288456 14:-0.247545 15:-0.821666 16:-1 17:-0.830559 18:-0.636831 19:-0.457948 20:-0.10249 21:1 22:-0.596617 23:-0.559558 24:0.640613 25:-0.763877 
0.5 1:-0.484603 2:-0.469595 3:0.524091 4:0.203083 5:-0.338195 6:0.0390636 7:0.0182527 8:-0.547775 9:-0.322915 10:-0.117965 11:-0.210977 12:-0.464729 13:0.0148648 14:-0.361301 15:-0.0231189 16:0.463439 17:-0.568693 18:0.11069 19:0.172304 20:-0.33266 21:0.246139 22:-0.13881 23:-0.531243 24:-0.00822079 25:0.255729 
0.16414382812479286 1:-0.304844 2:-0.196382 3:0.270582 4:0.334324 5:-0.460498 6:-0.0741205 7:-0.0589916 8:-0.829269 9:-0.317041 10:-0.428291 11:-0.359646 12:-0.592051 13:-0.176095 14:-0.391069 15:0.0207911 16:-0.106465 17:-0.724551 18:0.08754 19:0.263052 20:0.0223991 21:-0.276281 22:-0.290459 23:-0.313307 24:0.52546 25:-0.167292 
0.5 1:0.0922121 2:-0.443448 3:0.100896 4:-0.0843505 5:-0.243451 6:0.34793 7:-0.627546 8:-0.569427 9:-0.411815 10:0.250795 11:-0.358025 12:0.369829 13:-0.769994 14:-0.470384 15:0.249957 16:0.176657 17:-0.227565 18:-0.222184 19:0.0932015 20:-0.523228 21:0.07694 22:0.49858 23:-0.253956 24:0.146865 25:0.336728 
0.5 1:0.493242 2:-0.0917945 3:-0.218677 4:-0.293826 5:-0.713591 6:-0.404762 7:-0.433565 8:-0.160113 9:0.471543 10:0.570004 11:-0.36679 12:0.442161 13:0.227778 14:-0.559855 15:-0.144772 16:-0.114586 17:0.226117 18:-0.224629 19:-0.0618005 20:-0.842284 21:-0.970181 22:-0.880526 23:-0.574146 24:-0.0404413 25:-0.238872 
0.5 1:-0.185488 2:-0.173593 3:-0.0520414 4:-0.0599288 5:-0.153979 6:0.0884696 7:0.0462259 8:-0.639405 9:-0.0670757 10:0.383384 11:-0.410559 12:-0.478332 13:0.290085 14:0.0451533 15:0.120583 16:-0.05248 17:-0.561713 18:0.154713 19:-0.246681 20:-0.917822 21:0.0275015 22:0.189955 23:-0.311607 24:0.383831 25:0.177957 
0.5 1:-0.208564 2:-0.160477 3:0.0707278 4:0.029231 5:0.0159717 6:0.347309 7:-0.290659 8:-0.649865 9:0.264711 10:-0.0196991 11:-0.363655 12:-0.150635 13:-0.25716 14:-0.273215 15:-0.0464301 16:-0.226025 17:-0.452872 18:-0.225343 19:-0.0501758 20:-0.247869 21:0.0524759 22:0.362188 23:-0.480471 24:0.128965 25:0.0230941 
0.15197984359030742 1:-0.580394 2:-0.478964 3:0.439501 4:0.43024 5:-0.138335 6:0.150018 7:0.0480761 8:-0.770858 9:-0.107603 10:-0.441234 11:-0.410928 12:-0.645845 13:0.303484 14:-0.284136 15:0.0609465 16:0.381752 17:-0.874902 18:0.0180378 19:0.171077 20:-0.167752 21:0.376997 22:0.481211 23:0.0435154 24:0.50948 25:0.00695548 
0.5 1:-0.211793 2:-0.521349 3:0.336448 4:0.02986 5:-0.373585 6:-0.127805 7:0.678311 8:-0.210957 9:-0.0528304 10:0.172683 11:-0.25844 12:-0.139929 13:0.260557 14:-0.290405 15:0.0849979 16:0.412037 17:-0.636543 18:0.317882 19:-0.0454411 20:0.371453 21:-0.207894 22:0.0111714 23:0.123279 24:0.327452 25:-0.0293015 
0.5 1:0.125702 2:-0.112677 3:0.156528 4:-0.210245 5:-0.202464 6:0.149203 7:-0.630685 8:-0.61633 9:-0.0550144 10:0.124399 11:0.13158 12:-0.0442251 13:-0.598837 14:-0.164454 15:-0.52801 16:0.209353 17:-0.56243 18:0.167587 19:-0.421004 20:-0.357855 21:-0.189018 22:-0.107921 23:0.371663 24:0.0839302 25:-0.204947 
0.5 1:-0.561353 2:-0.201214 3:0.279186 4:0.293477 5:-0.417193 6:0.0644332 7:-0.41661 8:-0.236907 9:-0.194029 10:-0.644511 11:-0.449337 12:-0.480297 13:0.628162 14:-0.160647 15:-0.0226136 16:0.18862 17:-0.318443 18:0.25838 19:0.126016 20:-0.157752 21:-0.314747 22:0.208193 23:-0.665183 24:0.17014 25:-0.0716844 
0.5 1:0.0165819 2:0.102924 3:0.0248152 4:-0.0429395 5:-0.383916 6:0.0392483 7:-0.748915 8:-0.114878 9:0.154309 10:0.259881 11:-0.129791 12:-0.0517931 13:-0.114815 14:0.0758063 15:0.0347511 16:0.22458 17:-0.380274 18:-0.0581591 19:-0.0367375 20:-0.0341683 21:-0.335856 22:-0.0240883 23:-0.310161 24:0.0825783 25:0.0969258 
0.16324152177576787 1:0.360409 2:-0.615906 3:-0.138615 4:-0.217165 5:-0.0511645 6:-0.372035 7:-0.617242 8:-0.558529 9:-0.52493 10:0.0564192 11:-0.647769 12:0.0214328 13:-0.410335 14:-0.586437 15:-0.477376 16:-0.456117 17:-0.123982 18:-0.177571 19:-0.359418 20:-0.396518 21:-0.47679 22:-0.795395 23:-0.687636 24:-0.0312698 25:-0.262291 
0.20823728694499341 1:-0.0746126 2:-0.484488 3:0.276722 4:0.180474 5:-0.300187 6:0.0479104 7:-0.144759 8:-0.495226 9:-0.000946324 10:-0.282485 11:-0.25223 12:-0.261684 13:-0.584573 14:-0.523524 15:-0.133604 16:-0.193846 17:-0.591349 18:-0.111729 19:0.0833194 20:-0.265161 21:-0.192709 22:0.0977052 23:-0.437476 24:-0.0464818 25:-0.0172434 
0.5 1:0.0528083 2:0.0524378 3:0.0375529 4:0.0499825 5:-0.286565 6:-0.0969219 7:-0.631235 8:-0.648943 9:-0.0736817 10:0.321327 11:-0.761775 12:-0.392106 13:-0.579785 14:-0.174192 15:-0.25428 16:-0.380444 17:-0.497798 18:0.0239998 19:0.216813 20:0.161794 21:-0.395083 22:-0.237208 23:-0.0404989 24:0.56817 25:-0.334924 
0.5 1:-0.245545 2:-0.232673 3:0.478602 4:0.157762 5:-0.361048 6:-0.0398363 7:-0.24521 8:-0.315469 9:-0.422792 10:-0.0879256 11:-0.0695582 12:-0.142721 13:-0.236506 14:-0.255477 15:-0.326981 16:0.39274 17:-0.559503 18:-0.19496 19:0.0319501 20:0.333784 21:-0.118717 22:-0.143169 23:-0.26728 24:-0.201285 25:0.0842498 
0.5 1:0.250127 2:-0.192115 3:-0.0367464 4:0.00668257 5:-0.411217 6:-0.0443769 7:-0.676375 8:-0.33171 9:-0.0108104 10:0.459306 11:-0.730082 12:0.225363 13:-0.449555 14:-0.264263 15:-0.175856 16:-0.084391 17:-0.188525 18:-0.106053 19:0.332009 20:-0.0399914 21:-0.168983 22:-0.13426 23:-0.0776249 24:0.0561727 25:0.129448 
0.5 1:0.367909 2:-0.107635 3:0.080185 4:-0.299469 5:-0.198761 6:0.0885024 7:-0.449107 8:-0.0459623 9:-0.155701 10:0.130891 11:-0.232549 12:0.743449 13:-0.754494 14:-0.304322 15:-0.115259 16:0.608103 17:-0.238981 18:0.258093 19:-0.162947 20:-0.513705 21:0.0293664 22:-0.103274 23:-0.565555 24:-0.420107 25:-0.232471 
0.5 1:-0.562374 2:-0.872825 3:0.381768 4:0.327859 5:-0.0124551 6:0.316354 7:0.540067 8:-0.80691 9:-0.433245 10:-0.595568 11:-0.228452 12:-0.672681 13:0.232644 14:-0.782139 15:-0.00123084 16:0.371622 17:-0.849285 18:0.259828 19:0.490582 20:-0.103884 21:0.409056 22:0.0739417 23:0.0940622 24:-0.0260705 25:-0.160705 
0.5 1:0.0511194 2:-0.269165 3:0.0938959 4:0.0129227 5:-0.312233 6:-0.11728 7:-0.433908 8:-0.376224 9:-0.178525 10:0.532586 11:-0.207156 12:0.141825 13:-0.180553 14:-0.290915 15:-0.00812262 16:0.186985 17:-0.434971 18:0.0801392 19:0.0634492 20:0.352643 21:-0.239911 22:-0.118235 23:-0.238491 24:0.14786 25:-0.0262346 
0.5 1:0.273872 2:-0.471836 3:-0.335284 4:-0.336403 5:-0.32762 6:0.0867094 7:-0.335455 8:0.10711 9:-0.495149 10:0.0729999 11:-0.531721 12:-0.139393 13:-0.2421 14:-0.554594 15:-0.518804 16:-0.414814 17:-0.0893688 18:-0.30322 19:-0.160708 20:-0.433186 21:-0.524709 22:-0.108945 23:-0.646507 24:-0.224435 25:-0.13904 
0.5 1:-0.387333 2:-0.0310246 3:0.486462 4:1 5:-0.316512 6:-0.000826739 7:-0.792073 8:-0.68539 9:0.43374 10:-0.0613952 11:0.381829 12:-0.111231 13:-0.350173 14:0.080411 15:-0.18959 16:-0.209879 17:-0.365281 18:0.286305 19:1 20:-0.0967995 21:-0.053497 22:0.246499 23:0.221218 24:0.364066 25:-0.336538 
0.5 1:-0.503295 2:-0.0611429 3:-0.442566 4:0.0382422 5:0.120819 6:-0.238474 7:-0.691283 8:-0.547458 9:0.0152774 10:-0.384724 11:-0.722452 12:-0.658935 13:0.018957 14:-0.574454 15:-0.609321 16:-0.595173 17:-0.810492 18:0.224199 19:0.140738 20:-0.135147 21:-0.246036 22:-0.659447 23:-0.581528 24:0.18874 25:-0.374382 
0.5 1:0.128101 2:-0.117111 3:0.303992 4:0.156291 5:-0.531589 6:-0.083099 7:-0.114139 8:-0.153845 9:0.176471 10:0.390428 11:-0.57252 12:0.49433 13:-0.392926 14:-0.342787 15:0.345277 16:0.651623 17:-0.539605 18:0.370216 19:0.417532 20:-0.578744 21:-0.0498841 22:-0.561826 23:-0.353201 24:0.0147785 25:0.0666137 
0.5 1:0.0105636 2:0.117514 3:0.194375 4:0.0320637 5:-0.442588 6:-0.14172 7:-0.352999 8:-0.441559 9:-0.146289 10:0.367135 11:-0.155758 12:0.12792 13:-0.418683 14:0.323559 15:-0.0784451 16:0.378783 17:-0.288372 18:-0.127155 19:0.148874 20:-0.485234 21:-0.30457 22:-0.180913 23:-0.566477 24:0.310173 25:-0.176905 
0.43837213562000305 1:-0.398112 2:-0.483703 3:0.417059 4:0.391055 5:-0.348871 6:-0.105178 7:-0.275007 8:-0.75829 9:0.00743623 10:-0.176141 11:-0.273766 12:-0.385727 13:-0.0311875 14:-0.531033 15:0.0734251 16:0.247786 17:-0.578671 18:0.340854 19:0.344352 20:-0.131789 21:0.130523 22:-0.371334 23:-0.224026 24:0.164033 25:0.0148353 
0.296667754335663 1:-0.0911518 2:0.0547511 3:0.416112 4:-0.177102 5:0.211422 6:-0.103092 7:-0.667525 8:-0.600786 9:-0.505389 10:-0.0600221 11:0.365834 12:-0.184327 13:-0.267566 14:0.14877 15:-0.570007 16:0.0403776 17:-0.685558 18:-0.443803 19:-0.333176 20:0.262642 21:-0.0241915 22:0.183444 23:0.284473 24:0.0211742 25:-0.165991 
0.5 1:0.454503 2:-0.175999 3:-0.123302 4:-0.190031 5:-0.202457 6:-0.273172 7:-0.797999 8:-0.449733 9:-0.27468 10:-0.0503212 11:-0.379187 12:0.00206575 13:-0.869348 14:-0.391853 15:-0.643686 16:-0.266672 17:-0.0314513 18:0.205783 19:0.0443338 20:0.363673 21:-0.248404 22:-0.713448 23:-0.0448115 24:0.679149 25:-0.806815 
0.5 1:0.0405062 2:-0.324313 3:0.161359 4:-0.075384 5:-0.150319 6:-0.0108247 7:0.416061 8:-0.144621 9:0.349507 10:0.292212 11:-0.499544 12:0.00135018 13:-0.352397 14:-0.161983 15:0.132812 16:0.167125 17:-0.419295 18:-0.201969 19:-0.0848746 20:-0.350451 21:-0.186726 22:0.147516 23:-0.499486 24:-0.0638775 25:0.133363 
0.5 1:-0.362564 2:-0.677316 3:-0.328069 4:-0.116819 5:0.940591 6:0.675959 7:-0.674677 8:-1 9:-0.210005 10:0.172427 11:-0.272463 12:-0.643458 13:-0.156647 14:-0.728849 15:-0.614042 16:-0.682828 17:-0.768658 18:-0.445058 19:-0.394585 20:-0.41845 21:-0.317208 22:0.178165 23:-0.161057 24:0.234231 25:-0.398559 
0.5 1:-0.00821057 2:0.01979 3:0.209056 4:0.0367485 5:-0.323915 6:-0.168354 7:-0.353757 8:-0.52152 9:-0.458533 10:-0.0988967 11:-0.092586 12:0.203184 13:0.0467562 14:0.108981 15:-0.27481 16:0.285303 17:-0.619052 18:-0.118281 19:0.116651 20:0.194074 21:-0.0457366 22:0.0992225 23:-0.295705 24:-0.0736962 25:-0.0102853 
0.5 1:0.19615 2:-0.329933 3:-0.232155 4:-0.243373 5:-0.105097 6:-0.0910509 7:-0.540942 8:-0.499407 9:-0.346988 10:0.132045 11:-0.0977407 12:-0.0767634 13:-0.400049 14:-0.306389 15:-0.400288 16:-0.305509 17:0.213811 18:-0.447785 19:-0.321903 20:-0.196865 21:-0.363323 22:-0.248511 23:-0.228917 24:-0.0945715 25:-0.254961 
0.41114048996052105 1:0.822445 2:-0.0565469 3:0.228685 4:-0.555869 5:0.317603 6:-0.0403527 7:-0.868479 8:-0.494424 9:-0.601732 10:0.0609689 11:-0.538859 12:0.26741 13:-0.511804 14:-0.211147 15:-0.482403 16:-0.00850227 17:-0.571317 18:-0.144374 19:-0.48054 20:-0.583633 21:-0.793633 22:-0.886419 23:-0.714937 24:-0.0487919 25:-0.399736 
0.17625404764361779 1:-0.471722 2:-0.561915 3:0.304142 4:0.459112 5:-0.265002 6:0.0471638 7:-0.341082 8:-0.708544 9:-0.493176 10:-0.637786 11:-0.2069 12:-0.647495 13:0.427988 14:-0.759676 15:0.106473 16:-0.193378 17:-0.705573 18:0.00368538 19:0.310851 20:-0.552458 21:0.127997 22:-0.0994782 23:-0.167309 24:0.251502 25:0.0282684 
0.5 1:0.237402 2:0.199804 3:0.245031 4:0.125228 5:-0.760783 6:-0.54093 7:0.371997 8:-0.459692 9:0.051987 10:0.0845978 11:-0.0224514 12:0.750268 13:-0.541509 14:-0.106434 15:-0.0213159 16:0.7856 17:0.0432035 18:0.20146 19:0.142403 20:-0.652361 21:-0.437453 22:-0.563202 23:-0.4459 24:0.481147 25:-0.236574 
0.5 1:-0.0567947 2:-0.0934223 3:0.387284 4:0.0748576 5:-0.569288 6:-0.209492 7:-0.262678 8:-0.43229 9:0.0908333 10:0.313605 11:-0.0608966 12:0.103828 13:-0.592991 14:-0.293249 15:-0.312514 16:0.833768 17:-0.086941 18:-0.185141 19:0.400771 20:0.467004 21:-0.56186 22:-0.225198 23:-0.630569 24:0.305293 25:-0.145112 
0.5 1:-0.548433 2:-0.738046 3:0.676651 4:0.138701 5:-0.506613 6:0.215459 7:0.430926 8:-0.594416 9:-0.231627 10:-0.165907 11:-0.508496 12:-0.545541 13:0.377438 14:-0.386575 15:0.508226 16:0.539755 17:-0.756939 18:0.547902 19:0.257407 20:-0.0174181 21:0.083338 22:-0.225277 23:-0.498475 24:-0.342499 25:0.263073 
0.44602052395864639 1:-0.0362684 2:0.0959445 3:0.51459 4:-0.15456 5:-0.0197412 6:-0.326835 7:-0.444829 8:-0.476219 9:-0.659156 10:-0.0534051 11:0.563049 12:-0.101956 13:-0.554482 14:0.121344 15:-0.582985 16:0.213237 17:-0.507914 18:-0.0470631 19:-0.129968 20:-0.291804 21:-0.412544 22:-0.574987 23:0.211139 24:-0.0479525 25:-0.380033 
0.5 1:-0.688746 2:-0.048852 3:0.507719 4:0.759436 5:-0.642509 6:-0.0661016 7:-0.71835 8:-0.725894 9:0.147663 10:-0.353994 11:-0.340422 12:-0.617115 13:-0.281734 14:0.221372 15:-0.196476 16:0.231473 17:-0.621602 18:0.499615 19:0.485352 20:-0.417741 21:-0.113551 22:0.168164 23:-0.00678142 24:0.775813 25:-0.236627 
0.5 1:-0.0466708 2:-0.367071 3:0.132616 4:-0.0696362 5:0.0112129 6:0.182473 7:-0.272311 8:-0.48126 9:0.259 10:0.229901 11:-0.0219984 12:0.0701703 13:-0.182174 14:-0.0835071 15:0.148377 16:0.180576 17:-0.479072 18:0.142392 19:-0.0670101 20:0.0881729 21:-0.119325 22:0.111033 23:-0.623961 24:-0.0891046 25:0.131883 
0.5 1:-0.216154 2:-0.126632 3:-0.705066 4:-0.420223 5:0.412328 6:0.0816575 7:-0.322012 8:-0.532596 9:-0.513723 10:-0.191558 11:-0.563626 12:-0.776476 13:0.633028 14:-0.689798 15:-1 16:-0.981321 17:-0.825659 18:-0.169487 19:-0.346595 20:0.555248 21:0.127551 22:0.0859758 23:-0.545958 24:0.755194 25:-0.876329 
0.5 1:0.159488 2:-0.128923 3:0.113312 4:-0.121613 5:-0.0922089 6:0.0772928 7:-0.373899 8:-0.334858 9:-0.322089 10:0.073392 11:-0.481938 12:-0.0244843 13:-0.505158 14:0.0547204 15:-0.00650612 16:0.295084 17:-0.378193 18:-0.10222 19:-0.109598 20:-0.454105 21:-0.150348 22:0.0479508 23:-0.733536 24:0.0644853 25:0.108209 
0.5 1:0.0215478 2:-0.181214 3:0.237287 4:-0.0304654 5:-0.172407 6:-0.0398215 7:-0.359103 8:-0.413515 9:-0.638747 10:-0.108248 11:-0.617653 12:-0.0776316 13:-0.276212 14:-0.0469297 15:-0.195639 16:0.0153091 17:-0.624864 18:-0.04755 19:-0.042254 20:0.0260869 21:0.00326767 22:-0.164757 23:-0.652973 24:-0.364073 25:0.0336987 
0.5 1:0.445409 2:-0.177132 3:-0.208958 4:-0.220304 5:-0.317682 6:-0.206757 7:-0.645107 8:-0.472454 9:-0.272266 10:0.428108 11:-0.460728 12:0.117059 13:-0.480631 14:-0.364816 15:-0.265893 16:-0.391537 17:-0.298327 18:-0.260098 19:0.106873 20:-0.166977 21:-0.30397 22:-0.373881 23:-0.176139 24:-0.00350728 25:-0.182417 
-0.19431868793853835 1:-0.035856 2:-0.496046 3:0.228915 4:-0.0132796 5:-0.514439 6:-0.11647 7:-0.16406 8:-0.278378 9:0.385239 10:0.370325 11:-0.593994 12:0.00999944 13:0.663468 14:-0.542805 15:0.363035 16:0.776911 17:-0.452471 18:0.302307 19:-0.245788 20:-0.477543 21:-0.0277679 22:-0.55829 23:-0.3454 24:-0.312055 25:0.171169 
-0.34469902741309172 1:-0.107687 2:-0.363713 3:-0.237979 4:-0.0943531 5:0.0819176 6:0.638006 7:-0.0768958 8:-0.363938 9:0.382939 10:0.0888466 11:-0.849327 12:-0.250782 13:0.05326 14:-0.539979 15:0.0880071 16:-0.118465 17:-0.0610837 18:-0.259427 19:0.0905593 20:-0.320992 21:-0.0784772 22:1 23:0.107449 24:0.790217 25:0.118382 
-0.5 1:-0.201762 2:-0.0877064 3:0.014011 4:-0.0620831 5:-0.350801 6:-0.157184 7:-0.235912 8:-0.506013 9:0.376531 10:0.0181164 11:1 12:-0.308547 13:-0.458335 14:-0.00136146 15:-0.673094 16:-0.485483 17:-0.383677 18:-0.179843 19:-0.28539 20:0.368757 21:-0.185011 22:-0.323623 23:1 24:0.0202896 25:-0.530008 
-0.5 1:0.19615 2:-0.329933 3:-0.232155 4:-0.243373 5:-0.105097 6:-0.0910509 7:-0.540942 8:-0.499407 9:-0.346988 10:0.132045 11:-0.0977407 12:-0.0767634 13:-0.400049 14:-0.306389 15:-0.400288 16:-0.305509 17:0.213811 18:-0.447785 19:-0.321903 20:-0.196865 21:-0.363323 22:-0.248511 23:-0.228917 24:-0.0945715 25:-0.254961 
-0.5 1:-0.101009 2:-0.547399 3:0.106289 4:-0.138163 5:0.299783 6:0.388256 7:-0.171634 8:-0.736882 9:0.481159 10:0.384934 11:-0.651667 12:-0.319432 13:-0.11972 14:-0.330167 15:0.104842 16:0.243987 17:-0.607953 18:0.122224 19:-0.117335 20:-0.0263066 21:0.206555 22:0.661637 23:-0.513525 24:-0.0644991 25:0.134798 
-0.13549523088811349 1:-0.0996007 2:-0.336166 3:0.18089 4:-0.169057 5:-0.344318 6:0.286079 7:0.0552363 8:-0.624774 9:0.941607 10:0.224242 11:-0.231163 12:0.295005 13:0.101508 14:-0.317628 15:0.362938 16:0.476859 17:-0.417434 18:0.43792 19:0.0979649 20:-0.39351 21:-0.257871 22:-0.205166 23:-0.761856 24:-0.105478 25:0.599179 
-0.5 1:0.025465 2:-0.175962 3:0.0622911 4:-0.133214 5:-0.293167 6:0.162937 7:-0.217522 8:-0.472207 9:-0.204644 10:0.400053 11:-0.209267 12:-0.173258 13:-0.247638 14:0.199248 15:-0.0219832 16:0.201155 17:-0.456838 18:0.168114 19:-0.0721152 20:-0.0229222 21:-0.276262 22:-0.0451599 23:-0.205267 24:0.0403539 25:0.00350935 
-0.30967606393453645 1:-0.101997 2:-0.335991 3:0.0405668 4:0.0983475 5:-0.331903 6:0.0379476 7:0.416287 8:-0.470796 9:0.1238 10:0.392158 11:-0.10898 12:-0.178605 13:0.0879877 14:-0.129342 15:0.0265879 16:0.268142 17:-0.571203 18:0.135409 19:-0.0359311 20:-0.212689 21:0.0225711 22:-0.0404213 23:0.168476 24:0.26536 25:-0.0890868 
-0.5 1:0.0551346 2:-0.22302 3:-0.551127 4:-0.418725 5:0.377604 6:0.86743 7:-0.265365 8:-0.788736 9:0.438384 10:-0.149099 11:-0.897985 12:-0.633323 13:-0.170504 14:-0.454354 15:-0.314713 16:-0.468395 17:-0.192458 18:-0.594733 19:-0.315821 20:-0.374315 21:-0.340488 22:0.52199 23:-0.332769 24:0.582805 25:-0.142761 
-0.5 1:-0.00605233 2:-0.071605 3:0.205678 4:0.123991 5:-0.335956 6:-0.0582136 7:-0.214553 8:-0.445132 9:-0.25865 10:0.397815 11:-0.175137 12:0.190716 13:-0.482796 14:0.00395506 15:-0.163745 16:0.420075 17:-0.273703 18:0.17014 19:0.571009 20:0.127534 21:0.0588577 22:0.151966 23:-0.0705533 24:0.346696 25:0.079548 
-0.27516224279126017 1:0.0502199 2:-0.224543 3:0.0614217 4:-0.104255 5:-0.348486 6:0.0811111 7:-0.246545 8:-0.257266 9:-0.209914 10:0.459707 11:-0.635193 12:0.360072 13:0.873845 14:-0.292911 15:0.164021 16:0.37118 17:-0.593115 18:0.342242 19:0.312593 20:-0.626841 21:0.053769 22:0.294089 23:-0.0833025 24:0.266455 25:0.0269929 
-0.5 1:-0.38852 2:-0.44648 3:-0.0536905 4:-0.0747253 5:-0.0135855 6:0.0315571 7:0.00233337 8:-0.686025 9:0.388273 10:-0.188371 11:-0.74605 12:-0.635377 13:0.375864 14:-0.72048 15:-0.335398 16:-0.0146383 17:-0.76557 18:0.392032 19:0.229585 20:0.297925 21:-0.107701 22:-0.198341 23:0.139882 24:0.311114 25:-0.27716 
-0.46370472996912926 1:0.0204987 2:0.0295567 3:0.116919 4:0.0418012 5:-0.16514 6:-0.140908 7:0.168363 8:-0.325082 9:0.595559 10:0.627327 11:-0.526347 12:0.1893 13:-0.567308 14:0.261034 15:-0.0194512 16:0.29681 17:-0.245052 18:0.464159 19:0.717364 20:-0.792404 21:0.126229 22:-0.324686 23:0.0714322 24:-0.14696 25:0.134088 
-0.5 1:-0.0527787 2:-0.565076 3:0.0537418 4:-0.419537 5:-0.293378 6:0.183233 7:-0.685643 8:1 9:-0.470496 10:-0.0698007 11:-0.215886 12:0.511271 13:-0.0744456 14:-0.766011 15:0.11185 16:0.0944878 17:0.0872195 18:0.0151544 19:-0.638801 20:-0.60179 21:-0.246848 22:0.404546 23:-0.851105 24:-1 25:1 
-0.5 1:0.452205 2:-0.105654 3:0.0321107 4:0.00772041 5:-0.793038 6:-0.376183 7:0.227785 8:0.232912 9:-0.283102 10:0.429212 11:-0.59289 12:0.866008 13:-0.727017 14:-0.392492 15:-0.0626778 16:-0.0423227 17:-0.0920618 18:-0.0665869 19:0.250904 20:-0.522471 21:-0.605638 22:-0.586033 23:0.101772 24:0.540845 25:-0.0378712 
-0.5 1:-0.0746103 2:-0.0262639 3:0.0813677 4:0.15021 5:-0.344079 6:-0.210569 7:-0.930189 8:-0.0413485 9:0.147914 10:0.125501 11:-0.392404 12:-0.44899 13:-0.308402 14:-0.241024 15:-0.21006 16:0.00616814 17:-0.428993 18:-0.0243337 19:0.173735 20:0.18606 21:-0.399987 22:-0.613321 23:-0.450439 24:0.442502 25:-0.202451 
-0.5 1:-0.456768 2:-0.522453 3:0.221631 4:0.26181 5:-0.0384218 6:0.249913 7:-0.23882 8:-0.822657 9:1 10:0.0552378 11:-0.638618 12:-0.639208 13:0.447221 14:-0.303807 15:-0.172902 16:0.151572 17:-0.48984 18:-0.411707 19:0.535089 20:0.450191 21:-0.0103578 22:0.0682915 23:-0.741332 24:-0.279331 25:0.615666 
-0.5 1:0.867048 2:-0.262389 3:-0.357676 4:-0.408052 5:-0.654609 6:-0.760319 7:-0.681371 8:-0.0945126 9:-0.557452 10:-0.126407 11:-0.685836 12:0.110384 13:-0.902582 14:-0.435265 15:-0.473539 16:-0.142853 17:-0.499251 18:-0.174672 19:-0.401911 20:-0.690833 21:-0.670611 22:-0.783725 23:-0.19871 24:-0.487254 25:-0.569125 
-0.30479428755358612 1:0.186922 2:-0.118722 3:0.0942082 4:0.0439737 5:-0.994859 6:-0.138458 7:-0.802102 8:-0.243477 9:0.282087 10:0.790615 11:0.126385 12:0.501438 13:-0.167845 14:0.108587 15:-0.00372575 16:0.318295 17:0.0656636 18:0.532753 19:0.155678 20:-0.922927 21:-0.798712 22:-0.161228 23:-0.0593132 24:-0.186141 25:0.476787 
-0.5 1:0.270987 2:-0.163069 3:0.0424802 4:-0.103496 5:-0.277068 6:0.100257 7:-0.314361 8:-0.0960447 9:0.0849356 10:0.394748 11:-0.625364 12:0.874074 13:-0.70442 14:-0.20608 15:0.245626 16:-0.0301413 17:-0.115899 18:0.513599 19:-0.320667 20:-1 21:0.0349691 22:0.159373 23:-0.743319 24:-0.495293 25:0.0231387 
-0.5 1:0.0564922 2:-0.25311 3:0.0798519 4:-0.0280684 5:-0.285536 6:0.0271141 7:-0.52941 8:-0.511801 9:0.0563166 10:0.199949 11:-0.233471 12:0.208783 13:-0.434491 14:-0.339732 15:0.0281709 16:0.406922 17:-0.319765 18:0.357843 19:0.060605 20:-0.231703 21:-0.135502 22:0.063163 23:-0.173066 24:0.0163749 25:-0.0421983 
-0.16864398992176499 1:-0.172452 2:-0.239453 3:0.0750798 4:0.165152 5:-0.295687 6:-0.0525918 7:-0.384795 8:-0.465397 9:-0.117574 10:0.563081 11:-0.019281 12:-0.157465 13:0.0441597 14:-0.382254 15:-0.0022687 16:-0.018298 17:-0.287251 18:-0.0968249 19:0.698084 20:0.130615 21:-0.211727 22:-0.12362 23:-0.2418 24:0.389616 25:0.103152 
-0.46055764663859788 1:-0.0513578 2:-0.306389 3:0.035026 4:-0.206965 5:-0.0700359 6:0.249741 7:0.126874 8:-0.543033 9:0.192088 10:0.217384 11:-0.495432 12:-0.0454245 13:0.202636 14:-0.381915 15:-0.133189 16:0.255663 17:-0.447928 18:-0.15671 19:-0.0529264 20:0.154136 21:-0.0510156 22:0.339888 23:-0.544963 24:-0.0449976 25:-0.161018 
-0.5 1:-1 2:-0.762174 3:0.707296 4:0.514599 5:0.140817 6:0.438916 7:-0.337449 8:-0.444273 9:-0.509837 10:-0.896714 11:-0.743633 12:-1 13:-0.1025 14:-0.0969229 15:-0.188805 16:0.18346 17:-0.680859 18:-0.277871 19:-0.00798314 20:-0.139961 21:-0.0342279 22:-0.064159 23:0.0257273 24:0.182235 25:-0.326289 
-0.5 1:-0.164856 2:-0.112913 3:0.247454 4:-0.231857 5:-0.773878 6:-0.0754224 7:-0.108587 8:0.0082765 9:-0.644858 10:0.183353 11:-0.46659 12:-0.252043 13:0.294838 14:-0.113921 15:-0.398957 16:-0.13977 17:-0.890555 18:-0.404729 19:-0.17015 20:-0.2203 21:-0.743414 22:-0.199149 23:-0.253795 24:-0.0763093 25:0.214301 
-0.34425625936308696 1:-0.264887 2:-0.56198 3:0.252752 4:-0.123979 5:-0.212691 6:-0.293799 7:0.876803 8:-0.0912911 9:-0.32373 10:-0.179276 11:-0.34409 12:-0.108906 13:0.315194 14:-0.554829 15:-0.00523584 16:0.40752 17:-0.3062 18:0.405325 19:-0.296322 20:-0.118858 21:-0.331982 22:-0.600531 23:-0.254727 24:-0.45573 25:-0.00536225 
-0.5 1:0.131181 2:-0.0980246 3:0.146576 4:-0.0973011 5:-0.375641 6:-0.210605 7:-0.269666 8:-0.403594 9:-0.424457 10:0.0270372 11:-0.546394 12:0.183468 13:0.153701 14:-0.270329 15:-0.00843472 16:0.500698 17:-0.239837 18:0.34677 19:0.161107 20:-0.732447 21:-0.235585 22:-0.550016 23:-0.496821 24:-0.219565 25:0.137568 
-0.5 1:-0.249363 2:-0.35828 3:0.44621 4:-0.136431 5:-0.104035 6:0.0248556 7:-0.0147105 8:-0.508256 9:-0.0926343 10:0.0365292 11:0.0604778 12:-0.0723985 13:0.00988516 14:-0.114337 15:0.0402564 16:1 17:-0.476273 18:0.0535208 19:-0.40223 20:-0.00764646 21:0.164845 22:0.0171435 23:-0.368335 24:-0.373492 25:0.449768 
-0.5 1:0.125826 2:-0.203388 3:0.164756 4:-0.400405 5:-0.169349 6:0.103034 7:-0.267275 8:-0.576175 9:-0.0472967 10:0.41952 11:-0.266975 12:0.334418 13:-0.51393 14:-0.265659 15:0.0211027 16:0.483632 17:-0.0341173 18:0.0410774 19:-0.445328 20:-0.469341 21:-0.597375 22:-0.262551 23:-0.714716 24:-0.0404213 25:-0.143673 
-0.031636081431910087 1:0.00541481 2:-0.25483 3:-0.0580212 4:-0.256933 5:-0.0671497 6:-0.0952476 7:0.687984 8:0.0570453 9:-0.0146864 10:0.118898 11:-0.762066 12:0.14103 13:-0.319974 14:-0.227237 15:-0.0396497 16:0.0775676 17:-0.165859 18:0.209683 19:-0.17543 20:-0.335041 21:0.0766592 22:-0.74404 23:-0.55679 24:-0.2138 25:0.404647 
-0.39985289732891943 1:0.271663 2:-0.440268 3:-0.107818 4:-0.380496 5:-0.26824 6:0.0585832 7:0.138188 8:-0.610488 9:-0.265828 10:0.151447 11:-0.796709 12:0.155256 13:-0.0869174 14:-0.414529 15:0.189282 16:-0.266993 17:-0.229075 18:-0.120867 19:-0.305559 20:-0.190508 21:-0.394505 22:-0.268324 23:-0.820878 24:-0.48231 25:0.238583 
-0.5 1:-0.655307 2:-0.205088 3:0.556218 4:0.714943 5:-0.655901 6:-0.227671 7:-0.671243 8:-0.619165 9:0.501405 10:-0.183234 11:-0.55621 12:-0.526351 13:-0.158656 14:-0.0093867 15:0.26481 16:0.1311 17:-0.264645 18:0.365577 19:0.259476 20:-0.295449 21:-0.0499831 22:-0.603377 23:-0.207184 24:0.864368 25:-0.0836287 
-0.5 1:0.320015 2:-0.345691 3:-0.225911 4:-0.33701 5:0.070151 6:0.0821773 7:-0.171072 8:-0.37297 9:-0.416883 10:0.0176344 11:-0.454901 12:0.114002 13:-0.230321 14:-0.52538 15:-0.31392 16:0.0583902 17:-0.417228 18:-0.0607822 19:-0.464317 20:0.596077 21:-0.166086 22:-0.223165 23:-0.671977 24:-0.419844 25:-0.126613 
-0.42768910528570442 1:0.145032 2:-0.248565 3:0.23064 4:-0.262305 5:-0.766695 6:0.0301766 7:-0.0992336 8:0.173132 9:-0.431 10:0.994231 11:-0.75907 12:0.481708 13:-0.00721364 14:-0.370921 15:1 16:0.207751 17:-0.368753 18:-0.203881 19:-0.711818 20:-0.380555 21:-0.757952 22:0.0894296 23:-1 24:-0.442789 25:0.79185 
-0.053604544274790868 1:-0.324472 2:-0.491823 3:0.149582 4:-0.205889 5:-0.403747 6:0.0231437 7:-0.27692 8:0.319451 9:-0.206214 10:-0.0328885 11:-0.494424 12:-0.396994 13:0.121119 14:-0.632616 15:0.458434 16:-0.15143 17:-0.0323924 18:0.0720654 19:-0.402086 20:-0.388942 21:-0.295837 22:-0.198422 23:-0.930218 24:-0.629243 25:0.68981 
-0.5 1:0.642279 2:-0.0128113 3:0.105922 4:-0.291395 5:-0.313568 6:-0.123096 7:-0.497241 8:-0.58421 9:-0.470784 10:0.201956 11:-0.59433 12:-0.152748 13:-0.239157 14:-0.107598 15:-0.335501 16:0.00268158 17:-0.408253 18:-0.303098 19:0.00221589 20:-0.472153 21:-0.51169 22:-0.5205 23:-0.500688 24:0.0135786 25:-0.287595 
-0.5 1:0.0212282 2:-0.122151 3:0.106957 4:-0.0162784 5:-0.126833 6:0.0142552 7:0.0194922 8:-0.407046 9:-0.262653 10:0.165403 11:-0.262421 12:0.154326 13:-0.303742 14:-0.299091 15:-0.0999682 16:0.270266 17:-0.46474 18:-0.0426214 19:0.244772 20:-0.106319 21:0.251139 22:-0.300302 23:-0.616099 24:0.26268 25:0.448739 
-0.5 1:-0.466496 2:-0.45358 3:0.539591 4:0.478379 5:-0.575658 6:-0.134022 7:0.123474 8:-0.610729 9:-0.149404 10:0.0305283 11:-0.0746281 12:-0.146726 13:0.136633 14:-0.426356 15:0.0357155 16:0.0292735 17:-0.135893 18:0.392149 19:0.179263 20:-0.569395 21:-0.232139 22:-0.207157 23:-0.5781 24:-0.0514507 25:0.357488 
-0.13427704169256766 1:-0.0882543 2:-0.0572149 3:0.30431 4:0.262396 5:-0.799219 6:-0.298309 7:-0.297794 8:-0.216137 9:0.0587186 10:0.996012 11:-0.241486 12:0.191667 13:-0.276053 14:-0.390863 15:-0.0732392 16:0.529715 17:0.139431 18:1 19:0.738782 20:-0.0570936 21:-0.421938 22:-0.299094 23:-0.282755 24:0.816028 25:-0.414397 
-0.5 1:1 2:-0.700145 3:-0.691079 4:-0.3924 5:-0.0559722 6:-0.184914 7:-0.264757 8:-0.718134 9:-0.633529 10:-0.328343 11:-0.852629 12:-0.0417909 13:-0.379164 14:-1 15:-0.65951 16:-0.687818 17:-0.0757246 18:-0.598811 19:-0.356919 20:-0.610477 21:-0.656711 22:-0.223994 23:-0.897556 24:-0.645501 25:-0.460046 
-0.5 1:0.117648 2:-0.0398316 3:0.256764 4:0.0142234 5:-0.456511 6:-0.160576 7:-0.426126 8:-0.475061 9:-0.0801265 10:0.392841 11:-0.108084 12:0.216432 13:-0.648609 14:-0.0802429 15:-0.00411853 16:0.308772 17:-0.22469 18:0.213437 19:0.126784 20:-0.279949 21:-0.386712 22:-0.452296 23:-0.422252 24:0.401299 25:-0.1632 
-0.5 1:0.233608 2:0.153425 3:-0.256594 4:-0.273123 5:0.246333 6:0.6439 7:-0.628051 8:-0.605309 9:-0.816912 10:-0.557248 11:-1 12:-0.380854 13:-1 14:-0.454956 15:-0.66787 16:-0.473329 17:-0.690761 18:-0.21708 19:-0.434064 20:-0.146919 21:0.0140837 22:0.0345337 23:-0.622667 24:-0.265103 25:-0.651238 
-0.5 1:0.0205254 2:-0.611716 3:-0.0236691 4:-0.164257 5:-0.272145 6:0.127732 7:-0.171757 8:-0.363731 9:-0.171978 10:0.194814 11:-0.68415 12:0.102494 13:-0.344564 14:-0.553013 15:0.0654132 16:-0.209151 17:-0.346383 18:0.268005 19:-0.201644 20:-0.492654 21:-0.472139 22:0.0450673 23:-0.737639 24:-0.353646 25:0.440988 
-0.5 1:-0.290331 2:-0.224727 3:0.278078 4:-0.0760707 5:-0.0989607 6:0.0680807 7:0.0420748 8:-0.579678 9:0.204024 10:0.315185 11:-0.206863 12:-0.248682 13:-0.388183 14:-0.0638725 15:-0.113463 16:0.553886 17:-0.290046 18:0.224457 19:-0.185502 20:0.0188609 21:0.000673985 22:-0.350999 23:-0.52136 24:-0.133264 25:0.241669 
-0.5 1:-0.340268 2:-0.445203 3:0.215771 4:-0.0418455 5:0.00813644 6:0.1538 7:0.589175 8:-0.379519 9:-0.304242 10:0.0953405 11:-0.479749 12:-0.40049 13:0.149937 14:-0.181126 15:-0.171953 16:0.254577 17:-0.28504 18:0.428619 19:0.0496203 20:-0.157943 21:0.222651 22:0.26028 23:-0.566975 24:-0.0212603 25:-0.0183209 
-0.5 1:-0.128824 2:0.106096 3:0.172023 4:-0.0114621 5:-0.255937 6:0.112797 7:-0.247473 8:-0.577332 9:0.199058 10:-0.112248 11:0.162296 12:-0.0288202 13:0.0195932 14:0.150325 15:0.0994127 16:0.0351555 17:-0.350478 18:-0.15127 19:-0.0164317 20:-0.247724 21:-0.60544 22:-0.553911 23:-0.528963 24:-0.0404383 25:0.276024 
-0.034044011542066932 1:-0.237511 2:-0.417137 3:0.250144 4:-0.111728 5:-0.336997 6:0.162806 7:-0.358504 8:-0.656158 9:0.477566 10:0.384841 11:-0.341519 12:-0.2136 13:0.153105 14:-0.217191 15:0.306182 16:0.635748 17:-0.0901502 18:0.469981 19:-0.261991 20:-0.484855 21:0.225972 22:-0.245678 23:-0.39597 24:-0.281051 25:0.8165 
-0.069854445984608687 1:0.0216203 2:-0.0841594 3:0.109969 4:-0.070574 5:-0.601484 6:6.4802e-05 7:-0.429611 8:-0.311714 9:-0.0979777 10:0.364389 11:-0.35363 12:0.292879 13:-0.21646 14:-0.0108812 15:-0.0818579 16:0.266809 17:-0.238765 18:0.390542 19:0.0606596 20:-0.144512 21:-0.471797 22:0.0873729 23:-0.516934 24:0.111829 25:-0.0447638 
-0.5 1:0.00672326 2:0.34016 3:-0.0163035 4:-0.0970884 5:-0.295379 6:-0.216356 7:-0.563568 8:-0.696971 9:-0.03412 10:-0.0850657 11:-0.774102 12:-0.20182 13:-0.417138 14:0.146115 15:-0.243163 16:-0.0618127 17:-0.509241 18:-0.19319 19:-0.00855951 20:-0.169546 21:-0.146522 22:-0.596348 23:0.05624 24:0.404194 25:-0.268138 
-0.5 1:-0.595679 2:-0.291034 3:-0.335026 4:-0.242694 5:0.890368 6:0.988489 7:-0.547379 8:-0.839301 9:0.496542 10:-0.668967 11:-0.899674 12:-0.960328 13:-0.0383411 14:-0.27832 15:-0.139293 16:-0.22786 17:-0.51975 18:-0.295118 19:-0.390928 20:-0.606781 21:0.176608 22:0.103574 23:-0.178591 24:0.68982 25:-0.017959 
-0.5 1:-0.196751 2:0.145452 3:0.0539551 4:0.401099 5:-0.437526 6:-0.107811 7:-0.446749 8:-0.547399 9:-0.090318 10:0.53604 11:-0.691906 12:-0.234377 13:-0.164999 14:-0.0511132 15:-0.176324 16:-0.0497635 17:-0.311103 18:0.0729173 19:0.549651 20:0.173666 21:-0.156714 22:-0.173604 23:-0.334226 24:0.640497 25:-0.0932483 
-0.37973524001867559 1:-0.0413837 2:-0.225662 3:0.126628 4:0.0912524 5:-0.363904 6:-0.218444 7:-0.698645 8:-0.0107874 9:-0.145371 10:0.389604 11:-0.462077 12:-0.0622562 13:0.0853887 14:0.142331 15:0.0754944 16:0.477907 17:-0.503681 18:-0.193796 19:0.253255 20:0.572698 21:0.0069187 22:-0.24343 23:-0.57973 24:0.740724 25:-0.0621076 
-0.065110490219317932 1:-0.17319 2:0.0239967 3:0.0769819 4:0.129661 5:-0.411445 6:-0.221974 7:0.493146 8:-0.821834 9:0.610516 10:0.816777 11:-0.916783 12:-0.0755008 13:0.0748202 14:0.29443 15:-0.146525 16:0.365897 17:-0.508619 18:-0.0896611 19:0.466433 20:-0.440243 21:-0.32929 22:-0.499675 23:0.0997842 24:0.561705 25:-0.128736 
-0.020284738545706012 1:-0.135247 2:-0.249418 3:0.143398 4:-0.0878038 5:-0.00177651 6:0.0381919 7:-0.147144 8:-0.480437 9:0.0977763 10:0.12662 11:-0.599188 12:0.0158242 13:-0.0471496 14:-0.216621 15:0.173941 16:0.525877 17:-0.350082 18:-0.223262 19:-0.14142 20:-0.263176 21:-0.182896 22:-0.0846092 23:-0.609324 24:0.0478344 25:0.264055 
-0.5 1:0.1388 2:0.163667 3:0.326053 4:0.032738 5:-0.496068 6:-0.276699 7:-0.643339 8:-0.405959 9:-0.0294203 10:0.144129 11:-0.153287 12:-0.0922027 13:-0.759223 14:0.134055 15:-0.38172 16:0.25893 17:-0.0953854 18:0.38747 19:-0.0621748 20:-0.31314 21:-0.248024 22:-0.349345 23:-0.171839 24:0.122 25:-0.343522 
-0.5 1:-0.508785 2:-0.617455 3:0.269495 4:0.383861 5:-0.34415 6:0.0937354 7:0.415417 8:-0.79266 9:-0.0627874 10:-0.270971 11:-0.626456 12:-0.48313 13:0.518561 14:-0.297098 15:0.462454 16:0.352202 17:-0.578713 18:0.279218 19:0.391858 20:-0.174988 21:0.0460156 22:-0.211087 23:-0.356302 24:0.110244 25:0.376725 
-0.5 1:0.869443 2:-0.0794968 3:-0.690552 4:-0.448684 5:-0.0501839 6:-0.442745 7:0.0839198 8:-0.44 9:-0.74768 10:-0.181668 11:-0.40825 12:0.0471167 13:-0.306626 14:-0.613297 15:-0.864506 16:-0.982638 17:0.60748 18:-0.33633 19:-0.324619 20:0.039682 21:-0.304628 22:-0.790096 23:-0.536731 24:0.0244792 25:-0.740357 
-0.5 1:0.154188 2:-0.0800782 3:-0.0615822 4:-0.0713705 5:-0.448709 6:-0.0667282 7:-0.457095 8:-0.272494 9:0.0773899 10:0.264772 11:-0.0624545 12:0.342786 13:-0.203932 14:-0.200324 15:-0.0700115 16:0.175607 17:-0.220222 18:0.125032 19:0.268043 20:-0.254843 21:-0.322023 22:-0.480884 23:-0.28725 24:0.122773 25:-0.00166937 
-0.5 1:0.0936471 2:0.259225 3:-0.233405 4:-0.231313 5:-0.408025 6:-0.363695 7:-0.904549 8:0.00993263 9:-0.0618679 10:-0.37587 11:-0.49258 12:-0.0499545 13:-0.420678 14:0.419855 15:0.263676 16:-0.443337 17:1 18:-0.0854586 19:-0.437027 20:-0.519388 21:-0.0952855 22:-0.708076 23:-0.535291 24:0.0423582 25:0.785662 
-0.5 1:-0.297004 2:-0.660165 3:0.404265 4:-0.0148398 5:-0.209369 6:-0.0903082 7:-0.206516 8:-0.543487 9:-0.66189 10:-0.295504 11:-0.185257 12:-0.353153 13:0.71708 14:-0.305548 15:-0.256168 16:0.283249 17:0.0287805 18:0.404371 19:-0.63036 20:-0.231429 21:-0.306274 22:-0.465465 23:-0.634727 24:-0.304857 25:0.171064 
-0.5 1:0.0834048 2:0.307039 3:-0.184081 4:-0.586569 5:0.894562 6:0.489381 7:-0.890827 8:-0.808438 9:-0.587709 10:-0.577018 11:-0.33452 12:-0.818345 13:-0.765017 14:-0.0638876 15:-0.405223 16:-0.694097 17:-0.675269 18:-0.393482 19:-0.682531 20:-0.369281 21:-0.768819 22:-0.629338 23:-0.363163 24:-0.489356 25:-0.579677 
-0.5 1:0.0452315 2:-0.151399 3:-0.114029 4:-0.0831208 5:-0.411857 6:-0.153605 7:-0.521007 8:-0.177109 9:0.257578 10:0.481005 11:-0.433012 12:-0.224092 13:-0.451739 14:-0.507525 15:-0.365883 16:-0.235422 17:-0.0684811 18:0.0865036 19:0.185489 20:-0.23221 21:-0.249714 22:-0.227996 23:-0.326788 24:0.26846 25:-0.213008 
-0.0031044978874437369 1:-0.133933 2:-0.64381 3:0.11599 4:-0.332259 5:-0.141469 6:0.0800103 7:0.0955205 8:-0.10866 9:-0.402084 10:-0.105333 11:-0.623138 12:0.122263 13:0.208449 14:-0.876499 15:0.544717 16:0.307186 17:0.0690835 18:0.911442 19:-0.26246 20:-0.260139 21:-0.0684403 22:-0.407731 23:-0.827688 24:-0.289855 25:0.511345 
-0.5 1:-0.155557 2:-0.28703 3:0.563212 4:0.248526 5:-0.56086 6:-0.105393 7:-0.402465 8:-0.520615 9:-0.687659 10:-0.00839482 11:-0.602588 12:-0.0333372 13:-0.166963 14:-0.247705 15:-0.0401981 16:0.401744 17:-0.549862 18:0.170993 19:0.165946 20:0.195617 21:-0.0139755 22:-0.222562 23:-0.537473 24:-0.0609388 25:0.178175 
-0.44851208632832923 1:-0.100131 2:-0.292573 3:-0.220101 4:-0.431915 5:-0.149946 6:0.170119 7:0.510155 8:-0.0846181 9:-0.474776 10:-0.128957 11:-0.115788 12:-0.336686 13:0.468243 14:-0.10589 15:0.0167266 16:-0.163488 17:-0.25183 18:0.066046 19:-0.404326 20:-0.209623 21:-0.169501 22:0.70443 23:-0.840307 24:-0.590926 25:0.330839 
-0.5 1:-0.0467427 2:-1 3:-0.774138 4:-1 5:0.724509 6:0.47821 7:0.0770146 8:-0.573744 9:-1 10:-1 11:-0.935667 12:-0.797728 13:-0.45087 14:-0.960083 15:-0.753827 16:-0.804782 17:0.213928 18:-1 19:-1 20:-0.101853 21:-0.40229 22:-0.361832 23:-0.969266 24:-0.823828 25:-0.414901 
-0.47029172118912921 1:-0.044024 2:0.0947154 3:0.154183 4:0.232492 5:-0.550128 6:-0.245587 7:-0.661802 8:-0.24074 9:0.241617 10:0.352058 11:-0.406174 12:-0.0794865 13:-0.203873 14:-0.0216521 15:-0.15967 16:0.0162123 17:-0.454308 18:0.0433618 19:0.260262 20:-0.0815252 21:-0.374272 22:-0.172489 23:-0.135535 24:0.557753 25:0.0339172 
-0.5 1:-0.176967 2:-0.0582311 3:-0.00325499 4:0.163248 5:-0.150378 6:0.122909 7:-0.370607 8:-0.669372 9:0.0938675 10:0.124506 11:-0.455634 12:-0.20655 13:-0.336956 14:-0.135225 15:0.05711 16:-0.154064 17:-0.427316 18:-0.306086 19:0.198912 20:-0.324778 21:0.276503 22:0.241114 23:-0.0329203 24:1 25:0.0474696 
-0.5 1:-0.323043 2:-0.389979 3:0.133192 4:0.0647184 5:0.1606 6:0.641911 7:-0.665158 8:-0.501336 9:0.136001 10:-0.27148 11:-0.179564 12:-0.565848 13:-0.107277 14:-0.275885 15:-0.119542 16:-0.206893 17:-0.682653 18:-0.229148 19:0.0297761 20:0.198656 21:0.124835 22:0.635443 23:-0.445587 24:0.475731 25:-0.111374 
-0.2160673079294507 1:-0.230974 2:0.0749328 3:-0.121289 4:-0.0043591 5:-0.506358 6:-0.480427 7:0.136293 8:0.651617 9:-0.156826 10:-0.204726 11:0.277305 12:-0.431614 13:0.201228 14:0.181732 15:-0.0916839 16:-0.228766 17:0.195136 18:-0.117027 19:0.224208 20:0.0681318 21:-0.341696 22:-0.818682 23:-0.241442 24:0.273933 25:0.165812 
-0.17070343831265733 1:-0.0145541 2:-0.109829 3:0.223869 4:0.0642906 5:-0.512603 6:-0.230825 7:-0.765188 8:-0.257644 9:0.15423 10:0.201863 11:-0.438582 12:0.493737 13:-0.283705 14:-0.419741 15:0.118869 16:0.336505 17:-0.0174336 18:0.371823 19:0.22262 20:0.197348 21:-0.313585 22:-0.499917 23:-0.441738 24:0.073327 25:0.176025 
-0.5 1:-0.0139471 2:-0.230725 3:-0.18135 4:-0.541527 5:0.450486 6:0.619533 7:-0.322679 8:-0.610402 9:-0.162936 10:-0.361608 11:-0.504868 12:-0.298513 13:-0.719988 14:0.0150343 15:-0.35114 16:-0.109238 17:-0.543478 18:-0.130087 19:-0.514067 20:1 21:0.0748968 22:0.363881 23:-0.852538 24:-0.739319 25:-0.0137485 
-0.5 1:0.215005 2:0.831955 3:-0.309441 4:-0.0980199 5:-0.476199 6:-0.917873 7:-0.871222 8:-0.692518 9:0.0553897 10:-0.307843 11:0.140302 12:-0.138334 13:-0.215757 14:-0.149077 15:-0.305856 16:-0.767435 17:-0.353338 18:-0.041168 19:-0.45585 20:-0.727278 21:-0.114284 22:-0.299256 23:0.219006 24:0.300469 25:-0.751014 
-0.5 1:-0.00708923 2:-0.0216854 3:0.121812 4:-0.0854927 5:-0.204303 6:0.0291893 7:-0.268302 8:-0.444508 9:-0.213879 10:0.323979 11:-0.450568 12:-0.127598 13:-0.358445 14:-0.130963 15:-0.17382 16:0.0106061 17:-0.312296 18:-0.00142535 19:-0.00931179 20:0.289108 21:-0.226261 22:-0.14958 23:-0.0286097 24:0.17681 25:-0.0235498 
-0.19266123198483356 1:0.131229 2:-0.542833 3:0.249945 4:0.319848 5:-0.44395 6:0.0343647 7:0.00591123 8:-0.789032 9:0.304948 10:0.283055 11:-0.616099 12:0.177551 13:-0.131499 14:-0.612822 15:-0.146003 16:-0.0978879 17:-0.174787 18:0.281384 19:0.162944 20:-0.6973 21:-0.436447 22:0.287542 23:-0.476681 24:0.261683 25:-0.0748824 
-0.32994521383479808 1:-0.135305 2:0.299137 3:-0.158048 4:0.116153 5:-0.44759 6:-0.06443 7:-0.238263 8:-0.272713 9:0.234503 10:0.428144 11:-0.662 12:-0.149878 13:-0.141056 14:0.346372 15:-0.212475 16:-0.29767 17:-0.465449 18:-0.416043 19:0.443998 20:0.538454 21:-0.188306 22:0.346783 23:-0.123725 24:0.557284 25:0.110608 
-0.11710751637583247 1:-0.0839168 2:-0.234604 3:0.295193 4:-0.0948852 5:-0.0933708 6:-0.0397544 7:0.0799718 8:-0.349396 9:-0.194299 10:0.57117 11:-0.602827 12:0.231662 13:-0.136552 14:-0.127941 15:0.0616656 16:0.67965 17:-0.381057 18:0.532619 19:-0.00873302 20:-0.560125 21:0.50503 22:0.0710084 23:-0.239831 24:-0.189604 25:0.115621 
-0.5 1:-0.267356 2:0.315615 3:0.36653 4:0.0665112 5:-0.457158 6:-0.155226 7:-0.60973 8:-0.281135 9:0.076245 10:-0.116508 11:-0.0410919 12:-0.250376 13:-0.315984 14:0.477288 15:-0.191224 16:0.689528 17:-0.250743 18:-0.089749 19:-0.0643307 20:-0.404799 21:-0.541503 22:-0.116476 23:-0.499233 24:0.627521 25:0.167966 
-0.1809415570001742 1:-0.214866 2:-0.285042 3:0.230128 4:-0.127848 5:-0.334388 6:0.186169 7:0.651861 8:-0.119136 9:-0.853772 10:0.395167 11:-0.477968 12:-0.138473 13:0.382554 14:-0.192243 15:-0.0300346 16:0.170856 17:-0.97353 18:-0.295848 19:-0.240888 20:0.14597 21:-0.495955 22:0.311222 23:-0.918698 24:-0.194042 25:0.625856 
-0.36846072386517914 1:-0.244535 2:-0.128374 3:0.191607 4:-0.0780038 5:-0.217622 6:-0.243978 7:-0.0301406 8:0.232479 9:-0.573852 10:-0.305632 11:-0.745292 12:-0.417915 13:-0.176338 14:0.0758595 15:0.138906 16:0.464606 17:0.43787 18:-0.134901 19:-0.445705 20:-0.13167 21:0.17451 22:-0.283248 23:-0.459801 24:-0.0681086 25:0.0929167 
-0.5 1:-0.128913 2:0.187192 3:0.290305 4:0.0277517 5:-0.379486 6:-0.32559 7:-0.646557 8:-0.24777 9:-0.164009 10:0.265251 11:0.448874 12:0.13611 13:-0.469291 14:0.328934 15:-0.137351 16:0.450682 17:0.0437731 18:0.0652815 19:0.0724554 20:0.143429 21:-0.127578 22:-0.605086 23:-0.505049 24:0.239297 25:-0.0530296 
-0.24693181225478614 1:-0.0801628 2:-0.107927 3:0.0507699 4:-0.0271207 5:-0.397746 6:-0.0177616 7:-0.313477 8:-0.19986 9:0.000163592 10:0.111607 11:-0.504697 12:0.0411137 13:0.0152288 14:-0.330346 15:-0.100719 16:0.17025 17:-0.24497 18:0.00915005 19:0.140166 20:-0.0292561 21:-0.42588 22:-0.135064 23:-0.524033 24:0.284663 25:-0.061278 
-0.5 1:-0.594669 2:-0.389605 3:0.171578 4:-0.085261 5:-0.0349539 6:0.802362 7:-0.559113 8:-0.634091 9:-0.333424 10:-0.445028 11:0.194841 12:-0.689658 13:-0.712355 14:-0.478536 15:-0.00168857 16:-0.409432 17:-0.209026 18:0.348005 19:-0.383442 20:-0.215056 21:-0.223289 22:0.582196 23:-0.455164 24:-0.259189 25:0.244275 
-0.5 1:-0.0921353 2:-0.490719 3:0.137292 4:-0.106699 5:-0.109519 6:0.11574 7:-0.119681 8:-0.803499 9:0.0553131 10:0.626745 11:-0.286564 12:-0.0344625 13:0.585686 14:-0.169454 15:0.127145 16:0.33047 17:-0.727915 18:0.0464269 19:-0.327767 20:-0.313178 21:-0.188047 22:0.600063 23:-0.447283 24:-0.0390821 25:0.0613077 
-0.5 1:0.342398 2:-0.403954 3:0.0963369 4:-0.128755 5:-0.231305 6:-0.0273747 7:-0.387123 8:-0.444716 9:-0.326302 10:0.207833 11:-0.578954 12:0.185558 13:-0.456812 14:-0.34197 15:-0.285799 16:0.213949 17:0.0262224 18:-0.0763558 19:-0.0043454 20:-0.453985 21:-0.295168 22:0.0128811 23:-0.694488 24:0.0876748 25:-0.213891 
-0.18412483990264872 1:-0.0638227 2:-0.340142 3:0.270946 4:-0.441682 5:-0.456468 6:-0.125038 7:0.0894002 8:-0.321543 9:-0.892394 10:0.241743 11:-0.271606 12:-0.0475881 13:0.368292 14:-0.308566 15:-0.164104 16:0.521773 17:-0.651117 18:0.211205 19:-0.546772 20:-0.0555427 21:-0.203688 22:-0.208407 23:-0.470784 24:-0.622298 25:0.220846 
-0.039005303860713866 1:-0.00316044 2:-0.216117 3:0.0174897 4:0.108272 5:-0.344339 6:-0.0587251 7:-0.432061 8:-0.503836 9:-0.220031 10:0.705807 11:-0.292163 12:-0.130298 13:-0.35346 14:-0.250834 15:0.0657333 16:-0.0249851 17:-0.0734839 18:0.0495508 19:0.400421 20:-0.0560074 21:-0.315724 22:-0.0425757 23:-0.581739 24:0.2457 25:-0.0852659 
-0.016469233604516638 1:0.152329 2:-0.353449 3:0.196281 4:-0.167003 5:-0.491605 6:-0.14219 7:-0.0149636 8:-0.285038 9:-0.217499 10:0.67571 11:-0.779863 12:0.165907 13:0.107115 14:-0.329113 15:-0.107333 16:0.565365 17:-0.478103 18:-0.391863 19:-0.346875 20:0.041871 21:-0.311812 22:-0.0372218 23:-0.237355 24:-0.171013 25:-0.10151 
-0.5 1:-0.173791 2:-0.00749899 3:0.258023 4:0.285236 5:-0.579274 6:-0.15596 7:-0.65732 8:-0.434176 9:-0.0265323 10:-0.115384 11:-0.289293 12:0.0503048 13:-0.0274929 14:-0.0536236 15:-0.195617 16:0.181535 17:-0.462028 18:-0.0795664 19:0.450066 20:0.295174 21:-0.290561 22:0.122515 23:-0.303114 24:0.484564 25:-0.0377708 
-0.5 1:-0.15219 2:-0.104605 3:0.0507196 4:-0.0237966 5:-0.165948 6:-0.148399 7:-0.522037 8:-0.244782 9:0.171819 10:0.0817918 11:-0.343235 12:-0.144454 13:-0.289906 14:-0.28777 15:-0.0477941 16:0.0301539 17:-0.26308 18:0.0355706 19:0.0339642 20:0.0475652 21:0.207371 22:-0.290104 23:-0.665491 24:-0.0980002 25:0.228572 
-0.5 1:-0.143359 2:-0.452912 3:0.194499 4:0.197453 5:-0.276388 6:0.0265367 7:0.434828 8:-0.431096 9:0.0456275 10:-0.1678 11:-0.670906 12:-0.0559671 13:0.144717 14:-0.455464 15:0.235208 16:0.166652 17:-0.373327 18:-0.0424308 19:0.117789 20:-0.680723 21:0.14847 22:0.0389613 23:-0.6077 24:-0.0266418 25:0.0940605 
-0.5 1:0.535524 2:-0.204383 3:0.000493468 4:-0.457422 5:0.00479756 6:-0.0934001 7:-0.221832 8:-0.0988095 9:-0.137273 10:0.593536 11:0.0178262 12:0.78556 13:-0.686692 14:-0.173888 15:0.0756231 16:0.37568 17:-0.126535 18:0.108629 19:-0.518998 20:-0.907971 21:-0.208095 22:-0.071788 23:-0.78339 24:-0.415799 25:-0.113546 
-0.5 1:-0.209119 2:-0.535748 3:0.207265 4:-0.0276933 5:-0.00368246 6:0.0495337 7:0.33375 8:-0.461083 9:0.229309 10:0.371461 11:-0.442824 12:-0.381878 13:0.0981519 14:-0.438324 15:0.139901 16:0.154722 17:-0.60439 18:-0.0776755 19:0.00396282 20:-0.214812 21:-0.0395302 22:0.163212 23:-0.431413 24:0.135065 25:0.167397 
-0.5 1:0.276156 2:-0.612948 3:-0.0848057 4:-0.501249 5:-0.264072 6:-0.147318 7:-0.0972871 8:-0.517359 9:-0.385009 10:0.0289788 11:-0.45872 12:0.25237 13:-0.409626 14:-0.657221 15:-0.131449 16:-0.0315416 17:-0.0495101 18:-0.0461458 19:-0.709289 20:-0.113484 21:-0.51171 22:-0.542575 23:-0.943761 24:-0.702546 25:0.458136 
-0.5 1:-0.0995491 2:-0.180697 3:0.140446 4:0.151293 5:-0.564022 6:-0.0207674 7:0.217898 8:-0.469251 9:-0.192667 10:0.367974 11:-0.0262929 12:-0.202332 13:-0.230799 14:-0.246004 15:-0.166935 16:0.295056 17:-0.71062 18:0.104057 19:-0.0689207 20:-0.0556354 21:-0.263229 22:0.253988 23:-0.321392 24:0.406058 25:-0.24687 
-0.5 1:0.781536 2:-0.035136 3:-0.369061 4:-0.217775 5:-0.454618 6:-0.338814 7:-0.800727 8:-0.842704 9:-0.275474 10:0.979335 11:-0.647656 12:0.100769 13:-0.382522 14:-0.409556 15:-0.361194 16:-0.583908 17:0.0232489 18:-0.559794 19:-0.0841152 20:0.0307808 21:-0.683037 22:-0.446455 23:0.00216785 24:0.233567 25:-0.486956 
-0.5 1:0.0927303 2:-0.202425 3:0.304333 4:-0.0653994 5:-0.165933 6:-0.158582 7:-0.482319 8:-0.180527 9:-0.319156 10:0.00418617 11:-0.512353 12:0.437086 13:-0.191974 14:-0.352766 15:0.0466708 16:0.399521 17:-0.228236 18:0.336116 19:-0.186859 20:-0.406116 21:0.346196 22:-0.232043 23:-0.659265 24:-0.241872 25:-0.196437 
-0.5 1:-0.239633 2:-0.355345 3:0.431482 4:0.311027 5:-0.299249 6:-0.0179162 7:-0.348762 8:-0.375937 9:-0.178671 10:-0.0256788 11:-0.466308 12:-0.0494596 13:-0.271761 14:-0.28481 15:0.124788 16:0.407998 17:-0.36859 18:0.125031 19:0.257821 20:-0.495644 21:0.35005 22:0.0229213 23:-0.418317 24:0.0336436 25:-0.0734857 
-0.5 1:0.293635 2:0.0949344 3:0.462818 4:0.433511 5:-0.709995 6:-0.548566 7:-0.452643 8:-0.610835 9:0.284357 10:0.508427 11:-0.27633 12:0.249795 13:-0.58642 14:-0.193216 15:0.12921 16:-0.127799 17:-0.28304 18:-0.273864 19:0.400697 20:-0.787362 21:-0.472063 22:-0.786985 23:-0.299909 24:0.940436 25:-0.22876 
-0.15074318433184639 1:-0.131725 2:-0.0525618 3:-0.133036 4:0.0611351 5:-0.380862 6:0.0178209 7:-0.119585 8:-0.529794 9:0.489437 10:0.211171 11:-0.476385 12:-0.226191 13:0.171606 14:-0.20917 15:-0.318165 16:-0.112672 17:-0.69008 18:0.3453 19:0.301801 20:-0.00937479 21:-0.43228 22:-0.00881776 23:-0.264382 24:0.884391 25:0.0611194 
-0.5 1:0.290538 2:-0.333329 3:-0.00951155 4:-0.163567 5:0.277644 6:0.0672171 7:-0.166366 8:-0.739821 9:-0.0450846 10:0.817245 11:-0.40843 12:0.273587 13:-0.614023 14:-0.443938 15:-0.257791 16:0.279412 17:-0.260221 18:-0.272783 19:0.107355 20:0.171548 21:0.140617 22:-0.260517 23:-0.654204 24:-0.484398 25:-0.11894 
-0.5 1:0.046806 2:-0.289873 3:-0.00679788 4:0.0777451 5:-0.269365 6:-0.177283 7:-0.68228 8:-0.446772 9:0.193927 10:0.490548 11:0.119724 12:-0.114566 13:-0.27706 14:-0.179832 15:0.0249703 16:0.00873439 17:-0.382232 18:0.150567 19:0.424273 20:-0.146381 21:-0.369583 22:-0.356287 23:-0.299321 24:0.441533 25:-0.0202385 
-0.5 1:-0.00845374 2:-0.604431 3:0.154071 4:-0.247544 5:0.295047 6:0.232236 7:0.649094 8:-0.431783 9:0.163125 10:0.233884 11:-0.672298 12:-0.10777 13:-0.292979 14:-0.393564 15:0.0165368 16:0.0112133 17:-0.699853 18:-0.0359706 19:-0.464869 20:-0.869991 21:0.141502 22:0.534324 23:-0.622051 24:-0.270526 25:0.0265445 
-0.5 1:-0.465565 2:-0.416052 3:0.0872267 4:-0.20604 5:0.159178 6:0.361658 7:0.139576 8:-0.353518 9:-0.410808 10:-0.189725 11:-0.236742 12:-0.363762 13:0.0125979 14:-0.735944 15:-0.0203792 16:0.571199 17:0.16393 18:0.568318 19:-0.346263 20:-0.626405 21:0.439231 22:0.179583 23:-0.787639 24:-0.0872865 25:-0.329534 
-0.3934907896222114 1:0.0193501 2:-0.339479 3:0.266986 4:-0.111397 5:-0.358 6:-0.140328 7:-0.211809 8:-0.550899 9:-0.32221 10:0.0272967 11:-0.148586 12:0.312857 13:-0.0710587 14:-0.172477 15:0.0955382 16:0.551398 17:-0.375337 18:0.768039 19:-0.172503 20:-0.132591 21:-0.0772748 22:-0.577793 23:-0.462835 24:-0.130148 25:0.367029 
-0.27857325108263031 1:0.398415 2:-0.80581 3:0.142712 4:-0.35135 5:-0.520825 6:-0.193058 7:0.134626 8:-0.622078 9:-0.516267 10:0.0878306 11:-0.331946 12:0.95244 13:-0.270674 14:-0.585275 15:0.490993 16:0.12013 17:0.151329 18:0.0154559 19:-0.523864 20:-0.0689181 21:-0.8885 22:-0.807397 23:-0.936466 24:-0.144914 25:0.987629 
-0.5 1:0.188421 2:-0.337971 3:0.0226589 4:-0.209638 5:-0.275448 6:-0.0660651 7:-0.265849 8:-0.486167 9:-0.229979 10:0.246658 11:-0.216868 12:0.203157 13:-0.348253 14:-0.278824 15:-0.180335 16:-0.132016 17:0.00726684 18:-0.143476 19:-0.11487 20:-0.228407 21:-0.397584 22:-0.16776 23:-0.299526 24:0.127659 25:0.00678525 
-0.19998546364966108 1:-0.222681 2:-0.482819 3:0.0856806 4:-0.125562 5:-0.234894 6:0.218054 7:0.0307723 8:-0.653194 9:0.0947858 10:0.325203 11:-0.286278 12:-0.2246 13:0.213846 14:-0.523891 15:0.00541053 16:-0.0261165 17:-0.512371 18:0.193364 19:-0.106045 20:-0.279421 21:-0.175719 22:-0.218481 23:-0.777629 24:0.27756 25:0.138945 
-0.5 1:0.277092 2:-0.210678 3:-0.0593194 4:-0.227123 5:0.0520856 6:0.368485 7:-0.292977 8:-0.771708 9:0.131618 10:0.285882 11:-0.898733 12:-0.21614 13:-0.287331 14:-0.214293 15:-0.27318 16:-0.252851 17:-0.402889 18:-0.248337 19:0.102835 20:0.0742608 21:-0.365681 22:0.0280883 23:-0.573173 24:0.293219 25:-0.284729 
-0.5 1:-0.171546 2:0.344321 3:0.159399 4:0.0104404 5:-0.284363 6:0.0325782 7:-0.559971 8:-0.427652 9:-0.291709 10:-0.049343 11:-0.32331 12:-0.489872 13:-0.351313 14:0.344759 15:-0.359335 16:-0.197025 17:-0.714458 18:-0.354293 19:-0.13315 20:-0.021965 21:-0.353481 22:-0.206714 23:0.171635 24:0.534105 25:-0.0258321 
-0.5 1:-0.0536779 2:-0.131904 3:0.249825 4:-0.00166215 5:-0.514178 6:-0.223927 7:-0.419905 8:-0.11584 9:-0.41372 10:0.0229884 11:-0.62663 12:0.763747 13:-0.644388 14:-0.0225229 15:0.257028 16:0.429382 17:0.602477 18:-0.350494 19:0.206689 20:-0.278995 21:-0.126859 22:0.0256125 23:-0.619312 24:-0.391218 25:0.585172 
-0.5 1:-0.316851 2:0.0199788 3:-0.203435 4:-0.342106 5:-0.193339 6:0.0450495 7:0.0568492 8:0.428975 9:-0.0928516 10:-0.481464 11:-0.577281 12:-0.740757 13:0.867923 14:0.126586 15:-0.0711747 16:-0.385949 17:-0.0404276 18:-0.350535 19:-0.235406 20:-0.147697 21:-0.588562 22:0.297275 23:-0.744763 24:-0.0125174 25:0.0086897 
-0.5 1:0.516677 2:0.0933532 3:0.0676508 4:-0.261475 5:-0.436062 6:-0.192726 7:-0.55424 8:-0.139587 9:-0.0391687 10:0.531562 11:-0.463105 12:0.794846 13:-0.650178 14:-0.392509 15:-0.062226 16:0.440657 17:0.0988917 18:0.158148 19:-0.118292 20:-0.90195 21:-0.231767 22:-0.292937 23:-0.764825 24:-0.159073 25:-0.191055 
-0.30531297060694085 1:0.0608897 2:-0.673061 3:0.0869145 4:-0.250435 5:-0.196274 6:0.200156 7:1 8:-0.0111592 9:-0.395198 10:0.0083714 11:-0.608297 12:0.490415 13:-0.135079 14:-0.796496 15:-0.170268 16:0.177564 17:-0.180959 18:0.126942 19:0.248535 20:-0.627637 21:-0.414662 22:0.288866 23:-0.772791 24:-0.318868 25:0.14361 
-0.5 1:-0.470611 2:-0.373936 3:0.280063 4:0.367106 5:-0.367936 6:-0.134333 7:-0.110457 8:-0.629551 9:-0.261042 10:-0.558808 11:-0.320545 12:-0.54828 13:0.169311 14:-0.54287 15:0.201894 16:-0.30332 17:-0.76314 18:0.204103 19:0.257343 20:-0.20776 21:-0.0831977 22:-0.258031 23:0.0746114 24:0.235375 25:0.0360492 
-0.28866451846406505 1:-0.241979 2:-0.00234073 3:0.234181 4:-0.013657 5:-1 6:-0.424213 7:-0.142669 8:0.238424 9:-0.256088 10:-0.591895 11:-0.384123 12:-0.448856 13:0.0558974 14:0.00815123 15:-0.15614 16:0.329596 17:0.48068 18:0.00503081 19:-0.077838 20:-0.377755 21:-0.628682 22:-0.547908 23:-0.501122 24:0.198322 25:0.0374159 
-0.5 1:0.156442 2:0.373989 3:-0.238434 4:-0.598791 5:0.893178 6:0.375053 7:-0.836788 8:-0.813063 9:-0.497893 10:-0.439768 11:-0.659043 12:-0.660031 13:-0.768176 14:-0.168919 15:-0.353243 16:-0.55902 17:-0.712061 18:-0.259518 19:-0.720257 20:-0.253764 21:-0.655261 22:-0.648899 23:-0.399505 24:-0.592296 25:-0.480409 
-0.5 1:0.154709 2:0.0899304 3:0.282938 4:0.199833 5:-0.53773 6:-0.128418 7:-0.691444 8:-0.665241 9:0.0829157 10:0.291744 11:-0.151237 12:0.530929 13:-0.493743 14:-0.2636 15:-0.270023 16:0.389825 17:-0.417832 18:-0.0520447 19:0.211131 20:-0.542531 21:-0.543756 22:0.211869 23:0.583942 24:0.102198 25:-0.302141 
-0.5 1:-0.253159 2:-0.386846 3:0.0156718 4:-0.155986 5:0.299048 6:0.444515 7:-0.354268 8:-0.513243 9:0.150332 10:0.446065 11:-0.206915 12:-0.410494 13:-0.0805363 14:-0.126245 15:-0.210461 16:0.184837 17:-0.533396 18:-0.403869 19:-0.125979 20:-0.559729 21:0.624874 22:0.659994 23:0.206303 24:0.0189045 25:-0.0271613 
-0.5 1:-0.102881 2:-0.0377526 3:0.301523 4:-0.207663 5:-0.595292 6:0.155337 7:0.00200352 8:0.195929 9:-0.937912 10:0.194884 11:-0.478546 12:-0.0226092 13:-0.269759 14:0.156748 15:-0.369533 16:0.302414 17:-0.899608 18:0.0653864 19:-0.162225 20:0.614788 21:-0.538775 22:-0.0614226 23:-0.331985 24:-0.166918 25:0.0092652 
-0.5 1:0.0242116 2:-0.140021 3:0.023333 4:-0.0773322 5:-0.120435 6:0.0917494 7:-0.0649725 8:-0.266168 9:-0.290914 10:0.174547 11:-0.199923 12:-0.00973721 13:0.0999828 14:-0.232075 15:-0.00219512 16:-0.00992515 17:-0.51231 18:0.120613 19:-0.00847091 20:-0.28964 21:-0.146719 22:-0.144155 23:-0.445192 24:-0.0332415 25:0.0333244 
