svm_type c_svc
kernel_type rbf
gamma 0.125
nr_class 2
total_sv 188
rho 0.49276773295767501
label 1 0
nr_sv 93 95
SV
2 1:-0.324958 2:-0.403266 3:-0.14912 4:-0.474329 5:0.185456 6:-0.752195 7:-0.460723 8:-0.125514 9:-0.503016 10:-0.321087 11:-0.0942737 12:0.193097 13:-0.0768753 14:-0.162899 15:-0.4518 16:-0.528356 17:-0.566232 18:-0.659536 19:-0.428588 20:-0.322149 
2 1:-0.150025 2:0.0594509 3:-0.168867 4:-0.38655 5:0.308629 6:-0.414037 7:-0.321161 8:-0.0137161 9:-0.496958 10:-0.306905 11:0.174776 12:-0.270042 13:-0.123552 14:-0.344751 15:0.357563 16:0.285729 17:-0.448716 18:-0.778626 19:-0.481577 20:-0.202653 
2 1:0.0583659 2:-0.443942 3:-0.246037 4:-0.112903 5:-0.00142282 6:-0.143018 7:-0.244285 8:-0.213007 9:-0.589128 10:-0.11821 11:0.497461 12:-0.470025 13:0.12726 14:0.463225 15:-0.0386266 16:-0.161818 17:-0.401191 18:-0.47955 19:0.216284 20:-0.0327042 
2 1:-0.0656047 2:-0.752264 3:-0.35603 4:-0.29889 5:-0.136074 6:0.0216383 7:-0.47211 8:-0.262752 9:-0.567321 10:-0.0468323 11:0.155449 12:-0.526247 13:0.0258311 14:0.638073 15:-0.222034 16:-0.381404 17:-0.0425861 18:-0.0776866 19:0.256787 20:0.000340355 
2 1:-0.2665 2:-0.615284 3:-0.468364 4:-0.699872 5:-0.0757839 6:-0.622207 7:-0.393083 8:-0.202053 9:-0.171097 10:-0.0722557 11:0.429383 12:-0.573713 13:0.092543 14:0.370001 15:0.243478 16:-0.09219 17:-0.272614 18:-0.52444 19:-0.0799469 20:0.150608 
2 1:-0.582926 2:-0.433319 3:-0.588413 4:-0.203947 5:-0.128024 6:-0.232159 7:-0.561349 8:-0.53073 9:0.0654068 10:0.189526 11:0.2479 12:-0.696851 13:0.36269 14:0.0111166 15:-0.0634211 16:-0.263608 17:0.151604 18:-0.590525 19:-0.33703 20:0.0473193 
1.6819085825400286 1:-0.418906 2:-0.148847 3:-0.452931 4:-0.0905195 5:0.201626 6:0.150075 7:-0.62539 8:-0.647751 9:-0.348711 10:-0.627398 11:-0.601344 12:-0.018785 13:-0.838883 14:-0.0631836 15:-0.257955 16:-0.896203 17:0.0296155 18:-0.634872 19:0.321216 20:-0.746143 
0.7357817801870592 1:-0.125106 2:-0.251344 3:-0.210698 4:0.0526547 5:0.27704 6:-0.682187 7:0.780841 8:0.07326 9:-0.555757 10:0.166495 11:0.0544557 12:-0.487772 13:-0.353467 14:-0.0605673 15:-0.630947 16:-0.0461537 17:-0.155042 18:-0.775019 19:-0.524758 20:0.00834521 
2 1:-0.172211 2:-0.22375 3:-0.622899 4:-0.142127 5:0.299377 6:-0.735142 7:-0.754622 8:-0.654838 9:-0.356934 10:-0.4617 11:-0.247025 12:-0.434068 13:0.139226 14:0.0160781 15:0.0333636 16:-0.450683 17:-0.801815 18:-0.0749618 19:0.059535 20:-0.499327 
2 1:-0.673111 2:-0.342283 3:-0.739394 4:0.079257 5:-0.174234 6:-0.70844 7:-0.80551 8:-0.693432 9:0.382928 10:0.332474 11:0.507672 12:-0.753622 13:0.454997 14:-0.0621755 15:-0.439011 16:0.184496 17:0.273287 18:-0.442468 19:-0.205481 20:0.262428 
2 1:-0.0758532 2:-0.694107 3:-0.180769 4:-0.147955 5:0.813748 6:-0.272 7:-0.333727 8:0.30101 9:-0.38209 10:-0.187798 11:0.447521 12:-0.266418 13:0.0809943 14:-0.482618 15:-0.361646 16:-0.90078 17:-0.166862 18:-0.628824 19:-0.626562 20:0.0797021 
2 1:-0.0740258 2:-0.423896 3:-0.332821 4:-0.125476 5:0.258273 6:-0.134832 7:-0.36413 8:-0.127842 9:-0.120737 10:-0.193594 11:0.291335 12:-0.537397 13:-0.348272 14:0.253465 15:0.00241214 16:-0.0776642 17:-0.407679 18:-0.00348092 19:0.16694 20:0.274895 
2 1:-1 2:0.545154 3:-0.522492 4:-1 5:-1 6:-0.935667 7:-0.878592 8:-0.827552 9:-0.465198 10:-0.753827 11:-0.804782 12:0.213928 13:-1 14:-1 15:-0.0247284 16:-0.40229 17:-0.378627 18:-0.969266 19:-0.823828 20:-0.414901 
1.8512813528379402 1:-0.833222 2:-0.448236 3:-1 4:-0.0520748 5:-0.439074 6:-0.762326 7:-0.942021 8:-0.64093 9:1 10:0.387156 11:0.920369 12:-0.947251 13:1 14:0.100995 15:0.182499 16:0.388605 17:-0.400622 18:-0.627058 19:-0.22216 20:0.301162 
2 1:-0.0482029 2:-0.255788 3:-0.104244 4:-0.256778 5:0.182534 6:-0.360937 7:-0.219783 8:-0.193707 9:-0.251212 10:-0.283432 11:0.253154 12:-0.498082 13:-0.247874 14:0.170223 15:0.0687246 16:-0.129439 17:-0.213897 18:-0.0142463 19:0.00266904 20:-0.0723429 
2 1:-0.509381 2:-0.282384 3:-0.69512 4:0.0324293 5:-0.451857 6:-0.234396 7:-0.594997 8:-0.829842 9:0.111838 10:-0.133677 11:-0.206164 12:-0.884896 13:-0.0708923 14:0.467015 15:-0.0858962 16:-0.0408702 17:-0.474905 18:0.47003 19:0.312501 20:-0.197904 
2 1:-0.0781497 2:-0.253238 3:-0.116337 4:-0.237435 5:0.171541 6:-0.389343 7:-0.237571 8:-0.184519 9:-0.230666 10:-0.288589 11:0.275843 12:-0.500034 13:-0.222607 14:0.140003 15:0.11535 16:-0.116267 17:-0.187647 18:0.00936002 19:-0.0110452 20:-0.0779413 
1.1445118426242926 1:0.108331 2:0.08886 3:-0.36925 4:-0.126487 5:-0.261488 6:-0.731486 7:0.15862 8:-0.146742 9:-0.822777 10:-0.0128475 11:-0.013756 12:-0.381994 13:0.0684556 14:-0.142206 15:-0.886775 16:0.207974 17:0.00548729 18:-0.790742 19:-0.396914 20:-0.174826 
2 1:-0.622819 2:-0.293305 3:-0.286043 4:-0.714981 5:-0.110105 6:-0.506782 7:-0.29954 8:0.192037 9:-0.685168 10:-0.53499 11:-0.250943 12:-0.229885 13:0.051981 14:-0.222944 15:-0.294425 16:-0.685346 17:-0.508561 18:-0.678246 19:-0.417289 20:-0.396706 
2 1:0.349235 2:-0.624796 3:-0.445015 4:-0.0690158 5:0.241825 6:-0.197798 7:-0.057307 8:-0.400344 9:-0.677281 10:-0.466769 11:-0.25972 12:-0.566145 13:-0.00483034 14:0.171004 15:-0.181438 16:-0.742369 17:-0.621272 18:0.355712 19:0.0557882 20:-0.277102 
2 1:-0.733006 2:-0.374806 3:-0.432802 4:0.234526 5:0.45159 6:-0.57894 7:-0.527432 8:-0.0617753 9:-0.046547 10:0.312099 11:-0.0690896 12:-0.31867 13:-0.115429 14:-0.394017 15:-0.16444 16:-0.520762 17:0.441043 18:-0.56496 19:-0.343896 20:0.530171 
2 1:-0.503657 2:-0.000305305 3:-0.0233457 4:-0.0506336 5:0.198985 6:0.207662 7:-0.352336 8:-0.179014 9:-0.707558 10:-0.149478 11:-0.0790287 12:0.0981105 13:0.520754 14:-0.510037 15:-0.544488 16:-0.180501 17:0.497997 18:-0.696544 19:-0.619653 20:-0.159436 
2 1:-0.0483485 2:-0.0726826 3:-0.344344 4:-0.165668 5:0.157909 6:0.0341643 7:-0.264345 8:0.109999 9:-0.574978 10:-0.271305 11:-0.086696 12:-0.512377 13:0.0169674 14:-0.0253779 15:0.0863851 16:0.0150602 17:-0.15957 18:-0.568074 19:0.151591 20:-0.122222 
2 1:-0.617455 2:-0.41236 3:-0.734279 4:-0.0627874 5:-0.270971 6:-0.626456 7:-0.736776 8:-0.559341 9:0.478939 10:0.462454 11:0.352202 12:-0.578713 13:0.196311 14:0.600957 15:-0.0927449 16:0.0460156 17:-0.23185 18:-0.356302 19:0.110244 20:0.376725 
2 1:-0.10098 2:-0.473289 3:-0.44688 4:-0.23106 5:-0.0790542 6:-0.152963 7:-0.445428 8:-0.633326 9:-0.300151 10:0.0449023 11:0.1617 12:-0.467311 13:-0.267946 14:0.539503 15:-0.410952 16:0.268284 17:0.188147 18:-0.431546 19:0.469598 20:0.144434 
2 1:0.348406 2:-0.515286 3:-0.167593 4:-0.331933 5:0.14662 6:-0.149966 7:-0.672019 8:-0.487227 9:-0.430444 10:-0.493943 11:0.278559 12:-0.422314 13:-0.310743 14:-0.0996437 15:-0.41626 16:-0.178544 17:-0.32108 18:0.11569 19:0.490968 20:-0.111186 
0.11212068173542383 1:0.38119 2:0.240785 3:-0.233151 4:-0.773734 5:-0.0836688 6:-0.324386 7:-0.489258 8:-0.123877 9:-0.591481 10:-0.694969 11:-0.5179 12:-0.41098 13:-0.501501 14:-0.786148 15:-0.774231 16:-0.349401 17:-0.838647 18:-0.897694 19:-0.590795 20:-0.557671 
2 1:-0.190997 2:-0.353357 3:-0.501054 4:-0.486684 5:0.438725 6:-0.864683 7:-0.594639 8:-0.163116 9:-0.511139 10:-0.458296 11:-0.225036 12:-0.733973 13:-0.0931963 14:0.125793 15:0.049498 16:-0.419674 17:-0.65563 18:-0.0629486 19:0.0543956 20:-0.20157 
2 1:0.00768211 2:-0.506612 3:-0.200712 4:-0.0640338 5:0.242146 6:-0.210272 7:0.172164 8:0.644053 9:-0.713748 10:0.046075 11:0.46964 12:0.0469799 13:0.0472702 14:0.0420732 15:-0.738257 16:-0.14733 17:-0.535755 18:-0.734566 19:-0.183291 20:-0.031045 
2 1:-0.254045 2:-0.151096 3:-0.526768 4:-0.0499209 5:0.084146 6:-0.130999 7:-0.333264 8:-0.343775 9:-0.215533 10:-0.18365 11:0.526291 12:-0.89942 13:-0.133086 14:0.00846909 15:-0.229464 16:0.401079 17:0.0114656 18:-0.26758 19:0.364973 20:0.155149 
2 1:0.00325622 2:-0.535575 3:-0.190657 4:-0.0653576 5:0.269404 6:-0.225495 7:0.182318 8:0.681447 9:-0.695283 10:0.0744861 11:0.477772 12:0.0580606 13:0.0354303 14:0.0464194 15:-0.762305 16:-0.169888 17:-0.50593 18:-0.726535 19:-0.181393 20:-0.0187746 
2 1:-0.0354402 2:-0.269277 3:-0.540543 4:-0.326649 5:0.723618 6:-0.378002 7:-0.278748 8:-0.0139611 9:-0.364075 10:-0.383657 11:-0.181964 12:-0.559891 13:-0.407491 14:0.257086 15:-0.257142 16:-0.0682753 17:-0.865682 18:-0.236216 19:0.349649 20:-0.450788 
2 1:-0.248082 2:-0.205021 3:-0.366783 4:-0.312956 5:0.082824 6:-0.930052 7:-0.506061 8:-0.303396 9:-0.581317 10:-0.445494 11:-0.14295 12:-0.184753 13:-0.295051 14:0.217729 15:-0.434299 16:-0.359931 17:-0.48149 18:-0.850369 19:-0.31029 20:-0.231457 
2 1:-0.363108 2:-0.463092 3:-0.352219 4:-0.210449 5:0.0410803 6:-0.563376 7:-0.603554 8:-0.0104689 9:0.265281 10:-0.0133447 11:0.352045 12:-0.288958 13:0.136952 14:0.26503 15:0.22644 16:-0.144586 17:0.219509 18:-0.190661 19:0.134564 20:-0.048738 
2 1:-0.488478 2:-0.458002 3:-0.484415 4:0.127289 5:-0.034348 6:-0.609668 7:-0.251666 8:-0.389071 9:0.0949177 10:0.142557 11:0.40024 12:-0.672647 13:0.331462 14:0.120785 15:-0.236896 16:0.0975122 17:0.148539 18:-0.443728 19:0.00327191 20:0.181748 
2 1:-0.234939 2:0.130929 3:-0.465275 4:0.141725 5:-0.0477099 6:-0.450812 7:-0.0146975 8:-0.255661 9:-0.508521 10:-0.114911 11:-0.166107 12:-0.566804 13:0.352813 14:-0.0365226 15:-0.0809294 16:0.173885 17:0.00530623 18:-0.715266 19:-0.186776 20:0.218094 
2 1:-0.0874414 2:-0.15042 3:-0.336977 4:-0.221912 5:-0.0283299 6:-0.565121 7:-0.39903 8:-0.374488 9:0.0134191 10:-0.509096 11:-0.462667 12:-0.285681 13:-0.434502 14:-0.0259245 15:0.0268748 16:-0.20911 17:-0.600631 18:-0.512948 19:0.200982 20:-0.429389 
0.677669388185558 1:-0.813231 2:-0.31917 3:-0.811843 4:0.277537 5:-0.432061 6:-0.350526 7:-0.827282 8:-0.810428 9:0.255564 10:0.425493 11:0.53403 12:-0.839434 13:0.240806 14:0.306061 15:-0.233395 16:0.154423 17:-0.160709 18:-0.582622 19:-0.346944 20:0.25537 
2 1:-0.156838 2:0.0367249 3:0.0587034 4:-0.172071 5:0.269618 6:-0.324853 7:0.067024 8:0.705105 9:-0.405019 10:-0.342004 11:0.497576 12:-0.336629 13:0.0110436 14:-0.0357253 15:-0.306927 16:-0.0408361 17:-0.248958 18:-0.763545 19:-0.29776 20:-0.319773 
2 1:-0.475714 2:-0.381386 3:-0.611063 4:0.0548957 5:-0.0899479 6:-0.572399 7:-0.730748 8:-0.365862 9:0.388061 10:0.290856 11:0.401252 12:-0.525624 13:0.415251 14:0.0020724 15:-0.2811 16:0.0110552 17:-0.22975 18:-0.675261 19:-0.303466 20:0.386062 
0.020353747282648656 1:-0.410052 2:-0.245451 3:-0.643187 4:-0.128648 5:-0.645394 6:-0.453605 7:-0.805296 8:-0.761942 9:-0.026082 10:-0.0279089 11:-0.140888 12:-0.806419 13:-0.298979 14:0.473083 15:-0.10897 16:-0.160759 17:-0.39106 18:-0.0101653 19:0.307901 20:-0.129712 
1.8364283989837615 1:-0.0449509 2:-0.593044 3:-0.427329 4:-0.291363 5:-0.280924 6:-0.259572 7:-0.436998 8:-0.262505 9:-0.416945 10:-0.182284 11:0.0491841 12:-0.61751 13:-0.108058 14:0.681263 15:-0.122051 16:-0.422872 17:-0.322842 18:-0.0335888 19:0.401575 20:-0.08396 
2 1:0.0126797 2:-0.030806 3:-0.229978 4:-0.0578295 5:0.149302 6:-0.383898 7:-0.303971 8:-0.0534775 9:0.729542 10:-0.255376 11:-0.210712 12:-0.54912 13:0.0514658 14:0.354763 15:-0.311912 16:-0.143656 17:-0.397244 18:-0.361196 19:0.788928 20:-0.113663 
2 1:0.75486 2:-0.548851 3:-0.459694 4:-0.884083 5:-0.285271 6:-0.669708 7:-0.923046 8:-0.351226 9:-0.606463 10:-0.870337 11:-0.853517 12:-0.729747 13:-0.518841 14:-0.609301 15:-0.243796 16:-1 17:-0.881355 18:-0.537308 19:0.0982051 20:-0.829411 
2 1:-0.199578 2:0.163657 3:-0.101306 4:-0.548733 5:0.37739 6:-0.271014 7:-0.658864 8:-0.0934592 9:0.096272 10:-0.443609 11:-0.446049 12:0.333791 13:-0.582601 14:0.0742778 15:-0.505216 16:0.132259 17:0.439059 18:-0.671819 19:-0.190889 20:0.0654584 
2 1:0.170387 2:-0.110707 3:-0.444706 4:-0.336889 5:-0.301456 6:-0.18091 7:0.102342 8:-0.348858 9:-0.360397 10:-0.395042 11:0.141807 12:-0.586344 13:-0.534387 14:-0.166333 15:-0.0189106 16:-0.0302172 17:0.251356 18:0.309203 19:-0.0432245 20:0.120018 
2 1:0.0537766 2:-0.723798 3:-0.204848 4:-0.217235 5:0.151903 6:-0.407625 7:0.164936 8:0.603457 9:-0.686019 10:-0.320665 11:0.620149 12:-0.025837 13:0.44551 14:-0.112777 15:-0.687804 16:-0.395724 17:-0.558429 18:-0.335824 19:-0.229581 20:-0.272933 
2 1:-0.222125 2:-0.494509 3:-0.0670771 4:-0.335734 5:0.218348 6:-0.595252 7:-0.340694 8:-0.214429 9:-0.473929 10:-0.256702 11:-0.0782132 12:0.173645 13:0.148486 14:0.340807 15:0.00353593 16:-0.387236 17:-0.212795 18:-0.774527 19:-0.154429 20:-0.215436 
2 1:-0.32755 2:-0.194067 3:-0.532747 4:-0.055904 5:0.235281 6:-0.285687 7:-0.598884 8:-0.405419 9:0.217973 10:-0.0784532 11:0.0789055 12:-0.448368 13:0.0403345 14:-0.0348904 15:-0.253399 16:-0.0567213 17:0.611784 18:-0.466923 19:0.055107 20:-0.062909 
2 1:0.147212 2:0.247651 3:-0.565827 4:-0.221619 5:0.222301 6:0.296223 7:-0.504423 8:-0.0509862 9:-0.467649 10:-0.685629 11:-0.45778 12:-0.674127 13:-0.240864 14:-0.803708 15:-0.0532336 16:-0.0217359 17:-0.414734 18:-0.433846 19:-0.0860843 20:-0.413252 
2 1:0.0814706 2:-0.613552 3:-0.224314 4:-0.178375 5:-0.189448 6:-0.574918 7:0.0510694 8:0.0524502 9:-0.76624 10:-0.0799858 11:0.0530771 12:-0.176815 13:0.249814 14:0.45363 15:0.202394 16:0.0560451 17:-0.457193 18:-0.69834 19:0.215004 20:0.494287 
2 1:-0.370052 2:-0.408373 3:-0.383642 4:-0.710604 5:-0.609201 6:-0.701875 7:-0.452543 8:-0.428744 9:-0.834387 10:-0.726804 11:-0.451085 12:-0.126124 13:-0.403657 14:-0.618768 15:-0.553813 16:-0.784749 17:-1 18:-0.62486 19:-0.580723 20:-0.625615 
2 1:-0.0876875 2:-0.575702 3:-0.673319 4:0.216859 5:0.0166512 6:0.367397 7:-0.20665 8:-0.137582 9:-0.208504 10:0.029876 11:0.0998489 12:-0.32534 13:-0.0989787 14:0.773667 15:-0.137959 16:-0.213556 17:0.106728 18:-0.247708 19:0.582564 20:-0.121948 
2 1:-0.105527 2:-0.154428 3:-0.347282 4:-0.499826 5:-0.377795 6:-0.516708 7:-0.293297 8:-0.571082 9:0.0911524 10:-0.525135 11:-0.621794 12:-0.786963 13:-0.575069 14:0.222791 15:0.916697 16:-0.477975 17:0.645729 18:-0.457196 19:0.920226 20:-0.356138 
2 1:0.000378867 2:-0.25576 3:-0.519912 4:0.241806 5:-0.00553415 6:-0.340909 7:-0.408291 8:-0.415009 9:-0.153021 10:-0.416202 11:-0.424485 12:-0.55556 13:-0.114817 14:-0.0173449 15:0.114318 16:-0.202859 17:-0.583631 18:-0.590254 19:0.226145 20:-0.16993 
2 1:-0.0589431 2:-0.350126 3:-0.0250121 4:0.15606 5:0.371967 6:-0.698653 7:-0.316454 8:-0.536024 9:-0.308892 10:-0.248627 11:-0.0178407 12:-0.424817 13:-0.152232 14:0.444709 15:-0.0855769 16:-0.292123 17:0.132355 18:-0.347096 19:0.418764 20:-0.0799836 
1.596464415849935 1:-0.281768 2:-0.129754 3:-0.124154 4:-0.848121 5:-0.218777 6:0.820369 7:-0.32627 8:-0.388063 9:-0.144081 10:-0.58451 11:-0.289981 12:-0.443214 13:-0.641449 14:-0.33685 15:0.718163 16:-0.392684 17:-0.257701 18:-0.467486 19:-0.513176 20:-0.223551 
2 1:-0.289974 2:0.226457 3:-0.581809 4:-0.215221 5:0.0455425 6:-0.388302 7:-0.68839 8:-0.567784 9:-0.68366 10:-0.237373 11:-0.304203 12:-0.403187 13:-0.508919 14:0.524838 15:-0.169829 16:-0.325932 17:-0.245931 18:-0.145758 19:0.261459 20:-0.356201 
2 1:-0.419204 2:-0.264406 3:-0.309558 4:-0.17591 5:0.0695007 6:-0.470907 7:-0.224944 8:0.0335256 9:-0.335234 10:-0.00745498 11:0.231446 12:-0.136065 13:0.236725 14:-0.135223 15:-0.269584 16:-0.231977 17:-0.349939 18:-0.731257 19:-0.129773 20:0.151334 
2 1:-0.321291 2:0.292054 3:-0.456104 4:0.234357 5:0.102134 6:-0.48146 7:-0.214737 8:9.25012e-05 9:-0.429712 10:-0.0258636 11:0.0897194 12:-0.173408 13:-0.0175521 14:0.0574061 15:0.137931 16:0.440286 17:0.188754 18:-0.639566 19:-0.172246 20:0.0257189 
2 1:-0.249068 2:-0.0344744 3:-0.714537 4:0.49196 5:0.148018 6:-0.853473 7:-0.376349 8:-0.536295 9:-0.101968 10:-0.275926 11:-0.281191 12:-0.834604 13:-0.38759 14:0.550709 15:0.37652 16:-0.0280038 17:0.440655 18:0.151568 19:0.645907 20:-0.035003 
2 1:-0.0878185 2:-0.473935 3:-0.202374 4:0.189583 5:0.249615 6:-0.660821 7:-0.259865 8:-0.188521 9:-0.531145 10:0.0579314 11:0.29059 12:-0.338285 13:0.115351 14:0.414401 15:-0.0514289 16:-0.212601 17:-0.0978722 18:-0.125299 19:0.26519 20:-0.0711877 
2 1:-0.194464 2:0.00373029 3:-0.458847 4:-0.0723104 5:0.0108908 6:0.262698 7:-0.141733 8:-0.13527 9:-0.397836 10:-0.111284 11:0.0619755 12:-0.228893 13:0.0316913 14:0.169279 15:0.172761 16:0.132827 17:-0.0392138 18:-0.621696 19:-0.0447168 20:-0.046072 
2 1:-0.502549 2:0.262181 3:-0.405853 4:-0.469221 5:-0.113521 6:-0.438626 7:-0.319588 8:-0.474842 9:-0.191251 10:-0.251278 11:0.241577 12:-0.498043 13:0.00484934 14:-0.459748 15:0.392416 16:0.129764 17:0.16339 18:-0.658979 19:-0.606656 20:-0.043844 
0.30263900047152803 1:1 2:-0.179276 3:-0.236672 4:-0.29284 5:0.104466 6:0.0343203 7:-0.247845 8:-0.501596 9:-0.751873 10:-0.574186 11:0.456009 12:-0.520458 13:0.0847575 14:0.516635 15:-0.215967 16:-0.184249 17:-0.562177 18:0.154907 19:-0.124276 20:-0.42159 
2 1:-0.432686 2:-0.306098 3:-0.420433 4:0.10319 5:-0.105945 6:-0.329521 7:-0.591451 8:-0.584813 9:0.135634 10:0.0974283 11:0.220931 12:-0.594598 13:0.0289779 14:0.376284 15:-0.10671 16:0.151813 17:-0.0178084 18:-0.303943 19:0.13544 20:0.0050638 
1.1545021642851359 1:0.920229 2:0.791993 3:0.110902 4:-0.6284 5:0.118996 6:-0.584975 7:-1 8:-0.758855 9:-0.307022 10:-0.821666 11:-1 12:-0.830559 13:-0.660368 14:-0.376516 15:-0.0253214 16:1 17:-0.607234 18:-0.559558 19:0.640613 20:-0.763877 
2 1:-0.469595 2:-0.407025 3:-0.49737 4:-0.322915 5:-0.117965 6:-0.210977 7:-0.474975 8:-0.543654 9:-0.0116148 10:-0.0231189 11:0.463439 12:-0.568693 13:0.038705 14:0.348419 15:-0.23938 16:0.246139 17:-0.161476 18:-0.531243 19:-0.00822079 20:0.255729 
2 1:-0.443448 2:-0.322134 3:-0.518316 4:-0.411815 5:0.250795 6:-0.358025 7:-0.16133 8:0.167852 9:-0.775995 10:0.249957 11:0.176657 12:-0.227565 13:-0.272595 14:0.257433 15:-0.41661 16:0.07694 17:0.45914 18:-0.253956 19:0.146865 20:0.336728 
2 1:-0.0917945 2:-0.743379 3:-0.122332 4:0.471543 5:0.570004 6:-0.36679 7:-0.34453 8:0.229518 9:0.195743 10:-0.144772 11:-0.114586 12:0.226117 13:-0.274882 14:0.0791454 15:-0.713334 16:-0.970181 17:-0.88367 18:-0.574146 19:-0.0404413 20:-0.238872 
2 1:-0.173593 2:-0.241968 3:-0.586015 4:-0.0670757 5:0.383384 6:-0.410559 7:-0.367601 8:-0.555251 9:0.256425 10:0.120583 11:-0.05248 12:-0.561713 13:0.0798748 14:-0.13351 15:-0.783584 16:0.0275015 17:0.158637 18:-0.311607 19:0.383831 20:0.177957 
2 1:-0.160477 2:-0.0896927 3:-0.596134 4:0.264711 5:-0.0196991 6:-0.363655 7:-0.309722 8:-0.275872 9:-0.276542 10:-0.0464301 11:-0.226025 12:-0.452872 13:-0.275549 14:0.0925164 15:-0.160524 16:0.0524759 17:0.326337 18:-0.480471 19:0.128965 20:0.0230941 
0.66533969860213338 1:-0.478964 2:-0.227951 3:-0.713187 4:-0.107603 5:-0.441234 6:-0.410928 7:-0.73319 8:-0.698065 9:0.269474 10:0.0609465 11:0.381752 12:-0.874902 13:-0.047942 14:0.347008 15:-0.0860149 16:0.376997 17:0.442227 18:0.0435154 19:0.50948 20:0.00695548 
2 1:-0.521349 2:-0.438734 3:-0.17152 4:-0.0528304 5:0.172683 6:-0.25844 7:-0.287104 8:-0.266744 9:0.227667 10:0.0849979 11:0.412037 12:-0.636543 13:0.232469 14:0.0979625 15:0.415448 16:-0.207894 17:-0.0154413 18:0.123279 19:0.327452 20:-0.0293015 
0.62907070056216186 1:-0.0611429 2:0.00424978 3:-0.497062 4:0.0152774 5:-0.384724 6:-0.722452 7:-0.335966 8:-0.709224 9:-0.00762937 10:-0.609321 11:-0.595173 12:-0.810492 13:0.144858 14:0.312112 15:-0.0556924 16:-0.246036 17:-0.66841 18:-0.581528 19:0.18874 20:-0.374382 
2 1:-0.117111 2:-0.580305 3:-0.116269 4:0.176471 5:0.390428 6:-0.57252 7:-0.279208 8:0.273995 9:-0.408766 10:0.345277 11:0.651623 12:-0.539605 13:0.281412 14:0.630488 15:-0.468239 16:-0.0498841 17:-0.573358 18:-0.353201 19:0.0147785 20:0.0666137 
2 1:0.117514 2:-0.500561 3:-0.394612 4:-0.146289 5:0.367135 6:-0.155758 7:-0.0411692 8:-0.0383888 9:-0.433851 10:-0.0784451 11:0.378783 12:-0.288372 13:-0.183725 14:0.32147 15:-0.381275 16:-0.30457 17:-0.20247 18:-0.566477 19:0.310173 20:-0.176905 
2 1:-0.483703 2:-0.416591 3:-0.701028 4:0.00743623 5:-0.176141 6:-0.273766 7:-0.639321 8:-0.4763 9:-0.0564655 10:0.0734251 11:0.247786 12:-0.578671 13:0.253952 14:0.546314 15:-0.0525694 16:0.130523 17:-0.38788 18:-0.224026 19:0.164033 20:0.0148353 
0.34282932712058689 1:0.0547511 2:0.0854304 3:-0.548654 4:-0.505389 5:-0.0600221 6:0.365834 7:-0.279557 8:-0.304596 9:-0.286677 10:-0.570007 11:0.0403776 12:-0.685558 13:-0.47985 14:-0.232999 15:0.314254 16:-0.0241915 17:0.152297 18:0.284473 19:0.0211742 20:-0.165991 
2 1:-0.175999 2:-0.285404 3:-0.40252 4:-0.27468 5:-0.0503212 6:-0.379187 7:-0.596285 8:-0.145686 9:-0.872757 10:-0.643686 11:-0.266672 12:-0.0314513 13:0.127636 14:0.201224 15:0.408212 16:-0.248404 17:-0.72099 18:-0.0448115 19:0.679149 20:-0.806815 
2 1:-0.324313 2:-0.238689 3:-0.107345 4:0.349507 5:0.292212 6:-0.499544 7:-0.266085 8:-0.146296 9:-0.369294 10:0.132812 11:0.167125 12:-0.419295 13:-0.25369 14:0.0526048 15:-0.255926 16:-0.186726 17:0.117315 18:-0.499486 19:-0.0638775 20:0.133363 
2 1:-0.677316 2:0.738763 3:-0.934867 4:-0.210005 5:0.172427 6:-0.272463 7:-0.613271 8:-0.696029 9:-0.178652 10:-0.614042 11:-0.682828 12:-0.768658 13:-0.481024 14:-0.303633 15:-0.319166 16:-0.317208 17:0.147157 18:-0.161057 19:0.234231 20:-0.398559 
2 1:0.01979 2:-0.39423 3:-0.471969 4:-0.458533 5:-0.0988967 6:-0.092586 7:-0.441687 8:0.0257778 9:0.0194446 10:-0.27481 11:0.285303 12:-0.619052 13:-0.175426 14:0.284405 15:0.250485 16:-0.0457366 17:0.0702924 18:-0.295705 19:-0.0736962 20:-0.0102853 
2 1:-0.329933 2:-0.19817 3:-0.450576 4:-0.346988 5:0.132045 6:-0.0977407 7:-0.569608 8:-0.212892 9:-0.415703 10:-0.400288 11:-0.305509 12:0.213811 13:-0.483574 14:-0.220033 15:-0.11309 16:-0.363323 17:-0.26829 18:-0.228917 19:-0.0945715 20:-0.254961 
2 1:-0.0565469 2:0.180568 3:-0.445756 4:-0.601732 5:0.0609689 6:-0.538859 7:-0.400846 8:0.0805341 9:-0.524542 10:-0.482403 11:-0.00850227 12:-0.571317 13:-0.199828 14:-0.402501 15:-0.472787 16:-0.793633 17:-0.889408 18:-0.714937 19:-0.0487919 20:-0.399736 
2 1:0.199804 2:-0.785662 3:-0.412155 4:0.051987 5:0.0845978 6:-0.0224514 7:0.0503531 8:0.492195 9:-0.553471 10:-0.0213159 11:0.7856 12:0.0432035 13:0.123592 14:0.314026 15:-0.536704 16:-0.437453 17:-0.574698 18:-0.4459 19:0.481147 20:-0.236574 
2 1:-0.0934223 2:-0.614084 3:-0.385646 4:0.0908333 5:0.313605 6:-0.0608966 7:-0.294243 8:-0.0589284 9:-0.603611 10:-0.312514 11:0.833768 12:-0.086941 13:-0.237953 14:0.611209 15:0.504311 16:-0.56186 17:-0.24559 18:-0.630569 19:0.305293 20:-0.145112 
2 1:-0.738046 2:-0.557927 3:-0.542492 4:-0.231627 5:-0.165907 6:-0.508496 7:-0.680592 8:-0.61255 9:0.341499 10:0.508226 11:0.539755 12:-0.756939 13:0.447581 14:0.446307 15:0.0537961 16:0.083338 17:-0.245667 18:-0.498475 19:-0.342499 20:0.263073 
2 1:-0.048852 2:-0.679689 3:-0.669688 4:0.147663 5:-0.353994 6:-0.340422 7:-0.388168 8:-0.67357 9:-0.300475 10:-0.196476 11:0.231473 12:-0.621602 13:0.402424 14:0.708496 15:-0.318506 16:-0.113551 17:0.137419 18:-0.00678142 19:0.775813 20:-0.236627 
2 1:-0.367071 2:-0.0939566 3:-0.433021 4:0.259 5:0.229901 6:-0.0219984 7:-0.384883 8:-0.0876235 9:-0.203512 10:0.148377 11:0.180576 12:-0.479072 13:0.0683523 14:0.0731532 15:0.151996 16:-0.119325 17:0.0817917 18:-0.623961 19:-0.0891046 20:0.131883 
2 1:-0.128923 2:-0.186622 3:-0.291386 4:-0.322089 5:0.073392 6:-0.481938 7:-0.575759 8:-0.168322 9:-0.518069 10:-0.00650612 11:0.295084 12:-0.378193 13:-0.160406 14:0.024167 15:-0.352325 16:-0.150348 17:0.0203701 18:-0.733536 19:0.0644853 20:0.108209 
2 1:-0.181214 2:-0.25848 3:-0.367482 4:-0.638747 5:-0.108248 6:-0.617653 7:-0.452789 8:-0.213632 9:-0.295097 10:-0.195639 11:0.0153091 12:-0.624864 13:-0.109279 14:0.101628 15:0.094256 16:0.00326767 17:-0.186739 18:-0.652973 19:-0.364073 20:0.0336987 
2 1:-0.177132 2:-0.388645 3:-0.424501 4:-0.272266 5:0.428108 6:-0.460728 7:-0.47242 8:-0.0476485 9:-0.494182 10:-0.265893 11:-0.391537 12:-0.298327 13:-0.308052 14:0.273158 15:-0.0852947 16:-0.30397 17:-0.390359 18:-0.176139 19:-0.00350728 20:-0.182417 
-2 1:-0.0877064 2:-0.41832 3:-0.456967 4:0.376531 5:0.0181164 6:1 7:-0.269823 8:-0.4105 9:-0.472467 10:-0.673094 11:-0.485483 12:-0.383677 13:-0.232998 14:-0.178034 15:0.41294 16:-0.185011 17:-0.341424 18:1 19:0.0202896 20:-0.530008 
-2 1:-0.329933 2:-0.19817 3:-0.450576 4:-0.346988 5:0.132045 6:-0.0977407 7:-0.569608 8:-0.212892 9:-0.415703 10:-0.400288 11:-0.305509 12:0.213811 13:-0.483574 14:-0.220033 15:-0.11309 16:-0.363323 17:-0.26829 18:-0.228917 19:-0.0945715 20:-0.254961 
-1.0939210608263021 1:-0.547399 2:0.164602 3:-0.680318 4:0.481159 5:0.384934 6:-0.651667 7:-0.431748 8:-0.41978 9:-0.142688 10:0.104842 11:0.243987 12:-0.607953 13:0.049492 14:0.0152682 15:0.0455297 16:0.206555 17:0.617905 18:-0.513525 19:-0.0644991 20:0.134798 
-2 1:-0.175962 2:-0.36668 3:-0.424262 4:-0.204644 5:0.400053 6:-0.209267 7:-0.557139 8:-0.295159 9:-0.267268 10:-0.0219832 11:0.201155 12:-0.456838 13:0.0924074 14:0.0672811 15:0.0486773 16:-0.276262 17:-0.07029 18:-0.205267 19:0.0403539 20:0.00350935 
-2 1:-0.335991 2:-0.401387 3:-0.422897 4:0.1238 5:0.392158 6:-0.10898 7:-0.509753 8:-0.299717 9:0.0596002 10:0.0265879 11:0.268142 12:-0.571203 13:0.0618223 14:0.108901 15:-0.127807 16:0.0225711 17:-0.0656762 18:0.168476 19:0.26536 20:-0.0890868 
-1.7810424913281815 1:-0.427419 2:-0.202268 3:-0.414644 4:0.21542 5:0.174367 6:-0.284018 7:-0.437818 8:-0.0712133 9:0.408139 10:0.0424528 11:0.179132 12:-0.568167 13:0.0716886 14:-0.199587 15:-0.329556 16:-0.150455 17:-0.00990238 18:-0.488111 19:-0.0403504 20:-0.0356621 
-1.9773802537231193 1:-0.22302 2:0.234328 3:-0.730483 4:0.438384 5:-0.149099 6:-0.897985 7:-0.23878 8:-0.687389 9:-0.192147 10:-0.314713 11:-0.468395 12:-0.192458 13:-0.620999 14:-0.213036 15:-0.27812 16:-0.340488 17:0.481933 18:-0.332769 19:0.582805 20:-0.142761 
-2 1:-0.071605 2:-0.405019 3:-0.398069 4:-0.25865 5:0.397815 6:-0.175137 7:-0.355381 8:0.0151482 9:-0.496291 10:-0.163745 11:0.420075 12:-0.273703 13:0.094302 14:0.807022 15:0.188602 16:0.0588577 17:0.121648 18:-0.0705533 19:0.346696 20:0.079548 
-2 1:-0.0448959 2:-0.632599 3:-0.286535 4:-0.0871511 5:0.447343 6:-0.409916 7:-0.12409 8:0.00401178 9:-0.170841 10:0.0966362 11:0.218944 12:-0.368381 13:-0.0254629 14:0.56273 15:-0.293327 16:-0.187364 17:-0.209381 18:-0.204038 19:0.583083 20:0.101476 
-2 1:-0.44648 2:-0.116176 3:-0.631117 4:0.388273 5:-0.188371 6:-0.74605 7:-0.32388 8:-0.68914 9:0.339966 10:-0.335398 11:-0.0146383 12:-0.76557 13:0.301814 14:0.414305 15:0.347067 16:-0.107701 17:-0.21944 18:0.139882 19:0.311114 20:-0.27716 
-1.0335778794699508 1:0.0295567 2:-0.251969 3:-0.281929 4:0.595559 5:0.627327 6:-0.526347 7:-0.0890923 8:0.0139409 9:-0.578598 10:-0.0194512 11:0.29681 12:-0.245052 13:0.369266 14:0.975364 15:-0.666945 16:0.126229 17:-0.342459 18:0.0714322 19:-0.14696 20:0.134088 
-0.90545693990637166 1:-0.560718 2:-0.40367 3:-0.518495 4:0.0581256 5:-0.0249966 6:-0.629331 7:-0.560245 8:-0.210576 9:-0.0337233 10:0.219274 11:0.184336 12:-0.192932 13:-0.016628 14:0.0662016 15:-0.0492705 16:-0.0851326 17:-0.162249 18:-0.748062 19:-0.203258 20:0.240879 
-2 1:-0.335924 2:-0.266818 3:-0.588555 4:-0.31547 5:0.273938 6:-0.0369838 7:-0.3371 8:0.124251 9:-0.323181 10:-0.148209 11:0.0426752 12:-0.336197 13:0.272164 14:0.233087 15:0.289383 16:0.0890277 17:-0.183648 18:-0.414457 19:0.157901 20:-0.0267239 
-2 1:0.0226587 2:-0.457666 3:-0.370468 4:-0.41051 5:-0.165092 6:-0.738272 7:-0.490449 8:-0.538324 9:-0.217941 10:-0.302075 11:-0.116052 12:-0.476509 13:0.400557 14:-0.139635 15:-0.135254 16:-0.510898 17:-0.525704 18:0.110704 19:-0.0358035 20:-0.215047 
-2 1:-0.576563 2:0.0904453 3:-0.381623 4:-0.0498915 5:0.409992 6:-0.332579 7:-0.262417 8:-0.212647 9:0.413097 10:0.105439 11:0.259362 12:-0.594402 13:0.177851 14:-0.306412 15:-0.565513 16:0.180823 17:0.384648 18:-0.581919 19:-0.294586 20:0.0812718 
-0.89512226707680465 1:-0.243373 2:-0.413533 3:-0.374283 4:0.00937222 5:0.1068 6:-0.498555 7:-0.258137 8:-0.0037372 9:0.30182 10:0.0489207 11:0.304193 12:-0.429029 13:-0.0423451 14:-0.0175297 15:-0.0551215 16:-0.0689169 17:-0.320896 18:-0.538962 19:-0.0325886 20:0.16794 
-2 1:-0.413831 2:1 3:-0.659257 4:-0.53862 5:0.0323627 6:-0.803046 7:-0.724997 8:-0.293909 9:-0.930514 10:-0.80105 11:-0.348523 12:-0.72432 13:-0.211526 14:0.0122868 15:-0.0775242 16:-0.160079 17:-0.498102 18:-0.725357 19:-0.437355 20:-0.558649 
-0.3071335341674129 1:-0.104077 2:-0.325363 3:-0.57244 4:0.254493 5:-0.0102294 6:-0.197651 7:-0.567809 8:-0.256895 9:0.517878 10:-0.404205 11:-0.040351 12:0.154087 13:-0.329899 14:0.354468 15:-0.174601 16:-0.668326 17:0.787056 18:-0.372117 19:0.419016 20:-0.469949 
-2 1:-0.197694 2:0.505469 3:-0.288299 4:-0.737345 5:-0.502501 6:-0.639149 7:-0.402622 8:-0.303085 9:-0.896438 10:-0.832708 11:-0.890572 12:-0.46784 13:-0.629347 14:-0.885191 15:-0.552269 16:-0.657867 17:-0.769289 18:-0.864531 19:-0.850474 20:-0.686039 
-2 1:-0.145363 2:-0.388679 3:-0.326229 4:-0.470576 5:0.314606 6:-0.0106288 7:-0.479932 8:-0.442568 9:0.00470991 10:-0.0611016 11:0.151016 12:-0.460636 13:0.0808833 14:0.0894516 15:0.357394 16:-0.0291691 17:-0.685071 18:-0.6001 19:0.2628 20:0.0875559 
-2 1:-0.321879 2:-0.140933 3:-0.0599562 4:-0.563685 5:-0.369673 6:-0.416137 7:-0.286005 8:-0.270166 9:-0.878944 10:-0.538986 11:0.112347 12:-0.29626 13:0.0557655 14:-0.23304 15:-0.00398838 16:-0.57487 17:-0.316309 18:-0.489073 19:-0.395569 20:-0.247275 
-2 1:-0.105654 2:-0.814563 3:0.257894 4:-0.283102 5:0.429212 6:-0.59289 7:-0.123352 8:0.59087 9:-0.73414 10:-0.0626778 11:-0.0423227 12:-0.0920618 13:-0.127082 14:0.438828 15:-0.415905 16:-0.605638 17:-0.596928 18:0.101772 19:0.540845 20:-0.0378712 
-2 1:-0.0262639 2:-0.412297 3:-0.00743537 4:0.147914 5:0.125501 6:-0.392404 7:-0.571381 8:-0.530235 9:-0.326447 10:-0.21006 11:0.00616814 12:-0.428993 13:-0.0875674 14:0.350066 15:0.243032 16:-0.399987 17:-0.623498 18:-0.450439 19:0.442502 20:-0.202451 
-1.0906402258334058 1:-0.522453 2:-0.138429 3:-0.763299 4:1 5:0.0552378 6:-0.638618 7:-0.490176 8:-0.692406 9:0.409461 10:-0.172902 11:0.151572 12:-0.48984 13:-0.449835 14:0.765706 15:0.488675 16:-0.0103578 17:0.0401754 18:-0.741332 19:-0.279331 20:0.615666 
-2 1:-0.262389 2:-0.690531 3:-0.0588681 4:-0.557452 5:-0.126407 6:-0.685836 7:-0.340301 8:-0.0533394 9:-0.905124 10:-0.473539 11:-0.142853 12:-0.499251 13:-0.228162 14:-0.31206 15:-0.572483 16:-0.670611 17:-0.789417 18:-0.19871 19:-0.487254 20:-0.569125 
-2 1:-0.163069 2:-0.352256 3:-0.0603503 4:0.0849356 5:0.394748 6:-0.625364 7:-0.0859802 8:0.597747 9:-0.712132 10:0.245626 11:-0.0301413 12:-0.115899 13:0.415502 14:-0.218611 15:-0.86001 16:0.0349691 17:0.12886 18:-0.743319 19:-0.495293 20:0.0231387 
-2 1:-0.25311 2:-0.359843 3:-0.462567 4:0.0563166 5:0.199949 6:-0.233471 7:-0.0852639 8:0.0305514 9:-0.449246 10:0.0281709 11:0.406922 12:-0.319765 13:0.26984 14:0.21994 15:-0.14549 16:-0.135502 17:0.035182 18:-0.173066 19:0.0163749 20:-0.0421983 
-0.70081493135748962 1:-0.239453 2:-0.368938 3:-0.417674 4:-0.117574 5:0.563081 6:-0.019281 7:-0.202068 8:-0.281694 9:0.0169158 10:-0.0022687 11:-0.018298 12:-0.287251 13:-0.15536 14:0.953188 15:0.191467 16:-0.211727 17:-0.146685 18:-0.2418 19:0.389616 20:0.103152 
-2 1:-0.306389 2:-0.166755 3:-0.492781 4:0.192088 5:0.217384 6:-0.495432 7:-0.528007 8:-0.186174 9:0.171257 10:-0.133189 11:0.255663 12:-0.447928 13:-0.211364 14:0.0893527 15:0.213342 16:-0.0510156 17:0.304624 18:-0.544963 19:-0.0449976 20:-0.161018 
-2 1:-0.762174 2:0.0221687 3:-0.397238 4:-0.509837 5:-0.896714 6:-0.743633 7:-0.301948 8:-1 9:-0.125917 10:-0.188805 11:0.18346 12:-0.680859 13:-0.324673 14:0.141048 15:-0.0601693 16:-0.0342279 17:-0.0887891 18:0.0257273 19:0.182235 20:-0.326289 
-2 1:-0.112913 2:-0.797395 3:0.0405736 4:-0.644858 5:0.183353 6:-0.46659 7:-0.644899 8:-0.362327 9:0.261054 10:-0.398957 11:-0.13977 12:-0.890555 13:-0.443309 14:-0.0454816 15:-0.134885 16:-0.743414 17:-0.220226 18:-0.253795 19:-0.0763093 20:0.214301 
-0.89499393037767894 1:-0.56198 2:-0.294573 3:-0.0557515 4:-0.32373 5:-0.179276 6:-0.34409 7:-0.526652 8:-0.240295 9:0.280879 10:-0.00523584 11:0.40752 12:-0.3062 13:0.314245 14:-0.190608 15:-0.040544 16:-0.331982 17:-0.611044 18:-0.254727 19:-0.45573 20:-0.00536225 
-2 1:-0.0980246 2:-0.440577 3:-0.357884 4:-0.424457 5:0.0270372 6:-0.546394 7:0.236437 8:0.00896916 9:0.123599 10:-0.00843472 11:0.500698 12:-0.239837 13:0.259484 14:0.33554 15:-0.611184 16:-0.235585 17:-0.561859 18:-0.496821 19:-0.219565 20:0.137568 
-2 1:-0.35828 2:-0.197218 3:-0.459137 4:-0.0926343 5:0.0365292 6:0.0604778 7:-0.558121 8:-0.209171 9:-0.0164645 10:0.0402564 11:1 12:-0.476273 13:-0.0147587 14:-0.312426 15:0.0628838 16:0.164845 17:-0.0096264 18:-0.368335 19:-0.373492 20:0.449768 
-2 1:-0.487202 2:-0.197804 3:-0.339767 4:0.009457 5:0.231113 6:-0.413667 7:-0.227724 8:-0.130307 9:0.12166 10:0.0935465 11:0.250876 12:-0.634547 13:-0.174428 14:-0.249115 15:-0.0201276 16:-0.242803 17:0.0294706 18:-0.561224 19:-0.0571931 20:0.0721423 
-2 1:-0.203388 2:-0.25574 3:-0.524845 4:-0.0472967 5:0.41952 6:-0.266975 7:-0.103491 8:0.137661 9:-0.526613 10:0.0211027 11:0.483632 12:-0.0341173 13:-0.0263956 14:-0.361999 15:-0.366494 16:-0.597375 17:-0.281959 18:-0.714716 19:-0.0404213 20:-0.143673 
-0.9558443257714746 1:-0.25483 2:-0.164169 3:0.0877542 4:-0.0146864 5:0.118898 6:-0.762066 7:-0.404989 8:-0.0272117 9:-0.337717 10:-0.0396497 11:0.0775676 12:-0.165859 13:0.131283 14:-0.0515542 15:-0.241595 16:0.0766592 17:-0.750776 18:-0.55679 19:-0.2138 20:0.404647 
-1.448967918365287 1:-0.205088 2:-0.691688 3:-0.566434 4:0.501405 5:-0.183234 6:-0.55621 7:-0.658071 8:-0.596189 9:-0.180608 10:0.26481 11:0.1311 12:-0.264645 13:0.277073 14:0.448687 15:-0.204774 16:-0.0499831 17:-0.613815 18:-0.207184 19:0.864368 20:-0.0836287 
-2 1:-0.345691 2:-0.0411483 3:-0.328257 4:-0.416883 5:0.0176344 6:-0.454901 7:-0.223056 8:-0.0502543 9:-0.250403 10:-0.31392 11:0.0583902 12:-0.417228 13:-0.121654 14:-0.383841 15:0.62435 16:-0.166086 17:-0.24361 18:-0.671977 19:-0.419844 20:-0.126613 
-2 1:-0.0128113 2:-0.38496 3:-0.532617 4:-0.470784 5:0.201956 6:-0.59433 7:-0.668849 8:-0.277673 9:-0.259009 10:-0.335501 11:0.00268158 12:-0.408253 13:-0.348265 14:0.152779 15:-0.36911 16:-0.51169 17:-0.53312 18:-0.500688 19:0.0135786 20:-0.287595 
-2 1:-0.122151 2:-0.217646 3:-0.361223 4:-0.262653 5:0.165403 6:-0.262421 7:-0.543348 8:-0.0158764 9:-0.321909 10:-0.0999682 11:0.270266 12:-0.46474 13:-0.10467 14:0.431774 15:-0.0288819 16:0.251139 17:-0.318717 18:-0.616099 19:0.26268 20:0.448739 
-2 1:-0.45358 2:-0.619791 3:-0.558273 4:-0.149404 5:0.0305283 6:-0.0746281 7:-0.760948 8:-0.272539 9:0.106976 10:0.0357155 11:0.0292735 12:-0.135893 13:0.301923 14:0.356424 15:-0.459545 16:-0.232139 17:-0.228024 18:-0.5781 19:-0.0514507 20:0.357488 
-2 1:-0.700145 2:-0.154154 3:-0.66218 4:-0.633529 5:-0.328343 6:-0.852629 7:-0.747718 8:-0.183076 9:-0.395362 10:-0.65951 11:-0.687818 12:-0.0757246 13:-0.624813 14:-0.260309 15:-0.497752 16:-0.656711 17:-0.244417 18:-0.897556 19:-0.645501 20:-0.460046 
-2 1:-0.0398316 2:-0.513036 3:-0.427023 4:-0.0801265 5:0.392841 6:-0.108084 7:-0.211178 8:0.037072 9:-0.657777 10:-0.00411853 11:0.308772 12:-0.22469 13:0.134793 14:0.296061 15:-0.190359 16:-0.386712 17:-0.46671 18:-0.422252 19:0.401299 20:-0.1632 
-2 1:0.153425 2:0.116711 3:-0.55303 4:-0.816912 5:-0.557248 6:-1 7:-0.51996 8:-0.472145 9:-1 10:-0.66787 11:-0.473329 12:-0.690761 13:-0.267821 14:-0.349044 15:-0.0666404 16:0.0140837 17:0.00730618 18:-0.622667 19:-0.265103 20:-0.651238 
-1.807769266683722 1:-0.611716 2:-0.347844 3:-0.319318 4:-0.171978 5:0.194814 6:-0.68415 7:-0.62231 8:-0.0600661 9:-0.361665 10:0.0654132 11:-0.209151 12:-0.346383 13:0.185824 14:-0.0817066 15:-0.388176 16:-0.472139 17:0.0175625 18:-0.737639 19:-0.353646 20:0.440988 
-2 1:-0.224727 2:-0.192672 3:-0.528233 4:0.204024 5:0.315185 6:-0.206863 7:-0.161903 8:-0.359462 9:-0.404147 10:-0.113463 11:0.553886 12:-0.290046 13:0.145099 14:-0.0631397 15:0.0875358 16:0.000673985 17:-0.36808 18:-0.52136 19:-0.133264 20:0.241669 
-2 1:-0.445203 2:-0.0967131 3:-0.334593 4:-0.304242 5:0.0953405 6:-0.479749 7:-0.293129 8:-0.488886 9:0.119933 10:-0.171953 11:0.254577 12:-0.28504 13:0.336029 14:0.207305 15:-0.0768926 16:0.222651 17:0.227111 18:-0.566975 19:-0.0212603 20:-0.0183209 
-2 1:0.106096 2:-0.333322 3:-0.525963 4:0.199058 5:-0.112248 6:0.162296 7:-0.496988 8:-0.172018 9:-0.00700977 10:0.0994127 11:0.0351555 12:-0.350478 13:-0.206276 14:0.13133 15:-0.160389 16:-0.60544 17:-0.565652 18:-0.528963 19:-0.0404383 20:0.276024 
-0.65621036700326085 1:-0.0841594 2:-0.642931 3:-0.268995 4:-0.0979777 5:0.364389 6:-0.35363 7:-0.324267 8:0.102247 9:-0.236904 10:-0.0818579 11:0.266809 12:-0.238765 13:0.30042 14:0.220003 15:-0.0644018 16:-0.471797 17:0.0587547 18:-0.516934 19:0.111829 20:-0.0447638 
-2 1:0.34016 2:-0.368662 3:-0.641707 4:-0.03412 5:-0.0850657 6:-0.774102 7:-0.471095 8:-0.319509 9:-0.432346 10:-0.243163 11:-0.0618127 12:-0.509241 13:-0.24548 14:0.140385 15:-0.0876839 16:-0.146522 17:-0.606971 18:0.05624 19:0.404194 20:-0.268138 
-1.8925365888024035 1:-0.291034 2:0.693764 3:-0.779401 4:0.496542 5:-0.668967 6:-0.899674 7:-0.493762 8:-0.966178 9:-0.0634324 10:-0.139293 11:-0.22786 12:-0.51975 13:-0.340802 14:-0.299427 15:-0.494315 16:0.176608 17:0.0745289 18:-0.178591 19:0.68982 20:-0.017959 
-1.623403247630171 1:0.145452 2:-0.496025 3:-0.497006 4:-0.090318 5:0.53604 6:-0.691906 7:-0.398325 8:-0.347266 9:-0.186786 10:-0.176324 11:-0.0497635 12:-0.311103 13:0.00338067 14:0.782455 15:0.231505 16:-0.156714 17:-0.195354 18:-0.334226 19:0.640497 20:-0.0932483 
-2 1:0.163667 2:-0.548479 3:-0.360171 4:-0.0294203 5:0.144129 6:-0.153287 7:-0.462585 8:-0.226055 9:-0.765505 10:-0.38172 11:0.25893 12:-0.0953854 13:0.297547 14:0.0787149 15:-0.221227 16:-0.248024 17:-0.366469 18:-0.171839 19:0.122 20:-0.343522 
-2 1:-0.617455 2:-0.41236 3:-0.734279 4:-0.0627874 5:-0.270971 6:-0.626456 7:-0.736776 8:-0.559341 9:0.478939 10:0.462454 11:0.352202 12:-0.578713 13:0.196311 14:0.600957 15:-0.0927449 16:0.0460156 17:-0.23185 18:-0.356302 19:0.110244 20:0.376725 
-2 1:-0.0794968 2:-0.148968 3:-0.393105 4:-0.74768 5:-0.181668 6:-0.40825 7:-0.797916 8:-0.107278 9:-0.324718 10:-0.864506 11:-0.982638 12:0.60748 13:-0.379343 14:-0.223156 15:0.106899 16:-0.304628 17:-0.79562 18:-0.536731 19:0.0244792 20:-0.740357 
-2 1:-0.0800782 2:-0.506045 3:-0.231054 4:0.0773899 5:0.264772 6:-0.0624545 7:-0.290788 8:0.144796 9:-0.224703 10:-0.0700115 11:0.175607 12:-0.220222 13:0.0521176 14:0.458541 15:-0.16701 16:-0.322023 17:-0.494546 18:-0.28725 19:0.122773 20:-0.00166937 
-2 1:0.307039 2:0.697521 3:-0.749543 4:-0.587709 5:-0.577018 6:-0.33452 7:-0.903202 8:-0.845129 9:-0.771148 10:-0.405223 11:-0.694097 12:-0.675269 13:-0.43279 14:-0.634837 15:-0.273438 16:-0.768819 17:-0.639093 18:-0.363163 19:-0.489356 20:-0.579677 
-2 1:-0.151399 2:-0.473026 3:-0.138775 4:0.257578 5:0.481005 6:-0.433012 7:-0.189387 8:-0.338498 9:-0.466044 10:-0.365883 11:-0.235422 12:-0.0684811 13:0.0160865 14:0.363585 15:-0.145961 16:-0.249714 17:-0.248314 18:-0.326788 19:0.26846 20:-0.213008 
-2 1:-0.28703 2:-0.606532 3:-0.471094 4:-0.687659 5:-0.00839482 6:-0.602588 7:-0.399903 8:-0.175869 9:-0.188698 10:-0.0401981 11:0.401744 12:-0.549862 13:0.0951001 14:0.341106 15:0.251919 16:-0.0139755 17:-0.243023 18:-0.537473 19:-0.0609388 20:0.178175 
-1.8114029597284416 1:-0.292573 2:-0.238355 3:-0.0492958 4:-0.474776 5:-0.128957 6:-0.115788 7:-0.486977 8:-0.43449 9:0.429934 10:0.0167266 11:-0.163488 12:-0.25183 13:-0.0030453 14:-0.314838 15:-0.124955 16:-0.169501 17:0.659571 18:-0.840307 19:-0.590926 20:0.330839 
-1.143823216405397 1:-1 2:0.545154 3:-0.522492 4:-1 5:-1 6:-0.935667 7:-0.878592 8:-0.827552 9:-0.465198 10:-0.753827 11:-0.804782 12:0.213928 13:-1 14:-1 15:-0.0247284 16:-0.40229 17:-0.378627 18:-0.969266 19:-0.823828 20:-0.414901 
-2 1:-0.0582311 2:-0.238741 3:-0.615006 4:0.0938675 5:0.124506 6:-0.455634 7:-0.329464 8:-0.323542 9:-0.354256 10:0.05711 11:-0.154064 12:-0.427316 13:-0.351059 14:0.379024 15:-0.23205 16:0.276503 17:0.20845 18:-0.0329203 19:1 20:0.0474696 
-2 1:-0.389979 2:0.0398933 3:-0.452443 4:0.136001 5:-0.27148 6:-0.179564 7:-0.482547 8:-0.629863 9:-0.13057 10:-0.119542 11:-0.206893 12:-0.682653 13:-0.279108 14:0.184479 15:0.254746 16:0.124835 17:0.5924 18:-0.445587 19:0.475731 20:-0.111374 
-2 1:-0.230725 2:0.29963 3:-0.557957 4:-0.162936 5:-0.361608 6:-0.504868 7:0.0265387 8:-0.401945 9:-0.727294 10:-0.35114 11:-0.109238 12:-0.543478 13:-0.186466 14:-0.441065 15:1 16:0.0748968 17:0.327985 18:-0.852538 19:-0.739319 20:-0.0137485 
-2 1:0.831955 2:-0.530676 3:-0.637399 4:0.0553897 5:-0.307843 6:0.140302 7:-0.753507 8:-0.265384 9:-0.236219 10:-0.305856 11:-0.767435 12:-0.353338 13:-0.103311 14:-0.374103 15:-0.606378 16:-0.114284 17:-0.317698 18:0.219006 19:0.300469 20:-0.751014 
-1.7796274529878968 1:-0.0216854 2:-0.287058 3:-0.397465 4:-0.213879 5:0.323979 6:-0.450568 7:-0.566485 8:-0.256232 9:-0.375184 10:-0.17382 11:0.0106061 12:-0.312296 13:-0.0661438 14:0.139519 15:0.338866 16:-0.226261 17:-0.171961 18:-0.0286097 19:0.17681 20:-0.0235498 
-1.6474947163481704 1:0.299137 2:-0.505042 3:-0.231265 4:0.234503 5:0.428144 6:-0.662 7:-0.21141 8:-0.275226 9:-0.163467 10:-0.212475 11:-0.29767 12:-0.465449 13:-0.45389 14:0.66093 15:0.57076 16:-0.188306 17:0.311337 18:-0.123725 19:0.557284 20:0.110608 
-0.50206729416811047 1:-0.234604 2:-0.187663 3:-0.305451 4:-0.194299 5:0.57117 6:-0.602827 7:-0.279042 8:0.0500569 9:-0.159081 10:0.0616656 11:0.67965 12:-0.381057 13:0.433289 14:0.140185 15:-0.450924 16:0.50503 17:0.0428208 18:-0.239831 19:-0.189604 20:0.115621 
-2 1:0.315615 2:-0.513615 3:-0.239413 4:0.076245 5:-0.116508 6:-0.0410919 7:-0.190485 8:-0.360906 9:-0.333831 10:-0.191224 11:0.689528 12:-0.250743 13:-0.148743 14:0.076235 15:-0.30647 16:-0.541503 17:-0.13973 18:-0.499233 19:0.627521 20:0.167966 
-1.2001876654014421 1:-0.285042 2:-0.403614 3:-0.0826896 4:-0.853772 5:0.395167 6:-0.477968 7:-0.539072 8:-0.265503 9:0.346481 10:-0.0300346 11:0.170856 12:-0.97353 13:-0.341485 14:-0.126847 15:0.205748 16:-0.495955 17:0.276713 18:-0.918698 19:-0.194042 20:0.625856 
-2 1:0.187192 2:-0.444022 3:-0.207134 4:-0.164009 5:0.265251 6:0.448874 7:-0.0660116 8:-0.0314067 9:-0.483138 10:-0.137351 11:0.450682 12:0.0437731 13:-0.00376021 14:0.233571 15:0.203384 16:-0.127578 17:-0.615479 18:-0.505049 19:0.239297 20:-0.0530296 
-2 1:-0.202425 2:-0.252678 3:-0.142081 4:-0.319156 5:0.00418617 6:-0.512353 7:-0.398086 8:0.225192 9:-0.213057 10:0.0466708 11:0.399521 12:-0.228236 13:0.249522 14:-0.0647011 15:-0.307695 16:0.346196 17:-0.252254 18:-0.659265 19:-0.241872 20:-0.196437 
-2 1:-0.113826 2:-0.363856 3:-0.333589 4:-0.0311483 5:0.222732 6:-0.169475 7:-0.396632 8:-0.0168946 9:0.094583 10:-0.0586212 11:0.285939 12:-0.346883 13:0.0929652 14:0.201153 15:-0.0225075 16:-0.0943999 17:-0.249659 18:-0.609242 19:0.342012 20:-0.0650263 
-2 1:-0.355345 2:-0.372129 3:-0.331127 4:-0.178671 5:-0.0256788 6:-0.466308 7:-0.311268 8:-0.189614 9:-0.290762 10:0.124788 11:0.407998 12:-0.36859 13:0.0521173 14:0.446784 15:-0.390957 16:0.35005 17:-0.00400061 18:-0.418317 19:0.0336436 20:-0.0734857 
-2 1:0.0949344 2:-0.740156 3:-0.558375 4:0.284357 5:0.508427 6:-0.27633 7:-0.37115 8:0.065516 9:-0.597211 10:0.12921 11:-0.127799 12:-0.28304 13:-0.320926 14:0.611124 15:-0.662255 16:-0.472063 17:-0.792591 18:-0.299909 19:0.940436 20:-0.22876 
-2 1:-0.333329 2:0.144765 3:-0.683161 4:-0.0450846 5:0.817245 6:-0.40843 7:-0.276805 8:0.0857998 9:-0.624093 10:-0.257791 11:0.279412 12:-0.260221 13:-0.319914 14:0.273713 15:0.229535 16:0.140617 17:-0.279979 18:-0.654204 19:-0.484398 20:-0.11894 
-2 1:-0.289873 2:-0.345354 3:-0.399656 4:0.193927 5:0.490548 6:0.119724 7:-0.426124 8:-0.245121 9:-0.295923 10:0.0249703 11:0.00873439 12:-0.382232 13:0.0759982 14:0.638242 15:-0.0661405 16:-0.369583 17:-0.373229 18:-0.299321 19:0.441533 20:-0.0202385 
-2 1:-0.604431 2:0.160358 3:-0.385155 4:0.163125 5:0.233884 6:-0.672298 7:-0.142806 8:-0.239327 9:-0.311426 10:0.0165368 11:0.0112133 12:-0.699853 13:-0.0984501 14:-0.384477 15:-0.739101 16:0.141502 17:0.493943 18:-0.622051 19:-0.270526 20:0.0265445 
-2 1:-0.416052 2:0.0386201 3:-0.309438 4:-0.410808 5:-0.189725 6:-0.236742 7:-0.736666 8:-0.457573 9:-0.0138225 10:-0.0203792 11:0.571199 12:0.16393 13:0.466674 14:-0.248051 15:-0.512565 16:0.439231 17:0.148538 18:-0.787639 19:-0.0872865 20:-0.329534 
-2 1:-0.339479 2:-0.42477 3:-0.500392 4:-0.32221 5:0.0272967 6:-0.148586 7:-0.274891 8:0.119279 9:-0.0952963 10:0.0955382 11:0.551398 12:-0.375337 13:0.653451 14:-0.048188 15:-0.0533149 16:-0.0772748 17:-0.588905 18:-0.462835 19:-0.130148 20:0.367029 
-2 1:-0.337971 2:-0.350804 3:-0.437767 4:-0.229979 5:0.246658 6:-0.216868 7:-0.298901 8:0.0257546 9:-0.365259 10:-0.180335 11:-0.132016 12:0.00726684 13:-0.198988 14:0.0181033 15:-0.142425 16:-0.397584 17:-0.189663 18:-0.299526 19:0.127659 20:0.00678525 
-2 1:-0.482819 2:-0.314467 3:-0.599355 4:0.0947858 5:0.325203 6:-0.286278 7:-0.583588 8:-0.338931 9:0.182174 10:0.00541053 11:-0.0261165 12:-0.512371 13:0.116022 14:0.0282536 15:-0.189868 16:-0.175719 17:-0.23905 18:-0.777629 19:0.27756 20:0.138945 
-2 1:-0.210678 2:-0.0573348 3:-0.71401 4:0.131618 5:0.285882 6:-0.898733 7:-0.401523 8:-0.331718 9:-0.305926 10:-0.27318 11:-0.252851 12:-0.402889 13:-0.297053 14:0.268515 15:0.139058 16:-0.365681 17:0.00103042 18:-0.573173 19:0.293219 20:-0.284729 
-2 1:0.344321 2:-0.358792 3:-0.381158 4:-0.291709 5:-0.049343 6:-0.32331 7:-0.418293 8:-0.565089 9:-0.368239 10:-0.359335 11:-0.197025 12:-0.714458 13:-0.396142 14:-0.00292304 15:0.0495674 16:-0.353481 17:-0.227593 18:0.171635 19:0.534105 20:-0.0258321 
-1.8861548118551681 1:-0.131904 2:-0.564705 3:-0.0795012 4:-0.41372 5:0.0229884 6:-0.62663 7:-0.00252387 8:0.503687 9:-0.653666 10:0.257028 11:0.429382 12:0.602477 13:-0.392589 14:0.38797 15:-0.189472 16:-0.126859 17:-0.00138029 18:-0.619312 19:-0.391218 20:0.585172 
-2 1:0.0933532 2:-0.494713 3:-0.102474 4:-0.0391687 5:0.531562 6:-0.463105 7:0.0425161 8:0.5302 9:-0.659306 10:-0.062226 11:0.440657 12:0.0988917 13:0.0830873 14:0.014167 15:-0.768823 16:-0.231767 17:-0.311546 18:-0.764825 19:-0.159073 20:-0.191055 
-2 1:-0.673061 2:-0.279864 3:0.0217708 4:-0.395198 5:0.0083714 6:-0.608297 7:-0.513718 8:0.270657 9:-0.157647 10:-0.170268 11:0.177564 12:-0.180959 13:0.0539038 14:0.436103 15:-0.51371 16:-0.414662 17:0.254945 18:-0.772791 19:-0.318868 20:0.14361 
-2 1:-0.373936 2:-0.433673 3:-0.576482 4:-0.261042 5:-0.558808 6:-0.320545 7:-0.513196 8:-0.614885 9:0.138802 10:0.201894 11:-0.30332 12:-0.76314 13:0.126064 14:0.446234 15:-0.123223 16:-0.0831977 17:-0.277558 18:0.0746114 19:0.235375 20:0.0360492 
-0.1317117784451248 1:-0.00234073 2:-1 3:0.263226 4:-0.256088 5:-0.591895 6:-0.384123 7:-0.470616 8:-0.530121 9:0.0283473 10:-0.15614 11:0.329596 12:0.48068 13:-0.060106 14:0.0606985 15:-0.281319 16:-0.628682 17:-0.559806 18:-0.501122 19:0.198322 20:0.0374159 
-1.5836159576054059 1:0.373989 2:0.696281 3:-0.754018 4:-0.497893 5:-0.439768 6:-0.659043 7:-0.882032 8:-0.710159 9:-0.774225 10:-0.353243 11:-0.55902 12:-0.712061 13:-0.307509 14:-0.678231 15:-0.166007 16:-0.655261 17:-0.65814 18:-0.399505 19:-0.592296 20:-0.480409 
-2 1:0.0899304 2:-0.585808 3:-0.61101 4:0.0829157 5:0.291744 6:-0.151237 7:-0.0295021 8:0.305197 9:-0.506952 10:-0.270023 11:0.389825 12:-0.417832 13:-0.113482 14:0.39308 15:-0.434562 16:-0.543756 17:0.179974 18:0.583942 19:0.102198 20:-0.302141 
-2 1:-0.386846 2:0.163943 3:-0.463962 4:0.150332 5:0.446065 6:-0.206915 7:-0.599777 8:-0.497415 9:-0.104527 10:-0.210461 11:0.184837 12:-0.533396 13:-0.442505 14:0.00532579 15:-0.450556 16:0.624874 17:0.616305 18:0.206303 19:0.0189045 20:-0.0271613 
-2 1:-0.0377526 2:-0.637383 3:0.222115 4:-0.937912 5:0.194884 6:-0.478546 7:-0.73977 8:-0.166723 9:-0.288813 10:-0.369533 11:0.302414 12:-0.899608 13:-0.00366217 14:-0.0363659 15:0.641751 16:-0.538775 17:-0.0861247 18:-0.331985 19:-0.166918 20:0.0092652 
-2 1:-0.140021 2:-0.211913 3:-0.224934 4:-0.290914 5:0.174547 6:-0.199923 7:-0.642029 8:-0.155749 9:0.0712824 10:-0.00219512 11:-0.00992515 12:-0.51231 13:0.0479849 14:0.140487 15:-0.199371 16:-0.146719 17:-0.166679 18:-0.445192 19:-0.0332415 20:0.0333244 
