=== Run information ===

Scheme:       weka.classifiers.trees.J48 -C 0.25 -M 2
Relation:     protein_type
Instances:    315
Attributes:   38
              AAKpartComposition
              AAutoCor
              CkSAApair
              CkSGAApair
              CTD
              CTDC
              CTDD
              DDE
              ExpectedValueAA
              ExpectedValueGAA
              ExpectedValueGKmerAA
              ExpectedValueKmerAA
              GrpDDE
              IF
              kAAComposition
              kGAAComposition
              PseKRAAC_T2
              PseKRAAC_T3A
              PseKRAAC_T3B
              PseKRAAC_T4
              PseKRAAC_T5
              PseKRAAC_T6A
              PseKRAAC_T6B
              PseKRAAC_T7
              PseKRAAC_T8
              PseKRAAC_T9
              PseKRAAC_T10
              PseKRAAC_T11
              PseKRAAC_T12
              PseKRAAC_T13
              PseKRAAC_T14
              PseKRAAC_T15
              PseKRAAC_T16
              QSOrder
              SAAC
              SGAAC
              SOCNumber
              ProteinType
Test mode:    user supplied test set:  size unknown (reading incrementally)

=== Classifier model (full training set) ===

J48 pruned tree
------------------

SAAC = 0: 0 (196.0/3.0)
SAAC = 1: 1 (119.0)

Number of Leaves  : 	2

Size of the tree : 	3


Time taken to build model: 0 seconds

=== Evaluation on test set ===

Time taken to test model on supplied test set: 0 seconds

=== Summary ===

Correctly Classified Instances          25               69.4444 %
Incorrectly Classified Instances        11               30.5556 %
Kappa statistic                          0.3487
Mean absolute error                      0.3102
Root mean squared error                  0.5483
Relative absolute error                 65.2964 %
Root relative squared error            112.4665 %
Total Number of Instances               36     

=== Detailed Accuracy By Class ===

                 TP Rate  FP Rate  Precision  Recall   F-Measure  MCC      ROC Area  PRC Area  Class
                 0.773    0.429    0.739      0.773    0.756      0.349    0.672     0.710     0
                 0.571    0.227    0.615      0.571    0.593      0.349    0.672     0.518     1
Weighted Avg.    0.694    0.350    0.691      0.694    0.692      0.349    0.672     0.635     

=== Confusion Matrix ===

  a  b   <-- classified as
 17  5 |  a = 0
  6  8 |  b = 1

