svm_type c_svc
kernel_type rbf
gamma 0.03125
nr_class 2
total_sv 214
rho -0.47565759083118264
label 1 0
nr_sv 106 108
SV
2 1:-0.423896 2:-0.480922 3:-0.332821 4:-0.125476 5:-0.0494582 6:-0.36413 7:-0.127842 8:-0.120737 9:-0.193594 10:-0.537397 11:-0.348272 12:0.0897513 13:0.00241214 14:-0.0776642 15:-0.407679 16:0.156845 17:0.16694 18:0.274895 
2 1:0.545154 2:0.0770146 3:-0.522492 4:-1 5:-0.929319 6:-0.878592 7:-0.827552 8:-0.465198 9:-0.753827 10:0.213928 11:-1 12:-1 13:-0.0247284 14:-0.40229 15:-0.378627 16:-0.964321 17:-0.823828 18:-0.414901 
2 1:-0.448236 2:0.358424 3:-1 4:-0.0520748 5:-0.738872 6:-0.942021 7:-0.64093 8:1 9:0.387156 10:-0.947251 11:1 12:-0.0428046 13:0.182499 14:0.388605 15:-0.400622 16:-0.567057 17:-0.22216 18:0.301162 
2 1:-0.255788 2:-0.355465 3:-0.104244 4:-0.256778 5:-0.297875 6:-0.219783 7:-0.193707 8:-0.251212 9:-0.283432 10:-0.498082 11:-0.247874 12:0.0173817 13:0.0687246 14:-0.129439 15:-0.213897 16:0.144348 17:0.00266904 18:-0.0723429 
2 1:-0.348876 2:0.593943 3:-0.76862 4:-0.313321 5:-0.522649 6:-0.753839 7:-0.81855 8:0.244398 9:0.333888 10:-0.912343 11:0.0942235 12:0.422713 13:-0.251037 14:0.375945 15:0.187 16:-0.165168 17:0.0779254 18:0.224032 
2 1:-0.189122 2:-0.229458 3:-0.470888 4:-0.128931 5:-0.227575 6:1 7:1 8:-0.740751 9:-0.211769 10:0.282494 11:-0.207915 12:-0.644718 13:-1 14:-0.22315 15:-0.2304 16:-0.96233 17:-0.773224 18:-0.137082 
0.75099294584812026 1:-0.415331 2:-0.35796 3:-0.692308 4:-0.615546 5:-0.209397 6:-0.394103 7:-0.967527 8:0.533626 9:-0.0468494 10:-0.74176 11:0.516869 12:0.55795 13:-0.0677775 14:0.27304 15:-0.00259933 16:-0.471449 17:-0.0858565 18:0.254469 
2 1:-0.295112 2:-0.108448 3:-0.937647 4:-0.0856937 5:-0.066796 6:-0.717364 7:-0.871637 8:0.135726 9:0.0938257 10:-0.81605 11:0.48974 12:0.187591 13:0.271151 14:0.217346 15:0.223953 16:0.108668 17:0.0851421 18:-0.0669371 
2 1:-0.253238 2:-0.335302 3:-0.116337 4:-0.237435 5:-0.329084 6:-0.237571 7:-0.184519 8:-0.230666 9:-0.288589 10:-0.500034 11:-0.222607 12:-0.00889102 13:0.11535 14:-0.116267 15:-0.187647 16:0.171752 17:-0.0110452 18:-0.0779413 
1.7533606216809487 1:-0.479907 2:0.112447 3:-0.939091 4:-0.103778 5:-0.420938 6:-0.877372 7:-0.868445 8:0.506109 9:0.395429 10:-0.930761 11:0.00404513 12:0.446186 13:-0.340098 14:0.389418 15:0.126798 16:0.26544 17:0.336562 18:0.140374 
2 1:0.08886 2:-0.380284 3:-0.36925 4:-0.126487 5:-0.704989 6:0.15862 7:-0.146742 8:-0.822777 9:-0.0128475 10:-0.381994 11:0.0684556 12:-0.254242 13:-0.886775 14:0.207974 15:0.00548729 16:-0.757076 17:-0.396914 18:-0.174826 
2 1:-0.293305 2:-0.62397 3:-0.286043 4:-0.714981 5:-0.458112 6:-0.29954 7:0.192037 8:-0.685168 9:-0.53499 10:-0.229885 11:0.051981 12:-0.324434 13:-0.294425 14:-0.685346 15:-0.508561 16:-0.626481 17:-0.417289 18:-0.396706 
2 1:-0.624796 2:-1 3:-0.445015 4:-0.0690158 5:-0.118638 6:-0.057307 7:-0.400344 8:-0.677281 9:-0.466769 10:-0.566145 11:-0.00483034 12:0.0180602 13:-0.181438 14:-0.742369 15:-0.621272 16:0.573828 17:0.0557882 18:-0.277102 
2 1:-0.374806 2:0.214227 3:-0.432802 4:0.234526 5:-0.53739 6:-0.527432 7:-0.0617753 8:-0.046547 9:0.312099 10:-0.31867 11:-0.115429 12:-0.473164 13:-0.16444 14:-0.520762 15:0.441043 16:-0.494968 17:-0.343896 18:0.530171 
2 1:-0.000305305 2:-0.227816 3:-0.0233457 4:-0.0506336 5:0.326832 6:-0.352336 7:-0.179014 8:-0.707558 9:-0.149478 10:0.0981105 11:0.520754 12:-0.574031 13:-0.544488 14:-0.180501 15:0.497997 16:-0.647722 17:-0.619653 18:-0.159436 
2 1:-0.0726826 2:-0.700484 3:-0.344344 4:-0.165668 5:0.136214 6:-0.264345 7:0.109999 8:-0.574978 9:-0.271305 10:-0.512377 11:0.0169674 12:-0.152672 13:0.0863851 14:0.0150602 15:-0.15957 16:-0.498583 17:0.151591 18:-0.122222 
2 1:-0.41236 2:0.415417 3:-0.734279 4:-0.0627874 5:-0.589595 6:-0.736776 7:-0.559341 8:0.478939 9:0.462454 10:-0.578713 11:0.196311 12:0.391858 13:-0.0927449 14:0.0460156 15:-0.23185 16:-0.25274 17:0.110244 18:0.376725 
2 1:-0.473289 2:-0.495668 3:-0.44688 4:-0.23106 5:-0.0693793 6:-0.445428 7:-0.633326 8:-0.300151 9:0.0449023 10:-0.467311 11:-0.267946 12:0.33843 13:-0.410952 14:0.268284 15:0.188147 16:-0.34009 17:0.469598 18:0.144434 
2 1:-0.515286 2:-0.590742 3:-0.167593 4:-0.331933 5:-0.0660859 6:-0.672019 7:-0.487227 8:-0.430444 9:-0.493943 10:-0.422314 11:-0.310743 12:-0.217238 13:-0.41626 14:-0.178544 15:-0.32108 16:0.295189 17:0.490968 18:-0.111186 
2 1:0.240785 2:-0.753602 3:-0.233151 4:-0.773734 5:-0.257718 6:-0.489258 7:-0.123877 8:-0.591481 9:-0.694969 10:-0.41098 11:-0.501501 12:-0.814079 13:-0.774231 14:-0.349401 15:-0.838647 16:-0.881234 17:-0.590795 18:-0.557671 
2 1:-0.353357 2:-0.381261 3:-0.501054 4:-0.486684 5:-0.85133 6:-0.594639 7:-0.163116 8:-0.511139 9:-0.458296 10:-0.733973 11:-0.0931963 12:-0.0212453 13:0.049498 14:-0.419674 15:-0.65563 16:0.0878102 17:0.0543956 18:-0.20157 
2 1:-0.506612 2:-0.247112 3:-0.200712 4:-0.0640338 5:-0.132342 6:0.172164 7:0.644053 8:-0.713748 9:0.046075 10:0.0469799 11:0.0472702 12:-0.0940307 13:-0.738257 14:-0.14733 15:-0.535755 16:-0.691862 17:-0.183291 18:-0.031045 
2 1:-0.151096 2:-0.17129 3:-0.526768 4:-0.0499209 5:-0.0452478 6:-0.333264 7:-0.343775 8:-0.215533 9:-0.18365 10:-0.89942 11:-0.133086 12:-0.123246 13:-0.229464 14:0.401079 15:0.0114656 16:-0.149744 17:0.364973 18:0.155149 
2 1:-0.535575 2:-0.256445 3:-0.190657 4:-0.0653576 5:-0.149069 6:0.182318 7:0.681447 8:-0.695283 9:0.0744861 10:0.0580606 11:0.0354303 12:-0.0902521 13:-0.762305 14:-0.169888 15:-0.50593 16:-0.682538 17:-0.181393 18:-0.0187746 
2 1:-0.269277 2:-0.707939 3:-0.540543 4:-0.326649 5:-0.316624 6:-0.278748 7:-0.0139611 8:-0.364075 9:-0.383657 10:-0.559891 11:-0.407491 12:0.0928993 13:-0.257142 14:-0.0682753 15:-0.865682 16:-0.113333 17:0.349649 18:-0.450788 
2 1:-0.205021 2:-0.149248 3:-0.366783 4:-0.312956 5:-0.92315 6:-0.506061 7:-0.303396 8:-0.581317 9:-0.445494 10:-0.184753 11:-0.295051 12:0.0586832 13:-0.434299 14:-0.359931 15:-0.48149 16:-0.826295 17:-0.31029 18:-0.231457 
2 1:-0.463092 2:-0.039156 3:-0.352219 4:-0.210449 5:-0.52029 6:-0.603554 7:-0.0104689 8:0.265281 9:-0.0133447 10:-0.288958 11:0.136952 12:0.0998061 13:0.22644 14:-0.144586 15:0.219509 16:-0.060449 17:0.134564 18:-0.048738 
2 1:-0.458002 2:0.321774 3:-0.484415 4:0.127289 5:-0.571151 6:-0.251666 7:-0.389071 8:0.0949177 9:0.142557 10:-0.672647 11:0.331462 12:-0.0255993 13:-0.236896 14:0.0975122 15:0.148539 16:-0.354232 17:0.00327191 18:0.181748 
2 1:0.130929 2:-0.610921 3:-0.465275 4:0.141725 5:-0.396619 6:-0.0146975 7:-0.255661 8:-0.508521 9:-0.114911 10:-0.566804 11:0.352813 12:-0.162361 13:-0.0809294 14:0.173885 15:0.00530623 16:-0.669457 17:-0.186776 18:0.218094 
2 1:-0.15042 2:-0.639175 3:-0.336977 4:-0.221912 5:-0.522208 6:-0.39903 7:-0.374488 8:0.0134191 9:-0.509096 10:-0.285681 11:-0.434502 12:-0.153147 13:0.0268748 14:-0.20911 15:-0.600631 16:-0.434588 17:0.200982 18:-0.429389 
2 1:-0.184626 2:-0.359016 3:-0.589234 4:-0.295073 5:-0.540974 6:-0.573624 7:-0.780385 8:-0.261527 9:-0.158994 10:-0.691738 11:-0.333028 12:0.317561 13:-0.107601 14:-0.0106896 15:-0.189928 16:-0.387933 17:-0.0166413 18:-0.244969 
2 1:-0.31917 2:0.307273 3:-0.811843 4:0.277537 5:-0.286437 6:-0.827282 7:-0.810428 8:0.255564 9:0.425493 10:-0.839434 11:0.240806 12:0.135478 13:-0.233395 14:0.154423 15:-0.160709 16:-0.515471 17:-0.346944 18:0.25537 
2 1:0.0367249 2:-0.202025 3:0.0587034 4:-0.172071 5:-0.258231 6:0.067024 7:0.705105 8:-0.405019 9:-0.342004 10:-0.336629 11:0.0110436 12:-0.161668 13:-0.306927 14:-0.0408361 15:-0.248958 16:-0.725502 17:-0.29776 18:-0.319773 
2 1:-0.381386 2:0.120127 3:-0.611063 4:0.0548957 5:-0.530204 6:-0.730748 7:-0.365862 8:0.388061 9:0.290856 10:-0.525624 11:0.415251 12:-0.128807 13:-0.2811 14:0.0110552 15:-0.22975 16:-0.623015 17:-0.303466 18:0.386062 
2 1:-0.250927 2:-0.242154 3:-0.600123 4:-0.594635 5:-0.527975 6:-0.83724 7:-0.627186 8:0.0891892 9:-0.0991067 10:-0.885522 11:0.0612597 12:0.550249 13:0.264947 14:-0.245456 15:-0.194605 16:-0.106435 17:0.28588 18:-0.360116 
2 1:-0.245451 2:-0.150301 3:-0.643187 4:-0.128648 5:-0.399687 6:-0.805296 7:-0.761942 8:-0.026082 9:-0.0279089 10:-0.806419 11:-0.298979 12:0.280685 13:-0.10897 14:-0.160759 15:-0.39106 16:0.149086 17:0.307901 18:-0.129712 
2 1:-0.593044 2:-0.11087 3:-0.427329 4:-0.291363 5:-0.186507 6:-0.436998 7:-0.262505 8:-0.416945 9:-0.182284 10:-0.61751 11:-0.108058 12:0.461676 13:-0.122051 14:-0.422872 15:-0.322842 16:0.121894 17:0.401575 18:-0.08396 
2 1:-0.030806 2:-0.263691 3:-0.229978 4:-0.0578295 5:-0.323102 6:-0.303971 7:-0.0534775 8:0.729542 9:-0.255376 10:-0.54912 11:0.0514658 12:0.177819 13:-0.311912 14:-0.143656 15:-0.397244 16:-0.258421 17:0.788928 18:-0.113663 
2 1:-0.548851 2:-0.876559 3:-0.459694 4:-0.884083 5:-0.637115 6:-0.923046 7:-0.351226 8:-0.606463 9:-0.870337 10:-0.729747 11:-0.518841 12:-0.66033 13:-0.243796 14:-1 15:-0.881355 16:-0.462868 17:0.0982051 18:-0.829411 
2 1:0.163657 2:-0.0650245 3:-0.101306 4:-0.548733 5:-0.199079 6:-0.658864 7:-0.0934592 8:0.096272 9:-0.443609 10:0.333791 11:-0.582601 12:-0.0660323 13:-0.505216 14:0.132259 15:0.439059 16:-0.619019 17:-0.190889 18:0.0654584 
2 1:-0.110707 2:-0.776805 3:-0.444706 4:-0.336889 5:-0.100084 6:0.102342 7:-0.348858 8:-0.360397 9:-0.395042 10:-0.586344 11:-0.534387 12:-0.275217 13:-0.0189106 14:-0.0302172 15:0.251356 16:0.519836 17:-0.0432245 18:0.120018 
2 1:-0.723798 2:-0.323984 3:-0.204848 4:-0.217235 5:-0.34917 6:0.164936 7:0.603457 8:-0.686019 9:-0.320665 10:-0.025837 11:0.44551 12:-0.228656 13:-0.687804 14:-0.395724 15:-0.558429 16:-0.228967 17:-0.229581 18:-0.272933 
2 1:-0.494509 2:-0.668989 3:-0.0670771 4:-0.335734 5:-0.555312 6:-0.340694 7:-0.214429 8:-0.473929 9:-0.256702 10:0.173645 11:0.148486 12:0.165686 13:0.00353593 14:-0.387236 15:-0.212795 16:-0.738251 17:-0.154429 18:-0.215436 
2 1:-0.452902 2:0.0434198 3:-0.758094 4:-0.245089 5:-0.29106 6:-0.859361 7:-0.811947 8:0.262555 9:-0.0358754 10:-0.773613 11:0.216906 12:0.485906 13:-0.200584 14:0.00281097 15:-0.685369 16:-0.202762 17:0.490149 18:-0.179702 
2 1:-0.194067 2:0.12461 3:-0.532747 4:-0.055904 5:-0.2152 6:-0.598884 7:-0.405419 8:0.217973 9:-0.0784532 10:-0.448368 11:0.0403345 12:-0.160942 13:-0.253399 14:-0.0567213 15:0.611784 16:-0.381159 17:0.055107 18:-0.062909 
2 1:0.247651 2:-0.865709 3:-0.565827 4:-0.221619 5:0.424132 6:-0.504423 7:-0.0509862 8:-0.467649 9:-0.685629 10:-0.674127 11:-0.240864 12:-0.829345 13:-0.0532336 14:-0.0217359 15:-0.414734 16:-0.34276 17:-0.0860843 18:-0.413252 
2 1:-0.382522 2:-0.265431 3:-0.718918 4:-0.125482 5:-0.193276 6:-0.495194 7:-0.619502 8:-0.0506189 9:0.109055 10:-0.757165 11:0.363179 12:0.309064 13:0.0422754 14:0.209831 15:0.0530487 16:-0.322918 17:0.224138 18:0.083493 
2 1:-0.613552 2:-0.771554 3:-0.224314 4:-0.178375 5:-0.532972 6:0.0510694 7:0.0524502 8:-0.76624 9:-0.0799858 10:-0.176815 11:0.249814 12:0.263773 13:0.202394 14:0.0560451 15:-0.457193 16:-0.649807 17:0.215004 18:0.494287 
2 1:-0.408373 2:-0.582833 3:-0.383642 4:-0.710604 5:-0.672457 6:-0.452543 7:-0.428744 8:-0.834387 9:-0.726804 10:-0.126124 11:-0.403657 12:-0.66856 13:-0.553813 14:-0.784749 15:-1 16:-0.564505 17:-0.580723 18:-0.625615 
2 1:-0.575702 2:-0.73319 3:-0.673319 4:0.216859 5:0.50233 6:-0.20665 7:-0.137582 8:-0.208504 9:0.029876 10:-0.32534 11:-0.0989787 12:0.542011 13:-0.137959 14:-0.213556 15:0.106728 16:-0.126674 17:0.582564 18:-0.121948 
2 1:-0.154428 2:0.104075 3:-0.347282 4:-0.499826 5:-0.469017 6:-0.293297 7:-0.571082 8:0.0911524 9:-0.525135 10:-0.786963 11:-0.575069 12:0.0630836 13:0.916697 14:-0.477975 15:0.645729 16:-0.369866 17:0.920226 18:-0.356138 
2 1:-0.25576 2:-0.359058 3:-0.519912 4:0.241806 5:-0.275871 6:-0.408291 7:-0.415009 8:-0.153021 9:-0.416202 10:-0.55556 11:-0.114817 12:-0.145688 13:0.114318 14:-0.202859 15:-0.583631 16:-0.524331 17:0.226145 18:-0.16993 
2 1:-0.350126 2:-0.510306 3:-0.0250121 4:0.15606 5:-0.668917 6:-0.316454 7:-0.536024 8:-0.308892 9:-0.248627 10:-0.424817 11:-0.152232 12:0.256017 13:-0.0855769 14:-0.292123 15:0.132355 16:-0.242052 17:0.418764 18:-0.0799836 
2 1:-0.406405 2:-0.0791005 3:-0.752887 4:-0.200539 5:-0.171572 6:-0.7329 7:-0.780473 8:0.0597219 9:0.113869 10:-0.834049 11:-0.0032495 12:0.209503 13:0.0891658 14:-0.0415295 15:-0.0796771 16:0.00743903 17:0.318355 18:0.117346 
2 1:-0.129754 2:-0.194151 3:-0.124154 4:-0.848121 5:1 6:-0.32627 7:-0.388063 8:-0.144081 9:-0.58451 10:-0.443214 11:-0.641449 12:-0.423463 13:0.718163 14:-0.392684 15:-0.257701 16:-0.381812 17:-0.513176 18:-0.223551 
2 1:0.226457 2:-0.803117 3:-0.581809 4:-0.215221 5:-0.32794 6:-0.68839 7:-0.567784 8:-0.68366 9:-0.237373 10:-0.403187 11:-0.508919 12:0.325681 13:-0.169829 14:-0.325932 15:-0.245931 16:-0.0083224 17:0.261459 18:-0.356201 
2 1:-0.264406 2:-0.238362 3:-0.309558 4:-0.17591 5:-0.418697 6:-0.224944 7:0.0335256 8:-0.335234 9:-0.00745498 10:-0.136065 11:0.236725 12:-0.24817 13:-0.269584 14:-0.231977 15:-0.349939 16:-0.68802 17:-0.129773 18:0.151334 
2 1:0.292054 2:-0.181627 3:-0.456104 4:0.234357 5:-0.430292 6:-0.214737 7:9.25012e-05 8:-0.429712 9:-0.0258636 10:-0.173408 11:-0.0175521 12:-0.0807004 13:0.137931 14:0.440286 15:0.188754 16:-0.581577 17:-0.172246 18:0.0257189 
2 1:-0.172351 2:-0.285158 3:-0.0850405 4:-0.329241 5:-0.149269 6:-0.357547 7:-0.32606 8:-0.443369 9:-0.185564 10:-0.402077 11:0.169355 12:0.4892 13:-0.498823 14:0.211448 15:-0.0818042 16:-0.0550865 17:0.0471561 18:-0.473813 
2 1:-0.0344744 2:-0.542611 3:-0.714537 4:0.49196 5:-0.839014 6:-0.376349 7:-0.536295 8:-0.101968 9:-0.275926 10:-0.834604 11:-0.38759 12:0.348173 13:0.37652 14:-0.0280038 15:0.440655 16:0.33684 17:0.645907 18:-0.035003 
2 1:-0.473935 2:-0.482881 3:-0.202374 4:0.189583 5:-0.627351 6:-0.259865 7:-0.188521 8:-0.531145 9:0.0579314 10:-0.338285 11:0.115351 12:0.229667 13:-0.0514289 14:-0.212601 15:-0.0978722 16:0.0154279 17:0.26519 18:-0.0711877 
2 1:0.00373029 2:-0.527825 3:-0.458847 4:-0.0723104 5:0.387299 6:-0.141733 7:-0.13527 8:-0.397836 9:-0.111284 10:-0.228893 11:0.0316913 12:0.0165607 13:0.172761 14:0.132827 15:-0.0392138 16:-0.560833 17:-0.0447168 18:-0.046072 
2 1:0.262181 2:-0.0120951 3:-0.405853 4:-0.469221 5:-0.38323 6:-0.319588 7:-0.474842 8:-0.191251 9:-0.251278 10:-0.498043 11:0.00484934 12:-0.530309 13:0.392416 14:0.129764 15:0.16339 16:-0.604114 17:-0.606656 18:-0.043844 
2 1:-0.306098 2:-0.0715853 3:-0.420433 4:0.10319 5:-0.263359 6:-0.591451 7:-0.584813 8:0.135634 9:0.0974283 10:-0.594598 11:0.0289779 12:0.196529 13:-0.10671 14:0.151813 15:-0.0178084 16:-0.191957 17:0.13544 18:0.0050638 
2 1:-0.386853 2:-0.322818 3:-0.788607 4:0.018924 5:-0.556691 6:-0.811796 7:-0.456004 8:-0.0552616 9:-0.0965209 10:-0.65246 11:0.408476 12:0.408436 13:-0.087703 14:0.441266 15:-0.0319245 16:-0.528127 17:0.502696 18:-0.0701814 
2 1:-0.407025 2:0.0182527 3:-0.49737 4:-0.322915 5:-0.133118 6:-0.474975 7:-0.543654 8:-0.0116148 9:-0.0231189 10:-0.568693 11:0.038705 12:0.172304 13:-0.23938 14:0.246139 15:-0.161476 16:-0.455827 17:-0.00822079 18:0.255729 
2 1:-0.516608 2:-0.0589916 3:-0.769696 4:-0.317041 5:-0.296457 6:-0.554535 7:-0.652202 8:-0.197592 9:0.0207911 10:-0.724551 11:0.0170557 12:0.263052 13:0.0908263 14:-0.276281 15:-0.309134 16:-0.202827 17:0.52546 18:-0.167292 
2 1:-0.322134 2:-0.627546 3:-0.518316 4:-0.411815 5:-0.294676 6:-0.16133 7:0.167852 8:-0.775995 9:0.249957 10:-0.227565 11:-0.272595 12:0.0932015 13:-0.41661 14:0.07694 15:0.45914 16:-0.133928 17:0.146865 18:0.336728 
2 1:-0.743379 2:-0.433565 3:-0.122332 4:0.471543 5:-0.304306 6:-0.34453 7:0.229518 8:0.195743 9:-0.144772 10:0.226117 11:-0.274882 12:-0.0618005 13:-0.713334 14:-0.970181 15:-0.88367 16:-0.505632 17:-0.0404413 18:-0.238872 
2 1:-0.425078 2:0.0984395 3:-0.79452 4:0.0443492 5:-0.454902 6:-0.857363 7:-0.699245 8:0.132952 9:0.334396 10:-0.631143 11:0.217741 12:0.684231 13:-0.376041 14:0.508822 15:0.261523 16:-0.0220686 17:0.262666 18:-0.00587094 
2 1:-0.241968 2:0.0462259 3:-0.586015 4:-0.0670757 5:-0.352394 6:-0.367601 7:-0.555251 8:0.256425 9:0.120583 10:-0.561713 11:0.0798748 12:-0.246681 13:-0.783584 14:0.0275015 15:0.158637 16:-0.200854 17:0.383831 18:0.177957 
2 1:-0.0896927 2:-0.290659 3:-0.596134 4:0.264711 5:-0.300862 6:-0.309722 7:-0.275872 8:-0.276542 9:-0.0464301 10:-0.452872 11:-0.275549 12:-0.0501758 13:-0.160524 14:0.0524759 15:0.326337 16:-0.396886 17:0.128965 18:0.0230941 
2 1:-0.227951 2:0.0480761 3:-0.713187 4:-0.107603 5:-0.352799 6:-0.73319 7:-0.698065 8:0.269474 9:0.0609465 10:-0.874902 11:-0.047942 12:0.171077 13:-0.0860149 14:0.376997 15:0.442227 16:0.211403 17:0.50948 18:0.00695548 
2 1:-0.438734 2:0.678311 3:-0.17152 4:-0.0528304 5:-0.185264 6:-0.287104 7:-0.266744 8:0.227667 9:0.0849979 10:-0.636543 11:0.232469 12:-0.0454411 13:0.415448 14:-0.207894 15:-0.0154413 16:0.304 17:0.327452 18:-0.0293015 
2 1:-0.285411 2:-0.630685 3:-0.563692 4:-0.0550144 5:0.243242 6:0.397528 7:-0.185152 8:-0.609304 9:-0.52801 10:-0.56243 11:0.0919143 12:-0.421004 13:-0.262812 14:-0.189018 15:-0.1314 16:0.592345 17:0.0839302 18:-0.204947 
2 1:-0.477806 2:-0.41661 3:-0.196626 4:-0.194029 5:-0.394999 6:-0.270174 7:-0.556926 8:0.58568 9:-0.0226136 10:-0.318443 11:0.176824 12:0.126016 13:-0.0767153 14:-0.314747 15:0.176395 16:-0.611315 17:0.17014 18:-0.0716844 
2 1:-0.447991 2:-0.748915 3:-0.0785704 4:0.154309 5:-0.0439199 6:-0.155587 7:-0.191604 8:-0.137911 9:0.0347511 10:-0.380274 11:-0.119201 12:-0.0367375 13:0.0382183 14:-0.335856 15:-0.049773 16:-0.199175 17:0.0825783 18:0.0969258 
2 1:-0.149846 2:-0.617242 3:-0.507773 4:-0.52493 5:-0.613012 6:-0.498023 7:-0.129175 8:-0.42572 9:-0.477376 10:-0.123982 11:-0.230873 12:-0.359418 13:-0.298769 14:-0.47679 15:-0.80078 16:-0.63738 17:-0.0312698 18:-0.262291 
2 1:-0.37297 2:-0.144759 3:-0.446532 4:-0.000946324 5:-0.178441 6:-0.69632 7:-0.370546 8:-0.595412 9:-0.133604 10:-0.591349 11:-0.169299 12:0.0833194 13:-0.176606 14:-0.192709 15:0.068815 16:-0.346973 17:-0.0464818 18:-0.0172434 
2 1:-0.360764 2:-0.631235 3:-0.595243 4:-0.0736817 5:-0.738267 6:-0.593702 7:-0.481738 8:-0.590749 9:-0.25428 10:-0.497798 11:-0.0423664 12:0.216813 13:0.220465 14:-0.395083 15:-0.257284 16:0.113872 17:0.56817 18:-0.334924 
2 1:-0.427501 2:-0.24521 3:-0.272629 4:-0.422792 5:0.0222563 6:-0.275758 7:-0.269124 8:-0.256427 9:-0.326981 10:-0.559503 11:-0.247135 12:0.0319501 13:0.380416 14:-0.118717 15:-0.165719 16:-0.149396 17:-0.201285 18:0.0842498 
2 1:-0.472452 2:-0.676375 3:-0.288341 4:-0.0108104 5:-0.703447 6:-0.450921 7:0.0446864 8:-0.463917 9:-0.175856 10:-0.188525 11:-0.163991 12:0.332009 13:0.0328028 14:-0.168983 15:-0.157046 16:0.0707727 17:0.0561727 18:0.129448 
2 1:-0.282093 2:-0.449107 3:-0.0118989 4:-0.155701 5:-0.156818 6:-0.0287507 7:0.486382 8:-0.7609 9:-0.115259 10:-0.238981 11:0.176555 12:-0.162947 13:-0.407753 14:0.0293664 15:-0.126875 16:-0.495659 17:-0.420107 18:-0.232471 
2 1:-0.383763 2:-0.433908 3:-0.331405 4:-0.178525 5:-0.12892 6:-0.354997 7:-0.0265343 8:-0.201934 9:-0.00812262 10:-0.434971 11:0.0101345 12:0.0634492 13:0.397955 14:-0.239911 15:-0.141442 16:-0.115975 17:0.14786 18:-0.0262346 
2 1:-0.39755 2:-0.335455 3:0.136189 4:-0.495149 5:-0.485512 6:-0.709878 7:-0.266288 8:-0.261875 9:-0.518804 10:-0.0893688 11:-0.348379 12:-0.160708 13:-0.33287 14:-0.524709 15:-0.132396 16:-0.589635 17:-0.224435 18:-0.13904 
2 1:-0.387597 2:-0.792073 3:-0.630503 4:0.43374 5:0.518185 6:-0.622299 7:-0.242278 8:-0.367128 9:-0.18959 10:-0.365281 11:0.202938 12:1 13:-0.020029 14:-0.053497 15:0.213692 16:0.417695 17:0.364066 18:-0.336538 
2 1:0.00424978 2:-0.691283 3:-0.497062 4:0.0152774 5:-0.695064 6:-0.335966 7:-0.709224 8:-0.00762937 9:-0.609321 10:-0.810492 11:0.144858 12:0.140738 13:-0.0556924 14:-0.246036 15:-0.66841 16:-0.514201 17:0.18874 18:-0.374382 
2 1:-0.580305 2:-0.114139 3:-0.116269 4:0.176471 5:-0.530337 6:-0.279208 7:0.273995 8:-0.408766 9:0.345277 10:-0.539605 11:0.281412 12:0.417532 13:-0.468239 14:-0.0498841 15:-0.573358 16:-0.24914 17:0.0147785 18:0.0666137 
2 1:-0.500561 2:-0.352999 3:-0.394612 4:-0.146289 5:-0.0724496 6:-0.0411692 7:-0.0383888 8:-0.433851 9:-0.0784451 10:-0.288372 11:-0.183725 12:0.148874 13:-0.381275 14:-0.30457 15:-0.20247 16:-0.496729 17:0.310173 18:-0.176905 
2 1:-0.416591 2:-0.275007 3:-0.701028 4:0.00743623 5:-0.202103 6:-0.639321 7:-0.4763 8:-0.0564655 9:0.0734251 10:-0.578671 11:0.253952 12:0.344352 13:-0.0525694 14:0.130523 15:-0.38788 16:-0.0991818 17:0.164033 18:0.0148353 
2 1:-0.285404 2:-0.797999 3:-0.40252 4:-0.27468 5:-0.317926 6:-0.596285 7:-0.145686 8:-0.872757 9:-0.643686 10:-0.0314513 11:0.127636 12:0.0443338 13:0.408212 14:-0.248404 15:-0.72099 16:0.108865 17:0.679149 18:-0.806815 
2 1:-0.238689 2:0.416061 3:-0.107345 4:0.349507 5:-0.450159 6:-0.266085 7:-0.146296 8:-0.369294 9:0.132812 10:-0.419295 11:-0.25369 12:-0.0848746 13:-0.255926 14:-0.186726 15:0.117315 16:-0.41896 17:-0.0638775 18:0.133363 
2 1:-0.39423 2:-0.353757 3:-0.471969 4:-0.458533 5:-0.00304393 6:-0.441687 7:0.0257778 8:0.0194446 9:-0.27481 10:-0.619052 11:-0.175426 12:0.116651 13:0.250485 14:-0.0457366 15:0.0702924 16:-0.182393 17:-0.0736962 18:-0.0102853 
2 1:-0.19817 2:-0.540942 3:-0.450576 4:-0.346988 5:-0.00870731 6:-0.569608 7:-0.212892 8:-0.415703 9:-0.400288 10:0.213811 11:-0.483574 12:-0.321903 13:-0.11309 14:-0.363323 15:-0.26829 16:-0.10486 17:-0.0945715 18:-0.254961 
2 1:0.180568 2:-0.868479 3:-0.445756 4:-0.601732 5:-0.493355 6:-0.400846 7:0.0805341 8:-0.524542 9:-0.482403 10:-0.571317 11:-0.199828 12:-0.48054 13:-0.472787 14:-0.793633 15:-0.889408 16:-0.669074 17:-0.0487919 18:-0.399736 
2 1:-0.341445 2:-0.341082 3:-0.652903 4:-0.493176 5:-0.128638 6:-0.668218 7:-0.699471 8:0.390729 9:0.106473 10:-0.705573 11:-0.0613643 12:0.310851 13:-0.443794 14:0.127997 15:-0.123179 16:-0.0333406 17:0.251502 18:0.0282684 
2 1:-0.785662 2:0.371997 3:-0.412155 4:0.051987 5:0.0740114 6:0.0503531 7:0.492195 8:-0.553471 9:-0.0213159 10:0.0432035 11:0.123592 12:0.142403 13:-0.536704 14:-0.437453 15:-0.574698 16:-0.356753 17:0.481147 18:-0.236574 
2 1:-0.614084 2:-0.262678 3:-0.385646 4:0.0908333 5:0.0317725 6:-0.294243 7:-0.0589284 8:-0.603611 9:-0.312514 10:-0.086941 11:-0.237953 12:0.400771 13:0.504311 14:-0.56186 15:-0.24559 16:-0.571132 17:0.305293 18:-0.145112 
2 1:-0.557927 2:0.430926 3:-0.542492 4:-0.231627 5:-0.459996 6:-0.680592 7:-0.61255 8:0.341499 9:0.508226 10:-0.756939 11:0.447581 12:0.257407 13:0.0537961 14:0.083338 15:-0.245667 16:-0.417787 17:-0.342499 18:0.263073 
2 1:-0.550546 2:0.328917 3:-0.821837 4:-0.152533 5:-0.124074 6:-0.709674 7:-0.661027 8:-0.184407 9:-0.215617 10:-0.654949 11:0.554867 12:0.314755 13:0.0462265 14:-0.0150033 15:0.314592 16:0.00186934 17:-0.205006 18:0.120383 
2 1:-0.679689 2:-0.71835 3:-0.669688 4:0.147663 5:-0.275336 6:-0.388168 7:-0.67357 8:-0.300475 9:-0.196476 10:-0.621602 11:0.402424 12:0.485352 13:-0.318506 14:-0.113551 15:0.137419 16:0.153014 17:0.775813 18:-0.236627 
2 1:-0.0939566 2:-0.272311 3:-0.433021 4:0.259 5:0.0745091 6:-0.384883 7:-0.0876235 8:-0.203512 9:0.148377 10:-0.479072 11:0.0683523 12:-0.0670101 13:0.151996 14:-0.119325 15:0.0817917 16:-0.563461 17:-0.0891046 18:0.131883 
2 1:0.265442 2:-0.322012 3:-0.482685 4:-0.513723 5:-0.520566 6:0.123013 7:-0.809434 8:0.590419 9:-1 10:-0.825659 11:-0.223314 12:-0.346595 13:0.586378 14:0.127551 15:0.0573943 16:-0.472909 17:0.755194 18:-0.876329 
2 1:-0.186622 2:-0.373899 3:-0.291386 4:-0.322089 5:-0.430817 6:-0.575759 7:-0.168322 8:-0.518069 9:-0.00650612 10:-0.378193 11:-0.160406 12:-0.109598 13:-0.352325 14:-0.150348 15:0.0203701 16:-0.690666 17:0.0644853 18:0.108209 
2 1:-0.25848 2:-0.359103 3:-0.367482 4:-0.638747 5:-0.579924 6:-0.452789 7:-0.213632 8:-0.295097 9:-0.195639 10:-0.624864 11:-0.109279 12:-0.042254 13:0.094256 14:0.00326767 15:-0.186739 16:-0.597141 17:-0.364073 18:0.0336987 
2 1:-0.388645 2:-0.645107 3:-0.424501 4:-0.272266 5:-0.407514 6:-0.47242 7:-0.0476485 8:-0.494182 9:-0.265893 10:-0.298327 11:-0.308052 12:0.106873 13:-0.0852947 14:-0.30397 15:-0.390359 16:-0.0435909 17:-0.00350728 18:-0.182417 
-2 1:0.0307751 2:-0.211673 3:-0.65306 4:0.360978 5:-0.0936981 6:-0.428226 7:-0.240852 8:0.803295 9:-0.0154674 10:0.020055 11:-0.0691498 12:0.64426 13:-0.656825 14:0.0984296 15:1 16:0.0420761 17:0.510733 18:0.19601 
-2 1:-0.266818 2:-0.474225 3:-0.588555 4:-0.31547 5:0.058045 6:-0.3371 7:0.124251 8:-0.323181 9:-0.148209 10:-0.336197 11:0.272164 12:0.0720351 13:0.289383 14:0.0890277 15:-0.183648 16:-0.320251 17:0.157901 18:-0.0267239 
-2 1:-0.457666 2:-0.477601 3:-0.370468 4:-0.41051 5:-0.712445 6:-0.490449 7:-0.538324 8:-0.217941 9:-0.302075 10:-0.476509 11:0.400557 12:-0.252006 13:-0.135254 14:-0.510898 15:-0.525704 16:0.289401 17:-0.0358035 18:-0.215047 
-2 1:0.0904453 2:0.0368622 3:-0.381623 4:-0.0498915 5:-0.266719 6:-0.262417 7:-0.212647 8:0.413097 9:0.105439 10:-0.594402 11:0.177851 12:-0.397001 13:-0.565513 14:0.180823 15:0.384648 16:-0.514656 17:-0.294586 18:0.0812718 
-2 1:1 2:-0.574054 3:-0.659257 4:-0.53862 5:-0.78361 6:-0.724997 7:-0.293909 8:-0.930514 9:-0.80105 10:-0.72432 11:-0.211526 12:-0.119927 13:-0.0775242 14:-0.160079 15:-0.498102 16:-0.681171 17:-0.437355 18:-0.558649 
-2 1:0.505469 2:-0.810705 3:-0.288299 4:-0.737345 5:-0.603541 6:-0.402622 7:-0.303085 8:-0.896438 9:-0.832708 10:-0.46784 11:-0.629347 12:-0.900186 13:-0.552269 14:-0.657867 15:-0.769289 16:-0.842736 17:-0.850474 18:-0.686039 
-2 1:-0.507034 2:-0.689746 3:-0.2819 4:0.126241 5:-0.393345 6:-0.49528 7:-0.203995 8:0.153836 9:-0.105519 10:-0.217624 11:0.423624 12:0.116657 13:-0.09558 14:-0.299432 15:-0.0800302 16:-0.398486 17:-0.00317972 18:0.211116 
-2 1:-0.206567 2:-0.179394 3:-0.210602 4:-0.104944 5:-0.706695 6:-0.408461 7:-0.114738 8:0.303522 9:-0.217716 10:-0.326103 11:-0.164261 12:0.0142262 13:-0.325894 14:-0.076826 15:-0.0686096 16:-0.160169 17:0.277463 18:0.0536472 
-2 1:-0.388679 2:0.474683 3:-0.326229 4:-0.470576 5:0.0870006 6:-0.479932 7:-0.442568 8:0.00470991 9:-0.0611016 10:-0.460636 11:0.0808833 12:-0.0528403 13:0.357394 14:-0.0291691 15:-0.685071 16:-0.535762 17:0.2628 18:0.0875559 
-2 1:-0.140933 2:-0.2394 3:-0.0599562 4:-0.563685 5:-0.358522 6:-0.286005 7:-0.270166 8:-0.878944 9:-0.538986 10:-0.29626 11:0.0557655 12:-0.333212 13:-0.00398838 14:-0.57487 15:-0.316309 16:-0.406872 17:-0.395569 18:-0.247275 
-2 1:-0.145141 2:-0.269778 3:-0.348213 4:-0.111276 5:-0.191174 6:-0.495285 7:-0.241414 8:0.149656 9:0.199128 10:-0.566139 11:0.0122825 12:-0.524662 13:0.285168 14:-0.17285 15:0.166098 16:-0.752168 17:-0.462671 18:0.242553 
-2 1:-0.549127 2:-0.175984 3:-0.385563 4:-0.299062 5:-0.305161 6:-0.724756 7:-0.30566 8:-0.139471 9:-0.0977382 10:-0.186071 11:-0.0234769 12:0.229834 13:0.705475 14:0.0528107 15:-0.00270421 16:-0.143517 17:-0.0308012 18:0.113981 
-2 1:-0.728444 2:-0.295065 3:-0.204788 4:0.158097 5:-0.542111 6:-0.608768 7:-0.0745686 8:0.155912 9:-0.247217 10:-0.683499 11:-0.177454 12:0.174528 13:0.135326 14:-0.332867 15:-0.161899 16:0.0983058 17:0.505945 18:0.0343387 
-2 1:-0.448162 2:-0.159252 3:-0.532021 4:-0.101194 5:-0.459212 6:-0.424523 7:-0.0782036 8:0.00420832 9:-0.137145 10:-0.354796 11:0.229369 12:0.0551189 13:0.0765684 14:-0.182608 15:-0.384369 16:-0.0591629 17:0.346663 18:0.0366015 
-2 1:-0.412297 2:-0.930189 3:-0.00743537 4:0.147914 5:-0.332448 6:-0.571381 7:-0.530235 8:-0.326447 9:-0.21006 10:-0.428993 11:-0.0875674 12:0.173735 13:0.243032 14:-0.399987 15:-0.623498 16:-0.362023 17:0.442502 18:-0.202451 
-2 1:-0.138429 2:-0.23882 3:-0.763299 4:1 5:-0.602957 6:-0.490176 7:-0.692406 8:0.409461 9:-0.172902 10:-0.48984 11:-0.449835 12:0.535089 13:0.488675 14:-0.0103578 15:0.0401754 16:-0.699715 17:-0.279331 18:0.615666 
-2 1:-0.690531 2:-0.681371 3:-0.0588681 4:-0.557452 5:-0.654835 6:-0.340301 7:-0.0533394 8:-0.905124 9:-0.473539 10:-0.499251 11:-0.228162 12:-0.401911 13:-0.572483 14:-0.670611 15:-0.789417 16:-0.0697928 17:-0.487254 18:-0.569125 
-2 1:-0.352256 2:-0.314361 3:-0.0603503 4:0.0849356 5:-0.588395 6:-0.0859802 7:0.597747 8:-0.712132 9:0.245626 10:-0.115899 11:0.415502 12:-0.320667 13:-0.86001 14:0.0349691 15:0.12886 16:-0.702023 17:-0.495293 18:0.0231387 
-2 1:-0.359843 2:-0.52941 3:-0.462567 4:0.0563166 5:-0.157831 6:-0.0852639 7:0.0305514 8:-0.449246 9:0.0281709 10:-0.319765 11:0.26984 12:0.060605 13:-0.14549 14:-0.135502 15:0.035182 16:-0.0400241 17:0.0163749 18:-0.0421983 
-2 1:-0.368938 2:-0.384795 3:-0.417674 4:-0.117574 5:0.0774947 6:-0.202068 7:-0.281694 8:0.0169158 9:-0.0022687 10:-0.287251 11:-0.15536 12:0.698084 13:0.191467 14:-0.211727 15:-0.146685 16:-0.119816 17:0.389616 18:0.103152 
-2 1:-0.166755 2:0.126874 3:-0.492781 4:0.192088 5:-0.445642 6:-0.528007 7:-0.186174 8:0.171257 9:-0.133189 10:-0.447928 11:-0.211364 12:-0.0529264 13:0.213342 14:-0.0510156 15:0.304624 16:-0.471754 17:-0.0449976 18:-0.161018 
-2 1:0.0221687 2:-0.337449 3:-0.397238 4:-0.509837 5:-0.718335 6:-0.301948 7:-1 8:-0.125917 9:-0.188805 10:-0.680859 11:-0.324673 12:-0.00798314 13:-0.0601693 14:-0.0342279 15:-0.0887891 16:0.190753 17:0.182235 18:-0.326289 
-2 1:-0.797395 2:-0.108587 3:0.0405736 4:-0.644858 5:-0.413954 6:-0.644899 7:-0.362327 8:0.261054 9:-0.398957 10:-0.890555 11:-0.443309 12:-0.17015 13:-0.134885 14:-0.743414 15:-0.220226 16:-0.13374 17:-0.0763093 18:0.214301 
-2 1:-0.385968 2:-0.17419 3:-0.204067 4:-0.158705 5:-0.0326045 6:-0.315318 7:0.176961 8:-0.29618 9:0.0291752 10:-0.169164 11:0.119273 12:0.273507 13:-0.0256775 14:-0.155896 15:-0.128208 16:-0.382405 17:0.0277324 18:0.142841 
-2 1:-0.440577 2:-0.269666 3:-0.357884 4:-0.424457 5:-0.501633 6:0.236437 7:0.00896916 8:0.123599 9:-0.00843472 10:-0.239837 11:0.259484 12:0.161107 13:-0.611184 14:-0.235585 15:-0.561859 16:-0.415866 17:-0.219565 18:0.137568 
-2 1:-0.197218 2:-0.0147105 3:-0.459137 4:-0.0926343 5:0.165124 6:-0.558121 7:-0.209171 8:-0.0164645 9:0.0402564 10:-0.476273 11:-0.0147587 12:-0.40223 13:0.0628838 14:0.164845 15:-0.0096264 16:-0.266709 17:-0.373492 18:0.449768 
-2 1:-0.691688 2:-0.671243 3:-0.566434 4:0.501405 5:-0.512418 6:-0.658071 7:-0.596189 8:-0.180608 9:0.26481 10:-0.264645 11:0.277073 12:0.259476 13:-0.204774 14:-0.0499831 15:-0.613815 16:-0.0796312 17:0.864368 18:-0.0836287 
-2 1:-0.0411483 2:-0.171072 3:-0.328257 4:-0.416883 5:-0.401112 6:-0.223056 7:-0.0502543 8:-0.250403 9:-0.31392 10:-0.417228 11:-0.121654 12:-0.464317 13:0.62435 14:-0.166086 15:-0.24361 16:-0.619202 17:-0.419844 18:-0.126613 
-2 1:-0.38496 2:-0.497241 3:-0.532617 4:-0.470784 5:-0.554299 6:-0.668849 7:-0.277673 8:-0.259009 9:-0.335501 10:-0.408253 11:-0.348265 12:0.00221589 13:-0.36911 14:-0.51169 15:-0.53312 16:-0.420356 17:0.0135786 18:-0.287595 
-2 1:-0.217646 2:0.0194922 3:-0.361223 4:-0.262653 5:-0.189638 6:-0.543348 7:-0.0158764 8:-0.321909 9:-0.0999682 10:-0.46474 11:-0.10467 12:0.244772 13:-0.0288819 14:0.251139 15:-0.318717 16:-0.554335 17:0.26268 18:0.448739 
-2 1:-0.619791 2:0.123474 3:-0.558273 4:-0.149404 5:0.016686 6:-0.760948 7:-0.272539 8:0.106976 9:0.0357155 10:-0.135893 11:0.301923 12:0.179263 13:-0.459545 14:-0.232139 15:-0.228024 16:-0.510222 17:-0.0514507 18:0.357488 
-2 1:-0.820101 2:-0.297794 3:-0.176532 4:0.0587186 5:-0.166637 6:-0.426476 7:0.0159584 8:-0.294942 9:-0.0732392 10:0.139431 11:0.870378 12:0.738782 13:0.0168977 14:-0.421938 15:-0.317541 16:-0.16736 17:0.816028 18:-0.414397 
-2 1:-0.154154 2:-0.264757 3:-0.66218 4:-0.633529 5:-0.838086 6:-0.747718 7:-0.183076 8:-0.395362 9:-0.65951 10:-0.0757246 11:-0.624813 12:-0.356919 13:-0.497752 14:-0.656711 15:-0.244417 16:-0.881074 17:-0.645501 18:-0.460046 
-2 1:-0.513036 2:-0.426126 3:-0.427023 4:-0.0801265 5:-0.020071 6:-0.211178 7:0.037072 8:-0.657777 9:-0.00411853 10:-0.22469 11:0.134793 12:0.126784 13:-0.190359 14:-0.386712 15:-0.46671 16:-0.3293 17:0.401299 18:-0.1632 
-2 1:0.116711 2:-0.628051 3:-0.55303 4:-0.816912 5:-1 6:-0.51996 7:-0.472145 8:-1 9:-0.66787 10:-0.690761 11:-0.267821 12:-0.434064 13:-0.0666404 14:0.0140837 15:0.00730618 16:-0.56196 17:-0.265103 18:-0.651238 
-2 1:-0.192672 2:0.0420748 3:-0.528233 4:0.204024 5:-0.128598 6:-0.161903 7:-0.359462 8:-0.404147 9:-0.113463 10:-0.290046 11:0.145099 12:-0.185502 13:0.0875358 14:0.000673985 15:-0.36808 16:-0.444354 17:-0.133264 18:0.241669 
-2 1:-0.0967131 2:0.589175 3:-0.334593 4:-0.304242 5:-0.428411 6:-0.293129 7:-0.488886 8:0.119933 9:-0.171953 10:-0.28504 11:0.336029 12:0.0496203 13:-0.0768926 14:0.222651 15:0.227111 16:-0.497307 17:-0.0212603 18:-0.0183209 
-2 1:-0.333322 2:-0.247473 3:-0.525963 4:0.199058 5:0.276989 6:-0.496988 7:-0.172018 8:-0.00700977 9:0.0994127 10:-0.350478 11:-0.206276 12:-0.0164317 13:-0.160389 14:-0.60544 15:-0.565652 16:-0.45318 17:-0.0404383 18:0.276024 
-2 1:-0.445459 2:-0.426798 3:-0.0935755 4:-0.166918 5:-0.0187166 6:-0.500624 7:0.0837507 8:0.256458 9:0.114576 10:-0.319222 11:0.602938 12:0.105435 13:-0.527147 14:-0.188827 15:0.344591 16:-0.559327 17:-0.171587 18:0.175003 
-2 1:-0.372742 2:-0.007835 3:-0.406093 4:-0.367421 5:-0.446935 6:-0.670278 7:0.0290241 8:0.22949 9:-0.00201003 10:-0.292472 11:0.40469 12:-0.153853 13:-0.53267 14:-0.094897 15:0.0427183 16:-0.577989 17:-0.294603 18:0.17138 
-2 1:-0.642931 2:-0.429611 3:-0.268995 4:-0.0979777 5:-0.289847 6:-0.324267 7:0.102247 8:-0.236904 9:-0.0818579 10:-0.238765 11:0.30042 12:0.0606596 13:-0.0644018 14:-0.471797 15:0.0587547 16:-0.439215 17:0.111829 18:-0.0447638 
-2 1:-0.368662 2:-0.563568 3:-0.641707 4:-0.03412 5:-0.751811 6:-0.471095 7:-0.319509 8:-0.432346 9:-0.243163 10:-0.509241 11:-0.24548 12:-0.00855951 13:-0.0876839 14:-0.146522 15:-0.606971 16:0.226175 17:0.404194 18:-0.268138 
-2 1:0.693764 2:-0.547379 3:-0.779401 4:0.496542 5:-0.889774 6:-0.493762 7:-0.966178 8:-0.0634324 9:-0.139293 10:-0.51975 11:-0.340802 12:-0.390928 13:-0.494315 14:0.176608 15:0.0745289 16:-0.0464379 17:0.68982 18:-0.017959 
-2 1:-0.496025 2:-0.446749 3:-0.497006 4:-0.090318 5:-0.661504 6:-0.398325 7:-0.347266 8:-0.186786 9:-0.176324 10:-0.311103 11:0.00338067 12:0.549651 13:0.231505 14:-0.156714 15:-0.195354 16:-0.227112 17:0.640497 18:-0.0932483 
-2 1:-0.43006 2:-0.698645 3:0.0221305 4:-0.145371 5:-0.408996 6:-0.427807 7:-0.200524 8:0.0570691 9:0.0754944 10:-0.503681 11:-0.246047 12:0.253255 13:0.602607 14:0.0069187 15:-0.263342 16:-0.512115 17:0.740724 18:-0.0621076 
-2 1:-0.472657 2:0.493146 3:-0.762503 4:0.610516 5:-0.908572 6:-0.218763 7:-0.211816 8:0.0467763 9:-0.146525 10:-0.508619 11:-0.148661 12:0.466433 13:-0.339433 14:-0.32929 15:-0.512843 16:0.276725 17:0.561705 18:-0.128736 
-2 1:-0.548479 2:-0.643339 3:-0.360171 4:-0.0294203 5:-0.0697353 6:-0.462585 7:-0.226055 8:-0.765505 9:-0.38172 10:-0.0953854 11:0.297547 12:-0.0621748 13:-0.221227 14:-0.248024 15:-0.366469 16:-0.0385996 17:0.122 18:-0.343522 
-2 1:-0.41236 2:0.415417 3:-0.734279 4:-0.0627874 5:-0.589595 6:-0.736776 7:-0.559341 8:0.478939 9:0.462454 10:-0.578713 11:0.196311 12:0.391858 13:-0.0927449 14:0.0460156 15:-0.23185 16:-0.25274 17:0.110244 18:0.376725 
-2 1:-0.148968 2:0.0839198 3:-0.393105 4:-0.74768 5:-0.349857 6:-0.797916 7:-0.107278 8:-0.324718 9:-0.864506 10:0.60748 11:-0.379343 12:-0.324619 13:0.106899 14:-0.304628 15:-0.79562 16:-0.462197 17:0.0244792 18:-0.740357 
-2 1:-0.506045 2:-0.457095 3:-0.231054 4:0.0773899 5:0.0300609 6:-0.290788 7:0.144796 8:-0.224703 9:-0.0700115 10:-0.220222 11:0.0521176 12:0.268043 13:-0.16701 14:-0.322023 15:-0.494546 16:-0.172578 17:0.122773 18:-0.00166937 
-0.83468012748352627 1:-0.486618 2:-0.176916 3:-0.462817 4:-0.296687 5:-0.114541 6:-0.739473 7:-0.18332 8:0.423713 9:0.392152 10:-0.55408 11:-0.00279221 12:-0.237909 13:0.193772 14:-0.092661 15:-0.0364519 16:-0.487947 17:-0.049717 18:0.566813 
-1.4676432105488764 1:-0.291597 2:-0.206516 3:-0.493221 4:-0.66189 5:-0.104859 6:-0.249195 7:-0.448529 8:0.672278 9:-0.256168 10:0.0287805 11:0.313353 12:-0.63036 13:-0.145236 14:-0.306274 15:-0.479533 16:-0.575959 17:-0.304857 18:0.171064 
-2 1:0.697521 2:-0.890827 3:-0.749543 4:-0.587709 5:-0.268851 6:-0.903202 7:-0.845129 8:-0.771148 9:-0.405223 10:-0.675269 11:-0.43279 12:-0.682531 13:-0.273438 14:-0.768819 15:-0.639093 16:-0.260705 17:-0.489356 18:-0.579677 
-2 1:-0.473026 2:-0.521007 3:-0.138775 4:0.257578 5:-0.377063 6:-0.189387 7:-0.338498 8:-0.466044 9:-0.365883 10:-0.0684811 11:0.0160865 12:0.185489 13:-0.145961 14:-0.249714 15:-0.248314 16:-0.218477 17:0.26846 18:-0.213008 
-2 1:-0.606532 2:-0.402465 3:-0.471094 4:-0.687659 5:-0.563372 6:-0.399903 7:-0.175869 8:-0.188698 9:-0.0401981 10:-0.549862 11:0.0951001 12:0.165946 13:0.251919 14:-0.0139755 15:-0.243023 16:-0.463059 17:-0.0609388 18:0.178175 
-2 1:0.545154 2:0.0770146 3:-0.522492 4:-1 5:-0.929319 6:-0.878592 7:-0.827552 8:-0.465198 9:-0.753827 10:0.213928 11:-1 12:-1 13:-0.0247284 14:-0.40229 15:-0.378627 16:-0.964321 17:-0.823828 18:-0.414901 
-2 1:-0.596916 2:-0.661802 3:-0.200334 4:0.241617 5:-0.347577 6:-0.42913 7:-0.215214 8:-0.224645 9:-0.15967 10:-0.454308 11:-0.0242593 12:0.260262 13:-0.00582386 14:-0.374272 15:-0.194268 16:0.00354619 17:0.557753 18:0.0339172 
-2 1:-0.238741 2:-0.370607 3:-0.615006 4:0.0938675 5:-0.401917 6:-0.329464 7:-0.323542 8:-0.354256 9:0.05711 10:-0.427316 11:-0.351059 12:0.198912 13:-0.23205 14:0.276503 15:0.20845 16:0.12267 17:1 18:0.0474696 
-2 1:0.0398933 2:-0.665158 3:-0.452443 4:0.136001 5:-0.0986049 6:-0.482547 7:-0.629863 8:-0.13057 9:-0.119542 10:-0.682653 11:-0.279108 12:0.0297761 13:0.254746 14:0.124835 15:0.5924 16:-0.356389 17:0.475731 18:-0.111374 
-2 1:0.29963 2:-0.322679 3:-0.557957 4:-0.162936 5:-0.456009 6:0.0265387 7:-0.401945 8:-0.727294 9:-0.35114 10:-0.543478 11:-0.186466 12:-0.514067 13:1 14:0.0748968 15:0.327985 16:-0.828813 17:-0.739319 18:-0.0137485 
-2 1:-0.530676 2:-0.871222 3:-0.637399 4:0.0553897 5:0.252825 6:-0.753507 7:-0.265384 8:-0.236219 9:-0.305856 10:-0.353338 11:-0.103311 12:-0.45585 13:-0.606378 14:-0.114284 15:-0.317698 16:0.415127 17:0.300469 18:-0.751014 
-2 1:-0.287058 2:-0.268302 3:-0.397465 4:-0.213879 5:-0.396351 6:-0.566485 7:-0.256232 8:-0.375184 9:-0.17382 10:-0.312296 11:-0.0661438 12:-0.00931179 13:0.338866 14:-0.226261 15:-0.171961 16:0.127674 17:0.17681 18:-0.0235498 
-2 1:-0.505042 2:-0.238263 3:-0.231265 4:0.234503 5:-0.628646 6:-0.21141 7:-0.275226 8:-0.163467 9:-0.212475 10:-0.465449 11:-0.45389 12:0.443998 13:0.57076 14:-0.188306 15:0.311337 16:0.0172558 17:0.557284 18:0.110608 
-2 1:-0.187663 2:0.0799718 3:-0.305451 4:-0.194299 5:-0.563635 6:-0.279042 7:0.0500569 8:-0.159081 9:0.0616656 10:-0.381057 11:0.433289 12:-0.00873302 13:-0.450924 14:0.50503 15:0.0428208 16:-0.11753 17:-0.189604 18:0.115621 
-2 1:-0.513615 2:-0.60973 3:-0.239413 4:0.076245 5:0.0535315 6:-0.190485 7:-0.360906 8:-0.333831 9:-0.191224 10:-0.250743 11:-0.148743 12:-0.0643307 13:-0.30647 14:-0.541503 15:-0.13973 16:-0.418667 17:0.627521 18:0.167966 
-0.70563477026603094 1:-0.403614 2:0.651861 3:-0.0826896 4:-0.853772 5:-0.426455 6:-0.539072 7:-0.265503 8:0.346481 9:-0.0300346 10:-0.97353 11:-0.341485 12:-0.240888 13:0.205748 14:-0.495955 15:0.276713 16:-0.905618 17:-0.194042 18:0.625856 
-2 1:-0.354591 2:0.21502 3:-0.609686 4:0.0864975 5:-0.770156 6:-0.362418 7:-0.000362567 8:-0.399836 9:-0.143947 10:-0.360808 11:-0.087901 12:0.453319 13:0.0347378 14:-0.257322 15:-0.50922 16:0.234809 17:0.369338 18:0.0129278 
-2 1:-0.390393 2:-0.0164409 3:-0.454735 4:0.355625 5:-0.568374 6:-0.33219 7:-0.131205 8:-0.0474308 9:0.0311368 10:-0.315895 11:0.206058 12:0.281844 13:-0.190112 14:-0.223698 15:0.0974772 16:-0.0961847 17:-0.0952112 18:-0.0422509 
-2 1:-0.444022 2:-0.646557 3:-0.207134 4:-0.164009 5:0.591846 6:-0.0660116 7:-0.0314067 8:-0.483138 9:-0.137351 10:0.0437731 11:-0.00376021 12:0.0724554 13:0.203384 14:-0.127578 15:-0.615479 16:-0.425418 17:0.239297 18:-0.0530296 
-2 1:-0.135322 2:-0.559113 3:-0.580874 4:-0.333424 5:0.312746 6:-0.0117328 7:-0.735418 8:-0.71986 9:-0.00168857 10:-0.209026 11:0.26064 12:-0.383442 13:-0.130008 14:-0.223289 15:0.540555 16:-0.367507 17:-0.259189 18:0.244275 
-2 1:-0.202132 2:-0.119681 3:-0.744765 4:0.0553131 5:-0.216163 6:-0.492692 7:-0.176828 8:0.544313 9:0.127145 10:-0.727915 11:-0.0213929 12:-0.327767 13:-0.221262 14:-0.188047 15:0.557951 16:-0.358358 17:-0.0390821 18:0.0613077 
-2 1:-0.311252 2:-0.387123 3:-0.397666 4:-0.326302 5:-0.537406 6:-0.136951 7:0.0107504 8:-0.470985 9:-0.285799 10:0.0262224 11:-0.136218 12:-0.0043454 13:-0.352213 14:-0.295168 15:-0.0137766 16:-0.645336 17:0.0876748 18:-0.213891 
-2 1:-0.512997 2:0.0894002 3:-0.278505 4:-0.892394 5:-0.199729 6:-0.440155 7:-0.188019 8:0.332591 9:-0.164104 10:-0.651117 11:0.132706 12:-0.546772 13:0.01834 14:-0.203688 15:-0.22924 16:-0.385641 17:-0.622298 18:0.220846 
-2 1:-0.355662 2:0.06589 3:-0.513801 4:0.0674578 5:-0.600163 6:-0.409826 7:-0.127833 8:0.142021 9:0.17028 10:-0.434834 11:-0.120989 12:0.0941404 13:-0.185961 14:-0.0924055 15:-0.171106 16:-0.237627 17:0.447626 18:-0.00300216 
-2 1:-0.41253 2:-0.432061 3:-0.454861 4:-0.220031 5:-0.222315 6:-0.105237 7:-0.258533 8:-0.370329 9:0.0657333 10:-0.0734839 11:-0.0184714 12:0.400421 13:0.0179079 14:-0.315724 15:-0.0677739 16:-0.514447 17:0.2457 18:-0.0852659 
-1.0133532486778618 1:-0.54448 2:-0.0149636 3:-0.243189 4:-0.217499 5:-0.75814 6:-0.361686 7:-0.00600318 8:0.0782286 9:-0.107333 10:-0.478103 11:-0.431277 12:-0.346875 13:0.108935 14:-0.311812 15:-0.0625609 16:-0.114656 17:-0.171013 18:-0.10151 
-2 1:-0.623031 2:-0.65732 3:-0.387469 4:-0.0265323 5:-0.219162 6:-0.266385 7:-0.10456 8:-0.0528673 9:-0.195617 10:-0.462028 11:-0.13922 12:0.450066 13:0.344508 14:-0.290561 15:0.0929721 16:-0.190994 17:0.484564 18:-0.0377708 
-2 1:-0.252692 2:-0.522037 3:-0.204244 4:0.171819 5:-0.278427 6:-0.219663 7:-0.270602 8:-0.308434 9:-0.0477941 10:-0.26308 11:-0.0315455 12:0.0339642 13:0.114231 14:0.207371 15:-0.308788 16:-0.611673 17:-0.0980002 18:0.228572 
-2 1:-0.351646 2:0.434828 3:-0.38449 4:0.0456275 5:-0.638431 6:-0.292718 7:-0.195162 8:0.114849 9:0.235208 10:-0.373327 11:-0.104492 12:0.117789 13:-0.563081 14:0.14847 15:0.0116172 16:-0.544584 17:-0.0266418 18:0.0940605 
-2 1:-0.0997047 2:-0.221832 3:-0.063025 4:-0.137273 5:0.118264 6:0.124041 7:0.522284 8:-0.694866 9:0.0756231 10:-0.126535 11:0.0367781 12:-0.518998 13:-0.774422 14:-0.208095 15:-0.0962173 16:-0.74854 17:-0.415799 18:-0.113546 
-1.5778534758615355 1:-0.107729 2:0.764868 3:-0.609288 4:0.103691 5:-0.366247 6:-0.577562 7:-0.23683 8:-0.00729772 9:0.0641675 10:-0.447844 11:-0.172094 12:-0.183274 13:-0.179183 14:-0.137721 15:0.0888317 16:-0.482949 17:0.113759 18:0.0269046 
-2 1:-0.107303 2:0.33375 3:-0.413501 4:0.229309 5:-0.387842 6:-0.186942 7:-0.473019 8:0.0694993 9:0.139901 10:-0.60439 11:-0.137452 12:0.00396282 13:-0.129781 14:-0.0395302 15:0.132598 16:-0.339935 17:0.135065 18:0.167397 
-2 1:-0.609365 2:0.217898 3:-0.421402 4:-0.192667 5:0.0697908 6:-0.268413 7:-0.319946 8:-0.250869 9:-0.166935 10:-0.71062 11:0.0325022 12:-0.0689207 13:0.0182538 14:-0.263229 15:0.220984 16:-0.212213 17:0.406058 18:-0.24687 
-2 1:-0.51134 2:-0.800727 3:-0.782694 4:-0.275474 5:-0.612888 6:-0.558952 7:-0.0615363 8:-0.398633 9:-0.361194 10:0.0232489 11:-0.588324 12:-0.0841152 13:0.0986213 14:-0.683037 15:-0.461023 16:0.163403 17:0.233567 18:-0.486956 
-2 1:-0.252678 2:-0.482319 3:-0.142081 4:-0.319156 5:-0.464233 6:-0.398086 7:0.225192 8:-0.213057 9:0.0466708 10:-0.228236 11:0.249522 12:-0.186859 13:-0.307695 14:0.346196 15:-0.252254 16:-0.604446 17:-0.241872 18:-0.196437 
-2 1:-0.363856 2:0.131629 3:-0.333589 4:-0.0311483 5:-0.0875201 6:-0.396632 7:-0.0168946 8:0.094583 9:-0.0586212 10:-0.346883 11:0.0929652 12:0.0442722 13:-0.0225075 14:-0.0943999 15:-0.249659 16:-0.546374 17:0.342012 18:-0.0650263 
-2 1:-0.372129 2:-0.348762 3:-0.331127 4:-0.178671 5:-0.413644 6:-0.311268 7:-0.189614 8:-0.290762 9:0.124788 10:-0.36859 11:0.0521173 12:0.257821 13:-0.390957 14:0.35005 15:-0.00400061 16:-0.324732 17:0.0336436 18:-0.0734857 
-2 1:-0.740156 2:-0.452643 3:-0.558375 4:0.284357 5:-0.204919 6:-0.37115 7:0.065516 8:-0.597211 9:0.12921 10:-0.28304 11:-0.320926 12:0.400697 13:-0.662255 14:-0.472063 15:-0.792591 16:-0.187274 17:0.940436 18:-0.22876 
-2 1:-0.445255 2:-0.119585 3:-0.479974 4:0.489437 5:-0.424716 6:-0.755518 7:-0.340287 8:0.141036 9:-0.318165 10:-0.69008 11:0.25811 12:0.301801 13:0.0612764 14:-0.43228 15:-0.0349044 16:-0.146031 17:0.884391 18:0.0611194 
-2 1:0.144765 2:-0.166366 3:-0.683161 4:-0.0450846 5:-0.350054 6:-0.276805 7:0.0857998 8:-0.624093 9:-0.257791 10:-0.260221 11:-0.319914 12:0.107355 13:0.229535 14:0.140617 15:-0.279979 16:-0.59857 17:-0.484398 18:-0.11894 
-2 1:-0.345354 2:-0.68228 3:-0.399656 4:0.193927 5:0.230216 6:-0.426124 7:-0.245121 8:-0.295923 9:0.0249703 10:-0.382232 11:0.0759982 12:0.424273 13:-0.0661405 14:-0.369583 15:-0.373229 16:-0.186591 17:0.441533 18:-0.0202385 
-2 1:0.160358 2:0.649094 3:-0.385155 4:0.163125 5:-0.639961 6:-0.142806 7:-0.239327 8:-0.311426 9:0.0165368 10:-0.699853 11:-0.0984501 12:-0.464869 13:-0.739101 14:0.141502 15:0.493943 16:-0.561245 17:-0.270526 18:0.0265445 
-2 1:0.0386201 2:0.139576 3:-0.309438 4:-0.410808 5:-0.161425 6:-0.736666 7:-0.457573 8:-0.0138225 9:-0.0203792 10:0.16393 11:0.466674 12:-0.346263 13:-0.512565 14:0.439231 15:0.148538 16:-0.753473 17:-0.0872865 18:-0.329534 
-2 1:-0.42477 2:-0.211809 3:-0.500392 4:-0.32221 5:-0.0645699 6:-0.274891 7:0.119279 8:-0.0952963 9:0.0955382 10:-0.375337 11:0.653451 12:-0.172503 13:-0.0533149 14:-0.0772748 15:-0.588905 16:-0.376412 17:-0.130148 18:0.367029 
-0.90518873469123862 1:-0.625947 2:-0.371745 3:-0.170288 4:0.304559 5:-0.175538 6:-0.31235 7:-0.0862044 8:-0.464822 9:0.235286 10:-0.188235 11:0.148987 12:0.212969 13:0.12358 14:-0.351975 15:-0.0786335 16:-0.374332 17:0.51271 18:-0.0711602 
-2 1:-0.580754 2:-0.249905 3:-0.149998 4:-0.264363 5:-0.204279 6:-0.48731 7:-0.0588675 8:0.105826 9:-0.239449 10:-0.174804 11:-0.445377 12:0.645126 13:-0.181863 14:-0.166592 15:-0.587235 16:-0.510828 17:0.189357 18:0.147408 
-2 1:-0.350804 2:-0.265849 3:-0.437767 4:-0.229979 5:-0.139589 6:-0.298901 7:0.0257546 8:-0.365259 9:-0.180335 10:0.00726684 11:-0.198988 12:-0.11487 13:-0.142425 14:-0.397584 15:-0.189663 16:-0.186829 17:0.127659 18:0.00678525 
-2 1:-0.314467 2:0.0307723 3:-0.599355 4:0.0947858 5:-0.215849 6:-0.583588 7:-0.338931 8:0.182174 9:0.00541053 10:-0.512371 11:0.116022 12:-0.106045 13:-0.189868 14:-0.175719 15:-0.23905 16:-0.741852 17:0.27756 18:0.138945 
-2 1:-0.0573348 2:-0.292977 3:-0.71401 4:0.131618 5:-0.88874 6:-0.401523 7:-0.331718 8:-0.305926 9:-0.27318 10:-0.402889 11:-0.297053 12:0.102835 13:0.139058 14:-0.365681 15:0.00103042 16:-0.504503 17:0.293219 18:-0.284729 
-2 1:-0.358792 2:-0.559971 3:-0.381158 4:-0.291709 5:-0.256535 6:-0.418293 7:-0.565089 8:-0.368239 9:-0.359335 10:-0.714458 11:-0.396142 12:-0.13315 13:0.0495674 14:-0.353481 15:-0.227593 16:0.360136 17:0.534105 18:-0.0258321 
-2 1:-0.494713 2:-0.55424 3:-0.102474 4:-0.0391687 5:-0.410126 6:0.0425161 7:0.5302 8:-0.659306 9:-0.062226 10:0.0988917 11:0.0830873 12:-0.118292 13:-0.768823 14:-0.231767 15:-0.311546 16:-0.726988 17:-0.159073 18:-0.191055 
-2 1:-0.433673 2:-0.110457 3:-0.576482 4:-0.261042 5:-0.253497 6:-0.513196 7:-0.614885 8:0.138802 9:0.201894 10:-0.76314 11:0.126064 12:0.257343 13:-0.123223 14:-0.0831977 15:-0.277558 16:0.247502 17:0.235375 18:0.0360492 
-2 1:0.696281 2:-0.836788 3:-0.754018 4:-0.497893 5:-0.625398 6:-0.882032 7:-0.710159 8:-0.774225 9:-0.353243 10:-0.712061 11:-0.307509 12:-0.720257 13:-0.166007 14:-0.655261 15:-0.65814 16:-0.302894 17:-0.592296 18:-0.480409 
-2 1:-0.585808 2:-0.691444 3:-0.61101 4:0.0829157 5:-0.0674821 6:-0.0295021 7:0.305197 8:-0.506952 9:-0.270023 10:-0.417832 11:-0.113482 12:0.211131 13:-0.434562 14:-0.543756 15:0.179974 16:0.838776 17:0.102198 18:-0.302141 
-2 1:0.163943 2:-0.354268 3:-0.463962 4:0.150332 5:-0.128655 6:-0.599777 7:-0.497415 8:-0.104527 9:-0.210461 10:-0.533396 11:-0.442505 12:-0.125979 13:-0.450556 14:0.624874 15:0.616305 16:0.400381 17:0.0189045 18:-0.0271613 
-2 1:-0.637383 2:0.00200352 3:0.222115 4:-0.937912 5:-0.427089 6:-0.73977 7:-0.166723 8:-0.288813 9:-0.369533 10:-0.899608 11:-0.00366217 12:-0.162225 13:0.641751 14:-0.538775 15:-0.0861247 16:-0.22451 17:-0.166918 18:0.0092652 
-2 1:-0.211913 2:-0.0649725 3:-0.224934 4:-0.290914 5:-0.120973 6:-0.642029 7:-0.155749 8:0.0712824 9:-0.00219512 10:-0.51231 11:0.0479849 12:-0.00847091 13:-0.199371 14:-0.146719 15:-0.166679 16:-0.355931 17:-0.0332415 18:0.0333244 
-2 1:-0.543399 2:-0.159639 3:-0.502652 4:-0.191495 5:-0.276921 6:-0.256228 7:-0.120595 8:0.0748672 9:0.130007 10:-0.167682 11:-0.390335 12:0.523932 13:0.276501 14:-0.0895467 15:0.0353202 16:-0.237373 17:0.137563 18:0.296487 
