svm_type c_svc
kernel_type rbf
gamma 0.5
nr_class 2
total_sv 227
rho 0.15352257804361483
label 1 0
nr_sv 108 119
SV
0.5 1:0.814126 2:-0.239016 3:0.382919 4:-0.324958 5:-0.143458 6:-0.350778 7:-0.403266 8:-0.397327 9:-0.0232101 10:-0.14912 11:-0.474329 12:-0.752195 13:-0.460723 14:-0.125514 15:-0.503016 16:-0.67602 17:-0.155333 18:-0.073901 19:0.193097 20:-0.0768753 21:-0.272232 22:-0.4518 23:-0.551488 24:-0.566232 25:-0.685436 26:-0.428588 27:-0.322149 
0.5 1:0.136526 2:0.156867 3:-0.0201477 4:-0.150025 5:-0.131984 6:-0.403504 7:0.0594509 8:-0.0414052 9:-0.104322 10:-0.168867 11:-0.38655 12:-0.414037 13:-0.321161 14:-0.0137161 15:-0.496958 16:-0.206043 17:-0.137689 18:0.2012 19:-0.270042 20:-0.123552 21:-0.430332 22:0.357563 23:0.274918 24:-0.448716 25:-0.806384 26:-0.481577 27:-0.202653 
0.5 1:0.000218513 2:0.302676 3:-0.233592 4:0.0583659 5:0.494353 6:0.179592 7:-0.443942 8:-0.280126 9:-0.605902 10:-0.246037 11:-0.112903 12:-0.143018 13:-0.244285 14:-0.213007 15:-0.589128 16:0.0375626 17:0.0970742 18:0.531144 19:-0.470025 20:0.12726 21:0.272115 22:-0.0386266 23:-0.179402 24:-0.401191 25:-0.502641 26:0.216284 27:-0.0327042 
0.5 1:-0.180538 2:0.449999 3:-0.332312 4:-0.0656047 5:0.382353 6:0.358465 7:-0.752264 8:-0.280369 9:-0.241011 10:-0.35603 11:-0.29889 12:0.0216383 13:-0.47211 14:-0.262752 15:-0.567321 16:-0.0441751 17:0.185879 18:0.181439 19:-0.526247 20:0.0258311 21:0.424127 22:-0.222034 23:-0.402312 24:-0.0425861 25:-0.0945059 26:0.256787 27:0.000340355 
0.27484336351243449 1:0.30589 2:-0.0125625 3:0.345107 4:-0.00637902 5:-0.141642 6:-0.366641 7:-0.240084 8:-0.188179 9:-0.408338 10:-0.0614377 11:-0.386985 12:-0.378992 13:0.204238 14:0.686026 15:-0.719685 16:-0.286024 17:-0.0914655 18:0.0877414 19:-0.258704 20:-0.269551 21:-0.372659 22:-0.362549 23:-0.355672 24:-0.162585 25:-0.794002 26:0.0380557 27:-0.377532 
0.5 1:-0.178091 2:0.14929 3:-0.220509 4:-0.2665 5:0.553678 6:0.200633 7:-0.615284 8:-0.174806 9:-0.402176 10:-0.468364 11:-0.699872 12:-0.622207 13:-0.393083 14:-0.202053 15:-0.171097 16:-0.269072 17:0.154248 18:0.461535 19:-0.573713 20:0.092543 21:0.191066 22:0.243478 23:-0.10872 24:-0.272614 25:-0.548232 26:-0.0799469 27:0.150608 
0.5 1:-0.295652 2:0.377302 3:-0.522855 4:-0.582926 5:0.476986 6:0.0904876 7:-0.433319 8:0.136077 9:-0.134284 10:-0.588413 11:-0.203947 12:-0.232159 13:-0.561349 14:-0.53073 15:0.0654068 16:-0.533524 17:0.479942 18:0.27597 19:-0.696851 20:0.36269 21:-0.120944 22:-0.0634211 23:-0.282733 24:0.151604 25:-0.615348 26:-0.33703 27:0.0473193 
0.5 1:0.521163 2:-0.145435 3:-0.0131472 4:-0.418906 5:-0.386528 6:-0.331385 7:-0.148847 8:0.285869 9:-0.359745 10:-0.452931 11:-0.0905195 12:0.150075 13:-0.62539 14:-0.647751 15:-0.348711 16:-0.602968 17:-0.536429 18:-0.592377 19:-0.018785 20:-0.838883 21:-0.18554 22:-0.257955 23:-0.924902 24:0.0296155 25:-0.660387 26:0.321216 27:-0.746143 
0.13358259622905033 1:-0.624027 2:0.511433 3:-0.485036 4:-0.69164 5:0.664574 6:0.43391 7:-0.714111 8:0.20593 9:0.100462 10:-0.931955 11:-0.820008 12:-0.522128 13:-0.654332 14:-0.693416 15:-0.315496 16:-0.445181 17:0.475905 18:0.133057 19:-0.891894 20:0.187904 21:0.570339 22:0.249679 23:-0.140499 24:-0.210635 25:-0.477767 26:0.20187 27:0.192388 
0.5 1:0.136476 2:-0.0456097 3:-0.00110155 4:-0.125106 5:0.0532947 6:-0.2491 7:-0.251344 8:-0.00874964 9:-0.135325 10:-0.210698 11:0.0526547 12:-0.682187 13:0.780841 14:0.07326 15:-0.555757 16:-0.442797 17:0.451289 18:0.0781738 19:-0.487772 20:-0.353467 21:-0.183265 22:-0.630947 23:-0.0619874 24:-0.155042 25:-0.802722 26:-0.524758 27:0.00834521 
0.5 1:0.565206 2:-1 3:-0.151011 4:-0.172211 5:-0.143481 6:-0.414781 7:-0.22375 8:-0.142001 9:-0.808578 10:-0.622899 11:-0.142127 12:-0.735142 13:-0.754622 14:-0.654838 15:-0.356934 16:-0.220674 17:-0.330277 18:-0.230088 19:-0.434068 20:0.139226 21:-0.116631 22:0.0333636 23:-0.472639 24:-0.801815 25:-0.0917385 26:0.059535 27:-0.499327 
0.5 1:-0.477267 2:0.465551 3:-0.564583 4:-0.673111 5:0.435095 6:0.212451 7:-0.342283 8:0.354975 9:0.320998 10:-0.739394 11:0.079257 12:-0.70844 13:-0.80551 14:-0.693432 15:0.382928 16:-0.194938 17:0.657791 18:0.541584 19:-0.753622 20:0.454997 21:-0.184664 22:-0.439011 23:0.172153 24:0.273287 25:-0.46498 26:-0.205481 27:0.262428 
0.5 1:0.277487 2:0.121011 3:0.283456 4:-0.0758532 5:0.187566 6:-0.412226 7:-0.694107 8:-0.347133 9:-0.259791 10:-0.180769 11:-0.147955 12:-0.272 13:-0.333727 14:0.30101 15:-0.38209 16:0.280205 17:0.0104974 18:0.48008 19:-0.266418 20:0.0809943 21:-0.550192 22:-0.361646 23:-0.929549 24:-0.166862 25:-0.654245 26:-0.626562 27:0.0797021 
0.5 1:-0.0229829 2:0.203714 3:-0.23949 4:-0.0740258 5:0.333991 6:0.132841 7:-0.423896 8:-0.296669 9:-0.480922 10:-0.332821 11:-0.125476 12:-0.134832 13:-0.36413 14:-0.127842 15:-0.120737 16:-0.0686551 17:0.00328636 18:0.320381 19:-0.537397 20:-0.348272 21:0.0897513 22:0.00241214 23:-0.0939747 24:-0.407679 25:-0.0191421 26:0.16694 27:0.274895 
0.5 1:-0.431354 2:-0.125925 3:-0.171021 4:-1 5:-0.774138 6:-1 7:0.545154 8:0.455866 9:0.0770146 10:-0.522492 11:-1 12:-0.935667 13:-0.878592 14:-0.827552 15:-0.465198 16:-1 17:-0.693725 18:-0.800391 19:0.213928 20:-1 21:-1 22:-0.0247284 23:-0.423513 24:-0.378627 25:-1 26:-0.823828 27:-0.414901 
0.5 1:-0.630041 2:0.591128 3:-0.641115 4:-0.833222 5:0.609297 6:0.302932 7:-0.448236 8:0.0772891 9:0.358424 10:-1 11:-0.0520748 12:-0.762326 13:-0.942021 14:-0.64093 15:1 16:-0.489753 17:0.725823 18:0.963564 19:-0.947251 20:1 21:-0.0428046 22:0.182499 23:0.379352 24:-0.400622 25:-0.652452 26:-0.22216 27:0.301162 
0.5 1:-0.146609 2:0.727248 3:-0.124686 4:0.0534447 5:0.549519 6:-0.120219 7:-0.656892 8:-0.426995 9:-0.61709 10:-0.33897 11:-0.759562 12:0.0818071 13:-0.505038 14:-0.473784 15:-0.481122 16:-0.235297 17:-0.729227 18:-0.333639 19:-0.897164 20:-0.221891 21:-0.0948978 22:-0.489678 23:-0.651198 24:-0.41043 25:0.718496 26:-0.0495764 27:-0.523496 
0.5 1:-0.0622971 2:-0.0466635 3:-0.24585 4:-0.0482029 5:0.169331 6:-0.017446 7:-0.255788 8:-0.217872 9:-0.355465 10:-0.104244 11:-0.256778 12:-0.360937 13:-0.219783 14:-0.193707 15:-0.251212 16:0.00509886 17:-0.108485 18:0.281341 19:-0.498082 20:-0.247874 21:0.0173817 22:0.0687246 23:-0.146533 24:-0.213897 25:-0.0300755 26:0.00266904 27:-0.0723429 
0.39742758641130055 1:-0.328622 2:0.467185 3:-0.60235 4:-0.509381 5:0.314161 6:0.447014 7:-0.282384 8:-0.0103464 9:-0.567318 10:-0.69512 11:0.0324293 12:-0.234396 13:-0.594997 14:-0.829842 15:0.111838 16:-0.530864 17:0.0778314 18:-0.188308 19:-0.884896 20:-0.0708923 21:0.27541 22:-0.0858962 23:-0.0566239 24:-0.474905 25:0.461759 26:0.312501 27:-0.197904 
0.5 1:0.135722 2:-0.0536564 3:0.558643 4:-0.024045 5:0.0867775 6:-0.572462 7:-0.189122 8:-0.101095 9:-0.229458 10:-0.470888 11:-0.128931 12:-0.296951 13:1 14:1 15:-0.740751 16:-0.220248 17:-0.0193266 18:1 19:0.282494 20:-0.207915 21:-0.644718 22:-1 23:-0.241663 24:-0.2304 25:-0.998258 26:-0.773224 27:-0.137082 
0.5 1:-0.0631401 2:-0.0329108 3:-0.247254 4:-0.0781497 5:0.170262 6:-0.0140253 7:-0.253238 8:-0.221608 9:-0.335302 10:-0.116337 11:-0.237435 12:-0.389343 13:-0.237571 14:-0.184519 15:-0.230666 16:-0.0207135 17:-0.114901 18:0.304541 19:-0.500034 20:-0.222607 21:-0.00889102 22:0.11535 23:-0.133162 24:-0.187647 25:-0.00610076 26:-0.0110452 27:-0.0779413 
0.5 1:-0.022535 2:-0.173715 3:-0.210104 4:0.108331 5:0.203124 6:-0.0545446 7:0.08886 8:-0.0149546 9:-0.380284 10:-0.36925 11:-0.126487 12:-0.731486 13:0.15862 14:-0.146742 15:-0.822777 16:-0.340726 17:0.228161 18:0.00842777 19:-0.381994 20:0.0684556 21:-0.254242 22:-0.886775 23:0.195987 24:0.00548729 25:-0.81869 26:-0.396914 27:-0.174826 
0.3333145121010847 1:0.336083 2:-0.174735 3:0.637378 4:-0.622819 5:-0.0816051 6:-0.549668 7:-0.293305 8:-0.131258 9:-0.62397 10:-0.286043 11:-0.714981 12:-0.506782 13:-0.29954 14:0.192037 15:-0.685168 16:-0.629255 17:-0.42146 18:-0.234094 19:-0.229885 20:0.051981 21:-0.324434 22:-0.294425 23:-0.710854 24:-0.508561 25:-0.704439 26:-0.417289 27:-0.396706 
0.5 1:0.303774 2:-0.695067 3:-0.105491 4:0.349235 5:0.0677164 6:-0.0807094 7:-0.624796 8:-0.094906 9:-1 10:-0.445015 11:-0.0690158 12:-0.197798 13:-0.057307 14:-0.400344 15:-0.677281 16:0.114078 17:-0.336583 18:-0.243068 19:-0.566145 20:-0.00483034 21:0.0180602 22:-0.181438 23:-0.76874 24:-0.621272 25:0.345657 26:0.0557882 27:-0.277102 
0.5 1:-0.0715414 2:0.269936 3:-0.128774 4:-0.733006 5:0.220319 6:-0.196751 7:-0.374806 8:0.112898 9:0.214227 10:-0.432802 11:0.234526 12:-0.57894 13:-0.527432 14:-0.0617753 15:-0.046547 16:-0.440284 17:0.632442 18:-0.0481504 19:-0.31867 20:-0.115429 21:-0.473164 22:-0.16444 23:-0.543779 24:0.441043 25:-0.589385 26:-0.343896 27:0.530171 
0.5 1:0.140265 2:0.366 3:0.0347626 4:-0.503657 5:-0.126455 6:-0.403578 7:-0.000305305 8:0.411223 9:-0.227816 10:-0.0233457 11:-0.0506336 12:0.207662 13:-0.352336 14:-0.179014 15:-0.707558 16:-0.597738 17:0.0581726 18:-0.0583131 19:0.0981105 20:0.520754 21:-0.574031 22:-0.544488 23:-0.198368 24:0.497997 25:-0.723022 26:-0.619653 27:-0.159436 
0.5 1:0.176735 2:0.261402 3:0.0433726 4:-0.0483485 5:0.00902427 6:-0.190324 7:-0.0726826 8:-0.0430223 9:-0.700484 10:-0.344344 11:-0.165668 12:0.0341643 13:-0.264345 14:0.109999 15:-0.574978 16:-0.210173 17:-0.0933976 18:-0.0661529 19:-0.512377 20:0.0169674 21:-0.152672 22:0.0863851 23:0.000153082 24:-0.15957 25:-0.592546 26:0.151591 27:-0.122222 
0.5 1:-0.475619 2:0.51148 3:-0.572826 4:-0.617455 5:0.269495 6:0.383861 7:-0.41236 8:0.0549275 9:0.415417 10:-0.734279 11:-0.0627874 12:-0.626456 13:-0.736776 14:-0.559341 15:0.478939 16:-0.323514 17:0.819505 18:0.382618 19:-0.578713 20:0.196311 21:0.391858 22:-0.0927449 23:0.0315769 24:-0.23185 25:-0.37747 26:0.110244 27:0.376725 
0.39973314719282549 1:-0.150039 2:0.433017 3:-0.502528 4:-0.10098 5:0.403036 6:0.321773 7:-0.473289 8:-0.0579198 9:-0.495668 10:-0.44688 11:-0.23106 12:-0.152963 13:-0.445428 14:-0.633326 15:-0.300151 16:-0.156521 17:0.30001 18:0.18783 19:-0.467311 20:-0.267946 21:0.33843 22:-0.410952 23:0.257209 24:0.188147 25:-0.453888 26:0.469598 27:0.144434 
0.5 1:-0.0954092 2:0.1666 3:-0.35997 4:0.348406 5:0.434222 6:0.14258 7:-0.515286 8:-0.42945 9:-0.590742 10:-0.167593 11:-0.331933 12:-0.149966 13:-0.672019 14:-0.487227 15:-0.430444 16:-0.0489273 17:-0.370392 18:0.307318 19:-0.422314 20:-0.310743 21:-0.217238 22:-0.41626 23:-0.196381 24:-0.32108 25:0.101889 26:0.490968 27:-0.111186 
0.5 1:0.731049 2:-0.366566 3:0.721211 4:0.38119 5:-0.626354 6:-0.707545 7:0.240785 8:-0.332017 9:-0.753602 10:-0.233151 11:-0.773734 12:-0.324386 13:-0.489258 14:-0.123877 15:-0.591481 16:-0.452232 17:-0.620497 18:-0.507056 19:-0.41098 20:-0.501501 21:-0.814079 22:-0.774231 23:-0.369824 24:-0.838647 25:-0.927311 26:-0.590795 27:-0.557671 
0.5 1:0.381292 2:-0.386131 3:0.174042 4:-0.190997 5:-0.0584634 6:-0.0873432 7:-0.353357 8:-0.459484 9:-0.381261 10:-0.501054 11:-0.486684 12:-0.864683 13:-0.594639 14:-0.163116 15:-0.511139 16:-0.187916 17:-0.326042 18:-0.207604 19:-0.733973 20:-0.0931963 21:-0.0212453 22:0.049498 23:-0.441161 24:-0.65563 25:-0.0795379 26:0.0543956 27:-0.20157 
0.5 1:0.119156 2:0.130399 3:0.291044 4:0.00768211 5:0.133541 6:-0.211611 7:-0.506612 8:-0.372717 9:-0.247112 10:-0.200712 11:-0.0640338 12:-0.210272 13:0.172164 14:0.644053 15:-0.713748 16:-0.236235 17:0.301469 18:0.502697 19:0.0469799 20:0.0472702 21:-0.0940307 22:-0.738257 23:-0.164695 24:-0.535755 25:-0.761638 26:-0.183291 27:-0.031045 
0.5 1:-0.144559 2:0.407258 3:-0.380829 4:-0.254045 5:0.396903 6:0.0869569 7:-0.151096 8:0.00773575 9:-0.17129 10:-0.526768 11:-0.0499209 12:-0.130999 13:-0.333264 14:-0.343775 15:-0.215533 16:-0.0370477 17:0.0156583 18:0.560623 19:-0.89942 20:-0.133086 21:-0.123246 22:-0.229464 23:0.392014 24:0.0114656 25:-0.287363 26:0.364973 27:0.155149 
0.5 1:0.122009 2:0.124611 3:0.294508 4:0.00325622 5:0.149603 6:-0.190159 7:-0.535575 8:-0.380854 9:-0.256445 10:-0.190657 11:-0.0653576 12:-0.225495 13:0.182318 14:0.681447 15:-0.695283 16:-0.218779 17:0.336817 18:0.511012 19:0.0580606 20:0.0354303 21:-0.0902521 22:-0.762305 23:-0.187594 24:-0.50593 25:-0.753481 26:-0.181393 27:-0.0187746 
0.5 1:0.75881 2:-0.0581083 3:0.339168 4:-0.0354402 5:-0.14779 6:-0.0628755 7:-0.269277 8:-0.549137 9:-0.707939 10:-0.540543 11:-0.326649 12:-0.378002 13:-0.278748 14:-0.0139611 15:-0.364075 16:-0.341536 17:-0.23318 18:-0.163563 19:-0.559891 20:-0.407491 21:0.0928993 22:-0.257142 23:-0.0844438 24:-0.865682 25:-0.255509 26:0.349649 27:-0.450788 
0.5 1:0.194088 2:0.136233 3:0.0196877 4:-0.199578 5:-0.37672 6:-0.512035 7:0.163657 8:0.245818 9:-0.0650245 10:-0.101306 11:-0.548733 12:-0.271014 13:-0.658864 14:-0.0934592 15:0.096272 16:-0.109532 17:-0.307769 18:-0.433589 19:0.333791 20:-0.582601 21:-0.0660323 22:-0.505216 23:0.119126 24:0.439059 25:-0.697911 26:-0.190889 27:0.0654584 
0.23554352961526079 1:-0.274838 2:-0.0792001 3:-0.377749 4:0.170387 5:0.31237 6:0.175602 7:-0.110707 8:0.00435656 9:-0.776805 10:-0.444706 11:-0.336889 12:-0.18091 13:0.102342 14:-0.348858 15:-0.360397 16:0.199951 17:-0.247345 18:0.16749 19:-0.586344 20:-0.534387 21:-0.275217 22:-0.0189106 23:-0.0458097 24:0.251356 25:0.298422 26:-0.0432245 27:0.120018 
0.5 1:0.125835 2:0.0763957 3:0.26193 4:0.0537766 5:0.239416 6:-0.206397 7:-0.723798 8:-0.41189 9:-0.323984 10:-0.204848 11:-0.217235 12:-0.407625 13:0.164936 14:0.603457 15:-0.686019 16:-0.285335 17:-0.154809 18:0.656592 19:-0.025837 20:0.44551 21:-0.228656 22:-0.687804 23:-0.416848 24:-0.558429 25:-0.356672 26:-0.229581 27:-0.272933 
0.5 1:0.471946 2:-0.161377 3:0.185101 4:-0.222125 5:-0.00241127 6:-0.112061 7:-0.494509 8:-0.122582 9:-0.668989 10:-0.0670771 11:-0.335734 12:-0.595252 13:-0.340694 14:-0.214429 15:-0.473929 16:-0.251352 17:-0.0752301 18:-0.0574793 19:0.173645 20:0.148486 21:0.165686 22:0.00353593 23:-0.408231 24:-0.212795 25:-0.802222 26:-0.154429 27:-0.215436 
0.24934777549713302 1:-0.358075 2:0.446485 3:-0.507434 4:-0.687665 5:0.421302 6:0.387139 7:-0.452902 8:-0.109091 9:0.0434198 10:-0.758094 11:-0.245089 12:-0.354734 13:-0.859361 14:-0.811947 15:0.262555 16:-0.718013 17:0.199511 18:0.0471923 19:-0.773613 20:0.216906 21:0.485906 22:-0.200584 23:-0.0122816 24:-0.685369 25:-0.333746 26:0.490149 27:-0.179702 
0.5 1:-0.0559078 2:0.311546 3:-0.284647 4:-0.32755 5:0.00984993 6:-0.134698 7:-0.194067 8:0.33346 9:0.12461 10:-0.532747 11:-0.055904 12:-0.285687 13:-0.598884 14:-0.405419 15:0.217973 16:-0.00666973 17:0.146538 18:0.103174 19:-0.448368 20:0.0403345 21:-0.160942 22:-0.253399 23:-0.0727149 24:0.611784 25:-0.489817 26:0.055107 27:-0.062909 
0.5 1:-0.489877 2:-0.119868 3:-0.661613 4:-0.360397 5:-0.321906 6:-0.317692 7:0.367537 8:1 9:-0.760627 10:-0.741399 11:-0.593017 12:-0.0215057 13:-0.245706 14:-0.94557 15:-0.0399502 16:-0.232953 17:-0.950301 18:-0.52434 19:-1 20:-0.144617 21:-0.273894 22:0.617407 23:-0.846049 24:-0.429991 25:-0.44133 26:-0.103267 27:-1 
0.39418516820448823 1:0.415158 2:0.229347 3:0.206995 4:0.147212 5:-0.104826 6:-0.742285 7:0.247651 8:-0.195626 9:-0.865709 10:-0.565827 11:-0.221619 12:0.296223 13:-0.504423 14:-0.0509862 15:-0.467649 16:-0.131865 17:-0.608877 18:-0.445584 19:-0.674127 20:-0.240864 21:-0.829345 22:-0.0532336 23:-0.0372 24:-0.414734 25:-0.456224 26:-0.0860843 27:-0.413252 
0.5 1:-0.104247 2:0.150285 3:-0.127916 4:0.0814706 5:0.175785 6:0.116522 7:-0.613552 8:-0.248852 9:-0.771554 10:-0.224314 11:-0.178375 12:-0.574918 13:0.0510694 14:0.0524502 15:-0.76624 16:-0.111363 17:0.144631 18:0.0767642 19:-0.176815 20:0.249814 21:0.263773 22:0.202394 23:0.0417583 24:-0.457193 25:-0.724846 26:0.215004 27:0.494287 
0.5 1:0.258249 2:-0.649269 3:0.54518 4:-0.370052 5:-0.274161 6:-0.782463 7:-0.408373 8:-0.550153 9:-0.582833 10:-0.383642 11:-0.710604 12:-0.701875 13:-0.452543 14:-0.428744 15:-0.834387 16:-0.599523 17:-0.660104 18:-0.438738 19:-0.126124 20:-0.403657 21:-0.66856 22:-0.553813 23:-0.811761 24:-1 25:-0.650219 26:-0.580723 27:-0.625615 
0.5 1:-0.118622 2:0.294091 3:-0.322234 4:-0.0876875 5:0.299209 6:0.436562 7:-0.575702 8:-0.0382313 9:-0.73319 10:-0.673319 11:0.216859 12:0.367397 13:-0.20665 14:-0.137582 15:-0.208504 16:0.0743893 17:0.281315 18:0.124588 19:-0.32534 20:-0.0989787 21:0.542011 22:-0.137959 23:-0.231923 24:0.106728 25:-0.267181 26:0.582564 27:-0.121948 
0.5 1:-0.245728 2:0.164563 3:-0.292442 4:-0.105527 5:-0.341996 6:-0.175798 7:-0.154428 8:0.229352 9:0.104075 10:-0.347282 11:-0.499826 12:-0.516708 13:-0.293297 14:-0.571082 15:0.0911524 16:-0.0310836 17:-0.409199 18:-0.613287 19:-0.786963 20:-0.575069 21:0.0630836 22:0.916697 23:-0.500345 24:0.645729 25:-0.479938 26:0.920226 27:-0.356138 
0.5 1:0.0505504 2:0.124076 3:-0.251548 4:0.000378867 5:-0.310058 6:-0.253457 7:-0.25576 8:-0.105561 9:-0.359058 10:-0.519912 11:0.241806 12:-0.340909 13:-0.408291 14:-0.415009 15:-0.153021 16:-0.238359 17:-0.27367 18:-0.41154 19:-0.55556 20:-0.114817 21:-0.145688 22:0.114318 23:-0.221064 24:-0.583631 25:-0.615073 26:0.226145 27:-0.16993 
0.5 1:0.00245287 2:-0.00785892 3:-0.401744 4:-0.0589431 5:0.263869 6:0.272536 7:-0.350126 8:0.00240202 9:-0.510306 10:-0.0250121 11:0.15606 12:-0.698653 13:-0.316454 14:-0.536024 15:-0.308892 16:-0.307655 17:-0.0651826 18:0.0042512 19:-0.424817 20:-0.152232 21:0.256017 22:-0.0855769 23:-0.311679 24:0.132355 25:-0.36812 26:0.418764 27:-0.0799836 
0.5 1:-0.0685985 2:0.439471 3:-0.0498432 4:-0.281768 5:-0.299739 6:-0.494489 7:-0.129754 8:0.076563 9:-0.194151 10:-0.124154 11:-0.848121 12:0.820369 13:-0.32627 14:-0.388063 15:-0.144081 16:-0.536238 17:-0.483071 18:-0.27401 19:-0.443214 20:-0.641449 21:-0.423463 22:0.718163 23:-0.413762 24:-0.257701 25:-0.490389 26:-0.513176 27:-0.223551 
0.5 1:0.193786 2:-0.110132 3:-0.335024 4:-0.289974 5:0.162576 6:0.255113 7:0.226457 8:0.569954 9:-0.803117 10:-0.581809 11:-0.215221 12:-0.388302 13:-0.68839 14:-0.567784 15:-0.68366 16:-0.0473559 17:-0.0511814 18:-0.288553 19:-0.403187 20:-0.508919 21:0.325681 22:-0.169829 23:-0.346 24:-0.245931 25:-0.16364 26:0.261459 27:-0.356201 
0.5 1:0.158306 2:0.00791947 3:0.0090432 4:-0.419204 5:0.151612 6:-0.223963 7:-0.264406 8:-0.0880742 9:-0.238362 10:-0.309558 11:-0.17591 12:-0.470907 13:-0.224944 14:0.0335256 15:-0.335234 16:-0.575646 17:0.23487 18:0.259145 19:-0.136065 20:0.236725 21:-0.24817 22:-0.269584 23:-0.250624 24:-0.349939 25:-0.758277 26:-0.129773 27:0.151334 
0.5 1:0.0713628 2:0.189354 3:-0.152992 4:-0.321291 5:-0.132337 6:-0.275384 7:0.292054 8:0.386704 9:-0.181627 10:-0.456104 11:0.234357 12:-0.48146 13:-0.214737 14:9.25012e-05 15:-0.429712 16:-0.396853 17:0.211967 18:0.114231 19:-0.173408 20:-0.0175521 21:-0.0807004 22:0.137931 23:0.431815 24:0.188754 25:-0.665154 26:-0.172246 27:0.0257189 
0.25421242190569965 1:-0.345711 2:0.67375 3:-0.578066 4:-0.198241 5:0.50378 6:0.556695 7:-0.172351 8:-0.154662 9:-0.285158 10:-0.0850405 11:-0.329241 12:-0.225678 13:-0.357547 14:-0.32606 15:-0.443369 16:0.234388 17:0.0132761 18:0.364254 19:-0.402077 20:0.169355 21:0.4892 22:-0.498823 23:0.199513 24:-0.0818042 25:-0.204552 26:0.0471561 27:-0.473813 
0.5 1:0.308098 2:-0.287205 3:-0.386188 4:-0.249068 5:0.0333854 6:0.321232 7:-0.0344744 8:0.339089 9:-0.542611 10:-0.714537 11:0.49196 12:-0.853473 13:-0.376349 14:-0.536295 15:-0.101968 16:-0.3047 17:-0.099147 18:-0.265023 19:-0.834604 20:-0.38759 21:0.348173 22:0.37652 23:-0.0435627 24:0.440655 25:0.138327 26:0.645907 27:-0.035003 
0.5 1:0.100861 2:-0.0292937 3:-0.206678 4:-0.0878185 5:0.131015 6:0.0499603 7:-0.473935 8:-0.0983935 9:-0.482881 10:-0.202374 11:0.189583 12:-0.660821 13:-0.259865 14:-0.188521 15:-0.531145 16:-0.0706879 17:0.31622 18:0.31962 19:-0.338285 20:0.115351 21:0.229667 22:-0.0514289 23:-0.230953 24:-0.0978722 25:-0.142862 26:0.26519 27:-0.0711877 
0.35498297101622539 1:-0.507272 2:0.570689 3:-0.648814 4:-0.19184 5:1 6:0.351042 7:-0.303899 8:-0.474019 9:-0.333046 10:-0.572722 11:-0.971912 12:-0.214371 13:-0.538559 14:-0.406048 15:0.0686625 16:-0.228972 17:-0.0153785 18:0.807294 19:-0.806023 20:0.065969 21:0.311134 22:-0.0697079 23:0.0125766 24:-0.542588 25:-0.430511 26:-0.491632 27:-0.116969 
0.5 1:0.0355194 2:0.286957 3:-0.0231988 4:-0.194464 5:-0.136979 6:-0.18255 7:0.00373029 8:0.204883 9:-0.527825 10:-0.458847 11:-0.0723104 12:0.262698 13:-0.141733 14:-0.13527 15:-0.397836 16:-0.338081 17:0.105692 18:0.0858628 19:-0.228893 20:0.0316913 21:0.0165607 22:0.172761 23:0.119702 24:-0.0392138 25:-0.647006 26:-0.0447168 27:-0.046072 
0.5 1:-0.167746 2:0.267651 3:-0.208828 4:-0.502549 5:-0.0224251 6:-0.336781 7:0.262181 8:0.514216 9:-0.0120951 10:-0.405853 11:-0.469221 12:-0.438626 13:-0.319588 14:-0.474842 15:-0.191251 16:-0.272717 17:-0.0684809 18:0.269504 19:-0.498043 20:0.00484934 21:-0.530309 22:0.392416 23:0.116593 24:0.16339 25:-0.684871 26:-0.606656 27:-0.043844 
0.5 1:-0.212203 2:-0.141309 3:-0.525393 4:1 5:0.852713 6:0.121532 7:-0.179276 8:-0.329189 9:-0.688858 10:-0.236672 11:-0.29284 12:0.0343203 13:-0.247845 14:-0.501596 15:-0.751873 16:1 17:-0.470225 18:0.48876 19:-0.520458 20:0.0847575 21:0.318549 22:-0.215967 23:-0.202173 24:-0.562177 25:0.141718 26:-0.124276 27:-0.42159 
0.5 1:-0.215589 2:0.431129 3:-0.498903 4:-0.432686 5:0.285295 6:0.117852 7:-0.306098 8:0.028235 9:-0.0715853 10:-0.420433 11:0.10319 12:-0.329521 13:-0.591451 14:-0.584813 15:0.135634 16:-0.356856 17:0.36536 18:0.248394 19:-0.594598 20:0.0289779 21:0.196529 22:-0.10671 23:0.138976 24:-0.0178084 25:-0.324293 26:0.13544 27:0.0050638 
0.5 1:0.343706 2:0.0011858 3:-0.169606 4:0.920229 5:-1 6:-0.395982 7:0.791993 8:-0.399574 9:-0.569348 10:0.110902 11:-0.6284 12:-0.584975 13:-1 14:-0.758855 15:-0.307022 16:-0.272951 17:-0.778127 18:-1 19:-0.830559 20:-0.660368 21:-0.457948 22:-0.0253214 23:1 24:-0.607234 25:-0.583898 26:0.640613 27:-0.763877 
0.16791511940785805 1:-0.308 2:0.390798 3:-0.56959 4:-0.272763 5:0.591585 6:0.50957 7:-0.386853 8:-0.0502448 9:-0.322818 10:-0.788607 11:0.018924 12:-0.596507 13:-0.811796 14:-0.456004 15:-0.0552616 16:-0.245104 17:0.124059 18:0.380202 19:-0.65246 20:0.408476 21:0.408436 22:-0.087703 23:0.43281 24:-0.0319245 25:-0.618394 26:0.502696 27:-0.0701814 
0.5 1:-0.337906 2:0.49687 3:-0.551797 4:-0.469595 5:0.524091 6:0.203083 7:-0.407025 8:-0.00208547 9:0.0182527 10:-0.49737 11:-0.322915 12:-0.210977 13:-0.474975 14:-0.543654 15:-0.0116148 16:-0.389024 17:0.215382 18:0.496357 19:-0.568693 20:0.038705 21:0.172304 22:-0.23938 23:0.234729 24:-0.161476 25:-0.555141 26:-0.00822079 27:0.255729 
0.5 1:-0.145784 2:0.193832 3:-0.395473 4:-0.196382 5:0.270582 6:0.334324 7:-0.516608 8:-0.120116 9:-0.0589916 10:-0.769696 11:-0.317041 12:-0.359646 13:-0.554535 14:-0.652202 15:-0.197592 16:-0.419398 17:0.270012 18:-0.086367 19:-0.724551 20:0.0170557 21:0.263052 22:0.0908263 23:-0.295598 24:-0.309134 25:-0.333804 26:0.52546 27:-0.167292 
0.5 1:0.22886 2:0.393745 3:-0.0501822 4:-0.443448 5:0.100896 6:-0.0843505 7:-0.322134 8:0.320008 9:-0.627546 10:-0.518316 11:-0.411815 12:-0.358025 13:-0.16133 14:0.167852 15:-0.775995 16:-0.500328 17:0.555127 18:0.203124 19:-0.227565 20:-0.272595 21:0.0932015 22:-0.41661 23:0.0629694 24:0.45914 25:-0.273526 26:0.146865 27:0.336728 
0.5 1:0.828182 2:-0.0959769 3:0.298565 4:-0.0917945 5:-0.218677 6:-0.293826 7:-0.743379 8:-0.464916 9:-0.433565 10:-0.122332 11:0.471543 12:-0.36679 13:-0.34453 14:0.229518 15:0.195743 16:-0.591622 17:0.0640282 18:-0.0946705 19:0.226117 20:-0.274882 21:-0.0618005 22:-0.713334 23:-1 24:-0.88367 25:-0.598714 26:-0.0404413 27:-0.238872 
0.5 1:0.091614 2:0.205014 3:-0.291678 4:-0.173593 5:-0.0520414 6:-0.0599288 7:-0.241968 8:0.0494362 9:0.0462259 10:-0.586015 11:-0.0670757 12:-0.410559 13:-0.367601 14:-0.555251 15:0.256425 16:0.0257078 17:0.394168 18:-0.0311673 19:-0.561713 20:0.0798748 21:-0.246681 22:-0.783584 23:0.0127827 24:0.158637 25:-0.332077 26:0.383831 27:0.177957 
0.5 1:0.0462702 2:0.0194409 3:-0.311745 4:-0.160477 5:0.0707278 6:0.029231 7:-0.0896927 8:0.319359 9:-0.290659 10:-0.596134 11:0.264711 12:-0.363655 13:-0.309722 14:-0.275872 15:-0.276542 16:-0.299144 17:0.186379 18:-0.208615 19:-0.452872 20:-0.275549 21:-0.0501758 22:-0.160524 23:0.038135 24:0.326337 25:-0.503577 26:0.128965 27:0.0230941 
0.29594801470287518 1:-0.414869 2:0.470173 3:-0.635099 4:-0.478964 5:0.439501 6:0.43024 7:-0.227951 8:0.113621 9:0.0480761 10:-0.713187 11:-0.107603 12:-0.410928 13:-0.73319 14:-0.698065 15:0.269474 16:-0.310287 17:0.319971 18:0.412832 19:-0.874902 20:-0.047942 21:0.171077 22:-0.0860149 23:0.367568 24:0.442227 25:0.0285877 26:0.50948 27:0.00695548 
0.5 1:-0.402435 2:0.394931 3:-0.314554 4:-0.521349 5:0.336448 6:0.02986 7:-0.438734 8:-0.1761 9:0.678311 10:-0.17152 11:-0.0528304 12:-0.25844 13:-0.287104 14:-0.266744 15:0.227667 16:-0.316684 17:0.349895 18:0.443799 19:-0.636543 20:0.232469 21:-0.0454411 22:0.415448 23:-0.226176 24:-0.0154413 25:0.109597 26:0.327452 27:-0.0293015 
0.5 1:0.250974 2:-0.0544902 3:-0.0210586 4:-0.112677 5:0.156528 6:-0.210245 7:-0.285411 8:0.11277 9:-0.630685 10:-0.563692 11:-0.0550144 12:0.13158 13:0.397528 14:-0.185152 15:-0.609304 16:-0.188168 17:-0.412776 18:0.236556 19:-0.56243 20:0.0919143 21:-0.421004 22:-0.262812 23:-0.207014 24:-0.1314 25:0.361857 26:0.0839302 27:-0.204947 
0.5 1:-0.436245 2:0.208874 3:-0.61854 4:-0.201214 5:0.279186 6:0.293477 7:-0.477806 8:0.0243705 9:-0.41661 10:-0.196626 11:-0.194029 12:-0.449337 13:-0.270174 14:-0.556926 15:0.58568 16:-0.184284 17:0.21601 18:0.215355 19:-0.318443 20:0.176824 21:0.126016 22:-0.0767153 23:-0.334646 24:0.176395 25:-0.691171 26:0.17014 27:-0.0716844 
0.5 1:0.00460885 2:0.17037 3:-0.115952 4:0.102924 5:0.0248152 6:-0.0429395 7:-0.447991 8:-0.00189284 9:-0.748915 10:-0.0785704 11:0.154309 12:-0.129791 13:-0.155587 14:-0.191604 15:-0.137911 16:0.0569851 17:0.28738 18:0.252125 19:-0.380274 20:-0.119201 21:-0.0367375 22:0.0382183 23:-0.356075 24:-0.049773 25:-0.330608 26:0.0825783 27:0.0969258 
0.1034414883659998 1:0.511862 2:-0.445804 3:0.183049 4:-0.615906 5:-0.138615 6:-0.217165 7:-0.149846 8:-0.430788 9:-0.617242 10:-0.507773 11:-0.52493 12:-0.647769 13:-0.498023 14:-0.129175 15:-0.42572 16:-0.618745 17:-0.34978 18:-0.443884 19:-0.123982 20:-0.230873 21:-0.359418 22:-0.298769 23:-0.499141 24:-0.80078 25:-0.713974 26:-0.0312698 27:-0.262291 
0.5 1:0.00701479 2:0.262726 3:-0.195258 4:-0.484488 5:0.276722 6:0.180474 7:-0.37297 8:0.00714017 9:-0.144759 10:-0.446532 11:-0.000946324 12:-0.25223 13:-0.69632 14:-0.370546 15:-0.595412 16:-0.554551 17:0.0779226 18:-0.175713 19:-0.591349 20:-0.169299 21:0.0833194 22:-0.176606 23:-0.21076 24:0.068815 25:-0.45991 26:-0.0464818 27:-0.0172434 
0.5 1:0.369136 2:-0.574833 3:-0.0844488 4:0.0524378 5:0.0375529 6:0.0499825 7:-0.360764 8:-0.143894 9:-0.631235 10:-0.595243 11:-0.0736817 12:-0.761775 13:-0.593702 14:-0.481738 15:-0.590749 16:-0.198105 17:-0.0722162 18:-0.366508 19:-0.497798 20:-0.0423664 21:0.216813 22:0.220465 23:-0.416197 24:-0.257284 25:-0.0567378 26:0.56817 27:-0.334924 
0.5 1:-0.210751 2:0.628166 3:-0.343905 4:-0.232673 5:0.478602 6:0.157762 7:-0.427501 8:-0.084364 9:-0.24521 10:-0.272629 11:-0.422792 12:-0.0695582 13:-0.275758 14:-0.269124 15:-0.256427 16:-0.281044 17:-0.162667 18:0.424067 19:-0.559503 20:-0.247135 21:0.0319501 22:0.380416 23:-0.135649 24:-0.165719 25:-0.287058 26:-0.201285 27:0.0842498 
0.5 1:0.323342 2:-0.124536 3:0.0871448 4:-0.192115 5:-0.0367464 6:0.00668257 7:-0.472452 8:-0.0890991 9:-0.676375 10:-0.288341 11:-0.0108104 12:-0.730082 13:-0.450921 14:0.0446864 15:-0.463917 16:-0.29001 17:0.0253548 18:-0.063796 19:-0.188525 20:-0.163991 21:0.332009 22:0.0328028 23:-0.186675 24:-0.157046 25:-0.0944432 26:0.0561727 27:0.129448 
0.5 1:0.0910021 2:0.108227 3:0.189571 4:-0.107635 5:0.080185 6:-0.299469 7:-0.282093 8:0.0494704 9:-0.449107 10:-0.0118989 11:-0.155701 12:-0.232549 13:-0.0287507 14:0.486382 15:-0.7609 16:-0.330885 17:0.100746 18:0.644275 19:-0.238981 20:0.176555 21:-0.162947 22:-0.407753 23:0.0146757 24:-0.126875 25:-0.589988 26:-0.420107 27:-0.232471 
0.45517457872859213 1:-0.611281 2:0.619764 3:-0.619428 4:-0.872825 5:0.381768 6:0.327859 7:-0.115163 8:0.287079 9:0.540067 10:-0.748065 11:-0.433245 12:-0.228452 13:-0.630504 14:-0.720943 15:0.200483 16:-0.818432 17:0.242614 18:0.402474 19:-0.849285 20:0.178177 21:0.490582 22:-0.0266173 23:0.400113 24:0.045677 25:0.0799233 26:-0.0260705 27:-0.160705 
0.5 1:-0.0174214 2:0.183863 3:-0.0859175 4:-0.269165 5:0.0938959 6:0.0129227 7:-0.383763 8:-0.165124 9:-0.433908 10:-0.331405 11:-0.178525 12:-0.207156 13:-0.354997 14:-0.0265343 15:-0.201934 16:-0.317205 17:0.234039 18:0.213684 19:-0.434971 20:0.0101345 21:0.0634492 22:0.397955 23:-0.258677 24:-0.141442 25:-0.25782 26:0.14786 27:-0.0262346 
0.5 1:0.439862 2:-0.191903 3:0.107795 4:-0.471836 5:-0.335284 6:-0.336403 7:-0.39755 8:0.0476006 9:-0.335455 10:0.136189 11:-0.495149 12:-0.531721 13:-0.709878 14:-0.266288 15:-0.261875 16:-0.586253 17:-0.401322 18:-0.401652 19:-0.0893688 20:-0.348379 21:-0.160708 22:-0.33287 23:-0.547786 24:-0.132396 25:-0.672204 26:-0.224435 27:-0.13904 
0.5 1:-0.174671 2:-0.113101 3:-0.467208 4:-0.0310246 5:0.486462 6:1 7:-0.387597 8:-0.043684 9:-0.792073 10:-0.630503 11:0.43374 12:0.381829 13:-0.622299 14:-0.242278 15:-0.367128 16:0.0616835 17:0.00826723 18:-0.192106 19:-0.365281 20:0.202938 21:1 22:-0.020029 23:-0.0694418 24:0.213692 25:0.209063 26:0.364066 27:-0.336538 
0.5 1:-0.133008 2:-0.427149 3:-0.568051 4:-0.0611429 5:-0.442566 6:0.0382422 7:0.00424978 8:-0.291508 9:-0.691283 10:-0.497062 11:0.0152774 12:-0.722452 13:-0.335966 14:-0.709224 15:-0.00762937 16:-0.606518 17:-0.513939 18:-0.586067 19:-0.810492 20:0.144858 21:0.140738 22:-0.0556924 23:-0.264895 24:-0.66841 25:-0.606211 26:0.18874 27:-0.374382 
0.5 1:0.0522031 2:0.0460554 3:-0.0189724 4:-0.117111 5:0.303992 6:0.156291 7:-0.580305 8:-0.129479 9:-0.114139 10:-0.116269 11:0.176471 12:-0.57252 13:-0.279208 14:0.273995 15:-0.408766 16:-0.370133 17:0.67372 18:0.688773 19:-0.539605 20:0.281412 21:0.417532 22:-0.468239 23:-0.0657742 24:-0.573358 25:-0.37432 26:0.0147785 27:0.0666137 
0.5 1:0.0649949 2:0.197555 3:-0.121186 4:0.117514 5:0.194375 6:0.0320637 7:-0.500561 8:-0.19061 9:-0.352999 10:-0.394612 11:-0.146289 12:-0.155758 13:-0.0411692 14:-0.0383888 15:-0.433851 16:0.309783 17:0.146548 18:0.409796 19:-0.288372 20:-0.183725 21:0.148874 22:-0.381275 23:-0.324314 24:-0.20247 25:-0.590924 26:0.310173 27:-0.176905 
0.5 1:-0.190581 2:0.419138 3:-0.476582 4:-0.483703 5:0.417059 6:0.391055 7:-0.416591 8:-0.152504 9:-0.275007 10:-0.701028 11:0.00743623 12:-0.273766 13:-0.639321 14:-0.4763 15:-0.0564655 16:-0.562213 17:0.335496 18:0.275852 19:-0.578671 20:0.253952 21:0.344352 22:-0.0525694 23:0.117363 24:-0.38788 25:-0.243129 26:0.164033 27:0.0148353 
0.080983654444928929 1:-0.0466598 2:0.573863 3:-0.20964 4:0.0547511 5:0.416112 6:-0.177102 7:0.0854304 8:-0.150328 9:-0.667525 10:-0.548654 11:-0.505389 12:0.365834 13:-0.279557 14:-0.304596 15:-0.286677 16:0.131435 17:-0.465027 18:0.063779 19:-0.685558 20:-0.47985 21:-0.333176 22:0.314254 23:-0.0396927 24:0.152297 25:0.273306 26:0.0211742 27:-0.165991 
0.5 1:0.239428 2:-0.370699 3:0.264876 4:-0.175999 5:-0.123302 6:-0.190031 7:-0.285404 8:-0.327691 9:-0.797999 10:-0.40252 11:-0.27468 12:-0.379187 13:-0.596285 14:-0.145686 15:-0.872757 16:-0.420198 17:-0.556694 18:-0.250178 19:-0.0314513 20:0.127636 21:0.0443338 22:0.408212 23:-0.267298 24:-0.72099 25:-0.0611177 26:0.679149 27:-0.806815 
0.5 1:-0.0562238 2:0.168045 3:-0.095147 4:-0.324313 5:0.161359 6:-0.075384 7:-0.238689 8:-0.05411 9:0.416061 10:-0.107345 11:0.349507 12:-0.499544 13:-0.266085 14:-0.146296 15:-0.369294 16:-0.185647 17:0.409383 18:0.193378 19:-0.419295 20:-0.25369 21:-0.0848746 22:-0.255926 23:-0.204688 24:0.117315 25:-0.522888 26:-0.0638775 27:0.133363 
0.5 1:0.47699 2:0.021567 3:-0.445668 4:-0.677316 5:-0.328069 6:-0.116819 7:0.738763 8:0.662083 9:-0.674677 10:-0.934867 11:-0.210005 12:-0.272463 13:-0.613271 14:-0.696029 15:-0.178652 16:-0.764057 17:-0.519812 18:-0.675694 19:-0.768658 20:-0.481024 21:-0.394585 22:-0.319166 23:-0.337144 24:0.147157 25:-0.179178 26:0.234231 27:-0.398559 
0.5 1:-0.0581073 2:0.520042 3:-0.137512 4:0.01979 5:0.209056 6:0.0367485 7:-0.39423 8:-0.218385 9:-0.353757 10:-0.471969 11:-0.458533 12:-0.092586 13:-0.441687 14:0.0257778 15:0.0194446 16:0.0908352 17:-0.0977588 18:0.314214 19:-0.619052 20:-0.175426 21:0.116651 22:0.250485 23:-0.0615639 24:0.0702924 25:-0.315927 26:-0.0736962 27:-0.0102853 
0.5 1:0.369835 2:0.00707864 3:0.0402049 4:-0.329933 5:-0.232155 6:-0.243373 7:-0.19817 8:-0.137772 9:-0.540942 10:-0.450576 11:-0.346988 12:-0.0977407 13:-0.569608 14:-0.212892 15:-0.415703 16:-0.332994 17:-0.253871 18:-0.289888 19:0.213811 20:-0.483574 21:-0.321903 22:-0.11309 23:-0.383957 24:-0.26829 25:-0.248096 26:-0.0945715 27:-0.254961 
0.5 1:0.440503 2:-0.878732 3:0.584848 4:-0.0565469 5:0.228685 6:-0.555869 7:0.180568 8:-0.0849025 9:-0.868479 10:-0.445756 11:-0.601732 12:-0.538859 13:-0.400846 14:0.0805341 15:-0.524542 16:-0.235812 17:-0.356034 18:0.0137997 19:-0.571317 20:-0.199828 21:-0.48054 22:-0.472787 23:-0.82078 24:-0.889408 25:-0.741701 26:-0.0487919 27:-0.399736 
0.25324061402465903 1:-0.255472 2:0.600446 3:-0.540595 4:-0.561915 5:0.304142 6:0.459112 7:-0.341445 8:0.00636165 9:-0.341082 10:-0.652903 11:-0.493176 12:-0.2069 13:-0.668218 14:-0.699471 15:0.390729 16:-0.795512 17:0.376613 18:-0.175235 19:-0.705573 20:-0.0613643 21:0.310851 22:-0.443794 23:0.1148 24:-0.123179 25:-0.185527 26:0.251502 27:0.0282684 
0.5 1:0.0188811 2:0.496473 3:0.0760787 4:0.199804 5:0.245031 6:0.125228 7:-0.785662 8:-0.606915 9:0.371997 10:-0.412155 11:0.051987 12:-0.0224514 13:0.0503531 14:0.492195 15:-0.553471 16:-0.128967 17:0.217625 18:0.825764 19:0.0432035 20:0.123592 21:0.142403 22:-0.536704 23:-0.459209 24:-0.574698 25:-0.468466 26:0.481147 27:-0.236574 
0.5 1:0.0912944 2:0.381118 3:-0.179763 4:-0.0934223 5:0.387284 6:0.0748576 7:-0.614084 8:-0.261285 9:-0.262678 10:-0.385646 11:0.0908333 12:-0.0608966 13:-0.294243 14:-0.0589284 15:-0.603611 16:-0.319586 17:-0.144668 18:0.875015 19:-0.086941 20:-0.237953 21:0.400771 22:0.504311 23:-0.585499 24:-0.24559 25:-0.656017 26:0.305293 27:-0.145112 
0.38724648785177451 1:-0.64985 2:0.670824 3:-0.607305 4:-0.738046 5:0.676651 6:0.138701 7:-0.557927 8:0.181864 9:0.430926 10:-0.542492 11:-0.231627 12:-0.508496 13:-0.680592 14:-0.61255 15:0.341499 16:-0.414812 17:0.876452 18:0.574389 19:-0.756939 20:0.447581 21:0.257407 22:0.0537961 23:0.0694642 24:-0.245667 25:-0.521862 26:-0.342499 27:0.263073 
0.15887344252524474 1:-0.446069 2:0.550442 3:-0.570837 4:-0.702789 5:0.677214 6:0.418307 7:-0.550546 8:0.0220704 9:0.328917 10:-0.821837 11:-0.152533 12:-0.202746 13:-0.709674 14:-0.661027 15:-0.184407 16:-0.645883 17:-0.0241136 18:0.350262 19:-0.654949 20:0.554867 21:0.314755 22:0.0462265 23:-0.0303655 24:0.314592 25:-0.154724 26:-0.205006 27:0.120383 
0.5 1:-0.0117669 2:1 3:-0.161912 4:0.0959445 5:0.51459 6:-0.15456 7:-0.121691 8:-0.383653 9:-0.444829 10:-0.428143 11:-0.659156 12:0.563049 13:-0.165271 14:-0.23437 15:-0.566107 16:0.10345 17:-0.481172 18:0.240526 19:-0.507914 20:-0.108824 21:-0.129968 22:-0.201384 23:-0.433923 24:-0.586173 25:0.198827 26:-0.0479525 27:-0.380033 
0.48482732250275523 1:-0.512308 2:0.341917 3:-0.729325 4:-0.048852 5:0.507719 6:0.759436 7:-0.679689 8:-0.111754 9:-0.71835 10:-0.669688 11:0.147663 12:-0.340422 13:-0.388168 14:-0.67357 15:-0.300475 16:0.205515 17:-0.000300102 18:0.259173 19:-0.621602 20:0.402424 21:0.485352 22:-0.318506 23:-0.130405 24:0.137419 25:-0.0224941 26:0.775813 27:-0.236627 
0.5 1:-0.101782 2:0.304623 3:-0.170959 4:-0.367071 5:0.132616 6:-0.0696362 7:-0.0939566 8:0.147465 9:-0.272311 10:-0.433021 11:0.259 12:-0.0219984 13:-0.384883 14:-0.0876235 15:-0.203512 16:-0.105573 17:0.428747 18:0.207131 19:-0.479072 20:0.0683523 21:-0.0670101 22:0.151996 23:-0.136266 24:0.0817917 25:-0.649306 26:-0.0891046 27:0.131883 
0.5 1:0.0779592 2:0.0782778 3:-0.318346 4:-0.126632 5:-0.705066 6:-0.420223 7:0.265442 8:0.0423323 9:-0.322012 10:-0.482685 11:-0.513723 12:-0.563626 13:0.123013 14:-0.809434 15:0.590419 16:-0.724211 17:-1 18:-0.980901 19:-0.825659 20:-0.223314 21:-0.346595 22:0.586378 23:0.114346 24:0.0573943 25:-0.570086 26:0.755194 27:-0.876329 
0.5 1:0.266171 2:-0.0919752 3:0.00832265 4:-0.128923 5:0.113312 6:-0.121613 7:-0.186622 8:0.0377808 9:-0.373899 10:-0.291386 11:-0.322089 12:-0.481938 13:-0.575759 14:-0.168322 15:-0.518069 16:0.0354698 17:0.236051 18:0.324214 19:-0.378193 20:-0.160406 21:-0.109598 22:-0.352325 23:-0.167759 24:0.0203701 25:-0.760591 26:0.0644853 27:0.108209 
0.5 1:-0.050062 2:0.120731 3:-0.111634 4:-0.181214 5:0.237287 6:-0.0304654 7:-0.25848 8:-0.0843486 9:-0.359103 10:-0.367482 11:-0.638747 12:-0.617653 13:-0.452789 14:-0.213632 15:-0.295097 16:-0.0682504 17:0.000741858 18:0.0381467 19:-0.624864 20:-0.109279 21:-0.042254 22:0.094256 23:-0.011818 24:-0.186739 25:-0.678771 26:-0.364073 27:0.0336987 
0.5 1:0.340097 2:0.0611004 3:0.256968 4:-0.177132 5:-0.208958 6:-0.220304 7:-0.388645 8:-0.258433 9:-0.645107 10:-0.424501 11:-0.272266 12:-0.460728 13:-0.47242 14:-0.0476485 15:-0.494182 16:-0.39261 17:-0.0866644 18:-0.377851 19:-0.298327 20:-0.308052 21:0.106873 22:-0.0852947 23:-0.323705 24:-0.390359 25:-0.194495 26:-0.00350728 27:-0.182417 
-0.16577078517276192 1:-0.0506362 2:0.142135 3:-0.161554 4:-0.496046 5:0.228915 6:-0.0132796 7:-0.564939 8:-0.164279 9:-0.16406 10:-0.236746 11:0.385239 12:-0.593994 13:-0.255274 14:-0.138922 15:0.620065 16:-0.574225 17:0.695813 18:0.81688 19:-0.452471 20:0.217903 21:-0.245788 22:-0.374123 23:-0.0433233 24:-0.569915 25:-0.366398 26:-0.312055 27:0.171169 
-0.099642155514605521 1:-0.0324171 2:-0.0606062 3:-0.22402 4:-0.363713 5:-0.237979 6:-0.0943531 7:-0.0306054 8:0.622505 9:-0.0768958 10:-0.319519 11:0.382939 12:-0.849327 13:-0.317587 14:-0.361252 15:0.0257786 16:-0.57134 17:0.353639 18:-0.0986367 19:-0.0610837 20:-0.307424 21:0.0905593 22:-0.228529 23:-0.0948001 24:0.947363 25:0.0935192 26:0.790217 27:0.118382 
-0.5 1:-0.126344 2:0.596006 3:-0.30583 4:-0.0877064 5:0.014011 6:-0.0620831 7:-0.41832 8:-0.206737 9:-0.235912 10:-0.456967 11:0.376531 12:1 13:-0.269823 14:-0.4105 15:-0.472467 16:-0.0217542 17:-0.593282 18:-0.47391 19:-0.383677 20:-0.232998 21:-0.28539 22:0.41294 23:-0.202946 24:-0.341424 25:1 26:0.0202896 27:-0.530008 
-0.5 1:0.369835 2:0.00707864 3:0.0402049 4:-0.329933 5:-0.232155 6:-0.243373 7:-0.19817 8:-0.137772 9:-0.540942 10:-0.450576 11:-0.346988 12:-0.0977407 13:-0.569608 14:-0.212892 15:-0.415703 16:-0.332994 17:-0.253871 18:-0.289888 19:0.213811 20:-0.483574 21:-0.321903 22:-0.11309 23:-0.383957 24:-0.26829 25:-0.248096 26:-0.0945715 27:-0.254961 
-0.5 1:-0.0220945 2:0.250426 3:-0.218212 4:-0.547399 5:0.106289 6:-0.138163 7:0.164602 8:0.36206 9:-0.171634 10:-0.680318 11:0.481159 12:-0.651667 13:-0.431748 14:-0.41978 15:-0.142688 16:-0.357256 17:0.374584 18:0.271968 19:-0.607953 20:0.049492 21:-0.117335 22:0.0455297 23:0.194546 24:0.617905 25:-0.537147 26:-0.0644991 27:0.134798 
-0.089298185695924223 1:-0.124075 2:0.280653 3:-0.216988 4:-0.336166 5:0.18089 6:-0.169057 7:-0.412511 8:0.255507 9:0.0552363 10:-0.57186 11:0.941607 12:-0.231163 13:-0.283769 14:0.10406 15:0.0727673 16:-0.344462 17:0.695693 18:0.510078 19:-0.417434 20:0.344728 21:0.0979649 22:-0.295971 23:-0.276909 24:-0.226085 25:-0.789353 26:-0.105478 27:0.599179 
-0.5 1:0.234399 2:0.130658 3:-0.108227 4:-0.175962 5:0.0622911 6:-0.133214 7:-0.36668 8:0.127092 9:-0.217522 10:-0.424262 11:-0.204644 12:-0.209267 13:-0.557139 14:-0.295159 15:-0.267268 16:0.18294 17:0.216795 18:0.228172 19:-0.456838 20:0.0924074 21:-0.0721152 22:0.0486773 23:-0.295579 24:-0.07029 25:-0.224078 26:0.0403539 27:0.00350935 
-0.084613642024115088 1:-0.100751 2:-0.0528333 3:-0.0126295 4:-0.155414 5:-0.0419741 6:-0.164912 7:-0.387268 8:-0.187673 9:-0.0876482 10:0.352874 11:0.100505 12:-0.454835 13:-0.121135 14:0.141723 15:0.033447 16:-0.409678 17:0.543408 18:0.377314 19:0.0985007 20:0.0204008 21:-0.26637 22:-0.483226 23:-0.142746 24:-0.668758 25:-0.74504 26:-0.0735077 27:0.262724 
-0.5 1:-0.0582681 2:0.3375 3:-0.219072 4:-0.335991 5:0.0405668 6:0.0983475 7:-0.401387 8:-0.00324927 9:0.416287 10:-0.422897 11:0.1238 12:-0.10898 13:-0.509753 14:-0.299717 15:0.0596002 16:-0.152341 17:0.277224 18:0.296667 19:-0.571203 20:0.0618223 21:-0.0359311 22:-0.127807 23:0.00777765 24:-0.0656762 25:0.155499 26:0.26536 27:-0.0890868 
-0.12597408675063371 1:-0.137666 2:0.18713 3:-0.140829 4:-0.42881 5:0.338003 6:-0.0649419 7:-0.493701 8:-0.230429 9:-0.121354 10:-0.291233 11:0.147258 12:-0.451639 13:-0.0918852 14:0.00183423 15:0.149502 16:-0.0169649 17:0.954622 18:0.584335 19:-0.557054 20:0.215641 21:-0.336725 22:-0.111102 23:-0.336467 24:-0.312546 25:-0.722074 26:-0.361323 27:0.69028 
-0.5 1:0.261027 2:-0.190158 3:-0.0824258 4:-0.22302 5:-0.551127 6:-0.418725 7:0.234328 8:0.861753 9:-0.265365 10:-0.730483 11:0.438384 12:-0.897985 13:-0.23878 14:-0.687389 15:-0.192147 16:-0.483972 17:-0.147404 18:-0.456437 19:-0.192458 20:-0.620999 21:-0.315821 22:-0.27812 23:-0.360776 24:0.481933 25:-0.353569 26:0.582805 27:-0.142761 
-0.5 1:0.0930434 2:0.445698 3:-0.135636 4:-0.071605 5:0.205678 6:0.123991 7:-0.405019 8:-0.103528 9:-0.214553 10:-0.398069 11:-0.25865 12:-0.175137 13:-0.355381 14:0.0151482 15:-0.496291 16:-0.0163294 17:0.0404221 18:0.452017 19:-0.273703 20:0.094302 21:0.571009 22:0.188602 23:0.0446134 24:0.121648 25:-0.0872613 26:0.346696 27:0.079548 
-0.5 1:-0.0987902 2:0.165274 3:-0.46824 4:-0.44648 5:-0.0536905 6:-0.0747253 7:-0.116176 8:-0.00991339 9:0.00233337 10:-0.631117 11:0.388273 12:-0.74605 13:-0.32388 14:-0.68914 15:0.339966 16:-0.755518 17:-0.173138 18:0.00752569 19:-0.76557 20:0.301814 21:0.229585 22:0.347067 23:-0.124466 24:-0.21944 25:0.126458 26:0.311114 27:-0.27716 
-0.5 1:-0.0207074 2:0.0617285 3:-0.112546 4:0.0295567 5:0.116919 6:0.0418012 7:-0.251969 8:-0.189763 9:0.168363 10:-0.281929 11:0.595559 12:-0.526347 13:-0.0890923 14:0.0139409 15:-0.578598 16:0.245985 17:0.219945 18:0.325979 19:-0.245052 20:0.369266 21:0.717364 22:-0.666945 23:0.113004 24:-0.342459 25:0.0569402 26:-0.14696 27:0.134088 
-0.10431530962749416 1:-0.0739964 2:0.246737 3:-0.17472 4:-0.74796 5:0.108032 6:-0.32465 7:-0.134519 8:0.120568 9:0.658822 10:-0.312461 11:0.61662 12:-0.626396 13:-0.31455 14:-0.185702 15:0.489559 16:-0.534892 17:0.806588 18:0.194169 19:-0.203093 20:0.136853 21:-0.473527 22:-0.489326 23:-0.394386 24:-0.0220923 25:-0.869041 26:-0.471337 27:0.587334 
-0.5 1:-0.00372055 2:0.399791 3:-0.376963 4:-0.313454 5:-0.175835 6:-0.137151 7:0.0307751 8:0.606928 9:-0.211673 10:-0.65306 11:0.360978 12:-0.175098 13:-0.428226 14:-0.240852 15:0.803295 16:-0.481557 17:0.224901 18:0.328568 19:0.020055 20:-0.0691498 21:0.64426 22:-0.656825 23:0.0847843 24:1 25:-0.119549 26:0.510733 27:0.19601 
-0.5 1:0.116478 2:0.255515 3:-0.012282 4:-0.335924 5:0.0513537 6:-0.0814485 7:-0.266818 8:-0.111942 9:-0.474225 10:-0.588555 11:-0.31547 12:-0.0369838 13:-0.3371 14:0.124251 15:-0.323181 16:-0.392171 17:0.0597516 18:0.0661283 19:-0.336197 20:0.272164 21:0.0720351 22:0.289383 23:0.07524 24:-0.183648 25:-0.436532 26:0.157901 27:-0.0267239 
-0.5 1:0.144435 2:-0.352072 3:0.00473115 4:0.0226587 5:0.0768165 6:-0.24704 7:-0.457666 8:-0.224129 9:-0.477601 10:-0.370468 11:-0.41051 12:-0.738272 13:-0.490449 14:-0.538324 15:-0.217941 16:-0.102347 17:-0.131681 18:-0.0961696 19:-0.476509 20:0.400557 21:-0.252006 22:-0.135254 23:-0.533765 24:-0.525704 25:0.0968248 26:-0.0358035 27:-0.215047 
-0.044445176777409445 1:-0.0737786 2:0.262728 3:-0.177919 4:-0.576563 5:0.127127 6:-0.0996196 7:0.0904453 8:0.117482 9:0.0368622 10:-0.381623 11:-0.0498915 12:-0.332579 13:-0.262417 14:-0.212647 15:0.413097 16:-0.537377 17:0.375326 18:0.28769 19:-0.594402 20:0.177851 21:-0.397001 22:-0.565513 23:0.168424 24:0.384648 25:-0.606608 26:-0.294586 27:0.0812718 
-0.5 1:0.709 2:-0.592238 3:0.076879 4:-0.413831 5:-0.0857454 6:0.0933553 7:1 8:0.184464 9:-0.574054 10:-0.659257 11:-0.53862 12:-0.803046 13:-0.724997 14:-0.293909 15:-0.930514 16:-0.443812 17:-0.752478 18:-0.333869 19:-0.72432 20:-0.211526 21:-0.119927 22:-0.0775242 23:-0.177637 24:-0.498102 25:-0.752285 26:-0.437355 27:-0.558649 
-0.2437557055493654 1:0.102475 2:0.0981788 3:-0.0214744 4:-0.104077 5:-0.23742 6:-0.155798 7:-0.325363 8:0.0739878 9:0.0468635 10:-0.57244 11:0.254493 12:-0.197651 13:-0.567809 14:-0.256895 15:0.517878 16:-0.0847824 17:-0.258745 18:-0.0187654 19:0.154087 20:-0.329899 21:0.177562 22:-0.174601 23:-0.693577 24:0.787056 25:-0.393531 26:0.419016 27:-0.469949 
-0.096005007919986077 1:-0.0206595 2:0.287135 3:-0.235409 4:-0.719597 5:0.0848862 6:-0.245023 7:0.164732 8:0.0488775 9:0.133684 10:-0.689324 11:0.635256 12:-0.60279 13:-0.230159 14:-0.341535 15:0.602967 16:-0.78619 17:0.689358 18:0.357472 19:-0.535288 20:0.102464 21:-0.287846 22:-0.173669 23:0.0101775 24:-0.280002 25:-0.820141 26:-0.48203 27:0.241304 
-0.5 1:0.711351 2:-0.495023 3:1 4:-0.197694 5:-0.653976 6:-0.942443 7:0.505469 8:-0.381688 9:-0.810705 10:-0.288299 11:-0.737345 12:-0.639149 13:-0.402622 14:-0.303085 15:-0.896438 16:-0.528569 17:-0.791865 18:-0.888111 19:-0.46784 20:-0.629347 21:-0.900186 22:-0.552269 23:-0.682959 24:-0.769289 25:-0.893631 26:-0.850474 27:-0.686039 
-0.5 1:-0.00509349 2:0.5171 3:-0.3186 4:-0.145363 5:0.22715 6:-0.00413638 7:-0.388679 8:-0.398176 9:0.474683 10:-0.326229 11:-0.470576 12:-0.0106288 13:-0.479932 14:-0.442568 15:0.00470991 16:-0.17917 17:0.168126 18:0.176906 19:-0.460636 20:0.0808833 21:-0.0528403 22:0.357394 23:-0.0447457 24:-0.685071 25:-0.625073 26:0.2628 27:0.0875559 
-0.22963827409069806 1:-0.25383 2:0.485891 3:-0.493885 4:-0.63224 5:-0.0850011 6:-0.141989 7:-0.244145 8:-0.293336 9:0.316976 10:-0.065127 11:0.142439 12:-0.428809 13:-0.922928 14:-0.67707 15:0.667372 16:-0.615034 17:0.261195 18:-0.170431 19:0.0140648 20:0.125027 21:-0.529074 22:-0.0762618 23:-0.268637 24:-0.790441 25:-0.607624 26:-0.500276 27:0.361326 
-0.5 1:-0.0632669 2:0.283277 3:0.0652367 4:-0.321879 5:0.212785 6:-0.616906 7:-0.140933 8:-7.03158e-05 9:-0.2394 10:-0.0599562 11:-0.563685 12:-0.416137 13:-0.286005 14:-0.270166 15:-0.878944 16:-0.310146 17:-0.426432 18:0.137368 19:-0.29626 20:0.0557655 21:-0.333212 22:-0.00398838 23:-0.598706 24:-0.316309 25:-0.512313 26:-0.395569 27:-0.247275 
-0.5 1:0.0519654 2:0.25661 3:-0.156934 4:-0.281839 5:0.149342 6:-0.213863 7:-0.145141 8:0.111173 9:-0.269778 10:-0.348213 11:-0.111276 12:-0.263819 13:-0.495285 14:-0.241414 15:0.149656 16:-0.0101544 17:0.491889 18:0.194471 19:-0.566139 20:0.0122825 21:-0.524662 22:0.285168 23:-0.190601 24:0.166098 25:-0.814396 26:-0.462671 27:0.242553 
-0.5 1:0.219544 2:0.656925 3:-0.276597 4:-0.36143 5:0.242328 6:0.0505096 7:-0.549127 8:-0.218748 9:-0.175984 10:-0.385563 11:-0.299062 12:-0.367569 13:-0.724756 14:-0.30566 15:-0.139471 16:-0.553059 17:0.122545 18:0.40035 19:-0.186071 20:-0.0234769 21:0.229834 22:0.705475 23:0.0384749 24:-0.00270421 25:-0.281916 26:-0.0308012 27:0.113981 
-0.5 1:0.0185694 2:0.196342 3:-0.17627 4:-0.565076 5:0.0537418 6:-0.419537 7:-0.366869 8:0.148257 9:-0.685643 10:1 11:-0.470496 12:-0.215886 13:0.111495 14:0.288438 15:-0.0985949 16:-0.801975 17:0.383303 18:0.119106 19:0.0872195 20:-0.0506386 21:-0.638801 22:-0.489673 23:-0.265719 24:0.36758 25:-0.879995 26:-1 27:1 
-0.5 1:0.250975 2:-0.171092 3:0.262878 4:-0.105654 5:0.0321107 6:0.00772041 7:-0.814563 8:-0.435114 9:0.227785 10:0.257894 11:-0.283102 12:-0.59289 13:-0.123352 14:0.59087 15:-0.73414 16:-0.42085 17:0.166165 18:-0.0207815 19:-0.0920618 20:-0.127082 21:0.250904 22:-0.415905 23:-0.62994 24:-0.596928 25:0.0877538 26:0.540845 27:-0.0378712 
-0.5 1:0.0785013 2:-0.246382 3:-0.195256 4:-0.0262639 5:0.0813677 6:0.15021 7:-0.412297 8:-0.262407 9:-0.930189 10:-0.00743537 11:0.147914 12:-0.392404 13:-0.571381 14:-0.530235 15:-0.326447 16:-0.266297 17:-0.0172005 18:0.0288001 19:-0.428993 20:-0.0875674 21:0.173735 22:0.243032 23:-0.421176 24:-0.623498 25:-0.473076 26:0.442502 27:-0.202451 
-0.5 1:0.0737109 2:0.0182093 3:-0.527591 4:-0.522453 5:0.221631 6:0.26181 7:-0.138429 8:0.217793 9:-0.23882 10:-0.763299 11:1 12:-0.638618 13:-0.490176 14:-0.692406 15:0.409461 16:-0.33036 17:0.0290299 18:0.177474 19:-0.48984 20:-0.449835 21:0.535089 22:0.488675 23:-0.0256497 24:0.0401754 25:-0.768508 26:-0.279331 27:0.615666 
-0.5 1:1 2:-0.498133 3:0.623637 4:-0.262389 5:-0.357676 6:-0.408052 7:-0.690531 8:-0.835699 9:-0.681371 10:-0.0588681 11:-0.557452 12:-0.685836 13:-0.340301 14:-0.0533394 15:-0.905124 16:-0.464494 17:-0.345006 18:-0.123573 19:-0.499251 20:-0.228162 21:-0.401911 22:-0.572483 23:-0.695896 24:-0.789417 25:-0.217418 26:-0.487254 27:-0.569125 
-0.5 1:0.201384 2:0.301776 3:0.0321799 4:-0.118722 5:0.0942082 6:0.0439737 7:-0.995394 8:-0.187209 9:-0.802102 10:-0.202981 11:0.282087 12:0.126385 13:-0.177014 14:0.280055 15:-0.189558 16:0.0904338 17:0.23951 18:0.347948 19:0.0656636 20:0.433414 21:0.155678 22:-0.788331 23:-0.825936 24:-0.183303 25:-0.0758458 26:-0.186141 27:0.476787 
-0.5 1:0.186074 2:0.0324864 3:0.105285 4:-0.163069 5:0.0424802 6:-0.103496 7:-0.352256 8:0.0617281 9:-0.314361 10:-0.0603503 11:0.0849356 12:-0.625364 13:-0.0859802 14:0.597747 15:-0.712132 16:-0.230641 17:0.549739 18:-0.00832605 19:-0.115899 20:0.415502 21:-0.320667 22:-0.86001 23:0.0203633 24:0.12886 25:-0.770527 26:-0.495293 27:0.0231387 
-0.5 1:-0.0704846 2:0.195747 3:-0.0812452 4:-0.25311 5:0.0798519 6:-0.0280684 7:-0.359843 8:-0.0145467 9:-0.52941 10:-0.462567 11:0.0563166 12:-0.233471 13:-0.0852639 14:0.0305514 15:-0.449246 16:-0.367016 17:0.279194 18:0.438568 19:-0.319765 20:0.26984 21:0.060605 22:-0.14549 23:-0.152688 24:0.035182 25:-0.191374 26:0.0163749 27:-0.0421983 
-0.5 1:-0.0132091 2:0.257982 3:-0.280341 4:-0.239453 5:0.0750798 6:0.165152 7:-0.368938 8:-0.0976657 9:-0.384795 10:-0.417674 11:-0.117574 12:-0.019281 13:-0.202068 14:-0.281694 15:0.0169158 16:-0.410404 17:0.241322 18:0.00378367 19:-0.287251 20:-0.15536 21:0.698084 22:0.191467 23:-0.230067 24:-0.146685 25:-0.261181 26:0.389616 27:0.103152 
-0.5 1:-1 2:-0.0150856 3:-1 4:-0.762174 5:0.707296 6:0.514599 7:0.0221687 8:0.41489 9:-0.337449 10:-0.397238 11:-0.509837 12:-0.743633 13:-0.301948 14:-1 15:-0.125917 16:-0.119262 17:0.00924373 18:0.21008 19:-0.680859 20:-0.324673 21:-0.00798314 22:-0.0601693 23:-0.0498811 24:-0.0887891 25:0.0105219 26:0.182235 27:-0.326289 
-0.5 1:0.123846 2:0.0596307 3:-0.273735 4:-0.112913 5:0.247454 6:-0.231857 7:-0.797395 8:-0.121474 9:-0.108587 10:0.0405736 11:-0.644858 12:-0.46659 13:-0.644899 14:-0.362327 15:0.261054 16:-0.136606 17:-0.252215 18:-0.120421 19:-0.890555 20:-0.443309 21:-0.17015 22:-0.134885 23:-0.7698 24:-0.220226 25:-0.273362 26:-0.0763093 27:0.214301 
-0.5 1:0.886584 2:-0.853348 3:0.0727794 4:0.153425 5:-0.256594 6:-0.273123 7:0.116711 8:0.628652 9:-0.628051 10:-0.55303 11:-0.816912 12:-1 13:-0.51996 14:-0.472145 15:-1 16:-0.484586 17:-0.586782 18:-0.461482 19:-0.690761 20:-0.267821 21:-0.434064 22:-0.0666404 23:-0.000838242 24:0.00730618 25:-0.647992 26:-0.265103 27:-0.651238 
-0.5 1:-0.0331787 2:0.0393054 3:-0.112523 4:-0.611716 5:-0.0236691 6:-0.164257 7:-0.347844 8:0.0903797 9:-0.171757 10:-0.319318 11:-0.171978 12:-0.68415 13:-0.62231 14:-0.0600661 15:-0.361665 16:-0.58464 17:0.325529 18:-0.191363 19:-0.346383 20:0.185824 21:-0.201644 22:-0.388176 23:-0.49442 24:0.0175625 25:-0.764759 26:-0.353646 27:0.440988 
-0.5 1:-0.133269 2:0.574056 3:-0.382852 4:-0.224727 5:0.278078 6:-0.0760707 7:-0.192672 8:0.0281742 9:0.0420748 10:-0.528233 11:0.204024 12:-0.206863 13:-0.161903 14:-0.359462 15:-0.404147 16:-0.0855383 17:0.102981 18:0.588838 19:-0.290046 20:0.145099 21:-0.185502 22:0.0875358 23:-0.0144509 24:-0.36808 25:-0.545104 26:-0.133264 27:0.241669 
-0.5 1:-0.25332 2:0.351252 3:-0.426279 4:-0.445203 5:0.215771 6:-0.0418455 7:-0.0967131 8:0.117564 9:0.589175 10:-0.334593 11:-0.304242 12:-0.479749 13:-0.293129 14:-0.488886 15:0.119933 16:-0.205179 17:0.0302109 18:0.282796 19:-0.28504 20:0.336029 21:0.0496203 22:-0.0768926 23:0.210886 24:0.227111 25:-0.59143 26:-0.0212603 27:-0.0183209 
-0.5 1:-0.144995 2:0.23619 3:-0.242401 4:0.106096 5:0.172023 6:-0.0114621 7:-0.333322 8:0.0748051 9:-0.247473 10:-0.525963 11:0.199058 12:0.162296 13:-0.496988 14:-0.172018 15:-0.00700977 16:0.133021 17:0.367829 18:0.0584395 19:-0.350478 20:-0.206276 21:-0.0164317 22:-0.160389 23:-0.629738 24:-0.565652 25:-0.552825 26:-0.0404383 27:0.276024 
-0.17979183967879872 1:-0.119935 2:0.440414 3:-0.336919 4:-0.417137 5:0.250144 6:-0.111728 7:-0.405951 8:0.126955 9:-0.358504 10:-0.602223 11:0.477566 12:-0.341519 13:-0.359887 14:-0.329553 15:0.123018 16:-0.241979 17:0.62508 18:0.672541 19:-0.0901502 20:0.37471 21:-0.261991 22:-0.380923 23:0.214257 24:-0.26553 25:-0.417757 26:-0.281051 27:0.8165 
-0.16117686933886724 1:0.228976 2:-0.0834781 3:0.0656836 4:-0.0297161 5:0.160161 6:-0.0898766 7:-0.667217 8:-0.272092 9:-0.385159 10:-0.311112 11:0.0291276 12:-0.60989 13:-0.148014 14:0.207113 15:-0.283482 16:-0.0885973 17:0.231062 18:0.569109 19:-0.233696 20:-0.153019 21:-0.0616118 22:-0.126941 23:-0.402853 24:-0.0405903 25:-0.318711 26:0.423848 27:0.288613 
-0.0072589884439110616 1:0.0517848 2:0.26688 3:-0.244289 4:-0.292321 5:0.192088 6:-0.0332648 7:-0.445459 8:0.0041373 9:-0.426798 10:-0.0935755 11:-0.166918 12:-0.106851 13:-0.500624 14:0.0837507 15:0.256458 16:-0.305568 17:0.386694 18:0.322764 19:-0.319222 20:0.602938 21:0.105435 22:-0.527147 23:-0.20682 24:0.344591 25:-0.645689 26:-0.171587 27:0.175003 
-0.30488380635942464 1:0.0286551 2:0.166099 3:-0.111571 4:-0.0841594 5:0.109969 6:-0.070574 7:-0.642931 8:-0.0427543 9:-0.429611 10:-0.268995 11:-0.0979777 12:-0.35363 13:-0.324267 14:0.102247 15:-0.236904 16:-0.0314678 17:0.142302 18:0.295303 19:-0.238765 20:0.30042 21:0.0606596 22:-0.0644018 23:-0.494073 24:0.0587547 25:-0.540608 26:0.111829 27:-0.0447638 
-0.5 1:0.191293 2:-0.430948 3:-0.124526 4:0.34016 5:-0.0163035 6:-0.0970884 7:-0.368662 8:-0.268443 9:-0.563568 10:-0.641707 11:-0.03412 12:-0.774102 13:-0.471095 14:-0.319509 15:-0.432346 16:0.128726 17:-0.0583855 18:-0.0407098 19:-0.509241 20:-0.24548 21:-0.00855951 22:-0.0876839 23:-0.163874 24:-0.606971 25:0.0415108 26:0.404194 27:-0.268138 
-0.5 1:-0.248509 2:-0.0870279 3:-0.648391 4:-0.291034 5:-0.335026 6:-0.242694 7:0.693764 8:0.987997 9:-0.547379 10:-0.779401 11:0.496542 12:-0.899674 13:-0.493762 14:-0.966178 15:-0.0634324 16:-0.304353 17:0.0708443 18:-0.210492 19:-0.51975 20:-0.340802 21:-0.390928 22:-0.494315 23:0.164146 24:0.0745289 25:-0.196985 26:0.68982 27:-0.017959 
-0.5 1:0.12649 2:-0.123066 3:-0.301472 4:0.145452 5:0.0539551 6:0.401099 7:-0.496025 8:-0.15525 9:-0.446749 10:-0.497006 11:-0.090318 12:-0.691906 13:-0.398325 14:-0.347266 15:-0.186786 16:-0.0725192 17:0.024773 18:-0.0283896 19:-0.311103 20:0.00338067 21:0.549651 22:0.231505 23:-0.174221 24:-0.195354 25:-0.355049 26:0.640497 27:-0.0932483 
-0.46018115605907456 1:0.21802 2:-0.109668 3:-0.166361 4:-0.225662 5:0.126628 6:0.0912524 7:-0.43006 8:-0.27062 9:-0.698645 10:0.0221305 11:-0.145371 12:-0.462077 13:-0.427807 14:-0.200524 15:0.0570691 16:0.124865 17:0.338071 18:0.51115 19:-0.503681 20:-0.246047 21:0.253255 22:0.602607 23:-0.00811168 24:-0.263342 25:-0.604385 26:0.740724 27:-0.0621076 
-0.24353658428210481 1:0.141124 2:0.0424805 3:-0.280983 4:0.0239967 5:0.0769819 6:0.129661 7:-0.472657 8:-0.274301 9:0.493146 10:-0.762503 11:0.610516 12:-0.916783 13:-0.218763 14:-0.211816 15:0.0467763 16:0.280061 17:0.0618464 18:0.39662 19:-0.508619 20:-0.148661 21:0.466433 22:-0.339433 23:-0.349409 24:-0.512843 25:0.0857347 26:0.561705 27:-0.128736 
-0.5 1:0.033378 2:0.25071 3:-0.00966835 4:0.163667 5:0.326053 6:0.032738 7:-0.548479 8:-0.331369 9:-0.643339 10:-0.360171 11:-0.0294203 12:-0.153287 13:-0.462585 14:-0.226055 15:-0.765505 16:0.11642 17:-0.23077 18:0.287247 19:-0.0953854 20:0.297547 21:-0.0621748 22:-0.221227 23:-0.266913 24:-0.366469 25:-0.190128 26:0.122 27:-0.343522 
-0.5 1:-0.475619 2:0.51148 3:-0.572826 4:-0.617455 5:0.269495 6:0.383861 7:-0.41236 8:0.0549275 9:0.415417 10:-0.734279 11:-0.0627874 12:-0.626456 13:-0.736776 14:-0.559341 15:0.478939 16:-0.323514 17:0.819505 18:0.382618 19:-0.578713 20:0.196311 21:0.391858 22:-0.0927449 23:0.0315769 24:-0.23185 25:-0.37747 26:0.110244 27:0.376725 
-0.5 1:0.778057 2:-0.125022 3:0.62572 4:-0.0794968 5:-0.690552 6:-0.448684 7:-0.148968 8:-0.504526 9:0.0839198 10:-0.393105 11:-0.74768 12:-0.40825 13:-0.797916 14:-0.107278 15:-0.324718 16:-0.646152 17:-0.831426 18:-0.982247 19:0.60748 20:-0.379343 21:-0.324619 22:0.106899 23:-0.324374 24:-0.79562 25:-0.560714 26:0.0244792 27:-0.740357 
-0.48483738420207462 1:0.0801395 2:0.163747 3:0.00371359 4:-0.0800782 5:-0.0615822 6:-0.0713705 7:-0.506045 8:-0.112407 9:-0.457095 10:-0.231054 11:0.0773899 12:-0.0624545 13:-0.290788 14:0.144796 15:-0.224703 16:-0.224768 17:0.157041 18:0.20205 19:-0.220222 20:0.0521176 21:0.268043 22:-0.16701 23:-0.342032 24:-0.494546 25:-0.30734 26:0.122773 27:-0.00166937 
-0.5 1:-0.17227 2:0.236357 3:-0.0489342 4:0.259225 5:-0.233405 6:-0.231313 7:-0.469593 8:-0.422091 9:-0.904549 10:0.0421758 11:-0.0618679 12:-0.49258 13:0.0220396 14:-0.190036 15:-0.435793 16:0.40804 17:0.572197 18:-0.430815 19:1 20:-0.144731 21:-0.437027 22:-0.413038 23:-0.111863 24:-0.715759 25:-0.559252 26:0.0423582 27:0.785662 
-0.41124730538104221 1:-0.135329 2:0.478522 3:-0.388655 4:-0.660165 5:0.404265 6:-0.0148398 7:-0.291597 8:-0.136997 9:-0.206516 10:-0.493221 11:-0.66189 12:-0.185257 13:-0.249195 14:-0.448529 15:0.672278 16:-0.332135 17:-0.0745649 18:0.312113 19:0.0287805 20:0.313353 21:-0.63036 22:-0.145236 23:-0.326044 24:-0.479533 25:-0.66024 26:-0.304857 27:0.171064 
-0.5 1:0.607601 2:-0.619703 3:-0.0578412 4:0.307039 5:-0.184081 6:-0.586569 7:0.697521 8:0.467515 9:-0.890827 10:-0.749543 11:-0.587709 12:-0.33452 13:-0.903202 14:-0.845129 15:-0.771148 16:-0.0855537 17:-0.260011 18:-0.687216 19:-0.675269 20:-0.43279 21:-0.682531 22:-0.273438 23:-0.79559 24:-0.639093 25:-0.384438 26:-0.489356 27:-0.579677 
-0.5 1:0.281453 2:0.00250649 3:-0.0910378 4:-0.151399 5:-0.114029 6:-0.0831208 7:-0.473026 8:-0.203004 9:-0.521007 10:-0.138775 11:0.257578 12:-0.433012 13:-0.189387 14:-0.338498 15:-0.466044 16:-0.538226 17:-0.211066 18:-0.218224 19:-0.0684811 20:0.0160865 21:0.185489 22:-0.145961 23:-0.268629 24:-0.248314 25:-0.347495 26:0.26846 27:-0.213008 
-0.5 1:-0.185457 2:0.180631 3:-0.265649 4:-0.28703 5:0.563212 6:0.248526 7:-0.606532 8:-0.152728 9:-0.402465 10:-0.471094 11:-0.687659 12:-0.602588 13:-0.399903 14:-0.175869 15:-0.188698 16:-0.273115 17:0.194133 18:0.433273 19:-0.549862 20:0.0951001 21:0.165946 22:0.251919 23:-0.0293221 24:-0.243023 25:-0.561468 26:-0.0609388 27:0.178175 
-0.22985303288348341 1:-0.055151 2:0.510008 3:-0.217449 4:-0.292573 5:-0.220101 6:-0.431915 7:-0.238355 8:0.134582 9:0.510155 10:-0.0492958 11:-0.474776 12:-0.115788 13:-0.486977 14:-0.43449 15:0.429934 16:-0.128412 17:0.264955 18:-0.144672 19:-0.25183 20:-0.0030453 21:-0.404326 22:-0.124955 23:-0.187202 24:0.659571 25:-0.869028 26:-0.590926 27:0.330839 
-0.5 1:-0.431354 2:-0.125925 3:-0.171021 4:-1 5:-0.774138 6:-1 7:0.545154 8:0.455866 9:0.0770146 10:-0.522492 11:-1 12:-0.935667 13:-0.878592 14:-0.827552 15:-0.465198 16:-1 17:-0.693725 18:-0.800391 19:0.213928 20:-1 21:-1 22:-0.0247284 23:-0.423513 24:-0.378627 25:-1 26:-0.823828 27:-0.414901 
-0.5 1:0.0676004 2:0.0458694 3:-0.168657 4:0.0947154 5:0.154183 6:0.232492 7:-0.596916 8:-0.298926 9:-0.661802 10:-0.200334 11:0.241617 12:-0.406174 13:-0.42913 14:-0.215214 15:-0.224645 16:-0.0424581 17:0.0454919 18:0.0390702 19:-0.454308 20:-0.0242593 21:0.260262 22:-0.00582386 23:-0.395072 24:-0.194268 25:-0.153257 26:0.557753 27:0.0339172 
-0.5 1:0.0269177 2:0.0820204 3:-0.284267 4:-0.0582311 5:-0.00325499 6:0.163248 7:-0.238741 8:0.0853499 9:-0.370607 10:-0.615006 11:0.0938675 12:-0.455634 13:-0.329464 14:-0.323542 15:-0.354256 16:-0.158344 17:0.315198 18:-0.135037 19:-0.427316 20:-0.351059 21:0.198912 22:-0.23205 23:0.265552 24:0.20845 25:-0.049041 26:1 27:0.0474696 
-0.5 1:-0.148469 2:0.244476 3:-0.411299 4:-0.389979 5:0.133192 6:0.0647184 7:0.0398933 8:0.626577 9:-0.665158 10:-0.452443 11:0.136001 12:-0.179564 13:-0.482547 14:-0.629863 15:-0.13057 16:-0.301868 17:0.095417 18:-0.189054 19:-0.682653 20:-0.279108 21:0.0297761 22:0.254746 23:0.11159 24:0.5924 25:-0.468148 26:0.475731 27:-0.111374 
-0.1499279255501324 1:-0.10354 2:0.393965 3:-0.331234 4:0.0749328 5:-0.121289 6:-0.0043591 7:-0.557699 8:-0.543822 9:0.136293 10:0.662963 11:-0.156826 12:0.277305 13:-0.331587 14:-0.515421 15:0.169886 16:0.165068 17:0.130077 18:-0.211419 19:0.195136 20:-0.174253 21:0.224208 22:0.133358 23:-0.362003 24:-0.823454 25:-0.260817 26:0.273933 27:0.165812 
-0.072592860029488851 1:0.00172456 2:0.238699 3:-0.143029 4:-0.109829 5:0.223869 6:0.0642906 7:-0.563294 8:-0.283531 9:-0.765188 10:-0.216687 11:0.15423 12:-0.438582 13:-0.281541 14:0.27349 15:-0.302394 16:-0.448654 17:0.392035 18:0.366567 19:-0.0174336 20:0.282914 21:0.22262 22:0.25353 23:-0.333466 24:-0.513079 25:-0.464239 26:0.073327 27:0.176025 
-0.5 1:-0.0395735 2:0.14556 3:-0.142501 4:-0.230725 5:-0.18135 6:-0.541527 7:0.29963 8:0.603241 9:-0.322679 10:-0.557957 11:-0.162936 12:-0.504868 13:0.0265387 14:-0.401945 15:-0.727294 16:-0.00502451 17:-0.192724 18:-0.0892021 19:-0.543478 20:-0.186466 21:-0.514067 22:1 23:0.0608953 24:0.327985 25:-0.88145 26:-0.739319 27:-0.0137485 
-0.5 1:-0.255924 2:0.50466 3:0.0566019 4:0.831955 5:-0.309441 6:-0.0980199 7:-0.530676 8:-1 9:-0.871222 10:-0.637399 11:0.0553897 12:0.140302 13:-0.753507 14:-0.265384 15:-0.236219 16:-0.172478 17:-0.136384 18:-0.762204 19:-0.353338 20:-0.103311 21:-0.45585 22:-0.606378 23:-0.131149 24:-0.317698 25:0.206817 26:0.300469 27:-0.751014 
-0.5 1:0.171421 2:-0.00783416 3:-0.136537 4:-0.0216854 5:0.121812 6:-0.0854927 7:-0.287058 8:-0.0123826 9:-0.268302 10:-0.397465 11:-0.213879 12:-0.450568 13:-0.566485 14:-0.256232 15:-0.375184 16:-0.153995 17:0.0278877 18:0.0333379 19:-0.312296 20:-0.0661438 21:-0.00931179 22:0.338866 23:-0.24482 24:-0.171961 25:-0.0446631 26:0.17681 27:-0.0235498 
-0.39537621274958923 1:0.198761 2:-0.110153 3:-0.0162516 4:-0.542833 5:0.249945 6:0.319848 7:-0.501781 8:-0.00698555 9:0.00591123 10:-0.73077 11:0.304948 12:-0.616099 13:-0.771923 14:0.00392426 15:-0.15416 16:-0.645668 17:0.0624964 18:-0.0775965 19:-0.174787 20:0.198337 21:0.162944 22:-0.578497 23:-0.458188 24:0.253656 25:-0.499727 26:0.261683 27:-0.0748824 
-0.39784261214566968 1:0.110657 2:0.0583025 3:-0.248037 4:0.299137 5:-0.158048 6:0.116153 7:-0.505042 8:-0.110011 9:-0.238263 10:-0.231265 11:0.234503 12:-0.662 13:-0.21141 14:-0.275226 15:-0.163467 16:0.333061 17:-0.0202045 18:-0.281872 19:-0.465449 20:-0.45389 21:0.443998 22:0.57076 23:-0.206291 24:0.311337 25:-0.141263 26:0.557284 27:0.110608 
-0.5 1:-0.0207274 2:0.342806 3:-0.203349 4:-0.234604 5:0.295193 6:-0.0948852 7:-0.187663 8:-0.0842786 9:0.0799718 10:-0.305451 11:-0.194299 12:-0.602827 13:-0.279042 14:0.0500569 15:-0.159081 16:-0.150912 17:0.320866 18:0.717431 19:-0.381057 20:0.433289 21:-0.00873302 22:-0.450924 23:0.497538 24:0.0428208 25:-0.25918 26:-0.189604 27:0.115621 
-0.5 1:-0.222617 2:0.82214 3:-0.362872 4:0.315615 5:0.36653 6:0.0665112 7:-0.513615 8:-0.204695 9:-0.60973 10:-0.239413 11:0.076245 12:-0.0410919 13:-0.190485 14:-0.360906 15:-0.333831 16:0.466643 17:0.00623442 18:0.727531 19:-0.250743 20:-0.148743 21:-0.0643307 22:-0.30647 23:-0.564834 24:-0.13973 25:-0.522632 26:0.627521 27:0.167966 
-0.32110269912603806 1:-0.0484012 2:0.257556 3:-0.317226 4:-0.285042 5:0.230128 6:-0.127848 7:-0.403614 8:0.151319 9:0.651861 10:-0.0826896 11:-0.853772 12:-0.477968 13:-0.539072 14:-0.265503 15:0.346481 16:-0.216523 17:0.206778 18:0.197193 19:-0.97353 20:-0.341485 21:-0.240888 22:0.205748 23:-0.518596 24:0.276713 25:-0.948643 26:-0.194042 27:0.625856 
-0.30434840411749597 1:-0.311829 2:0.314474 3:-0.343026 4:-0.128374 5:0.191607 6:-0.0780038 7:-0.298992 8:-0.297247 9:-0.0301406 10:0.257475 11:-0.573852 12:-0.745292 13:-0.492643 14:-0.503742 15:-0.197829 16:0.0570393 17:0.416965 18:0.49755 19:0.43787 20:-0.190969 21:-0.445705 22:-0.0524584 23:0.162016 24:-0.302112 25:-0.482584 26:-0.0681086 27:0.0929167 
-0.5 1:-0.0331189 2:0.521817 3:-0.242479 4:0.187192 5:0.290305 6:0.0277517 7:-0.444022 8:-0.382354 9:-0.646557 10:-0.207134 11:-0.164009 12:0.448874 13:-0.0660116 14:-0.0314067 15:-0.483138 16:0.315268 17:0.0732602 18:0.483313 19:0.0437731 20:-0.00376021 21:0.0724554 22:0.203384 23:-0.144644 24:-0.615479 25:-0.528538 26:0.239297 27:-0.0530296 
-0.5 1:-0.6038 2:0.34899 3:-0.647513 4:-0.389605 5:0.171578 6:-0.085261 7:-0.135322 8:0.793899 9:-0.559113 10:-0.580874 11:-0.333424 12:0.194841 13:-0.0117328 14:-0.735418 15:-0.71986 16:-0.508647 17:0.242044 18:-0.396148 19:-0.209026 20:0.26064 21:-0.383442 22:-0.130008 23:-0.241803 24:0.540555 25:-0.477874 26:-0.259189 27:0.244275 
-0.5 1:0.0657389 2:0.410192 3:-0.210496 4:-0.490719 5:0.137292 6:-0.106699 7:-0.202132 8:0.0778741 9:-0.119681 10:-0.744765 11:0.0553131 12:-0.286564 13:-0.492692 14:-0.176828 15:0.544313 16:-0.19327 17:0.402331 18:0.360396 19:-0.727915 20:-0.0213929 21:-0.327767 22:-0.221262 23:-0.206029 24:0.557951 25:-0.46987 26:-0.0390821 27:0.0613077 
-0.5 1:0.411781 2:-0.16511 3:0.167387 4:-0.403954 5:0.0963369 6:-0.128755 7:-0.311252 8:-0.0713687 9:-0.387123 10:-0.397666 11:-0.326302 12:-0.578954 13:-0.136951 14:0.0107504 15:-0.470985 16:-0.369299 17:-0.11143 18:0.241254 19:0.0262224 20:-0.136218 21:-0.0043454 22:-0.352213 23:-0.314771 24:-0.0137766 25:-0.720934 26:0.0876748 27:-0.213891 
-0.34172485553350923 1:0.0229453 2:0.526327 3:-0.185874 4:-0.340142 5:0.270946 6:-0.441682 7:-0.512997 8:-0.173214 9:0.0894002 10:-0.278505 11:-0.892394 12:-0.271606 13:-0.440155 14:-0.188019 15:0.332591 16:-0.335215 17:0.039976 18:0.556002 19:-0.651117 20:0.132706 21:-0.546772 22:0.01834 23:-0.221906 24:-0.22924 25:-0.493739 26:-0.622298 27:0.220846 
-0.5 1:0.25495 2:0.239527 3:-0.133121 4:-0.216117 5:0.0174897 6:0.108272 7:-0.41253 8:-0.104062 9:-0.432061 10:-0.454861 11:-0.220031 12:-0.292163 13:-0.105237 14:-0.258533 15:-0.370329 16:-0.276308 17:0.325927 18:-0.00305386 19:-0.0734839 20:-0.0184714 21:0.400421 22:0.0179079 23:-0.335638 24:-0.0677739 25:-0.606425 26:0.2457 27:-0.0852659 
-0.41378743541689988 1:0.295095 2:0.0170318 3:0.00209746 4:-0.353449 5:0.196281 6:-0.167003 7:-0.54448 8:-0.191101 9:-0.0149636 10:-0.243189 11:-0.217499 12:-0.779863 13:-0.361686 14:-0.00600318 15:0.0782286 16:-0.35618 17:0.110608 18:0.600575 19:-0.478103 20:-0.431277 21:-0.346875 22:0.108935 23:-0.331666 24:-0.0625609 25:-0.256667 26:-0.171013 27:-0.10151 
-0.5 1:-0.168868 2:0.230891 3:-0.281506 4:-0.00749899 5:0.258023 6:0.285236 7:-0.623031 8:-0.205461 9:-0.65732 10:-0.387469 11:-0.0265323 12:-0.289293 13:-0.266385 14:-0.10456 15:-0.0528673 16:-0.0750807 17:0.000769289 18:0.208112 19:-0.462028 20:-0.13922 21:0.450066 22:0.344508 23:-0.310094 24:0.0929721 25:-0.323451 26:0.484564 27:-0.0377708 
-0.5 1:0.0763193 2:0.263987 3:-0.262721 4:-0.104605 5:0.0507196 6:-0.0237966 7:-0.252692 8:-0.197576 9:-0.522037 10:-0.204244 11:0.171819 12:-0.343235 13:-0.219663 14:-0.270602 15:-0.308434 16:-0.313996 17:0.184682 18:0.0533254 19:-0.26308 20:-0.0315455 21:0.0339642 22:0.114231 23:0.195375 24:-0.308788 25:-0.691484 26:-0.0980002 27:0.228572 
-0.16669779840593751 1:-0.118419 2:0.193047 3:-0.255041 4:-0.452912 5:0.194499 6:0.197453 7:-0.351646 8:-0.0151488 9:0.434828 10:-0.38449 11:0.0456275 12:-0.670906 13:-0.292718 14:-0.195162 15:0.114849 16:-0.485104 17:0.536778 18:0.192893 19:-0.373327 20:-0.104492 21:0.117789 22:-0.563081 23:0.135582 24:0.0116172 25:-0.632791 26:-0.0266418 27:0.0940605 
-0.5 1:0.154403 2:-0.00213952 3:0.335334 4:-0.204383 5:0.000493468 6:-0.457422 7:-0.0997047 8:-0.140221 9:-0.221832 10:-0.063025 11:-0.137273 12:0.0178262 13:0.124041 14:0.522284 15:-0.694866 16:-0.197795 17:0.338231 18:0.406624 19:-0.126535 20:0.0367781 21:-0.518998 22:-0.774422 23:-0.22638 24:-0.0962173 25:-0.811223 26:-0.415799 27:-0.113546 
-0.5 1:-0.143238 2:0.334528 3:-0.312228 4:-0.535748 5:0.207265 6:-0.0276933 7:-0.107303 8:0.00883296 9:0.33375 10:-0.413501 11:0.229309 12:-0.442824 13:-0.186942 14:-0.473019 15:0.0694993 16:-0.467616 17:0.418202 18:0.180695 19:-0.60439 20:-0.137452 21:0.00396282 22:-0.129781 23:-0.0552635 24:0.132598 25:-0.453752 26:0.135065 27:0.167397 
-0.5 1:0.184195 2:0.132807 3:0.10978 4:-0.612948 5:-0.0848057 6:-0.501249 7:-0.340611 8:-0.196448 9:-0.0972871 10:-0.467944 11:-0.385009 12:-0.45872 13:0.0015438 14:0.0677111 15:-0.425029 16:-0.69097 17:0.0806031 18:-0.00975788 19:-0.0495101 20:-0.107966 21:-0.709289 22:-0.0355457 23:-0.53459 24:-0.554614 25:-0.974097 26:-0.702546 27:0.458136 
-0.5 1:-0.124013 2:0.307075 3:-0.216943 4:-0.180697 5:0.140446 6:0.151293 7:-0.609365 8:-0.0644786 9:0.217898 10:-0.421402 11:-0.192667 12:-0.0262929 13:-0.268413 14:-0.319946 15:-0.250869 16:-0.271379 17:0.0364542 18:0.324186 19:-0.71062 20:0.0325022 21:-0.0689207 22:0.0182538 23:-0.282349 24:0.220984 25:-0.342015 26:0.406058 27:-0.24687 
-0.5 1:0.991894 2:-0.200393 3:0.549273 4:-0.035136 5:-0.369061 6:-0.217775 7:-0.51134 8:-0.396144 9:-0.800727 10:-0.782694 11:-0.275474 12:-0.647656 13:-0.558952 14:-0.0615363 15:-0.398633 16:-0.438262 17:-0.205233 18:-0.574549 19:0.0232489 20:-0.588324 21:-0.0841152 22:0.0986213 23:-0.70851 24:-0.461023 25:-0.0134052 26:0.233567 27:-0.486956 
-0.5 1:0.00928506 2:0.102502 3:-0.0497315 4:-0.202425 5:0.304333 6:-0.0653994 7:-0.252678 8:-0.208194 9:-0.482319 10:-0.142081 11:-0.319156 12:-0.512353 13:-0.398086 14:0.225192 15:-0.213057 16:-0.380315 17:0.30221 18:0.431001 19:-0.228236 20:0.249522 21:-0.186859 22:-0.307695 23:0.3363 24:-0.252254 25:-0.685161 26:-0.241872 27:-0.196437 
-0.5 1:-0.197169 2:0.225825 3:-0.338763 4:-0.355345 5:0.431482 6:0.311027 7:-0.372129 8:-0.0615052 9:-0.348762 10:-0.331127 11:-0.178671 12:-0.466308 13:-0.311268 14:-0.189614 15:-0.290762 16:-0.310975 17:0.399399 18:0.439668 19:-0.36859 20:0.0521173 21:0.257821 22:-0.390957 23:0.340213 24:-0.00400061 25:-0.440453 26:0.0336436 27:-0.0734857 
-0.5 1:0.214831 2:-0.25203 3:0.12498 4:0.0949344 5:0.462818 6:0.433511 7:-0.740156 8:-0.614878 9:-0.452643 10:-0.558375 11:0.284357 12:-0.27633 13:-0.37115 14:0.065516 15:-0.597211 16:-0.217516 17:0.404901 18:-0.10818 19:-0.28304 20:-0.320926 21:0.400697 22:-0.662255 23:-0.494343 24:-0.792591 25:-0.320196 26:0.940436 27:-0.22876 
-0.5 1:0.379479 2:0.0725149 3:0.122288 4:-0.333329 5:-0.00951155 6:-0.163567 7:0.144765 8:0.0272736 9:-0.166366 10:-0.683161 11:-0.0450846 12:-0.40843 13:-0.276805 14:0.0857998 15:-0.624093 16:-0.473344 17:-0.0765845 18:0.30819 19:-0.260221 20:-0.319914 21:0.107355 22:0.229535 23:0.12761 24:-0.279979 25:-0.680021 26:-0.484398 27:-0.11894 
-0.5 1:0.236766 2:0.283008 3:-0.0896685 4:-0.289873 5:-0.00679788 6:0.0777451 7:-0.345354 8:-0.227696 9:-0.68228 10:-0.399656 11:0.193927 12:0.119724 13:-0.426124 14:-0.245121 15:-0.295923 16:-0.203859 17:0.275212 18:0.0314241 19:-0.382232 20:0.0759982 21:0.424273 22:-0.0661405 23:-0.390312 24:-0.373229 25:-0.319599 26:0.441533 27:-0.0202385 
-0.5 1:-0.154903 2:0.269818 3:-0.137724 4:-0.604431 5:0.154071 6:-0.247544 7:0.160358 8:0.199359 9:0.649094 10:-0.385155 11:0.163125 12:-0.672298 13:-0.142806 14:-0.239327 15:-0.311426 16:-0.421943 17:0.264719 18:0.0339588 19:-0.699853 20:-0.0984501 21:-0.464869 22:-0.739101 23:0.128508 24:0.493943 25:-0.647366 26:-0.270526 27:0.0265445 
-0.5 1:-0.139406 2:0.471979 3:-0.53524 4:-0.416052 5:0.0872267 6:-0.20604 7:0.0386201 8:0.334323 9:0.139576 10:-0.309438 11:-0.410808 12:-0.236742 13:-0.736666 14:-0.457573 15:-0.0138225 16:-0.771296 17:0.21879 18:0.60654 19:0.16393 20:0.466674 21:-0.346263 22:-0.512565 23:0.430744 24:0.148538 25:-0.815538 26:-0.0872865 27:-0.329534 
-0.15441387727706532 1:-0.000588343 2:0.353907 3:-0.113545 4:-0.339479 5:0.266986 6:-0.111397 7:-0.42477 8:-0.189159 9:-0.211809 10:-0.500392 11:-0.32221 12:-0.148586 13:-0.274891 14:0.119279 15:-0.0952963 16:-0.196354 17:0.363008 18:0.586294 19:-0.375337 20:0.653451 21:-0.172503 22:-0.0533149 23:-0.0935794 24:-0.588905 25:-0.485665 26:-0.130148 27:0.367029 
-0.5 1:0.0789169 2:0.0920741 3:0.2161 4:-0.80581 5:0.142712 6:-0.35135 7:-0.57066 8:-0.244147 9:0.134626 10:-0.569252 11:-0.516267 12:-0.331946 13:-0.602745 14:0.664558 15:-0.289704 16:-0.617559 17:0.855011 18:0.145326 19:0.151329 20:-0.0503566 21:-0.523864 22:0.00590084 23:-0.917082 24:-0.812466 25:-0.966688 26:-0.144914 27:0.987629 
-0.037538504770091866 1:0.0716504 2:0.253224 3:-0.239418 4:0.048531 5:0.243913 6:0.00584399 7:-0.625947 8:-0.110854 9:-0.371745 10:-0.170288 11:0.304559 12:-0.249588 13:-0.31235 14:-0.0862044 15:-0.464822 16:-0.0716353 17:0.536875 18:0.544042 19:-0.188235 20:0.148987 21:0.212969 22:0.12358 23:-0.372437 24:-0.0786335 25:-0.483845 26:0.51271 27:-0.0711602 
-0.46666039999163905 1:0.139282 2:0.0881741 3:-0.0212006 4:-0.1585 5:0.111366 6:0.0807192 7:-0.580754 8:-0.344783 9:-0.249905 10:-0.149998 11:-0.264363 12:-0.275747 13:-0.48731 14:-0.0588675 15:0.105826 16:-0.226948 17:-0.0537641 18:0.301865 19:-0.174804 20:-0.445377 21:0.645126 22:-0.181863 23:-0.184249 24:-0.587235 25:-0.603259 26:0.189357 27:0.147408 
-0.5 1:0.218397 2:0.153904 3:0.0334837 4:-0.337971 5:0.0226589 6:-0.209638 7:-0.350804 8:-0.111716 9:-0.265849 10:-0.437767 11:-0.229979 12:-0.216868 13:-0.298901 14:0.0257546 15:-0.365259 16:-0.304868 17:0.0197823 18:-0.112492 19:0.00726684 20:-0.198988 21:-0.11487 22:-0.142425 23:-0.418736 24:-0.189663 25:-0.319807 26:0.127659 27:0.00678525 
-0.095656751297359677 1:-0.0373776 2:0.355774 3:-0.324022 4:-0.482819 5:0.0856806 6:-0.125562 7:-0.314467 8:0.18457 9:0.0307723 10:-0.599355 11:0.0947858 12:-0.286278 13:-0.583588 14:-0.338931 15:0.182174 16:-0.554925 17:0.250877 18:-0.00421071 19:-0.512371 20:0.116022 21:-0.106045 22:-0.189868 23:-0.193514 24:-0.23905 25:-0.805372 26:0.27756 27:0.138945 
-0.5 1:0.394246 2:-0.336861 3:0.110594 4:-0.210678 5:-0.0593194 6:-0.227123 7:-0.0573348 8:0.341442 9:-0.292977 10:-0.71401 11:0.131618 12:-0.898733 13:-0.401523 14:-0.331718 15:-0.305926 16:-0.239022 17:-0.0957301 18:-0.236045 19:-0.402889 20:-0.297053 21:0.102835 22:0.139058 23:-0.386351 24:0.00103042 25:-0.597726 26:0.293219 27:-0.284729 
-0.5 1:0.11529 2:-0.265366 3:-0.279553 4:0.344321 5:0.159399 6:0.0104404 7:-0.358792 8:-0.00884855 9:-0.559971 10:-0.381158 11:-0.291709 12:-0.32331 13:-0.418293 14:-0.565089 15:-0.368239 16:0.331415 17:-0.20292 18:-0.178964 19:-0.714458 20:-0.396142 21:-0.13315 22:0.0495674 23:-0.373966 24:-0.227593 25:0.158707 26:0.534105 27:-0.0258321 
-0.5 1:-0.157926 2:0.14953 3:-0.177052 4:-0.131904 5:0.249825 6:-0.00166215 7:-0.564705 8:-0.276338 9:-0.419905 10:-0.0795012 11:-0.41372 12:-0.62663 13:-0.00252387 14:0.503687 15:-0.653666 16:-0.0433466 17:0.563925 18:0.461534 19:0.602477 20:-0.392589 21:0.206689 22:-0.189472 23:-0.143914 24:-0.00138029 25:-0.644585 26:-0.391218 27:0.585172 
-0.45801650135700317 1:-0.13448 2:0.168211 3:-0.405914 4:0.0199788 5:-0.203435 6:-0.342106 7:-0.277234 8:0.00415673 9:0.0568492 10:0.447571 11:-0.0928516 12:-0.577281 13:-0.566707 14:-0.778982 15:0.819186 16:0.108799 17:0.155593 18:-0.372137 19:-0.0404276 20:-0.392627 21:-0.235406 22:-0.0673641 23:-0.612605 24:0.263132 25:-0.771993 26:-0.0125174 27:0.0086897 
-0.5 1:0.353369 2:-0.120413 3:0.318944 4:0.0933532 5:0.0676508 6:-0.261475 7:-0.494713 8:-0.243801 9:-0.55424 10:-0.102474 11:-0.0391687 12:-0.463105 13:0.0425161 14:0.5302 15:-0.659306 16:-0.420868 17:0.166727 18:0.473062 19:0.0988917 20:0.0830873 21:-0.118292 22:-0.768823 23:-0.25041 24:-0.311546 25:-0.792368 26:-0.159073 27:-0.191055 
-0.29995146738674028 1:-0.146246 2:0.196605 3:-0.077421 4:-0.673061 5:0.0869145 6:-0.250435 7:-0.279864 8:0.165905 9:1 10:0.0217708 11:-0.395198 12:-0.608297 13:-0.513718 14:0.270657 15:-0.157647 16:-0.833082 17:0.0323065 18:0.204051 19:-0.180959 20:0.0539038 21:0.248535 22:-0.51371 23:-0.436073 24:0.254945 25:-0.800458 26:-0.318868 27:0.14361 
-0.5 1:-0.360321 2:0.387231 3:-0.539628 4:-0.373936 5:0.280063 6:0.367106 7:-0.433673 8:-0.182907 9:-0.110457 10:-0.576482 11:-0.261042 12:-0.320545 13:-0.513196 14:-0.614885 15:0.138802 16:-0.57429 17:0.49533 18:-0.287649 19:-0.76314 20:0.126064 21:0.257343 22:-0.123223 23:-0.099592 24:-0.277558 25:0.060169 26:0.235375 27:0.0360492 
-0.084146665646698982 1:-0.320902 2:0.367367 3:-0.340804 4:-0.00234073 5:0.234181 6:-0.013657 7:-1 8:-0.4852 9:-0.142669 10:0.263226 11:-0.256088 12:-0.384123 13:-0.470616 14:-0.530121 15:0.0283473 16:-0.0120478 17:0.0498841 18:0.359503 19:0.48068 20:-0.060106 21:-0.077838 22:-0.281319 23:-0.653332 24:-0.559806 25:-0.52455 26:0.198322 27:0.0374159 
-0.5 1:0.566677 2:-0.6283 3:0.00567397 4:0.373989 5:-0.238434 6:-0.598791 7:0.696281 8:0.348292 9:-0.836788 10:-0.754018 11:-0.497893 12:-0.659043 13:-0.882032 14:-0.710159 15:-0.774225 16:-0.192724 17:-0.19534 18:-0.549101 19:-0.712061 20:-0.307509 21:-0.720257 22:-0.166007 23:-0.680314 24:-0.65814 25:-0.421347 26:-0.592296 27:-0.480409 
-0.5 1:0.0647483 2:0.186977 3:0.004167 4:0.0899304 5:0.282938 6:0.199833 7:-0.585808 8:-0.176738 9:-0.691444 10:-0.61101 11:0.0829157 12:-0.151237 13:-0.0295021 14:0.305197 15:-0.506952 16:-0.289333 17:-0.0918031 18:0.421087 19:-0.417832 20:-0.113482 21:0.211131 22:-0.434562 23:-0.567121 24:0.179974 25:0.577448 26:0.102198 27:-0.302141 
-0.5 1:0.100207 2:0.342211 3:-0.350526 4:-0.386846 5:0.0156718 6:-0.155986 7:0.163943 8:0.420728 9:-0.354268 10:-0.463962 11:0.150332 12:-0.206915 13:-0.599777 14:-0.497415 15:-0.104527 16:-0.149181 17:-0.0176994 18:0.211487 19:-0.533396 20:-0.442505 21:-0.125979 22:-0.450556 23:0.619197 24:0.616305 25:0.193916 26:0.0189045 27:-0.0271613 
-0.5 1:0.0468618 2:0.0849657 3:-0.219841 4:-0.0377526 5:0.301523 6:-0.207663 7:-0.637383 8:0.119167 9:0.00200352 10:0.222115 11:-0.937912 12:-0.478546 13:-0.73977 14:-0.166723 15:-0.288813 16:0.139575 17:-0.215608 18:0.33171 19:-0.899608 20:-0.00366217 21:-0.162225 22:0.641751 23:-0.562065 24:-0.0861247 25:-0.352773 26:-0.166918 27:0.0092652 
-0.48881352768705622 1:0.22933 2:0.176435 3:-0.109317 4:-0.140021 5:0.023333 6:-0.0773322 7:-0.211913 8:0.0528565 9:-0.0649725 10:-0.224934 11:-0.290914 12:-0.199923 13:-0.642029 14:-0.155749 15:0.0712824 16:-0.257167 17:0.241414 18:0.0123448 19:-0.51231 20:0.0479849 21:-0.00847091 22:-0.199371 23:-0.164075 24:-0.166679 25:-0.467747 26:-0.0332415 27:0.0333244 
