svm_type c_svc
kernel_type rbf
gamma 0.03125
nr_class 2
total_sv 237
rho -0.64195414586653465
label 1 0
nr_sv 115 122
SV
2 1:-0.426478 2:-0.177666 3:0.132874 4:-1 5:-0.869214 6:0.0362708 7:-1 8:-1 9:-0.0416676 10:-0.250211 11:0.273713 12:-0.729348 13:-0.705854 14:0.144213 15:-0.522733 16:-0.555284 17:-0.124074 18:0.411748 19:-0.258795 20:-0.392543 21:-0.00655676 22:-0.334722 23:-0.731343 24:-0.768156 25:-0.869074 26:-0.760398 27:-0.58881 28:-0.797011 29:-1 30:-0.750763 31:-0.619363 32:-1 33:-1 34:-0.253436 35:-0.189852 36:-1 37:-0.149977 38:-0.556827 39:-1 40:-1 41:-0.192588 42:0.111798 43:-0.22946 44:-0.755986 45:-0.464716 46:-0.730871 47:-0.751145 48:-1 49:-0.606101 50:-0.887 51:-0.73804 52:-0.76134 53:-1 54:-0.418176 55:-1 56:-0.711328 57:-1 58:-1 59:-0.420502 60:-0.722687 61:-1 62:-0.829776 63:-1 64:-1 
1.3847787776911136 1:-0.281044 2:-0.588566 3:-0.282047 4:-0.287018 5:0.0655658 6:0.573382 7:-0.781236 8:-0.0946025 9:-0.557164 10:-0.792386 11:-0.533658 12:-0.3874 13:-1 14:-0.437637 15:-1 16:-1 17:-0.267981 18:-0.520686 19:-0.865787 20:-0.340051 21:-0.421818 22:-0.62762 23:-1 24:-0.685231 25:0.0667012 26:-0.56613 27:-0.581211 28:-0.632428 29:-0.762195 30:0.0154448 31:-0.48302 32:-1 33:-0.248978 34:-0.324062 35:-0.633247 36:-0.13362 37:-0.711454 38:0.00308752 39:-1 40:-1 41:0.308564 42:-0.661911 43:-0.410499 44:-0.226764 45:0.0904113 46:0.497616 47:-0.774687 48:0.382734 49:-0.465008 50:-1 51:-0.822133 52:-1 53:-0.550801 54:-0.604928 55:-1 56:-1 57:-1 58:-0.672885 59:-1 60:-0.623498 61:-0.209933 62:0.155695 63:-1 64:-1 
2 1:-0.67161 2:-0.677842 3:0.499144 4:-0.782918 5:-1 6:-0.177992 7:-0.866728 8:-1 9:-0.773178 10:-0.907003 11:-0.360168 12:-0.85078 13:-0.837827 14:-0.464299 15:0.0526758 16:-1 17:0.05882 18:-0.172932 19:0.0217094 20:-0.0957103 21:-0.178344 22:0.10496 23:1 24:-1 25:-0.675192 26:-0.735763 27:-0.319825 28:-0.720198 29:-0.855128 30:-0.450275 31:-0.685189 32:-1 33:-0.451139 34:-1 35:-0.329947 36:-0.824085 37:-1 38:-0.266925 39:0.405971 40:-0.389015 41:-0.505259 42:-0.551709 43:0.416012 44:-0.529079 45:0.328113 46:-0.631052 47:-0.382535 48:-1 49:-0.185509 50:-0.626199 51:0.625072 52:-0.0132297 53:0.0944687 54:0.323328 55:-0.646661 56:-0.76124 57:-1 58:-1 59:-1 60:-1 61:-1 62:-0.859208 63:-0.760296 64:-1 
2 1:-0.604989 2:-0.391048 3:-0.227183 4:-0.832121 5:-0.330936 6:-0.674517 7:-1 8:-0.573629 9:-0.719381 10:-0.419156 11:0.198578 12:-0.30761 13:-0.498339 14:0.221962 15:-0.593014 16:-1 17:-0.396709 18:0.504795 19:-0.494369 20:-0.223039 21:-0.636943 22:-0.128699 23:-0.484498 24:-1 25:-0.665111 26:-0.89784 27:-0.0796056 28:-0.826902 29:-0.551977 30:-0.362395 31:-0.756543 32:-1 33:-0.858526 34:-0.363373 35:-0.827288 36:-1 37:-1 38:0.511651 39:-1 40:-0.0552486 41:-0.148183 42:0.0527366 43:0.119994 44:-0.375756 45:-0.486502 46:-0.336634 47:-0.787791 48:-1 49:-0.496122 50:-0.710962 51:-0.664899 52:-0.694771 53:-1 54:-0.813952 55:-1 56:-1 57:-1 58:-1 59:-1 60:-1 61:-1 62:-0.564592 63:-1 64:-1 
2 1:-0.628128 2:-0.416299 3:0.400548 4:-0.557461 5:-0.779568 6:0.0737381 7:-1 8:-0.438105 9:-0.852485 10:-0.649456 11:0.00710807 12:-0.391608 13:-0.834721 14:-0.334677 15:0.34101 16:-1 17:0.135903 18:-0.00834703 19:-0.583489 20:0.0240278 21:0.196266 22:-0.0934672 23:-0.0940742 24:-0.609241 25:0.544842 26:-1 27:0.386358 28:-1 29:-1 30:-0.159621 31:-1 32:-1 33:-0.813558 34:-0.790255 35:-0.0894454 36:-1 37:-1 38:-1 39:-1 40:0.245044 41:-0.25112 42:-0.26905 43:0.18052 44:-0.177231 45:-1 46:-0.55722 47:-0.720303 48:-0.656736 49:-0.00385665 50:-0.809545 51:-0.558329 52:-0.195401 53:-1 54:-0.264384 55:-0.639893 56:-1 57:-0.138036 58:-0.593916 59:-1 60:-0.532605 61:-1 62:-0.713098 63:-1 64:-1 
2 1:-0.460778 2:-0.395447 3:-0.142843 4:-0.197909 5:0.0274749 6:-0.000863231 7:-0.718711 8:-0.709006 9:-0.488084 10:-0.811964 11:-0.318915 12:-0.448652 13:-0.828811 14:-0.34433 15:-0.30552 16:-0.805871 17:-0.23528 18:-0.126991 19:-0.439199 20:-0.469678 21:-0.628325 22:-0.0522627 23:-0.882725 24:-0.595267 25:0.0285698 26:-0.302736 27:-0.371794 28:-0.881863 29:-0.694228 30:-0.202171 31:-0.833843 32:-1 33:-0.613734 34:-0.891377 35:-0.292695 36:-0.814354 37:-0.814493 38:0.418636 39:-0.505329 40:-0.355216 41:0.0341673 42:-0.507951 43:-0.0846168 44:0.13618 45:-0.182206 46:-0.369638 47:-0.565471 48:-0.64446 49:-0.656108 50:-0.901367 51:-0.428184 52:-0.583368 53:-0.133624 54:-0.619072 55:-1 56:-0.748031 57:0.339183 58:-0.789697 59:-0.747036 60:-0.515891 61:-1 62:-0.851419 63:-1 64:-1 
1.3896727203041388 1:-0.668737 2:-0.805014 3:-0.149389 4:-0.605798 5:-0.705458 6:0.761294 7:-0.51611 8:-0.499413 9:-0.766017 10:-0.86172 11:-0.653179 12:-0.796793 13:-0.852755 14:-0.496221 15:-0.283259 16:-0.833072 17:-0.342307 18:-0.116638 19:-0.536222 20:-0.179046 21:0.172162 22:-0.676253 23:-0.49567 24:-0.651877 25:-0.115374 26:-0.760117 27:-0.459722 28:-0.745981 29:-0.210989 30:-0.126647 31:-0.714166 32:-0.574617 33:-0.667802 34:-0.719737 35:-0.391676 36:-0.68064 37:-0.521365 38:0.552927 39:-0.787322 40:-1 41:0.322006 42:-0.896702 43:-0.148739 44:0.221502 45:-0.196161 46:0.170416 47:-0.127986 48:-0.541329 49:0.183169 50:-0.745513 51:-0.311527 52:-0.641642 53:-1 54:0.09216 55:-0.679184 56:-0.566548 57:-0.616155 58:-0.819165 59:-1 60:-0.375465 61:-1 62:-0.361042 63:-0.782481 64:-0.564962 
2 1:-0.617024 2:-0.53037 3:0.229243 4:-0.359148 5:-0.21954 6:-0.231785 7:-0.300748 8:-0.63831 9:-0.530244 10:-0.64899 11:-0.290904 12:-0.510539 13:-0.36162 14:-0.388868 15:-0.395821 16:-0.758708 17:0.0966795 18:-0.0745021 19:-0.369994 20:-0.340906 21:0.0779943 22:-0.257081 23:-0.416935 24:-0.74847 25:-0.857957 26:-0.870008 27:-0.163418 28:-0.889871 29:-0.809971 30:-0.233719 31:-0.896738 32:-0.692557 33:-0.15987 34:0.0126471 35:-0.267445 36:-0.884626 37:0.498831 38:0.122103 39:-0.846288 40:-1 41:-0.173077 42:-0.453619 43:-0.0174787 44:-0.47042 45:-0.274001 46:-0.596243 47:-0.684971 48:-0.116169 49:-0.358842 50:-0.75481 51:-0.502536 52:-1 53:-0.461572 54:-0.131904 55:-1 56:-0.843409 57:-0.722578 58:-0.47721 59:-0.685579 60:-1 61:0.262673 62:-0.538306 63:-1 64:-1 
2 1:-0.583286 2:-0.727469 3:-0.108283 4:-0.0702241 5:-0.897063 6:0.639442 7:-1 8:-0.475213 9:-0.789447 10:-0.793918 11:-0.490193 12:-0.786948 13:-0.768454 14:-0.390903 15:-0.749536 16:-1 17:-0.257486 18:-0.444385 19:-0.805529 20:0.338768 21:-0.441426 22:-0.409268 23:-0.894252 24:-1 25:0.339554 26:-0.74852 27:-0.352707 28:-0.786948 29:-0.586422 30:0.242492 31:-1 32:-1 33:-0.390598 34:-0.804106 35:-0.681134 36:-0.8326 37:-0.498177 38:0.511651 39:-0.776974 40:-1 41:0.178865 42:-0.625456 43:-0.23735 44:0.152428 45:0.474667 46:0.52018 47:-0.412355 48:-0.35881 49:-0.844954 50:-0.733184 51:-0.484438 52:-0.812159 53:-0.739592 54:-0.771008 55:-0.831837 56:-1 57:-1 58:-0.810367 59:-0.771899 60:-0.781736 61:-1 62:-0.598068 63:-1 64:-1 
2 1:-0.70364 2:-0.418527 3:-0.23898 4:-0.11833 5:-0.121551 6:-0.0467508 7:-0.864743 8:-0.720153 9:-0.469107 10:-0.735638 11:-0.348822 12:-0.545473 13:-0.753009 14:-0.0302493 15:-0.866438 16:-0.439824 17:-0.377646 18:-0.357887 19:-0.605818 20:-0.693973 21:0.310853 22:-0.417148 23:-0.323186 24:-1 25:-0.340476 26:-0.798809 27:-0.482111 28:-0.829552 29:-0.558835 30:-0.0233043 31:-0.840208 32:-0.524249 33:-0.0712478 34:-0.268601 35:0.0204676 36:-0.821465 37:-0.464703 38:0.240469 39:-0.762139 40:0.240494 41:0.0416978 42:-0.120817 43:-0.396856 44:-0.112093 45:0.573174 46:-0.201725 47:-0.65172 48:-0.82904 49:-0.834641 50:-0.905145 51:-0.670029 52:-0.599223 53:-0.722271 54:-0.145024 55:-0.820651 56:-1 57:-1 58:-0.5954 59:-0.513324 60:-0.767218 61:-1 62:-0.571257 63:-1 64:-0.513451 
2 1:-0.593051 2:-0.640688 3:0.0450112 4:-0.273562 5:-0.758739 6:0.384653 7:0.188885 8:-0.692578 9:-0.734397 10:-0.892564 11:-0.495327 12:-0.500655 13:-0.54778 14:-0.719292 15:-0.559763 16:-1 17:0.180907 18:-0.565929 19:-0.703722 20:-0.327596 21:-0.476333 22:-0.440569 23:-0.628255 24:-0.78621 25:-0.0339842 26:-0.410624 27:-0.24144 28:-0.563088 29:-0.67689 30:0.302809 31:-1 32:-1 33:-0.489877 34:-0.540871 35:-0.501768 36:-0.607654 37:-1 38:0.0901232 39:-1 40:-1 41:0.111059 42:-0.879203 43:-0.226703 44:0.575642 45:0.234375 46:0.331006 47:-0.61741 48:-0.812195 49:-0.273216 50:-0.478896 51:-0.879193 52:-0.779924 53:-1 54:0.073344 55:-0.80298 56:-1 57:-1 58:-1 59:-1 60:-0.744281 61:-1 62:-0.685988 63:-1 64:-1 
2 1:-0.445385 2:-0.489902 3:-0.0505608 4:-0.278124 5:-0.588999 6:-0.337432 7:-0.746854 8:-1 9:-0.710095 10:-0.79434 11:-0.726339 12:-0.858243 13:-0.691833 14:-0.176397 15:-0.499982 16:-0.650587 17:-0.15295 18:-0.630246 19:-0.437035 20:-0.427289 21:-0.107906 22:-0.171761 23:-0.788917 24:-0.635761 25:-0.38287 26:-0.686212 27:-0.596137 28:-0.787335 29:-0.862372 30:-0.0208185 31:-0.850425 32:-0.554669 33:-0.826212 34:-0.608924 35:-0.363455 36:-0.832881 37:-0.499112 38:0.625012 39:-0.777348 40:-1 41:0.0650361 42:-0.484207 43:0.0818402 44:0.0225475 45:-0.263992 46:0.27405 47:-0.739283 48:-0.0400072 49:-0.690514 50:-0.911211 51:-0.5883 52:-0.812474 53:-0.480204 54:-0.542848 55:-1 56:-1 57:-1 58:-1 59:-0.316971 60:-0.782102 61:-0.542755 62:-0.197633 63:-1 64:-1 
2 1:-0.629952 2:-0.589614 3:0.0466395 4:-0.736717 5:-0.499238 6:-0.110751 7:-0.559352 8:-0.87841 9:-0.571822 10:-0.567614 11:-0.109622 12:-0.670994 13:-0.624531 14:-0.115012 15:-0.274719 16:-0.878376 17:-0.176816 18:0.0726127 19:-0.418837 20:-0.446158 21:-0.249532 22:-0.082476 23:-0.0446579 24:-0.915443 25:-0.665803 26:-0.796103 27:-0.550138 28:-0.925956 29:-0.904215 30:-0.48493 31:-0.826473 32:-0.896771 33:-0.6168 34:-0.523515 35:-0.261325 36:-0.767287 37:-0.263768 38:0.0236277 39:-0.535 40:-1 41:-0.215117 42:-0.330527 43:0.141947 44:-0.599549 45:0.0736892 46:-0.380511 47:-0.334428 48:-0.92572 49:-0.281709 50:-0.299528 51:-0.187896 52:-0.782444 53:-0.698399 54:0.034368 55:-0.649387 56:-1 57:-1 58:-0.868243 59:-0.735815 60:-1 61:-1 62:-0.937917 63:-1 64:-1 
2 1:0.0751238 2:-0.121069 3:-0.386492 4:-0.289212 5:-0.822952 6:-0.177659 7:-0.781874 8:-0.0973893 9:-0.352295 10:-0.554073 11:-0.535422 12:-0.267119 13:-0.336253 14:-0.00586445 15:-0.138427 16:-0.698924 17:-0.452653 18:-0.203629 19:-0.598611 20:-0.671041 21:-0.231423 22:-0.629527 23:-0.454352 24:-1 25:-0.468291 26:-0.567465 27:-0.443304 28:-0.90839 29:-0.525776 30:0.012301 31:-1 32:-0.232764 33:-0.700506 34:-0.663071 35:-0.634376 36:-0.13624 37:-1 38:-0.799993 39:-0.232812 40:1 41:-0.175193 42:-0.234232 43:-0.474621 44:-0.339251 45:-0.637648 46:-0.58141 47:0.0107492 48:-1 49:0.600035 50:-0.694059 51:-0.113256 52:-0.353843 53:-0.552111 54:-0.409216 55:-0.132302 56:-0.60922 57:-0.307684 58:-0.673839 59:-1 60:-0.624596 61:-1 62:-0.308695 63:-0.607676 64:-1 
2 1:-0.595594 2:-0.206517 3:-0.307701 4:-1 5:-1 6:0.479911 7:-1 8:-1 9:-0.332692 10:-0.338502 11:0.360142 12:-0.724346 13:-1 14:-0.0644284 15:-0.513913 16:-1 17:-0.38236 18:-0.281043 19:-0.320564 20:0.484859 21:-0.566379 22:-0.201639 23:-0.179016 24:-1 25:1 26:-0.0238091 27:-0.371794 28:-1 29:-1 30:-0.492278 31:-0.41845 32:-1 33:-1 34:-0.619819 35:-0.58744 36:-0.350239 37:-1 38:-1 39:-1 40:-1 41:-0.675878 42:-0.507951 43:-0.0251693 44:0.739773 45:-1 46:-0.84268 47:-0.746546 48:0.244478 49:-0.398189 50:-0.654785 51:-0.599769 52:-1 53:0.0107715 54:-0.555584 55:-1 56:-1 57:-1 58:-1 59:-1 60:-0.152809 61:-1 62:-0.479967 63:-1 64:-1 
2 1:-0.325983 2:-0.69142 3:1 4:-0.598984 5:-0.20084 6:0.0592298 7:-0.671783 8:-1 9:-0.488084 10:-0.69818 11:-0.127392 12:-0.264856 13:-0.700418 14:-0.624232 15:-0.675895 16:-0.773483 17:0.303913 18:0.258163 19:0.0820651 20:-0.25757 21:0.156426 22:-0.279097 23:-0.863159 24:-0.527744 25:-0.199988 26:-0.674615 27:-0.0577141 28:-0.931077 29:-0.821607 30:-0.492278 31:-1 32:-0.422765 33:-0.32407 34:-0.619819 35:-0.4499 36:-0.783382 37:0.0821879 38:0.0532679 39:-0.422801 40:-1 41:-0.243683 42:-0.785083 43:-0.210124 44:-0.337211 45:-0.454824 46:-0.763841 47:-0.831006 48:-0.170378 49:-0.598735 50:-0.30952 51:-0.599769 52:-1 53:-1 54:-1 55:-1 56:-1 57:-0.479132 58:-0.509222 59:-0.409665 60:-1 61:-1 62:-0.826631 63:-0.409665 64:-1 
2 1:-0.436164 2:-0.0122735 3:0.309928 4:-0.640564 5:-0.880606 6:-0.0717087 7:0.176621 8:-1 9:0.0974109 10:-0.502564 11:-0.11931 12:-0.670557 13:-0.64196 14:-0.0551379 15:-0.419061 16:-0.796967 17:-0.0773792 18:0.0739586 19:-0.706799 20:-0.445517 21:-0.870426 22:-0.205972 23:-0.386848 24:-0.576805 25:-0.761016 26:-0.562545 27:-0.436971 28:-1 29:-1 30:-0.772477 31:-0.652527 32:-1 33:-0.697099 34:-0.659239 35:-0.876719 36:-1 37:-1 38:-0.730313 39:-0.74132 40:-0.325642 41:-0.0329537 42:-0.428617 43:-0.0717924 44:-0.628753 45:-0.389231 46:-0.513905 47:-0.469915 48:-0.442319 49:0.0788231 50:-0.174845 51:-0.641268 52:-0.564364 53:-1 54:0.195008 55:-0.610001 56:-0.736474 57:-0.533131 58:-0.780051 59:-0.470993 60:-1 61:-1 62:-0.689283 63:-0.470993 64:-1 
2 1:0.329574 2:1 3:0.213924 4:-0.472626 5:0.839121 6:-0.649589 7:-0.676319 8:-1 9:0.729586 10:-0.170622 11:0.219876 12:0.450121 13:0.575996 14:-1 15:-1 16:-1 17:-0.0523866 18:0.181836 19:-0.652531 20:-0.511854 21:-0.144561 22:-0.788892 23:-1 24:-1 25:0.315074 26:-0.358121 27:-0.380388 28:-1 29:-0.648147 30:-0.666173 31:-1 32:-1 33:1 34:1 35:-0.728723 36:-1 37:-1 38:-0.703208 39:-1 40:-1 41:-0.471621 42:-0.974899 43:-1 44:-0.509717 45:-1 46:-0.884803 47:-1 48:-1 49:-1 50:-0.773005 51:-1 52:-1 53:-1 54:-1 55:-1 56:-1 57:-1 58:-1 59:-1 60:-1 61:-1 62:-1 63:-1 64:-1 
2 1:-0.650587 2:-0.542957 3:-0.268921 4:-0.6535 5:-0.884922 6:-0.415305 7:-0.716443 8:-1 9:-0.662139 10:-0.344051 11:0.161222 12:-0.523639 13:-0.741145 14:-0.216703 15:-0.299989 16:-0.804305 17:-0.229173 18:0.242349 19:-0.304257 20:-0.465455 21:-0.375546 22:-0.109628 23:-0.0542338 24:-1 25:-0.769599 26:-0.789144 27:-0.457235 28:-0.76182 29:-0.383525 30:-0.341997 31:-0.665006 32:-1 33:-0.902667 34:-0.781002 35:0.0694234 36:-0.812857 37:-0.43899 38:-0.0899932 39:-0.25201 40:-1 41:-0.577328 42:-0.34168 43:0.124648 44:-0.355785 45:0.0598522 46:-0.449107 47:-0.489004 48:-1 49:-0.306669 50:-0.40343 51:-0.423631 52:-0.580008 53:-0.417758 54:0.152 55:-0.812004 56:-1 57:-1 58:-0.788001 59:-1 60:-1 61:-1 62:-1 63:-1 64:-1 
2 1:-0.681782 2:-0.271569 3:-0.27364 4:-1 5:-0.371156 6:-0.0442368 7:0.162088 8:-1 9:0.602278 10:-0.304384 11:0.480005 12:-0.783097 13:-0.764269 14:0.0273271 15:-0.617514 16:-1 17:-0.513993 18:0.980071 19:-0.584174 20:-0.707925 21:-0.317535 22:-0.424475 23:-1 24:-1 25:-1 26:-0.423908 27:-1 28:-1 29:-0.578947 30:-1 31:-1 32:-1 33:-0.734086 34:-0.700849 35:-0.350682 36:-1 37:0.0218794 38:-0.28961 39:0.362463 40:-1 41:-0.643982 42:-0.248997 43:-0.291245 44:-0.608854 45:-0.034769 46:-0.70697 47:-0.20219 48:-1 49:-0.526455 50:0.0866518 51:-0.370086 52:-1 53:-1 54:0.049152 55:0.0273065 56:-1 57:-1 58:-1 59:-1 60:-1 61:-1 62:-1 63:-1 64:-1 
2 1:-0.366146 2:-0.611361 3:-0.186176 4:0.414299 5:-0.765126 6:0.40434 7:-0.71063 8:-0.401291 9:-0.835679 10:-0.850966 11:-0.242806 12:-0.675956 13:-0.823892 14:-0.937264 15:-0.428581 16:-0.600587 17:-0.03193 18:-0.366143 19:-0.778145 20:-0.34545 21:-1 22:-0.0181347 23:-0.276193 24:-1 25:-0.294683 26:-0.856548 27:-0.446153 28:-0.392402 29:-0.685443 30:-0.10475 31:-0.658138 32:-1 33:-0.602735 34:-1 35:-0.0299736 36:-1 37:-0.236746 38:-0.204069 39:-1 40:-1 41:0.326985 42:-0.687811 43:-0.132179 44:-0.415662 45:0.201637 46:0.171957 47:-0.553061 48:0.0971731 49:-0.292542 50:-1 51:-0.52951 52:-1 53:-0.405822 54:0.306112 55:-0.616299 56:-1 57:0.836652 58:-1 59:-0.479536 60:-1 61:-1 62:-0.388677 63:-1 64:-1 
2 1:-0.526546 2:-0.53553 3:-0.29082 4:-0.82392 5:-0.649127 6:-0.187018 7:-0.783859 8:-0.105603 9:-0.700338 10:-0.862986 11:-0.139292 12:-0.394863 13:-0.605419 14:0.106225 15:-0.146337 16:-1 17:0.175037 18:0.499282 19:-0.502848 20:-0.511105 21:-0.619208 22:-0.125136 23:-0.459376 24:-0.378009 25:-0.473187 26:-0.7857 27:-0.034737 28:-1 29:-1 30:-0.777083 31:0.021314 32:-1 33:-0.703231 34:-1 35:-0.0943172 36:-0.144194 37:0.140252 38:-0.603627 39:-0.619897 40:-1 41:-0.849795 42:-0.244348 43:0.370688 44:-0.454422 45:0.0771042 46:-0.430204 47:-0.554886 48:-0.726804 49:-0.207349 50:-0.545314 51:-0.121383 52:-0.679861 53:-0.112373 54:-0.21952 55:-1 56:-1 57:-1 58:-0.676807 59:-0.611246 60:-1 61:-1 62:-0.543324 63:-0.611246 64:-1 
2 1:-0.760672 2:-0.817392 3:0.0925314 4:-0.683587 5:-0.605915 6:-0.207009 7:-0.223124 8:-1 9:-0.772507 10:-0.925749 11:-0.34511 12:-0.564964 13:-0.645412 14:-0.549082 15:-0.712296 16:-0.597847 17:-0.0252891 18:-0.397254 19:-0.449004 20:-0.121315 21:-0.572312 22:-0.284718 23:-0.190247 24:-0.580783 25:-0.605495 26:-0.711163 27:-0.628251 28:-0.796088 29:-0.788857 30:-0.0986091 31:-0.31167 32:-0.316793 33:-0.799981 34:-0.625021 35:-0.430294 36:-0.871807 37:-0.871903 38:0.246579 39:-0.658418 40:-0.554761 41:-0.386358 42:-0.574017 43:0.0398114 44:-0.166529 45:0.0485471 46:0.413804 47:-0.650005 48:-0.263563 49:-0.643801 50:-0.387074 51:-0.526282 52:-0.856153 53:-0.800582 54:0.402752 55:-0.0986511 56:-0.82601 57:0.541006 58:-0.709561 59:-0.650644 60:-0.665711 61:-1 62:-0.58968 63:-0.825322 64:-1 
2 1:-0.547802 2:-0.714824 3:-0.0047354 4:-0.711712 5:-0.61702 6:0.10751 7:-0.528161 8:-0.75594 9:-0.923535 10:-0.773629 11:-0.357773 12:-0.669763 13:-0.784633 14:-0.546926 15:-0.184698 16:-0.837182 17:-0.0134005 18:-0.224826 19:-0.52971 20:-0.110571 21:-0.688273 22:-0.18946 23:-0.311541 24:-0.49082 25:-0.137434 26:-1 27:-0.397937 28:-0.851375 29:-0.615319 30:-0.391749 31:-0.581927 32:-1 33:-0.757057 34:-0.453436 35:-0.209161 36:-0.844297 37:-0.377653 38:-0.134779 39:-0.17023 40:-1 41:-0.133277 42:-0.708542 43:-0.010627 44:-0.404495 45:-0.118262 46:0.054214 47:-0.14974 48:-0.105506 49:-0.567361 50:-0.586428 51:-0.0409798 52:-0.47585 53:0.210917 54:0.277888 55:-0.687174 56:-0.788672 57:-0.251209 58:-1 59:-0.787836 60:-0.796987 61:0.278034 62:-0.501535 63:-0.787836 64:-1 
2 1:-0.125109 2:0.609305 3:-0.625555 4:-0.674636 5:-0.675825 6:-0.264285 7:-0.60061 8:-0.586829 9:0.529237 10:1 11:0.232408 12:-0.329086 13:-0.635403 14:-0.21898 15:-0.605614 16:-1 17:-0.3319 18:-0.0521916 19:-0.693775 20:-0.548256 21:-0.472274 22:-0.72885 23:-0.666972 24:-1 25:-0.350959 26:-0.505017 27:-0.617757 28:-1 29:-0.348771 30:-0.897023 31:-1 32:-1 33:-0.725813 34:0.23378 35:-0.66527 36:-1 37:-1 38:-0.816894 39:-1 40:-0.0844979 41:-0.27228 42:-0.496239 43:-0.654681 44:-0.596722 45:-0.502399 46:-0.767392 47:-1 48:-1 49:-1 50:-1 51:-0.675274 52:-0.704221 53:-1 54:-0.459136 55:-1 56:-1 57:-1 58:-0.701399 59:-1 60:-0.656317 61:-1 62:-1 63:-1 64:-1 
2 1:-0.750597 2:-0.836893 3:0.565473 4:-0.505371 5:-1 6:-0.489361 7:-0.848226 8:-0.0577882 9:-0.965941 10:-0.913341 11:0.0814006 12:-0.915009 13:-0.907632 14:-0.881965 15:-0.250499 16:-0.790509 17:0.269701 18:-0.00239411 19:0.955385 20:0.373567 21:-0.197702 22:-0.17253 23:0.898626 24:-0.126377 25:-0.25995 26:-0.849484 27:0.0654032 28:-0.872484 29:-1 30:-0.765166 31:0.0760018 32:-1 33:-0.791561 34:-0.765508 35:-0.363871 36:-0.799663 37:-0.799813 38:-1 39:-0.733092 40:-0.304192 41:-0.724452 42:-0.997526 43:0.18068 44:-0.693461 45:-0.747814 46:-0.568681 47:-0.765526 48:-0.616236 49:-0.257702 50:-0.787074 51:0.357637 52:0.124213 53:-0.688355 54:0.233408 55:-0.597406 56:-1 57:-1 58:-0.319059 59:-0.727018 60:-0.47746 61:0.0965182 62:-0.839661 63:-0.453908 64:-0.454035 
0.58355583025769975 1:-0.480035 2:-0.617436 3:-0.0357066 4:-0.871102 5:-0.871573 6:-0.121079 7:-0.68355 8:-1 9:-0.859937 10:-0.883529 11:-0.632329 12:-0.911397 13:-0.711118 14:-0.0144495 15:-0.687515 16:-1 17:-0.20587 18:-0.248949 19:-0.58749 20:-0.403394 21:-0.303047 22:-0.164299 23:-0.604197 24:-1 25:-1 26:-0.921562 27:-0.697137 28:-0.933548 29:-0.828003 30:0.305551 31:-0.439219 32:-1 33:-0.891376 34:-0.388941 35:-0.20429 36:-0.791148 37:-0.791304 38:0.0156326 39:-1 40:-1 41:-0.00441872 42:-0.671269 43:0.28695 44:-0.12122 45:0.0514323 46:0.346273 47:-0.348225 48:1 49:-0.613121 50:-0.778076 51:-0.871354 52:-0.0624738 53:-0.350218 55:-1 56:-1 57:0.00438745 58:-0.763409 59:-0.715415 60:-0.727689 61:-1 62:-0.164158 63:-1 64:-1 
2 1:-0.760342 2:-0.588566 3:-0.0769129 4:-0.465292 5:-1 6:-0.0810074 7:-0.343636 8:-1 9:-0.695281 10:-0.518346 11:-0.208635 12:-0.877496 13:-0.866862 14:-0.188831 15:-0.135767 16:-0.698043 17:-0.633976 18:0.198245 19:-0.496717 20:0.319845 21:-0.614525 22:-0.266182 23:-1 24:-1 25:0.244456 26:-0.45768 27:-0.720792 28:-0.448642 29:-0.762195 30:-0.0974027 31:-1 32:0.53921 33:-1 34:-0.831043 35:-0.633247 36:-1 37:-0.711454 38:0.404336 39:-1 40:-1 41:0.212534 42:-0.661911 43:-0.102235 44:0.43599 45:0.0904113 46:-0.133113 47:-0.436737 48:-1 49:-0.732548 50:-0.693115 51:-0.822133 52:-0.675976 53:-1 54:0.38272 55:-0.709922 56:-1 57:-1 58:-1 59:-0.212929 60:-1 61:-1 62:-0.768891 63:-1 64:-1 
0.51646125739849802 1:-0.775153 2:-0.264732 3:0.411348 4:-1 5:-1 6:-0.851979 7:-1 8:-1 9:-0.591291 10:-0.175128 11:0.523891 12:-0.540193 13:-0.666854 14:-0.328127 15:-0.729726 16:0.888943 17:0.144678 18:0.299108 19:0.00734878 20:-0.174449 21:-0.758898 22:0.0446173 23:-0.54355 24:-1 25:-0.777605 26:-0.592943 27:-0.301461 28:-1 29:-1 30:-0.576575 31:-0.676647 32:-0.0372771 33:-1 34:-0.577224 35:-0.311826 36:-1 37:-1 38:-1 39:-1 40:-1 41:-0.483134 42:-0.491909 43:-0.271009 44:-0.447264 45:-0.545323 46:-0.717571 47:-0.577224 48:0.0378567 49:-1 50:-0.616107 51:-0.777464 52:-0.189206 53:-1 54:-0.505792 55:-1 56:-0.509652 57:-1 58:0.637057 59:0.476858 60:-1 61:-1 62:-0.421703 63:-0.507714 64:-1 
2 1:-0.611764 2:-0.847652 3:-0.335383 4:0.155001 5:-0.424609 6:0.0693159 7:-0.716443 8:-1 9:-0.572627 10:-0.72141 11:-0.31265 12:-0.603033 13:-0.48229 14:-0.458536 15:-0.0199853 16:-1 17:-0.644234 18:0.13882 19:-0.565161 20:-0.0378191 21:-0.250656 22:-0.276922 23:-0.172455 24:0.0199918 25:-0.539197 26:-0.578289 27:-0.185852 28:-0.940455 29:-0.845881 30:-0.48822 31:-0.330011 32:-0.501309 33:-0.708001 34:-0.343006 35:-0.524701 36:-0.625713 37:-0.812997 38:-0.0899932 39:-0.50134 40:0.299968 41:-0.328386 42:-0.58112 43:0.284453 44:-0.570524 45:-0.175671 46:-0.244751 47:-0.343006 48:-0.46239 49:0.559995 50:-0.304002 51:-0.423631 52:-1 53:-0.708879 54:0.408 55:-1 56:-1 57:0.349983 58:-1 59:-0.744996 60:-1 61:-1 62:-0.251105 63:-0.744996 64:0.0200179 
2 1:-0.669941 2:-0.311922 3:0.024109 4:-0.815893 5:-0.755401 6:-0.333737 7:-0.623365 8:-0.376503 9:-0.324927 10:-0.45424 11:0.0725813 12:-0.746894 13:-0.770784 14:0.100945 15:-0.256099 16:-0.584051 17:-0.149333 18:0.155203 19:-0.537896 20:-0.54553 21:-0.402773 22:-0.32276 23:-0.371834 24:-0.349653 25:-0.755141 26:-0.62654 27:-0.615451 28:-0.873437 29:-0.754335 30:-0.378443 31:-0.822034 32:-0.470141 33:-0.793119 34:-0.592718 35:-0.621186 36:-0.701694 37:-0.701917 38:-0.171114 39:-0.867481 40:-1 41:-0.265963 42:-0.236726 43:-0.0424083 44:-0.201281 45:-0.311685 46:-0.47294 47:-0.534556 48:-0.428699 49:-0.723708 50:-0.260353 51:-0.693775 52:-0.665267 53:-0.845269 54:0.156224 55:-0.800254 56:-1 57:-0.760828 58:-0.662073 59:-0.0515109 60:-0.740743 61:-1 62:-0.442897 63:-0.729058 64:-0.72893 
0.43943845548982319 1:-0.659439 2:-0.72665 3:-0.152015 4:-0.539501 5:-0.541184 6:-0.14004 7:-0.773863 8:-1 9:-0.752792 10:-0.748957 11:-0.724549 12:-0.49351 13:-0.724751 14:-0.444771 15:-0.665045 16:-0.843933 17:-0.148888 18:-0.380819 19:-0.323814 20:-0.0621943 21:-0.601599 22:-0.153275 23:-0.528654 24:-0.349245 25:-0.63251 26:-0.495563 27:0.082048 28:-0.667619 29:-0.87709 30:-0.125478 31:-0.332189 32:-0.204588 33:-0.844754 34:-0.650698 35:-0.431483 36:-0.55226 37:-0.850865 38:-0.37801 39:-0.403478 40:-0.481638 41:-0.381192 42:-0.766526 43:0.0644414 44:0.14162 45:-0.342656 46:-0.0606853 47:-0.126818 48:-0.142601 49:-0.585301 50:-0.841412 51:-0.264611 52:-0.665057 53:-0.0713246 54:0.224896 55:0.0493961 56:-0.594869 57:0.435482 58:-0.830931 59:-0.593268 60:-0.610809 61:-1 62:-0.163933 63:-1 64:-1 
2 1:-0.0971173 2:-0.0588919 3:0.449032 4:-0.664241 5:-0.498202 6:-0.146219 7:-0.58785 8:-1 9:-0.133909 10:-0.515949 11:0.351639 12:-0.653805 13:-0.498339 14:-0.363858 15:-0.389521 16:-0.715558 17:0.120397 18:0.354315 19:-0.209962 20:-0.0676467 21:-0.273885 22:-0.469109 23:-1 24:-1 25:-0.497667 26:-0.284883 27:-0.211091 28:-0.826902 29:-0.775988 30:-0.681198 31:-0.756543 32:-1 33:-0.717053 34:-0.363373 35:-0.309152 36:-0.727987 37:-0.728191 38:-0.244174 39:-1 40:-1 41:0.0327359 42:-0.527286 43:-0.692955 44:-0.0636341 45:-0.657668 46:-0.633657 47:-0.893895 48:-1 49:-0.496122 50:-1 51:-0.83245 52:-1 53:-0.576856 54:-0.441856 55:-1 56:-1 57:-1 58:-1 59:-1 60:-1 61:-1 62:-0.782296 63:-1 64:-1 
2 1:-0.856217 2:-0.647334 3:0.107685 4:-1 5:-0.360684 6:-0.193197 7:-0.737426 8:-1 9:-0.778168 10:-0.703319 11:0.0676056 12:-0.705966 13:-0.680444 14:0.0101973 15:-1 16:-0.637573 17:0.537267 18:-0.233109 19:-0.235009 20:-0.208072 21:0.156426 22:-0.0699791 23:-0.343224 24:-1 25:-1 26:-0.609531 27:-0.162377 28:-0.889723 29:-0.429221 30:-0.323025 31:-0.689795 32:-1 33:-0.459266 34:-0.391678 35:-0.339869 36:-0.306915 37:-1 38:0.444441 39:-0.538241 40:-1 41:-0.632655 42:-0.156933 43:0.280018 44:-0.0721162 45:0.0904113 46:-0.511546 47:-1 48:-0.33632 49:-0.678988 50:-1 51:-0.359597 52:-0.611088 53:-0.460844 54:-0.762944 55:-1 56:-1 57:-0.16661 58:-0.214861 59:-1 60:-1 61:-1 62:-1 63:-1 64:-1 
2 1:-0.584529 2:-0.320682 3:0.343458 4:-0.519346 5:-0.794758 6:0.165755 7:-0.747138 8:-0.651217 9:-0.311433 10:-0.174362 11:0.0557852 12:-0.386368 13:-0.692221 14:-0.22553 15:-0.583844 16:-1 17:0.339579 18:0.169464 19:-0.340762 20:-0.42793 21:-0.70301 22:-0.232723 23:-0.508024 24:-0.878723 25:-0.726053 26:-0.49855 27:-0.462165 28:-0.858402 29:-0.908376 30:-0.521851 31:-0.900423 32:-1 33:-0.884271 34:-0.804708 35:-0.646793 36:-0.888743 37:-0.888827 38:-0.072508 39:-1 40:-0.613585 41:0.0448718 42:-0.295409 43:-0.109786 44:-0.702122 45:-0.29985 46:-0.562848 47:-0.652815 48:-0.786927 49:-0.381722 50:-0.645339 51:-0.31464 52:-1 53:-1 54:-0.847808 55:-0.888236 56:-1 57:-1 58:-0.873967 59:-0.6968 60:-0.854938 61:-1 62:-0.821913 63:-1 64:-1 
2 1:-0.686499 2:-0.520219 3:0.180693 4:-0.477708 5:-0.628298 6:-0.381018 7:-0.679439 8:-0.810502 9:-0.50254 10:-0.580477 11:0.275109 12:-0.743559 13:-0.609819 14:-0.311783 15:-0.683455 16:-0.241487 17:0.0916691 18:0.337595 19:-0.332848 20:-0.412963 21:-0.273885 22:-0.123296 23:-0.465406 24:-0.143411 25:-0.665111 26:-0.636766 27:-0.211091 28:-0.942301 29:-0.800878 30:-0.71662 31:-0.783594 32:-0.677846 33:-0.811369 34:-0.469477 35:-0.155631 36:-0.637316 37:-0.154371 38:-0.0762131 39:-0.838933 40:-0.58011 41:-0.399459 42:-0.540176 43:0.0038553 44:-0.560717 45:-0.0110401 46:-0.529155 47:-0.764212 48:-0.0738766 49:-0.776054 50:-0.710962 51:-0.664899 52:-0.728685 53:-0.717904 54:-0.17312 55:-1 56:-0.835916 57:-0.418607 58:-0.246767 59:-0.0116027 60:-0.684743 61:-1 62:-0.467835 63:-0.423435 64:0.976795 
2 1:-0.584335 2:-0.0620912 3:0.565473 4:-0.505371 5:-0.507178 6:-0.294786 7:-0.392833 8:-1 9:-0.00756372 10:-0.65192 11:0.419639 12:-0.574967 13:-0.815221 14:-0.407267 15:-1 16:-1 17:0.333175 18:-0.168662 19:-0.650824 20:-0.313217 21:-0.197702 22:-0.17253 23:-0.24055 24:-1 25:-0.876678 26:-0.623728 27:-0.418879 28:-0.872484 29:-0.669955 30:-0.452066 31:-1 32:-1 33:-0.270537 34:-1 35:-0.109467 36:-1 37:-1 38:-0.30404 39:-0.46606 40:-1 41:-0.258028 42:-0.100265 43:-0.332614 44:-0.6168 45:-0.243501 46:-0.276954 47:-0.68738 48:-0.424399 49:-0.814447 50:-0.680636 51:-0.876599 52:-0.775199 53:-0.688355 54:0.233408 55:-1 56:-1 57:-0.036337 58:-1 59:-1 60:-1 61:-1 62:-0.839661 63:-1 64:-1 
2 1:-0.582044 2:-0.526199 3:-0.141414 4:-0.474994 5:-0.531977 6:-0.159365 7:-0.592954 8:-0.649164 9:-0.606463 10:-0.623274 11:-0.195498 12:-0.563138 13:-0.525217 14:-0.210153 15:-0.196178 16:-0.90636 17:-0.148888 18:-0.108356 19:-0.531874 20:-0.411733 21:0.0756213 22:-0.334722 23:-0.490941 24:-0.560792 25:-0.476355 26:-0.747782 27:-0.437333 28:-0.914523 29:-0.52069 30:-0.370328 31:-0.759558 32:-0.284129 33:-0.510999 34:-0.240296 35:-0.346166 36:-0.597081 37:-0.373633 38:0.679418 39:-0.701801 40:-0.533637 41:-0.267053 42:-0.38464 43:-0.136274 44:-0.332164 45:0.324109 46:-0.398835 47:-0.441153 48:-0.442677 49:-0.626815 50:-0.595625 51:-0.145072 52:-0.598068 53:-0.65182 54:-0.111936 55:-0.730131 56:-0.939294 57:-0.569355 58:-0.594234 59:-0.572995 60:-1 61:-0.509985 62:-0.534187 63:-0.817034 64:-0.878108 
0.02376442608350008 1:-0.732253 2:-0.57316 3:-0.770807 4:-0.601698 5:-0.503956 6:-0.158365 7:-0.755574 8:-0.74714 9:-0.878197 10:-0.745139 11:-0.285428 12:-0.657775 13:-0.628069 14:-0.10691 15:-0.637955 16:-0.662622 17:-0.335488 18:-0.107502 19:-0.587653 20:-0.078391 21:-0.461659 22:-0.0357842 23:-0.286597 24:-0.296512 25:-0.404124 26:-0.575864 27:-0.376136 28:-0.897344 29:-0.734299 30:-0.495787 31:-0.566852 32:0.289615 33:-0.664347 34:-0.433616 35:-0.0780976 36:-0.677365 37:-0.193922 38:-0.551692 39:-0.785078 40:-1 41:-0.519386 42:-0.754514 43:0.517269 44:-0.321213 45:-0.49239 46:-0.0515488 47:-0.181896 48:0.0814032 49:-0.551761 50:-0.571414 51:-0.403746 52:-0.0948131 53:-0.749054 54:-0.006912 55:-1 56:-0.562103 57:-0.612105 58:-0.634513 59:-0.120617 60:-1 61:-0.117256 62:0.0329514 63:-0.560372 64:-0.560372 
2 1:-0.440047 2:-0.191263 3:0.198239 4:-0.814911 5:-0.861676 6:0.301904 7:-0.886364 8:-0.529921 9:0.0737575 10:-0.374073 11:0.163249 12:-0.68191 13:-0.723457 14:0.253139 15:-0.551293 16:-0.764775 17:-0.0972725 18:0.285805 19:-0.599306 20:-0.443165 21:-0.599725 22:-0.429527 23:-0.715797 24:-0.673093 25:-0.769253 26:-0.60577 27:-0.601339 28:-0.904579 29:-1 30:-0.560637 31:-0.932917 32:-0.800274 33:-0.883006 34:-0.69291 35:-0.761994 36:-0.850005 37:-1 38:-0.583347 39:-0.900143 40:-1 41:-0.0525268 42:0.163557 43:-0.281277 44:-0.569844 45:-0.669738 46:-0.417398 47:-0.590547 48:-0.425653 49:-0.444469 50:-0.641462 51:-0.676715 52:-1 53:-1 54:-0.692288 55:-1 56:-0.796419 57:-0.63933 58:-0.490354 59:-0.693485 60:-0.804429 61:-0.794931 62:-0.519958 63:-1 64:-1 
2 1:-0.89836 2:-0.601192 3:0.217878 4:-0.395299 5:-0.698726 6:-0.251321 7:-0.628824 8:-1 9:-0.641059 10:-0.509201 11:0.275898 12:-0.792148 13:-0.774106 14:0.0821023 15:-0.633475 16:-1 17:-0.223896 18:-0.186935 19:-0.658499 20:-0.720112 21:-0.0191707 22:-0.283747 23:-0.690498 24:-0.465932 25:-0.396867 26:-0.632022 27:-0.526392 28:-0.844111 29:-1 30:-0.425819 31:-1 32:-1 33:-0.490413 34:-0.713332 35:-0.688917 36:-0.510059 37:-0.510425 38:-0.31938 39:-0.347254 40:-1 41:-0.183719 42:0.332143 43:-0.750724 44:-0.437851 45:-0.38346 46:0.0353025 47:-0.4267 48:-0.0617804 49:-1 50:-0.739697 51:-1 52:-1 53:-1 54:0.005248 55:-1 56:0.32982 57:-1 58:-0.444986 59:-0.332398 60:-0.361191 61:0.340502 62:-0.607878 63:-1 64:-1 
2 1:0.241832 2:0.538863 3:-0.104893 4:0.361111 5:-0.612532 6:0.122957 7:-0.522631 8:-0.50616 9:1 10:-0.434262 11:-0.216033 12:-0.465365 13:-0.709478 14:-0.505492 15:-0.764306 16:-1 17:-0.401067 18:0.0457469 19:-0.890192 20:-0.460056 21:-0.158986 22:-0.796604 23:-0.800975 24:-1 25:-0.612119 26:-0.76335 27:0.218327 28:-0.398535 29:-0.221623 30:-0.630751 31:-1 32:-1 33:0.147022 34:-0.815658 35:-0.399875 36:-1 37:0.5741 38:0.0942832 39:-1 40:-1 41:-0.066872 42:-0.398787 43:-0.870098 44:-0.517984 45:0.189507 46:-0.620494 47:-1 48:-0.698311 49:-1 50:-0.497837 51:-1 52:-1 53:-1 54:-0.784512 55:-1 56:-1 57:-1 58:-1 59:-1 60:-1 61:-1 62:-0.747847 63:-1 64:-1 
2 1:-0.387227 2:-0.334451 3:0.348708 4:-0.544237 5:-0.675652 6:0.333828 7:-0.920108 8:-1 9:-0.327612 10:-0.469101 11:0.411241 12:-0.552459 13:-0.756806 14:0.0428448 15:-0.605404 16:-1 17:0.704625 18:0.28389 19:-0.387203 20:-0.216571 21:-0.647996 22:-0.341916 23:-0.600177 24:-1 25:-0.610391 26:-0.643408 27:-0.439097 28:-0.966446 29:-1 30:-0.423005 31:-0.811147 32:-0.718988 33:-0.945153 34:-0.567917 35:-0.397142 36:-0.894545 37:-1 38:-0.413761 39:-1 40:-1 41:-0.131379 42:-0.0121316 43:-0.0575498 44:-0.556172 45:-0.336179 46:-0.56083 47:-0.917693 48:-1 49:-0.706894 50:-0.719761 51:-0.610144 52:-0.76323 53:-1 54:-1 55:-0.894064 56:-1 57:-1 58:-1 59:-1 60:-1 61:-0.71147 62:-1 63:-1 64:-1 
1.5606706338319329 1:-0.878676 2:-0.761957 3:-0.376921 4:-0.639062 5:-1 6:-0.824204 7:-0.113884 8:-0.0833089 9:-0.969835 10:-0.754706 11:-0.279742 12:-0.255687 13:-0.730359 14:-0.0504424 15:-0.562493 16:0.223092 17:-0.0735251 18:-0.352943 19:-0.184676 20:-1 21:-0.609716 22:-0.306198 23:0.10832 24:0.912485 25:-0.639998 26:-1 27:-0.151929 28:-1 29:-1 30:-0.771527 31:-1 32:0.558409 33:-0.695834 34:-1 35:-0.628672 36:-1 37:-1 38:0.625012 39:-1 40:-1 41:-0.935182 42:0.0324441 43:-0.0251693 44:-0.552629 45:0.472017 46:-0.0148499 47:-0.315631 48:-1 49:-1 50:-0.378573 51:0.440922 52:-1 53:-1 54:0.2 55:-0.412511 56:-1 57:0.406232 58:0.987492 59:0.593778 60:-1 61:-1 62:-0.53194 63:-1 64:-1 
2 1:-0.688576 2:-0.618122 3:-0.555736 4:-0.691153 5:-0.692281 6:-0.392952 7:-0.715663 8:-0.803901 9:-0.780607 10:-0.498013 11:0.129393 12:-0.203962 13:-0.365546 14:-0.0794019 15:-0.34493 16:-0.0843444 17:-0.564008 18:0.487894 19:-0.447732 20:-0.213898 21:-0.0816785 22:-0.352606 23:-0.288784 24:-0.454508 25:-0.768965 26:-0.62415 27:-0.455787 28:-0.840776 29:-0.587886 30:-0.120323 31:-0.664084 32:-0.33325 33:-0.349377 34:-0.487654 35:-0.205715 36:-0.874895 37:-0.874988 38:-0.217914 39:-0.499969 40:-1 41:-0.533732 42:-0.138955 43:0.00820998 44:-0.377975 45:-0.448995 46:-0.498646 47:-0.463236 48:-0.640607 49:-0.536508 50:-0.468307 51:-0.229452 52:-0.719236 53:-1 54:0.026752 55:-0.622973 56:-1 57:-0.699179 58:-0.858279 59:-0.147775 60:-0.836882 61:-0.315412 62:-0.299184 63:-1 64:-1 
1.4934548306176925 1:-0.420091 2:-0.490969 3:-0.164011 4:-0.545969 5:-0.276216 6:-0.250322 7:-0.33123 8:-0.308155 9:-0.511536 10:-0.421398 11:-0.10899 12:-0.251002 13:0.0175159 14:-0.32849 15:-0.669805 16:1 17:-0.300771 18:-0.0639939 19:-0.435937 20:-0.159535 21:-0.2145 22:-0.589628 23:-0.628255 24:0.122603 25:-0.456598 26:-0.171162 27:-0.431046 28:-0.765928 29:-0.757648 30:-0.655133 31:-0.868347 32:-0.215809 33:-0.00525599 34:0.11908 35:-0.439503 36:-0.705717 37:-0.117906 38:-0.182359 39:-0.607929 40:-1 41:-0.590241 42:-0.492268 43:-0.457022 44:-0.49354 45:-0.44452 46:-0.851603 47:-0.71304 48:0.267954 49:-0.454955 50:-0.687348 51:-0.365648 52:-1 53:-0.542213 54:-0.597504 55:-1 56:-1 57:0.768928 58:1 59:-0.198138 60:-0.6163 61:0.207629 62:-0.0579645 63:-1 64:0.202856 
2 1:-0.797787 2:-0.603268 3:-0.0307552 4:-1 5:-0.880146 6:-0.824204 7:-1 8:-1 9:-0.923222 10:-0.615971 11:0.323575 12:-0.586479 13:-0.640494 14:-0.218375 15:-0.270799 16:-0.796184 17:-0.38236 18:0.2402 19:0.0870983 20:-0.443165 21:0.821344 22:-0.0273693 23:-0.0148072 24:-1 25:-0.639998 26:-0.853561 27:-0.434619 28:-0.937984 29:-0.839485 30:-0.771527 31:-1 32:-1 33:-0.797207 34:0.0265535 35:-0.133589 36:-1 37:-1 38:0.218759 39:-0.220844 40:-1 41:-0.805514 42:-0.507951 43:0.141288 44:-0.627179 45:0.104013 46:-0.174503 47:-0.39166 48:-1 49:-0.0971963 50:-0.585732 51:-0.159481 52:-0.781289 53:-0.696798 54:-0.2 55:-0.0208206 56:-1 57:-1 58:-1 59:-1 60:-1 61:-1 62:-0.844005 63:-1 64:-1 
2 1:-0.528739 2:-0.361549 3:-0.385329 4:-0.599446 5:-0.733939 6:0.127804 7:-0.426364 8:-0.660898 9:-0.4888 10:-0.544595 11:-0.341556 12:-0.449287 13:-0.451357 14:-0.322001 15:-0.109797 16:-0.886888 17:-0.143137 18:0.0173282 19:-0.585272 20:-0.443806 21:-0.205882 22:-0.376913 23:-0.453288 24:-0.528356 25:-0.66707 26:-0.634341 27:-0.111086 28:-0.827915 29:-0.554597 30:-0.28157 31:-0.806373 32:-0.711757 33:-0.493625 34:-0.620257 35:0.0302706 36:-0.459156 37:0.0809724 38:0.127173 39:-0.567662 40:-1 41:-0.244928 42:-0.439711 43:-0.211362 44:-0.213879 45:0.0210498 46:-0.547641 47:-0.367059 48:-0.378522 49:-0.398882 50:-0.712652 51:-0.067147 52:-0.51449 53:-0.326929 54:0.03584 55:-0.891338 56:-1 57:-0.479807 58:-0.877464 59:-0.705215 60:-0.717928 61:-0.112135 62:-0.740283 63:-0.852607 64:-1 
2 1:-0.306726 2:-0.234853 3:0.0384647 4:0.417995 5:-0.357807 6:-1 7:-0.367029 8:-1 9:-0.260546 10:0.429489 11:0.131605 12:-0.202533 13:-0.325898 14:-0.464299 15:-0.687515 16:-1 17:0.124993 18:0.155462 19:-0.441895 20:-0.045463 21:-0.442425 22:-0.98583 23:-0.604197 24:-0.772338 25:-0.357122 26:-0.372459 27:0.211543 28:0.129749 29:-0.13994 30:-0.428817 31:-0.439219 32:-1 33:-0.348209 34:-0.388941 35:-0.867391 36:0.044353 37:0.252267 38:0.0156326 39:-0.721748 40:-1 41:-0.837939 42:-0.582198 43:-0.916941 44:-0.440786 45:-0.605735 46:-0.870132 47:-0.837065 48:-1 49:0.160723 50:-0.667114 51:-0.614063 52:-1 53:-0.675109 54:-0.714304 55:-1 56:-1 57:-1 58:-1 59:-1 60:-1 61:-0.428571 62:-1 63:-1 64:-1 
2 1:0.065282 2:-0.245232 3:-0.189499 4:0.0564218 5:0.227941 6:-0.0946979 7:-1 8:-1 9:-0.222772 10:-0.423097 11:0.181756 12:-0.394863 13:-0.736917 14:0.0447996 15:-0.786567 16:-1 17:-0.186511 18:0.499282 19:-0.734857 20:-0.837017 21:-1 22:-0.431167 23:-0.819772 24:-0.378009 25:-0.473187 26:-1 27:-0.034737 28:-1 29:-0.295215 30:0.114511 31:-1 32:-1 33:-0.406512 34:-0.165398 35:-0.456614 36:-1 37:-0.429827 38:-0.801814 39:-1 40:-1 41:0.288648 42:-0.305186 43:-0.481932 44:-0.127089 45:-0.820473 46:-0.430204 47:-0.777425 48:-0.726804 49:-1 50:-0.848422 51:-0.824265 52:-0.359723 53:-1 54:-1 55:-1 56:-1 57:-1 58:-0.0305279 59:-1 60:-1 61:-1 62:-1 63:-1 64:-1 
2 1:-0.0950791 2:0.00229474 3:0.34924 4:-0.218411 5:0.0382922 6:0.118051 7:-0.360366 8:-1 9:0.505539 10:-0.548169 11:0.0852178 12:-0.761224 13:-0.545882 14:-0.305193 15:-0.789437 16:-1 17:0.159146 18:0.1287 19:-0.673055 20:-0.276547 21:-0.3427 22:-0.618302 23:-0.733353 24:-0.386475 25:-0.480272 26:-0.52438 27:-0.183817 28:-0.955222 29:-0.768205 30:-0.615214 31:-0.874042 32:-1 33:-0.121812 34:-0.423707 35:-0.731991 36:-0.718537 37:-0.578214 38:-0.120283 39:-0.812504 40:-1 41:-0.247915 42:-0.289163 43:-0.402529 44:-0.300347 45:-0.46872 46:-0.631052 47:-0.890209 48:-1 49:-0.739308 50:-0.700969 51:-0.74 52:-1 53:-1 54:-0.422528 55:-0.858627 56:-0.808992 57:-0.323208 58:-1 59:-0.808237 60:-1 61:-1 62:-0.774732 63:-1 64:-1 
0.46344060409742804 1:-0.584781 2:-0.592661 3:0.332791 4:-0.382363 5:1 6:-0.392952 7:-0.620884 8:-1 9:-0.750688 10:-0.735416 11:-0.398526 12:-0.469295 13:0.614953 14:-0.537414 15:-0.625634 16:-1 17:0.109784 18:-0.100358 19:-0.738401 20:0.143392 21:0.502685 22:-0.620995 23:-0.367814 24:-1 25:0.540119 26:-0.718121 27:-0.395314 28:-0.920388 29:-1 30:-0.413537 31:0.119635 32:-0.33325 33:0.171112 34:0.463893 35:0.906307 36:0.000748573 37:1 38:-0.30482 39:1 40:-0.130972 41:-0.575336 42:-0.912545 43:-0.472484 44:-0.234458 45:-0.212824 46:-0.760469 47:-0.512036 48:-0.760405 49:-0.304849 50:-0.202436 51:-0.229452 52:-0.719236 53:0.556769 54:-0.144384 55:-0.24604 56:-1 57:-1 58:-1 59:-0.659059 60:-1 61:-0.315412 62:-1 63:-0.659059 64:-1 
2 1:-0.573619 2:-0.405578 3:-0.346914 4:-0.532687 5:-0.600909 6:-0.0122821 7:-0.426364 8:-0.830449 9:-0.540538 10:-0.531765 11:-0.189391 12:-0.541066 13:-0.351611 14:-0.391911 15:-0.109797 16:-0.886888 17:-0.0745924 18:0.077168 19:-0.610406 20:-0.382013 21:-0.133696 22:-0.357574 23:-0.521679 24:-0.528356 25:-0.733656 26:-0.593717 27:-0.163372 28:-0.827915 29:-0.554597 30:-0.239312 31:-0.806373 32:-0.423513 33:-0.493625 34:-0.556967 35:0.0989514 36:-0.459156 37:0.297148 38:0.202314 39:-0.567662 40:-1 41:-0.316872 42:-0.485843 43:-0.234454 44:-0.172506 45:-0.115082 46:-0.537797 47:-0.367059 48:-0.378522 49:-0.398882 50:-0.712652 51:-0.000518732 52:-0.51449 53:-0.326929 54:-0.112128 55:-0.891338 56:-1 57:-0.479807 58:-0.877464 59:-0.705215 60:-0.717928 61:-0.112135 62:-0.740283 63:-0.852607 64:-1 
2 1:-0.535359 2:-0.696124 3:-0.381341 4:0.228748 5:-0.3879 6:-0.397253 7:0.696806 8:-0.609856 9:-0.752613 10:-0.766515 11:0.157852 12:-0.68326 13:-0.54105 14:-0.433667 15:-0.441462 16:-0.739726 17:-0.132671 18:-0.0362999 19:-0.59523 20:-0.289162 21:-0.501748 22:0.0430782 23:-0.842766 24:-0.728682 25:0.0723461 26:-0.43923 27:-0.0376317 28:-0.762445 29:-0.590121 30:-0.513882 31:-0.554541 32:-1 33:-0.741143 34:-1 35:-0.0519562 36:-0.00458501 37:-0.25395 38:0.383015 39:-0.668391 40:-1 41:-0.248289 42:-0.331065 43:0.00139829 44:-0.333703 45:-0.060441 46:-0.558352 47:-0.514627 48:-0.761659 49:-0.0780431 50:-0.73557 51:-0.540115 52:-0.441516 53:-0.612809 54:0.191488 55:-1 56:-0.324486 57:-0.401507 58:-0.436188 59:-1 60:-0.675471 61:-0.318996 62:-0.800794 63:-1 64:-1 
2 1:-0.0782491 2:0.390134 3:0.224657 4:-0.63167 5:-1 6:0.278339 7:-0.849289 8:-0.584189 9:0.618994 10:-0.135461 11:0.800658 12:-0.718669 13:-1 14:0.0442756 15:-0.801547 16:-0.722603 17:0.428787 18:0.577524 19:-0.599372 20:-0.696913 21:-0.867241 22:-0.559548 23:-1 24:-0.710832 25:-0.714245 26:-0.676231 27:-0.71152 28:-0.936704 29:-0.945365 30:-0.792729 31:-1 32:-0.823214 33:-0.965495 34:-0.92242 35:-0.957877 36:-0.933658 37:-1 38:-0.953915 39:-1 40:-0.769581 41:-0.221465 42:0.074785 43:-0.452528 44:-0.746358 45:-0.87482 46:-0.602468 47:-0.870645 48:-0.619013 49:-0.877194 50:-0.788615 51:-0.918329 52:-1 53:-1 54:-0.909312 55:-1 56:-1 57:-0.521656 58:-0.699491 59:-0.638531 60:-0.827121 61:-1 62:-0.628473 63:-1 64:-1 
2 1:-0.480248 2:-0.512278 3:-0.148924 4:-0.394953 5:-0.59809 6:0.172358 7:-0.504838 8:-0.487826 9:-0.510529 10:-0.7996 11:-0.305594 12:-0.491644 13:-0.849346 14:-0.386369 15:-0.185118 16:-0.544325 17:-0.275215 18:-0.337129 19:-0.557062 20:-0.813337 21:0.0177345 22:-0.351351 23:-0.243032 24:-0.762546 25:-0.463568 26:-0.631811 27:-0.526121 28:-0.861349 29:-0.730909 30:-0.404215 31:-1 32:-1 33:-0.490121 34:-0.681303 35:-0.446692 36:-0.564237 37:-0.782328 38:0.135039 39:-0.70978 40:-0.621709 41:0.0524023 42:-0.479897 43:-0.320209 44:-0.416699 45:0.0281744 46:-0.058216 47:-0.107692 48:-0.269836 49:-0.495515 50:-0.247626 51:-0.396138 52:-0.877782 53:-0.491703 54:0.26656 55:-0.56225 56:-0.704343 57:0.0478119 58:-0.753233 59:-0.406222 60:-0.857988 61:-0.701997 62:-0.389725 63:-1 64:-1 
2 1:-0.311754 2:-0.493616 3:-0.00922157 4:-0.348522 5:-0.211772 6:0.237176 7:-0.65725 8:-0.763567 9:-0.460537 10:-0.620777 11:-0.31752 12:-0.296257 13:-0.408991 14:-0.323371 15:-0.830807 16:-0.921135 17:-0.0922028 18:-0.144902 19:-0.693406 20:-0.267727 21:-0.144561 22:-0.384475 23:-0.952357 24:-1 25:-0.48943 26:-0.518582 27:-0.380388 28:-0.640139 29:-0.565308 30:-0.322513 31:-0.730078 32:-0.799028 33:-0.333317 34:-0.249986 35:-0.377655 36:-0.547581 37:0.054792 38:-0.0572329 39:-0.698685 40:-0.738057 41:0.130197 42:-0.455035 43:-0.227383 44:-0.45206 45:-0.240851 46:-0.0500162 47:-0.764723 48:-0.638995 49:-0.580968 50:-0.799702 51:-0.767781 52:-0.915372 53:-0.765357 54:-0.69056 55:-0.848475 56:-1 57:-0.818652 58:-0.914564 59:-0.794466 60:-0.901665 61:-0.793651 62:-0.758631 63:-1 64:-1 
2 1:-0.448801 2:-0.529798 3:0.435906 4:-0.643509 5:-0.573808 6:-0.26798 7:-0.387375 8:-0.63787 9:-0.308524 10:-0.689623 11:0.165118 12:-0.656941 13:-0.520644 14:-0.512283 15:-1 16:-0.879159 17:0.061429 18:0.0544692 19:-0.114221 20:-0.340051 21:0.00218559 22:0.0126474 23:-0.343224 24:-0.622195 25:-0.573354 26:-0.783065 27:-0.385771 28:-0.926492 29:-0.619481 30:-0.503573 31:-1 32:-1 33:-0.519321 34:-0.526855 35:0.0268841 36:-0.537943 37:-0.307433 38:-0.27778 39:-0.692202 40:-0.598635 41:-0.402135 42:-0.353992 43:-0.0652404 44:-0.55814 45:-0.2004 46:-0.543085 47:-0.549375 48:-1 49:-0.678988 50:-0.631767 51:-0.501902 52:-0.870328 53:-0.640611 54:-0.446912 55:-0.883912 56:-0.686436 57:-0.722128 58:-0.869091 59:-0.370394 60:-1 61:-1 62:-0.815098 63:-1 64:-1 
2 1:-0.861089 2:-0.6934 3:-0.286633 4:-0.483426 5:-0.176559 6:-0.0649543 7:-0.746358 8:-1 9:-0.669345 10:-0.853485 11:-0.584389 12:-0.644913 13:-0.845636 14:-0.35485 15:-0.624304 16:-0.299804 17:0.0607175 18:-0.212895 19:-0.455483 20:-0.330643 21:-0.106344 22:-0.169837 23:-0.682755 24:-0.817523 25:-0.793906 26:-0.81139 27:0.132797 28:-0.786948 29:-0.862141 30:0.177094 31:-0.700348 32:-1 33:-0.738807 34:-0.510266 35:-0.362327 36:-0.8326 37:-1 38:0.0465078 39:-0.553949 40:-1 41:-0.322162 42:-0.554063 43:0.119994 44:0.152428 45:-0.473312 46:0.124146 47:-0.477653 48:0.121993 49:-0.534862 50:-0.822123 51:-0.484438 52:-0.436476 53:-1 54:-0.198592 55:-0.495512 56:-0.545593 57:-0.59748 58:-0.810367 59:0.140507 60:-0.781736 61:-0.541987 62:-0.598068 63:-0.543797 64:-0.543797 
2 1:-0.407279 2:-0.563886 3:0.0146714 4:-1 5:-1 6:-0.0467508 7:0.082267 8:-1 9:-0.42641 10:-0.778002 11:-0.0976175 12:-0.696955 13:-1 14:-0.260998 15:0.068706 16:-1 17:-0.547376 18:0.580604 19:-0.00418533 20:-0.591928 21:-0.523292 22:0.0298285 23:-1 24:-1 25:-1 26:-1 27:-0.654711 28:-1 29:-1 30:0.395259 31:-1 32:-1 33:-1 34:-0.582042 35:-0.546446 36:-1 37:-1 38:-0.00763756 39:-1 40:-1 41:0.338623 42:-0.425444 43:0.251214 44:0.0928027 45:-0.101069 46:-0.494218 47:-1 48:-0.31598 49:-1 50:-0.241014 51:-0.56 52:-1 53:-1 54:-0.511424 55:-1 56:-1 57:-1 58:-1 59:-1 60:-1 61:-1 62:-0.428293 63:-1 64:-1 
2 1:-0.801242 2:-0.870009 3:-0.206081 4:0.182606 5:-0.803619 6:-0.0656813 7:-0.0322192 8:-0.499413 9:-0.880569 10:-0.994295 11:-0.922733 12:-0.593545 13:-1 14:-0.496221 15:-0.761086 16:-1 17:0.0118589 18:-0.734992 19:-0.703179 20:-0.452679 21:-0.360622 22:-0.276587 23:0.00871878 24:-0.651877 25:-0.21364 26:-1 27:-0.382514 28:-0.491932 29:-1 30:0.621941 31:-0.142498 32:-0.148984 33:-0.833901 34:-0.62628 35:-0.594451 36:-1 37:-1 38:0.33108 39:-1 40:-1 41:0.162715 42:-0.658339 43:0.0216935 44:0.221502 45:0.00479878 46:0.315722 47:0.121161 48:-0.694189 49:-1 50:-0.660651 51:-0.0164265 52:0.0750735 53:-0.00640466 54:0.965888 55:-1 56:-0.566548 57:-1 58:-1 59:0.305495 60:-0.583603 61:-1 62:-0.744402 63:-1 64:-1 
2 1:-0.629079 2:-0.716976 3:0.128853 4:-0.63219 5:-1 6:-0.1096 7:-1 8:-1 9:-0.872133 10:-0.749401 11:-0.0963275 12:-0.831448 13:-0.816817 14:0.0567905 15:-0.702776 16:-1 17:0.00711533 18:0.0990385 19:0.0386246 20:0.0214085 21:-0.33708 22:0.528716 23:-0.623526 24:-0.783456 25:-0.266229 26:-0.850785 27:-0.231761 28:-0.936793 29:-1 30:-0.223886 31:-0.822202 32:-1 33:-0.793362 34:-0.883767 35:-0.243145 36:-1 37:-1 38:-1 39:-0.735336 40:-1 41:-0.465273 42:-0.322625 43:0.931723 44:-0.08815 45:-0.624989 46:-0.591092 47:-0.457542 48:-0.619551 49:-0.632015 50:-0.788914 51:-0.51049 52:-0.777089 53:-1 54:-0.320576 55:-0.800442 56:-1 57:-1 58:-0.774963 59:-0.458626 60:-1 61:-1 62:-1 63:-1 64:-1 
1.1025033899339269 1:-0.756343 2:-0.601592 3:-0.09622 4:-0.637561 5:-1 6:0.0645 7:-0.703399 8:-1 9:-0.73518 10:-0.799978 11:-0.11107 12:-0.833909 13:-0.638984 14:-0.593781 15:-0.707116 16:-1 17:-0.193685 18:-0.0794974 19:-0.590631 20:-0.776346 21:-0.477457 22:-0.0572647 23:-0.505364 24:-0.786618 25:-0.3975 26:-0.926482 27:-0.0537338 28:-0.875432 29:-0.838792 30:0.0706805 31:-0.12399 32:0.0432614 33:-0.796379 34:-0.770928 35:0.118617 36:-0.0212408 37:-0.413184 38:-0.456076 39:-0.217603 40:-1 41:-0.0872542 42:-0.796676 43:-0.396057 44:0.647221 45:0.355021 46:0.167742 47:-0.312784 48:-0.43766 49:-0.637388 50:-0.583992 51:-0.397118 52:-0.121378 53:-0.0864629 54:-0.062784 55:-0.803356 56:-1 57:-1 58:-0.778249 59:-0.733265 60:-1 61:-1 62:-0.373324 63:-1 64:-0.466531 
2 1:-0.630574 2:-0.637584 3:-0.252604 4:-0.400497 5:-0.60183 6:-0.102361 7:-0.386737 8:-0.23878 9:-0.567682 10:-0.840155 11:-0.191497 12:-0.656584 13:-0.253592 14:-0.591302 15:-0.394421 16:-0.661448 17:-0.333205 18:-0.149198 19:-0.15364 20:0.202245 21:-0.459785 22:-0.00265997 23:-0.693217 24:-0.117605 25:-0.601405 26:-0.452795 27:-0.295717 28:-0.690931 29:-0.200046 30:-0.557274 31:-0.565345 32:-1 33:-0.494793 34:-0.526362 35:0.233461 36:-0.514363 37:-0.352969 38:0.124573 39:-0.352989 40:-1 41:-0.247417 42:-0.476305 43:0.108747 44:-0.442719 45:0.0186946 46:-0.460483 47:-0.873711 48:-0.689978 49:-0.400269 50:-0.827989 51:-0.30196 52:-0.818354 53:-0.74818 54:-0.335616 55:-1 56:-1 57:0.167735 58:-0.449862 59:-0.558842 60:-0.788934 61:-0.114183 62:-0.740882 63:-1 64:-1 
2 1:-0.680617 2:-0.791112 3:-0.210235 4:-0.36654 5:-0.789637 6:0.0707698 7:-0.611243 8:-1 9:-0.78242 10:-0.78869 11:-0.524891 12:-0.782303 13:-0.763407 14:-0.668245 15:-0.488082 16:-1 17:-0.132819 18:-0.574159 19:-0.523025 20:-0.218228 21:-0.0867366 22:0.0984693 23:-0.459672 24:-0.813545 25:-0.473475 26:-0.807278 27:-0.338505 28:-0.945576 29:-0.718271 30:0.0692548 31:-0.693815 32:-1 33:-0.822075 34:-0.499535 35:-0.565517 36:-0.657902 37:-0.658158 38:0.188339 39:-0.544225 40:-1 41:-0.243279 42:-0.573318 43:0.44272 44:-0.0839984 45:-0.13887 46:0.337341 47:-0.332713 48:-0.508624 49:-0.524722 50:-0.727368 51:-0.262421 52:-0.424192 53:-0.733916 54:0.170048 55:-0.656343 56:-1 57:-1 58:-1 59:-1 60:-1 61:-1 62:-0.589306 63:-0.766926 64:-1 
2 1:-0.586975 2:-0.257172 3:-0.410817 4:-0.180873 5:0.224258 6:0.515712 7:-0.24588 8:-1 9:-0.236803 10:-0.835394 11:-0.262235 12:-0.436942 13:-0.847017 14:-0.255013 15:-0.503553 16:-0.653033 17:-0.264068 18:-0.449303 19:-0.691601 20:-0.241801 21:-0.557138 22:-0.535341 23:-0.790395 24:-1 25:0.225563 26:-0.501537 27:-0.518838 28:-0.894427 29:-0.453495 30:-0.61112 31:-0.703028 32:-1 33:-0.309714 34:-0.029291 35:-0.367971 36:-1 37:-0.336886 38:-0.539017 39:-0.115876 40:0.152421 41:0.551749 42:-0.561027 43:-0.56529 44:-0.238503 45:0.0439544 46:-0.445122 47:-0.352861 48:-0.364545 49:-0.385362 50:-0.294855 51:-0.591239 52:-0.627677 53:-0.483843 54:0.13472 55:1 56:-1 57:-1 58:-1 59:-1 60:-1 61:-0.0921659 62:-0.203325 63:-1 64:-1 
1.3467332947006718 1:-0.562788 2:-0.399522 3:0.0478358 4:-1 5:-0.222417 6:0.161545 7:-1 8:-0.339249 9:-0.303287 10:-0.782198 11:-0.390917 12:-0.821166 13:-0.805643 14:-0.639366 15:-0.369361 16:-0.118493 17:-0.332256 18:-0.30048 19:-0.314443 20:-0.518428 21:0.125141 22:-0.116855 23:-0.467475 24:-1 25:-0.74051 26:-0.841683 27:-0.388756 28:-1 29:-1 30:-1 31:-0.622713 32:0.123301 33:-0.561563 34:-0.506762 35:-0.197101 36:-1 37:-0.578775 38:0.171179 39:-1 40:-1 41:-0.0626089 42:-0.620308 43:-0.013923 44:-0.355141 45:0.0609121 46:0.301579 47:-0.835569 48:-1 49:-0.219223 50:-0.776038 51:-0.480749 52:-1 53:-1 54:-0.423424 55:-1 56:-1 57:0.0136123 58:-0.522472 59:-1 60:-1 61:-1 62:-0.32532 63:-1 64:-1 
2 1:-0.516044 2:-0.542824 3:-0.110177 4:-0.733368 5:-0.893725 6:-0.0561403 7:-0.803637 8:-0.458346 9:-0.634457 10:-0.652997 11:-0.0571541 12:-0.7434 13:-0.641486 14:0.00689224 15:-0.547513 16:-0.909687 17:-0.397747 18:0.0754339 19:-0.528221 20:-0.308994 21:-0.250406 22:-0.0886826 23:-0.563352 24:-0.811608 25:-0.574506 26:-0.837747 27:-0.331765 28:-0.94501 29:-0.501888 30:-0.561185 31:-0.768016 32:-1 33:-0.550613 34:-0.646099 35:-0.561121 36:-0.740807 37:-0.741 38:0.0203127 39:-0.769744 40:-1 41:-0.203572 42:-0.25233 43:0.0174787 44:-0.306002 45:-0.238849 46:-0.143594 47:-0.258545 48:-0.172618 49:-0.599861 50:-0.586875 51:-0.467781 52:-0.903087 53:-0.865648 54:0.004608 55:-0.739625 56:-0.765431 57:-0.169085 58:-0.706381 59:-0.646819 60:-0.887391 61:-0.763697 62:-0.515914 63:-1 64:-1 
2 1:-0.496593 2:-0.301372 3:-0.0541497 4:-0.525121 5:-0.454069 6:-0.0341809 7:-0.506752 8:-0.536081 9:-0.274599 10:-0.526726 11:0.179729 12:-0.673574 13:-0.126796 14:-0.202535 15:-0.645795 16:-0.566732 17:0.106374 18:0.211445 19:-0.374277 20:-0.391421 21:0.026914 22:-0.316052 23:-0.700901 24:-0.612913 25:-0.562813 26:-0.733268 27:-0.341987 28:-0.924675 29:-0.561301 30:-0.583813 31:-0.946987 32:-1 33:-0.538252 34:0.0388722 35:0.127351 36:-0.526528 37:-0.349416 38:-0.218824 39:-0.684598 40:-1 41:-0.221932 42:-0.279207 43:-0.187052 44:-0.615153 45:-0.180675 46:-0.686049 47:-0.838379 48:-0.659961 49:-0.780734 50:-0.591201 51:-0.598963 52:-0.867178 53:-0.90786 54:-0.67616 55:-0.940499 56:-0.919609 57:-0.715379 58:-0.664723 59:-0.43542 60:-0.691332 61:-0.837942 62:-0.763124 63:-0.919291 64:-1 
1.6134333579258533 1:-0.191168 2:0.322453 3:0.307701 4:-0.732617 5:-1 6:-0.43157 7:-1 8:-1 9:0.444313 10:0.56071 11:0.72576 12:-0.54055 13:-0.80025 14:-0.624232 15:-0.837948 16:-0.320548 17:-0.0392232 18:0.497806 19:-0.0940884 20:-0.381318 21:-0.855439 22:-0.743789 23:-0.452697 24:-0.527744 25:-0.600023 26:-0.59326 27:-0.476503 28:-1 29:-0.821607 30:-0.576904 31:-1 32:-1 33:-0.887337 34:-0.873255 35:-0.86246 36:-1 37:-1 38:-0.699048 39:-1 40:-1 41:-0.531802 42:-0.415588 43:-0.81125 44:-0.58577 45:-1 46:-0.783553 47:-0.746546 48:-0.585144 49:-1 50:-0.884912 51:-0.599769 52:-0.75693 53:-1 54:-0.555584 55:-1 56:-1 57:-1 58:-0.509222 59:-1 60:-0.717562 61:-0.407322 62:-0.479967 63:-1 64:-1 
1.9878336393055187 1:-0.765563 2:-0.724003 3:-0.03677 4:-0.302553 5:-0.861043 6:0.626206 7:-0.828802 8:-1 9:-0.893481 10:-0.898135 11:-0.53013 12:-0.712358 13:-0.791579 14:-0.599887 15:-1 16:-1 17:0.0741773 18:-0.562383 19:-0.396052 20:-0.0961914 21:-0.0949794 22:-0.317808 23:-0.714438 24:-0.260914 25:-0.443465 26:-0.745357 27:0.0925415 28:-0.712338 29:-0.813902 30:-0.116997 31:-0.797747 32:-1 33:-0.764892 34:-0.735505 35:-0.712979 36:-1 37:-0.774194 38:0.413046 39:-0.698934 40:-1 41:0.554923 42:-0.905581 43:-0.115639 44:0.0374002 45:-0.288898 46:0.586741 47:-0.559193 48:0.08212 49:-1 50:-0.639771 51:-0.721556 52:-1 53:-0.648472 54:-0.381632 55:-1 56:-1 57:-0.456632 58:-1 59:-0.0761188 60:-0.410602 61:-1 62:-0.638209 63:-1 64:-1 
2 1:-0.573367 2:-0.431991 3:-0.217479 4:0.0878956 5:-0.638712 6:0.318744 7:-0.888704 8:-1 9:-0.512476 10:-0.823097 11:-0.358536 12:-0.439125 13:-0.796799 14:-0.551299 15:-0.890098 16:-1 17:-0.0691669 18:-0.390525 19:-0.55629 20:-0.328665 21:-0.411827 22:-0.0916604 23:-0.907197 24:-1 25:0.446806 26:-0.77934 27:-0.218961 28:-0.532601 29:-0.516144 30:0.14774 31:-1 32:-0.608528 33:-0.847187 34:-0.656228 35:-0.906723 36:-0.265556 37:-1 38:0.122428 39:-0.412828 40:-1 41:-0.102906 42:-0.556258 43:0.043427 44:0.236069 45:-0.168075 46:0.123831 47:-0.484296 48:-0.577976 49:-0.727868 50:-0.765846 51:-0.638098 52:-0.835153 53:-1 54:-0.497664 55:-1 56:-1 57:-0.293509 58:-1 59:-1 60:-1 61:-1 62:-0.764847 63:-1 64:-1 
1.491220435634879 1:-0.867048 2:-0.673919 3:-0.203356 4:-0.802206 5:-0.802929 6:-0.787888 7:-0.757204 8:-1 9:-0.803142 10:-0.766104 11:-0.29101 12:-0.864039 13:-0.852237 14:-0.0107616 15:0.198628 16:-1 17:-0.289268 18:-0.202257 19:-0.553246 20:0.098383 21:-0.358436 22:-0.273258 23:-0.797547 24:-0.301408 25:-0.802719 26:-0.759308 27:-0.690217 28:-0.898029 29:-1 30:0.12672 31:-1 32:-1 33:-0.833317 34:-0.625021 35:-0.593084 36:-1 37:-0.679757 38:-0.109558 39:-1 40:-1 41:-0.897872 42:-0.246004 43:0.0261281 44:-0.509717 45:-0.39506 46:0.233017 47:1 48:-0.386318 49:-0.406422 50:-0.318966 51:-0.0130836 52:-0.280869 53:-0.501456 54:0.972608 55:-0.0342623 56:-0.565024 57:-1 58:-0.636951 59:-0.563305 60:-1 61:-1 62:-0.487082 63:-0.563305 64:-1 
2 1:-0.69471 2:-0.600659 3:0.132375 4:-0.848637 5:-0.472137 6:0.186594 7:-0.814199 8:-0.807715 9:-0.640432 10:-0.668524 11:-0.274345 12:-0.739867 13:-0.717287 14:0.242236 15:-0.633054 16:-1 17:0.204536 18:0.56039 19:-0.330358 20:-0.719792 21:-0.34526 22:-0.238645 23:-0.225299 24:-0.598939 25:-0.849029 26:-0.769711 27:-0.644308 28:-0.921966 29:-1 30:-0.425088 31:-0.890206 32:-0.673108 33:-0.681088 34:-0.354175 35:-0.377061 36:-0.877328 37:-0.877419 38:-0.233254 39:-0.18307 40:-1 41:-0.0598706 42:-0.607119 43:0.558978 44:-0.48402 45:0.157535 46:-0.543536 47:-0.378118 48:-0.882532 49:-0.545695 50:-0.739398 51:-0.0935447 52:-0.449601 53:-0.618486 54:-0.245056 55:-0.38403 56:-1 57:-0.410282 58:-1 59:-0.832845 60:-1 61:-1 62:-0.705534 63:-1 64:-1 
0.36397541770778202 1:-0.780666 2:-0.74895 3:-0.0612611 4:-0.129938 5:-0.458212 6:-0.11902 7:-0.599475 8:-0.723819 9:-0.730414 10:-0.90677 11:-0.705805 12:-0.700965 13:-0.675008 14:-0.424981 15:-1 16:-0.631507 17:-0.0508449 18:-0.561322 19:-0.692906 20:-0.496672 21:-0.176783 22:-0.239046 23:-0.220748 24:-0.615871 25:-0.240654 26:-0.801444 27:-0.318558 28:-0.719662 29:-0.854897 30:0.0326625 31:0.104058 32:-1 33:-0.541756 34:-0.690665 35:-0.440573 36:-0.47132 37:-0.471716 38:0.468946 39:-1 40:-1 41:-0.210698 42:-0.587805 43:0.118256 44:0.0784152 45:-0.112904 46:0.251741 47:-0.312638 48:0.0124098 49:-0.836807 50:-0.625503 51:-0.348761 52:-0.209051 53:-0.177584 54:0.205248 55:-0.823001 56:-1 57:-0.57633 58:-0.800403 59:-1 60:-1 61:-0.517921 62:-0.0127312 63:-0.759913 64:-1 
2 1:-0.426652 2:-0.0357731 3:-0.579364 4:-0.512647 5:-0.514428 6:-0.436022 7:-1 8:-0.381197 9:-0.826437 10:-0.704362 11:0.00837173 12:-0.83252 13:-0.271841 14:0.261522 15:-0.409261 16:-0.587182 17:-0.12434 18:0.638114 19:-0.63305 20:-0.548898 21:-0.736543 22:-0.329586 23:-0.750613 24:-0.139229 25:-1 26:-1 27:-0.2366 28:-0.87439 29:-0.674886 30:-0.691506 31:-1 32:-1 33:0.0267179 34:-0.537969 35:0.00276268 36:-1 37:0.183544 38:-0.451461 39:-0.474039 40:-1 41:-0.40506 42:-0.665822 43:0.243483 44:-0.697971 45:0.242206 46:-0.216941 47:-0.691979 48:-0.243851 49:-0.634355 50:-0.790256 51:-0.75683 52:-1 53:-0.385881 54:-0.189888 55:-1 56:-1 57:-0.0507369 58:-0.10547 59:-1 60:-1 61:0.0801331 62:-0.684041 63:-0.462068 64:-1 
2 1:-0.385693 2:-0.758948 3:0.472261 4:-0.0862208 5:-0.271671 6:0.330799 7:-0.326977 8:-1 9:-0.543178 10:-0.891687 11:-0.435962 12:-0.497519 13:-0.863454 14:0.155237 15:-0.556963 16:-0.690313 17:-0.624726 18:0.310497 19:-0.621581 20:-0.661686 21:-0.604783 22:0.0233542 23:-0.812916 24:-1 25:-0.0885894 26:-0.666356 27:-0.570582 28:-1 29:-1 30:-0.65294 31:-0.734936 32:-1 33:-0.53796 34:-1 35:-0.623979 36:-1 37:-1 38:0.0285027 39:-0.605435 40:-1 41:0.940752 42:-0.0133288 43:0.0538543 44:-0.546974 45:-0.254688 46:-0.19 47:-0.653472 48:-1 49:-0.451488 50:-0.685359 51:-1 52:-1 53:-1 54:0.215168 55:-0.702496 56:-1 57:-1 58:-1 59:-0.596455 60:-1 61:-1 62:-1 63:-1 64:-1 
2 1:-0.797787 2:-0.404892 3:-0.653834 4:-0.197909 5:-0.600449 6:-0.992488 7:-1 8:-1 9:-0.643498 10:0.201021 11:1 12:-0.310825 13:-0.101212 14:-0.764193 15:0.215288 16:-1 17:-0.279395 18:0.887257 19:0.434361 20:-0.443165 21:-0.566379 22:-0.840602 23:0.436737 24:-0.645859 25:-0.600023 26:-0.267874 27:-0.0577141 28:-0.276349 29:-1 30:-0.746157 31:0.163184 32:-1 33:-1 34:-0.429674 35:-0.58744 36:-1 37:-1 38:-0.0972082 39:-0.567163 40:0.128372 41:-1 42:-0.785083 43:-0.857494 44:-0.502917 45:-0.795566 46:-0.960942 47:-0.619783 48:-1 49:-0.398189 50:0.0356948 51:0.000634006 52:0.458316 53:-0.494614 54:-0.777792 55:0.305541 56:-1 57:-1 58:-1 59:-1 60:-1 61:-1 62:-0.479967 63:-1 64:-1 
2 1:-0.550733 2:-0.485808 3:-0.0706987 4:-0.331716 5:-0.556086 6:0.111539 7:-0.589834 8:-0.85861 9:-0.678117 10:-0.678979 11:-0.239279 12:-0.425787 13:-0.875189 14:-0.484412 15:-0.594974 16:-1 17:-0.0279573 18:-0.201325 19:-0.444395 20:-0.329894 21:-0.518234 22:-0.117959 23:-0.543963 24:-0.803244 25:-0.333449 26:-0.559452 27:-0.21489 28:-0.712903 29:-0.777067 30:-0.189231 31:-0.838449 32:-1 33:-0.812293 34:-0.577607 35:-0.541633 36:-0.639094 37:-0.909864 38:-0.122493 39:-0.759521 40:-1 41:0.296241 42:-0.762097 43:-0.0408302 44:-0.137182 45:0.0788118 46:0.0785494 47:-0.577626 48:-0.913624 49:-0.582095 50:-0.808253 51:-0.333026 52:-0.797459 53:-0.85968 54:-0.259392 55:-0.546741 56:-1 57:-1 58:-1 59:-0.877088 60:-1 61:-1 62:-0.783345 63:-1 64:-1 
0.035564109344940198 1:-0.690479 2:-0.783095 3:-0.167334 4:-0.21073 5:-0.213614 6:0.453075 7:-0.515542 8:-1 9:-0.905789 10:-0.855205 11:-0.80258 12:-0.638284 13:-0.803443 14:-0.679067 15:-0.681075 16:-1 17:-0.189594 18:-0.587307 19:-0.603796 20:-0.0258987 21:-0.146559 22:-0.218319 23:-0.865347 24:-1 25:-0.212776 26:-1 27:-0.0727306 28:-0.660891 29:-1 30:0.582132 31:-0.809221 32:-1 33:-0.778275 34:-0.625842 35:-0.458634 36:-0.786844 37:-1 38:0.332575 39:-0.716013 40:-1 41:0.589681 42:-0.793922 43:-0.0905695 44:0.222898 45:-0.195278 46:0.356099 47:-0.0854275 48:0.0205636 49:-0.407722 50:-1 51:-0.0809798 52:-0.760815 53:-1 54:0.166272 55:-0.785872 56:-1 57:0.0250872 58:-1 59:-1 60:-1 61:-1 62:-0.488205 63:-1 64:-1 
2 1:-0.960788 2:-0.769174 3:0.0741215 4:-0.533322 5:-0.767542 6:-0.346156 7:-0.57034 8:-0.11103 9:-0.838454 10:-0.561321 11:-0.091931 12:-0.759398 13:-0.47707 14:-0.247637 15:-0.292919 16:-0.406947 17:-0.34118 18:0.150311 19:-0.49488 20:-0.568034 21:-0.495379 22:0.0370556 23:-0.0446579 24:-0.381783 25:-0.650884 26:-0.645025 27:-0.360396 28:-0.879719 29:-0.68868 30:-0.335344 31:-1 32:-1 33:-0.705032 34:-0.557569 35:-0.399875 36:-0.810985 37:-0.433287 38:-0.34343 39:-1 40:-0.343516 41:0.0588437 42:-0.412215 43:-0.0630031 44:-0.132386 45:-0.643124 46:-0.201921 47:-0.336363 48:-0.456924 49:-0.824934 50:-0.698683 51:0.0479539 52:-0.787904 53:-0.411936 54:0.163648 55:-1 56:-1 57:-0.0910114 58:-0.571762 59:-0.227209 60:-0.753553 61:-0.482847 62:-0.394818 63:-1 64:0.030218 
2 1:-0.586256 2:-0.763233 3:-0.11463 4:-0.487122 5:-0.591185 6:-0.180627 7:-0.244533 8:-0.739513 9:-0.553226 10:-0.894184 11:-0.588074 12:-0.929499 13:-0.846758 14:-0.575522 15:-0.751356 16:-0.478571 17:-0.21011 18:-0.494312 19:-0.555888 20:0.234318 21:-0.223617 22:0.14936 23:-0.370061 24:-0.456446 25:-0.795403 26:-0.937587 27:-0.196617 28:-0.73559 29:-0.58935 30:0.1038 31:-0.404966 32:-1 33:-1 34:-0.51377 35:-0.683391 36:-0.667634 37:-0.667882 38:0.154539 39:-1 40:-1 41:-0.163462 42:-0.665962 43:0.571343 44:-0.17358 45:-0.581653 46:-0.111263 47:-0.027539 48:0.114018 49:-0.846081 50:-0.558489 51:-0.283401 52:-0.25399 53:-1 54:0.591488 55:-0.833059 56:-0.774448 57:0.598605 58:-0.435128 59:-0.320541 60:-1 61:-1 62:-0.334906 63:-1 64:-0.547112 
2 1:-0.851538 2:-0.781534 3:-0.237518 4:-0.447909 5:-0.779971 6:-0.565749 7:-0.728919 8:-1 9:-0.895764 10:-0.862408 11:0.00497565 12:-0.240999 13:-0.752535 14:-0.259245 15:-0.464632 16:-1 17:0.133739 18:0.187711 19:0.43422 20:0.124308 21:-0.283627 22:0.128231 23:-0.547924 24:-0.609955 25:-0.779736 26:-0.664037 27:-0.221674 28:-0.829225 29:-0.41065 30:0.0484546 31:-0.359491 32:-1 33:-0.813899 34:-0.267232 35:-0.318421 36:-1 37:-1 38:-0.502876 39:-0.761641 40:0.242769 41:-0.788679 42:-0.538161 43:0.597871 44:-0.247235 45:-0.437101 46:-0.688467 47:-0.511488 48:-0.657363 49:-0.834294 50:-0.71484 51:0.102017 52:-0.598488 53:-0.443377 54:-0.38816 55:-0.820275 56:-1 57:-1 58:-0.797329 59:-0.756216 60:-1 61:-1 62:-0.427245 63:-1 64:-1 
2 1:-0.336349 2:0.367224 3:0.0793055 4:-0.605105 5:-0.901666 6:-0.115537 7:-0.394109 8:-1 9:0.688187 10:-0.44404 11:0.157615 12:-0.864277 13:-0.778765 14:0.125028 15:-0.521333 16:-1 17:-0.290483 18:0.238803 19:-0.721257 20:-0.725885 21:-0.786499 22:-0.475098 23:-0.595803 24:-0.476948 25:-0.803064 26:-0.519425 27:-0.922701 28:-1 29:-0.736534 30:-0.687558 31:-0.713664 32:-1 33:-0.667218 34:-0.719244 35:-0.492202 36:-0.840086 37:-1 38:-0.777763 39:-1 40:-1 41:-0.100728 42:-0.282 43:-0.454126 44:-0.449375 45:-0.295434 46:-0.365993 47:-0.500867 48:-0.540522 49:-0.555575 50:-0.235148 51:-0.704438 52:-1 53:-1 54:-0.1248 55:-0.839357 56:-1 57:-1 58:-0.818847 59:-0.346169 60:-1 61:-1 62:-0.743953 63:-1 64:-0.564197 
2 1:-0.323129 2:-0.478267 3:0.158727 4:-0.208882 5:0.146466 6:-0.335252 7:-0.6469 8:-0.817395 9:-0.608074 10:-0.506948 11:0.0778202 12:-0.653964 13:-0.892532 14:-0.0295842 15:-0.738476 16:-0.756262 17:-0.0031426 18:-0.0330387 19:-0.472018 20:-0.667139 21:-0.300112 22:-0.226382 23:0.177774 24:-0.618931 25:-0.210933 26:-0.693662 27:-0.493057 28:-0.88877 29:-1 30:-0.362651 31:-0.791382 32:-0.689565 33:-0.333317 34:-0.727293 35:-0.260137 36:-0.766913 37:-0.534268 38:-0.109558 39:-0.379044 40:-1 41:-0.161594 42:-0.246004 43:-0.203971 44:-0.465159 45:0.0265846 46:-0.612634 47:-0.636354 48:-1 49:-0.244529 50:-0.566642 51:-0.210432 52:0.0460941 53:-0.818777 54:-0.521792 55:-0.882972 56:-1 57:-0.719879 58:-1 59:-0.682392 60:-1 61:-1 62:-0.906763 63:-0.523652 64:-1 
2 1:-0.600835 2:-0.60841 3:0.0069951 4:-0.5 5:-0.750913 6:0.173964 7:-0.616418 8:-0.523761 9:-0.770627 10:-0.743896 11:0.00874029 12:-0.699258 13:-0.813236 14:-0.573346 15:-0.31819 16:-0.576419 17:0.187163 18:0.0364034 19:-0.0587903 20:-0.190057 21:0.216498 22:0.0563614 23:-0.360248 24:-0.889637 25:-0.56362 26:-0.73376 27:-0.16785 28:-0.967786 29:-0.916622 30:-0.287858 31:-0.909384 32:-0.460167 33:-0.525988 34:-0.644457 35:-0.164127 36:-0.797417 37:-0.6964 38:-0.155839 39:-0.7301 40:-1 41:-0.111775 42:-0.713111 43:0.390983 44:-0.457714 45:-0.171608 46:-0.54472 47:-0.565471 48:-0.806012 49:-0.624821 50:-0.677156 51:-0.438617 52:-0.204536 53:-0.527365 54:-0.445888 55:-0.796494 56:-0.862586 57:-0.756553 58:-0.770511 59:-0.172001 60:-0.867992 61:-0.72299 62:-0.837864 63:-1 64:-1 
2 1:-0.621237 2:-0.442636 3:0.134701 4:-1 5:-0.438649 6:-0.316321 7:-0.654202 8:-1 9:-0.454741 10:-0.761476 11:0.310201 12:-1 13:-0.789551 14:-0.397594 15:0.36586 16:-1 17:-0.276905 18:0.262537 19:-0.416674 20:-0.478498 21:-0.390783 22:-0.02312 23:-0.134979 24:-1 25:-0.719025 26:-0.828574 27:-0.779366 28:-1 29:-1 30:-0.286725 31:-1 32:-1 33:-0.762605 34:-1 35:-0.420373 36:-1 37:-1 38:-0.365855 39:-1 40:-1 41:-0.261607 42:-0.268671 43:0.285432 44:-0.301671 45:-0.71278 46:-0.082347 47:-0.643909 48:-0.125846 49:-1 50:-1 51:-0.437695 52:-0.48782 53:-1 54:0.873152 55:-1 56:-0.380493 57:0.0975363 58:-0.482934 59:-1 60:-1 61:-1 62:-0.634689 63:-1 64:-1 
2 1:-0.098515 2:-0.469373 3:-0.074055 4:0.0727651 5:-0.287436 6:0.297572 7:-0.780527 8:-1 9:-0.416877 10:-0.791643 11:-0.287377 12:-0.631297 13:-0.599292 14:-0.248141 15:-1 16:-1 17:-0.357486 18:0.121841 19:-0.730747 20:-0.172524 21:-0.613338 22:0.0994061 23:-0.633988 24:-1 25:-0.465008 26:-0.782397 27:-0.439866 28:-1 29:-0.761424 30:0.131765 31:-0.481429 32:-1 33:0.356044 34:-0.830495 35:-0.632118 36:-0.710302 37:-0.710519 38:-0.396275 39:-1 40:-1 41:0.0246141 42:-0.47449 43:0.58167 44:-0.335171 45:-0.0885271 46:-0.393803 47:-0.547988 48:-1 49:-0.731681 50:-0.538255 51:-0.821556 52:-0.674927 53:-0.549345 54:-0.603712 55:-1 56:-1 57:-1 58:-1 59:-1 60:-1 61:-1 62:-1 63:-1 64:-1 
2 1:-0.371271 2:-0.0748122 3:0.0493977 4:-0.906503 5:-0.860238 6:0.342279 7:-0.82781 8:-0.524934 9:0.0861996 10:-0.30424 11:0.197894 12:-0.742845 13:-0.755468 14:0.349852 15:-0.546533 16:-0.841585 17:-0.0157723 18:0.215535 19:-0.639105 20:-0.437338 21:-0.69664 22:-0.461547 23:-0.664962 24:-0.752244 25:-0.720177 26:-0.71545 27:-0.523904 28:-0.903567 29:-1 30:-0.674398 31:-1 32:-0.79803 33:-0.921209 34:-0.778319 35:-0.855687 36:-0.772715 37:-1 38:-0.631577 39:-0.899021 40:-1 41:-0.039115 42:0.227847 43:-0.27083 44:-0.594288 45:-0.809285 46:-0.438003 47:-0.615804 48:-0.347072 49:-0.578975 50:-0.597465 51:-0.72 52:-1 53:-1 54:-0.637248 55:-1 56:-0.691516 57:-0.63573 58:-0.485054 59:-0.690297 60:-0.802477 61:-0.792627 62:-0.514866 63:-1 64:-1 
2 1:-0.56863 2:0.0344591 3:0.148725 4:-0.71483 5:0.136569 6:-0.38017 7:-0.649949 8:-0.63787 9:-0.391389 10:-0.374473 11:0.00260629 12:-0.0198484 13:-0.573882 14:-0.38788 15:-0.481502 16:-0.758415 17:0.464068 18:0.150311 19:-0.489999 20:-0.47203 21:-0.074872 22:-0.586315 23:-1 24:-0.748164 25:-0.288866 26:-0.479363 27:-0.218237 28:-0.705937 29:-0.80974 30:-0.368171 31:-1 32:-1 33:-0.0386899 34:-0.864823 35:0.173573 36:-0.768972 37:-0.769144 38:-0.0370178 39:-0.692202 40:-1 41:-0.248475 42:-0.600335 43:-0.484489 44:-0.469776 45:-0.127683 46:-0.511546 47:-0.639493 48:-0.778773 49:-0.786021 50:-0.631767 51:-0.715389 52:-0.48152 53:-1 54:-0.525952 55:-1 56:-1 57:-0.444482 58:-1 59:-1 60:-0.698774 61:-1 62:-0.630195 63:-1 64:-1 
2 1:-0.113617 2:-0.304343 3:0.0621583 4:-0.736313 5:0.313674 6:0.0419348 7:-1 8:-1 9:-0.292233 10:-0.424018 11:0.219876 12:0.087571 13:-1 14:-0.355837 15:-0.36075 16:-0.553229 17:-0.0523866 18:0.300014 19:-0.453972 20:-0.267727 21:-0.144561 22:-0.254153 23:-0.730102 24:-1 25:0.578077 26:-0.19766 27:-0.380388 28:-0.592146 29:-1 30:-0.666173 31:-1 32:-1 33:-0.555577 34:-0.500027 35:-0.728723 36:0.281838 37:-0.573072 38:-1 39:-1 40:-1 41:-0.471621 42:-0.337131 43:-0.0878728 44:-0.346301 45:-1 46:-0.807045 47:-1 48:-0.590879 49:-1 50:-1 51:-1 52:-0.52058 53:-1 54:-0.707776 55:-0.570804 56:-0.420117 57:-1 58:-0.516006 59:0.16435 60:-1 61:-1 62:-1 63:-1 64:-1 
2 1:-0.554596 2:-0.6723 3:-0.17398 4:-0.447909 5:-0.339912 6:0.129197 7:-0.186758 8:0.121737 9:-0.681831 10:-0.862408 11:-0.196367 12:-0.468699 13:-0.587558 14:-0.567502 15:-0.196948 16:-0.812916 17:0.133739 18:-0.10921 19:-0.542712 20:-0.59118 21:-0.403022 22:-0.415558 23:-0.321886 24:0.170135 25:-0.229077 26:-0.865615 27:-0.135194 28:-0.829225 29:-0.705325 30:-0.370949 31:-1 32:-1 33:-1 34:-0.267232 35:0.249621 36:-0.642182 37:-0.821225 38:-0.502876 39:-0.523281 40:-1 41:-0.0746826 42:-0.576311 43:-0.280598 44:-0.315701 45:-0.211941 46:-0.216328 47:-0.232302 48:-0.314726 49:-0.337176 50:-0.619786 51:-0.228588 52:-0.598488 53:-1 54:0.835584 55:-0.820275 56:-0.757176 57:0.290584 58:-0.189315 59:-0.512431 60:-1 61:-0.510497 62:-0.427245 63:-0.512431 64:-0.512431 
2 1:-0.740483 2:-0.541738 3:-0.289192 4:-0.691153 5:-1 6:0.0929715 7:-1 8:-0.607803 9:-0.511357 10:-0.67606 11:0.164591 12:-0.363146 13:-0.538591 14:-0.375768 15:-0.064156 16:-1 17:0.030507 18:0.0380599 19:-0.418663 20:-0.714125 21:-0.499126 22:-0.352606 23:0.580494 24:-1 25:-0.845977 26:-0.342236 27:-0.395314 28:-1 29:-0.587886 30:-0.706787 31:-0.552113 32:1 33:-0.739731 34:-0.560854 35:-0.523453 36:-0.749789 37:-1 38:-0.131008 39:-0.666646 40:-1 41:-0.575336 42:-0.432368 43:0.0616248 44:-0.330124 45:-0.0553773 46:-0.191294 47:-0.8048 48:-0.281305 49:-0.536508 50:-0.335372 51:-0.383573 52:0.403717 53:-1 54:-0.144384 55:-0.497298 56:-1 57:-1 58:-0.149777 59:-0.659059 60:-0.673763 61:-1 62:-0.599491 63:-1 64:-1 
2 1:-0.707852 2:-0.745237 3:-0.222032 4:-0.22742 5:-0.711327 6:-0.493723 7:-0.407295 8:-0.754767 9:-0.810325 10:-0.939378 11:-0.310017 12:-0.734469 13:-0.783554 14:-0.577437 15:-0.531763 16:-1 17:-0.157189 18:-0.220944 19:-0.345556 20:0.340853 21:-0.686712 22:-0.128197 23:0.482725 24:-0.658915 25:-0.229422 26:-0.647414 27:-0.167986 28:-0.751072 29:-0.742313 30:-0.327558 31:-0.299778 32:-0.166189 33:-0.91863 34:-0.816918 35:-0.403915 36:-0.687096 37:-0.843665 38:-0.456531 39:-0.374556 40:-1 41:-0.543596 42:-0.772113 43:0.162721 44:-0.281808 45:-0.704596 46:0.0741472 47:-0.206533 48:0.0488777 49:-0.130476 50:-0.667462 51:0.349337 52:-0.473226 53:-0.269723 54:0.605376 55:-0.0569159 56:-0.787656 57:-0.623805 58:-0.822769 59:-0.360321 60:-1 61:-0.143881 62:-0.373849 63:-0.786816 64:-1 
2 1:-0.839581 2:-0.842625 3:-0.176107 4:-0.522754 5:-0.524497 6:0.0487801 7:-1 8:-1 9:-0.554882 10:-0.3901 11:0.420561 12:-0.343853 13:-0.286898 14:0.48149 15:-1 16:-1 17:-0.264957 18:-0.144384 19:-0.820314 20:-1 21:-0.483952 22:0.273626 23:-0.511512 24:-1 25:-1 26:-1 27:-1 28:-1 29:-1 30:-0.395771 31:-1 32:-1 33:-0.59782 34:-0.0950452 35:-0.509016 36:-1 37:0.545489 38:0.0743931 39:-1 40:-1 41:-0.809808 42:0.969292 43:0.0470626 44:-1 45:-0.51341 46:-0.516238 47:-0.0950634 48:-0.259531 49:0.432509 50:-0.178275 51:-1 52:-1 53:-1 54:-1 55:-1 56:-1 57:-1 58:-0.12402 59:-1 60:-1 61:-1 62:-1 63:-1 64:-1 
2 1:-0.637465 2:-0.579692 3:-0.661477 4:0.0785401 5:-0.706954 6:-0.0200663 7:-0.87963 8:-0.750953 9:-0.501801 10:-0.674151 11:-0.119126 12:-0.393434 13:0.09871 14:-0.39709 15:-0.762276 16:-0.833855 17:-0.0436407 18:-0.252986 19:-0.40939 20:-0.546225 21:-0.0458349 22:-0.309929 23:-0.498212 24:-0.653611 25:-0.217672 26:-0.463021 27:-0.232077 28:0.263695 29:-0.214996 30:-0.75175 31:0.279678 32:-1 33:-0.752141 34:-0.0704626 35:-0.293883 36:0.112099 37:0.269939 38:-0.00679255 39:0.0582809 40:-1 41:-0.795836 42:-0.356925 43:-0.222289 44:-0.392362 45:-0.400183 46:-0.674427 47:-0.628178 48:-0.0872273 49:-0.705681 50:-0.409147 51:0.0764265 52:-0.643427 53:-0.505677 54:-0.674048 55:-0.680782 56:-0.784354 57:-0.617955 58:-0.460144 59:-0.350631 60:-0.585677 61:-1 62:-0.745675 63:-1 64:-1 
2 1:-0.248568 2:-0.232111 3:0.447138 4:-0.720547 5:-0.814379 6:0.311626 7:-0.885656 8:-0.290261 9:-0.0268982 10:-0.369834 11:0.17141 12:-0.935969 13:-0.652056 14:0.0511275 15:-0.661265 16:-0.684344 17:-0.0436407 18:-0.0815938 19:-0.544125 20:-0.224055 21:-0.496378 22:-0.329803 23:-0.80931 24:-0.506426 25:-0.721272 26:-0.659925 27:-0.635216 28:-0.951977 29:-0.875703 30:-0.705178 31:-0.729827 32:-1 33:-0.686004 34:-0.470189 35:-0.425066 36:-0.698138 37:-0.849182 38:-0.685463 39:-1 40:-1 41:0.231734 42:-0.116408 43:-0.435968 44:-0.653663 45:-0.335237 46:-0.516127 47:-0.587919 48:-0.710945 49:-0.720414 50:-0.438727 51:-0.907032 52:-0.830638 53:-0.765211 54:-0.587072 55:-0.848381 56:-0.795149 57:-0.274159 58:-0.316091 59:-0.794339 60:-1 61:-1 62:-0.758406 63:-0.588678 64:-0.588678 
2 1:-0.812268 2:-0.779001 3:0.156966 4:-0.441499 5:-0.666101 6:-0.206857 7:-0.451529 8:-1 9:-0.8067 10:-0.838968 11:-0.491378 12:-0.616093 13:-0.749644 14:-0.443421 15:-0.593784 16:-1 17:0.20424 18:-0.198996 19:-0.200972 20:-0.276226 21:-0.758461 22:0.144191 23:-0.428343 24:-1 25:-0.554346 26:-0.796068 27:-0.0376317 28:-0.76965 29:-0.850967 30:-0.64647 31:-0.83803 32:-1 33:-0.905879 34:-0.894114 35:-0.310519 36:-1 37:-1 38:0.00581754 39:-1 40:-1 41:-0.240758 42:-0.606062 43:0.233215 44:-0.44619 45:-0.202756 46:0.386599 47:-0.294023 48:-0.480041 49:-0.832387 50:-0.519215 51:-0.442594 52:-1 53:-1 54:0.361728 55:-1 56:-0.754382 57:-0.564855 58:-1 59:-1 60:-1 61:-1 62:-0.565416 63:-1 64:-1 
2 1:-0.47128 2:-0.851804 3:0.293046 4:0.572938 5:-0.552231 6:0.211461 7:-0.72417 8:-1 9:-0.935552 10:-0.729878 11:-1 12:-1 13:-0.664265 14:-0.635134 15:-1 16:-1 17:-0.192499 18:-0.798584 19:-0.788505 20:0.45594 21:-0.271075 22:-0.466081 23:-0.540003 24:-1 25:0.344738 26:-0.72652 27:-0.472025 28:-0.652465 29:-1 30:0.706896 31:-0.348268 32:-1 33:0.136169 34:-0.78697 35:-0.537653 36:-1 37:-0.27237 38:-0.241249 39:-0.514929 40:-1 41:0.370986 42:-0.951154 43:-0.185474 44:0.531871 45:0.145524 46:0.77617 47:-1 48:-1 49:-1 50:-1 51:-0.55147 52:-0.182906 53:-1 54:-0.750976 55:-1 56:-0.505842 57:-1 58:-1 59:-1 60:-1 61:-1 62:-0.708605 63:-1 64:-1 
2 1:-0.476094 2:-0.648344 3:-0.244762 4:-0.589859 5:-0.346126 6:0.130923 7:-0.899337 8:-0.583309 9:-0.760042 10:-0.685339 11:-0.391918 12:-0.548887 13:-0.509729 14:-0.382499 15:-0.602254 16:-0.722016 17:-0.24198 18:-0.338242 19:-0.567628 20:-0.164773 21:-0.822593 22:-0.106583 23:-0.748131 24:-0.565381 25:-0.672715 26:-0.70048 27:-0.100547 28:-0.661665 29:-0.562148 30:-0.273053 31:-0.881077 32:-0.645929 33:-0.723477 34:-0.611169 35:-0.493628 36:-0.335454 37:-1 38:0.0156326 39:-0.645827 40:-1 41:0.134491 42:-0.319014 43:-0.138671 44:-0.389965 45:-0.33088 46:0.142385 47:-0.533388 48:0.018234 49:-0.384495 50:-0.929406 51:-0.672507 52:-0.701701 53:-0.586463 54:-0.454528 55:-0.866523 56:-1 57:-0.680504 58:-0.849481 59:-0.275532 60:-0.826755 61:-0.636457 62:-0.148955 63:-1 64:0.086574 
2 1:-0.285858 2:-0.363092 3:0.444812 4:-0.420594 5:-0.422711 6:-0.291121 7:-1 8:-1 9:-0.510954 10:-0.364018 11:0.306331 12:-0.734469 13:-0.855731 14:-0.105621 15:-0.765916 16:0.309002 17:0.289001 18:-0.134368 19:-0.345556 20:-0.642443 21:-0.164606 22:-0.128197 23:-0.802335 24:0.0233578 25:-0.614711 26:-0.764931 27:-0.546203 28:-1 29:-0.226863 30:-0.755479 31:-1 32:-1 33:-0.837259 34:0.281741 35:-0.00650566 36:-1 37:-1 38:-0.565212 39:-1 40:-1 41:0.132873 42:-0.338348 43:-0.471944 44:-0.640922 45:-0.212294 46:-0.623559 47:-0.877945 48:0.198692 49:-1 50:-0.833756 51:-1 52:-1 53:-1 54:-0.571904 55:-1 56:-1 57:-1 58:0.0634937 59:0.705725 60:-0.592021 61:-1 62:-0.749569 63:-0.573633 64:-1 
0.87089611043696347 1:-0.822188 2:-0.651105 3:-0.746316 4:-0.559136 5:-0.472942 6:-0.879117 7:-0.0259809 8:-0.776034 9:-0.836373 10:-0.625505 11:0.0229564 12:1 13:-0.143751 14:-0.907136 15:0.068706 16:-1 17:-0.185265 18:0.264478 19:-0.269731 20:0.224161 21:0.430061 22:-0.838578 23:0.0829614 24:-1 25:-0.560279 26:0.28766 27:0.5192 28:1 29:1 30:-0.274479 31:-0.360663 32:-0.619249 33:-0.777107 34:0.00306597 35:0.54199 36:1 37:0.427489 38:0.0916182 39:0.141931 40:-0.503737 41:-0.991598 42:-0.882395 43:-0.907673 44:-0.0711141 45:-0.550505 46:-0.949209 47:-0.888566 48:-0.863178 49:-0.603068 50:-0.696396 51:0.935908 52:-0.679441 53:1 54:-0.804608 55:-0.856465 56:-0.806071 57:-1 58:-0.514522 59:-0.805304 60:-0.813701 61:-1 62:-1 63:-1 64:-1 
1.9480710108641657 1:-0.803921 2:-0.84611 3:-0.395796 4:-0.300012 5:-0.767542 6:0.449289 7:-0.57034 8:-0.407451 9:-0.748025 10:-0.763119 11:-0.464236 12:-0.679211 13:-0.825704 14:-0.695492 15:-0.434322 16:-1 17:-0.161488 18:-0.320254 19:-0.407042 20:-0.136068 21:-0.2431 22:-0.368515 23:-0.283523 24:-0.587923 25:-0.650884 26:-0.929012 27:0.370618 28:-0.759408 29:-0.532943 30:-0.187659 31:-0.661656 32:0.00735569 33:-0.705032 34:-0.336381 35:-0.399875 36:-0.432862 37:-1 38:0.0505379 39:-1 40:-1 41:0.0588437 42:-0.694395 43:-0.466551 44:0.229126 45:0.308446 46:0.0389043 47:0.10605 48:-0.638009 49:-0.474715 50:-0.698683 51:0.16438 52:-1 53:-1 54:0.939392 55:-0.2404 56:-1 57:-1 58:-0.785881 59:-0.227209 60:-1 61:-1 62:-0.546095 63:-0.742445 64:-1 
2 1:-0.781889 2:-0.60262 3:-0.0932292 4:-0.814622 5:-0.538192 6:0.0126153 7:-0.54482 8:-1 9:-0.642737 10:-0.604617 11:-0.130525 12:-0.681394 13:-0.792269 14:0.0451825 15:0.0112352 16:-1 17:-0.238601 18:0.287875 19:-0.28457 20:-0.48518 21:-0.599038 22:-0.0656964 23:-0.52558 24:-0.836291 25:-0.445251 26:-0.717946 27:-0.419196 28:-0.952215 29:-0.752639 30:-0.237192 31:-0.731167 32:-1 33:-0.84378 34:-0.56058 35:-0.427799 36:-0.549453 37:-0.84993 38:-0.687023 39:-0.599825 40:-0.478388 41:-0.125405 42:-0.282419 43:0.137153 44:-0.0234065 45:-0.527424 46:-0.409496 47:-0.414144 48:-0.712378 49:-0.304416 50:-0.600994 51:-0.352392 52:-0.662957 53:-0.532751 54:0.130048 55:-0.547399 56:-1 57:-1 58:-0.829871 59:-0.590718 60:-1 61:-1 62:-0.879802 63:-1 64:-1 
2 1:-0.596739 2:-0.298687 3:-0.152746 4:-0.372892 5:-0.56535 6:0.355969 7:-0.531422 8:-0.0305075 9:-0.327836 10:-0.628679 11:-0.0707648 12:-0.606407 13:-0.612969 14:-0.261079 15:-0.636415 16:-0.445597 17:0.0218203 18:-0.0590504 19:-0.532928 20:-0.697127 21:-0.292432 22:-0.402074 23:-0.55348 24:-0.518462 25:-0.45608 26:-0.684736 27:-0.594238 28:-0.873496 29:-0.599753 30:-0.44768 31:-0.960471 32:-0.528986 33:-0.609402 34:-0.302053 35:-0.410926 36:-0.734912 37:-0.47022 38:-0.202054 39:-0.646824 40:-0.38609 41:0.0862895 42:-0.425524 43:-0.160744 44:-0.425468 45:-0.166014 46:-0.379685 47:-0.689789 48:-0.153891 49:-0.590848 50:-0.741785 51:-0.591816 52:-0.702541 53:-0.793886 54:-0.425856 55:-0.911266 56:-0.820168 57:0.912251 58:-0.59964 59:-0.458243 60:-0.769536 61:-0.395545 62:-0.222122 63:-0.939819 64:-0.879638 
2 1:-0.771853 2:-0.626958 3:0.301886 4:-0.321264 5:-0.718231 6:-0.164514 7:-0.861128 8:-0.85641 9:-0.759013 10:-0.803896 11:-0.406239 12:-0.61121 13:-0.535183 14:-0.236593 15:-0.588604 16:-0.616634 17:-0.186955 18:-0.290205 19:-0.531515 20:-0.0575972 21:0.100912 22:-0.247729 23:-0.53687 24:-0.200836 25:-0.548701 26:-0.621374 27:-0.0253743 28:-0.766732 29:-0.849041 30:-0.212297 31:-0.671873 32:-0.755891 33:-0.76168 34:-0.517383 35:-0.418115 36:-0.45008 37:-0.633661 38:-0.172349 39:-0.389516 40:-1 41:0.10829 42:-0.44037 43:-0.236711 44:-0.193765 45:-0.36562 46:-0.0701027 47:-0.0705356 48:-0.56122 49:-0.405815 50:-0.61049 51:-0.26611 52:-0.897207 53:-0.857496 54:0.253696 55:-0.815857 56:-0.875667 57:-0.559231 58:-0.896226 59:-0.500446 60:-1 61:-1 62:-0.19314 63:-0.875175 64:-1 
2 1:-0.628128 2:-0.124439 3:0.273208 4:-1 5:-1 6:-0.0423286 7:-0.728423 8:-1 9:0.00490075 10:-0.0115982 11:0.309701 12:-1 13:-0.834721 14:-0.411902 15:-0.463582 16:-0.250196 17:-0.318441 18:0.487479 19:-0.458538 20:-0.385594 21:-0.521481 22:-0.0934672 23:-0.547037 24:-1 25:-0.558608 26:-0.730702 27:-0.306798 28:-1 29:-1 30:-0.859955 31:-1 32:-1 33:-0.813558 34:-0.580454 35:-0.544723 36:-0.641527 37:-0.641795 38:-0.750983 39:-1 40:-1 41:-0.0126649 42:-0.498394 43:-0.2787 44:-0.177231 45:-0.0975947 46:-0.296231 47:-1 48:-1 49:-1 50:-0.809545 51:-0.558329 52:-1 53:-1 54:-0.264384 55:-1 56:-1 57:-1 58:-1 59:-1 60:-1 61:-1 62:-0.426121 63:-1 64:-1 
2 1:-0.675842 2:-0.569751 3:0.0119465 4:-0.716332 5:-0.773929 6:-0.250716 7:-0.791089 8:-0.567762 9:-0.648063 10:-0.639689 11:0.0612874 12:-0.688024 13:-0.872859 14:0.241309 15:-0.449862 16:-0.80773 17:-0.00981322 18:0.423783 19:-0.3486 20:-0.422371 21:-0.447921 22:0.0510247 23:-0.535451 24:-0.599245 25:-0.886815 26:-0.82738 27:-0.51124 28:-0.883024 29:-0.848578 30:-0.569081 31:-0.753193 32:-1 33:-0.90437 34:-0.408377 35:-0.474735 36:-0.908113 37:-1 38:-0.425331 39:-1 40:-1 41:-0.223737 42:-0.320111 43:0.610116 44:-0.718729 45:-0.363735 46:-0.234414 47:-0.498056 48:-0.912011 49:-0.659488 50:-0.511658 51:-0.660288 52:-0.896892 53:-0.571033 54:-0.245568 55:-0.907694 56:-0.875286 57:-0.779053 58:-0.791711 59:-0.499044 60:-1 61:-1 62:-0.779301 63:-0.874793 64:-1 
2 1:-0.617238 2:-0.517211 3:-0.251142 4:-0.511954 5:-0.837912 6:-0.0936378 7:-0.400914 8:-1 9:-0.479334 10:-0.563208 11:0.603212 12:-0.776349 13:-0.756935 14:0.291933 15:-1 16:-1 17:0.00216425 18:0.531065 19:-0.326303 20:-0.548256 21:-0.648183 22:-0.116219 23:-0.666972 24:-0.712668 25:-1 26:-0.70301 27:-0.23556 28:-0.832262 29:-1 30:-0.691068 31:-1 32:-1 33:-0.862906 34:-1 35:-0.163176 36:-0.472817 37:-0.736606 38:-0.267575 39:-0.648819 40:-1 41:-0.00930421 42:0.065826 43:-0.148259 44:-0.798361 45:0.161009 46:-0.215732 47:-1 48:-0.747592 49:-1 50:-0.579866 51:-0.675274 52:-1 53:-1 54:-0.819712 55:-1 56:-1 57:-1 58:-0.701399 59:-0.640826 60:-1 61:-1 62:-1 63:-1 64:-1 
2 1:-0.36238 2:0.0425335 3:0.0915344 4:-0.156907 5:0.0499727 6:0.0131605 7:-0.741254 8:-1 9:-0.0479782 10:-0.667614 11:0.434856 12:-0.710254 13:-0.84253 14:-0.522077 15:-1 16:-0.285812 17:0.190216 18:-0.149845 19:-0.444547 20:-0.219618 21:-0.316286 22:-0.697716 23:0.0786464 24:-0.627703 25:-0.369334 26:-0.743494 27:-0.834909 28:-0.456711 29:-0.437543 30:-0.066111 31:-1 32:-1 33:-0.289517 34:-0.800164 35:-0.566349 36:-1 37:-1 38:0.423381 39:-1 40:-1 41:0.152228 42:-0.392661 43:-0.544616 44:-0.608139 45:-0.57023 46:-0.55091 47:-0.600365 48:-0.672954 49:-0.683668 50:-0.274223 51:-0.579308 52:-0.616758 53:-1 54:-0.7664 55:-1 56:-1 57:-1 58:-0.613102 59:-0.534617 60:-0.554688 61:-1 62:-0.726653 63:-1 64:-1 
2 1:-0.445385 2:-0.229197 3:-0.367018 4:-0.0374798 5:-0.725999 6:-0.481637 7:-1 8:-0.650777 9:-0.683443 10:-0.265827 11:-0.162222 12:0.323211 13:-0.178222 14:-0.368332 15:-0.33331 16:-0.767025 17:-0.0823599 18:0.0476104 19:-0.482335 20:0.654524 21:-0.107906 22:-0.809084 23:0.125935 24:-1 25:-0.314268 26:-0.414278 27:0.507667 28:-0.432893 29:-0.633043 30:-0.477765 31:0.595243 32:-0.406308 33:-0.420625 34:-0.0874897 35:-0.292695 36:-1 37:-0.554745 38:-0.226169 39:-0.703173 40:-1 41:-0.50918 42:-0.626733 43:-0.369989 44:-0.659139 45:-0.43922 46:-0.754832 47:-0.826189 48:-1 49:-0.587295 50:-0.408153 51:-0.176599 52:0.25 53:-0.653421 54:-0.542848 55:-0.328571 56:-1 57:-1 58:-1 59:-0.696417 60:-1 61:-1 62:-0.821688 63:-0.696417 64:-1 
2 1:-1 2:-0.480628 3:-0.395796 4:-0.474994 5:-0.215397 6:-0.652103 7:-1 8:-1 9:-0.702822 10:-0.426792 11:0.812189 12:-0.639117 13:-0.803917 14:-0.176397 15:-1 16:-1 17:-0.0566854 18:1 19:0.136507 20:0.21486 21:-0.432309 22:-0.486792 23:0.0747451 24:-0.536414 25:-0.214561 26:-0.520796 27:-0.17762 28:-0.864684 29:-0.649765 30:-0.667672 31:-1 32:-1 33:-0.778811 34:-0.502272 35:0.0802365 36:-0.574717 37:-1 38:-0.409081 39:0.699931 40:-1 41:-0.899832 42:-0.795159 43:-0.0932662 44:-0.511972 45:0.338181 46:-0.730871 47:-0.336363 48:-1 49:-0.606101 50:-0.774049 51:0.0479539 52:-1 53:-0.338428 54:0.163648 55:-1 56:-1 57:-1 58:-1 59:-1 60:-1 61:-1 62:-0.659627 63:-1 64:-1 
2 1:-0.575366 2:-0.642935 3:-0.169228 4:0.263283 5:0.0788573 6:-0.161636 7:-1 8:-0.0833089 9:-0.410388 10:-0.650655 11:0.542951 12:-0.503791 13:-0.730359 14:-0.554261 15:-0.34374 16:-0.694227 17:0.204417 18:0.132349 19:-0.184676 20:-0.498864 21:-0.0242912 22:-0.410757 23:-0.26112 24:-0.681253 25:-0.639998 26:-0.231256 27:-0.434619 28:-0.813922 29:-0.0367573 30:-0.428817 31:-1 32:-1 33:-0.391668 34:-0.828908 35:0.113983 36:-0.707589 37:-0.415615 38:0.625012 39:-1 40:-1 41:-0.54621 42:-0.0922641 43:-0.274865 44:-0.440786 45:-0.447994 46:-0.706681 47:-0.771877 48:-1 49:-0.729168 50:-1 51:-0.459654 52:-0.671882 53:-1 54:-0.4 55:-1 56:-0.603124 57:0.406232 58:-0.337503 59:-0.601556 60:-1 61:-1 62:-1 63:-1 64:-1 
2 1:-0.679317 2:-0.517629 3:0.0613276 4:-0.809194 5:-0.93665 6:-0.535673 7:-0.609613 8:-0.676885 9:-0.789312 10:-0.628801 11:-0.0586547 12:-0.737684 13:-0.667414 14:-0.36283 15:-0.229078 16:-1 17:-0.0857693 18:-0.0308387 19:-0.329543 20:-0.529012 21:0.169102 22:-0.123329 23:-0.153717 24:-0.550694 25:-0.555959 26:-0.845197 27:-0.601475 28:-0.901632 29:-1 30:-0.476632 31:-0.446589 32:-0.725471 33:-0.62483 34:-0.638215 35:-0.214806 36:-0.690839 37:-0.691071 38:-0.355715 39:-0.725363 40:-1 41:-0.570202 42:-0.724046 43:0.222329 44:-0.408754 45:-0.221833 46:0.0836157 47:-0.437211 48:-0.30926 49:-0.522728 50:-0.397713 51:-0.365245 52:-0.537484 53:-0.839738 54:0.198208 55:-0.68943 56:-0.720218 57:-0.504331 58:-0.766483 59:-0.719113 60:-1 61:-0.718126 62:-0.257695 63:-1 64:-1 
2 1:-0.728351 2:-0.631014 3:-0.248816 4:-0.502714 5:-0.566443 6:0.362148 7:-0.771098 8:-1 9:-0.627923 10:-0.876859 11:-0.479005 12:-0.444484 13:-0.535614 14:-0.294633 15:-0.547863 16:-0.894716 17:-0.393655 18:-0.331358 19:-0.672349 20:-0.194441 21:-0.0589484 22:-0.166742 23:-0.618206 24:-0.780396 25:-0.504003 26:-0.621725 27:-0.415758 28:-0.775664 29:-0.585266 30:-0.0949535 31:-0.729576 32:-1 33:-0.528519 34:-0.351711 35:-0.0407272 36:-0.697857 37:-0.698083 38:0.259449 39:-0.597457 40:-1 41:0.0826799 42:-0.372828 43:-0.0265077 44:-0.190974 45:0.330998 46:0.203982 47:-0.528534 48:-0.710676 49:-0.533562 50:-0.732438 51:-0.503689 52:-0.887022 53:-0.373217 54:-0.311104 55:-0.69648 56:-1 57:-0.515581 58:-1 59:-0.725488 60:-1 61:-1 62:-0.838763 63:-1 64:-1 
-2 1:-0.578006 2:-0.715377 3:-0.187273 4:-0.372257 5:-0.530942 6:0.196408 7:-0.711055 8:-0.202845 9:-0.775237 10:-0.715494 11:-0.208214 12:-0.352785 13:-0.472454 14:-0.280446 15:-0.809807 16:-0.734149 17:-0.194367 18:0.0549869 19:-0.276253 20:-0.273714 21:-0.236418 22:-0.156186 23:-0.839397 24:-0.722868 25:-0.452163 26:-0.570276 27:-0.262563 28:-0.878647 29:-0.79063 30:-0.0563141 31:-0.886186 32:-0.66114 33:-0.537133 34:-0.330523 35:0.130143 36:-0.618602 37:-0.364843 38:0.589717 39:-0.83058 40:-1 41:-0.013474 42:-0.471816 43:0.0291045 44:-0.124691 45:1 46:-0.442908 47:-0.950397 48:-0.634783 49:-0.764527 50:-0.864927 51:-0.765072 52:-1 53:-0.802183 54:-0.739136 55:-1 56:-1 57:0.22286 58:-0.711999 59:-1 60:-0.834198 61:-1 62:-0.592975 63:-0.826724 64:-1 
-2 1:-0.693856 2:-0.658722 3:0.286367 4:-0.544641 5:-0.917489 6:-0.638291 7:-0.491865 8:-1 9:-0.708662 10:-0.666193 11:0.690378 12:-0.630066 13:-0.845377 14:-0.273916 15:-0.197088 16:-1 17:0.0413578 18:0.725493 19:0.566356 20:0.111266 21:-0.239041 22:-0.335809 23:0.525403 24:-1 25:-0.79356 26:-0.571752 27:-0.351531 28:-0.829254 29:-0.889497 30:-0.44969 31:-0.159499 32:-1 33:-0.825579 34:-0.764522 35:-0.276 36:-0.798727 37:-0.865919 38:-0.720433 39:-0.731846 40:-1 41:-0.521129 42:-0.624179 43:-0.128084 44:-0.615153 45:-0.704537 46:-0.865568 47:-0.529045 48:-1 49:-0.502968 50:-0.0734278 51:0.363458 52:-0.397837 53:-0.165211 54:-0.403584 55:-0.258824 56:-1 57:-1 58:-1 59:-1 60:-1 61:-1 62:-1 63:-1 64:-1 
-1.6738559509883804 1:-0.903426 2:0.136913 3:0.322622 4:-0.13808 5:-1 6:0.153398 7:-1 8:-1 9:-0.330365 10:-0.31434 11:-0.0546268 12:-0.210035 13:-1 14:0.0191048 15:-0.651745 16:-1 17:0.0324933 18:0.287668 19:-0.729573 20:-1 21:0.242663 22:-0.16522 23:-0.705926 24:-1 25:-0.140314 26:-0.650331 27:-0.0999141 28:-0.851882 29:-1 30:-0.636271 31:-0.583351 32:-1 33:-1 34:-0.727621 35:-0.408847 36:-1 37:-1 38:-0.353245 39:-1 40:-1 41:0.998071 42:-0.644452 43:0.0183177 44:-0.465839 45:-0.707069 46:-0.359045 47:-0.818414 48:-1 49:-0.568835 50:-1 51:-1 52:0.0447291 53:-1 54:-0.6816 55:-1 56:-1 57:-1 58:-1 59:-1 60:-1 61:-1 62:-1 63:-1 64:-1 
-2 1:-0.612734 2:-0.430125 3:0.740268 4:-0.279915 5:-0.856498 6:-0.145341 7:-0.646404 8:-1 9:-0.328418 10:-0.727725 11:0.013637 12:-0.505022 13:-0.354459 14:-0.681466 15:-0.650835 16:-1 17:0.478654 18:0.290878 19:-0.0782711 20:-0.333476 21:0.557262 22:-0.538001 23:-0.410374 24:-1 25:-0.425436 26:-0.737098 27:-0.210457 28:-0.777272 29:0.345149 30:-0.81766 31:-0.582262 32:-1 33:-0.635926 34:0.228798 35:0.777916 36:-0.299991 37:0.165872 38:0.458871 39:-0.689086 40:-1 41:-0.548139 42:-0.991041 43:-0.476619 44:-0.553738 45:0.762004 46:-0.654527 47:-0.635916 48:-1 49:-0.135503 50:-0.752026 51:-0.281326 52:-0.47627 53:-1 54:-0.680768 55:-1 56:-1 57:-1 58:-1 59:-1 60:-1 61:-1 62:-1 63:-1 64:-1 
-2 1:-0.381966 2:0.212611 3:0.00991942 4:-0.707496 5:-0.666906 6:-0.172722 7:-0.538369 8:-0.787768 9:0.331416 10:-0.0845172 11:0.631065 12:-0.827637 13:-0.656629 14:-0.104935 15:-0.442862 16:-1 17:-0.013193 18:0.460795 19:-0.559497 20:-0.303755 21:0.265143 22:-0.714596 23:-0.401212 24:-0.926153 25:-0.791602 26:-0.745708 27:-0.279976 28:-0.806121 29:-0.832704 30:-0.867741 31:-0.939366 32:-1 33:-0.718269 34:-0.484971 35:-0.441107 36:-0.661458 37:-0.661711 38:0.0347428 39:-0.909743 40:-0.764706 41:-0.400983 42:-0.155436 43:-0.608757 44:-0.741026 45:-0.65914 46:-0.691047 47:-0.630258 48:-0.935128 49:-0.184729 50:-0.604325 51:-0.45781 52:-1 53:-0.578748 54:-0.629504 55:-1 56:-0.816231 57:-1 58:-0.846619 59:-0.723193 60:-1 61:-1 62:-0.891635 63:-1 64:-1 
-2 1:-0.544249 2:-0.486646 3:0.704877 4:-0.447621 5:-0.39958 6:-0.333646 7:-0.383547 8:-1 9:-0.428626 10:-0.665438 11:0.362669 12:-0.551268 13:-0.662367 14:-0.377925 15:-0.634805 16:-1 17:0.340557 18:0.552936 19:-0.0925121 20:-0.349245 21:0.140315 22:-0.316202 23:-0.331816 24:-1 25:-0.39894 26:-0.633287 27:-0.410059 28:-0.896451 29:-0.865994 30:-0.4914 31:-0.417361 32:-1 33:-0.619136 34:-0.57153 35:-0.380031 36:-0.267708 37:-0.512202 38:-0.265234 39:-0.566415 40:-1 41:-0.106516 42:-0.627971 43:-0.144584 44:-0.595433 45:-0.436806 46:-0.634952 47:-0.841299 48:-1 49:-0.698574 50:-0.567686 51:-0.0477233 52:-0.543469 53:-0.873362 54:-0.610432 55:-0.509611 56:-1 57:-1 58:-1 59:-1 60:-1 61:-1 62:-1 63:-1 64:-1 
-2 1:-0.721363 2:-0.362178 3:0.113002 4:-0.44739 5:-0.174084 6:-0.333283 7:-0.830433 8:-0.649164 9:-0.360194 10:-0.633896 11:-0.0947216 12:-0.715097 13:-0.483929 14:-0.171581 15:-0.497602 16:-1 17:0.134835 18:0.300299 19:-0.583881 20:-0.616357 21:-0.40246 22:-0.166625 23:-0.575765 24:-0.511934 25:-0.724382 26:-0.831843 27:-0.0261432 28:-0.857538 29:-0.815674 30:-0.475279 31:-0.799673 32:-1 33:-0.18503 34:-0.738024 35:0.279209 36:-0.55226 37:-0.328939 38:-0.066983 39:-1 40:-0.222619 41:-0.505259 42:-0.38464 43:-0.0789237 44:-0.315021 45:0.26776 46:-0.345873 47:-0.738042 48:-0.571256 49:-0.585301 50:-0.643202 51:-0.724207 52:-1 53:-0.303493 54:-0.540672 55:-1 56:-0.696215 57:-1 58:-1 59:-0.389902 60:-1 61:-1 62:-0.462518 63:-0.389902 64:-1 
-2 1:-0.679433 2:-0.336107 3:-0.207344 4:-0.36423 5:-0.683248 6:-0.0357256 7:-0.609754 8:-0.730859 9:-0.534854 10:-0.808169 11:-0.715993 12:-0.344448 13:-0.762501 14:-0.55541 15:0.0275454 16:-1 17:-0.129618 18:-0.38263 19:-0.501326 20:-0.117252 21:-0.541714 22:-0.357039 23:-0.457721 24:-0.812831 25:-0.365878 26:-0.677602 27:-0.253064 28:-0.672234 29:-1 30:0.274406 31:-0.538964 32:-0.542451 33:-0.821394 34:-0.497728 35:-0.454951 36:-0.656592 37:-1 38:-0.28441 39:-1 40:-1 41:0.10328 42:-0.826785 43:0.0458441 44:-0.211982 45:-0.351783 46:0.0613154 47:-0.19635 48:-0.342413 49:-0.363955 50:-0.726324 51:-0.471239 52:-0.22942 53:-0.465793 54:0.644032 55:-0.655027 56:-0.766955 57:-0.58713 58:-1 59:-1 60:-0.776124 61:-0.0604199 62:-0.725155 63:-0.532067 64:-1 
-2 1:-0.681122 2:-0.511212 3:0.0576722 4:-0.110649 5:-0.881872 6:-0.425391 7:-0.927197 8:-0.548255 9:-0.489359 10:-0.633352 11:0.249019 12:-0.551665 13:-0.77855 14:-0.315028 15:-0.784397 16:-0.598141 17:-0.208598 18:-0.096502 19:-0.464267 20:-0.0121609 21:-0.679468 22:-0.0105563 23:-0.514467 24:-0.476438 25:-0.112954 26:-0.49486 27:0.114523 28:-0.755448 29:-0.446174 30:-0.437042 31:-1 32:-0.232016 33:-0.800127 34:-0.550287 35:-0.451029 36:-0.903902 37:-0.903974 38:-0.466086 39:-1 40:-1 41:-0.589339 42:-0.212622 43:-0.268712 44:0.0656025 45:-0.395472 46:-0.135054 47:-0.550324 48:-0.264011 49:-0.733068 50:-0.84688 51:-0.881671 52:-0.784439 53:-0.701164 54:-0.145792 55:-1 56:-1 57:0.154911 58:-0.673521 59:-0.345531 60:-1 61:-1 62:-0.231109 63:-1 64:-1 
-1.1228930095551202 1:-0.566223 2:-0.255287 3:-0.257423 4:-0.354759 5:-1 6:-0.356757 7:-0.603941 8:-0.180551 9:-0.35959 10:-0.598147 11:-0.51415 12:-0.112937 13:-0.758963 14:-0.395941 15:-0.217878 16:-0.453327 17:-0.337504 18:-0.132427 19:-0.635605 20:-0.402753 21:-0.651118 22:-0.219155 23:-0.66975 24:-0.430131 25:-0.0346178 26:-0.607352 27:-0.747297 28:-0.334703 29:-1 30:0.429548 31:-1 32:-1 33:-1 34:-0.694114 35:0.32763 36:-0.477215 37:-1 38:0.0894082 39:-1 40:-1 41:-0.281087 42:-0.559052 43:-0.0460838 44:-0.400165 45:0.315748 46:-0.413242 47:-0.388265 48:0.00112002 49:-1 50:-0.722247 51:-1 52:-0.413377 53:0.626346 54:-0.284928 55:-1 56:-1 57:0.257059 58:-0.40778 59:-0.287645 60:-1 61:-1 62:-0.163259 63:-1 64:-1 
-2 1:-0.620052 2:-0.728917 3:0.53736 4:-0.588993 5:-0.795219 6:-0.609971 7:-0.495481 8:-0.739073 9:-0.711504 10:-0.597703 11:0.256022 12:-0.788099 13:-0.385867 14:-0.466859 15:-0.626334 16:-0.82593 17:0.213312 18:0.381621 19:0.586153 20:-0.14398 21:0.222243 22:-0.205353 23:-0.894843 24:-0.818543 25:-0.795 26:-0.874928 27:-0.597585 28:-1 29:-1 30:-0.154393 31:-0.851011 32:-1 33:-0.567014 34:-0.31804 35:0.374328 36:-0.833536 37:-0.500888 38:-0.0747181 39:-1 40:-1 41:-0.493621 42:-0.416246 43:-0.100697 44:-0.617909 45:0.25722 46:-0.59437 47:-0.805165 48:-1 49:-1 50:-0.734626 51:-0.692334 52:-1 53:-0.741048 54:-0.430592 55:-0.832777 56:-1 57:-1 58:-0.811427 59:-0.773174 60:-1 61:-1 62:-0.866772 63:-1 64:-1 
-2 1:-0.434378 2:-0.311941 3:-0.457772 4:-0.461538 5:-0.664662 6:-0.0378459 7:-0.7521 8:-0.145204 9:-0.509813 10:-0.695849 11:-0.304673 12:-0.352269 13:-0.396609 14:-0.174039 15:-0.510483 16:-0.657828 17:-0.274355 18:0.0859679 19:-0.569216 20:0.18375 21:-0.56332 22:-0.4088 23:-0.931077 24:-0.643309 25:-0.597201 26:-0.754248 27:-0.103804 28:-0.8612 29:-0.550898 30:0.107748 31:-0.902349 32:-0.709263 33:-0.489488 34:-0.68092 35:-0.307548 36:-0.781885 37:-0.782048 38:-0.0151126 39:-0.564047 40:-0.242444 41:-0.127303 42:-0.362611 43:0.0534148 44:-0.290863 45:-0.10784 46:-0.285281 47:-0.489515 48:-0.686663 49:-0.494908 50:-0.710266 51:-0.865648 52:-0.877572 53:-0.490975 54:-0.179456 55:-0.890398 56:-1 57:-0.475532 58:-0.629319 59:-0.554125 60:-0.857744 61:-1 62:-0.388976 63:-0.851332 64:-1 
-2 1:-0.371795 2:-0.445341 3:-0.139653 4:-0.252426 5:-1 6:-0.0265481 7:-1 8:-1 9:-0.602748 10:-0.924417 11:-0.676451 12:-0.486126 13:-0.720782 14:-0.140525 15:0.35921 16:-0.366732 17:-0.0405574 18:-0.246153 19:-0.613004 20:-0.48101 21:-0.595854 22:-0.435115 23:-1 24:-0.339861 25:-0.440758 26:-0.886279 27:-0.560858 28:-0.518251 29:-1 30:0.301347 31:-0.72899 32:-0.193118 33:-0.842515 34:-0.645661 35:-1 36:-0.697202 37:-0.394857 38:-0.36891 39:-0.596584 40:-1 41:-0.317121 42:-0.112437 43:0.0839176 44:-0.0734047 45:-0.428327 46:0.133266 47:-0.645625 48:-0.420098 49:-0.719548 50:-0.517325 51:-0.813487 52:-1 53:-0.528967 54:-0.17152 55:-1 56:-0.589027 57:-0.271909 58:-0.313971 59:-0.587403 60:-1 61:-1 62:-0.0305549 63:-1 64:-0.174806 
-2 1:-0.329574 2:-0.2825 3:0.0955221 4:-0.727997 5:-1 6:0.413851 7:0.00159501 8:-0.769727 9:-0.196321 10:-0.701132 11:-0.110544 12:-0.813028 13:-0.661375 14:-0.32984 15:-0.560463 16:-1 17:0.0239253 18:-0.22801 19:-0.539223 20:-0.496512 21:-0.509866 22:-0.144191 23:0.0207182 24:-0.679723 25:-0.547895 26:-0.889652 27:-0.573974 28:-1 29:-1 30:-0.426112 31:-1 32:-1 33:-0.54161 34:-0.914043 35:-1 36:-0.853093 37:-1 38:-0.28571 39:-0.608552 40:-1 41:0.0436582 42:-0.149031 43:0.325663 44:-0.494327 45:-0.537846 46:-0.303912 47:-0.598905 48:-0.859325 49:-0.455822 50:-0.687845 51:-0.276138 52:-0.835153 53:-0.77147 54:0.607552 55:-0.704846 56:-1 57:-0.646754 58:-0.833581 59:-1 60:-1 61:-1 62:-0.882423 63:-0.799821 64:-1 
-2 1:-0.818014 2:-0.583425 3:0.0384647 4:-0.458593 5:-0.640381 6:0.122321 7:-1 8:-0.541654 9:-0.340457 10:-0.720022 11:0.213874 12:-0.627843 13:-0.460719 14:-0.554261 15:-0.781247 16:-0.694227 17:-0.444115 18:0.455877 19:-0.25262 20:-0.665909 21:-0.609716 22:0.00747804 23:-0.44584 24:-0.681253 25:-0.459997 26:-0.780359 27:-0.434619 28:-0.813922 29:-0.759189 30:-0.543053 31:-0.738286 32:-1 33:-0.0875024 34:-0.828908 35:-0.814336 36:-0.415177 37:-0.707807 38:0.218759 39:-0.610422 40:-1 41:-0.54621 42:-0.34168 43:0.0372545 44:-0.552629 45:-0.0799894 46:-0.25433 47:-0.429692 48:-0.719995 49:-0.458335 50:-0.689287 51:-0.279539 52:-1 53:-0.0902475 54:-0.8 55:-1 56:-0.603124 57:-0.296884 58:-0.337503 59:-1 60:-0.61874 61:-1 62:-0.76597 63:-1 64:-1 
-2 1:-0.732253 2:-0.343325 3:-0.770807 4:-0.601698 5:-1 6:-0.78504 7:-0.511076 8:-1 9:-0.0293821 10:0.192519 11:0.713176 12:-0.726212 13:-0.702446 14:0.900728 15:-0.517203 16:-1 17:-1 18:0.784996 19:-0.700113 20:-0.262702 21:-1 22:-0.324233 23:-1 24:-1 25:-0.60273 26:-0.515278 27:-0.688046 28:-0.384006 29:-1 30:-1 31:-1 32:-1 33:-0.664347 34:-0.622393 35:-0.180525 36:-1 37:-1 38:-0.551692 39:-1 40:-1 41:-0.894946 42:1 43:-0.86035 44:-1 45:0.624282 46:-0.668143 47:-0.244822 48:-1 49:-1 50:-0.657122 51:-0.205014 52:-1 53:-1 54:-0.117248 55:-0.351694 56:-1 57:-1 58:-1 59:-1 60:-1 61:-1 62:-1 63:-1 64:-1 
-0.76814986880973735 1:0.0179753 2:-0.414585 3:0.622497 4:-0.0601178 5:-0.791881 6:0.0569278 7:-0.615426 8:-1 9:-0.421778 10:-0.67091 11:0.135317 12:-0.353936 13:-0.843954 14:-0.382298 15:-0.620244 16:-1 17:0.501127 18:0.497703 19:-0.331619 20:-0.710009 21:-0.774135 22:-0.2489 23:-0.465524 24:-1 25:-0.375036 26:-0.809351 27:-0.427473 28:-1 29:-1 30:-0.272834 31:-1 32:-1 33:-0.823973 34:-0.702984 35:-0.785105 36:-1 37:-0.830949 38:-0.529851 39:-1 40:-1 41:0.307692 42:-0.689866 43:0.135115 44:-0.741133 45:-0.574116 46:-0.263134 47:-0.735998 48:-1 49:-1 50:-0.550485 51:-0.791527 52:-0.620223 53:-0.736827 54:-0.537088 55:-0.830051 56:-1 57:-1 58:-1 59:-1 60:-1 61:-1 62:-1 63:-1 64:-1 
-2 1:-0.683063 2:-0.300439 3:-0.728736 4:-0.764264 5:-1 6:-0.213794 7:-0.71063 8:-1 9:-0.835679 10:-0.443263 11:0.939187 12:-0.513914 13:-0.823892 14:-0.196953 15:1 16:-0.201272 17:-0.27394 18:0.901544 19:-0.29006 20:-0.34545 21:-1 22:-0.427821 23:-0.517482 24:0.665341 25:-0.529808 26:-0.713131 27:0.107694 28:-0.878469 29:-0.685443 30:-0.701596 31:-0.658138 32:-1 33:-0.801343 34:-0.329592 35:-0.515016 36:-1 37:-1 38:-1 39:-1 40:-1 41:-0.435088 42:-0.362033 43:-0.458321 44:-0.269604 45:-0.279006 46:-0.662148 47:-0.851008 48:0.0971731 49:-0.646228 50:-0.797067 51:0.176254 52:-0.571399 53:-1 54:-0.21632 55:-0.616299 56:-1 57:0.836652 58:-0.56731 59:-0.479536 60:-1 61:0.0450589 62:0.222721 63:-1 64:-1 
-2 1:-0.579152 2:-0.638746 3:-0.0994434 4:-0.0609841 5:-0.376277 6:-0.381987 7:-1 8:0.192432 9:-0.5639 10:-0.791554 11:-0.174964 12:-0.569688 13:-0.766168 14:-0.474053 15:-0.810297 16:-1 17:-0.0358731 18:-0.0881679 19:-0.116178 20:-0.275692 21:-0.153865 22:0.11289 23:-0.359243 24:-1 25:-0.687806 26:-0.714291 27:0.34832 28:-0.596582 29:-0.791169 30:-0.405604 31:-1 32:-1 33:-0.868114 34:-0.406515 35:-0.194962 36:-0.239263 37:-0.746611 38:0.0569079 39:-1 40:-1 41:-0.0592171 42:-0.47417 43:0.133857 44:-0.51505 45:-0.202167 46:-0.225413 47:-0.703258 48:-1 49:-0.765134 50:-1 51:-0.531412 52:-1 53:-0.605531 54:-0.30624 55:-0.745265 56:-1 57:-1 58:-1 59:-1 60:-1 61:-0.306196 62:-0.797049 63:-0.654469 64:-1 
-0.24871781067951132 1:-0.48747 2:-0.371509 3:-0.122605 4:-0.0470085 5:-0.240427 6:0.696476 7:-0.766065 8:-1 9:-0.223443 10:-0.739134 11:-0.320469 12:-0.606963 13:-0.85763 14:-0.186373 15:-0.30692 16:-0.677104 17:-0.0215535 18:-0.316631 19:-0.425958 20:-0.294347 21:-1 22:-0.308607 23:-0.609812 24:-0.663403 25:-0.0494787 26:-0.884029 27:-0.85074 28:-0.705222 29:-1 30:-0.15549 31:-0.72363 32:-1 33:-0.357553 34:-0.819327 35:-0.607819 36:-0.691214 37:-0.691445 38:-0.570932 39:-0.588606 40:-1 41:0.113642 42:0.0435581 43:0.110805 44:-0.763752 45:-0.222716 46:-0.404761 47:-0.638617 48:-0.704314 49:-0.141916 50:-0.671837 51:-0.809798 52:-1 53:-0.0391557 54:-0.366336 55:-1 56:-1 57:-0.257509 58:-0.650201 59:-1 60:-1 61:-1 62:-0.752865 63:-1 64:-1 
-0.33752501011445535 1:-0.346404 2:-0.166449 3:-0.216782 4:-0.222222 5:-0.806266 6:-0.590919 7:-0.283947 8:-0.50616 9:-0.280887 10:-0.172675 11:0.404449 12:-0.331706 13:-0.709478 14:-0.437637 15:0.178468 16:-0.670548 17:-0.101601 18:-0.0413987 19:-0.743782 20:-0.640037 21:-0.579493 22:-0.62762 23:0.194148 24:-0.656569 25:-0.224238 26:-1 27:-0.695418 28:-0.699268 29:-0.740541 30:-0.261501 31:-0.436037 32:-0.160454 33:-0.83614 34:-0.631317 35:-0.599917 36:-1 37:-1 38:-0.124573 39:-1 40:-1 41:-0.381192 42:0.0714927 43:-0.466551 44:-0.638488 45:-0.603498 46:-0.505816 47:-0.631317 48:-1 49:-0.416389 50:-0.163062 51:-0.41781 52:-0.646472 53:-0.509898 54:0.723904 55:-0.367016 56:-1 57:0.515131 58:-1 59:-1 60:-1 61:-1 62:-0.747847 63:-0.5707 64:-1 
