svm_type c_svc
kernel_type rbf
gamma 0.0078125
nr_class 2
total_sv 215
rho 1.2855410899606441
label 1 0
nr_sv 92 123
SV
2.8376524727845771 1:0.398733 2:0.406145 3:-0.226434 4:0.067782 5:0.519881 6:-0.393301 7:0.0219427 8:-0.108821 9:0.418733 10:0.349062 11:-0.33522 12:-0.122314 13:0.294311 14:-0.115459 15:0.171549 16:0.107973 17:-0.025176 18:0.159525 19:0.426093 20:0.535633 21:-0.125557 22:0.0213786 23:-0.191104 24:-0.00145323 25:-0.395181 26:-0.385124 27:0.215895 28:-0.057505 29:-0.493765 30:0.431845 31:-0.00945631 32:0.102451 33:-0.451054 34:-0.363563 35:0.33543 36:0.0807785 37:-0.29292 38:0.104402 39:-0.211768 40:-0.101145 41:0.0195697 42:-0.198781 43:-0.431122 44:-0.522852 45:0.0813938 46:-0.0445332 47:0.198183 48:0.0162706 49:-0.0857724 50:-0.0668783 51:-0.314147 52:-0.504258 53:-0.255928 54:-0.774813 55:-0.242204 56:-0.423512 57:-0.272504 58:-0.0700831 59:-0.464651 60:-0.413389 61:-0.138361 62:-0.383553 63:-0.253535 64:-0.242959 65:-0.357041 66:-0.317685 67:-0.0398437 68:-0.179409 69:-0.576505 70:-0.302825 71:-0.171806 72:-0.303707 73:0.314828 74:0.378268 75:-0.0972785 76:0.135279 77:0.553782 78:-0.516323 79:0.173244 80:-0.307111 81:0.306137 82:0.594623 83:-0.15304 84:-0.147814 85:0.28441 86:-0.27847 87:0.0075024 88:0.215794 89:-0.172481 90:0.0854403 91:0.372028 92:0.28388 93:-0.199946 94:0.101136 95:-0.0837569 96:-0.0650818 97:-0.190076 98:-0.446985 99:0.386856 100:-0.111398 101:-0.073402 102:0.0257629 103:0.262061 104:-0.308852 105:-0.346323 106:-0.128958 107:-0.217409 108:0.0375639 109:0.0976715 110:0.0331973 111:0.00124195 112:0.540878 113:0.41806 114:-0.371169 115:-0.367056 116:0.227672 117:0.100736 118:-0.369861 119:-0.476453 120:0.403667 121:-0.271653 122:-0.124415 123:0.664876 124:-0.405845 125:-0.497618 126:0.298546 127:-0.582461 128:-0.601622 129:0.365676 130:-0.856076 131:-0.669463 132:0.188558 133:0.201785 134:0.0317599 135:-0.272451 136:0.189779 137:-0.135578 138:-0.264915 139:0.272083 140:-0.392699 141:0.130537 142:0.357263 143:-0.296293 144:0.202421 145:0.352972 146:0.279752 147:-0.232504 148:-0.264878 149:0.279434 150:-0.0669878 151:-0.14987 152:0.854543 153:0.236069 154:0.151849 155:0.982597 156:0.128491 157:0.570468 158:0.566363 159:-0.037214 160:-0.414482 161:-0.0922738 162:-0.23733 163:0.45234 164:-0.248619 165:0.112649 166:0.332301 167:0.358857 168:-0.275432 169:-0.290491 170:0.288835 171:-0.0640457 172:0.322911 173:0.359215 174:-0.246209 175:-0.246056 176:0.196176 177:0.0197426 178:-0.0255627 179:0.177856 180:0.035561 181:-0.353732 182:-0.236813 183:0.376275 184:0.226699 185:0.035469 186:0.254305 187:0.606941 188:0.460615 189:-0.0914908 190:0.398692 191:-0.00117483 192:0.391615 193:0.378367 194:0.158996 195:0.382083 196:0.557347 197:0.136604 198:0.240932 199:0.526274 200:-0.133292 201:0.328304 202:-0.513031 203:-0.369389 204:-0.443501 205:-0.701334 206:-0.253479 207:-0.145214 208:-0.454846 209:-0.197871 210:-0.408189 211:-0.338333 212:-0.450333 213:-0.333714 214:-0.467665 215:-0.417168 216:-0.279579 217:-0.259337 218:0.601869 219:-0.483729 220:-0.169272 221:0.884203 222:0.149683 223:0.326858 224:-0.250973 225:0.164094 226:0.0240607 227:-0.168939 228:0.18873 229:0.0171382 230:0.0652495 231:-0.106069 232:0.525015 233:0.0492914 234:0.028262 235:0.190304 236:-0.12901 237:-0.282764 238:0.180048 239:-0.182792 240:-0.342917 241:0.239992 242:0.0952965 243:-0.059841 244:-0.14028 245:0.289618 246:-0.0419736 247:0.119655 248:-0.25408 249:0.0147077 250:-0.0318079 251:0.107334 252:-0.247732 253:0.503603 254:0.234705 255:-0.178529 256:0.117632 257:0.105003 258:-0.142229 259:0.53409 260:0.139705 261:0.0392224 262:0.135414 263:0.221924 264:0.209647 265:-0.190076 266:-0.446985 267:0.386856 268:-0.111398 269:-0.073402 270:0.0257629 271:0.262061 272:-0.308852 273:-0.346323 274:-0.128958 275:-0.217409 276:0.0375639 277:0.0976715 278:0.0331973 279:0.00124195 280:0.540878 281:0.41806 282:-0.371169 283:-0.367056 284:0.227672 285:0.100736 286:-0.369861 287:-0.476453 288:0.403667 289:-0.271653 290:-0.124415 291:0.664876 292:-0.405845 293:-0.497618 294:0.298546 295:-0.582461 296:-0.601622 297:0.365676 298:-0.856076 299:-0.669463 300:0.188558 301:0.201785 302:0.0317599 303:-0.272451 304:0.189779 305:-0.135578 306:-0.264915 307:0.272083 308:-0.392699 309:0.130537 310:0.357263 311:-0.296293 312:0.202421 313:0.352972 314:0.279752 315:-0.232504 316:-0.264878 317:0.279434 318:-0.0669878 319:-0.14987 320:0.854543 321:0.236069 322:0.151849 323:0.982597 324:0.128491 325:0.570468 326:0.566363 327:-0.037214 328:-0.414482 329:-0.0922738 330:-0.23733 331:0.45234 332:-0.248619 333:0.112649 334:0.332301 335:0.358857 336:-0.275432 337:-0.290491 338:0.288835 339:-0.0640457 340:0.322911 341:0.359215 342:-0.246209 343:-0.246056 344:0.196176 345:0.0197426 346:-0.0255627 347:0.177856 348:0.035561 349:-0.353732 350:-0.236813 351:0.376275 352:0.226699 353:0.035469 354:0.254305 355:0.606941 356:0.460615 357:-0.0914908 358:0.398692 359:-0.00117483 360:0.391615 361:0.378367 362:0.158996 363:0.382083 364:0.557347 365:0.136604 366:0.240932 367:0.526274 368:-0.133292 369:0.328304 370:-0.513031 371:-0.369389 372:-0.443501 373:-0.701334 374:-0.253479 375:-0.145214 376:-0.454846 377:-0.197871 378:-0.408189 379:-0.338333 380:-0.450333 381:-0.333714 382:-0.467665 383:-0.417168 384:-0.279579 385:-0.259337 386:0.601869 387:-0.483729 388:-0.169272 389:0.884203 390:0.149683 391:0.326858 392:-0.250973 393:0.164094 394:0.0240607 395:-0.168939 396:0.18873 397:0.0171382 398:0.0652495 399:-0.106069 400:0.525015 401:0.0492914 402:0.028262 403:0.190304 404:-0.12901 405:-0.282764 406:0.180048 407:-0.182792 408:-0.342917 409:0.239992 410:0.0952965 411:-0.059841 412:-0.14028 413:0.289618 414:-0.0419736 415:0.119655 416:-0.25408 417:0.0147077 418:-0.0318079 419:0.107334 420:-0.247732 421:0.503603 422:0.234705 423:-0.178529 424:0.117632 425:0.105003 426:-0.142229 427:0.53409 428:0.139705 429:0.0392224 430:0.135414 431:0.221924 432:0.209647 433:0.314828 434:0.378268 435:-0.0972785 436:0.135279 437:0.553782 438:-0.516323 439:0.173244 440:-0.307111 441:0.306137 442:0.594623 443:-0.15304 444:-0.147814 445:0.28441 446:-0.27847 447:0.0075024 448:0.215794 449:-0.172481 450:0.0854403 451:0.372028 452:0.28388 453:-0.199946 454:0.101136 455:-0.0837569 456:-0.0650818 
6.479379819419294 1:-0.237172 2:0.131595 3:0.410244 4:0.168613 5:0.534713 6:0.640843 7:-0.230476 8:-0.0920522 9:-0.611334 10:-0.433457 11:-0.202873 12:-0.47692 13:-0.296823 14:-0.277891 15:-0.675908 16:-0.420287 17:-0.0700299 18:-0.636272 19:-0.37522 20:-0.146195 21:-0.03411 22:0.0829236 23:0.159352 24:0.0852888 25:0.219987 26:-0.132485 27:-0.448137 28:-0.153742 29:-0.516136 30:-0.57292 31:0.24022 32:0.0674284 33:0.532932 34:0.432665 35:0.214315 36:0.423854 37:0.28958 38:0.244856 39:0.606509 40:0.418027 41:0.0430503 42:0.564723 43:0.361616 44:0.135416 45:0.0119467 46:-0.108185 47:-0.173061 48:-0.107608 49:-0.526438 50:-0.248562 51:0.106819 52:-0.49278 53:-0.296949 54:-0.275242 55:-0.380374 56:-0.438652 57:-0.973709 58:-0.839007 59:-0.47191 60:-0.784939 61:-0.511409 62:-0.568182 63:-0.884433 64:-0.621672 65:-0.437974 66:-0.843227 67:-0.411192 68:-0.517544 69:-0.535047 70:-0.249922 71:0.150467 72:-0.228336 73:-0.285504 74:0.124014 75:0.48305 76:0.192516 77:0.498485 78:0.454525 79:-0.00372808 80:-0.289693 81:-0.660487 82:-0.228001 83:0.0117694 84:-0.585415 85:-0.183686 86:-0.424864 87:-0.664922 88:-0.225786 89:-0.214871 90:-0.622105 91:-0.175911 92:-0.28005 93:-0.151403 94:0.163496 95:0.263492 96:0.0197729 97:0.230613 98:-0.0929419 99:-0.375212 100:0.126586 101:0.376912 102:0.119603 103:0.271941 104:0.0145658 105:-0.0516154 106:0.217705 107:0.228165 108:0.0815739 109:0.0921701 110:0.396835 111:0.242195 112:-0.277839 113:0.193295 114:0.0674115 115:-0.318571 116:-0.229445 117:-0.216513 118:-0.401802 119:-0.833793 120:0.073512 121:-0.544636 122:-0.404244 123:-0.0320747 124:-0.54511 125:-0.837992 126:0.0457072 127:-0.501663 128:-0.779549 129:-0.0548561 130:-0.454659 131:-0.19035 132:-0.332439 133:0.190264 134:0.507722 135:0.403351 136:-0.206606 137:-0.0531069 138:-0.806874 139:-0.0150505 140:-0.364343 141:-0.756087 142:-0.0245377 143:-0.218293 144:-0.722896 145:-0.345064 146:0.11787 147:-0.396769 148:-0.226384 149:-0.0866961 150:0.454253 151:-0.139514 152:0.743857 153:-0.0529856 154:-0.247686 155:0.793324 156:-0.207869 157:-0.237374 158:0.463583 159:-0.344498 160:-0.0964426 161:-0.437204 162:-0.230167 163:-0.0882793 164:-0.364178 165:-0.628817 166:-0.310316 167:0.112925 168:-0.445534 169:-0.321526 170:0.0226861 171:0.46396 172:-0.385546 173:0.0608709 174:-0.313137 175:-0.23569 176:-0.122534 177:0.540616 178:-0.0994675 179:-0.0835334 180:0.342346 181:-0.18474 182:-0.0329127 183:-0.592134 184:-0.0516968 185:-0.119056 186:-0.28778 187:-0.0702055 188:0.294879 189:-0.290627 190:0.238149 191:-0.196355 192:-0.322476 193:-0.031189 194:-0.0916081 195:-0.226251 196:0.0666776 197:-0.148663 198:-0.00423397 199:0.826063 200:0.0123727 201:0.172785 202:-0.0729939 203:0.0116896 204:-0.462246 205:0.0634105 206:-0.186929 207:-0.0502649 208:-0.0856741 209:0.158246 210:-0.23968 211:0.209022 212:0.0316189 213:-0.320213 214:0.226807 215:-0.133021 216:-0.129785 217:-0.218366 218:0.223387 219:0.130558 220:-0.208904 221:0.621087 222:-0.216759 223:-0.0469191 224:-0.405539 225:-0.608905 226:-0.191701 227:-0.233893 228:-0.562866 229:-0.150307 230:-0.304351 231:-0.286007 232:0.00703263 233:-0.335028 234:0.586211 235:-0.231314 236:-0.110505 237:-0.712985 238:-0.236304 239:-0.126441 240:-0.81433 241:-0.15746 242:-0.149711 243:-0.584067 244:-0.216392 245:-0.212129 246:0.133892 247:-0.177277 248:-0.313557 249:-0.685521 250:-0.22385 251:-0.27031 252:-0.405886 253:-0.0792306 254:-0.24754 255:0.521459 256:-0.177148 257:-0.304364 258:-0.280146 259:0.0824525 260:-0.30847 261:0.543231 262:0.105189 263:-0.00101835 264:0.306183 265:0.230613 266:-0.0929419 267:-0.375212 268:0.126586 269:0.376912 270:0.119603 271:0.271941 272:0.0145658 273:-0.0516154 274:0.217705 275:0.228165 276:0.0815739 277:0.0921701 278:0.396835 279:0.242195 280:-0.277839 281:0.193295 282:0.0674115 283:-0.318571 284:-0.229445 285:-0.216513 286:-0.401802 287:-0.833793 288:0.073512 289:-0.544636 290:-0.404244 291:-0.0320747 292:-0.54511 293:-0.837992 294:0.0457072 295:-0.501663 296:-0.779549 297:-0.0548561 298:-0.454659 299:-0.19035 300:-0.332439 301:0.190264 302:0.507722 303:0.403351 304:-0.206606 305:-0.0531069 306:-0.806874 307:-0.0150505 308:-0.364343 309:-0.756087 310:-0.0245377 311:-0.218293 312:-0.722896 313:-0.345064 314:0.11787 315:-0.396769 316:-0.226384 317:-0.0866961 318:0.454253 319:-0.139514 320:0.743857 321:-0.0529856 322:-0.247686 323:0.793324 324:-0.207869 325:-0.237374 326:0.463583 327:-0.344498 328:-0.0964426 329:-0.437204 330:-0.230167 331:-0.0882793 332:-0.364178 333:-0.628817 334:-0.310316 335:0.112925 336:-0.445534 337:-0.321526 338:0.0226861 339:0.46396 340:-0.385546 341:0.0608709 342:-0.313137 343:-0.23569 344:-0.122534 345:0.540616 346:-0.0994675 347:-0.0835334 348:0.342346 349:-0.18474 350:-0.0329127 351:-0.592134 352:-0.0516968 353:-0.119056 354:-0.28778 355:-0.0702055 356:0.294879 357:-0.290627 358:0.238149 359:-0.196355 360:-0.322476 361:-0.031189 362:-0.0916081 363:-0.226251 364:0.0666776 365:-0.148663 366:-0.00423397 367:0.826063 368:0.0123727 369:0.172785 370:-0.0729939 371:0.0116896 372:-0.462246 373:0.0634105 374:-0.186929 375:-0.0502649 376:-0.0856741 377:0.158246 378:-0.23968 379:0.209022 380:0.0316189 381:-0.320213 382:0.226807 383:-0.133021 384:-0.129785 385:-0.218366 386:0.223387 387:0.130558 388:-0.208904 389:0.621087 390:-0.216759 391:-0.0469191 392:-0.405539 393:-0.608905 394:-0.191701 395:-0.233893 396:-0.562866 397:-0.150307 398:-0.304351 399:-0.286007 400:0.00703263 401:-0.335028 402:0.586211 403:-0.231314 404:-0.110505 405:-0.712985 406:-0.236304 407:-0.126441 408:-0.81433 409:-0.15746 410:-0.149711 411:-0.584067 412:-0.216392 413:-0.212129 414:0.133892 415:-0.177277 416:-0.313557 417:-0.685521 418:-0.22385 419:-0.27031 420:-0.405886 421:-0.0792306 422:-0.24754 423:0.521459 424:-0.177148 425:-0.304364 426:-0.280146 427:0.0824525 428:-0.30847 429:0.543231 430:0.105189 431:-0.00101835 432:0.306183 433:-0.285504 434:0.124014 435:0.48305 436:0.192516 437:0.498485 438:0.454525 439:-0.00372808 440:-0.289693 441:-0.660487 442:-0.228001 443:0.0117694 444:-0.585415 445:-0.183686 446:-0.424864 447:-0.664922 448:-0.225786 449:-0.214871 450:-0.622105 451:-0.175911 452:-0.28005 453:-0.151403 454:0.163496 455:0.263492 456:0.0197729 
128 1:-0.108748 2:0.244999 3:-0.248602 4:-0.341241 5:0.0464439 6:-0.0698396 7:0.4783 8:0.0088203 9:-0.10669 10:0.100344 11:0.0746948 12:0.115211 13:0.598824 14:-0.0915197 15:-0.34181 16:0.475962 17:0.169923 18:-0.156403 19:0.167171 20:0.452641 21:-0.292761 22:-0.585746 23:-0.329402 24:0.0918259 25:0.0769256 26:-0.253621 27:0.205025 28:0.329236 29:-0.0397677 30:0.109473 31:-0.490249 32:-0.0388115 33:0.0365736 34:-0.098069 35:-0.0380703 36:-0.166824 37:-0.609248 38:0.0598203 39:0.272465 40:-0.48212 41:-0.194691 42:0.0991811 43:-0.168821 44:-0.428035 45:0.309298 46:0.5632 47:0.3106 48:-0.110665 49:0.208894 50:0.258179 51:0.214439 52:-0.633833 53:-0.403275 54:-0.514809 55:0.772845 56:0.436113 57:0.371713 58:1 59:1 60:1 61:0.597685 62:0.217141 63:-0.0104651 64:0.653534 65:0.31095 66:0.044682 67:0.144769 68:0.171758 69:-0.293458 70:-0.580975 71:-0.187716 72:-0.222638 73:0.0395616 74:0.229579 75:0.0421785 76:-0.290447 77:0.0829434 78:-0.154552 79:0.50805 80:-0.210216 81:-0.22377 82:0.0485189 83:0.0200995 84:-0.0883518 85:0.486858 86:-0.279501 87:-0.455423 88:0.570171 89:0.033963 90:-0.244921 91:0.118037 92:0.0877845 93:-0.325944 94:-0.360888 95:-0.151938 96:-0.0141844 97:0.0791872 98:-0.0768039 99:-0.0253046 100:0.00568654 101:0.149627 102:-0.0454515 103:0.145287 104:0.141401 105:0.0204574 106:0.0499801 107:0.0288584 108:-0.00107731 109:0.0879999 110:0.306448 111:0.0174902 112:0.2048 113:0.467928 114:0.00316953 115:-0.0347701 116:-0.147474 117:0.256573 118:0.0413768 119:-0.592077 120:0.294411 121:0.197337 122:-0.205391 123:-0.0226544 124:-0.0113129 125:-0.566732 126:0.135685 127:-0.0661825 128:-0.609746 129:0.243289 130:-0.107202 131:-0.199507 132:-0.017704 133:-0.0342688 134:0.440439 135:-0.237554 136:-0.160125 137:-0.009336 138:-0.159507 139:0.585685 140:-0.28171 141:-0.400141 142:0.609663 143:-0.0754629 144:-0.291175 145:0.238772 146:0.397641 147:-0.195357 148:-0.0199027 149:0.0671666 150:0.14034 151:-0.120965 152:0.408889 153:0.387313 154:-0.0896534 155:0.504321 156:0.318537 157:0.109371 158:0.396346 159:-0.015236 160:0.0620709 161:-0.0984232 162:-0.614133 163:0.634788 164:-0.154119 165:-0.362445 166:0.184832 167:0.329175 168:-0.425825 169:-0.101105 170:0.126459 171:0.0205494 172:0.249232 173:0.483378 174:-0.247374 175:0.0386549 176:0.0639102 177:0.0941888 178:-0.035376 179:-0.084874 180:-0.0633561 181:0.110102 182:0.0250115 183:0.21487 184:-0.0270897 185:0.0828116 186:-0.0370652 187:-0.185401 188:0.239453 189:-0.0271568 190:0.0489785 191:0.0100711 192:0.0270746 193:0.085039 194:0.112608 195:0.0345469 196:0.120669 197:-0.0711091 198:0.0825935 199:-0.0342012 200:-0.0907442 201:0.185147 202:0.0784369 203:-0.173487 204:-0.272614 205:0.260776 206:-0.137411 207:0.15285 208:0.191764 209:-0.044552 210:-0.116201 211:0.27401 212:-0.204581 213:-0.163326 214:0.506976 215:-0.027346 216:-0.0287933 217:0.52039 218:0.608893 219:0.158814 220:-0.148637 221:0.350192 222:0.361444 223:0.59873 224:-0.243827 225:-0.310049 226:0.463029 227:-0.06741 228:-0.165131 229:0.288014 230:0.0752167 231:-0.173476 232:0.0646689 233:0.0459645 234:0.0839701 235:-0.289417 236:-0.109448 237:-0.169526 238:-0.278226 239:-0.124207 240:-0.282923 241:-0.30534 242:-0.0398433 243:-0.193901 244:-0.20628 245:-0.0264255 246:-0.227311 247:0.532204 248:-0.129476 249:-0.372337 250:0.163254 251:0.0946074 252:-0.373539 253:0.0306646 254:0.157816 255:-0.0920426 256:0.27236 257:0.166847 258:-0.232241 259:0.04233 260:0.0622508 261:-0.0276421 262:-0.438007 263:-0.150249 264:-0.26433 265:0.0791872 266:-0.0768039 267:-0.0253046 268:0.00568654 269:0.149627 270:-0.0454515 271:0.145287 272:0.141401 273:0.0204574 274:0.0499801 275:0.0288584 276:-0.00107731 277:0.0879999 278:0.306448 279:0.0174902 280:0.2048 281:0.467928 282:0.00316953 283:-0.0347701 284:-0.147474 285:0.256573 286:0.0413768 287:-0.592077 288:0.294411 289:0.197337 290:-0.205391 291:-0.0226544 292:-0.0113129 293:-0.566732 294:0.135685 295:-0.0661825 296:-0.609746 297:0.243289 298:-0.107202 299:-0.199507 300:-0.017704 301:-0.0342688 302:0.440439 303:-0.237554 304:-0.160125 305:-0.009336 306:-0.159507 307:0.585685 308:-0.28171 309:-0.400141 310:0.609663 311:-0.0754629 312:-0.291175 313:0.238772 314:0.397641 315:-0.195357 316:-0.0199027 317:0.0671666 318:0.14034 319:-0.120965 320:0.408889 321:0.387313 322:-0.0896534 323:0.504321 324:0.318537 325:0.109371 326:0.396346 327:-0.015236 328:0.0620709 329:-0.0984232 330:-0.614133 331:0.634788 332:-0.154119 333:-0.362445 334:0.184832 335:0.329175 336:-0.425825 337:-0.101105 338:0.126459 339:0.0205494 340:0.249232 341:0.483378 342:-0.247374 343:0.0386549 344:0.0639102 345:0.0941888 346:-0.035376 347:-0.084874 348:-0.0633561 349:0.110102 350:0.0250115 351:0.21487 352:-0.0270897 353:0.0828116 354:-0.0370652 355:-0.185401 356:0.239453 357:-0.0271568 358:0.0489785 359:0.0100711 360:0.0270746 361:0.085039 362:0.112608 363:0.0345469 364:0.120669 365:-0.0711091 366:0.0825935 367:-0.0342012 368:-0.0907442 369:0.185147 370:0.0784369 371:-0.173487 372:-0.272614 373:0.260776 374:-0.137411 375:0.15285 376:0.191764 377:-0.044552 378:-0.116201 379:0.27401 380:-0.204581 381:-0.163326 382:0.506976 383:-0.027346 384:-0.0287933 385:0.52039 386:0.608893 387:0.158814 388:-0.148637 389:0.350192 390:0.361444 391:0.59873 392:-0.243827 393:-0.310049 394:0.463029 395:-0.06741 396:-0.165131 397:0.288014 398:0.0752167 399:-0.173476 400:0.0646689 401:0.0459645 402:0.0839701 403:-0.289417 404:-0.109448 405:-0.169526 406:-0.278226 407:-0.124207 408:-0.282923 409:-0.30534 410:-0.0398433 411:-0.193901 412:-0.20628 413:-0.0264255 414:-0.227311 415:0.532204 416:-0.129476 417:-0.372337 418:0.163254 419:0.0946074 420:-0.373539 421:0.0306646 422:0.157816 423:-0.0920426 424:0.27236 425:0.166847 426:-0.232241 427:0.04233 428:0.0622508 429:-0.0276421 430:-0.438007 431:-0.150249 432:-0.26433 433:0.0395616 434:0.229579 435:0.0421785 436:-0.290447 437:0.0829434 438:-0.154552 439:0.50805 440:-0.210216 441:-0.22377 442:0.0485189 443:0.0200995 444:-0.0883518 445:0.486858 446:-0.279501 447:-0.455423 448:0.570171 449:0.033963 450:-0.244921 451:0.118037 452:0.0877845 453:-0.325944 454:-0.360888 455:-0.151938 456:-0.0141844 
13.827035790190763 1:0.152098 2:-0.0858927 3:-0.183314 4:-0.142602 5:0.25432 6:-0.046929 7:-0.11716 8:-0.249095 9:0.0887965 10:-0.573242 11:-0.811431 12:-0.440093 13:-0.16067 14:-0.331342 15:0.0309249 16:-0.312371 17:-0.296765 18:-0.106007 19:-0.752687 20:-0.615129 21:-0.271897 22:0.356059 23:-0.14288 24:-0.284523 25:-0.151697 26:0.0966906 27:0.161706 28:0.159368 29:-0.228748 30:0.0914516 31:0.127003 32:0.238473 33:-0.126434 34:0.572892 35:0.787981 36:0.369354 37:0.154993 38:0.313053 39:-0.0626417 40:0.311167 41:0.286448 42:0.0693258 43:0.744061 44:0.608598 45:0.266877 46:-0.384076 47:0.139272 48:0.266891 49:-0.263943 50:-0.433957 51:-0.320526 52:-0.67973 53:-0.44342 54:-0.63114 55:-0.200678 56:-0.412411 57:-0.396863 58:-0.823706 59:-0.776943 60:-0.645313 61:-0.20149 62:-0.346979 63:-0.164311 64:-0.511231 65:-0.544258 66:-0.474268 67:-0.7139 68:-0.847301 69:-0.683868 70:-0.0487323 71:-0.178035 72:-0.549941 73:0.0920189 74:-0.104009 75:-0.0971739 76:-0.135041 77:0.249648 78:-0.140167 79:0.0515875 80:-0.446556 81:-0.0826242 82:-0.349934 83:-0.725926 84:-0.524467 85:-0.114333 86:-0.473492 87:-0.146144 88:-0.211414 89:-0.473039 90:-0.199198 91:-0.569999 92:-0.747484 93:-0.348186 94:0.496493 95:-0.0644096 96:-0.347958 97:0.0022974 98:-0.216168 99:0.462779 100:-0.176771 101:-0.530432 102:-0.515669 103:-0.0674192 104:0.147891 105:-0.601856 106:-0.276611 107:-0.629079 108:-0.526592 109:-0.153923 110:-0.467473 111:-0.402816 112:-0.539027 113:-0.150072 114:-0.42351 115:-0.442519 116:0.209964 117:0.182109 118:0.270647 119:0.248266 120:0.084899 121:0.273168 122:-0.0297369 123:0.669304 124:0.216853 125:0.257766 126:-0.00486058 127:0.121997 128:0.128008 129:0.0182047 130:0.115467 131:-0.0128253 132:-0.242063 133:0.0353717 134:0.00168546 135:-0.0919788 136:-0.379474 137:0.339575 138:-0.66513 139:-0.00381487 140:-0.498108 141:-0.185363 142:-0.0063882 143:-0.403286 144:-0.162064 145:-0.529335 146:0.0866999 147:-0.295452 148:-0.237795 149:-0.0851287 150:0.154662 151:-0.289251 152:-0.336399 153:0.525336 154:-0.260462 155:-0.481207 156:0.334296 157:-0.116951 158:-0.798582 159:-0.0318106 160:-0.0157734 161:-0.191595 162:-0.421972 163:-0.0724576 164:-0.470332 165:-0.0818904 166:-0.484507 167:-0.0164055 168:-0.329996 169:-0.2179 170:-0.0466343 171:-0.00855597 172:-0.592543 173:-0.130728 174:-0.315555 175:-0.217881 176:-0.0498288 177:0.191961 178:0.181432 179:-0.00388827 180:-0.0981612 181:0.201544 182:0.5243 183:-0.114776 184:-0.202695 185:-0.21268 186:-0.182788 187:-0.517382 188:-0.406132 189:0.0995331 190:-0.192758 191:-0.344502 192:0.0315806 193:-0.17095 194:-0.282192 195:-0.00708749 196:-0.405308 197:-0.422615 198:0.202915 199:-0.210262 200:0.175796 201:0.215362 202:0.178706 203:-0.169493 204:0.192699 205:0.383296 206:0.277303 207:-0.252266 208:0.360802 209:0.0842832 210:0.254403 211:0.452704 212:-0.0869697 213:0.29021 214:0.694513 215:-0.0119696 216:0.266428 217:0.233454 218:0.522794 219:-0.218602 220:-0.398812 221:-0.42289 222:0.491672 223:0.0245157 224:-0.466523 225:-0.0534579 226:-0.130397 227:-0.436284 228:-0.129933 229:-0.44393 230:-0.580371 231:-0.173228 232:-0.12593 233:0.340597 234:0.213011 235:-0.470478 236:0.153629 237:-0.493959 238:-0.55836 239:0.1176 240:-0.702832 241:-1 242:-0.433626 243:-0.493968 244:-0.367571 245:-0.523371 246:0.230488 247:-0.189145 248:-0.49251 249:-0.253901 250:-0.543276 251:-0.54414 252:-0.361265 253:-0.0360587 254:0.430523 255:-0.0196602 256:-0.483584 257:-0.628587 258:-0.200469 259:-0.147316 260:0.434216 261:0.1568 262:-0.283005 263:0.341275 264:-0.0727256 265:0.0022974 266:-0.216168 267:0.462779 268:-0.176771 269:-0.530432 270:-0.515669 271:-0.0674192 272:0.147891 273:-0.601856 274:-0.276611 275:-0.629079 276:-0.526592 277:-0.153923 278:-0.467473 279:-0.402816 280:-0.539027 281:-0.150072 282:-0.42351 283:-0.442519 284:0.209964 285:0.182109 286:0.270647 287:0.248266 288:0.084899 289:0.273168 290:-0.0297369 291:0.669304 292:0.216853 293:0.257766 294:-0.00486058 295:0.121997 296:0.128008 297:0.0182047 298:0.115467 299:-0.0128253 300:-0.242063 301:0.0353717 302:0.00168546 303:-0.0919788 304:-0.379474 305:0.339575 306:-0.66513 307:-0.00381487 308:-0.498108 309:-0.185363 310:-0.0063882 311:-0.403286 312:-0.162064 313:-0.529335 314:0.0866999 315:-0.295452 316:-0.237795 317:-0.0851287 318:0.154662 319:-0.289251 320:-0.336399 321:0.525336 322:-0.260462 323:-0.481207 324:0.334296 325:-0.116951 326:-0.798582 327:-0.0318106 328:-0.0157734 329:-0.191595 330:-0.421972 331:-0.0724576 332:-0.470332 333:-0.0818904 334:-0.484507 335:-0.0164055 336:-0.329996 337:-0.2179 338:-0.0466343 339:-0.00855597 340:-0.592543 341:-0.130728 342:-0.315555 343:-0.217881 344:-0.0498288 345:0.191961 346:0.181432 347:-0.00388827 348:-0.0981612 349:0.201544 350:0.5243 351:-0.114776 352:-0.202695 353:-0.21268 354:-0.182788 355:-0.517382 356:-0.406132 357:0.0995331 358:-0.192758 359:-0.344502 360:0.0315806 361:-0.17095 362:-0.282192 363:-0.00708749 364:-0.405308 365:-0.422615 366:0.202915 367:-0.210262 368:0.175796 369:0.215362 370:0.178706 371:-0.169493 372:0.192699 373:0.383296 374:0.277303 375:-0.252266 376:0.360802 377:0.0842832 378:0.254403 379:0.452704 380:-0.0869697 381:0.29021 382:0.694513 383:-0.0119696 384:0.266428 385:0.233454 386:0.522794 387:-0.218602 388:-0.398812 389:-0.42289 390:0.491672 391:0.0245157 392:-0.466523 393:-0.0534579 394:-0.130397 395:-0.436284 396:-0.129933 397:-0.44393 398:-0.580371 399:-0.173228 400:-0.12593 401:0.340597 402:0.213011 403:-0.470478 404:0.153629 405:-0.493959 406:-0.55836 407:0.1176 408:-0.702832 409:-1 410:-0.433626 411:-0.493968 412:-0.367571 413:-0.523371 414:0.230488 415:-0.189145 416:-0.49251 417:-0.253901 418:-0.543276 419:-0.54414 420:-0.361265 421:-0.0360587 422:0.430523 423:-0.0196602 424:-0.483584 425:-0.628587 426:-0.200469 427:-0.147316 428:0.434216 429:0.1568 430:-0.283005 431:0.341275 432:-0.0727256 433:0.0920189 434:-0.104009 435:-0.0971739 436:-0.135041 437:0.249648 438:-0.140167 439:0.0515875 440:-0.446556 441:-0.0826242 442:-0.349934 443:-0.725926 444:-0.524467 445:-0.114333 446:-0.473492 447:-0.146144 448:-0.211414 449:-0.473039 450:-0.199198 451:-0.569999 452:-0.747484 453:-0.348186 454:0.496493 455:-0.0644096 456:-0.347958 
7.6038922107965465 1:0.325305 2:0.363017 3:0.789682 4:0.0317663 5:0.470441 6:0.471869 7:-0.119918 8:-0.0816017 9:0.475036 10:-0.654648 11:-0.476301 12:-0.116901 13:-0.00785732 14:-0.0846133 15:0.169518 16:-0.278869 17:-0.0330262 18:0.282241 19:-0.577192 20:0.0712096 21:-0.335017 22:-0.427417 23:0.269254 24:-0.0703628 25:-0.326276 26:-0.340774 27:-0.805282 28:-0.0168736 29:-0.446652 30:-0.400916 31:0.12841 32:0.0594951 33:-0.524128 34:0.651536 35:0.477927 36:0.0290234 37:0.00251553 38:0.0586692 39:-0.216054 40:0.278834 41:0.0161367 42:-0.321522 43:0.575179 44:-0.0587251 45:0.339405 46:0.386663 47:-0.278708 48:0.0503647 49:-0.0380396 50:-0.00734218 51:0.471339 52:-0.423796 53:-0.18545 54:-0.1862 55:-0.339038 56:-0.428878 57:-0.310969 58:-0.881887 59:-0.573264 60:-0.438399 61:-0.363781 62:-0.425031 63:-0.333189 64:-0.533461 65:-0.402293 66:-0.303943 67:-0.54332 68:-0.451188 69:-0.699233 70:-0.567098 71:0.351016 72:-0.265962 73:0.272192 74:0.366155 75:0.907945 76:0.0682955 77:0.465544 78:0.359301 79:0.0633289 80:-0.279513 81:0.29102 82:-0.38473 83:-0.306645 84:-0.158473 85:0.0124634 86:-0.282564 87:-0.0437644 88:-0.121679 89:-0.181875 90:0.164737 91:-0.327257 92:-0.11721 93:-0.375154 94:-0.403864 95:0.387714 96:-0.124349 97:-0.170785 98:-0.181372 99:-0.337762 100:-0.153065 101:-0.158656 102:0.681628 103:-0.029574 104:-0.191598 105:0.215744 106:-0.21359 107:-0.309721 108:0.587773 109:-0.169189 110:-0.124743 111:0.657222 112:-0.249164 113:-0.178089 114:0.438085 115:-0.270434 116:-0.195103 117:0.0488448 118:-0.0469862 119:-0.363241 120:-0.254646 121:0.161204 122:-0.346571 123:-0.0421235 124:-0.0859641 125:-0.346164 126:-0.327512 127:-0.124228 128:-0.333701 129:-0.258341 130:-0.0280236 131:-0.170874 132:-0.447425 133:0.179541 134:-0.0459237 135:0.0637134 136:-0.24718 137:0.237669 138:0.176654 139:0.123185 140:-0.336707 141:0.0773284 142:0.0743257 143:-0.215762 144:0.139362 145:-0.203094 146:-0.057416 147:-0.0497722 148:-0.199446 149:-0.227065 150:0.254318 151:-0.43247 152:0.0130604 153:0.200454 154:-0.437864 155:-0.0588921 156:0.0452986 157:-0.372354 158:-0.0145345 159:-0.0747873 160:-0.19011 161:0.185304 162:-0.243638 163:0.0335068 164:-0.241291 165:0.00417926 166:-0.245275 167:0.0139474 168:-0.295348 169:-0.2938 170:-0.176807 171:0.123901 172:-0.274954 173:-0.107257 174:-0.0722984 175:-0.217065 176:-0.233965 177:0.264103 178:-0.407373 179:0.209078 180:0.0349189 181:-0.13109 182:-0.180597 183:-0.672231 184:-0.279256 185:0.0328978 186:0.203252 187:-0.239357 188:-0.290748 189:0.0380873 190:-0.20502 191:-0.0378237 192:0.168535 193:-0.150871 194:0.0235538 195:0.436171 196:0.242391 197:-0.236737 198:0.206487 199:0.522968 200:-0.277361 201:-0.740945 202:0.0457346 203:-0.0564199 204:-0.151554 205:0.0990296 206:0.330993 207:0.0145645 208:0.199225 209:0.0280792 210:0.0453052 211:0.289613 212:-0.107499 213:-0.153487 214:0.187817 215:-0.290927 216:-0.0339718 217:0.00073333 218:0.126325 219:0.63627 220:-0.524675 221:-0.216112 222:0.206819 223:0.0563259 224:-0.279985 225:0.12657 226:-0.121988 227:-0.183348 228:0.336127 229:-0.185804 230:-0.175236 231:0.0117709 232:0.270761 233:0.0792283 234:-0.561111 235:-0.283352 236:0.39507 237:0.0717421 238:-0.338031 239:0.245938 240:-0.0247804 241:-0.441373 242:0.350786 243:-0.20577 244:0.0177163 245:0.443396 246:-0.603686 247:-0.0714812 248:-0.235859 249:0.106616 250:-0.324342 251:-0.098076 252:-0.204009 253:0.247448 254:0.284523 255:-0.694341 256:-0.192714 257:-0.190082 258:-0.109445 259:0.33405 260:0.176022 261:-0.617948 262:-0.175545 263:0.578185 264:-0.962698 265:-0.170785 266:-0.181372 267:-0.337762 268:-0.153065 269:-0.158656 270:0.681628 271:-0.029574 272:-0.191598 273:0.215744 274:-0.21359 275:-0.309721 276:0.587773 277:-0.169189 278:-0.124743 279:0.657222 280:-0.249164 281:-0.178089 282:0.438085 283:-0.270434 284:-0.195103 285:0.0488448 286:-0.0469862 287:-0.363241 288:-0.254646 289:0.161204 290:-0.346571 291:-0.0421235 292:-0.0859641 293:-0.346164 294:-0.327512 295:-0.124228 296:-0.333701 297:-0.258341 298:-0.0280236 299:-0.170874 300:-0.447425 301:0.179541 302:-0.0459237 303:0.0637134 304:-0.24718 305:0.237669 306:0.176654 307:0.123185 308:-0.336707 309:0.0773284 310:0.0743257 311:-0.215762 312:0.139362 313:-0.203094 314:-0.057416 315:-0.0497722 316:-0.199446 317:-0.227065 318:0.254318 319:-0.43247 320:0.0130604 321:0.200454 322:-0.437864 323:-0.0588921 324:0.0452986 325:-0.372354 326:-0.0145345 327:-0.0747873 328:-0.19011 329:0.185304 330:-0.243638 331:0.0335068 332:-0.241291 333:0.00417926 334:-0.245275 335:0.0139474 336:-0.295348 337:-0.2938 338:-0.176807 339:0.123901 340:-0.274954 341:-0.107257 342:-0.0722984 343:-0.217065 344:-0.233965 345:0.264103 346:-0.407373 347:0.209078 348:0.0349189 349:-0.13109 350:-0.180597 351:-0.672231 352:-0.279256 353:0.0328978 354:0.203252 355:-0.239357 356:-0.290748 357:0.0380873 358:-0.20502 359:-0.0378237 360:0.168535 361:-0.150871 362:0.0235538 363:0.436171 364:0.242391 365:-0.236737 366:0.206487 367:0.522968 368:-0.277361 369:-0.740945 370:0.0457346 371:-0.0564199 372:-0.151554 373:0.0990296 374:0.330993 375:0.0145645 376:0.199225 377:0.0280792 378:0.0453052 379:0.289613 380:-0.107499 381:-0.153487 382:0.187817 383:-0.290927 384:-0.0339718 385:0.00073333 386:0.126325 387:0.63627 388:-0.524675 389:-0.216112 390:0.206819 391:0.0563259 392:-0.279985 393:0.12657 394:-0.121988 395:-0.183348 396:0.336127 397:-0.185804 398:-0.175236 399:0.0117709 400:0.270761 401:0.0792283 402:-0.561111 403:-0.283352 404:0.39507 405:0.0717421 406:-0.338031 407:0.245938 408:-0.0247804 409:-0.441373 410:0.350786 411:-0.20577 412:0.0177163 413:0.443396 414:-0.603686 415:-0.0714812 416:-0.235859 417:0.106616 418:-0.324342 419:-0.098076 420:-0.204009 421:0.247448 422:0.284523 423:-0.694341 424:-0.192714 425:-0.190082 426:-0.109445 427:0.33405 428:0.176022 429:-0.617948 430:-0.175545 431:0.578185 432:-0.962698 433:0.272192 434:0.366155 435:0.907945 436:0.0682955 437:0.465544 438:0.359301 439:0.0633289 440:-0.279513 441:0.29102 442:-0.38473 443:-0.306645 444:-0.158473 445:0.0124634 446:-0.282564 447:-0.0437644 448:-0.121679 449:-0.181875 450:0.164737 451:-0.327257 452:-0.11721 453:-0.375154 454:-0.403864 455:0.387714 456:-0.124349 
10.406888939840632 1:0.0582271 2:-1 3:-0.0545255 4:-0.340183 5:-0.321565 6:0.00327959 7:0.0361631 8:-1 9:-0.419511 10:-0.215891 11:-0.216644 12:0.659581 13:0.146339 14:-1 15:-0.4795 16:0.205225 17:-1 18:-0.661454 19:0.171744 20:-0.899394 21:-0.184804 22:-0.0491097 23:-0.626889 24:-0.268605 25:-0.0583883 26:1 27:0.05334 28:0.318766 29:0.316162 30:0.0136095 31:-0.0156289 32:1 33:0.38051 34:0.230407 35:0.261241 36:-0.664902 37:-0.132566 38:1 39:0.4449 40:-0.188175 41:1 42:0.613514 43:-0.158825 44:0.899627 45:0.15997 46:-0.0101723 47:0.551622 48:0.175136 49:-0.219598 50:-1 51:-0.133545 52:-0.525102 53:-0.414201 54:-0.357874 55:-0.293545 56:-1 57:-0.890716 58:-0.589653 59:-0.406226 60:0.188123 61:-0.302298 62:-1 63:-0.74247 64:-0.252577 65:-1 66:-0.829884 67:-0.225446 68:-0.784411 69:-0.602836 70:-0.317268 71:-0.544322 72:-0.461648 73:0.00335623 74:-1 75:0.035921 76:-0.297018 77:-0.210016 78:-0.100943 79:0.193561 80:-1 81:-0.474914 82:-0.0121951 83:0.00565096 84:0.864826 85:0.119793 86:-0.902842 87:-0.50366 88:0.278189 89:-1 90:-0.614813 91:0.0982008 92:-0.691174 93:-0.253781 94:0.0230944 95:-0.540359 96:-0.305276 97:0.207502 98:0.789671 99:0.0610993 100:-0.139557 101:-0.992156 102:0.0421756 103:-0.430652 104:0.0560446 105:0.450155 106:-0.237024 107:-0.735107 108:0.15587 109:-0.121755 110:-0.799796 111:-0.00137596 112:-0.0627111 113:-0.215612 114:-0.0174389 115:0.0801286 116:1 117:0.349153 118:-0.257459 119:0.201772 120:0.275921 121:-0.0765364 122:-0.137682 123:-0.291457 124:-0.311744 125:0.0733511 126:0.0978934 127:-0.288854 128:0.0594304 129:0.223259 130:-0.475189 131:-0.366814 132:-0.210617 133:-0.376444 134:-0.875639 135:-0.358451 136:-0.279003 137:-0.167127 138:0.641517 139:0.106527 140:-1 141:-0.495404 142:0.195343 143:-0.914493 144:-0.50698 145:-0.0407699 146:-0.109668 147:-0.103205 148:-0.017346 149:0.709829 150:0.222678 151:0.143352 152:-0.0703875 153:0.393056 154:0.340007 155:-0.0867758 156:0.0117735 157:0.492351 158:0.181121 159:0.29911 160:0.0606118 161:0.171014 162:0.358326 163:0.302728 164:-0.912847 165:-0.493297 166:-0.0435101 167:-0.0911612 168:-0.279002 169:-0.196199 170:0.697803 171:0.214306 172:0.0163016 173:-0.298161 174:-0.312055 175:-0.135915 176:0.742659 177:0.467302 178:-0.145051 179:0.622833 180:0.673104 181:-0.0359436 182:0.629083 183:0.154865 184:0.330258 185:-0.688005 186:-0.0746076 187:0.726535 188:-0.376321 189:-0.25341 190:0.63929 191:-0.639757 192:-0.132819 193:0.622135 194:-0.729044 195:-0.260689 196:0.47376 197:-0.723444 198:-0.356716 199:-0.160774 200:0.918218 201:0.309649 202:-0.275884 203:0.303348 204:-0.450043 205:-0.254642 206:-0.091667 207:-0.0805321 208:-0.271773 209:0.332383 210:-0.169514 211:-0.178104 212:0.383796 213:-0.129543 214:-0.0515272 215:0.24136 216:0.14863 217:0.207373 218:-0.307308 219:0.0973169 220:0.213481 221:-0.208685 222:-0.0277405 223:0.35632 224:-0.937172 225:-0.525691 226:0.286336 227:-1 228:-0.513882 229:0.314421 230:-0.842977 231:-0.551041 232:-0.0786253 233:0.580599 234:0.296841 235:-0.166924 236:-0.145239 237:0.543599 238:-0.174102 239:-0.29095 240:0.356821 241:0.0505517 242:0.028238 243:0.280565 244:0.00580641 245:0.983429 246:-0.116085 247:0.18318 248:-0.996456 249:-0.53963 250:0.158783 251:-0.692646 252:-0.558118 253:0.0225697 254:0.585313 255:0.194853 256:0.264532 257:-0.941217 258:-0.549183 259:0.0259474 260:0.461363 261:0.504595 262:-0.172982 263:0.278689 264:0.274843 265:0.207502 266:0.789671 267:0.0610993 268:-0.139557 269:-0.992156 270:0.0421756 271:-0.430652 272:0.0560446 273:0.450155 274:-0.237024 275:-0.735107 276:0.15587 277:-0.121755 278:-0.799796 279:-0.00137596 280:-0.0627111 281:-0.215612 282:-0.0174389 283:0.0801286 284:1 285:0.349153 286:-0.257459 287:0.201772 288:0.275921 289:-0.0765364 290:-0.137682 291:-0.291457 292:-0.311744 293:0.0733511 294:0.0978934 295:-0.288854 296:0.0594304 297:0.223259 298:-0.475189 299:-0.366814 300:-0.210617 301:-0.376444 302:-0.875639 303:-0.358451 304:-0.279003 305:-0.167127 306:0.641517 307:0.106527 308:-1 309:-0.495404 310:0.195343 311:-0.914493 312:-0.50698 313:-0.0407699 314:-0.109668 315:-0.103205 316:-0.017346 317:0.709829 318:0.222678 319:0.143352 320:-0.0703875 321:0.393056 322:0.340007 323:-0.0867758 324:0.0117735 325:0.492351 326:0.181121 327:0.29911 328:0.0606118 329:0.171014 330:0.358326 331:0.302728 332:-0.912847 333:-0.493297 334:-0.0435101 335:-0.0911612 336:-0.279002 337:-0.196199 338:0.697803 339:0.214306 340:0.0163016 341:-0.298161 342:-0.312055 343:-0.135915 344:0.742659 345:0.467302 346:-0.145051 347:0.622833 348:0.673104 349:-0.0359436 350:0.629083 351:0.154865 352:0.330258 353:-0.688005 354:-0.0746076 355:0.726535 356:-0.376321 357:-0.25341 358:0.63929 359:-0.639757 360:-0.132819 361:0.622135 362:-0.729044 363:-0.260689 364:0.47376 365:-0.723444 366:-0.356716 367:-0.160774 368:0.918218 369:0.309649 370:-0.275884 371:0.303348 372:-0.450043 373:-0.254642 374:-0.091667 375:-0.0805321 376:-0.271773 377:0.332383 378:-0.169514 379:-0.178104 380:0.383796 381:-0.129543 382:-0.0515272 383:0.24136 384:0.14863 385:0.207373 386:-0.307308 387:0.0973169 388:0.213481 389:-0.208685 390:-0.0277405 391:0.35632 392:-0.937172 393:-0.525691 394:0.286336 395:-1 396:-0.513882 397:0.314421 398:-0.842977 399:-0.551041 400:-0.0786253 401:0.580599 402:0.296841 403:-0.166924 404:-0.145239 405:0.543599 406:-0.174102 407:-0.29095 408:0.356821 409:0.0505517 410:0.028238 411:0.280565 412:0.00580641 413:0.983429 414:-0.116085 415:0.18318 416:-0.996456 417:-0.53963 418:0.158783 419:-0.692646 420:-0.558118 421:0.0225697 422:0.585313 423:0.194853 424:0.264532 425:-0.941217 426:-0.549183 427:0.0259474 428:0.461363 429:0.504595 430:-0.172982 431:0.278689 432:0.274843 433:0.00335623 434:-1 435:0.035921 436:-0.297018 437:-0.210016 438:-0.100943 439:0.193561 440:-1 441:-0.474914 442:-0.0121951 443:0.00565096 444:0.864826 445:0.119793 446:-0.902842 447:-0.50366 448:0.278189 449:-1 450:-0.614813 451:0.0982008 452:-0.691174 453:-0.253781 454:0.0230944 455:-0.540359 456:-0.305276 
9.1794675509869617 1:0.123762 2:-0.0300469 3:0.258944 4:-0.211149 5:-0.347933 6:0.175481 7:0.314822 8:0.125643 9:-0.320303 10:-0.0748277 11:-0.789262 12:-0.194609 13:0.167499 14:-0.140024 15:-0.599146 16:0.377867 17:-0.121377 18:-0.358624 19:-0.00519343 20:-0.98514 21:0.0235068 22:0.383005 23:0.16377 24:-0.147511 25:-0.119675 26:0.0455578 27:-0.273568 28:0.213065 29:0.377704 30:-0.122038 31:-0.306636 32:-0.130614 33:0.270996 34:0.0526169 35:0.763252 36:0.138701 37:-0.168452 38:0.126547 39:0.546832 40:-0.370532 41:0.117021 42:0.320302 43:-0.00270619 44:0.98331 45:-0.0253383 46:-0.404369 47:-0.157589 48:0.148406 49:-0.265409 50:-0.379987 51:0.00821321 52:-0.611172 53:-0.594466 54:-0.420957 55:-0.00446785 56:-0.185312 57:-0.691641 58:-0.427698 59:-0.693334 60:-0.42619 61:-0.177361 62:-0.364906 63:-0.743047 64:-0.0679376 65:-0.418365 66:-0.641193 67:-0.282748 68:-0.952955 69:-0.519469 70:0.0593155 71:0.232843 72:-0.352948 73:0.0617694 74:-0.0510234 75:0.346688 76:-0.198253 77:-0.306075 78:0.0541965 79:0.415184 80:-0.0958585 81:-0.448744 82:0.0906631 83:-0.649154 84:-0.238199 85:0.140622 86:-0.324039 87:-0.632894 88:0.444159 89:-0.266362 90:-0.411201 91:0.0489746 92:-0.915643 93:-0.0809196 94:0.516642 95:0.285101 96:-0.202428 97:0.454691 98:0.369447 99:-0.0438634 100:0.438601 101:-0.0842452 102:0.0767334 103:0.589678 104:-0.160809 105:-0.381227 106:0.420717 107:-0.24556 108:0.0847526 109:0.46758 110:-0.062083 111:0.196288 112:0.065282 113:-0.339698 114:0.14512 115:-0.681496 116:-0.148036 117:0.0827471 118:-0.331513 119:-0.0781316 120:0.403438 121:-0.501344 122:-0.184612 123:0.074191 124:-0.385337 125:0.018528 126:0.288866 127:-0.53335 128:-0.0288571 129:0.234077 130:-0.473926 131:0.347406 132:-0.400193 133:0.479749 134:0.124575 135:-0.269901 136:0.314506 137:0.105285 138:-0.67092 139:0.410367 140:-0.267719 141:-0.618526 142:0.507831 143:-0.242232 144:-0.483621 145:0.00619554 146:-0.529509 147:-0.278638 148:-0.260884 149:-0.453527 150:0.172325 151:0.239291 152:0.219862 153:-0.294363 154:0.481042 155:0.11845 156:-0.298209 157:0.240176 158:-0.464882 159:-0.200036 160:-0.585015 161:-0.313684 162:-0.217432 163:0.326355 164:-0.378614 165:-0.501277 166:-0.119027 167:-0.453549 168:-0.452836 169:-0.248813 170:-0.361299 171:0.0668503 172:-0.0180602 173:-0.673643 174:-0.299592 175:-0.27709 176:-0.501736 177:0.205317 178:-0.185486 179:-0.326905 180:-0.0686582 181:-0.276032 182:0.291654 183:-0.150222 184:0.499241 185:-0.173556 186:0.303717 187:0.808754 188:-0.252167 189:0.116681 190:0.544339 191:-0.277239 192:0.405703 193:0.50297 194:-0.207787 195:0.464209 196:0.306887 197:-0.437121 198:0.411896 199:-0.00824401 200:0.133542 201:0.190674 202:-0.185774 203:0.144969 204:-0.468017 205:-0.399682 206:0.218516 207:-0.222835 208:-0.0925401 209:0.134507 210:-0.403306 211:0.143259 212:0.147049 213:-0.376096 214:0.206238 215:-0.0181998 216:-0.320955 217:-0.0615232 218:-0.437431 219:-0.295704 220:0.337002 221:0.20232 222:-0.267039 223:0.296695 224:-0.208198 225:-0.47183 226:0.337619 227:-0.0794348 228:-0.337569 229:0.0225477 230:-0.355166 231:-0.0874322 232:-0.390716 233:-0.362526 234:0.319577 235:0.0478191 236:0.00656021 237:-0.518135 238:0.233953 239:-0.12216 240:-0.762981 241:0.1229 242:-0.359212 243:-0.430431 244:-0.490166 245:0.199501 246:0.399403 247:0.33312 248:-0.245328 249:-0.555673 250:-0.0508277 251:-0.380869 252:-0.328356 253:-0.301039 254:-0.211867 255:0.18247 256:0.0999754 257:-0.485857 258:-0.113298 259:-0.399463 260:-0.20834 261:0.394268 262:-0.228357 263:0.429748 264:0.416385 265:0.454691 266:0.369447 267:-0.0438634 268:0.438601 269:-0.0842452 270:0.0767334 271:0.589678 272:-0.160809 273:-0.381227 274:0.420717 275:-0.24556 276:0.0847526 277:0.46758 278:-0.062083 279:0.196288 280:0.065282 281:-0.339698 282:0.14512 283:-0.681496 284:-0.148036 285:0.0827471 286:-0.331513 287:-0.0781316 288:0.403438 289:-0.501344 290:-0.184612 291:0.074191 292:-0.385337 293:0.018528 294:0.288866 295:-0.53335 296:-0.0288571 297:0.234077 298:-0.473926 299:0.347406 300:-0.400193 301:0.479749 302:0.124575 303:-0.269901 304:0.314506 305:0.105285 306:-0.67092 307:0.410367 308:-0.267719 309:-0.618526 310:0.507831 311:-0.242232 312:-0.483621 313:0.00619554 314:-0.529509 315:-0.278638 316:-0.260884 317:-0.453527 318:0.172325 319:0.239291 320:0.219862 321:-0.294363 322:0.481042 323:0.11845 324:-0.298209 325:0.240176 326:-0.464882 327:-0.200036 328:-0.585015 329:-0.313684 330:-0.217432 331:0.326355 332:-0.378614 333:-0.501277 334:-0.119027 335:-0.453549 336:-0.452836 337:-0.248813 338:-0.361299 339:0.0668503 340:-0.0180602 341:-0.673643 342:-0.299592 343:-0.27709 344:-0.501736 345:0.205317 346:-0.185486 347:-0.326905 348:-0.0686582 349:-0.276032 350:0.291654 351:-0.150222 352:0.499241 353:-0.173556 354:0.303717 355:0.808754 356:-0.252167 357:0.116681 358:0.544339 359:-0.277239 360:0.405703 361:0.50297 362:-0.207787 363:0.464209 364:0.306887 365:-0.437121 366:0.411896 367:-0.00824401 368:0.133542 369:0.190674 370:-0.185774 371:0.144969 372:-0.468017 373:-0.399682 374:0.218516 375:-0.222835 376:-0.0925401 377:0.134507 378:-0.403306 379:0.143259 380:0.147049 381:-0.376096 382:0.206238 383:-0.0181998 384:-0.320955 385:-0.0615232 386:-0.437431 387:-0.295704 388:0.337002 389:0.20232 390:-0.267039 391:0.296695 392:-0.208198 393:-0.47183 394:0.337619 395:-0.0794348 396:-0.337569 397:0.0225477 398:-0.355166 399:-0.0874322 400:-0.390716 401:-0.362526 402:0.319577 403:0.0478191 404:0.00656021 405:-0.518135 406:0.233953 407:-0.12216 408:-0.762981 409:0.1229 410:-0.359212 411:-0.430431 412:-0.490166 413:0.199501 414:0.399403 415:0.33312 416:-0.245328 417:-0.555673 418:-0.0508277 419:-0.380869 420:-0.328356 421:-0.301039 422:-0.211867 423:0.18247 424:0.0999754 425:-0.485857 426:-0.113298 427:-0.399463 428:-0.20834 429:0.394268 430:-0.228357 431:0.429748 432:0.416385 433:0.0617694 434:-0.0510234 435:0.346688 436:-0.198253 437:-0.306075 438:0.0541965 439:0.415184 440:-0.0958585 441:-0.448744 442:0.0906631 443:-0.649154 444:-0.238199 445:0.140622 446:-0.324039 447:-0.632894 448:0.444159 449:-0.266362 450:-0.411201 451:0.0489746 452:-0.915643 453:-0.0809196 454:0.516642 455:0.285101 456:-0.202428 
4.3549194851402264 1:0.591804 2:0.346638 3:0.359251 4:0.446542 5:0.677113 6:0.145497 7:0.193127 8:0.112197 9:0.262098 10:-0.0445425 11:-0.11927 12:-0.367331 13:0.242603 14:0.0335108 15:0.0064977 16:-0.0114467 17:0.143097 18:0.0763409 19:-0.374397 20:-0.149179 21:-0.112434 22:0.186262 23:-0.00882446 24:0.0118446 25:-0.592135 26:-0.330747 27:-0.376037 28:-0.428139 29:-0.657547 30:-0.0888676 31:-0.190047 32:-0.128154 33:-0.308702 34:0.0423795 35:0.118098 36:0.302398 37:-0.24946 38:-0.0523242 39:-0.0507759 40:0.00859261 41:-0.158427 42:-0.121304 43:0.366025 44:0.140382 45:0.0978657 46:-0.216686 47:0.00142915 48:-0.0266652 49:0.0730655 50:-0.115873 51:0.0602738 52:-0.352331 53:-0.238531 54:-0.516854 55:-0.107569 56:-0.232701 57:-0.369625 58:-0.51164 59:-0.391852 60:-0.677203 61:-0.143352 62:-0.249341 63:-0.34715 64:-0.353229 65:-0.259012 66:-0.406336 67:-0.461871 68:-0.546489 69:-0.575398 70:-0.180973 71:-0.0202297 72:-0.291481 73:0.571267 74:0.353614 75:0.470316 76:0.546264 77:0.676877 78:0.046347 79:0.320445 80:-0.103451 81:0.0889726 82:0.14716 83:0.114528 84:-0.450022 85:0.198856 86:-0.189091 87:-0.1681 88:0.100026 89:-0.00532094 90:-0.01275 91:-0.217542 92:-0.280192 93:-0.183068 94:0.284037 95:0.0908109 96:-0.0429903 97:-0.362253 98:-0.411648 99:-0.0524276 100:0.154349 101:0.404909 102:0.315534 103:-0.0639308 104:0.291653 105:-0.0416434 106:0.0127813 107:0.243191 108:0.231596 109:0.184741 110:0.462511 111:0.322871 112:0.0119534 113:0.473162 114:0.109565 115:-0.503935 116:-0.283121 117:-0.0216083 118:-0.36522 119:-0.713007 120:0.261236 121:0.218916 122:-0.730878 123:-0.0942957 124:-0.274495 125:-0.749989 126:0.209427 127:-0.483014 128:-0.787034 129:0.150136 130:-0.350481 131:-0.81465 132:-0.273727 133:0.495702 134:0.114075 135:0.0361689 136:-0.0607288 137:0.216847 138:-0.217006 139:0.342036 140:-0.14067 141:-0.098381 142:0.313186 143:-0.0518137 144:0.012985 145:-0.205486 146:0.193983 147:-0.0511737 148:-0.37116 149:0.0202112 150:0.0712616 151:0.116161 152:0.365434 153:-0.102296 154:0.187219 155:0.431584 156:-0.194672 157:0.157955 158:0.355396 159:-0.15796 160:-0.333293 161:-0.0614664 162:-0.296404 163:0.220124 164:-0.171221 165:-0.0866998 166:-0.223929 167:0.154846 168:-0.194227 169:-0.347332 170:0.0611329 171:0.0650047 172:-0.212547 173:0.114393 174:-0.0930836 175:-0.297885 176:-0.0834712 177:0.128589 178:-0.0364893 179:-0.232785 180:0.0562434 181:-0.662234 182:-0.252358 183:-0.350663 184:0.0421629 185:-0.0312106 186:0.00727582 187:0.292706 188:0.298974 189:-0.0489899 190:0.0353024 191:-0.131352 192:-0.0658687 193:0.141838 194:-0.00634352 195:0.0701937 196:0.172613 197:-0.165592 198:0.0452938 199:-0.21589 200:-0.575416 201:-0.0907202 202:0.0459369 203:-0.215494 204:-0.00704617 205:-0.0815121 206:-0.371249 207:-0.258967 208:0.180022 209:-0.0727578 210:0.12777 211:0.242139 212:-0.217749 213:0.0454861 214:0.116136 215:-0.363365 216:0.0643767 217:0.234468 218:0.524164 219:0.0301811 220:0.140746 221:0.262749 222:-0.173982 223:0.289975 224:-0.186695 225:-0.0502557 226:0.107726 227:0.00142629 228:0.0779672 229:-0.31116 230:0.0130036 231:-0.154543 232:-0.229731 233:-0.307534 234:0.077612 235:-0.0337688 236:0.186304 237:-0.189842 238:-0.132669 239:0.124128 240:-0.324837 241:-0.188964 242:0.0117766 243:-0.279814 244:-0.124895 245:-0.273715 246:-0.217465 247:0.134843 248:-0.0410821 249:-0.10476 250:-0.377226 251:0.00930831 252:-0.310034 253:-0.153703 254:-0.197333 255:-0.0318547 256:-0.310754 257:-0.0460537 258:-0.183216 259:-0.264971 260:-0.335243 261:0.0974219 262:-0.424811 263:-0.331461 264:-0.0674426 265:-0.362253 266:-0.411648 267:-0.0524276 268:0.154349 269:0.404909 270:0.315534 271:-0.0639308 272:0.291653 273:-0.0416434 274:0.0127813 275:0.243191 276:0.231596 277:0.184741 278:0.462511 279:0.322871 280:0.0119534 281:0.473162 282:0.109565 283:-0.503935 284:-0.283121 285:-0.0216083 286:-0.36522 287:-0.713007 288:0.261236 289:0.218916 290:-0.730878 291:-0.0942957 292:-0.274495 293:-0.749989 294:0.209427 295:-0.483014 296:-0.787034 297:0.150136 298:-0.350481 299:-0.81465 300:-0.273727 301:0.495702 302:0.114075 303:0.0361689 304:-0.0607288 305:0.216847 306:-0.217006 307:0.342036 308:-0.14067 309:-0.098381 310:0.313186 311:-0.0518137 312:0.012985 313:-0.205486 314:0.193983 315:-0.0511737 316:-0.37116 317:0.0202112 318:0.0712616 319:0.116161 320:0.365434 321:-0.102296 322:0.187219 323:0.431584 324:-0.194672 325:0.157955 326:0.355396 327:-0.15796 328:-0.333293 329:-0.0614664 330:-0.296404 331:0.220124 332:-0.171221 333:-0.0866998 334:-0.223929 335:0.154846 336:-0.194227 337:-0.347332 338:0.0611329 339:0.0650047 340:-0.212547 341:0.114393 342:-0.0930836 343:-0.297885 344:-0.0834712 345:0.128589 346:-0.0364893 347:-0.232785 348:0.0562434 349:-0.662234 350:-0.252358 351:-0.350663 352:0.0421629 353:-0.0312106 354:0.00727582 355:0.292706 356:0.298974 357:-0.0489899 358:0.0353024 359:-0.131352 360:-0.0658687 361:0.141838 362:-0.00634352 363:0.0701937 364:0.172613 365:-0.165592 366:0.0452938 367:-0.21589 368:-0.575416 369:-0.0907202 370:0.0459369 371:-0.215494 372:-0.00704617 373:-0.0815121 374:-0.371249 375:-0.258967 376:0.180022 377:-0.0727578 378:0.12777 379:0.242139 380:-0.217749 381:0.0454861 382:0.116136 383:-0.363365 384:0.0643767 385:0.234468 386:0.524164 387:0.0301811 388:0.140746 389:0.262749 390:-0.173982 391:0.289975 392:-0.186695 393:-0.0502557 394:0.107726 395:0.00142629 396:0.0779672 397:-0.31116 398:0.0130036 399:-0.154543 400:-0.229731 401:-0.307534 402:0.077612 403:-0.0337688 404:0.186304 405:-0.189842 406:-0.132669 407:0.124128 408:-0.324837 409:-0.188964 410:0.0117766 411:-0.279814 412:-0.124895 413:-0.273715 414:-0.217465 415:0.134843 416:-0.0410821 417:-0.10476 418:-0.377226 419:0.00930831 420:-0.310034 421:-0.153703 422:-0.197333 423:-0.0318547 424:-0.310754 425:-0.0460537 426:-0.183216 427:-0.264971 428:-0.335243 429:0.0974219 430:-0.424811 431:-0.331461 432:-0.0674426 433:0.571267 434:0.353614 435:0.470316 436:0.546264 437:0.676877 438:0.046347 439:0.320445 440:-0.103451 441:0.0889726 442:0.14716 443:0.114528 444:-0.450022 445:0.198856 446:-0.189091 447:-0.1681 448:0.100026 449:-0.00532094 450:-0.01275 451:-0.217542 452:-0.280192 453:-0.183068 454:0.284037 455:0.0908109 456:-0.0429903 
16.887354304486614 1:0.72912 2:0.765651 3:0.159134 4:0.0349027 5:0.304624 6:-0.140935 7:0.670721 8:-0.0233782 9:0.362874 10:0.369342 11:-0.0882581 12:0.0797474 13:0.801271 14:-0.16215 15:0.272019 16:0.768652 17:0.0611255 18:0.11172 19:0.298003 20:-0.301175 21:-0.357603 22:0.641654 23:0.266544 24:0.295697 25:-0.737342 26:-0.752422 27:-0.202631 28:-0.0327811 29:-0.301059 30:0.175002 31:-0.67278 32:0.00504005 33:-0.418362 34:-0.365924 35:0.108383 36:-0.13927 37:-0.802617 38:0.141614 39:-0.314108 40:-0.771053 41:-0.0799795 42:-0.168176 43:-0.312145 44:0.289935 45:0.332336 46:-0.672342 47:-0.266936 48:-0.30135 49:0.425925 50:0.439989 51:0.161195 52:-0.395065 53:-0.221414 54:-0.440502 55:0.666755 56:0.188238 57:0.35308 58:-0.0924505 59:-0.31226 60:-0.274575 61:0.649398 62:0.104411 63:0.356525 64:0.77921 65:0.177849 66:0.170003 67:-0.0828786 68:-0.528994 69:-0.635671 70:0.77271 71:0.841387 72:0.456696 73:0.653493 74:0.752833 75:0.240573 76:0.0444655 77:0.284426 78:-0.213796 79:0.71364 80:-0.226395 81:0.184588 82:0.616554 83:0.190092 84:0.123333 85:0.642006 86:-0.336969 87:0.0513833 88:0.815209 89:-0.0874898 90:0.0209241 91:0.231101 92:-0.389649 93:-0.387686 94:0.870253 95:0.424831 96:0.271592 97:-0.36857 98:-0.0857005 99:0.156348 100:0.332114 101:0.341238 102:0.309382 103:0.500715 104:0.346967 105:0.147686 106:0.306132 107:0.117455 108:0.318253 109:0.426079 110:0.42917 111:0.24219 112:0.541103 113:0.256379 114:-0.0592878 115:-0.743268 116:-0.427039 117:-0.0769091 118:-0.45596 119:-0.651903 120:-0.0421662 121:-0.323395 122:-0.318686 123:-0.38611 124:-0.512639 125:-0.556247 126:-0.223493 127:-0.601243 128:-0.64774 129:-0.0172942 130:-0.629603 131:-0.297795 132:-0.187938 133:0.509393 134:0.346938 135:0.0301691 136:0.620969 137:0.580955 138:0.354088 139:0.769147 140:-0.349962 141:0.0159611 142:0.845417 143:-0.173938 144:-0.0069942 145:0.262388 146:-0.112802 147:-0.378169 148:-0.879015 149:-0.568669 150:-0.226909 151:0.612059 152:0.578461 153:0.511484 154:0.669261 155:0.598183 156:0.315598 157:0.335135 158:0.210995 159:0.168831 160:-0.945494 161:-0.554426 162:-0.451111 163:0.873889 164:-0.250927 165:0.0679716 166:0.211007 167:-0.0925106 168:-0.411948 169:-0.930526 170:-0.582579 171:-0.322949 172:0.278855 173:-0.163258 174:-0.366303 175:-0.966708 176:-0.668698 177:-0.147535 178:-0.689957 179:-0.482685 180:0.0366758 181:-0.442788 182:-0.530893 183:-0.0260769 184:0.722859 185:0.227789 186:0.099956 187:0.730318 188:0.486052 189:0.209772 190:0.944405 191:0.143968 192:0.339924 193:0.950354 194:0.289161 195:0.300097 196:1 197:0.1365 198:0.0847719 199:-0.140838 200:-0.597456 201:-0.236033 202:-0.481744 203:0.0387089 204:-0.227949 205:-0.503669 206:-0.254613 207:-0.312985 208:-0.484827 209:0.086881 210:-0.265093 211:-0.361247 212:0.00782131 213:-0.19388 214:-0.413592 215:-0.221865 216:-0.0307858 217:0.140646 218:-0.0578859 219:0.0275165 220:0.644924 221:0.465403 222:0.425218 223:0.804312 224:-0.259286 225:0.208439 226:0.668131 227:-0.0742952 228:0.232641 229:0.372419 230:0.0381704 231:0.0680641 232:-0.268454 233:-0.205093 234:0.0229941 235:0.60411 236:0.61509 237:0.463428 238:0.656648 239:0.572494 240:0.15537 241:0.424013 242:0.0489915 243:0.0443912 244:-0.715488 245:-0.959828 246:-0.363958 247:0.690644 248:-0.206754 249:0.046898 250:0.197087 251:-0.0365456 252:-0.0817356 253:-0.294675 254:-0.152238 255:-0.1196 256:0.360835 257:-0.0316739 258:-0.0918243 259:-0.346624 260:-0.253922 261:-0.0139777 262:-0.48142 263:-0.0755291 264:-0.171893 265:-0.36857 266:-0.0857005 267:0.156348 268:0.332114 269:0.341238 270:0.309382 271:0.500715 272:0.346967 273:0.147686 274:0.306132 275:0.117455 276:0.318253 277:0.426079 278:0.42917 279:0.24219 280:0.541103 281:0.256379 282:-0.0592878 283:-0.743268 284:-0.427039 285:-0.0769091 286:-0.45596 287:-0.651903 288:-0.0421662 289:-0.323395 290:-0.318686 291:-0.38611 292:-0.512639 293:-0.556247 294:-0.223493 295:-0.601243 296:-0.64774 297:-0.0172942 298:-0.629603 299:-0.297795 300:-0.187938 301:0.509393 302:0.346938 303:0.0301691 304:0.620969 305:0.580955 306:0.354088 307:0.769147 308:-0.349962 309:0.0159611 310:0.845417 311:-0.173938 312:-0.0069942 313:0.262388 314:-0.112802 315:-0.378169 316:-0.879015 317:-0.568669 318:-0.226909 319:0.612059 320:0.578461 321:0.511484 322:0.669261 323:0.598183 324:0.315598 325:0.335135 326:0.210995 327:0.168831 328:-0.945494 329:-0.554426 330:-0.451111 331:0.873889 332:-0.250927 333:0.0679716 334:0.211007 335:-0.0925106 336:-0.411948 337:-0.930526 338:-0.582579 339:-0.322949 340:0.278855 341:-0.163258 342:-0.366303 343:-0.966708 344:-0.668698 345:-0.147535 346:-0.689957 347:-0.482685 348:0.0366758 349:-0.442788 350:-0.530893 351:-0.0260769 352:0.722859 353:0.227789 354:0.099956 355:0.730318 356:0.486052 357:0.209772 358:0.944405 359:0.143968 360:0.339924 361:0.950354 362:0.289161 363:0.300097 364:1 365:0.1365 366:0.0847719 367:-0.140838 368:-0.597456 369:-0.236033 370:-0.481744 371:0.0387089 372:-0.227949 373:-0.503669 374:-0.254613 375:-0.312985 376:-0.484827 377:0.086881 378:-0.265093 379:-0.361247 380:0.00782131 381:-0.19388 382:-0.413592 383:-0.221865 384:-0.0307858 385:0.140646 386:-0.0578859 387:0.0275165 388:0.644924 389:0.465403 390:0.425218 391:0.804312 392:-0.259286 393:0.208439 394:0.668131 395:-0.0742952 396:0.232641 397:0.372419 398:0.0381704 399:0.0680641 400:-0.268454 401:-0.205093 402:0.0229941 403:0.60411 404:0.61509 405:0.463428 406:0.656648 407:0.572494 408:0.15537 409:0.424013 410:0.0489915 411:0.0443912 412:-0.715488 413:-0.959828 414:-0.363958 415:0.690644 416:-0.206754 417:0.046898 418:0.197087 419:-0.0365456 420:-0.0817356 421:-0.294675 422:-0.152238 423:-0.1196 424:0.360835 425:-0.0316739 426:-0.0918243 427:-0.346624 428:-0.253922 429:-0.0139777 430:-0.48142 431:-0.0755291 432:-0.171893 433:0.653493 434:0.752833 435:0.240573 436:0.0444655 437:0.284426 438:-0.213796 439:0.71364 440:-0.226395 441:0.184588 442:0.616554 443:0.190092 444:0.123333 445:0.642006 446:-0.336969 447:0.0513833 448:0.815209 449:-0.0874898 450:0.0209241 451:0.231101 452:-0.389649 453:-0.387686 454:0.870253 455:0.424831 456:0.271592 
11.225351069513772 1:0.0250108 2:-0.312393 3:0.0386654 4:-0.0283154 5:0.053121 6:-0.228392 7:0.406663 8:-0.513456 9:0.444923 10:-0.272745 11:-0.756645 12:-0.498834 13:0.320266 14:-0.536214 15:0.365142 16:0.343275 17:-0.385687 18:0.229096 19:-0.745446 20:-0.554032 21:-0.164019 22:-0.12358 23:-0.0931611 24:-0.0048749 25:-0.0251217 26:0.326739 27:-0.0471591 28:0.0372833 29:-0.0467061 30:0.241359 31:-0.399854 32:0.491147 33:-0.50198 34:0.276527 35:0.761703 36:0.454021 37:-0.318952 38:0.511013 39:-0.41554 40:-0.335336 41:0.372617 42:-0.281868 43:0.747219 44:0.572261 45:0.139882 46:0.0744696 47:0.0662231 48:-0.0380718 49:-0.408519 50:-0.668207 51:-0.204392 52:-0.533622 53:-0.441202 54:-0.622495 55:0.167185 56:-0.476837 57:-0.0537682 58:-0.535229 59:-0.624644 60:-0.582125 61:0.0618283 62:-0.499467 63:0.0682967 64:0.00573536 65:-0.562613 66:-0.207561 67:-0.721401 68:-0.813951 69:-0.604884 70:-0.355243 71:-0.0385646 72:-0.261595 73:-0.0471891 74:-0.369377 75:0.122094 76:-0.00682202 77:0.0557845 78:-0.301455 79:0.484723 80:-0.658444 81:0.251765 82:-0.0760175 83:-0.561444 84:-0.515709 85:0.267712 86:-0.639791 87:0.132458 88:0.437805 89:-0.551793 90:0.142322 91:-0.590503 92:-0.708214 93:-0.228669 94:-0.0445827 95:0.00818777 96:-0.0673028 97:-0.0453788 98:0.562561 99:0.267584 100:0.859763 101:-0.608564 102:0.231228 103:0.7767 104:-0.458064 105:-0.319987 106:1 107:-0.683511 108:0.161898 109:0.766074 110:-0.545605 111:0.218825 112:0.282903 113:-0.620973 114:-0.0522461 115:-0.281376 116:0.0171153 117:0.232962 118:-0.473569 119:-0.157888 120:-0.138998 121:-0.273101 122:0.0741946 123:-0.235121 124:-0.608248 125:-0.132285 126:-0.21397 127:-0.459025 128:-0.265994 129:-0.174924 130:-0.159548 131:-0.128579 132:-0.248935 133:-0.0966656 134:0.112228 135:-0.0687123 136:0.152095 137:-0.0824365 138:-0.355254 139:0.558541 140:-0.726506 141:0.0564234 142:0.496137 143:-0.624407 144:0.111232 145:-0.165762 146:-0.65225 147:-0.299495 148:-0.0271276 149:-0.277389 150:-0.0611268 151:0.113044 152:-0.35848 153:0.625674 154:0.0504875 155:-0.345481 156:0.480364 157:-0.144712 158:-0.636843 159:-0.0830155 160:-0.102279 161:-0.149839 162:-0.603885 163:0.310307 164:-0.600916 165:0.220955 166:-0.34787 167:-0.4829 168:-0.315597 169:-0.108832 170:-0.28191 171:-0.240624 172:-0.303019 173:-0.807299 174:-0.315491 175:-0.0745011 176:-0.429923 177:0.0282081 178:-0.283633 179:-0.558391 180:-0.00593315 181:0.285387 182:0.0236224 183:-0.295089 184:-0.542117 185:-0.446428 186:-0.347565 187:-1 188:-0.0406818 189:0.108866 190:-0.616054 191:-0.387515 192:-0.204084 193:-0.526372 194:-0.454381 195:-0.340409 196:-0.682279 197:-0.199621 198:-0.0613916 199:-0.58325 200:0.769745 201:0.233468 202:0.655598 203:0.760443 204:0.128934 205:0.468298 206:0.240639 207:-0.231727 208:0.903645 209:0.806494 210:0.101708 211:0.88125 212:0.775607 213:0.170976 214:0.840083 215:0.201634 216:0.165914 217:0.601082 218:-0.548854 219:-0.204481 220:-0.00663381 221:-0.446442 222:0.593734 223:0.373591 224:-0.616866 225:0.302942 226:0.483629 227:-0.517556 228:0.312865 229:0.279937 230:-0.380325 231:0.299215 232:-0.416331 233:0.0640454 234:0.661287 235:0.00463385 236:-0.0581196 237:-0.302716 238:0.181012 239:-0.261643 240:-0.454493 241:0.249157 242:-0.330017 243:-0.357123 244:-0.348096 245:0.109813 246:-0.00543404 247:0.542267 248:-0.597594 249:0.108762 250:0.19955 251:-0.390854 252:0.0930705 253:-0.330112 254:0.0650983 255:0.523168 256:0.0686019 257:-0.350229 258:0.193233 259:-0.522643 260:0.195973 261:0.683163 262:-0.95401 263:0.773932 264:0.458623 265:-0.0453788 266:0.562561 267:0.267584 268:0.859763 269:-0.608564 270:0.231228 271:0.7767 272:-0.458064 273:-0.319987 274:1 275:-0.683511 276:0.161898 277:0.766074 278:-0.545605 279:0.218825 280:0.282903 281:-0.620973 282:-0.0522461 283:-0.281376 284:0.0171153 285:0.232962 286:-0.473569 287:-0.157888 288:-0.138998 289:-0.273101 290:0.0741946 291:-0.235121 292:-0.608248 293:-0.132285 294:-0.21397 295:-0.459025 296:-0.265994 297:-0.174924 298:-0.159548 299:-0.128579 300:-0.248935 301:-0.0966656 302:0.112228 303:-0.0687123 304:0.152095 305:-0.0824365 306:-0.355254 307:0.558541 308:-0.726506 309:0.0564234 310:0.496137 311:-0.624407 312:0.111232 313:-0.165762 314:-0.65225 315:-0.299495 316:-0.0271276 317:-0.277389 318:-0.0611268 319:0.113044 320:-0.35848 321:0.625674 322:0.0504875 323:-0.345481 324:0.480364 325:-0.144712 326:-0.636843 327:-0.0830155 328:-0.102279 329:-0.149839 330:-0.603885 331:0.310307 332:-0.600916 333:0.220955 334:-0.34787 335:-0.4829 336:-0.315597 337:-0.108832 338:-0.28191 339:-0.240624 340:-0.303019 341:-0.807299 342:-0.315491 343:-0.0745011 344:-0.429923 345:0.0282081 346:-0.283633 347:-0.558391 348:-0.00593315 349:0.285387 350:0.0236224 351:-0.295089 352:-0.542117 353:-0.446428 354:-0.347565 355:-1 356:-0.0406818 357:0.108866 358:-0.616054 359:-0.387515 360:-0.204084 361:-0.526372 362:-0.454381 363:-0.340409 364:-0.682279 365:-0.199621 366:-0.0613916 367:-0.58325 368:0.769745 369:0.233468 370:0.655598 371:0.760443 372:0.128934 373:0.468298 374:0.240639 375:-0.231727 376:0.903645 377:0.806494 378:0.101708 379:0.88125 380:0.775607 381:0.170976 382:0.840083 383:0.201634 384:0.165914 385:0.601082 386:-0.548854 387:-0.204481 388:-0.00663381 389:-0.446442 390:0.593734 391:0.373591 392:-0.616866 393:0.302942 394:0.483629 395:-0.517556 396:0.312865 397:0.279937 398:-0.380325 399:0.299215 400:-0.416331 401:0.0640454 402:0.661287 403:0.00463385 404:-0.0581196 405:-0.302716 406:0.181012 407:-0.261643 408:-0.454493 409:0.249157 410:-0.330017 411:-0.357123 412:-0.348096 413:0.109813 414:-0.00543404 415:0.542267 416:-0.597594 417:0.108762 418:0.19955 419:-0.390854 420:0.0930705 421:-0.330112 422:0.0650983 423:0.523168 424:0.0686019 425:-0.350229 426:0.193233 427:-0.522643 428:0.195973 429:0.683163 430:-0.95401 431:0.773932 432:0.458623 433:-0.0471891 434:-0.369377 435:0.122094 436:-0.00682202 437:0.0557845 438:-0.301455 439:0.484723 440:-0.658444 441:0.251765 442:-0.0760175 443:-0.561444 444:-0.515709 445:0.267712 446:-0.639791 447:0.132458 448:0.437805 449:-0.551793 450:0.142322 451:-0.590503 452:-0.708214 453:-0.228669 454:-0.0445827 455:0.00818777 456:-0.0673028 
7.6963337154354363 1:0.301539 2:0.433711 3:-0.504276 4:0.174161 5:0.510727 6:-0.439598 7:0.213156 8:-0.0621719 9:-0.0900989 10:-0.247339 11:0.116197 12:0.0163417 13:0.406515 14:-0.321155 15:-0.281634 16:0.207855 17:0.0617387 18:-0.226389 19:0.179798 20:0.0908173 21:-0.477732 22:-0.00274273 23:0.191413 24:0.0354997 25:-0.309351 26:-0.432015 27:0.493429 28:-0.180758 29:-0.535996 30:0.42225 31:-0.216928 32:0.0242761 33:-0.0335307 34:0.249596 35:-0.0804571 36:-0.0500043 37:-0.418351 38:0.286405 39:0.19265 40:-0.215493 41:-0.0920052 42:0.149274 43:-0.175917 44:-0.0616795 45:0.504338 46:-0.029633 47:-0.198665 48:-0.0343066 49:0.193601 50:0.255369 51:-0.168258 52:-0.350813 53:-0.16056 54:-0.605353 55:-0.11719 56:-0.354181 57:-0.558681 58:-0.679886 59:-0.265175 60:-0.40723 61:-0.146461 62:-0.556418 63:-0.589827 64:-0.213753 65:-0.318338 66:-0.563055 67:-0.232002 68:-0.46544 69:-0.743212 70:-0.282488 71:0.250902 72:-0.214016 73:0.228962 74:0.398004 75:-0.321497 76:0.189203 77:0.468652 78:-0.467155 79:0.312941 80:-0.267892 81:-0.198231 82:-0.0512366 83:0.359385 84:-0.00661351 85:0.295828 86:-0.453521 87:-0.373961 88:0.282332 89:-0.100345 90:-0.268239 91:0.120323 92:-0.137917 93:-0.445455 94:0.0624016 95:0.323878 96:-0.0146831 97:-0.445299 98:-0.438991 99:0.547519 100:-0.269738 101:0.208313 102:-0.0672889 103:-0.222995 104:-0.410239 105:0.209102 106:-0.391754 107:-0.0240147 108:-0.0105779 109:-0.275135 110:0.269072 111:-0.18685 112:-0.224664 113:0.313472 114:-0.25291 115:-0.0223427 116:-0.150914 117:0.578755 118:0.122002 119:-0.747823 120:0.370213 121:0.268 122:0.0580422 123:-0.406879 124:0.0976966 125:-0.667543 126:0.198123 127:-0.0358032 128:-0.726861 129:0.431978 130:-0.104694 131:-0.429122 132:0.103041 133:-0.124502 134:0.341644 135:-0.432463 136:-0.332771 137:-0.787973 138:-0.786869 139:0.323005 140:-0.480772 141:-0.3412 142:0.432619 143:-0.225482 144:-0.373409 145:-0.102511 146:-0.163307 147:-0.479271 148:-0.418433 149:-0.336758 150:0.70871 151:-0.0470285 152:0.414531 153:-0.0916237 154:0.127383 155:0.507333 156:-0.251189 157:-0.274291 158:0.135108 159:-0.748301 160:-0.92005 161:-0.690096 162:-0.68383 163:0.511005 164:-0.279891 165:-0.339562 166:-0.0477126 167:-0.146032 168:-0.614793 169:-0.505731 170:-0.300277 171:0.561162 172:-0.0184343 173:-0.183511 174:-0.471608 175:-0.266258 176:-0.41195 177:0.855376 178:0.0695006 179:-0.182007 180:0.778763 181:-0.126762 182:-0.312065 183:0.393866 184:0.112072 185:0.205522 186:-0.434157 187:0.357721 188:0.518015 189:-0.231433 190:0.225519 191:0.137697 192:-0.354415 193:0.290928 194:0.27552 195:-0.447821 196:0.434631 197:-0.00621009 198:-0.426438 199:0.127139 200:-0.601707 201:0.0588313 202:0.0304486 203:-0.097698 204:0.389933 205:-0.430737 206:-0.640758 207:0.278177 208:0.186354 209:0.0538341 210:0.429765 211:0.111735 212:-0.17102 213:0.407894 214:-0.241864 215:-0.258188 216:0.369634 217:0.240634 218:0.72658 219:-0.234728 220:0.0702303 221:0.430049 222:-0.173535 223:0.410873 224:-0.306373 225:-0.264078 226:0.162921 227:-0.116063 228:-0.0822774 229:-0.0970687 230:0.228457 231:-0.101292 232:0.0587111 233:-0.0151441 234:-0.00575424 235:-0.302619 236:-0.901604 237:-1 238:-0.398846 239:-0.970056 240:-1 241:-0.211909 242:-0.722565 243:-1 244:0.122173 245:0.00551657 246:-1 247:0.176747 248:-0.332536 249:-0.237011 250:-0.19606 251:0.214782 252:-0.154213 253:0.139811 254:0.225319 255:-0.0517551 256:-0.0513752 257:0.284688 258:-0.155652 259:0.137679 260:-0.0249675 261:0.246893 262:0.22424 263:-0.0217658 264:0.0262467 265:-0.445299 266:-0.438991 267:0.547519 268:-0.269738 269:0.208313 270:-0.0672889 271:-0.222995 272:-0.410239 273:0.209102 274:-0.391754 275:-0.0240147 276:-0.0105779 277:-0.275135 278:0.269072 279:-0.18685 280:-0.224664 281:0.313472 282:-0.25291 283:-0.0223427 284:-0.150914 285:0.578755 286:0.122002 287:-0.747823 288:0.370213 289:0.268 290:0.0580422 291:-0.406879 292:0.0976966 293:-0.667543 294:0.198123 295:-0.0358032 296:-0.726861 297:0.431978 298:-0.104694 299:-0.429122 300:0.103041 301:-0.124502 302:0.341644 303:-0.432463 304:-0.332771 305:-0.787973 306:-0.786869 307:0.323005 308:-0.480772 309:-0.3412 310:0.432619 311:-0.225482 312:-0.373409 313:-0.102511 314:-0.163307 315:-0.479271 316:-0.418433 317:-0.336758 318:0.70871 319:-0.0470285 320:0.414531 321:-0.0916237 322:0.127383 323:0.507333 324:-0.251189 325:-0.274291 326:0.135108 327:-0.748301 328:-0.92005 329:-0.690096 330:-0.68383 331:0.511005 332:-0.279891 333:-0.339562 334:-0.0477126 335:-0.146032 336:-0.614793 337:-0.505731 338:-0.300277 339:0.561162 340:-0.0184343 341:-0.183511 342:-0.471608 343:-0.266258 344:-0.41195 345:0.855376 346:0.0695006 347:-0.182007 348:0.778763 349:-0.126762 350:-0.312065 351:0.393866 352:0.112072 353:0.205522 354:-0.434157 355:0.357721 356:0.518015 357:-0.231433 358:0.225519 359:0.137697 360:-0.354415 361:0.290928 362:0.27552 363:-0.447821 364:0.434631 365:-0.00621009 366:-0.426438 367:0.127139 368:-0.601707 369:0.0588313 370:0.0304486 371:-0.097698 372:0.389933 373:-0.430737 374:-0.640758 375:0.278177 376:0.186354 377:0.0538341 378:0.429765 379:0.111735 380:-0.17102 381:0.407894 382:-0.241864 383:-0.258188 384:0.369634 385:0.240634 386:0.72658 387:-0.234728 388:0.0702303 389:0.430049 390:-0.173535 391:0.410873 392:-0.306373 393:-0.264078 394:0.162921 395:-0.116063 396:-0.0822774 397:-0.0970687 398:0.228457 399:-0.101292 400:0.0587111 401:-0.0151441 402:-0.00575424 403:-0.302619 404:-0.901604 405:-1 406:-0.398846 407:-0.970056 408:-1 409:-0.211909 410:-0.722565 411:-1 412:0.122173 413:0.00551657 414:-1 415:0.176747 416:-0.332536 417:-0.237011 418:-0.19606 419:0.214782 420:-0.154213 421:0.139811 422:0.225319 423:-0.0517551 424:-0.0513752 425:0.284688 426:-0.155652 427:0.137679 428:-0.0249675 429:0.246893 430:0.22424 431:-0.0217658 432:0.0262467 433:0.228962 434:0.398004 435:-0.321497 436:0.189203 437:0.468652 438:-0.467155 439:0.312941 440:-0.267892 441:-0.198231 442:-0.0512366 443:0.359385 444:-0.00661351 445:0.295828 446:-0.453521 447:-0.373961 448:0.282332 449:-0.100345 450:-0.268239 451:0.120323 452:-0.137917 453:-0.445455 454:0.0624016 455:0.323878 456:-0.0146831 
20.420221545053625 1:0.321877 2:0.0820534 3:-0.191066 4:-0.181568 5:0.283851 6:-0.213545 7:0.67087 8:-0.090077 9:0.290039 10:-0.471718 11:-0.269934 12:-0.497832 13:0.723493 14:-0.156836 15:0.153739 16:0.82891 17:0.0655525 18:0.188419 19:0.229492 20:0.0457887 21:-0.0787341 22:-0.0506972 23:0.0222387 24:-0.134067 25:-0.320357 26:-0.0607495 27:0.185881 28:0.191361 29:-0.270396 30:0.251279 31:-0.680109 32:0.054545 33:-0.349121 34:0.464941 35:0.272924 36:0.439734 37:-0.735039 38:0.117368 39:-0.202847 40:-0.828488 41:-0.0899471 42:-0.229658 43:-0.228751 44:-0.034375 45:0.0801241 46:0.0265343 47:-0.0204168 48:0.120234 49:-0.167771 50:-0.341711 51:-0.368197 52:-0.642431 53:-0.375497 54:-0.655435 55:0.146669 56:-0.384984 57:-0.36552 58:-0.820982 59:-0.471574 60:-0.76245 61:0.0927449 62:-0.41085 63:-0.27222 64:0.211634 65:-0.306726 66:-0.325395 67:-0.154926 68:-0.454336 69:-0.566214 70:-0.386825 71:-0.00240868 72:-0.420258 73:0.266655 74:0.0644577 75:-0.113217 76:-0.175822 77:0.2768 78:-0.299736 79:0.750394 80:-0.286707 81:0.123735 82:-0.269559 83:-0.0701639 84:-0.620812 85:0.587781 86:-0.331959 87:-0.0438473 88:0.867992 89:-0.0834107 90:0.093438 91:0.231598 92:-0.118849 93:-0.157262 94:0.00991049 95:0.125552 96:-0.1883 97:0.0198899 98:-0.0231592 99:0.230308 100:0.539328 101:-0.172893 102:0.198008 103:0.128899 104:-0.14153 105:-0.627517 106:0.578257 107:-0.243353 108:0.175373 109:0.605532 110:-0.0710414 111:0.179753 112:0.407425 113:0.297422 114:-0.245972 115:-0.304594 116:0.324854 117:0.0863779 118:-0.721943 119:-0.33341 120:0.192224 121:-0.232661 122:-0.289112 123:0.839448 124:-0.803833 125:-0.336773 126:0.122816 127:-0.849053 128:-0.389138 129:0.170426 130:-0.596444 131:-0.457184 132:0.0349086 133:0.454481 134:-0.0205392 135:-0.140133 136:0.244335 137:0.257451 138:-0.583729 139:0.851793 140:-0.321589 141:0.0297452 142:0.840244 143:-0.11086 144:0.0606183 145:0.315477 146:0.65369 147:-0.0712563 148:-0.107015 149:0.133845 150:0.436905 151:-0.0624223 152:-0.553502 153:-0.00811917 154:-0.178626 155:-0.498565 156:-0.117404 157:-0.255164 158:0.0146955 159:-0.261261 160:0.00307473 161:0.214957 162:0.0188122 163:0.716698 164:-0.203882 165:-0.012374 166:0.23335 167:0.520016 168:-0.090002 169:-0.114936 170:0.160795 171:0.476606 172:0.339759 173:0.569338 174:-0.058686 175:-0.139513 176:0.198592 177:0.538979 178:-0.313319 179:0.353556 180:0.206153 181:-0.229819 182:0.0845418 183:0.276906 184:0.0400561 185:0.146092 186:-0.36047 187:-0.923505 188:0.138749 189:-0.155518 190:0.0472711 191:0.0878022 192:-0.250174 193:0.202676 194:0.0464624 195:-0.312045 196:0.322959 197:-0.284066 198:-0.0234388 199:0.293022 200:-0.241429 201:0.638883 202:-0.0565574 203:-0.0305684 204:-0.180574 205:1 206:-0.206945 207:0.18076 208:0.128447 209:0.0529125 210:-0.173253 211:0.088016 212:0.0140847 213:-0.102802 214:0.0897241 215:-0.0375218 216:-0.0199754 217:0.106205 218:0.279295 219:-0.492402 220:-0.23947 221:-0.723602 222:-0.148762 223:0.689964 224:-0.331233 225:-0.00233205 226:0.783241 227:-0.197978 228:0.175867 229:0.588082 230:-0.298667 231:0.0507036 232:-0.175228 233:-0.0474884 234:0.117262 235:0.210654 236:0.239752 237:-0.339942 238:0.212318 239:0.150035 240:-0.578243 241:-0.00591243 242:-0.0744218 243:-0.508656 244:-0.182551 245:-0.677338 246:0.300111 247:0.851188 248:-0.205507 249:0.0992055 250:0.421126 251:-0.20044 252:-0.0510117 253:-0.213756 254:-0.00470063 255:-0.0504171 256:0.495503 257:-0.259861 258:0.0104119 259:-0.176385 260:-0.165645 261:0.223286 262:-0.227871 263:-0.474035 264:0.327063 265:0.0198899 266:-0.0231592 267:0.230308 268:0.539328 269:-0.172893 270:0.198008 271:0.128899 272:-0.14153 273:-0.627517 274:0.578257 275:-0.243353 276:0.175373 277:0.605532 278:-0.0710414 279:0.179753 280:0.407425 281:0.297422 282:-0.245972 283:-0.304594 284:0.324854 285:0.0863779 286:-0.721943 287:-0.33341 288:0.192224 289:-0.232661 290:-0.289112 291:0.839448 292:-0.803833 293:-0.336773 294:0.122816 295:-0.849053 296:-0.389138 297:0.170426 298:-0.596444 299:-0.457184 300:0.0349086 301:0.454481 302:-0.0205392 303:-0.140133 304:0.244335 305:0.257451 306:-0.583729 307:0.851793 308:-0.321589 309:0.0297452 310:0.840244 311:-0.11086 312:0.0606183 313:0.315477 314:0.65369 315:-0.0712563 316:-0.107015 317:0.133845 318:0.436905 319:-0.0624223 320:-0.553502 321:-0.00811917 322:-0.178626 323:-0.498565 324:-0.117404 325:-0.255164 326:0.0146955 327:-0.261261 328:0.00307473 329:0.214957 330:0.0188122 331:0.716698 332:-0.203882 333:-0.012374 334:0.23335 335:0.520016 336:-0.090002 337:-0.114936 338:0.160795 339:0.476606 340:0.339759 341:0.569338 342:-0.058686 343:-0.139513 344:0.198592 345:0.538979 346:-0.313319 347:0.353556 348:0.206153 349:-0.229819 350:0.0845418 351:0.276906 352:0.0400561 353:0.146092 354:-0.36047 355:-0.923505 356:0.138749 357:-0.155518 358:0.0472711 359:0.0878022 360:-0.250174 361:0.202676 362:0.0464624 363:-0.312045 364:0.322959 365:-0.284066 366:-0.0234388 367:0.293022 368:-0.241429 369:0.638883 370:-0.0565574 371:-0.0305684 372:-0.180574 373:1 374:-0.206945 375:0.18076 376:0.128447 377:0.0529125 378:-0.173253 379:0.088016 380:0.0140847 381:-0.102802 382:0.0897241 383:-0.0375218 384:-0.0199754 385:0.106205 386:0.279295 387:-0.492402 388:-0.23947 389:-0.723602 390:-0.148762 391:0.689964 392:-0.331233 393:-0.00233205 394:0.783241 395:-0.197978 396:0.175867 397:0.588082 398:-0.298667 399:0.0507036 400:-0.175228 401:-0.0474884 402:0.117262 403:0.210654 404:0.239752 405:-0.339942 406:0.212318 407:0.150035 408:-0.578243 409:-0.00591243 410:-0.0744218 411:-0.508656 412:-0.182551 413:-0.677338 414:0.300111 415:0.851188 416:-0.205507 417:0.0992055 418:0.421126 419:-0.20044 420:-0.0510117 421:-0.213756 422:-0.00470063 423:-0.0504171 424:0.495503 425:-0.259861 426:0.0104119 427:-0.176385 428:-0.165645 429:0.223286 430:-0.227871 431:-0.474035 432:0.327063 433:0.266655 434:0.0644577 435:-0.113217 436:-0.175822 437:0.2768 438:-0.299736 439:0.750394 440:-0.286707 441:0.123735 442:-0.269559 443:-0.0701639 444:-0.620812 445:0.587781 446:-0.331959 447:-0.0438473 448:0.867992 449:-0.0834107 450:0.093438 451:0.231598 452:-0.118849 453:-0.157262 454:0.00991049 455:0.125552 456:-0.1883 
28.233805564281486 1:0.434923 2:-0.113068 3:0.292238 4:0.274443 5:0.103977 6:0.0729578 7:0.111644 8:0.0391717 9:0.305209 10:-0.358192 11:-0.619615 12:-0.206512 13:0.113394 14:-0.0238117 15:0.0130596 16:0.215753 17:0.0897078 18:0.150952 19:-0.216476 20:-0.202003 21:-0.128545 22:-0.0914006 23:-0.153802 24:0.143754 25:-0.436815 26:0.124552 27:-0.304267 28:-0.253766 29:-0.0756922 30:-0.0240116 31:-0.110034 32:-0.0699821 33:-0.375891 34:0.352719 35:0.612863 36:0.153889 37:-0.123804 38:-0.013922 39:-0.0799013 40:-0.217894 41:-0.120252 42:-0.213897 43:0.210825 44:0.170291 45:0.0967317 46:0.0623491 47:0.146141 48:-0.152294 49:-0.0312598 50:-0.434487 51:0.0282676 52:-0.401474 53:-0.447416 54:-0.50102 55:-0.190798 56:-0.32932 57:-0.397583 58:-0.751775 59:-0.734563 60:-0.553048 61:-0.281698 62:-0.369862 63:-0.418225 64:-0.223413 65:-0.315867 66:-0.376488 67:-0.374328 68:-0.57163 69:-0.591835 70:-0.385085 71:-0.143822 72:-0.192727 73:0.373564 74:-0.125687 75:0.372769 76:0.333275 77:0.0985444 78:-0.0275249 79:0.248651 80:-0.182529 81:0.116871 82:-0.154445 83:-0.510392 84:-0.256145 85:0.100109 86:-0.243355 87:-0.165106 88:0.291577 89:-0.0736024 90:0.0437835 91:-0.0912064 92:-0.319487 93:-0.209007 94:-0.0197019 95:-0.0561987 96:0.0692153 97:-0.346585 98:0.0710267 99:0.0262956 100:0.323358 101:-0.0989973 102:0.51382 103:0.100318 104:-0.2614 105:0.199483 106:0.279687 107:-0.124496 108:0.440691 109:0.327118 110:-0.0557658 111:0.47761 112:0.154229 113:0.0882872 114:0.0723489 115:-0.358884 116:0.386641 117:-0.207166 118:-0.312703 119:-0.596936 120:-0.137647 121:-0.196528 122:-0.135757 123:-0.334524 124:-0.405072 125:-0.634908 126:-0.243092 127:-0.423456 128:-0.559713 129:-0.134541 130:-0.531087 131:-0.279994 132:-0.211476 133:-0.148047 134:0.0181531 135:0.0944991 136:0.0839628 137:0.0157706 138:-0.370649 139:0.260108 140:-0.23349 141:-0.0811686 142:0.298774 143:-0.103893 144:-0.00405452 145:-0.0801237 146:0.148022 147:-0.2084 148:-0.261886 149:-0.0291873 150:0.0802785 151:-0.0417371 152:0.329193 153:0.0565732 154:0.0759159 155:0.257218 156:-0.0414561 157:0.0122158 158:-0.0925701 159:-0.107936 160:-0.262764 161:-0.108677 162:-0.232252 163:0.24023 164:-0.172236 165:-0.0748286 166:-0.124124 167:0.113619 168:-0.291178 169:-0.31907 170:-0.0535741 171:0.0704355 172:-0.0593269 173:0.115273 174:-0.159093 175:-0.322472 176:-0.0130055 177:0.135922 178:-0.377022 179:0.103316 180:0.0685512 181:-0.222943 182:0.23083 183:-0.223805 184:0.10329 185:-0.0620499 186:0.105395 187:0.19144 188:-0.217503 189:0.151948 190:0.228411 191:-0.099984 192:0.194483 193:0.310092 194:-0.0774293 195:0.273441 196:0.514876 197:-0.322044 198:0.140955 199:0.323942 200:0.0944624 201:-0.0887573 202:-0.0995199 203:0.0699381 204:-0.18903 205:-0.118029 206:0.0356346 207:-0.193867 208:-0.0155457 209:0.173332 210:-0.0864802 211:-0.0224764 212:0.0688469 213:-0.11189 214:-0.292821 215:-0.0730446 216:0.0111636 217:-0.0561348 218:0.0368822 219:-0.00261183 220:0.0015177 221:0.168313 222:0.058748 223:0.237622 224:-0.220643 225:-0.0150982 226:0.246008 227:-0.108237 228:0.171837 229:0.248436 230:-0.13175 231:-0.0114432 232:0.000744171 233:-0.067517 234:-0.198454 235:0.00514803 236:-0.00200079 237:-0.377991 238:0.029678 239:-0.0865749 240:-0.423869 241:0.00423812 242:-0.298512 243:-0.240461 244:-0.237299 245:-0.155634 246:-0.107534 247:0.243389 248:-0.142922 249:-0.046391 250:0.0855793 251:-0.0642741 252:-0.213521 253:0.00272419 254:-0.027741 255:-0.243352 256:0.165552 257:-0.151484 258:-0.0882364 259:0.000435454 260:-0.0703094 261:-0.0738704 262:-0.241459 263:-0.0130509 264:0.0561136 265:-0.346585 266:0.0710267 267:0.0262956 268:0.323358 269:-0.0989973 270:0.51382 271:0.100318 272:-0.2614 273:0.199483 274:0.279687 275:-0.124496 276:0.440691 277:0.327118 278:-0.0557658 279:0.47761 280:0.154229 281:0.0882872 282:0.0723489 283:-0.358884 284:0.386641 285:-0.207166 286:-0.312703 287:-0.596936 288:-0.137647 289:-0.196528 290:-0.135757 291:-0.334524 292:-0.405072 293:-0.634908 294:-0.243092 295:-0.423456 296:-0.559713 297:-0.134541 298:-0.531087 299:-0.279994 300:-0.211476 301:-0.148047 302:0.0181531 303:0.0944991 304:0.0839628 305:0.0157706 306:-0.370649 307:0.260108 308:-0.23349 309:-0.0811686 310:0.298774 311:-0.103893 312:-0.00405452 313:-0.0801237 314:0.148022 315:-0.2084 316:-0.261886 317:-0.0291873 318:0.0802785 319:-0.0417371 320:0.329193 321:0.0565732 322:0.0759159 323:0.257218 324:-0.0414561 325:0.0122158 326:-0.0925701 327:-0.107936 328:-0.262764 329:-0.108677 330:-0.232252 331:0.24023 332:-0.172236 333:-0.0748286 334:-0.124124 335:0.113619 336:-0.291178 337:-0.31907 338:-0.0535741 339:0.0704355 340:-0.0593269 341:0.115273 342:-0.159093 343:-0.322472 344:-0.0130055 345:0.135922 346:-0.377022 347:0.103316 348:0.0685512 349:-0.222943 350:0.23083 351:-0.223805 352:0.10329 353:-0.0620499 354:0.105395 355:0.19144 356:-0.217503 357:0.151948 358:0.228411 359:-0.099984 360:0.194483 361:0.310092 362:-0.0774293 363:0.273441 364:0.514876 365:-0.322044 366:0.140955 367:0.323942 368:0.0944624 369:-0.0887573 370:-0.0995199 371:0.0699381 372:-0.18903 373:-0.118029 374:0.0356346 375:-0.193867 376:-0.0155457 377:0.173332 378:-0.0864802 379:-0.0224764 380:0.0688469 381:-0.11189 382:-0.292821 383:-0.0730446 384:0.0111636 385:-0.0561348 386:0.0368822 387:-0.00261183 388:0.0015177 389:0.168313 390:0.058748 391:0.237622 392:-0.220643 393:-0.0150982 394:0.246008 395:-0.108237 396:0.171837 397:0.248436 398:-0.13175 399:-0.0114432 400:0.000744171 401:-0.067517 402:-0.198454 403:0.00514803 404:-0.00200079 405:-0.377991 406:0.029678 407:-0.0865749 408:-0.423869 409:0.00423812 410:-0.298512 411:-0.240461 412:-0.237299 413:-0.155634 414:-0.107534 415:0.243389 416:-0.142922 417:-0.046391 418:0.0855793 419:-0.0642741 420:-0.213521 421:0.00272419 422:-0.027741 423:-0.243352 424:0.165552 425:-0.151484 426:-0.0882364 427:0.000435454 428:-0.0703094 429:-0.0738704 430:-0.241459 431:-0.0130509 432:0.0561136 433:0.373564 434:-0.125687 435:0.372769 436:0.333275 437:0.0985444 438:-0.0275249 439:0.248651 440:-0.182529 441:0.116871 442:-0.154445 443:-0.510392 444:-0.256145 445:0.100109 446:-0.243355 447:-0.165106 448:0.291577 449:-0.0736024 450:0.0437835 451:-0.0912064 452:-0.319487 453:-0.209007 454:-0.0197019 455:-0.0561987 456:0.0692153 
2.2038324444689312 1:-0.148451 2:-0.244047 3:0.313956 4:-0.263461 5:-0.124962 6:-0.21418 7:0.499857 8:0.213912 9:0.144553 10:0.32805 11:0.109705 12:0.323432 13:0.760546 14:0.253849 15:0.0968557 16:0.516437 17:0.248631 18:0.161885 19:0.341571 20:0.477115 21:0.352867 22:-0.273861 23:-0.562441 24:0.1336 25:0.126333 26:0.22553 27:-0.370967 28:0.253863 29:0.125383 30:0.224301 31:-0.496093 32:-0.219988 33:-0.173776 34:-0.323366 35:-0.0875937 36:-0.351004 37:-0.755869 38:-0.259978 39:-0.115196 40:-0.51569 41:-0.259488 42:-0.192356 43:-0.3536 44:-0.492237 45:-0.388072 46:0.238892 47:0.541796 48:-0.162607 49:0.133687 50:0.0193486 51:0.505038 52:-0.329042 53:-0.190267 54:-0.251525 55:0.183488 56:-0.031153 57:-0.24967 58:-0.100947 59:-0.0886154 60:-0.0188659 61:0.150857 62:-0.0681634 63:-0.260367 64:0.131841 65:-0.0666933 66:-0.210377 67:-0.102724 68:-0.233317 69:-0.330655 70:-0.233481 71:-0.19971 72:0.0325724 73:-0.140463 74:-0.173167 75:0.352418 76:-0.24922 77:-0.0961432 78:-0.281459 79:0.53501 80:-0.039266 81:-0.0190848 82:0.353864 83:0.253951 84:0.230285 85:0.595323 86:-0.0146836 87:-0.0954616 88:0.544017 89:0.0730397 90:0.055954 91:0.281958 92:0.19678 93:0.193857 94:-0.181398 95:-0.422044 96:0.0451856 97:0.216465 98:0.305866 99:0.0402498 100:0.328977 101:0.0420472 102:0.264136 103:0.213018 104:0.149759 105:-0.0357111 106:0.526444 107:-0.0335448 108:0.196103 109:0.346668 110:0.00973204 111:0.358799 112:0.199021 113:0.330862 114:0.128185 115:-0.072621 116:0.530881 117:-0.229144 118:-0.755865 119:-0.763071 120:0.184729 121:-0.250832 122:-0.924396 123:-0.0239114 124:-0.984143 125:-0.854504 126:0.0654513 127:-0.836117 128:-0.710342 129:0.101747 130:-0.63343 131:-0.700503 132:-0.156212 133:-0.061671 134:-0.258485 135:-0.112165 136:0.339101 137:0.678291 138:0.137238 139:0.720877 140:-0.0420771 141:-0.181335 142:0.545463 143:0.0617832 144:-0.0306407 145:0.0881722 146:0.484465 147:-0.0159474 148:-0.151423 149:0.0816905 150:-0.0444208 151:1 152:0.75537 153:0.78169 154:1 155:0.543358 156:0.528247 157:0.657076 158:0.354846 159:0.679729 160:-0.367658 161:0.121023 162:0.0447546 163:0.58611 164:0.0127921 165:0.0501808 166:0.127556 167:0.489383 168:0.0441444 169:-0.224608 170:0.130279 171:-0.0870122 172:0.138228 173:0.526421 174:0.0734952 175:-0.115673 176:0.239111 177:0.00346113 178:-0.0638501 179:0.283379 180:-0.0240782 181:0.0463857 182:0.238419 183:-0.0280596 184:-0.205151 185:0.0636664 186:0.204649 187:0.0587256 188:-0.279863 189:-0.0204378 190:-0.0159755 191:0.00894795 192:0.354639 193:-0.128321 194:-0.00442967 195:0.421558 196:0.0236258 197:-0.180603 198:0.37973 199:0.514712 200:0.321082 201:0.104744 202:0.134043 203:-0.092833 204:-0.385579 205:0.0145675 206:-0.0109803 207:-0.173814 208:0.120107 209:-0.0537683 210:-0.365095 211:0.332979 212:-0.0762137 213:-0.383897 214:0.174704 215:-0.14397 216:-0.252706 217:-0.145729 218:-0.268404 219:0.138638 220:1 221:0.50396 222:0.540857 223:0.623498 224:-0.0673173 225:0.00944844 226:0.521755 227:0.0288981 228:0.0530397 229:0.453172 230:-0.0261827 231:0.0655185 232:-0.0774547 233:-0.0654868 234:0.24204 235:0.37982 236:0.807262 237:0.315833 238:0.367794 239:0.631609 240:0.0664563 241:0.423677 242:0.457479 243:0.341894 244:-0.160115 245:0.0782993 246:0.0942765 247:0.746593 248:0.0544601 249:-0.097594 250:0.524462 251:0.083514 252:-0.0399658 253:-0.150195 254:0.0094847 255:0.169862 256:0.422968 257:0.00376649 258:0.10369 259:-0.0606798 260:0.0219724 261:0.233942 262:-0.346484 263:0.0368749 264:0.323043 265:0.216465 266:0.305866 267:0.0402498 268:0.328977 269:0.0420472 270:0.264136 271:0.213018 272:0.149759 273:-0.0357111 274:0.526444 275:-0.0335448 276:0.196103 277:0.346668 278:0.00973204 279:0.358799 280:0.199021 281:0.330862 282:0.128185 283:-0.072621 284:0.530881 285:-0.229144 286:-0.755865 287:-0.763071 288:0.184729 289:-0.250832 290:-0.924396 291:-0.0239114 292:-0.984143 293:-0.854504 294:0.0654513 295:-0.836117 296:-0.710342 297:0.101747 298:-0.63343 299:-0.700503 300:-0.156212 301:-0.061671 302:-0.258485 303:-0.112165 304:0.339101 305:0.678291 306:0.137238 307:0.720877 308:-0.0420771 309:-0.181335 310:0.545463 311:0.0617832 312:-0.0306407 313:0.0881722 314:0.484465 315:-0.0159474 316:-0.151423 317:0.0816905 318:-0.0444208 319:1 320:0.75537 321:0.78169 322:1 323:0.543358 324:0.528247 325:0.657076 326:0.354846 327:0.679729 328:-0.367658 329:0.121023 330:0.0447546 331:0.58611 332:0.0127921 333:0.0501808 334:0.127556 335:0.489383 336:0.0441444 337:-0.224608 338:0.130279 339:-0.0870122 340:0.138228 341:0.526421 342:0.0734952 343:-0.115673 344:0.239111 345:0.00346113 346:-0.0638501 347:0.283379 348:-0.0240782 349:0.0463857 350:0.238419 351:-0.0280596 352:-0.205151 353:0.0636664 354:0.204649 355:0.0587256 356:-0.279863 357:-0.0204378 358:-0.0159755 359:0.00894795 360:0.354639 361:-0.128321 362:-0.00442967 363:0.421558 364:0.0236258 365:-0.180603 366:0.37973 367:0.514712 368:0.321082 369:0.104744 370:0.134043 371:-0.092833 372:-0.385579 373:0.0145675 374:-0.0109803 375:-0.173814 376:0.120107 377:-0.0537683 378:-0.365095 379:0.332979 380:-0.0762137 381:-0.383897 382:0.174704 383:-0.14397 384:-0.252706 385:-0.145729 386:-0.268404 387:0.138638 388:1 389:0.50396 390:0.540857 391:0.623498 392:-0.0673173 393:0.00944844 394:0.521755 395:0.0288981 396:0.0530397 397:0.453172 398:-0.0261827 399:0.0655185 400:-0.0774547 401:-0.0654868 402:0.24204 403:0.37982 404:0.807262 405:0.315833 406:0.367794 407:0.631609 408:0.0664563 409:0.423677 410:0.457479 411:0.341894 412:-0.160115 413:0.0782993 414:0.0942765 415:0.746593 416:0.0544601 417:-0.097594 418:0.524462 419:0.083514 420:-0.0399658 421:-0.150195 422:0.0094847 423:0.169862 424:0.422968 425:0.00376649 426:0.10369 427:-0.0606798 428:0.0219724 429:0.233942 430:-0.346484 431:0.0368749 432:0.323043 433:-0.140463 434:-0.173167 435:0.352418 436:-0.24922 437:-0.0961432 438:-0.281459 439:0.53501 440:-0.039266 441:-0.0190848 442:0.353864 443:0.253951 444:0.230285 445:0.595323 446:-0.0146836 447:-0.0954616 448:0.544017 449:0.0730397 450:0.055954 451:0.281958 452:0.19678 453:0.193857 454:-0.181398 455:-0.422044 456:0.0451856 
7.5682780555435905 1:0.0254299 2:-0.203328 3:0.700887 4:-0.294753 5:0.055408 6:-0.0782314 7:-0.169463 8:-0.312702 9:-0.0470099 10:-0.198957 11:0.0403594 12:-0.61493 13:-0.227194 14:-0.302353 15:-0.159095 16:0.0895422 17:-0.300545 18:0.0486197 19:0.383688 20:0.236015 21:0.435515 22:-0.14636 23:-0.534711 24:-0.122519 25:-0.0331434 26:0.196436 27:-0.73628 28:0.297283 29:-0.0728392 30:0.0919096 31:0.182442 32:0.217189 33:-0.091648 34:0.195238 35:-0.0222711 36:0.550147 37:0.219248 38:0.232711 39:0.0778289 40:-0.0817716 41:0.240747 42:-0.127852 43:-0.376811 44:-0.206901 45:-0.423734 46:0.127441 47:0.506361 48:0.073086 49:-0.267516 50:-0.433722 51:0.368414 52:-0.62623 53:-0.396139 54:-0.496936 55:-0.0968272 56:-0.314483 57:-0.31957 58:-0.344611 59:-0.0654252 60:-0.513079 61:-0.234079 62:-0.334757 63:-0.302757 64:-0.0789782 65:-0.382622 66:-0.238067 67:-0.0822184 68:-0.350062 69:-0.288472 70:-0.127037 71:-0.170367 72:-0.119521 73:-0.0301907 74:-0.212258 75:0.765811 76:-0.303426 77:0.0474194 78:-0.169392 79:0.0471461 80:-0.464157 81:-0.174959 82:-0.0203596 83:0.207026 84:-0.631571 85:-0.13308 86:-0.441504 87:-0.289237 88:0.189239 89:-0.415061 90:-0.0424833 91:0.313687 92:0.0155618 93:0.267287 94:-0.0728754 95:-0.429283 96:-0.170013 97:0.669955 98:0.655962 99:-0.367699 100:0.107909 101:-0.249632 102:0.317594 103:-0.116802 104:-0.0345849 105:-0.145373 106:0.145403 107:-0.282431 108:0.237523 109:0.234528 110:-0.203865 111:0.450929 112:0.048154 113:0.222105 114:0.381282 115:-0.27366 116:0.449282 117:-0.159982 118:-0.330454 119:-0.33595 120:0.118272 121:-0.0535688 122:-0.215869 123:1 124:-0.460992 125:-0.394004 126:0.0995691 127:-0.51504 128:-0.419505 129:-0.0153926 130:-0.563966 131:-0.706721 132:-0.231808 133:-0.283607 134:-0.201168 135:0.024622 136:-0.42432 137:0.39432 138:-0.417674 139:0.0413206 140:-0.556501 141:-0.334252 142:0.257153 143:-0.431276 144:-0.190216 145:0.126167 146:0.0984144 147:-0.0509543 148:-0.00410415 149:0.134487 150:0.071768 151:-0.0641558 152:0.539702 153:-0.153178 154:0.0138697 155:0.568326 156:-0.214834 157:0.21412 158:0.508786 159:-0.210071 160:0.0970955 161:-0.189739 162:-0.261055 163:0.167946 164:-0.375907 165:-0.134799 166:0.0910216 167:0.12922 168:-0.0149268 169:-0.0444167 170:-0.0106249 171:0.0537306 172:0.165406 173:0.107702 174:0.114832 175:0.0226181 176:0.129455 177:0.114045 178:0.136484 179:-0.129603 180:-0.137863 181:0.0263336 182:-0.108313 183:-0.281368 184:0.223438 185:-0.198137 186:0.288491 187:-0.06719 188:0.255527 189:0.0900328 190:0.405918 191:-0.119353 192:0.535507 193:0.325336 194:-0.183583 195:0.707868 196:0.428946 197:-0.113745 198:0.821467 199:0.418844 200:0.352258 201:0.342393 202:0.00152038 203:0.0685196 204:-0.393402 205:-0.099789 206:-0.254539 207:-0.215704 208:0.0318617 209:-0.100553 210:-0.39982 211:0.322577 212:0.0145786 213:-0.471994 214:0.135828 215:-0.418431 216:-0.691886 217:-0.348854 218:-0.821428 219:-0.616774 220:-0.172985 221:0.434867 222:-0.169564 223:-0.0260534 224:-0.380379 225:-0.169301 226:-0.0481923 227:-0.387375 228:-0.0436724 229:0.0521248 230:-0.123032 231:0.0743074 232:0.145718 233:0.0978156 234:0.387172 235:-0.450084 236:0.439653 237:-0.302882 238:-0.433018 239:0.313156 240:-0.408747 241:-0.18572 242:0.233732 243:-0.123608 244:0.0495574 245:-0.0652602 246:0.107361 247:-0.0224735 248:-0.477472 249:-0.21942 250:0.00159341 251:-0.0884628 252:-0.114409 253:0.15486 254:0.156248 255:0.243047 256:0.181691 257:-0.133462 258:0.120628 259:0.151263 260:0.153792 261:0.378402 262:-0.0587818 263:0.00518821 264:0.289724 265:0.669955 266:0.655962 267:-0.367699 268:0.107909 269:-0.249632 270:0.317594 271:-0.116802 272:-0.0345849 273:-0.145373 274:0.145403 275:-0.282431 276:0.237523 277:0.234528 278:-0.203865 279:0.450929 280:0.048154 281:0.222105 282:0.381282 283:-0.27366 284:0.449282 285:-0.159982 286:-0.330454 287:-0.33595 288:0.118272 289:-0.0535688 290:-0.215869 291:1 292:-0.460992 293:-0.394004 294:0.0995691 295:-0.51504 296:-0.419505 297:-0.0153926 298:-0.563966 299:-0.706721 300:-0.231808 301:-0.283607 302:-0.201168 303:0.024622 304:-0.42432 305:0.39432 306:-0.417674 307:0.0413206 308:-0.556501 309:-0.334252 310:0.257153 311:-0.431276 312:-0.190216 313:0.126167 314:0.0984144 315:-0.0509543 316:-0.00410415 317:0.134487 318:0.071768 319:-0.0641558 320:0.539702 321:-0.153178 322:0.0138697 323:0.568326 324:-0.214834 325:0.21412 326:0.508786 327:-0.210071 328:0.0970955 329:-0.189739 330:-0.261055 331:0.167946 332:-0.375907 333:-0.134799 334:0.0910216 335:0.12922 336:-0.0149268 337:-0.0444167 338:-0.0106249 339:0.0537306 340:0.165406 341:0.107702 342:0.114832 343:0.0226181 344:0.129455 345:0.114045 346:0.136484 347:-0.129603 348:-0.137863 349:0.0263336 350:-0.108313 351:-0.281368 352:0.223438 353:-0.198137 354:0.288491 355:-0.06719 356:0.255527 357:0.0900328 358:0.405918 359:-0.119353 360:0.535507 361:0.325336 362:-0.183583 363:0.707868 364:0.428946 365:-0.113745 366:0.821467 367:0.418844 368:0.352258 369:0.342393 370:0.00152038 371:0.0685196 372:-0.393402 373:-0.099789 374:-0.254539 375:-0.215704 376:0.0318617 377:-0.100553 378:-0.39982 379:0.322577 380:0.0145786 381:-0.471994 382:0.135828 383:-0.418431 384:-0.691886 385:-0.348854 386:-0.821428 387:-0.616774 388:-0.172985 389:0.434867 390:-0.169564 391:-0.0260534 392:-0.380379 393:-0.169301 394:-0.0481923 395:-0.387375 396:-0.0436724 397:0.0521248 398:-0.123032 399:0.0743074 400:0.145718 401:0.0978156 402:0.387172 403:-0.450084 404:0.439653 405:-0.302882 406:-0.433018 407:0.313156 408:-0.408747 409:-0.18572 410:0.233732 411:-0.123608 412:0.0495574 413:-0.0652602 414:0.107361 415:-0.0224735 416:-0.477472 417:-0.21942 418:0.00159341 419:-0.0884628 420:-0.114409 421:0.15486 422:0.156248 423:0.243047 424:0.181691 425:-0.133462 426:0.120628 427:0.151263 428:0.153792 429:0.378402 430:-0.0587818 431:0.00518821 432:0.289724 433:-0.0301907 434:-0.212258 435:0.765811 436:-0.303426 437:0.0474194 438:-0.169392 439:0.0471461 440:-0.464157 441:-0.174959 442:-0.0203596 443:0.207026 444:-0.631571 445:-0.13308 446:-0.441504 447:-0.289237 448:0.189239 449:-0.415061 450:-0.0424833 451:0.313687 452:0.0155618 453:0.267287 454:-0.0728754 455:-0.429283 456:-0.170013 
26.172076400942345 1:0.33274 2:0.0424431 3:0.250158 4:-0.212007 5:0.0803592 6:-0.00556627 7:0.0275415 8:0.13323 9:0.543271 10:-0.135657 11:-0.157165 12:-0.0100164 13:-0.0668261 14:-0.0225038 15:0.230281 16:-0.10742 17:0.152106 18:0.389231 19:-0.528135 20:-0.344951 21:-0.00298145 22:0.273227 23:0.0544041 24:0.400402 25:-0.334071 26:-0.0279797 27:-0.259922 28:0.227907 29:-0.0524461 30:0.0592182 31:-0.0256413 32:-0.16139 33:-0.593496 34:0.131926 35:0.165794 36:-0.0302993 37:0.0543632 38:-0.015837 39:-0.284413 40:0.102285 41:-0.181822 42:-0.439705 43:0.523754 44:0.310334 45:-0.0298219 46:-0.3015 47:-0.0614233 48:-0.409904 49:0.0727028 50:-0.15265 51:0.155327 52:-0.474986 53:-0.282315 54:-0.355764 55:-0.201326 56:-0.254357 57:-0.237263 58:-0.558438 59:-0.403867 60:-0.389183 61:-0.384306 62:-0.394643 63:-0.307658 64:-0.410423 65:-0.281154 66:-0.250296 67:-0.496634 68:-0.623478 69:-0.532681 70:0.0634382 71:0.24031 72:0.146571 73:0.269089 74:0.0374342 75:0.326713 76:-0.1931 77:0.0926713 78:-0.104822 79:0.187989 80:-0.11941 81:0.295538 82:0.0173144 83:-0.0015467 84:-0.0751247 85:-0.0207865 86:-0.250406 87:-0.0155953 88:0.035204 89:-0.0244636 90:0.232872 91:-0.2732 92:-0.412542 93:-0.12094 94:0.347434 95:0.148303 96:0.271926 97:-0.204528 98:0.188741 99:-0.0149873 100:0.0831146 101:-0.171334 102:0.238412 103:-0.0474526 104:-0.522702 105:-0.056594 106:0.0246503 107:-0.311928 108:0.20825 109:0.0979859 110:-0.115079 111:0.339646 112:-0.0513236 113:-0.104828 114:0.104788 115:-0.201115 116:0.129957 117:-0.245019 118:-0.171722 119:-0.251544 120:0.143261 121:0.35367 122:0.171293 123:0.168651 124:-0.252671 125:-0.183195 126:0.0542783 127:-0.254146 128:-0.273469 129:0.0297894 130:-0.17888 131:-2.17911e-05 132:-0.220058 133:-0.118831 134:0.10092 135:0.160724 136:-0.169781 137:-0.106256 138:-0.122919 139:0.173116 140:-0.224583 141:0.068 142:0.225874 143:-0.0395265 144:0.23812 145:-0.208644 146:0.197136 147:-0.156203 148:-0.247689 149:-0.154639 150:-0.398218 151:-0.191552 152:-0.118928 153:0.105422 154:-0.208995 155:-0.217964 156:0.0249766 157:-0.125957 158:-0.136057 159:-0.0114319 160:-0.068207 161:0.0612841 162:-0.433779 163:0.0934895 164:-0.142907 165:0.146811 166:-0.270499 167:0.166955 168:-0.2818 169:-0.264789 170:-0.150475 171:-0.451532 172:-0.268977 173:0.0982853 174:-0.177798 175:-0.239987 176:-0.197313 177:-0.380239 178:0.0652492 179:-0.143484 180:-0.22226 181:0.0585614 182:0.209437 183:-0.195381 184:0.0295516 185:0.151547 186:0.218883 187:-0.0456287 188:-0.139706 189:0.117057 190:0.0811881 191:0.0941911 192:0.367709 193:0.161621 194:0.12516 195:0.383764 196:0.0972053 197:-0.0466704 198:0.352756 199:-0.0570801 200:0.0509462 201:0.224972 202:-0.100968 203:-0.0617007 204:-0.434326 205:0.0442574 206:-0.153255 207:-0.28545 208:0.00948025 209:0.0155613 210:-0.35907 211:0.0577145 212:-0.0147572 213:-0.351213 214:0.0368903 215:-0.0181033 216:-0.183683 217:0.103208 218:0.106516 219:-0.000389136 220:-0.270558 221:-0.300846 222:0.0477467 223:0.0995677 224:-0.185873 225:0.177403 226:0.00333526 227:-0.0438121 228:0.293954 229:-0.327574 230:-0.301621 231:0.0413145 232:-0.12472 233:-0.306186 234:-0.0299135 235:-0.231197 236:-0.0726904 237:-0.144919 238:-0.244875 239:-0.252652 240:-0.288508 241:-0.184134 242:-0.257037 243:-0.108469 244:0.00981175 245:0.126761 246:0.0631124 247:-0.0167758 248:-0.141527 249:0.0691202 250:-0.41325 251:-0.297917 252:-0.139201 253:-0.0335363 254:-0.214259 255:-0.149195 256:-0.334394 257:-0.312426 258:0.0416911 259:-0.0957414 260:-0.221487 261:-0.0240942 262:-0.0823229 263:0.123048 264:0.195461 265:-0.204528 266:0.188741 267:-0.0149873 268:0.0831146 269:-0.171334 270:0.238412 271:-0.0474526 272:-0.522702 273:-0.056594 274:0.0246503 275:-0.311928 276:0.20825 277:0.0979859 278:-0.115079 279:0.339646 280:-0.0513236 281:-0.104828 282:0.104788 283:-0.201115 284:0.129957 285:-0.245019 286:-0.171722 287:-0.251544 288:0.143261 289:0.35367 290:0.171293 291:0.168651 292:-0.252671 293:-0.183195 294:0.0542783 295:-0.254146 296:-0.273469 297:0.0297894 298:-0.17888 299:-2.17911e-05 300:-0.220058 301:-0.118831 302:0.10092 303:0.160724 304:-0.169781 305:-0.106256 306:-0.122919 307:0.173116 308:-0.224583 309:0.068 310:0.225874 311:-0.0395265 312:0.23812 313:-0.208644 314:0.197136 315:-0.156203 316:-0.247689 317:-0.154639 318:-0.398218 319:-0.191552 320:-0.118928 321:0.105422 322:-0.208995 323:-0.217964 324:0.0249766 325:-0.125957 326:-0.136057 327:-0.0114319 328:-0.068207 329:0.0612841 330:-0.433779 331:0.0934895 332:-0.142907 333:0.146811 334:-0.270499 335:0.166955 336:-0.2818 337:-0.264789 338:-0.150475 339:-0.451532 340:-0.268977 341:0.0982853 342:-0.177798 343:-0.239987 344:-0.197313 345:-0.380239 346:0.0652492 347:-0.143484 348:-0.22226 349:0.0585614 350:0.209437 351:-0.195381 352:0.0295516 353:0.151547 354:0.218883 355:-0.0456287 356:-0.139706 357:0.117057 358:0.0811881 359:0.0941911 360:0.367709 361:0.161621 362:0.12516 363:0.383764 364:0.0972053 365:-0.0466704 366:0.352756 367:-0.0570801 368:0.0509462 369:0.224972 370:-0.100968 371:-0.0617007 372:-0.434326 373:0.0442574 374:-0.153255 375:-0.28545 376:0.00948025 377:0.0155613 378:-0.35907 379:0.0577145 380:-0.0147572 381:-0.351213 382:0.0368903 383:-0.0181033 384:-0.183683 385:0.103208 386:0.106516 387:-0.000389136 388:-0.270558 389:-0.300846 390:0.0477467 391:0.0995677 392:-0.185873 393:0.177403 394:0.00333526 395:-0.0438121 396:0.293954 397:-0.327574 398:-0.301621 399:0.0413145 400:-0.12472 401:-0.306186 402:-0.0299135 403:-0.231197 404:-0.0726904 405:-0.144919 406:-0.244875 407:-0.252652 408:-0.288508 409:-0.184134 410:-0.257037 411:-0.108469 412:0.00981175 413:0.126761 414:0.0631124 415:-0.0167758 416:-0.141527 417:0.0691202 418:-0.41325 419:-0.297917 420:-0.139201 421:-0.0335363 422:-0.214259 423:-0.149195 424:-0.334394 425:-0.312426 426:0.0416911 427:-0.0957414 428:-0.221487 429:-0.0240942 430:-0.0823229 431:0.123048 432:0.195461 433:0.269089 434:0.0374342 435:0.326713 436:-0.1931 437:0.0926713 438:-0.104822 439:0.187989 440:-0.11941 441:0.295538 442:0.0173144 443:-0.0015467 444:-0.0751247 445:-0.0207865 446:-0.250406 447:-0.0155953 448:0.035204 449:-0.0244636 450:0.232872 451:-0.2732 452:-0.412542 453:-0.12094 454:0.347434 455:0.148303 456:0.271926 
