svm_type c_svc
kernel_type rbf
gamma 0.5
nr_class 2
total_sv 221
rho 0.13066620242157251
label 1 0
nr_sv 109 112
SV
0.5 1:-0.239016 2:0.382919 3:-0.23066 4:-0.289029 5:-0.350778 6:-0.403266 7:-0.339948 8:-0.0232101 9:-0.14912 10:-0.474329 11:0.185456 12:-0.752195 13:-0.504333 14:-0.125514 15:-0.503016 16:-0.496525 17:-0.321087 18:-0.103857 19:0.193097 20:-0.0768753 21:-0.272232 22:-0.427974 23:-0.566232 24:-0.659536 25:-0.415669 26:-0.322149 
0.5 1:0.156867 2:-0.0201477 3:-0.0312905 4:-0.276095 5:-0.403504 6:0.0594509 7:0.00135848 8:-0.104322 9:-0.168867 10:-0.38655 11:0.308629 12:-0.414037 13:-0.360604 14:-0.0137161 15:-0.496958 16:0.15227 17:-0.306905 18:0.167549 19:-0.270042 20:-0.123552 21:-0.430332 22:0.416565 23:-0.448716 24:-0.778626 25:-0.469857 26:-0.202653 
0.5 1:0.302676 2:-0.233592 3:0.206211 4:0.42998 5:0.179592 6:-0.443942 7:-0.227559 8:-0.605902 9:-0.246037 10:-0.112903 11:-0.00142282 12:-0.143018 13:-0.281433 14:-0.213007 15:-0.589128 16:0.488563 17:-0.11821 18:0.49306 19:-0.470025 20:0.12726 21:0.272115 22:0.00315624 23:-0.401191 24:-0.47955 25:0.243781 26:-0.0327042 
0.27264344070194563 1:0.449999 2:-0.332312 3:0.0649227 4:0.303721 5:0.358465 6:-0.752264 7:-0.227793 8:-0.241011 9:-0.35603 10:-0.29889 11:-0.136074 12:0.0216383 13:-0.51606 14:-0.262752 15:-0.567321 16:0.375725 17:-0.0468323 18:0.148053 19:-0.526247 20:0.0258311 21:0.424127 22:-0.188222 23:-0.0425861 24:-0.0776866 25:0.2852 26:0.000340355 
0.12441852677437779 1:-0.0125625 2:0.345107 3:0.132422 4:-0.286982 5:-0.366641 6:-0.240084 7:-0.139388 8:-0.408338 9:-0.0614377 10:-0.386985 11:-0.0428358 12:-0.378992 13:0.180481 14:0.686026 15:-0.719685 16:0.0418577 17:-0.269752 18:0.0556144 19:-0.258704 20:-0.269551 21:-0.372659 22:-0.334845 23:-0.162585 24:-0.766433 25:0.0615238 26:-0.377532 
0.5 1:0.14929 2:-0.220509 3:-0.164036 4:0.496857 5:0.200633 6:-0.615284 7:-0.126564 8:-0.402176 9:-0.468364 10:-0.699872 11:-0.0757839 12:-0.622207 13:-0.434673 14:-0.202053 15:-0.171097 16:0.0652594 17:-0.0722557 18:0.424386 19:-0.573713 20:0.092543 21:0.191066 22:0.297521 23:-0.272614 24:-0.52444 25:-0.0591466 26:0.150608 
0.5 1:0.377302 2:-0.522855 3:-0.524664 4:0.410403 5:0.0904876 6:-0.433319 7:0.171553 8:-0.134284 9:-0.588413 10:-0.203947 11:-0.128024 12:-0.232159 13:-0.607963 14:-0.53073 15:0.0654068 16:-0.299812 17:0.189526 18:0.241314 19:-0.696851 20:0.36269 21:-0.120944 22:-0.0227159 23:0.151604 24:-0.590525 25:-0.322042 26:0.0473193 
0.5 1:-0.145435 2:-0.0131472 3:-0.337731 4:-0.563044 5:-0.331385 6:-0.148847 7:0.315193 8:-0.359745 9:-0.452931 10:-0.0905195 11:0.201626 12:0.150075 13:-0.673916 14:-0.647751 15:-0.348711 16:-0.395677 17:-0.627398 18:-0.615367 19:-0.018785 20:-0.838883 21:-0.18554 22:-0.225704 23:0.0296155 24:-0.634872 25:0.351086 26:-0.746143 
0.16189811574438168 1:0.511433 2:-0.485036 3:-0.648565 4:0.621871 5:0.43391 6:-0.714111 7:0.238537 8:0.100462 9:-0.931955 10:-0.820008 11:-0.473558 12:-0.522128 13:-0.703722 14:-0.693416 15:-0.315496 16:-0.177855 17:0.18628 18:0.100321 19:-0.891894 20:0.187904 21:0.570339 22:0.303992 23:-0.210635 24:-0.455058 25:0.229042 26:0.192388 
0.5 1:-0.0456097 2:-0.00110155 3:-0.00289016 4:-0.0672282 5:-0.2491 6:-0.251344 7:0.0326731 8:-0.135325 9:-0.210698 10:0.0526547 11:0.27704 12:-0.682187 13:0.774298 14:0.07326 15:-0.555757 16:-0.174564 17:0.166495 18:0.0461754 19:-0.487772 20:-0.353467 21:-0.183265 22:-0.614908 23:-0.155042 24:-0.775019 25:-0.514013 26:0.00834521 
0.5 1:-1 2:-0.151011 3:-0.056576 4:-0.289055 5:-0.414781 6:-0.22375 7:-0.095107 8:-0.808578 9:-0.622899 10:-0.142127 11:0.299377 12:-0.735142 13:-0.807006 14:-0.654838 15:-0.356934 16:0.132071 17:-0.4617 18:-0.257945 19:-0.434068 20:0.139226 21:-0.116631 22:0.0782752 23:-0.801815 24:-0.0749618 25:0.0834886 26:-0.499327 
0.5 1:0.465551 2:-0.564583 3:-0.627447 4:0.363178 5:0.212451 6:-0.342283 7:0.381462 8:0.320998 9:-0.739394 10:0.079257 11:-0.174234 12:-0.70844 13:-0.859413 14:-0.693432 15:0.382928 16:0.1676 17:0.332474 18:0.503361 19:-0.753622 20:0.454997 21:-0.184664 22:-0.414629 23:0.273287 24:-0.442468 25:-0.187519 26:0.262428 
0.5 1:0.121011 2:0.283456 3:0.0532426 4:0.0841371 5:-0.412226 6:-0.694107 7:-0.291815 8:-0.259791 9:-0.180769 10:-0.147955 11:0.813748 12:-0.272 13:-0.373545 14:0.30101 15:-0.38209 16:0.823527 17:-0.187798 18:0.442683 19:-0.266418 20:0.0809943 21:-0.550192 22:-0.333902 23:-0.166862 24:-0.628824 25:-0.618119 26:0.0797021 
0.5 1:0.203714 2:-0.23949 3:0.0553253 4:0.249203 5:0.132841 6:-0.423896 7:-0.243423 8:-0.480922 9:-0.332821 10:-0.125476 11:0.258273 12:-0.134832 13:-0.404856 14:-0.127842 15:-0.120737 16:0.341931 17:-0.193594 18:0.285129 19:-0.537397 20:-0.348272 21:0.0897513 22:0.0459786 23:-0.407679 24:-0.00348092 25:0.193322 26:0.274895 
0.5 1:-0.125925 2:-0.171021 3:-1 4:-1 5:-1 6:0.545154 7:0.47821 8:0.0770146 9:-0.522492 10:-1 11:-1 12:-0.935667 13:-0.934677 14:-0.827552 15:-0.465198 16:-0.943773 17:-0.753827 18:-0.820587 19:0.213928 20:-1 21:-1 22:0.0176584 23:-0.378627 24:-0.969266 25:-0.819845 26:-0.414901 
0.5 1:0.591128 2:-0.641115 3:-0.809925 4:0.559557 5:0.302932 6:-0.448236 7:0.115179 8:0.358424 9:-1 10:-0.0520748 11:-0.439074 12:-0.762326 13:-1 14:-0.64093 15:1 16:-0.239386 17:0.387156 18:0.919672 19:-0.947251 20:1 21:-0.0428046 22:0.233892 23:-0.400622 24:-0.627058 25:-0.204575 26:0.301162 
0.5 1:0.727248 2:-0.124686 3:0.200602 4:0.49217 5:-0.120219 6:-0.656892 7:-0.368397 8:-0.61709 9:-0.33897 10:-0.759562 11:-0.256484 12:0.0818071 13:-0.549971 14:-0.473784 15:-0.481122 16:0.111885 17:-0.782362 18:-0.360105 19:-0.897164 20:-0.221891 21:-0.0948978 22:-0.467498 23:-0.41043 24:0.722821 25:-0.0280895 26:-0.523496 
0.5 1:-0.0466635 2:-0.24585 3:0.0847554 4:0.0635801 5:-0.017446 6:-0.255788 7:-0.167862 8:-0.355465 9:-0.104244 10:-0.256778 11:0.182534 12:-0.360937 13:-0.2562 14:-0.193707 15:-0.251212 16:0.443747 17:-0.283432 18:0.246613 19:-0.498082 20:-0.247874 21:0.0173817 22:0.115173 23:-0.213897 24:-0.0142463 25:0.0253371 26:-0.0723429 
0.29523985290198523 1:0.467185 2:-0.60235 3:-0.440845 4:0.226848 5:0.447014 6:-0.282384 7:0.0311419 8:-0.567318 9:-0.69512 10:0.0324293 11:-0.451857 12:-0.234396 13:-0.642615 14:-0.829842 15:0.111838 16:-0.296139 17:-0.133677 18:-0.216727 19:-0.884896 20:-0.0708923 21:0.27541 22:-0.0461677 23:-0.474905 24:0.47003 25:0.342173 26:-0.197904 
0.5 1:-0.0536564 2:0.558643 3:0.112288 4:-0.0294828 5:-0.572462 6:-0.189122 7:-0.0558802 8:-0.229458 9:-0.470888 10:-0.128931 11:0.161615 12:-0.296951 13:1 14:1 15:-0.740751 16:0.13266 17:-0.211769 18:0.955618 19:0.282494 20:-0.207915 21:-0.644718 22:-1 23:-0.2304 24:-0.967551 25:-0.768098 26:-0.137082 
0.092501275169980163 1:0.565973 2:-0.85267 3:-0.60149 4:0.818754 5:0.619314 6:-0.415331 7:-0.0122477 8:-0.35796 9:-0.692308 10:-0.615546 11:-0.65737 12:-0.280406 13:-0.435724 14:-0.967527 15:0.533626 16:-0.117912 17:-0.0468494 18:0.621246 19:-0.74176 20:0.516869 21:0.55795 22:-0.0272617 23:-0.00259933 24:-0.544701 25:-0.0651898 26:0.254469 
0.5 1:-0.0329108 2:-0.247254 3:0.0506253 4:0.0646304 5:-0.0140253 6:-0.253238 7:-0.171444 8:-0.335302 9:-0.116337 10:-0.237435 11:0.171541 12:-0.389343 13:-0.274519 14:-0.184519 15:-0.230666 16:0.408114 17:-0.288589 18:0.269501 19:-0.500034 20:-0.222607 21:-0.00889102 22:0.163825 23:-0.187647 24:0.00936002 25:0.0113128 26:-0.0779413 
0.059406449010330736 1:0.743391 2:-0.757968 3:-0.655863 4:0.63148 5:0.365194 6:-0.479907 7:0.337629 8:0.112447 9:-0.939091 10:-0.103778 11:-0.799062 12:-0.472946 13:-0.933421 14:-0.868445 15:0.506109 16:-0.357892 17:0.395429 18:0.449501 19:-0.930761 20:0.00404513 21:0.446186 22:-0.311418 23:0.126798 24:0.0900632 25:0.366779 26:0.140374 
0.5 1:-0.173715 2:-0.210104 3:0.263156 4:0.101675 5:-0.0545446 6:0.08886 7:0.0267229 8:-0.380284 9:-0.36925 10:-0.126487 11:-0.261488 12:-0.731486 13:0.1335 14:-0.146742 15:-0.822777 16:-0.033657 17:-0.0128475 18:-0.0226337 19:-0.381994 20:0.0684556 21:-0.254242 22:-0.881854 23:0.00548729 24:-0.790742 25:-0.38328 26:-0.174826 
0.5 1:-0.174735 2:0.637378 3:-0.57013 4:-0.219302 5:-0.549668 6:-0.293305 7:-0.0848051 8:-0.62397 9:-0.286043 10:-0.714981 11:-0.110105 12:-0.506782 13:-0.338338 14:0.192037 15:-0.685168 16:-0.431967 17:-0.53499 18:-0.261897 19:-0.229885 20:0.051981 21:-0.324434 22:-0.26376 23:-0.508561 24:-0.678246 25:-0.404115 26:-0.396706 
0.5 1:-0.695067 2:-0.105491 3:0.537712 4:-0.0509705 5:-0.0807094 6:-0.624796 7:-0.0499454 8:-1 9:-0.445015 10:-0.0690158 11:0.241825 12:-0.197798 13:-0.0888728 14:-0.400344 15:-0.677281 16:0.594192 17:-0.466769 18:-0.270751 19:-0.566145 20:-0.00483034 21:0.0180602 22:-0.145862 23:-0.621272 24:0.355712 25:0.0796572 26:-0.277102 
0.5 1:0.269936 2:-0.128774 3:-0.695709 4:0.121059 5:-0.196751 6:-0.374806 7:0.149325 8:0.214227 9:-0.432802 10:0.234526 11:0.45159 12:-0.57894 13:-0.573033 14:-0.0617753 15:-0.046547 16:-0.171096 17:0.312099 18:-0.0784518 19:-0.31867 20:-0.115429 21:-0.473164 22:-0.128126 23:0.441043 24:-0.56496 25:-0.329063 26:0.530171 
0.5 1:0.366 2:0.0347626 3:-0.434321 4:-0.269861 5:-0.403578 6:-0.000305305 7:0.4354 8:-0.227816 9:-0.0233457 10:-0.0506336 11:0.198985 12:0.207662 13:-0.39271 14:-0.179014 15:-0.707558 16:-0.388458 17:-0.149478 18:-0.088478 19:0.0981105 20:0.520754 21:-0.574031 22:-0.52469 23:0.497997 24:-0.696544 25:-0.611054 26:-0.159436 
0.27086487641312812 1:0.261402 2:0.0433726 3:0.0845895 4:-0.117135 5:-0.190324 6:-0.0726826 7:-0.000192268 8:-0.700484 9:-0.344344 10:-0.165668 11:0.157909 12:0.0341643 13:-0.302092 14:0.109999 15:-0.574978 16:0.146569 17:-0.271305 18:-0.0962125 19:-0.512377 20:0.0169674 21:-0.152672 22:0.133601 23:-0.15957 24:-0.568074 25:0.177626 26:-0.122222 
0.5 1:0.51148 2:-0.572826 3:-0.564016 4:0.176496 5:0.383861 6:-0.41236 7:0.0937354 8:0.415417 9:-0.734279 10:-0.0627874 11:-0.270971 12:-0.626456 13:-0.788627 14:-0.559341 15:0.478939 16:-0.00989628 17:0.462454 18:0.34653 19:-0.578713 20:0.196311 21:0.391858 22:-0.0533142 23:-0.23185 24:-0.356302 25:0.135344 26:0.376725 
0.5 1:0.433017 2:-0.502528 3:0.0246053 4:0.327038 5:0.321773 6:-0.473289 7:-0.014478 8:-0.495668 9:-0.44688 10:-0.23106 11:-0.0790542 12:-0.152963 13:-0.488581 14:-0.633326 15:-0.300151 16:0.220634 17:0.0449023 18:0.154359 19:-0.467311 20:-0.267946 21:0.33843 22:-0.385351 23:0.188147 24:-0.431546 25:0.502822 26:0.144434 
0.5 1:0.1666 2:-0.35997 3:0.536768 4:0.362194 5:0.14258 6:-0.515286 7:-0.370752 8:-0.590742 9:-0.167593 10:-0.331933 11:0.14662 12:-0.149966 13:-0.721937 14:-0.487227 15:-0.430444 16:0.369165 17:-0.493943 18:0.272241 19:-0.422314 20:-0.310743 21:-0.217238 22:-0.39089 23:-0.32108 24:0.11569 25:0.524675 26:-0.111186 
0.5 1:-0.366566 2:0.721211 3:0.574131 4:-0.833402 5:-0.707545 6:0.240785 7:-0.27732 8:-0.753602 9:-0.233151 10:-0.773734 11:-0.0836688 12:-0.324386 13:-0.53372 14:-0.123877 15:-0.591481 16:-0.187589 17:-0.694969 18:-0.531193 19:-0.41098 20:-0.501501 21:-0.814079 22:-0.764419 23:-0.838647 24:-0.897694 25:-0.581544 26:-0.557671 
0.5 1:-0.386131 2:0.174042 3:-0.0779853 4:-0.193214 5:-0.0873432 6:-0.353357 7:-0.399553 8:-0.381261 9:-0.501054 10:-0.486684 11:0.438725 12:-0.864683 13:-0.642247 14:-0.163116 15:-0.511139 16:0.177294 17:-0.458296 18:-0.235763 19:-0.733973 20:-0.0931963 21:-0.0212453 22:0.0951108 23:-0.65563 24:-0.0629486 25:0.078233 26:-0.20157 
0.5 1:0.130399 2:0.291044 3:0.148447 4:0.0232341 5:-0.211611 6:-0.506612 7:-0.316349 8:-0.247112 9:-0.200712 10:-0.0640338 11:0.242146 12:-0.210272 13:0.147449 14:0.644053 15:-0.713748 16:0.110591 17:0.046075 18:0.464996 19:0.0469799 20:0.0472702 21:-0.0940307 22:-0.726881 23:-0.535755 24:-0.734566 25:-0.164827 26:-0.031045 
0.5 1:0.407258 2:-0.380829 3:-0.149841 4:0.320124 5:0.0869569 6:-0.151096 7:0.0484815 8:-0.17129 9:-0.526768 10:-0.0499209 11:0.084146 12:-0.130999 13:-0.373068 14:-0.343775 15:-0.215533 16:0.385565 17:-0.18365 18:0.522143 19:-0.89942 20:-0.133086 21:-0.123246 22:-0.195975 23:0.0114656 24:-0.26758 25:0.395832 26:0.155149 
0.5 1:0.124611 2:0.294508 3:0.143403 4:0.0413406 5:-0.190159 6:-0.535575 7:-0.324152 8:-0.256445 9:-0.190657 10:-0.0653576 11:0.269404 12:-0.225495 13:0.157906 14:0.681447 15:-0.695283 16:0.134688 17:0.0744861 18:0.473199 19:0.0580606 20:0.0354303 21:-0.0902521 22:-0.751975 23:-0.50593 24:-0.726535 25:-0.162886 26:-0.0187746 
0.5 1:-0.0581083 2:0.339168 3:0.099301 4:-0.293913 5:-0.0628755 6:-0.269277 7:-0.485524 8:-0.707939 9:-0.540543 10:-0.326649 11:0.723618 12:-0.378002 13:-0.316925 14:-0.0139611 15:-0.364075 16:-0.0347756 17:-0.383657 18:-0.192314 19:-0.559891 20:-0.407491 21:0.0928993 22:-0.224857 23:-0.865682 24:-0.236216 25:0.380162 26:-0.450788 
0.5 1:-0.486664 2:0.321246 3:-0.143045 4:-0.303667 5:-0.389391 6:-0.205021 7:0.0323609 8:-0.149248 9:-0.366783 10:-0.312956 11:0.082824 12:-0.930052 13:-0.551024 14:-0.303396 15:-0.581317 16:-0.262429 17:-0.445494 18:-0.152959 19:-0.184753 20:-0.295051 21:0.0586832 22:-0.409713 23:-0.48149 24:-0.850369 25:-0.294697 26:-0.231457 
0.5 1:0.208984 2:-0.0953579 3:-0.274139 4:-0.0656189 5:-0.086361 6:-0.463092 7:0.0857929 8:-0.039156 9:-0.352219 10:-0.210449 11:0.0410803 12:-0.563376 13:-0.651428 14:-0.0104689 15:0.265281 16:-0.530908 17:-0.0133447 18:0.346371 19:-0.288958 20:0.136952 21:0.0998061 22:0.279743 23:0.219509 24:-0.190661 25:0.160214 26:-0.048738 
0.5 1:0.26099 2:-0.326766 3:-0.417022 4:0.0783923 5:0.112658 6:-0.458002 7:0.157304 8:0.321774 9:-0.484415 10:0.127289 11:-0.034348 12:-0.609668 13:-0.289034 14:-0.389071 15:0.0949177 16:-0.42049 17:0.142557 18:0.394987 19:-0.672647 20:0.331462 21:-0.0255993 22:-0.20373 23:0.148539 24:-0.443728 25:0.0259536 26:0.181748 
0.5 1:0.155247 2:-0.319539 3:-0.128067 4:-0.328724 5:-0.135206 6:0.130929 7:0.0722564 8:-0.610921 9:-0.465275 10:0.141725 11:-0.0477099 12:-0.450812 13:-0.0449911 14:-0.255661 15:-0.508521 16:0.549263 17:-0.114911 18:-0.176318 19:-0.566804 20:0.352813 21:-0.162361 22:-0.0409851 23:0.00530623 24:-0.715266 25:-0.168391 26:0.218094 
0.11669206848399266 1:-0.082306 2:-0.0908586 3:0.0400356 4:-0.692006 5:-0.215989 6:-0.15042 7:-0.213111 8:-0.639175 9:-0.336977 10:-0.221912 11:-0.0283299 12:-0.565121 13:-0.440798 14:-0.374488 15:0.0134191 16:-0.307251 17:-0.509096 18:-0.475476 19:-0.285681 20:-0.434502 21:-0.153147 22:0.0715044 23:-0.600631 24:-0.512948 25:0.228133 26:-0.429389 
0.091070919187475632 1:0.780621 2:-0.652832 3:-0.787141 4:0.605408 5:0.0999243 6:-0.31917 7:0.445929 8:0.307273 9:-0.811843 10:0.277537 11:-0.432061 12:-0.350526 13:-0.881836 14:-0.810428 15:0.255564 16:-0.28915 17:0.425493 18:0.52995 19:-0.839434 20:0.240806 21:0.135478 22:-0.200077 23:-0.160709 24:-0.582622 25:-0.33218 26:0.25537 
0.5 1:0.150416 2:0.164462 3:-0.0390552 4:-0.0770268 5:-0.324673 6:0.0367249 7:-0.0340003 8:-0.202025 9:0.0587034 10:-0.172071 11:0.269618 12:-0.324853 13:0.0391702 14:0.705105 15:-0.405019 16:-0.139149 17:-0.342004 18:0.493176 19:-0.336629 20:0.0110436 21:-0.161668 22:-0.276805 23:-0.248958 24:-0.763545 25:-0.281884 26:-0.319773 
0.5 1:0.404035 2:-0.380756 3:-0.402475 4:0.164182 5:0.150447 6:-0.381386 7:0.136474 8:0.120127 9:-0.611063 10:0.0548957 11:-0.0899479 12:-0.572399 13:-0.78242 14:-0.365862 15:0.388061 16:-0.0799148 17:0.290856 18:0.396008 19:-0.525624 20:0.415251 21:-0.128807 22:-0.249856 23:-0.22975 24:-0.675261 25:-0.287719 26:0.386062 
0.49761663136157996 1:0.342434 2:-0.296599 3:0.0884617 4:0.256406 5:0.318106 6:-0.593044 7:-0.239245 8:-0.11087 9:-0.427329 10:-0.291363 11:-0.280924 12:-0.259572 13:-0.4799 14:-0.262505 15:-0.416945 16:0.147816 17:-0.182284 18:0.0408576 19:-0.61751 20:-0.108058 21:0.461676 22:-0.0838941 23:-0.322842 24:-0.0335888 25:0.433261 26:-0.08396 
0.5 1:0.0720607 2:-0.120163 3:0.154143 4:-0.486074 5:-0.00505201 6:-0.030806 7:-0.175608 8:-0.263691 9:-0.229978 10:-0.0578295 11:0.149302 12:-0.383898 13:-0.342901 14:-0.0534775 15:0.729542 16:0.265631 17:-0.255376 18:-0.221315 19:-0.54912 20:0.0514658 21:0.177819 22:-0.282007 23:-0.397244 24:-0.361196 25:0.829372 26:-0.113663 
0.5 1:-0.679016 2:0.694854 3:1 4:-0.969351 5:-0.737642 6:-0.548851 7:-1 8:-0.876559 9:-0.459694 10:-0.884083 11:-0.285271 12:-0.669708 13:-0.980459 14:-0.351226 15:-0.606463 16:0.130109 17:-0.870337 18:-0.869749 19:-0.729747 20:-0.518841 21:-0.66033 22:-0.21093 23:-0.881355 24:-0.537308 25:0.123033 26:-0.829411 
0.5 1:0.136233 2:0.0196877 3:-0.0877654 4:-0.551987 5:-0.512035 6:0.163657 7:0.276787 8:-0.0650245 9:-0.101306 10:-0.548733 11:0.37739 12:-0.271014 13:-0.708389 14:-0.0934592 15:0.096272 16:0.285501 17:-0.443609 18:-0.458712 19:0.333791 20:-0.582601 21:-0.0660323 22:-0.483712 23:0.439059 24:-0.671819 25:-0.172597 26:0.0654584 
0.025899710437483972 1:-0.0792001 2:-0.377749 3:0.333881 4:0.22483 5:0.175602 6:-0.110707 7:0.0452411 8:-0.776805 9:-0.444706 10:-0.336889 11:-0.301456 12:-0.18091 13:0.075543 14:-0.348858 15:-0.360397 16:0.712737 17:-0.395042 18:0.134291 19:-0.586344 20:-0.534387 21:-0.275217 22:0.0237291 23:0.251356 24:0.309203 25:-0.021594 26:0.120018 
0.5 1:0.0763957 2:0.26193 3:0.200981 4:0.142587 5:-0.206397 6:-0.723798 7:-0.353913 8:-0.323984 9:-0.204848 10:-0.217235 11:0.151903 12:-0.407625 13:0.140005 14:0.603457 15:-0.686019 16:0.0428083 17:-0.320665 18:0.616823 19:-0.025837 20:0.44551 21:-0.228656 22:-0.674235 23:-0.558429 24:-0.335824 25:-0.212164 26:-0.272933 
0.5 1:-0.161377 2:0.185101 3:-0.113462 4:-0.130026 5:-0.112061 6:-0.494509 7:-0.0764849 8:-0.668989 9:-0.0670771 10:-0.335734 11:0.218348 12:-0.595252 13:-0.38072 14:-0.214429 15:-0.473929 16:0.0897222 17:-0.256702 18:-0.0876554 19:0.173645 20:0.148486 21:0.165686 22:0.0471512 23:-0.212795 24:-0.774527 25:-0.135313 26:-0.215436 
0.40703420349755987 1:0.446485 2:-0.507434 3:-0.644034 4:0.347629 5:0.387139 6:-0.452902 7:-0.063548 8:0.0434198 9:-0.758094 10:-0.245089 11:-0.541524 12:-0.354734 13:-0.914872 14:-0.811947 15:0.262555 16:-0.554495 17:-0.0358754 18:0.01561 19:-0.773613 20:0.216906 21:0.485906 22:-0.16584 23:-0.685369 24:-0.31325 25:0.523838 26:-0.179702 
0.5 1:0.311546 2:-0.284647 3:-0.233614 4:-0.116204 5:-0.134698 6:-0.194067 7:0.36083 8:0.12461 9:-0.532747 10:-0.055904 11:0.235281 12:-0.285687 13:-0.646618 14:-0.405419 15:0.217973 16:0.427501 17:-0.0784532 18:0.0708393 19:-0.448368 20:0.0403345 21:-0.160942 22:-0.220951 23:0.611784 24:-0.466923 25:0.0789605 26:-0.062909 
0.5 1:-0.119868 2:-0.661613 3:-0.27105 4:-0.490195 5:-0.317692 6:0.367537 7:1 8:-0.760627 9:-0.741399 10:-0.593017 11:-0.809599 12:-0.0215057 13:-0.282896 14:-0.94557 15:-0.0399502 16:0.115122 17:-0.960053 18:-0.548244 19:-1 20:-0.144617 21:-0.273894 22:0.687703 23:-0.429991 24:-0.419181 25:-0.0829938 26:-1 
0.39630304254101223 1:0.229347 2:0.206995 3:0.307469 4:-0.245479 5:-0.742285 6:0.247651 7:-0.14653 8:-0.865709 9:-0.565827 10:-0.221619 11:0.222301 12:0.296223 13:-0.549337 14:-0.0509862 15:-0.467649 16:0.254671 17:-0.685629 18:-0.470546 19:-0.674127 20:-0.240864 21:-0.829345 22:-0.0120856 23:-0.414734 24:-0.433846 25:-0.0654228 26:-0.413252 
0.5 1:0.150285 2:-0.127916 3:0.232543 4:0.0708555 5:0.116522 6:-0.613552 7:-0.197569 8:-0.771554 9:-0.224314 10:-0.178375 11:-0.189448 12:-0.574918 13:0.0227392 14:0.0524502 15:-0.76624 16:0.282974 17:-0.0799858 18:0.0447847 19:-0.176815 20:0.249814 21:0.263773 22:0.254652 23:-0.457193 24:-0.69834 25:0.242472 26:0.494287 
0.5 1:-0.649269 2:0.54518 3:-0.282054 4:-0.436371 5:-0.782463 6:-0.408373 7:-0.486498 8:-0.582833 9:-0.383642 10:-0.710604 11:-0.609201 12:-0.701875 13:-0.495908 14:-0.428744 15:-0.834387 16:-0.390921 17:-0.726804 18:-0.463792 19:-0.126124 20:-0.403657 21:-0.66856 22:-0.534421 23:-1 24:-0.62486 25:-0.571244 26:-0.625615 
0.5 1:0.294091 2:-0.322234 3:0.0397552 4:0.209992 5:0.436562 6:-0.575702 7:0.00440201 8:-0.73319 9:-0.673319 10:0.216859 11:0.0166512 12:0.367397 13:-0.242674 14:-0.137582 15:-0.208504 16:0.539401 17:0.029876 18:0.0919661 19:-0.32534 20:-0.0989787 21:0.542011 22:-0.100494 23:0.106728 24:-0.247708 25:0.618342 26:-0.121948 
0.5 1:0.164563 2:-0.292442 3:0.0194231 4:-0.512842 5:-0.175798 6:-0.154428 7:0.260997 8:0.104075 9:-0.347282 10:-0.499826 11:-0.377795 12:-0.516708 13:-0.331908 14:-0.571082 15:0.0911524 16:0.393798 17:-0.525135 18:-0.635997 19:-0.786963 20:-0.575069 21:0.0630836 22:1 23:0.645729 24:-0.457196 25:0.963638 26:-0.356138 
0.5 1:0.124076 2:-0.251548 3:0.140124 4:-0.476838 5:-0.253457 6:-0.25576 7:-0.0601632 8:-0.359058 9:-0.519912 10:0.241806 11:-0.00553415 12:-0.340909 13:-0.450336 14:-0.415009 15:-0.153021 16:0.107658 17:-0.416202 18:-0.43696 19:-0.55556 20:-0.114817 21:-0.145688 22:0.162748 23:-0.583631 24:-0.590254 25:0.253865 26:-0.16993 
0.5 1:-0.00785892 2:-0.401744 3:0.0725149 4:0.170154 5:0.272536 6:-0.350126 7:0.0433668 8:-0.510306 9:-0.0250121 10:0.15606 11:0.371967 12:-0.698653 13:-0.355757 14:-0.536024 15:-0.308892 16:0.0119961 17:-0.248627 18:-0.0267542 19:-0.424817 20:-0.152232 21:0.256017 22:-0.0458346 23:0.132355 24:-0.347096 25:0.450839 26:-0.0799836 
0.5 1:0.439471 2:-0.0498432 3:-0.181437 4:-0.465206 5:-0.494489 6:-0.129754 7:0.114482 8:-0.194151 9:-0.124154 10:-0.848121 11:-0.218777 12:0.820369 13:-0.365865 14:-0.388063 15:-0.144081 16:-0.303559 17:-0.58451 18:-0.301278 19:-0.443214 20:-0.641449 21:-0.423463 22:0.792838 23:-0.257701 24:-0.467486 25:-0.50217 26:-0.223551 
0.44684429879350868 1:-0.110132 2:-0.335024 3:-0.190789 4:0.0559657 5:0.255113 6:0.226457 7:0.587614 8:-0.803117 9:-0.581809 10:-0.215221 11:0.0455425 12:-0.388302 13:-0.738797 14:-0.567784 15:-0.68366 16:0.371334 17:-0.237373 18:-0.315625 19:-0.403187 20:-0.508919 21:0.325681 22:-0.133748 23:-0.245931 24:-0.145758 25:0.289978 26:-0.356201 
0.5 1:0.00791947 2:0.0090432 3:-0.338072 4:0.0436055 5:-0.223963 6:-0.264406 7:-0.0433942 8:-0.238362 9:-0.309558 10:-0.17591 11:0.0695007 12:-0.470907 13:-0.261515 14:0.0335256 15:-0.335234 16:-0.35796 17:-0.00745498 18:0.224716 19:-0.136065 20:0.236725 21:-0.24817 22:-0.237838 23:-0.349939 24:-0.731257 25:-0.110099 26:0.151334 
0.5 1:0.189354 2:-0.152992 3:-0.226481 4:-0.276493 5:-0.275384 6:0.292054 7:0.411888 8:-0.181627 9:-0.456104 10:0.234357 11:0.102134 12:-0.48146 13:-0.251002 14:9.25012e-05 15:-0.429712 16:-0.11114 17:-0.0258636 18:0.0817479 19:-0.173408 20:-0.0175521 21:-0.0807004 22:0.187387 23:0.188754 24:-0.639566 25:-0.153532 26:0.0257189 
0.35146806014792686 1:0.67375 2:-0.578066 3:-0.0862415 4:0.440607 5:0.556695 6:-0.172351 7:-0.107247 8:-0.285158 9:-0.0850405 10:-0.329241 11:0.00778883 12:-0.225678 13:-0.398077 14:-0.32606 15:-0.443369 16:0.760276 17:-0.185564 18:0.328412 19:-0.402077 20:0.169355 21:0.4892 22:-0.477041 23:-0.0818042 24:-0.186041 25:0.0708299 26:-0.473813 
0.5 1:-0.287205 2:-0.386188 3:-0.144168 4:-0.0896722 5:0.321232 6:-0.0344744 7:0.366228 8:-0.542611 9:-0.714537 10:0.49196 11:0.148018 12:-0.853473 13:-0.417439 14:-0.536295 15:-0.101968 16:0.0160759 17:-0.275926 18:-0.292411 19:-0.834604 20:-0.38759 21:0.348173 22:0.436345 23:0.440655 24:0.151568 25:0.683117 26:-0.035003 
0.5 1:-0.0292937 2:-0.206678 3:0.0396058 4:0.0203868 5:0.0499603 6:-0.473935 7:-0.0532897 8:-0.482881 9:-0.202374 10:0.189583 11:0.249615 12:-0.660821 13:-0.297478 14:-0.188521 15:-0.531145 16:0.339125 17:0.0579314 18:0.284378 19:-0.338285 20:0.115351 21:0.229667 22:-0.0102024 23:-0.0978722 24:-0.125299 25:0.293793 26:-0.0711877 
0.5 1:0.570689 2:-0.648814 3:-0.0789468 4:1 5:0.351042 6:-0.303899 7:-0.41349 8:-0.333046 9:-0.572722 10:-0.971912 11:-0.716602 12:-0.214371 13:-0.584493 14:-0.406048 15:0.0686625 16:0.120617 17:-0.208596 18:0.765501 19:-0.806023 20:0.065969 21:0.311134 22:-0.0292759 23:-0.542588 24:-0.408528 25:-0.480139 26:-0.116969 
0.5 1:0.286957 2:-0.0231988 3:-0.0819368 4:-0.281725 5:-0.18255 6:0.00373029 7:0.237534 8:-0.527825 9:-0.458847 10:-0.0723104 11:0.0108908 12:0.262698 13:-0.175819 14:-0.13527 15:-0.397836 16:-0.030006 17:-0.111284 18:0.053761 19:-0.228893 20:0.0316913 21:0.0165607 22:0.223731 23:-0.0392138 24:-0.621696 25:-0.02312 26:-0.046072 
0.5 1:0.267651 2:-0.208828 3:-0.433059 4:-0.152588 5:-0.336781 6:0.262181 7:0.534164 8:-0.0120951 9:-0.405853 10:-0.469221 11:-0.113521 12:-0.438626 13:-0.358985 14:-0.474842 15:-0.191251 16:0.0602282 17:-0.251278 18:0.234935 19:-0.498043 20:0.00484934 21:-0.530309 22:0.452933 23:0.16339 24:-0.658979 25:-0.597764 26:-0.043844 
0.5 1:-0.0544902 2:-0.0210586 3:0.0112746 4:0.0491471 5:-0.210245 6:-0.285411 7:0.149203 8:-0.630685 9:-0.563692 10:-0.0550144 11:0.124399 12:0.13158 13:0.379542 14:-0.185152 15:-0.609304 16:0.176946 17:-0.52801 18:0.202429 19:-0.56243 20:0.0919143 21:-0.421004 22:-0.230772 23:-0.1314 24:0.371663 25:0.108435 26:-0.204947 
0.5 1:0.208874 2:-0.61854 3:-0.0896298 4:0.187421 5:0.293477 6:-0.477806 7:0.0644332 8:-0.41661 9:-0.196626 10:-0.194029 11:-0.644511 12:-0.449337 13:-0.308095 14:-0.556926 15:0.58568 16:0.182308 17:-0.0226136 18:0.181514 19:-0.318443 20:0.176824 21:0.126016 22:-0.0365879 23:0.176395 24:-0.665183 25:0.196594 26:-0.0716844 
0.5 1:0.17037 2:-0.115952 3:0.256993 4:-0.0993334 5:-0.0429395 6:-0.447991 7:0.0392483 8:-0.748915 9:-0.0785704 10:0.154309 11:0.259881 12:-0.129791 13:-0.190087 14:-0.191604 15:-0.137911 16:0.515375 17:0.0347511 18:0.21779 19:-0.380274 20:-0.119201 21:-0.0367375 22:0.083341 23:-0.049773 24:-0.310161 25:0.107053 26:0.0969258 
0.20791199363314208 1:-0.445804 2:0.183049 3:-0.562251 4:-0.283569 5:-0.217165 6:-0.149846 7:-0.372035 8:-0.617242 9:-0.507773 10:-0.52493 11:0.0564192 12:-0.647769 13:-0.542746 14:-0.129175 15:-0.42572 16:-0.417457 17:-0.477376 18:-0.468869 19:-0.123982 20:-0.230873 21:-0.359418 22:-0.268292 23:-0.80078 24:-0.687636 25:-0.00936899 26:-0.262291 
0.5 1:0.262726 2:-0.195258 3:-0.412475 4:0.184644 5:0.180474 6:-0.37297 7:0.0479104 8:-0.144759 9:-0.446532 10:-0.000946324 11:-0.282485 12:-0.25223 13:-0.746963 14:-0.370546 15:-0.595412 16:-0.328838 17:-0.133604 18:-0.204301 19:-0.591349 20:-0.169299 21:0.0833194 22:-0.14082 23:0.068815 24:-0.437476 25:-0.024925 26:-0.0172434 
0.5 1:-0.574833 2:-0.0844488 3:0.199455 4:-0.084974 5:0.0499825 6:-0.360764 7:-0.0969219 8:-0.631235 9:-0.595243 10:-0.0736817 11:0.321327 12:-0.761775 13:-0.641282 14:-0.481738 15:-0.590749 16:0.163228 17:-0.25428 18:-0.392533 19:-0.497798 20:-0.0423664 21:0.216813 22:0.273508 23:-0.257284 24:-0.0404989 25:0.603622 26:-0.334924 
0.5 1:0.628166 2:-0.343905 3:-0.125484 4:0.412223 5:0.157762 6:-0.427501 7:-0.0398363 8:-0.24521 9:-0.272629 10:-0.422792 11:-0.0879256 12:-0.0695582 13:-0.313846 14:-0.269124 15:-0.256427 16:0.0487319 17:-0.326981 18:0.387422 19:-0.559503 20:-0.247135 21:0.0319501 22:0.440411 23:-0.165719 24:-0.26728 25:-0.183228 26:0.0842498 
0.5 1:-0.124536 2:0.0871448 3:-0.0792599 4:-0.168732 5:0.00668257 6:-0.472452 7:-0.0443769 8:-0.676375 9:-0.288341 10:-0.0108104 11:0.459306 12:-0.730082 13:-0.494238 14:0.0446864 15:-0.463917 16:0.036355 17:-0.175856 18:-0.0938873 19:-0.188525 20:-0.163991 21:0.332009 22:0.0776901 23:-0.157046 24:-0.0776249 25:0.0800504 26:0.129448 
0.5 1:0.108227 2:0.189571 3:0.017021 4:-0.0369146 5:-0.299469 6:-0.282093 7:0.0885024 8:-0.449107 9:-0.0118989 10:-0.155701 11:0.130891 12:-0.232549 13:-0.0594639 14:0.486382 15:-0.7609 16:-0.0200722 17:-0.115259 18:0.604671 19:-0.238981 20:0.176555 21:-0.162947 22:-0.382013 23:-0.126875 24:-0.565555 25:-0.406997 26:-0.232471 
0.46651922300216248 1:0.619764 2:-0.619428 3:-0.855059 4:0.303062 5:0.327859 6:-0.115163 7:0.316354 8:0.540067 9:-0.748065 10:-0.433245 11:-0.595568 12:-0.228452 13:-0.679183 14:-0.720943 15:0.200483 16:-0.693122 17:-0.00123084 18:0.366119 19:-0.849285 20:0.178177 21:0.490582 22:0.0156875 23:0.045677 24:0.0940622 25:-0.00405214 26:-0.160705 
0.5 1:0.183863 2:-0.0859175 3:-0.167073 4:-0.0214582 5:0.0129227 6:-0.383763 7:-0.11728 8:-0.433908 9:-0.331405 10:-0.178525 11:0.532586 12:-0.207156 13:-0.395451 14:-0.0265343 15:-0.201934 16:-0.00118653 17:-0.00812262 18:0.179865 19:-0.434971 20:0.0101345 21:0.0634492 22:0.458712 23:-0.141442 24:-0.238491 25:0.173811 26:-0.0262346 
0.5 1:-0.191903 2:0.107795 3:-0.398056 4:-0.505276 5:-0.336403 6:-0.39755 7:0.0867094 8:-0.335455 9:0.136189 10:-0.495149 11:0.0729999 12:-0.531721 13:-0.760926 14:-0.266288 15:-0.261875 16:-0.372603 17:-0.518804 18:-0.427204 19:-0.0893688 20:-0.348379 21:-0.160708 22:-0.303876 23:-0.132396 24:-0.646507 25:-0.206901 26:-0.13904 
0.5 1:-0.113101 2:-0.467208 3:0.104333 4:0.421085 5:1 6:-0.387597 7:-0.000826739 8:-0.792073 9:-0.630503 10:0.43374 11:-0.0613952 12:0.381829 13:-0.670732 14:-0.242278 15:-0.367128 16:0.521861 17:-0.18959 18:-0.220474 19:-0.365281 20:0.202938 21:1 22:0.0225621 23:0.213692 24:0.221218 25:0.394904 26:-0.336538 
0.5 1:-0.427149 2:-0.568051 3:0.0700078 4:-0.626216 5:0.0382422 6:0.00424978 7:-0.238474 8:-0.691283 9:-0.497062 10:0.0152774 11:-0.384724 12:-0.722452 13:-0.375851 14:-0.709224 15:-0.00762937 16:-0.400578 17:-0.609321 18:-0.609142 19:-0.810492 20:0.144858 21:0.140738 22:-0.0146512 23:-0.66841 24:-0.581528 25:0.215614 26:-0.374382 
0.5 1:0.0460554 2:-0.0189724 3:0.00622155 4:0.215385 5:0.156291 6:-0.580305 7:-0.083099 8:-0.114139 9:-0.116269 10:0.176471 11:0.390428 12:-0.57252 13:-0.317398 14:0.273995 15:-0.408766 16:-0.0742526 17:0.345277 18:0.648572 19:-0.539605 20:0.281412 21:0.417532 22:-0.445128 23:-0.573358 24:-0.353201 25:0.0377203 26:0.0666137 
0.5 1:0.197555 2:-0.121186 3:0.273622 4:0.0918132 5:0.0320637 6:-0.500561 7:-0.14172 8:-0.352999 9:-0.394612 10:-0.146289 11:0.367135 12:-0.155758 13:-0.0722532 14:-0.0383888 15:-0.433851 16:0.864358 17:-0.0784451 18:0.373343 19:-0.288372 20:-0.183725 21:0.148874 22:-0.354384 23:-0.20247 24:-0.566477 25:0.339793 26:-0.176905 
0.5 1:0.419138 2:-0.476582 3:-0.411581 4:0.342846 5:0.391055 6:-0.416591 7:-0.105178 8:-0.275007 9:-0.701028 10:0.00743623 11:-0.176141 12:-0.273766 13:-0.688263 14:-0.4763 15:-0.0564655 16:-0.339416 17:0.0734251 18:0.241198 19:-0.578671 20:0.253952 21:0.344352 22:-0.0113925 23:-0.38788 24:-0.224026 25:0.190349 26:0.0148353 
0.034553252410713602 1:0.573863 2:-0.20964 3:0.202091 4:0.341778 5:-0.177102 6:0.0854304 7:-0.103092 8:-0.667525 9:-0.548654 10:-0.505389 11:-0.0600221 12:0.365834 13:-0.317758 14:-0.304596 15:-0.286677 16:0.618152 17:-0.570007 18:0.0319739 19:-0.685558 20:-0.47985 21:-0.333176 22:0.371373 23:0.152297 24:0.284473 25:0.0442606 26:-0.165991 
0.5 1:-0.370699 2:0.264876 3:-0.0608925 4:-0.266307 5:-0.190031 6:-0.285404 7:-0.273172 8:-0.797999 9:-0.40252 10:-0.27468 11:-0.0503212 12:-0.379187 13:-0.643941 14:-0.145686 15:-0.872757 16:-0.143367 17:-0.643686 18:-0.277765 19:-0.0314513 20:0.127636 21:0.0443338 22:0.469416 23:-0.72099 24:-0.0448115 25:0.71711 26:-0.806815 
0.5 1:0.168045 2:-0.095147 3:-0.229925 4:0.0545931 5:-0.075384 6:-0.238689 7:-0.0108247 8:0.416061 9:-0.107345 10:0.349507 11:0.292212 12:-0.499544 13:-0.303883 14:-0.146296 15:-0.369294 16:0.180427 17:0.132812 18:0.159832 19:-0.419295 20:-0.25369 21:-0.0848746 22:-0.223587 23:0.117315 24:-0.499486 25:-0.0427139 26:0.133363 
0.5 1:0.021567 2:-0.445668 3:-0.63224 4:-0.497143 5:-0.116819 6:0.738763 7:0.675959 8:-0.674677 9:-0.934867 10:-0.210005 11:0.172427 12:-0.272463 13:-0.661435 14:-0.696029 15:-0.178652 16:-0.618058 17:-0.614042 18:-0.697565 19:-0.768658 20:-0.481024 21:-0.394585 22:-0.289576 23:0.147157 24:-0.161057 25:0.262134 26:-0.398559 
0.5 1:0.520042 2:-0.137512 3:0.162246 4:0.108363 5:0.0367485 6:-0.39423 7:-0.168354 8:-0.353757 9:-0.471969 10:-0.458533 11:-0.0988967 12:-0.092586 13:-0.484728 14:0.0257778 15:0.0194446 16:0.562105 17:-0.27481 18:0.279045 19:-0.619052 20:-0.175426 21:0.116651 22:0.304833 23:0.0702924 24:-0.295705 25:-0.0527546 26:-0.0102853 
0.5 1:0.00707864 2:0.0402049 3:-0.236331 4:-0.389018 5:-0.243373 6:-0.19817 7:-0.0910509 8:-0.540942 9:-0.450576 10:-0.346988 11:0.132045 12:-0.0977407 13:-0.616469 14:-0.212892 15:-0.415703 16:-0.0229831 17:-0.400288 18:-0.316942 19:0.213811 20:-0.483574 21:-0.321903 22:-0.0745435 23:-0.26829 24:-0.228917 25:-0.0741018 26:-0.254961 
0.5 1:-0.878732 2:0.584848 3:0.0752458 4:0.13049 5:-0.555869 6:0.180568 7:-0.0403527 8:-0.868479 9:-0.445756 10:-0.601732 11:0.0609689 12:-0.538859 13:-0.442668 14:0.0805341 15:-0.524542 16:0.111174 17:-0.482403 18:-0.0173339 19:-0.571317 20:-0.199828 21:-0.48054 22:-0.449873 23:-0.889408 24:-0.714937 25:-0.0272873 26:-0.399736 
0.34381582193633842 1:0.600446 2:-0.540595 3:-0.500718 4:0.215554 5:0.459112 6:-0.341445 7:0.0471638 8:-0.341082 9:-0.652903 10:-0.493176 11:-0.637786 12:-0.2069 13:-0.718022 14:-0.699471 15:0.390729 16:-0.661481 17:0.106473 18:-0.203829 19:-0.705573 20:-0.0613643 21:0.310851 22:-0.41962 23:-0.123179 24:-0.167309 25:0.279795 26:0.0282684 
0.5 1:0.496473 2:0.0760787 3:0.367406 4:0.148918 5:0.125228 6:-0.785662 7:-0.54093 8:0.371997 9:-0.412155 10:0.051987 11:0.0845978 12:-0.0224514 13:0.0220015 14:0.492195 15:-0.553471 16:0.258672 17:-0.0213159 18:0.783723 19:0.0432035 20:0.123592 21:0.142403 22:-0.516568 23:-0.574698 24:-0.4459 25:0.514633 26:-0.236574 
0.5 1:0.381118 2:-0.179763 3:0.0332193 4:0.309281 5:0.0748576 6:-0.614084 7:-0.209492 8:-0.262678 9:-0.385646 10:0.0908333 11:0.313605 12:-0.0608966 13:-0.332882 14:-0.0589284 15:-0.603611 16:-0.00447446 17:-0.312514 18:0.832312 19:-0.086941 20:-0.237953 21:0.400771 22:0.569691 23:-0.24559 24:-0.630569 25:0.334802 26:-0.145112 
0.5 1:0.670824 2:-0.607305 3:-0.701453 4:0.635486 5:0.138701 6:-0.557927 7:0.215459 8:0.430926 9:-0.542492 10:-0.231627 11:-0.165907 12:-0.508496 13:-0.730766 14:-0.61255 15:0.341499 16:-0.135932 17:0.508226 18:0.535725 19:-0.756939 20:0.447581 21:0.257407 22:0.0995958 23:-0.245667 24:-0.498475 25:-0.327635 26:0.263073 
0.0077655712311432848 1:0.550442 2:-0.570837 3:-0.661271 4:0.636121 5:0.418307 6:-0.550546 7:0.0622275 8:0.328917 9:-0.821837 10:-0.152533 11:-0.656315 12:-0.202746 13:-0.760716 14:-0.661027 15:-0.184407 16:-0.454921 17:-0.215617 18:0.314608 19:-0.654949 20:0.554867 21:0.314755 22:0.0916972 23:0.314592 24:-0.136979 25:-0.187033 26:0.120383 
0.34060663001782432 1:1 2:-0.161912 3:0.249039 4:0.452794 5:-0.15456 6:-0.121691 7:-0.326835 8:-0.444829 9:-0.428143 10:-0.659156 11:-0.0534051 12:0.563049 13:-0.20006 14:-0.23437 15:-0.566107 16:0.579519 17:-0.582985 18:0.206347 19:-0.507914 20:-0.108824 21:-0.129968 22:-0.166675 23:-0.586173 24:0.211139 25:-0.0264289 26:-0.380033 
0.5 1:0.341917 2:-0.729325 3:0.0840156 4:0.445047 5:0.759436 6:-0.679689 7:-0.0661016 8:-0.71835 9:-0.669688 10:0.147663 11:-0.353994 12:-0.340422 13:-0.429611 14:-0.67357 15:-0.300475 16:0.720418 17:-0.196476 18:0.224743 19:-0.621602 20:0.402424 21:0.485352 22:-0.288887 23:0.137419 24:-0.00678142 25:0.81596 26:-0.236627 
0.5 1:0.304623 2:-0.170959 3:-0.278656 4:0.022191 5:-0.0696362 6:-0.0939566 7:0.182473 8:-0.272311 9:-0.433021 10:0.259 11:0.229901 12:-0.0219984 13:-0.426228 14:-0.0876235 15:-0.203512 16:0.290967 17:0.148377 18:0.173401 19:-0.479072 20:0.0683523 21:-0.0670101 22:0.202064 23:0.0817917 24:-0.623961 25:-0.0685114 26:0.131883 
0.5 1:0.0782778 2:-0.318346 3:-0.0046292 4:-0.922134 5:-0.420223 6:0.265442 7:0.0816575 8:-0.322012 9:-0.482685 10:-0.513723 11:-0.191558 12:-0.563626 13:0.096831 14:-0.809434 15:0.590419 16:-0.563052 17:-1 18:-0.998672 19:-0.825659 20:-0.223314 21:-0.346595 22:0.655325 23:0.0573943 24:-0.545958 25:0.794875 26:-0.876329 
0.5 1:-0.0919752 2:0.00832265 3:-0.00724109 4:0.00043008 5:-0.121613 6:-0.186622 7:0.0772928 8:-0.373899 9:-0.291386 10:-0.322089 11:0.073392 12:-0.481938 13:-0.622803 14:-0.168322 15:-0.518069 16:0.485674 17:-0.00650612 18:0.288911 19:-0.378193 20:-0.160406 21:-0.109598 22:-0.324176 23:0.0203701 24:-0.733536 25:0.0885509 26:0.108209 
0.5 1:0.120731 2:-0.111634 3:-0.0668362 4:0.140188 5:-0.0304654 6:-0.25848 7:-0.0398215 8:-0.359103 9:-0.367482 10:-0.638747 11:-0.108248 12:-0.617653 13:-0.496162 14:-0.213632 15:-0.295097 16:0.34249 17:-0.195639 18:0.00668597 19:-0.624864 20:-0.109279 21:-0.042254 22:0.141814 23:-0.186739 24:-0.652973 25:-0.349696 26:0.0336987 
0.5 1:0.0611004 2:0.256968 3:-0.0621843 4:-0.362868 5:-0.220304 6:-0.388645 7:-0.206757 8:-0.645107 9:-0.424501 10:-0.272266 11:0.428108 12:-0.460728 13:-0.516379 14:-0.0476485 15:-0.494182 16:-0.105283 17:-0.265893 18:-0.403723 19:-0.298327 20:-0.308052 21:0.106873 22:-0.0455401 23:-0.390359 24:-0.176139 25:0.0190211 26:-0.182417 
-0.088252193479055233 1:0.142135 2:-0.161554 3:-0.425647 4:0.13075 5:-0.0132796 6:-0.564939 7:-0.11647 8:-0.16406 9:-0.236746 10:0.385239 11:0.370325 12:-0.593994 13:-0.29275 14:-0.138922 15:0.620065 16:-0.355998 17:0.363035 18:0.774958 19:-0.452471 20:0.217903 21:-0.245788 22:-0.346921 23:-0.569915 24:-0.3454 25:-0.296502 26:0.171169 
-0.39113197493075907 1:-0.0606062 2:-0.22402 3:-0.274829 4:-0.395584 5:-0.0943531 6:-0.0306054 7:0.638006 8:-0.0768958 9:-0.319519 10:0.382939 11:0.0888466 12:-0.849327 13:-0.356924 14:-0.361252 15:0.0257786 16:-0.352016 17:0.0880071 18:-0.12826 19:-0.0610837 20:-0.307424 21:0.0905593 22:-0.195 23:0.947363 24:0.107449 25:0.83069 26:0.118382 
-0.5 1:0.596006 2:-0.30583 3:0.0397336 4:-0.111513 5:-0.0620831 6:-0.41832 7:-0.157184 8:-0.235912 9:-0.456967 10:0.376531 11:0.0181164 12:1 13:-0.307733 14:-0.4105 15:-0.472467 16:0.406677 17:-0.673094 18:-0.498491 19:-0.383677 20:-0.232998 21:-0.28539 22:0.474349 23:-0.341424 24:1 25:0.0433561 26:-0.530008 
-0.5 1:0.00707864 2:0.0402049 3:-0.236331 4:-0.389018 5:-0.243373 6:-0.19817 7:-0.0910509 8:-0.540942 9:-0.450576 10:-0.346988 11:0.132045 12:-0.0977407 13:-0.616469 14:-0.212892 15:-0.415703 16:-0.0229831 17:-0.400288 18:-0.316942 19:0.213811 20:-0.483574 21:-0.321903 22:-0.0745435 23:-0.26829 24:-0.228917 25:-0.0741018 26:-0.254961 
-0.5 1:0.250426 2:-0.218212 3:-0.484175 4:-0.00748725 5:-0.138163 6:0.164602 7:0.388256 8:-0.171634 9:-0.680318 10:0.481159 11:0.384934 12:-0.651667 13:-0.474493 14:-0.41978 15:-0.142688 16:-0.0564769 17:0.104842 18:0.237367 19:-0.607953 20:0.049492 21:-0.117335 22:0.0909701 23:0.617905 24:-0.513525 25:-0.0433496 26:0.134798 
-0.12721530934615535 1:0.280653 2:-0.216988 3:-0.243433 4:0.0766109 5:-0.169057 6:-0.412511 7:0.286079 8:0.0552363 9:-0.57186 10:0.941607 11:0.224242 12:-0.231163 13:-0.322096 14:0.10406 15:0.0727673 16:-0.0388145 17:0.362938 18:0.472278 19:-0.417434 20:0.344728 21:0.0979649 22:-0.265373 23:-0.226085 24:-0.761856 25:-0.0852548 26:0.599179 
-0.5 1:0.130658 2:-0.108227 3:-0.060851 4:-0.0570865 5:-0.133214 6:-0.36668 7:0.162937 8:-0.217522 9:-0.424262 10:-0.204644 11:0.400053 12:-0.209267 13:-0.603627 14:-0.295159 15:-0.267268 16:0.689254 17:-0.0219832 18:0.194159 19:-0.456838 20:0.0924074 21:-0.0721152 22:0.0942545 23:-0.07029 24:-0.205267 25:0.0638739 26:0.00350935 
-0.5 1:-0.190158 2:-0.0824258 3:-0.114482 4:-0.748598 5:-0.418725 6:0.234328 7:0.86743 8:-0.265365 9:-0.730483 10:0.438384 11:-0.149099 12:-0.897985 13:-0.275764 14:-0.687389 15:-0.192147 16:-0.231407 17:-0.314713 18:-0.481254 19:-0.192458 20:-0.620999 21:-0.315821 22:-0.246746 23:0.481933 24:-0.332769 25:0.618589 26:-0.142761 
-0.5 1:0.445698 2:-0.135636 3:0.0580842 4:0.104555 5:0.123991 6:-0.405019 7:-0.0582136 8:-0.214553 9:-0.398069 10:-0.25865 11:0.397815 12:-0.175137 13:-0.395846 14:0.0151482 15:-0.496291 16:0.414166 17:-0.163745 18:0.414997 19:-0.273703 20:0.094302 21:0.571009 22:0.24026 23:0.121648 24:-0.0705533 25:0.377141 26:0.079548 
-0.5 1:0.165274 2:-0.46824 3:-0.369157 4:-0.187833 5:-0.0747253 6:-0.116176 7:0.0315571 8:0.00233337 9:-0.631117 10:0.388273 11:-0.188371 12:-0.74605 13:-0.363404 14:-0.68914 15:0.339966 16:-0.60627 17:-0.335398 18:-0.0235237 19:-0.76557 20:0.301814 21:0.229585 22:0.405612 23:-0.21944 24:0.139882 25:0.340755 26:-0.27716 
-0.5 1:0.0617285 2:-0.112546 3:0.173377 4:0.00449604 5:0.0418012 6:-0.251969 7:-0.140908 8:0.168363 9:-0.281929 10:0.595559 11:0.627327 12:-0.526347 13:-0.121607 14:0.0139409 15:-0.578598 16:0.776286 17:-0.0194512 18:0.290652 19:-0.245052 20:0.369266 21:0.717364 22:-0.65247 23:-0.342459 24:0.0714322 25:-0.127675 26:0.134088 
-0.061436729343628288 1:0.246737 2:-0.17472 3:-0.712752 4:-0.00552254 5:-0.32465 6:-0.134519 7:0.15668 8:0.658822 9:-0.312461 10:0.61662 11:0.625138 12:-0.626396 13:-0.353796 14:-0.185702 15:0.489559 16:-0.301699 17:0.452072 18:0.160613 19:-0.203093 20:0.136853 21:-0.473527 22:-0.467131 23:-0.0220923 24:-0.84032 25:-0.459385 26:0.587334 
-0.40682930432371239 1:0.399791 2:-0.376963 3:-0.217549 4:-0.325528 5:-0.137151 6:0.0307751 7:0.623069 8:-0.211673 9:-0.65306 10:0.360978 11:0.493093 12:-0.175098 13:-0.470865 14:-0.240852 15:0.803295 16:-0.228072 17:-0.0154674 18:0.293206 19:0.020055 20:-0.0691498 21:0.64426 22:-0.64191 23:1 24:-0.102344 25:0.544887 26:0.19601 
-0.5 1:0.255515 2:-0.012282 3:-0.243158 4:-0.0694164 5:-0.0814485 6:-0.266818 7:-0.0662821 8:-0.474225 9:-0.588555 10:-0.31547 11:0.273938 12:-0.0369838 13:-0.377019 14:0.124251 15:-0.323181 16:-0.104676 17:-0.148209 18:0.0342917 19:-0.336197 20:0.272164 21:0.0720351 22:0.345421 23:-0.183648 24:-0.414457 25:0.184078 26:-0.0267239 
-0.5 1:-0.352072 2:0.00473115 3:0.165516 4:-0.040712 5:-0.24704 6:-0.457666 7:-0.173862 8:-0.477601 9:-0.370468 10:-0.41051 11:-0.165092 12:-0.738272 13:-0.534946 14:-0.538324 15:-0.217941 16:0.295421 17:-0.302075 18:-0.125826 19:-0.476509 20:0.400557 21:-0.252006 22:-0.0976711 23:-0.525704 24:0.110704 25:-0.0140052 26:-0.215047 
-0.5 1:-0.592238 2:0.076879 3:-0.331948 4:-0.223969 5:0.0933553 6:1 7:0.217952 8:-0.574054 9:-0.659257 10:-0.53862 11:0.0323627 12:-0.803046 13:-0.776497 14:-0.293909 15:-0.930514 16:-0.175966 17:-0.80105 18:-0.360332 19:-0.72432 20:-0.211526 21:-0.119927 22:-0.0374319 23:-0.498102 24:-0.725357 25:-0.424635 26:-0.558649 
-0.5 1:0.0981788 2:-0.0214744 3:0.0210761 4:-0.394953 5:-0.155798 6:-0.325363 7:0.112013 8:0.0468635 9:-0.57244 10:0.254493 11:-0.0102294 12:-0.197651 13:-0.614616 14:-0.256895 15:0.517878 16:0.319668 17:-0.404205 18:-0.0494616 19:0.154087 20:-0.329899 21:0.177562 22:-0.138728 23:0.787056 24:-0.372117 25:0.451096 26:-0.469949 
-0.45779045896091897 1:0.287135 2:-0.235409 3:-0.680427 4:-0.0316149 5:-0.245023 6:0.164732 7:0.0879339 8:0.133684 9:-0.689324 10:0.635256 11:0.207978 12:-0.60279 13:-0.266885 14:-0.341535 15:0.602967 16:-0.648612 17:0.357847 18:0.321722 19:-0.535288 20:0.102464 21:-0.287846 22:-0.137756 23:-0.280002 24:-0.79217 25:-0.47032 26:0.241304 
-0.5 1:-0.495023 2:1 3:-0.0856187 4:-0.86454 5:-0.942443 6:0.505469 7:-0.324951 8:-0.810705 9:-0.288299 10:-0.737345 11:-0.502501 12:-0.639149 13:-0.444497 14:-0.303085 15:-0.896438 16:-0.292971 17:-0.832708 18:-0.907129 19:-0.46784 20:-0.629347 21:-0.900186 22:-0.53281 23:-0.769289 24:-0.864531 25:-0.847094 26:-0.686039 
-0.14640596674107098 1:0.5171 2:-0.3186 3:-0.0259776 4:0.128761 5:-0.00413638 6:-0.388679 7:-0.340762 8:0.474683 9:-0.326229 10:-0.470576 11:0.314606 12:-0.0106288 13:-0.524115 14:-0.442568 15:0.00470991 16:0.189368 17:-0.0611016 18:0.143581 19:-0.460636 20:0.0808833 21:-0.0528403 22:0.416388 23:-0.685071 24:-0.6001 25:0.291349 26:0.0875559 
-0.31263436538785927 1:0.485891 2:-0.493885 3:-0.580867 4:-0.22313 5:-0.141989 6:-0.244145 7:-0.240227 8:0.316976 9:-0.065127 10:0.142439 11:-0.259076 12:-0.428809 13:-0.980337 14:-0.67707 15:0.667372 16:-0.412334 17:0.0137041 18:-0.199089 19:0.0140648 20:0.125027 21:-0.529074 22:-0.0361146 23:-0.790441 24:-0.58292 25:-0.488979 26:0.361326 
-0.5 1:0.283277 2:0.0652367 3:-0.227151 4:0.112567 5:-0.616906 6:-0.140933 7:0.040996 8:-0.2394 9:-0.0599562 10:-0.563685 11:-0.369673 12:-0.416137 13:-0.324399 14:-0.270166 15:-0.878944 16:0.008558 17:-0.538986 18:0.104574 19:-0.29626 20:0.0557655 21:-0.333212 22:0.0392999 23:-0.316309 24:-0.489073 25:-0.381904 26:-0.247275 
-0.5 1:0.25661 2:-0.156934 3:-0.181517 4:0.0410472 5:-0.213863 6:-0.145141 7:0.147671 8:-0.269778 9:-0.348213 10:-0.111276 11:0.433393 12:-0.263819 13:-0.539927 14:-0.241414 15:0.149656 16:0.42269 17:0.199128 18:0.16091 19:-0.566139 20:0.0122825 21:-0.524662 22:0.341023 23:0.166098 24:-0.786515 25:-0.450523 26:0.242553 
-0.38083398846303668 1:0.656925 2:-0.276597 3:-0.272227 4:0.14587 5:0.0505096 6:-0.549127 7:-0.168702 8:-0.175984 9:-0.385563 10:-0.299062 11:0.728941 12:-0.367569 13:-0.776249 14:-0.30566 15:-0.139471 16:-0.326779 17:-0.0977382 18:0.364024 19:-0.186071 20:-0.0234769 21:0.229834 22:0.779597 23:-0.00270421 24:-0.262217 25:-0.00888988 26:0.113981 
-0.43046953481234068 1:0.134088 2:-0.152994 3:0.515985 4:-0.00707507 5:0.110682 6:-0.728444 7:-0.345602 8:-0.295065 9:-0.204788 10:0.158097 11:0.587778 12:-0.583236 13:-0.656797 14:-0.0745686 15:0.155912 16:0.638441 17:-0.247217 18:0.212614 19:-0.683499 20:-0.177454 21:0.174528 22:0.184669 23:-0.161899 24:-0.0539076 25:0.539991 26:0.0343387 
-0.5 1:0.196342 2:-0.17627 3:-0.50432 4:-0.0667242 5:-0.419537 6:-0.366869 7:0.183233 8:-0.685643 9:1 10:-0.470496 11:-0.0698007 12:-0.215886 13:0.0849687 14:0.288438 15:-0.0985949 16:-0.670404 17:0.11185 18:0.086558 19:0.0872195 20:-0.0506386 21:-0.638801 22:-0.467493 23:0.36758 24:-0.851105 25:-1 26:1 
-0.033408852598697671 1:0.0835382 2:-0.174095 3:0.0110272 4:0.0836804 5:0.0132445 6:-0.448162 7:-0.0934631 8:-0.159252 9:-0.532021 10:-0.101194 11:0.146548 12:-0.507783 13:-0.467052 14:-0.0782036 15:0.00420832 16:0.590781 17:-0.137145 18:0.299911 19:-0.354796 20:0.229369 21:0.0551189 22:0.123358 23:-0.384369 24:-0.189553 25:0.377107 26:0.0366015 
-0.5 1:-0.171092 2:0.262878 3:0.0192791 4:-0.0911092 5:0.00772041 6:-0.814563 7:-0.376183 8:0.227785 9:0.257894 10:-0.283102 11:0.429212 12:-0.59289 13:-0.156889 14:0.59087 15:-0.73414 16:-0.144267 17:-0.0626778 18:-0.0514506 19:-0.0920618 20:-0.127082 21:0.250904 22:-0.39052 23:-0.596928 24:0.101772 25:0.57568 26:-0.0378712 
-0.5 1:-0.246382 2:-0.195256 3:0.109759 4:-0.0355814 5:0.15021 6:-0.412297 7:-0.210569 8:-0.930189 9:-0.00743537 10:0.147914 11:0.125501 12:-0.392404 13:-0.618294 14:-0.530235 15:-0.326447 16:0.0690901 17:-0.21006 18:-0.00253507 19:-0.428993 20:-0.0875674 21:0.173735 22:0.297056 23:-0.623498 24:-0.450439 25:0.475113 26:-0.202451 
-0.5 1:0.0182093 2:-0.527591 3:-0.455743 4:0.122539 5:0.26181 6:-0.138429 7:0.249913 8:-0.23882 9:-0.763299 10:1 11:0.0552378 12:-0.638618 13:-0.534665 14:-0.692406 15:0.409461 16:-0.0193467 17:-0.172902 18:0.144142 19:-0.48984 20:-0.449835 21:0.535089 22:0.553375 23:0.0401754 24:-0.741332 25:-0.263039 26:0.615666 
-0.5 1:-0.498133 2:0.623637 3:-0.159351 4:-0.530518 5:-0.408052 6:-0.690531 7:-0.760319 8:-0.681371 9:-0.0588681 10:-0.557452 11:-0.126407 12:-0.685836 13:-0.380316 14:-0.0533394 15:-0.905124 16:-0.204517 17:-0.473539 18:-0.152861 19:-0.499251 20:-0.228162 21:-0.401911 22:-0.553903 23:-0.789417 24:-0.19871 25:-0.475662 26:-0.569125 
-0.44381880870637624 1:0.301776 2:0.0321799 3:0.00438556 4:-0.0211061 5:0.0439737 6:-0.995394 7:-0.138458 8:-0.802102 9:-0.202981 10:0.282087 11:0.790615 12:0.126385 13:-0.212154 14:0.280055 15:-0.189558 16:0.561551 17:-0.00372575 18:0.312326 19:0.0656636 20:0.433414 21:0.155678 22:-0.779132 23:-0.183303 24:-0.0593132 25:-0.167742 26:0.476787 
-0.5 1:0.0324864 2:0.105285 3:-0.046157 4:-0.0794195 5:-0.103496 6:-0.352256 7:0.100257 8:-0.314361 9:-0.0603503 10:0.0849356 11:0.394748 12:-0.625364 13:-0.118402 14:0.597747 15:-0.712132 16:0.118312 17:0.245626 18:-0.0391625 19:-0.115899 20:0.415502 21:-0.320667 22:-0.853926 23:0.12886 24:-0.743319 25:-0.483882 26:0.0231387 
-0.5 1:0.195747 2:-0.0812452 3:-0.148775 4:-0.0372901 5:-0.0280684 6:-0.359843 7:0.0271141 8:-0.52941 9:-0.462567 10:0.0563166 11:0.199949 12:-0.233471 13:-0.117664 14:0.0305514 15:-0.449246 16:-0.06995 17:0.0281709 18:0.401728 19:-0.319765 20:0.26984 21:0.060605 22:-0.108352 23:0.035182 24:-0.173066 25:0.0393528 26:-0.0421983 
-0.37071544438478465 1:0.257982 2:-0.280341 3:-0.133211 4:-0.0426697 5:0.165152 6:-0.368938 7:-0.0525918 8:-0.384795 9:-0.417674 10:-0.117574 11:0.563081 12:-0.019281 13:-0.237955 14:-0.281694 15:0.0169158 16:-0.129847 17:-0.0022687 18:-0.0272154 19:-0.287251 20:-0.15536 21:0.698084 22:0.24325 23:-0.146685 24:-0.2418 25:0.421032 26:0.103152 
-0.5 1:-0.0150856 2:-1 3:-0.728951 4:0.670033 5:0.514599 6:0.0221687 7:0.438916 8:-0.337449 9:-0.397238 10:-0.509837 11:-0.896714 12:-0.743633 13:-0.340817 14:-1 15:-0.125917 16:0.27207 17:-0.188805 18:0.176309 19:-0.680859 20:-0.324673 21:-0.00798314 22:-0.0193228 23:-0.0887891 24:0.0257273 25:0.208963 26:-0.326289 
-0.5 1:0.0596307 2:-0.273735 3:0.0110058 4:0.151649 5:-0.231857 6:-0.797395 7:-0.0754224 8:-0.108587 9:0.0405736 10:-0.644858 11:0.183353 12:-0.46659 13:-0.694008 14:-0.362327 15:0.261054 16:0.248126 17:-0.398957 18:-0.149751 19:-0.890555 20:-0.443309 21:-0.17015 22:-0.0972859 23:-0.220226 24:-0.253795 25:-0.0554268 26:0.214301 
-0.30383699476147347 1:0.548704 2:-0.360725 3:-0.500792 4:0.157622 5:-0.123979 6:-0.294573 7:-0.293799 8:0.876803 9:-0.0557515 10:-0.32373 11:-0.179276 12:-0.34409 13:-0.57223 14:-0.240295 15:0.280879 16:-0.372935 17:-0.00523584 18:0.402332 19:-0.3062 20:0.314245 21:-0.296322 22:0.00115555 23:-0.611044 24:-0.254727 25:-0.443425 26:-0.00536225 
-0.5 1:0.170905 2:-0.0162939 3:0.0279741 4:0.0379283 5:-0.0973011 6:-0.440577 7:-0.210605 8:-0.269666 9:-0.357884 10:-0.424457 11:0.0270372 12:-0.546394 13:0.213641 14:0.00896916 15:0.123599 16:0.0278111 17:-0.00843472 18:0.496325 19:-0.239837 20:0.259484 21:0.161107 22:-0.594286 23:-0.561859 24:-0.496821 25:-0.201921 26:0.137568 
-0.5 1:0.709516 2:-0.347225 3:-0.268637 4:0.375708 5:-0.136431 6:-0.197218 7:0.0248556 8:-0.0147105 9:-0.459137 10:-0.0926343 11:0.0365292 12:0.0604778 13:-0.604639 14:-0.209171 15:-0.0164645 16:0.247541 17:0.0402564 18:1 19:-0.476273 20:-0.0147587 21:-0.40223 22:0.109078 23:-0.0096264 24:-0.368335 25:-0.359328 26:0.449768 
-0.5 1:0.144685 2:-0.0209506 3:-0.092108 4:0.0584231 5:-0.400405 6:-0.25574 7:0.103034 8:-0.267275 9:-0.524845 10:-0.0472967 11:0.41952 12:-0.266975 13:-0.136435 14:0.137661 15:-0.526613 16:0.0343894 17:0.0211027 18:0.47911 19:-0.0341173 20:-0.0263956 21:-0.445328 22:-0.338961 23:-0.281959 24:-0.714716 25:-0.0187274 26:-0.143673 
-0.023252895356289032 1:0.0857212 2:-0.125663 3:-0.150736 4:-0.192716 5:-0.256933 6:-0.164169 7:-0.0952476 8:0.687984 9:0.0877542 10:-0.0146864 11:0.118898 12:-0.762066 13:-0.446934 14:-0.0272117 15:-0.337717 16:0.0885099 17:-0.0396497 18:0.0694897 19:-0.165859 20:0.131283 21:-0.17543 22:-0.208634 23:-0.750776 24:-0.55679 25:-0.196025 26:0.404647 
-0.19966359971721417 1:0.00114759 2:0.105874 3:-0.362078 4:-0.248852 5:-0.380496 6:-0.344345 7:0.0585832 8:0.138188 9:-0.558039 10:-0.265828 11:0.151447 12:-0.796709 13:-0.57807 14:-0.0150831 15:-0.110741 16:-0.175308 17:0.189282 18:-0.278088 19:-0.229075 20:-0.177845 21:-0.305559 22:-0.0683746 23:-0.287581 24:-0.820878 25:-0.470607 26:0.238583 
-0.5 1:0.0200678 2:-0.700245 3:-0.0940449 4:0.499722 5:0.714943 6:-0.691688 7:-0.227671 8:-0.671243 9:-0.566434 10:0.501405 11:-0.183234 12:-0.55621 13:-0.707572 14:-0.596189 15:-0.180608 16:0.395373 17:0.26481 18:0.12349 19:-0.264645 20:0.277073 21:0.259476 22:-0.170212 23:-0.613815 24:-0.207184 25:0.906517 26:-0.0836287 
-0.5 1:0.016847 2:0.147921 3:-0.25429 4:-0.38198 5:-0.33701 6:-0.0411483 7:0.0821773 8:-0.171072 9:-0.328257 10:-0.416883 11:0.0176344 12:-0.454901 13:-0.25957 14:-0.0502543 15:-0.250403 16:-0.331453 17:-0.31392 18:0.0501443 19:-0.417228 20:-0.121654 21:-0.464317 22:0.694947 23:-0.24361 24:-0.671977 25:-0.406728 26:-0.126613 
-0.4607899073972232 1:0.0119697 2:-0.00424867 3:-0.143596 4:0.132694 5:-0.262305 6:-0.790959 7:0.0301766 8:-0.0992336 9:0.20006 10:-0.431 11:0.994231 12:-0.75907 13:-0.456323 14:0.263234 15:-0.0331171 16:-0.113883 17:1 18:0.200813 19:-0.368753 20:-0.255478 21:-0.711818 22:-0.252801 23:0.0607572 24:-1 25:-0.430192 26:0.79185 
-0.5 1:-0.278466 2:0.428171 3:0.125091 4:-0.00790157 5:-0.291395 6:-0.38496 7:-0.123096 8:-0.497241 9:-0.532617 10:-0.470784 11:0.201956 12:-0.59433 13:-0.718672 14:-0.277673 15:-0.259009 16:0.257033 17:-0.335501 18:-0.00605216 19:-0.408253 20:-0.348265 21:0.00221589 22:-0.34169 23:-0.53312 24:-0.500688 25:0.0364933 26:-0.287595 
-0.5 1:0.19215 2:-0.111912 3:0.000477838 4:-0.00673433 5:-0.0162784 6:-0.217646 7:0.0142552 8:0.0194922 9:-0.361223 10:-0.262653 11:0.165403 12:-0.262421 13:-0.589424 14:-0.0158764 15:-0.321909 16:-0.0127032 17:-0.0999682 18:0.263875 19:-0.46474 20:-0.10467 21:0.244772 22:0.0133244 23:-0.318717 24:-0.616099 25:0.291226 26:0.448739 
-0.5 1:0.534415 2:-0.53605 3:-0.37725 4:0.480977 5:0.478379 6:-0.619791 7:-0.134022 8:0.123474 9:-0.558273 10:-0.149404 11:0.0305283 12:-0.0746281 13:-0.81352 14:-0.272539 15:0.106976 16:-0.191968 17:0.0357155 18:0.0207726 19:-0.135893 20:0.301923 21:0.179263 22:-0.436056 23:-0.228024 24:-0.5781 25:-0.0300062 26:0.357488 
-0.1885656045369998 1:0.347132 2:-0.207121 3:0.0744845 4:0.215744 5:0.262396 6:-0.820101 7:-0.298309 8:-0.297794 9:-0.176532 10:0.0587186 11:0.996012 12:-0.241486 13:-0.469063 14:0.0159584 15:-0.294942 16:-0.141973 17:-0.0732392 18:0.525597 19:0.139431 20:0.870378 21:0.738782 22:0.0610937 23:-0.317541 24:-0.282755 25:0.857084 26:-0.414397 
-0.5 1:-0.336287 2:0.739255 3:-0.658258 4:-0.906367 5:-0.3924 6:-0.154154 7:-0.184914 8:-0.264757 9:-0.66218 10:-0.633529 11:-0.328343 12:-0.852629 13:-0.799896 14:-0.183076 15:-0.395362 16:-1 17:-0.65951 18:-0.702598 19:-0.0757246 20:-0.624813 21:-0.356919 22:-0.475923 23:-0.244417 24:-0.897556 25:-0.637486 26:-0.460046 
-0.5 1:0.145552 2:-0.0280627 3:0.0942961 4:0.162144 5:0.0142234 6:-0.513036 7:-0.160576 8:-0.426126 9:-0.427023 10:-0.0801265 11:0.392841 12:-0.108084 13:-0.247337 14:0.037072 15:-0.657777 16:0.295565 17:-0.00411853 18:0.302719 19:-0.22469 20:0.134793 21:0.126784 22:-0.15517 23:-0.46671 24:-0.422252 25:0.432979 26:-0.1632 
-0.5 1:-0.853348 2:0.0727794 3:0.314549 4:-0.416569 5:-0.273123 6:0.116711 7:0.6439 8:-0.628051 9:-0.55303 10:-0.816912 11:-0.557248 12:-1 13:-0.565338 14:-0.472145 15:-1 16:-0.232254 17:-0.66787 18:-0.486231 19:-0.690761 20:-0.267821 21:-0.434064 22:-0.0260751 23:0.00730618 24:-0.622667 25:-0.248489 26:-0.651238 
-0.5 1:0.0393054 2:-0.112523 3:-0.557476 4:-0.15399 5:-0.164257 6:-0.347844 7:0.127732 8:-0.171757 9:-0.319318 10:-0.171978 11:0.194814 12:-0.68415 13:-0.670743 14:-0.0600661 15:-0.361665 16:-0.370376 17:0.0654132 18:-0.21974 19:-0.346383 20:0.185824 21:-0.201644 22:-0.361585 23:0.0175625 24:-0.737639 25:-0.339033 26:0.440988 
-0.5 1:0.574056 2:-0.382852 3:-0.116427 4:0.186172 5:-0.0760707 6:-0.192672 7:0.0680807 8:0.0420748 9:-0.528233 10:0.204024 11:0.315185 12:-0.206863 13:-0.196591 14:-0.359462 15:-0.404147 16:0.318624 17:-0.113463 18:0.549979 19:-0.290046 20:0.145099 21:-0.185502 22:0.134802 23:-0.36808 24:-0.52136 25:-0.113669 26:0.241669 
-0.41405206430190789 1:0.351252 2:-0.426279 3:-0.367702 4:0.115933 5:-0.0418455 6:-0.0967131 7:0.1538 8:0.589175 9:-0.334593 10:-0.304242 11:0.0953405 12:-0.479749 13:-0.331735 14:-0.488886 15:0.119933 16:0.153462 17:-0.171953 18:0.248049 19:-0.28504 20:0.336029 21:0.0496203 22:-0.0367728 23:0.227111 24:-0.566975 25:0.00086679 26:-0.0183209 
-0.5 1:0.23619 2:-0.242401 3:0.260609 4:0.0666156 5:-0.0114621 6:-0.333322 7:0.112797 8:-0.247473 9:-0.525963 10:0.199058 11:-0.112248 12:0.162296 13:-0.54168 14:-0.172018 15:-0.00700977 16:0.620341 17:0.0994127 18:0.0267062 19:-0.350478 20:-0.206276 21:-0.0164317 22:-0.123898 23:-0.565652 24:-0.528963 25:-0.0187448 26:0.276024 
-0.055821981028962547 1:-0.0834781 2:0.0656836 3:0.105825 4:0.0532427 5:-0.0898766 6:-0.667217 7:-0.219856 8:-0.385159 9:-0.311112 10:0.0291276 11:0.513564 12:-0.60989 13:-0.182288 14:0.207113 15:-0.283482 16:0.314402 17:-0.0105157 18:0.530515 19:-0.233696 20:-0.153019 21:-0.0616118 22:-0.0889965 23:-0.0405903 24:-0.298446 25:0.456038 26:0.288613 
-0.4276929277309317 1:0.166099 2:-0.111571 3:0.0437761 4:-0.00333862 5:-0.070574 6:-0.642931 7:6.4802e-05 8:-0.429611 9:-0.268995 10:-0.0979777 11:0.364389 12:-0.35363 13:-0.363803 14:0.102247 15:-0.236904 16:0.393268 17:-0.0818579 18:0.260388 19:-0.238765 20:0.30042 21:0.0606596 22:-0.0237392 23:0.0587547 24:-0.516934 25:0.136965 26:-0.0447638 
-0.5 1:-0.430948 2:-0.124526 3:0.527369 4:-0.145687 5:-0.0970884 6:-0.368662 7:-0.216356 8:-0.563568 9:-0.641707 10:-0.03412 11:-0.0850657 12:-0.774102 13:-0.515015 14:-0.319509 15:-0.432346 16:0.614412 17:-0.243163 18:-0.0711112 19:-0.509241 20:-0.24548 21:-0.00855951 22:-0.0480332 23:-0.606971 24:0.05624 25:0.43594 26:-0.268138 
-0.5 1:-0.0870279 2:-0.648391 3:-0.191998 4:-0.504985 5:-0.242694 6:0.693764 7:0.988489 8:-0.547379 9:-0.779401 10:0.496542 11:-0.668967 12:-0.899674 13:-0.538358 14:-0.966178 15:-0.0634324 16:0.0165552 17:-0.139293 18:-0.238613 19:-0.51975 20:-0.340802 21:-0.390928 22:-0.472337 23:0.0745289 24:-0.178591 25:0.728022 26:-0.017959 
-0.5 1:-0.123066 2:-0.301472 3:0.305462 4:-0.0664837 5:0.401099 6:-0.496025 7:-0.107811 8:-0.446749 9:-0.497006 10:-0.090318 11:0.53604 12:-0.691906 13:-0.440072 14:-0.347266 15:-0.186786 16:0.336597 17:-0.176324 18:-0.0589565 19:-0.311103 20:0.00338067 21:0.549651 22:0.285028 23:-0.195354 24:-0.334226 25:0.677585 26:-0.0932483 
-0.5 1:-0.109668 2:-0.166361 3:-0.117494 4:0.0154409 5:0.0912524 6:-0.43006 7:-0.218444 8:-0.698645 9:0.0221305 10:-0.145371 11:0.389604 12:-0.462077 13:-0.470434 14:-0.200524 15:0.0570691 16:0.609082 17:0.0754944 18:0.473335 19:-0.503681 20:-0.246047 21:0.253255 22:0.672259 23:-0.263342 24:-0.57973 25:0.780078 26:-0.0621076 
-0.31880810359185741 1:0.0424805 2:-0.280983 3:0.167041 4:-0.0405254 5:0.129661 6:-0.472657 7:-0.221974 8:0.493146 9:-0.762503 10:0.610516 11:0.816777 12:-0.916783 13:-0.255149 14:-0.211816 15:0.0467763 16:0.823328 17:-0.146525 18:0.360344 19:-0.508619 20:-0.148661 21:0.466433 22:-0.310724 23:-0.512843 24:0.0997842 25:0.597011 26:-0.128736 
-0.5 1:0.25071 2:-0.00966835 3:0.326222 4:0.240254 5:0.032738 6:-0.548479 7:-0.276699 8:-0.643339 9:-0.360171 10:-0.0294203 11:0.144129 12:-0.153287 13:-0.50625 14:-0.226055 15:-0.765505 16:0.597424 17:-0.38172 18:0.25244 19:-0.0953854 20:0.297547 21:-0.0621748 22:-0.18738 23:-0.366469 24:-0.171839 25:0.147366 26:-0.343522 
-0.5 1:0.51148 2:-0.572826 3:-0.564016 4:0.176496 5:0.383861 6:-0.41236 7:0.0937354 8:0.415417 9:-0.734279 10:-0.0627874 11:-0.270971 12:-0.626456 13:-0.788627 14:-0.559341 15:0.478939 16:-0.00989628 17:0.462454 18:0.34653 19:-0.578713 20:0.196311 21:0.391858 22:-0.0533142 23:-0.23185 24:-0.356302 25:0.135344 26:0.376725 
-0.5 1:-0.125022 2:0.62572 3:0.04909 4:-0.905772 5:-0.448684 6:-0.148968 7:-0.442745 8:0.0839198 9:-0.393105 10:-0.74768 11:-0.181668 12:-0.40825 13:-0.851592 14:-0.107278 15:-0.324718 16:-0.455292 17:-0.864506 18:-1 19:0.60748 20:-0.379343 21:-0.324619 22:0.155007 23:-0.79562 24:-0.536731 25:0.0476403 26:-0.740357 
-0.5 1:0.163747 2:0.00371359 3:0.0484274 4:-0.19673 5:-0.0713705 6:-0.506045 7:-0.0667282 8:-0.457095 9:-0.231054 10:0.0773899 11:0.264772 12:-0.0624545 13:-0.329324 14:0.144796 15:-0.224703 16:0.12642 17:-0.0700115 18:0.168388 19:-0.220222 20:0.0521176 21:0.268043 22:-0.130807 23:-0.494546 24:-0.28725 25:0.148156 26:-0.00166937 
-0.5 1:0.236357 2:-0.0489342 3:0.435129 4:-0.390428 5:-0.231313 6:-0.469593 7:-0.363695 8:-0.904549 9:0.0421758 10:-0.0618679 11:-0.37587 12:-0.49258 13:-0.00715728 14:-0.190036 15:-0.435793 16:1 17:0.263676 18:-0.455976 19:1 20:-0.144731 21:-0.437027 22:-0.387528 23:-0.715759 24:-0.535291 25:0.0659236 26:0.785662 
-0.5 1:0.478522 2:-0.388655 3:-0.612692 4:0.328423 5:-0.0148398 6:-0.291597 7:-0.0903082 8:-0.206516 9:-0.493221 10:-0.66189 11:-0.295504 12:-0.185257 13:-0.28649 14:-0.448529 15:0.672278 16:-0.0217984 17:-0.256168 18:0.276972 19:0.0287805 20:0.313353 21:-0.63036 22:-0.108086 23:-0.479533 24:-0.634727 25:-0.289142 26:0.171064 
-0.5 1:-0.619703 2:-0.0578412 3:0.489622 4:-0.334824 5:-0.586569 6:0.697521 7:0.489381 8:-0.890827 9:-0.749543 10:-0.587709 11:-0.577018 12:-0.33452 13:-0.960022 14:-0.845129 15:-0.771148 16:0.318603 17:-0.405223 18:-0.708933 19:-0.675269 20:-0.43279 21:-0.682531 22:-0.241861 23:-0.639093 24:-0.363163 25:-0.477811 26:-0.579677 
-0.5 1:0.00250649 2:-0.0910378 3:-0.0328567 4:-0.255853 5:-0.0831208 6:-0.473026 7:-0.153605 8:-0.521007 9:-0.138775 10:0.257578 11:0.481005 12:-0.433012 13:-0.224896 14:-0.338498 15:-0.466044 16:-0.306303 17:-0.365883 18:-0.246241 19:-0.0684811 20:0.0160865 21:0.185489 22:-0.108843 23:-0.248314 24:-0.326788 25:0.297137 26:-0.213008 
-0.043669063934503198 1:0.218011 2:-0.246844 3:-0.594054 4:0.00344891 5:-0.332259 6:-0.230759 7:0.0800103 8:0.0955205 9:-0.072555 10:-0.402084 11:-0.105333 12:-0.623138 13:-0.391969 14:-0.0432118 15:0.176919 16:-0.826037 17:0.544717 18:0.301119 19:0.0690835 20:0.78756 21:-0.26246 22:-0.135947 23:-0.423318 24:-0.827688 25:-0.2738 26:0.511345 
-0.5 1:0.180631 2:-0.265649 3:-0.187434 4:0.507606 5:0.248526 6:-0.606532 7:-0.105393 8:-0.402465 9:-0.471094 10:-0.687659 11:-0.00839482 12:-0.602588 13:-0.441697 14:-0.175869 15:-0.188698 16:0.0596785 17:-0.0401981 18:0.396505 19:-0.549862 20:0.0951001 21:0.165946 22:0.30633 23:-0.243023 24:-0.537473 25:-0.0397087 26:0.178175 
-0.49363269481670097 1:0.510008 2:-0.217449 3:-0.193751 4:-0.37543 5:-0.431915 6:-0.238355 7:0.170119 8:0.510155 9:-0.0492958 10:-0.474776 11:-0.128957 12:-0.115788 13:-0.53137 14:-0.43449 15:0.429934 16:0.259438 17:0.0167266 18:-0.173677 19:-0.25183 20:-0.0030453 21:-0.404326 22:-0.0869245 23:0.659571 24:-0.840307 25:-0.581678 26:0.330839 
-0.5 1:0.0820725 2:-0.200084 3:0.0166885 4:-0.0700745 5:-0.0271207 6:-0.460382 7:-0.0177616 8:-0.313477 9:-0.160785 10:0.000163592 11:0.111607 12:-0.504697 13:-0.314928 14:-0.112396 15:-0.0112603 16:-0.0567291 17:-0.100719 18:0.162984 19:-0.24497 20:-0.0562538 21:0.140166 22:0.0881079 23:-0.157828 24:-0.524033 25:0.313706 26:-0.061278 
-0.5 1:0.34899 2:-0.647513 3:-0.304338 4:0.0661132 5:-0.085261 6:-0.135322 7:0.802362 8:-0.559113 9:-0.580874 10:-0.333424 11:-0.445028 12:0.194841 13:-0.0419379 14:-0.735418 15:-0.71986 16:-0.265469 17:-0.00168857 18:-0.421775 19:-0.209026 20:0.26064 21:-0.383442 22:-0.0921966 23:0.540555 24:-0.455164 25:-0.242441 26:0.244275 
-0.18138059010837124 1:0.410192 2:-0.210496 3:-0.419577 4:0.0274622 5:-0.106699 6:-0.202132 7:0.11574 8:-0.119681 9:-0.744765 10:0.0553131 11:0.626745 12:-0.286564 13:-0.537256 14:-0.176828 15:0.544313 16:0.169902 17:0.127145 18:0.324606 19:-0.727915 20:-0.0213929 21:-0.327767 22:-0.187417 23:0.557951 24:-0.447283 25:-0.017358 26:0.0613077 
-0.5 1:-0.16511 2:0.167387 3:-0.320691 4:-0.0187065 5:-0.128755 6:-0.311252 7:-0.0273747 8:-0.387123 9:-0.397666 10:-0.326302 11:0.207833 12:-0.578954 13:-0.170895 14:0.0107504 15:-0.470985 16:-0.0731018 17:-0.285799 18:0.207065 19:0.0262224 20:-0.136218 21:-0.0043454 22:-0.324059 23:-0.0137766 24:-0.694488 25:0.112265 26:-0.213891 
-0.14347446787628612 1:0.526327 2:-0.185874 3:-0.247966 4:0.178131 5:-0.441682 6:-0.512997 7:-0.125038 8:0.0894002 9:-0.278505 10:-0.892394 11:0.241743 12:-0.271606 13:-0.483151 14:-0.188019 15:0.332591 16:-0.0260498 17:-0.164104 18:0.517585 19:-0.651117 20:0.132706 21:-0.546772 22:0.0625987 23:-0.22924 24:-0.470784 25:-0.613759 26:0.220846 
-0.26278937395522184 1:0.0170318 2:0.00209746 3:-0.263131 4:0.0939617 5:-0.167003 6:-0.54448 7:-0.14219 8:-0.0149636 9:-0.243189 10:-0.217499 11:0.67571 12:-0.779863 13:-0.402339 14:-0.00600318 15:0.0782286 16:-0.0549916 17:-0.107333 18:0.561559 19:-0.478103 20:-0.431277 21:-0.346875 22:0.157131 23:-0.0625609 24:-0.237355 25:-0.152272 26:-0.10151 
-0.5 1:0.230891 2:-0.281506 3:0.131145 4:0.163563 5:0.285236 6:-0.623031 7:-0.15596 8:-0.65732 9:-0.387469 10:-0.0265323 11:-0.115384 12:-0.289293 13:-0.304193 14:-0.10456 15:-0.0528673 16:0.333061 17:-0.195617 18:0.174368 19:-0.462028 20:-0.13922 21:0.450066 22:0.402943 23:0.0929721 24:-0.303114 25:0.518127 26:-0.0377708 
-0.5 1:0.263987 2:-0.262721 3:0.0204743 4:-0.0701312 5:-0.0237966 6:-0.252692 7:-0.148399 8:-0.522037 9:-0.204244 10:0.171819 11:0.0817918 12:-0.343235 13:-0.256076 14:-0.270602 15:-0.308434 16:0.00324334 17:-0.0477941 18:0.0216608 19:-0.26308 20:-0.0315455 21:0.0339642 22:0.162657 23:-0.308788 24:-0.665491 25:-0.077608 26:0.228572 
-0.5 1:0.193047 2:-0.255041 3:-0.376488 4:0.0919525 5:0.197453 6:-0.351646 7:0.0265367 8:0.434828 9:-0.38449 10:0.0456275 11:-0.1678 12:-0.670906 13:-0.331312 14:-0.195162 15:0.114849 16:-0.232969 17:0.235208 18:0.159354 19:-0.373327 20:-0.104492 21:0.117789 22:-0.544092 23:0.0116172 24:-0.6077 25:-0.00463642 26:0.0940605 
-0.5 1:-0.00213952 2:0.335334 3:-0.0932421 4:-0.126751 5:-0.457422 6:-0.0997047 7:-0.0934001 8:-0.221832 9:-0.063025 10:-0.137273 11:0.593536 12:0.0178262 13:0.0978893 14:0.522284 15:-0.694866 16:0.163656 17:0.0756231 18:0.370213 19:-0.126535 20:0.0367781 21:-0.518998 22:-0.764618 23:-0.0962173 24:-0.78339 25:-0.402592 26:-0.113546 
-0.5 1:0.132807 2:0.10978 3:-0.55888 4:-0.22291 5:-0.501249 6:-0.340611 7:-0.147318 8:-0.0972871 9:-0.467944 10:-0.385009 11:0.0289788 12:-0.45872 13:-0.028265 14:0.0677111 15:-0.425029 16:-0.517163 17:-0.131449 18:-0.0405751 19:-0.0495101 20:-0.107966 21:-0.709289 22:0.006371 23:-0.554614 24:-0.943761 25:-0.695821 26:0.458136 
-0.5 1:0.307075 2:-0.216943 3:-0.0662473 4:0.0310184 5:0.151293 6:-0.609365 7:-0.0207674 8:0.217898 9:-0.421402 10:-0.192667 11:0.367974 12:-0.0262929 13:-0.306281 14:-0.319946 15:-0.250869 16:0.062075 17:-0.166935 18:0.288883 19:-0.71062 20:0.0325022 21:-0.0689207 22:0.0625088 23:0.220984 24:-0.321392 25:0.437846 26:-0.24687 
-0.5 1:-0.200393 2:0.549273 3:0.0996476 4:-0.543353 5:-0.217775 6:-0.51134 7:-0.338814 8:-0.800727 9:-0.782694 10:-0.275474 11:0.979335 12:-0.647656 13:-0.605495 14:-0.0615363 15:-0.398633 16:-0.168304 17:-0.361194 18:-0.597779 19:0.0232489 20:-0.588324 21:-0.0841152 22:0.146369 23:-0.461023 24:0.00216785 25:0.261455 26:-0.486956 
-0.5 1:0.102502 2:-0.0497315 3:-0.0910101 4:0.215769 5:-0.0653994 6:-0.252678 7:-0.158582 8:-0.482319 9:-0.142081 10:-0.319156 11:0.00418617 12:-0.512353 13:-0.439826 14:0.225192 15:-0.213057 16:-0.08831 17:0.0466708 18:0.394263 19:-0.228236 20:0.249522 21:-0.186859 22:-0.277607 23:-0.252254 24:-0.659265 25:-0.224733 26:-0.196437 
-0.5 1:0.225825 2:-0.338763 3:-0.265292 4:0.359105 5:0.311027 6:-0.372129 7:-0.0179162 8:-0.348762 9:-0.331127 10:-0.178671 11:-0.0256788 12:-0.466308 13:-0.350415 14:-0.189614 15:-0.290762 16:0.00741333 17:0.124788 18:0.402813 19:-0.36859 20:0.0521173 21:0.257821 22:-0.364487 23:-0.00400061 24:-0.418317 25:0.0570119 26:-0.0734857 
-0.5 1:-0.25203 2:0.12498 3:0.247888 4:0.394431 5:0.433511 6:-0.740156 7:-0.548566 8:-0.452643 9:-0.558375 10:0.284357 11:0.508427 12:-0.27633 13:-0.412086 14:0.065516 15:-0.597211 16:0.136431 17:0.12921 18:-0.137675 19:-0.28304 20:-0.320926 21:0.400697 22:-0.647576 23:-0.792591 24:-0.299909 25:0.984305 26:-0.22876 
-0.42194276364560152 1:0.359633 2:-0.244924 3:0.0797876 4:-0.277281 5:0.0611351 6:-0.445255 7:0.0178209 8:-0.119585 9:-0.479974 10:0.489437 11:0.211171 12:-0.476385 13:-0.807928 14:-0.340287 15:0.141036 16:0.113959 17:-0.318165 18:-0.122416 19:-0.69008 20:0.25811 21:0.301801 22:0.107401 23:-0.0349044 24:-0.264382 25:0.926993 26:0.0611194 
-0.5 1:0.0725149 2:0.122288 3:-0.240201 4:-0.13803 5:-0.163567 6:0.144765 7:0.0672171 8:-0.166366 9:-0.683161 10:-0.0450846 11:0.817245 12:-0.40843 13:-0.314924 14:0.0857998 15:-0.624093 16:-0.216734 17:-0.257791 18:0.273102 19:-0.260221 20:-0.319914 21:0.107355 22:0.282973 23:-0.279979 24:-0.654204 25:-0.472742 26:-0.11894 
-0.5 1:0.283008 2:-0.0896685 3:-0.190674 4:-0.134971 5:0.0777451 6:-0.345354 7:-0.177283 8:-0.68228 9:-0.399656 10:0.193927 11:0.490548 12:0.119724 13:-0.468701 14:-0.245121 15:-0.295923 16:0.155284 17:0.0249703 18:5.36526e-05 19:-0.382232 20:0.0759982 21:0.424273 22:-0.0255534 23:-0.373229 24:-0.299321 25:0.474123 26:-0.0202385 
-0.5 1:0.269818 2:-0.137724 3:-0.549173 4:0.046378 5:-0.247544 6:0.160358 7:0.232236 8:0.649094 9:-0.385155 10:0.163125 11:0.233884 12:-0.672298 13:-0.176924 14:-0.239327 15:-0.311426 16:-0.145777 17:0.0165368 18:0.00255429 19:-0.699853 20:-0.0984501 21:-0.464869 22:-0.727762 23:0.493943 24:-0.622051 25:-0.254035 26:0.0265445 
-0.5 1:0.471979 2:-0.53524 3:-0.334479 4:-0.0289764 5:-0.20604 6:0.0386201 7:0.361658 8:0.139576 9:-0.309438 10:-0.410808 11:-0.189725 12:-0.236742 13:-0.788514 14:-0.457573 15:-0.0138225 16:-0.628051 17:-0.0203792 18:0.567444 19:0.16393 20:0.466674 21:-0.346263 22:-0.49138 23:0.148538 24:-0.787639 25:-0.0666522 26:-0.329534 
-0.19390056678881623 1:0.353907 2:-0.113545 3:-0.247209 4:0.173668 5:-0.111397 6:-0.42477 7:-0.140328 8:-0.211809 9:-0.500392 10:-0.32221 11:0.0272967 12:-0.148586 13:-0.312952 14:0.119279 15:-0.0952963 16:0.165645 17:0.0955382 18:0.54747 19:-0.375337 20:0.653451 21:-0.172503 22:-0.0121705 23:-0.588905 24:-0.462835 25:-0.110482 26:0.367029 
-0.32303425948353098 1:0.0920741 2:0.2161 3:-0.778683 4:0.033573 5:-0.35135 6:-0.57066 7:-0.193058 8:0.134626 9:-0.569252 10:-0.516267 11:0.0878306 12:-0.331946 13:-0.650595 14:0.664558 15:-0.289704 16:-0.41582 17:0.490993 18:0.112425 19:0.151329 20:-0.0503566 21:-0.523864 22:0.0496189 23:-0.812466 24:-0.936466 25:-0.125583 26:0.987629 
-0.5 1:0.153904 2:0.0334837 3:-0.245491 4:-0.101764 5:-0.209638 6:-0.350804 7:-0.0660651 8:-0.265849 9:-0.437767 10:-0.229979 11:0.246658 12:-0.216868 13:-0.33768 14:0.0257546 15:-0.365259 16:0.0158442 17:-0.180335 18:-0.14193 19:0.00726684 20:-0.198988 21:-0.11487 22:-0.105153 23:-0.189663 24:-0.299526 25:0.153153 26:0.00678525 
-0.5 1:-0.336861 2:0.110594 3:-0.100416 4:-0.194179 5:-0.227123 6:-0.0573348 7:0.368485 8:-0.292977 9:-0.71401 10:0.131618 11:0.285882 12:-0.898733 13:-0.443365 14:-0.331718 15:-0.305926 16:0.106743 17:-0.27318 18:-0.263822 19:-0.402889 20:-0.297053 21:0.102835 22:0.188563 23:0.00103042 24:-0.573173 25:0.322456 26:-0.284729 
-0.5 1:-0.265366 2:-0.279553 3:0.532111 4:0.0523836 5:0.0104404 6:-0.358792 7:0.0325782 8:-0.559971 9:-0.381158 10:-0.291709 11:-0.049343 12:-0.32331 13:-0.460636 14:-0.565089 15:-0.368239 16:0.894221 17:-0.359335 18:-0.207508 19:-0.714458 20:-0.396142 21:-0.13315 22:0.0951833 23:-0.227593 24:0.171635 25:0.568788 26:-0.0258321 
-0.5 1:0.14953 2:-0.177052 3:-0.0106383 4:0.154322 5:-0.00166215 6:-0.564705 7:-0.223927 8:-0.419905 9:-0.0795012 10:-0.41372 11:0.0229884 12:-0.62663 13:-0.0324541 14:0.503687 15:-0.653666 16:0.376869 17:0.257028 18:0.424385 19:0.602477 20:-0.392589 21:0.206689 22:-0.154245 23:-0.00138029 24:-0.619312 25:-0.377455 26:0.585172 
-0.5 1:0.168211 2:-0.405914 3:0.162462 4:-0.356642 5:-0.342106 6:-0.277234 7:0.0450495 8:0.0568492 9:0.447571 10:-0.0928516 11:-0.481464 12:-0.577281 13:-0.613481 14:-0.778982 15:0.819186 16:0.586903 17:-0.0711747 18:-0.398086 19:-0.0404276 20:-0.392627 21:-0.235406 22:-0.0268303 23:0.263132 24:-0.744763 25:0.00980732 26:0.0086897 
-0.5 1:-0.120413 2:0.318944 3:0.246086 4:-0.0510445 5:-0.261475 6:-0.494713 7:-0.192726 8:-0.55424 9:-0.102474 10:-0.0391687 11:0.531562 12:-0.463105 13:0.0139306 14:0.5302 15:-0.659306 16:-0.144292 17:-0.062226 18:0.435759 19:0.0988917 20:0.0830873 21:-0.118292 22:-0.758776 23:-0.311546 24:-0.764825 25:-0.140062 26:-0.191055 
-0.40382317288770658 1:0.196605 2:-0.077421 3:-0.62739 4:-0.0293283 5:-0.250435 6:-0.279864 7:0.200156 8:1 9:0.0217708 10:-0.395198 11:0.0083714 12:-0.608297 13:-0.55891 14:0.270657 15:-0.157647 16:-0.713346 17:-0.170268 18:0.170361 19:-0.180959 20:0.0539038 21:0.248535 22:-0.492575 23:0.254945 24:-0.772791 25:-0.303469 26:0.14361 
-0.5 1:0.387231 2:-0.539628 3:-0.28648 4:0.18841 5:0.367106 6:-0.433673 7:-0.134333 8:-0.110457 9:-0.576482 10:-0.261042 11:-0.558808 12:-0.320545 13:-0.558373 14:-0.614885 15:0.138802 16:-0.356089 17:0.201894 18:-0.314733 19:-0.76314 20:0.126064 21:0.257343 22:-0.0851164 23:-0.277558 24:0.0746114 25:0.263304 26:0.0360492 
-0.5 1:0.367367 2:-0.340804 3:0.137024 4:0.136686 5:-0.013657 6:-1 7:-0.424213 8:-0.142669 9:0.263226 10:-0.256088 11:-0.591895 12:-0.384123 13:-0.514521 14:-0.530121 15:0.0283473 16:0.420077 17:-0.15614 18:0.323725 19:0.48068 20:-0.060106 21:-0.077838 22:-0.250084 23:-0.559806 24:-0.501122 25:0.225414 26:0.0374159 
-0.5 1:-0.6283 2:0.00567397 3:0.565924 4:-0.396096 5:-0.598791 6:0.696281 7:0.375053 8:-0.836788 9:-0.754018 10:-0.497893 11:-0.439768 12:-0.659043 13:-0.93822 14:-0.710159 15:-0.774225 16:0.170657 17:-0.353243 18:-0.572672 19:-0.712061 20:-0.307509 21:-0.720257 22:-0.12976 23:-0.65814 24:-0.399505 25:-0.583079 26:-0.480409 
-0.5 1:0.186977 2:0.004167 3:0.242185 4:0.191651 5:0.199833 6:-0.585808 7:-0.128418 8:-0.691444 9:-0.61101 10:0.0829157 11:0.291744 12:-0.151237 13:-0.0602377 14:0.305197 15:-0.506952 16:0.0372893 17:-0.270023 18:0.384482 19:-0.417832 20:-0.113482 21:0.211131 22:-0.409987 23:0.179974 24:0.583942 25:0.127116 26:-0.302141 
-0.5 1:0.342211 2:-0.350526 3:-0.301193 4:-0.109641 5:-0.155986 6:0.163943 7:0.444515 8:-0.354268 9:-0.463962 10:0.150332 11:0.446065 12:-0.206915 13:-0.647538 14:-0.497415 15:-0.104527 16:0.230767 17:-0.210461 18:0.177698 19:-0.533396 20:-0.442505 21:-0.125979 22:-0.426676 23:0.616305 24:0.206303 25:0.0419396 26:-0.0271613 
-0.5 1:0.0849657 2:-0.219841 3:0.0966656 4:0.212602 5:-0.207663 6:-0.637383 7:0.155337 8:0.00200352 9:0.222115 10:-0.937912 11:0.194884 12:-0.478546 13:-0.79171 14:-0.166723 15:-0.288813 16:0.62939 17:-0.369533 18:0.296305 19:-0.899608 20:-0.00366217 21:-0.162225 22:0.713104 23:-0.0861247 24:-0.331985 25:-0.148084 26:0.0092652 
-0.5 1:0.176435 2:-0.109317 3:-0.0198886 4:-0.101004 5:-0.0773322 6:-0.211913 7:0.0917494 8:-0.0649725 9:-0.224934 10:-0.290914 11:0.174547 12:-0.199923 13:-0.691051 14:-0.155749 15:0.0712824 16:0.0816949 17:-0.00219512 18:-0.0187693 19:-0.51231 20:0.0479849 21:-0.00847091 22:-0.164575 23:-0.166679 24:-0.445192 25:-0.0113853 26:0.0333244 
